9.421081007429618626e-02,-1.487725593744609331e-01,-4.980942366267067656e-01,2.705056449575474198e-01,-3.604337138325462986e-01,3.564578429662168535e-01,4.480600840600765800e-01,-3.060658877865944372e-01,1.324447945372252411e-01,-1.206096610641845153e-02,4.058798329168395447e-01,4.044834691312743646e-01,-1.700016475452777731e-01,4.274977180847179536e-02,1.419876502988993705e-01,-2.465858469946920206e-01,4.178555360979492594e-02,-2.128144681546460526e-01,-4.725160800740108719e-03,-3.064787731558494266e-01,2.871215410176989891e-01,-6.705468199630078285e-02,2.698033765455072897e-01,-2.249506961006262074e-01,-4.539957854236466583e-01,-1.401166106485851048e-01,-1.578721440645935448e-01,3.632049918398033150e-01,6.901033002614392897e-02,4.069425562008585073e-01,-2.657870299005816728e-01,-4.459908774794512087e-01,3.491356371797662561e-01,1.691317343072982482e-01,-2.901551631542795273e-01,4.185129038794216383e-02,3.219185171711051452e-01,8.363802762062705343e-02,3.017426481817112038e-01,2.589829855324262686e-01,-2.876895275979300948e-01,-7.217211996812326891e-02,-2.502065884062075751e-01,-4.879217915565491337e-01,4.708512969845964347e-01,3.273600483718384080e-01,4.663438321678507470e-01,-3.714557770812451087e-01,4.964354242974921561e-01,-3.742081393591810690e-01,3.159601137380323999e-01,3.284513359250466058e-01,1.161679738828279990e-01,6.568852803353655845e-02,2.733330060049241617e-01,1.357466144863651580e-01,3.782421130340593574e-01,-2.076733508895756974e-01,4.173192070233354700e-01,4.848985893074365672e-01,-4.573212378656890120e-01,-4.474684855896589597e-01,-2.373131495608952479e-01,3.776176182487844812e-01,-3.277326672337391722e-01,2.147217931524318391e-01,-3.414858609168851949e-02,2.425929210716478990e-01,5.886477355215316565e-02,-4.914933285616597536e-02,3.339302531172430033e-01,3.627150262917707146e-01,-4.096013032231495821e-01,6.974360166430701446e-02,-2.412209978250055564e-01,-2.754749012409073994e-01,1.335005435457038703e-01,1.791993590661250801e-01,3.971122957477687399e-01,-4.798700703334575490e-02,-8.466170761591876315e-02,3.587289160454564252e-01,1.870722278106182190e-02,4.002763233260379638e-01,-3.916616985469090761e-01,1.567655877960062172e-01,2.081254143192440287e-01,-1.306938796621812671e-01,-6.669908290080446556e-02,-4.316826986002687133e-02,-4.018278089572617229e-01,-1.701863168485633904e-01,-8.999819614592725892e-02,-3.089179076030468818e-01,2.488822585148895150e-01,-1.786674686368097398e-01,7.687424724082038419e-02,2.647400669677615892e-01,-4.816336670615246063e-01,-1.977277890859283072e-02,-2.729156036587730427e-01,-3.015523213081995890e-01,2.020755287643233866e-01,3.984162013057718221e-01,9.713961865119748185e-02,3.699986903519830728e-01,-4.066269654550164758e-01,1.018212218324039825e-01,-1.344081276987521834e-01,6.204744863021550982e-02,4.333841375242535876e-01,-3.572820302540681836e-01,4.309699067064563516e-01,2.458367506509835931e-01,3.027179071222169462e-02,1.459472782919654099e-01,4.651214980177822457e-03,-2.681902117918060213e-01,-2.507927741134485800e-01,5.159531660733281642e-03
3.019831592249987429e-01,-3.501723763349838814e-01,-2.419539301451073265e-01,-1.668327262636803282e-02,-4.477179535685607004e-01,-4.544170962368207500e-01,3.246262857649331313e-01,-1.016457838321045137e-01,-1.486432810895720602e-01,3.088049561091564810e-01,-3.797948397649683061e-01,2.116545493089874441e-01,1.656926182256701074e-01,3.764264847163178440e-01,4.222833051577160601e-01,4.434416902963801976e-01,2.339450564632142571e-01,4.106487172531231300e-01,-1.767008226335784749e-01,2.648167195181500566e-01,-4.175837116195721399e-01,-2.830251235237037921e-01,3.948148370860944389e-01,-2.777757416389762257e-01,2.484110380983659272e-01,-2.507273422092426429e-01,2.204320891608615995e-01,3.313988708508661674e-01,-4.852728428255050908e-01,-4.065702620955120583e-01,-3.947515938337529673e-01,2.325735049381938147e-01,2.273301276621553513e-01,7.487806623110788984e-02,4.484779920294528766e-01,3.652720001739761524e-01,-1.817173293673308709e-01,-1.204582010080785109e-01,-1.698063618999680890e-01,-4.181585701705383684e-01,2.508807028382265547e-01,-4.401464745761136110e-01,-2.333831984558554506e-01,2.694413083958954735e-01,-2.964982719294028679e-01,-4.411282391147012816e-01,-2.594711687143697043e-01,-1.215178906943221136e-02,8.795452480678266072e-02,-1.798335764160218508e-01,3.064583814498229031e-01,1.456928827306503693e-01,-2.290640739405742643e-01,8.641336795483969824e-02,-2.869017728087447927e-01,4.516360946128598619e-01,-1.679914418869759563e-01,3.474479644935090095e-01,3.648133651440509384e-01,5.657863656728222279e-02,-9.511970745366941926e-02,1.770537363432873879e-01,-1.800285910787521038e-01,4.418569172335671813e-01,1.781671699926897778e-01,4.574111787065830992e-01,-4.010747917854659006e-01,3.465931965189073538e-01,3.875835017198605015e-01,-2.365618466159361277e-01,-2.764397421085820761e-01,2.694470073136286947e-01,-4.251455907280276558e-01,-1.049308541227437774e-01,-2.813510981401403099e-01,-2.229102170233070723e-01,-3.729727865606063952e-01,-3.088107775920673759e-01,-1.243425031804167163e-01,-2.025008717956903737e-01,1.460274781881255590e-01,1.191865792937921720e-01,4.477965191085940544e-02,3.646409400837792858e-01,-5.745884095900426203e-02,-4.789265561099687596e-01,3.430190272937918006e-01,2.412311891417555088e-01,4.310530958985564487e-01,4.787277046153300408e-01,-4.251842457016071219e-01,3.576454485473291589e-01,4.238854084192986704e-01,-3.310054464132061725e-01,-1.671534747386756448e-01,-2.980749738536613846e-01,2.194738278086183214e-01,2.574719953707688830e-02,-2.461103137266836549e-01,-3.036080763198774624e-01,-2.995368881832328189e-01,-7.804839652053091603e-02,1.084236596501201438e-01,1.264271155348779471e-02,2.910263515609154417e-01,1.266976774800455674e-01,-1.489505360445970705e-01,2.032233506915551713e-01,1.424315286287211324e-01,-3.213609681203675184e-01,-1.606104273974587882e-01,-3.420372433883162033e-01,3.268892509631309840e-01,3.931138755904379223e-01,5.192718952857780512e-02,-4.797069539307063368e-01,2.336421074732644154e-01,-4.209974073647662629e-01,-3.559798666260999278e-01,-3.142533433206954885e-01
-9.701690278437727528e-04,-1.534359485390214828e-01,3.308920690560073208e-01,-6.648434911585511531e-02,-2.349456537117721455e-01,-2.703641805589722114e-01,4.019829365549413280e-01,-3.726833198023138394e-01,-8.636063327266665923e-02,6.830047400399544277e-02,-3.724010225158703169e-01,6.595129165067147026e-02,5.409794258298402658e-01,2.674228885736821063e-02,2.561881928582427914e-01,-4.066345770550567340e-01,-2.162915602732002895e-01,1.634255192321657779e-01,-5.095365997210282716e-01,1.343623956659241794e-02,-4.702336738422817075e-01,-1.874648537321970398e-01,4.548608412058080530e-01,-3.706446839755922484e-01,3.238642583361935334e-01,-2.824855760606275190e-01,-1.994652102722964393e-01,2.394685179273677023e-02,-5.506343116996876424e-02,-8.792733767950759727e-02,3.478468901042759964e-01,-1.083327977910374385e-01,-5.719635444595390361e-02,-2.029997617226676487e-01,4.783630744408462476e-01,-2.935928652122641869e-01,-2.712616900247920015e-01,-1.361980553439212649e-01,4.838170122593405953e-01,-1.839841802508224433e-01,1.092732077051642020e-01,-3.579104407576195745e-01,2.716478628214453184e-01,3.897700355846179798e-01,4.355386249490668105e-01,2.827215299367197843e-01,3.298914217392174414e-02,2.980199264158198483e-02,8.691980796451666269e-02,-1.518332759794421838e-01,-3.528285037391332701e-01,-2.345582668313906105e-01,-8.697558384708681256e-02,1.605936654442921899e-02,-2.237773358852972738e-01,4.652307960249040808e-01,9.400802693167846502e-02,-1.370684782174272920e-01,-2.856827325812625884e-01,5.839964509689160588e-02,-1.830273621028197795e-01,4.792333674375694880e-02,1.142537639882091199e-01,2.446035397794360522e-02,4.723523204964217292e-01,-3.712136219451568908e-01,-1.560812797675181218e-01,3.650792848748585784e-01,2.314985617133335227e-01,-1.781084764613654614e-01,-3.824283658082552328e-01,-2.247576076522481425e-01,-1.221457332298018089e-01,-1.022748263686946990e-01,3.344592172244696404e-01,-4.111412498380352387e-01,1.021015038229237393e-01,4.702742516123349370e-01,5.280966573582493440e-02,-3.121904230941645597e-01,-4.279909665752604786e-01,-2.237254938521424652e-01,-2.288052272960286182e-01,-3.637243360784158663e-01,2.354664397594311565e-01,2.236455897692986583e-01,2.799003436813042311e-01,3.417191778917721967e-01,-2.062246398026215954e-01,-2.637492889162507681e-01,-2.841846209443997795e-01,-4.754107313712334082e-01,-2.040307682866183137e-01,-2.046570914609663894e-01,7.849754041977008434e-02,-2.303084245944902186e-01,3.663562219782897089e-01,4.671303154123426227e-01,-2.677905522655846249e-01,1.073759930440735810e-01,1.305533395246946948e-01,-2.191382587225870759e-03,7.716321862553623956e-02,4.171462492380150211e-01,1.138234771704027953e-01,1.181707355185077357e-01,2.896342451171471377e-01,3.641229061111601606e-01,1.136340403368402419e-01,-4.351499876987444115e-02,4.968409699590561196e-02,1.177281503890101610e-01,-1.709162509716116440e-01,-3.794749506135873807e-01,-2.761608184533383969e-01,1.103455933101772646e-01,4.510400856049009422e-01,3.845616760946177215e-01,-4.052200107114019012e-01,3.734121103974105682e-01
2.999257971063958306e-01,3.602218218290876295e-01,2.221152424178109430e-01,-9.460611049502401504e-02,1.389640348165881514e-02,-1.361240077647594970e-01,-1.271564731537365434e-01,-3.947307488146488130e-01,1.854689898070489562e-01,4.255721027928643929e-01,-9.701567376752270877e-02,8.628356961767616462e-02,4.256377392399024288e-03,4.172537529860625982e-01,-2.543290264114718147e-01,4.903873551552946353e-01,-2.763967532883832567e-01,4.817092887566031822e-01,-1.586063191132701111e-01,1.343961465855178783e-01,-2.344865233347832034e-01,-3.444368494963734317e-01,3.042484878420442795e-01,-2.417749367981553710e-01,2.334990243641012486e-01,-4.172762696259718074e-01,-3.558707277738644148e-01,6.304679657586249875e-02,-4.830536075281001429e-02,2.439140263741846060e-01,-1.446804250708539630e-01,3.634185228585428140e-01,-1.648281644598750262e-01,-3.598990429212563236e-02,-2.552887720897151769e-01,-4.161694088123908952e-01,2.367717573222964389e-01,-4.110594250494237212e-01,-4.550685326671772279e-01,4.346798168680447438e-01,-5.504424392769075719e-02,4.422715544109691033e-01,-3.467100357111683184e-01,1.552370370772820085e-01,9.758027371996454147e-02,-3.915270477606211941e-01,2.934411178213274241e-01,1.601815895740875129e-01,-4.165854525400954911e-01,-8.420927320118902493e-02,2.765013112049743427e-01,1.223552173419731603e-01,-1.463753969214470485e-01,-9.052541843606856653e-02,-2.167489051510805287e-01,3.420012584051728144e-01,2.955152260456320734e-01,-2.766734535535631534e-01,3.466261446471324281e-01,-4.504652072167444343e-01,-3.407400181853111887e-01,4.571378444309683320e-01,-6.800985888870156315e-02,-7.227076853843544813e-02,1.700918798285123434e-01,4.102344733256590992e-01,3.137727020245144605e-01,4.161316776093278991e-01,-1.128253362948316990e-01,-3.333404803399035998e-01,3.999163804327966476e-01,2.591809373840441716e-03,-4.762324129489872021e-02,2.606711449818150395e-01,2.841093894360168792e-01,1.907838936616965408e-01,4.226617529201556200e-01,-2.643454914583424631e-01,4.354123350720066066e-01,4.682467757569231392e-01,1.414152273356096556e-01,2.678887192731029265e-01,1.124894053944396066e-01,-9.700610382777347107e-02,-3.987806320642239832e-01,6.803820587720647850e-02,-4.132440539774293042e-01,-7.634012797457634392e-02,-9.043980500131067191e-02,3.767204842602332460e-01,-4.667196700977288559e-01,-4.650842839641947113e-01,-3.260953262198008629e-01,2.289037602512294101e-01,-3.626514270400206796e-01,-2.658989488393804779e-01,-1.471636587934909389e-02,-9.543316716220073825e-02,1.587931174220011676e-01,8.436035430668645252e-02,-2.469867845974616505e-01,2.439871793047385384e-01,2.867578937734514000e-01,-1.511803791808915831e-01,-2.829985787979575826e-02,1.380184035040089019e-01,1.185389541303255995e-01,2.856575149737786701e-01,2.646987514925334684e-01,-9.621006433675816094e-02,-3.273469449017898936e-01,3.182402337921363400e-01,3.872523368314085279e-01,-1.647483133262678257e-01,-1.306293581473209897e-01,-1.065102206640201332e-01,3.894948185397804630e-01,-4.423592098664156369e-01,1.847001404241651878e-01,-4.803220091860836427e-01
3.362735120903216912e-01,7.753951290745682290e-02,4.140060642398540325e-01,4.729702790575975729e-02,-1.843231298569894261e-01,4.017997554914121694e-01,-2.291020630799102675e-01,-3.012166356028222469e-01,1.182771155201842173e-01,3.942847490983478198e-01,-9.711725311797461679e-02,-2.316257510595229330e-01,-1.222979661926532208e-01,-4.213498104349380768e-02,-2.551897892661602607e-01,2.081894430448131827e-01,1.384126219188726581e-01,-4.099530831361175021e-01,3.603646960348124706e-01,9.248443048056911864e-02,4.184763751436215706e-01,3.439432863634619975e-01,-3.094002228178192176e-02,-2.949423202099785146e-01,1.525706101879864725e-02,-6.827781617343005316e-02,2.262838866104389390e-01,-2.306096718739352944e-02,-1.143415479856709216e-01,2.553754248721944453e-01,-2.936876891856741167e-01,4.551297413939302539e-01,4.211321395452749528e-01,3.189513720889786130e-01,-1.188164682564465668e-01,-3.146514898769440238e-01,2.472424875201563454e-01,3.253042910528987641e-01,-4.154613755905106065e-01,-2.581370000873098314e-01,2.544101829913161805e-01,4.480730435660917332e-01,-1.911161710528312963e-01,-2.107931616212758430e-01,-1.416451758512794201e-01,4.289398072018862362e-01,-1.743032896466914783e-01,3.953713016469896369e-01,3.070277439110253859e-01,-2.394198347112384551e-01,4.129820860090774870e-01,-1.842279955015639903e-01,2.250069938724520158e-01,-1.037542384059999129e-01,4.375738971664590027e-01,-2.502767697114386403e-01,4.029244790477106916e-03,4.475011402525342352e-01,3.689014693814892110e-01,-4.281674076458441003e-01,1.578863555088324822e-01,-3.471152407644777227e-02,1.734816240361502782e-01,-4.477081792172959984e-01,-4.705278801272731459e-01,-1.170682899717278846e-01,-3.984033484457450980e-01,3.375982401623125462e-01,-1.108948033498826646e-01,-2.836674226782240904e-01,-6.645753202177462349e-02,-1.295466687554174545e-01,-1.345675327483147610e-01,-2.421209624068072774e-01,1.410775598706013600e-01,-2.013395249619904237e-01,4.204999430830149709e-01,1.799682364573003124e-01,-2.105441609058786578e-01,3.033214307655540121e-01,3.274728573564996137e-01,2.381378786953796123e-01,5.920022321909419738e-02,9.362597529588793932e-02,-2.418200618085558640e-01,2.110128236546225944e-01,6.999200105087095836e-02,-2.241687719673133780e-02,-3.716215404139984191e-01,4.654048539875452750e-01,9.430240877623626006e-03,-1.770726140800316928e-01,-2.860668474568644482e-01,2.345624477159041488e-01,-3.334825551765696061e-01,-4.877856381836729871e-01,8.494227460812432684e-02,-2.733620104386148553e-01,-3.873222092647566894e-01,1.567421409055690107e-01,3.642840452814375407e-01,1.546988255072600515e-01,-1.447442392914531917e-01,-1.692659521861519245e-01,6.508199958003609009e-02,8.108932450264655367e-02,1.751869076208056875e-01,3.346486557750501939e-02,-1.746244790120663470e-01,-9.567397471536462361e-02,3.745797530293972222e-01,-3.779191783461161025e-01,3.645536050601854150e-01,6.816909324141652571e-02,-1.050725737575621821e-01,1.278943089545177270e-01,-2.417232808605999095e-01,-8.352794749549673214e-02,2.883748209983453270e-01,-4.908728905140314486e-03
2.228130934089218029e-01,-4.080415898705554989e-01,1.993319451110457663e-02,4.371781059043796658e-01,2.347760522158318652e-01,1.544364804761276522e-01,2.711335975002363008e-01,-1.192579524097147209e-01,-6.917908984367508729e-02,-8.759613890131495717e-02,1.377799131676277211e-01,-4.441895903747166696e-01,4.755292589166981165e-01,9.745829633688332660e-02,-1.439889793580490518e-01,-2.630847960281249009e-01,-4.118143063948166982e-01,-1.233921875930703987e-01,1.820916858898201651e-01,3.391120058488533706e-02,4.316165809101592532e-01,4.984720935327891511e-01,1.072146215250111972e-01,4.224430507470108842e-01,2.825760969686373913e-01,1.824743189779538532e-01,-4.115838920442039250e-01,-1.769239173605830495e-01,4.626956543535770128e-01,2.026393566028060200e-01,-3.635588698464524149e-01,2.452615181917596476e-01,2.595323713249359510e-01,-6.101901983122109963e-02,-4.571854425776043784e-02,-1.283905748646963774e-01,3.665188465432726583e-01,-3.627359493409944013e-01,3.405448177020451994e-01,-1.243165842291941992e-02,2.133894180355757342e-01,7.726977765709963641e-02,-3.183131881922229844e-02,5.091235800360022906e-02,4.281620922628988635e-01,-4.949498942710314209e-01,-1.730349649285566060e-01,2.541904208154244227e-01,5.116512050828188329e-02,4.270516699917041303e-01,-3.299613911345889994e-01,-1.635136323011892323e-01,-9.516345713773050052e-02,2.602548338084855750e-01,9.720032567242047061e-02,5.035663266651285025e-02,-2.848699267050985307e-01,-4.568491901008422396e-01,2.126971576097156369e-01,-4.038680245262526447e-01,2.657076513331510514e-03,-4.117636672248663476e-01,4.101624340641566446e-01,-4.055746827982870117e-01,2.541970692878862681e-01,3.048219048815423715e-01,1.376118498169420501e-01,1.420879349378956491e-01,-1.325934367248868540e-01,-2.660311254450334895e-01,-1.559407938072717714e-01,-8.515119844281650308e-02,8.221774109880435055e-02,-5.083788464266532081e-01,1.541811773456226373e-02,2.200150722515168134e-01,1.857291436398542939e-01,4.249054289319891264e-01,-8.575089902660460199e-04,-1.633818612792078961e-01,3.382363564761844965e-01,-3.944523542537112237e-01,4.559406660381185028e-01,-3.068775096831249383e-01,-2.685108029879945124e-01,-3.225900250243378675e-01,-1.695627577401049857e-01,3.213339320373039681e-02,2.229144286569613720e-01,2.789248648815725873e-01,4.533511807361827184e-02,3.013187919492285038e-01,-4.142673008821843306e-01,-3.259127922714173953e-01,-1.333444830005053698e-02,4.802960716743834846e-01,3.981865365319531280e-01,1.081130190817442133e-01,-6.335425135312944267e-02,-1.731785679751041834e-02,4.683352049144241525e-01,-1.325764712066644369e-01,-2.401801287774697202e-01,2.640712714472225886e-01,-3.213411339771419239e-01,-1.990776574544606270e-01,-4.567010644963802046e-01,-4.294306500656133729e-01,2.574371197058989424e-01,4.555213241738798602e-01,-3.506910546631392123e-01,-2.176155702653025104e-01,2.115094991611475295e-01,1.704322280160699976e-01,-1.472829441534773132e-01,-3.377968694616320655e-01,-3.804667939047027270e-01,-3.125167280664402636e-01,-3.669035843850617096e-01,-3.351418993203295754e-02
2.243250300670100728e-01,-2.577053405960764709e-01,-2.018892893835501079e-01,4.425413751110622851e-01,8.361184011718290898e-02,-3.495549131484911864e-01,-3.703215883961344934e-01,1.318738246475503473e-01,1.724960165254374178e-01,1.329627168283085137e-01,3.876707237789978749e-02,-3.211951876934216604e-02,7.871962801593340719e-02,-1.637036588674345150e-01,9.936957203961778451e-02,-3.420099857987930481e-01,4.114374657884679598e-01,9.552151944844414211e-02,1.812216858851742884e-01,-1.326595290353498047e-01,-2.974376325821159184e-01,-2.361815894354478695e-01,-4.395124928992742708e-02,7.465316159191945355e-02,4.643967000011699486e-01,-7.472982453297009886e-02,-4.719504691964876986e-01,-9.286984233518674747e-02,4.066800534140576073e-01,3.446112944813594647e-01,2.022861616257909945e-01,-3.489781972540066668e-02,4.624866532778219574e-01,-2.337847666375527100e-01,2.650406327990929012e-01,1.619539552631956703e-01,1.453640593367738210e-01,2.166052758818169111e-01,-1.134805765141454065e-01,-4.545582060620755732e-02,-3.820088132108554468e-01,2.058663865782529162e-02,3.291335841100383464e-01,9.418231703536505961e-02,-3.951604160822235756e-01,8.531504202424348982e-02,-4.494106126947125524e-01,-3.669302664829289240e-01,-4.338985285859711105e-01,-2.495170987516586447e-01,-3.840365165418836019e-02,-3.142792307757116821e-02,3.296625849155926935e-01,3.156580307304717170e-01,3.446158200208252476e-01,1.318077843954483519e-02,-4.525786428382758131e-01,1.223719107410627671e-01,-4.323643630024623929e-01,2.291761887016941779e-01,1.761742073929431773e-01,-2.445228044395948153e-01,-2.243969741356452788e-02,3.601889571582996274e-01,-1.218430820023844036e-01,-2.898536032668249662e-01,1.806944055027515372e-01,1.049561463010266621e-01,-2.031801765955381159e-02,-4.476929381858963386e-01,-2.313055509017220290e-01,4.931861442278958479e-02,-3.050983680689151600e-01,1.549197684455526081e-01,-2.844431333899505865e-01,3.294959196196118323e-01,-4.344629371123865935e-01,-1.488940871467796523e-01,-3.747849928397727071e-02,-4.540019152796259672e-02,-8.367803251333619241e-02,3.800280586921416237e-01,-4.175955725531764751e-01,-1.686764210051106827e-01,-2.298034240629673597e-01,-1.169950010499984511e-01,2.919660802123695831e-01,-1.096779903483341700e-01,-2.776173177193003161e-02,-3.501080879417985958e-01,3.755759997660048505e-02,1.867251829605701824e-02,-2.501723399468369635e-01,-3.241815956136187560e-01,4.057359877184871233e-01,-1.896091030555143719e-01,-9.041923300856719026e-02,3.526627176528172591e-01,-4.818176543245999421e-01,-4.526668995207516061e-02,-3.746213221317807873e-01,8.601972715124667213e-02,1.354478873065068090e-01,4.011885011917397104e-01,1.895644994044590539e-02,8.346665278690672263e-02,3.881657696076125652e-01,4.707903221743650612e-01,-2.663407388389933961e-01,-1.129738568200940596e-01,-1.389969358316020531e-01,-3.748292152196164850e-01,4.125589005171179657e-01,4.414476376920237199e-01,3.317317328494739231e-02,-4.417398509956430019e-01,4.624548609684065448e-01,-3.971218785638083726e-01,-4.381529240746240283e-01,3.559591056316314672e-01
1.170492885164811092e-01,2.420303489458245361e-01,4.364770409758079728e-01,1.091205392899536747e-01,-4.141223743546380842e-02,-4.144418697307842292e-01,4.319516969423175534e-01,-4.462792714854952880e-01,-5.036046395943380993e-01,3.115250765589456794e-01,3.660460970191141694e-01,-1.874275592492243292e-01,1.921959578861590356e-01,-4.838484192825329155e-01,-6.354903887055998735e-02,2.784195180313096540e-01,-2.893346118135685097e-01,2.443638704457810340e-01,4.662655261961304309e-01,-3.588817185475088323e-01,4.227070499915466240e-01,4.376396223457165169e-01,3.075992622987254177e-01,-2.386030226933406884e-01,2.592964672897440578e-02,2.923934882799418267e-01,3.089576360469536431e-01,-2.959286817935997682e-01,4.242122578267633060e-01,-4.675085098732865707e-01,1.249498013936388985e-01,6.010209533677128568e-02,-1.908054411166361375e-01,4.454947218639441764e-01,-5.089174808281481388e-01,-2.136122614159386562e-02,5.594484276744351309e-02,-5.256934005334046311e-02,-2.337170358759483590e-01,-4.529468704983276583e-01,2.941398333498735362e-01,-2.131274121195103344e-01,3.838944906488940823e-01,1.404477483062117893e-01,-3.864981640928127349e-01,-5.571267459895554858e-02,4.346192344018341980e-01,2.865027275493887138e-01,3.933935479296555293e-01,-3.250210548366975760e-01,-4.323873368607907275e-01,1.458522770805566193e-01,5.162329300585349889e-01,1.246280097314922744e-02,-4.277467859427566688e-01,-1.847554037939718452e-01,-3.504349452776022167e-01,-3.921257657866246693e-01,-8.666543858048754087e-03,-1.459963742202782799e-01,1.818288445838174838e-01,2.062237509422860104e-01,4.072685959948157963e-01,1.988803155029669756e-01,2.572695160131983627e-01,2.318708707514626488e-01,4.349670087216342407e-01,4.882726702998188006e-01,4.268733183231292472e-01,3.178746889180932289e-01,-2.248672106122293068e-01,-1.961247968215686782e-02,-5.054322638165373305e-02,-2.558940474072451399e-01,-2.694225015923485400e-01,4.997844681604095007e-01,-4.590127737957221954e-01,-4.800818601390497431e-01,4.922257943659443802e-01,-2.039856577623688494e-01,-3.767049363784670257e-01,9.268846864357346838e-02,2.878369889577987450e-01,2.815667704438609351e-02,4.346419065047560371e-02,-4.685287690493122326e-01,3.813268536149719279e-01,4.144770938099539004e-01,2.399985063406785968e-01,-1.084726363775433307e-02,3.506902583357962566e-01,4.007431944976209137e-01,-3.505972297699912477e-01,-9.991631154416101557e-02,-2.661048295150925669e-01,-2.678628628108781218e-01,-3.455305486675305793e-01,1.488515276158905998e-01,2.124623519997213481e-02,-4.070158253032220008e-01,3.384274467618287319e-01,-4.327552666289515848e-01,-2.417188236108959720e-01,-2.026058966270597450e-01,4.100973036691399898e-01,4.269541041880884902e-01,-4.688479708546646751e-01,1.319690660632742152e-01,2.527523423807929159e-01,-1.287597549109536499e-01,1.845776101612952858e-01,4.671492970142766543e-01,-3.509607898423015761e-03,3.852490888539252811e-01,1.269523306230672943e-01,-4.258946823940279458e-01,-2.662900234575933944e-01,2.924587572133533486e-01,1.875966872352311798e-01,-2.831962422382497402e-02
2.789830470179181510e-01,5.892705802083116062e-02,-3.170609794986656294e-01,-3.990828785569849324e-01,-4.211397425101616743e-01,-8.588608568307549984e-02,-1.954395328655570974e-01,1.505899573955402637e-01,-2.085605116040953680e-02,-4.713179738210260816e-01,3.678771728234243588e-01,-4.909970493139777514e-01,-1.469268782556764491e-02,3.506346553268917532e-01,5.340822486884146125e-02,-1.079251802356264445e-01,-2.637840993127055778e-01,1.429174309229057083e-01,2.050915136497892532e-01,-4.835564688897807106e-01,1.209647201439702641e-01,3.632721735609415470e-01,-8.511375300789071618e-02,4.693454827872595714e-01,2.029050698445669376e-01,1.118756690996528247e-01,1.803810329328054685e-01,1.891319033862977617e-01,4.768708815516876087e-01,1.380292601585217382e-01,3.435337177846087275e-01,-3.338677842250306060e-01,2.091416567667959692e-01,-3.813078099516867270e-01,3.260065171106734661e-01,-3.568274356638639344e-01,-9.588789552332086658e-03,-3.645743423702010322e-01,1.840428697334485775e-01,-1.942324632106772475e-01,-2.779290052601699479e-01,-1.936226466539320290e-01,6.031852723999520799e-02,1.966319213596563198e-01,2.656956060465652802e-01,4.688750046277592731e-01,-1.132256461774168860e-01,-4.870003410297315399e-02,-1.426419904282175966e-01,-2.998783103231020264e-02,2.398617331521478435e-02,-3.958553783475447091e-02,-2.415857639622064346e-01,-1.056610254003135380e-01,-1.252147183242211526e-01,-1.590052638595280676e-01,-3.044676323998656842e-01,-3.802445758736783255e-02,-4.760624799900217696e-01,-1.573972892801644707e-01,-1.055000138326646353e-01,-2.853995653276065192e-01,-1.351715859320755109e-01,-1.704724553602495266e-02,3.925624478023825858e-01,4.273251213526639558e-02,-2.095109103893212088e-01,1.396109115945119994e-01,-3.782568521414227392e-01,1.428783201307900486e-01,3.933873686202482567e-01,-3.094166757830311143e-01,-1.969653270190944439e-01,-2.366565066258560224e-01,1.893472705280326296e-01,4.244064365996192967e-01,-3.573163352811328797e-01,5.698801777466348806e-02,-7.387199740148078786e-02,4.816562424933162889e-02,9.469521668779500023e-02,-1.101277186280555098e-01,-3.112841243768704746e-01,-8.612943960121770270e-02,4.599941988018823036e-01,-4.287858252728052877e-01,-1.784278110948393226e-01,-7.081876288162564093e-02,-4.884276334180761014e-01,3.193479327289671654e-01,-2.611607410030996057e-01,9.072815261388669740e-04,1.169184347911460808e-01,2.160080697114272544e-03,-6.237418439200650283e-02,3.467315046555100033e-01,4.087232328389692193e-01,-8.214284830823166683e-02,-3.675716507926991006e-01,-4.278315954356667200e-02,-3.516693262626586214e-01,-4.284897095268936501e-02,-2.348863137282388436e-01,-2.766161117992310681e-01,-2.366297581290587593e-01,-4.205481823002297226e-01,3.308165650222153475e-01,2.339231432809323052e-01,2.708425222671218546e-01,1.844036685870446557e-01,-3.085309377136718489e-01,4.958243367405679169e-01,-6.867775640893854054e-04,5.147128992986379492e-01,-3.113451909111324412e-01,2.336332063967048733e-01,-1.477964394955101797e-02,-3.537273466834478519e-01,4.079829651054551753e-01,-4.296522174687641971e-01
-4.874235268417350109e-01,-1.848415233918916378e-01,-2.482720580818770784e-01,3.721981700071920751e-01,4.163731178548198408e-01,-2.520239305227074400e-01,-1.942908562622156499e-01,1.548294150519251289e-02,5.542533544046153449e-02,2.996366363803452115e-01,4.188573443621369519e-01,2.173936220454262547e-01,9.852740619843147751e-02,-4.855863038307845492e-01,-4.566153728402170264e-01,1.848363510387911191e-01,-3.681598902922423311e-01,2.859809282564682031e-01,1.682341403999074170e-01,-1.410659986924156784e-01,-1.903249922391753515e-02,3.551122255320916521e-01,1.721488501003918536e-01,-1.216921504008649513e-01,4.413434599674342929e-01,4.484925300521042102e-01,-2.676265106113302483e-01,4.396889676736179808e-01,1.293744799975860837e-01,-1.375015436339717401e-01,3.057371726912850862e-01,2.382515083656711885e-01,-2.241747600972495424e-01,-3.165622115114873902e-01,2.151085463299225453e-01,-2.766920052648714767e-01,3.582410103288736214e-01,4.024352044329961853e-01,-1.194437707432432633e-01,-4.718906309817259004e-01,-2.720903697969707657e-01,-1.528479707696833723e-01,-4.738232818480814790e-01,-9.762791765677103495e-02,-2.652702055252895152e-01,-2.854622300189088580e-01,1.794528151720814757e-01,-4.612617224216057354e-01,4.324658628034852015e-01,-3.661153366628728256e-01,3.459884587359827179e-01,4.211185000149601509e-01,1.228343913726844504e-02,3.275346624521615485e-02,-7.220071234670977223e-02,-4.267417105998671523e-01,-3.643089624946819760e-01,-4.517455074007679650e-01,4.644135687729777917e-01,9.620813858937896090e-02,-2.117638825909538836e-02,1.280246258488038913e-01,-4.958085231838686990e-01,-3.546935870925881362e-01,3.654076188836639094e-01,9.084558696458727017e-03,2.974883354503576882e-01,-1.002898762712460951e-01,7.548866675823008576e-02,-7.600858620733470317e-04,4.484239416187964927e-02,-4.324524205018523415e-01,1.590301176991927856e-01,-9.777809286143751555e-02,2.134593074243736899e-01,7.784056890470616996e-02,1.694573463261648538e-01,5.075942815682897846e-01,4.004977445799384195e-01,-3.415252970909976593e-01,1.261757007734709002e-01,-3.055574045016261620e-01,-3.170190726007930948e-01,1.122062379210199551e-01,-2.234962055947928294e-01,2.247249513969194201e-01,3.102201724638061209e-01,-4.185549583492889081e-01,3.268069652801940950e-01,4.712379764170593344e-02,-3.128850355296635688e-01,4.971331095341442047e-02,-2.272873878304299544e-01,2.042739856399918008e-02,1.282896654592919627e-01,3.724035337891304365e-01,-4.763270179706114993e-01,-4.960679185099391847e-02,-2.456517386005541426e-01,-4.221115833274540763e-01,3.427715622157507247e-01,2.510379766497121065e-02,2.149422665653622222e-01,1.270430971286672095e-01,-2.825956074734431445e-01,4.325455469475137371e-01,-4.344768199554657206e-01,-3.793759037133362932e-01,1.571956890772125970e-01,4.677866343627726242e-02,1.526915277833217621e-01,1.877501237681756530e-01,2.345437257073561960e-02,4.788566379264840300e-01,-3.745428243953941722e-02,-2.233769984104587436e-01,-3.226324669148996627e-01,-3.959744624124745260e-01,4.326665975279553322e-01,-4.108837562489077166e-01
1.367272519722834700e-01,-3.102420571593802467e-01,1.705428847827081540e-01,4.887027407588100392e-01,5.867036713680266052e-02,-3.788406398151425436e-01,4.560992433960668890e-01,-1.886850576095803755e-01,4.501100490141231592e-01,5.203601421813411898e-01,-4.065362877221631588e-01,5.964043647685359634e-02,-7.649427282517605453e-02,4.676205992034924153e-01,-3.850449358487076368e-01,-2.654358283555687814e-01,4.722341923531257063e-02,3.259448804642033903e-01,-4.253968201843242314e-01,-7.058884994269210011e-02,3.632681605898088195e-01,-1.947034627139382634e-01,-2.421562041202956761e-01,3.209649431124609320e-01,4.428443890984832820e-01,-1.188203479648613503e-01,4.772025838658732755e-01,1.747193749886754299e-01,3.271297596036528699e-01,-1.242566543171796933e-01,-4.519294382008837707e-01,-1.470159832363878150e-01,3.721409490875002279e-01,2.934686999707415977e-01,-4.154768204423338607e-01,2.666620103716389467e-01,1.666984579526991084e-01,-3.183917999879561367e-01,-1.691913334299554039e-01,1.735914600840842217e-02,-6.066754089698026681e-02,-1.842591971163029529e-01,1.335382468461943362e-01,2.563591384517270311e-01,1.925589623496581915e-01,-1.919094392404077920e-01,4.500896107017222231e-03,-2.244723247123771651e-02,2.070130836167242971e-01,8.774542460148583578e-02,3.104839450542703494e-01,1.329494754630939912e-01,-4.796637970828460801e-02,-2.477766405853073783e-01,8.279022286546447451e-02,2.130009679867198580e-01,4.189189938463027674e-01,-3.239728711213001322e-01,3.000098682977277442e-01,-3.444176162167120192e-01,-4.128282664981652861e-01,4.047139975799829981e-01,1.713733461937528013e-01,3.790752104796108607e-02,4.368175109864728678e-01,3.052572295579289441e-01,1.039340810113631858e-01,2.475098082072720862e-01,-1.002774284271244210e-01,-4.657387269294657739e-02,1.595442765308890398e-01,-3.479422058512374183e-01,-2.408429026392975847e-01,1.986167496403582269e-02,-3.530540133969599093e-01,4.643599882280687319e-01,-1.900738917202579314e-01,-3.777656091811854577e-01,-1.362179950703449050e-01,-4.812455645599145737e-01,-3.148310473985754254e-01,-6.503878951260752550e-02,2.019442181240148626e-01,-8.522047148752243118e-02,1.271488226462688664e-01,5.069087243493988759e-02,-1.665777248001228394e-01,5.065516637580533832e-01,3.902768347666318860e-01,4.633098843752233020e-01,-3.430807968764828519e-01,4.457715773187084785e-01,-3.953464765158591909e-01,-2.859173207614815748e-01,-1.882028510253238585e-01,2.091068339147541394e-02,-4.665288148335722807e-01,-6.834021369188846007e-02,4.306758476210189035e-01,2.153165151979213529e-02,1.356681069971902021e-01,2.210011376968943897e-01,-3.109216229059326708e-01,3.698404147642333495e-01,1.148031608450407054e-01,3.493179364836259682e-01,-2.447536944951658466e-01,3.969565921637494554e-01,-1.469540400327786767e-01,-4.122690841589370103e-02,-2.442276175245013115e-01,-1.476074133283228895e-01,3.448561013153488009e-02,-1.349042537582219661e-02,-1.665618810555420382e-01,-3.857354440772826631e-01,-4.427075910089889876e-01,-1.462875677775654915e-01,-3.672071453266067542e-01,1.367835270616567234e-02
-1.762326871825434238e-01,-3.811065235673481433e-01,-4.976382786589278462e-01,2.941033349577164557e-01,-4.833933305803257974e-01,2.576237109284029159e-01,-1.530529374187876157e-01,1.640157705018641943e-01,-1.387999204775269557e-01,2.529333658637773485e-01,1.702358926277264262e-01,-8.403846454439176106e-02,1.062136963748940149e-01,-3.108300931320249760e-01,-1.214412806867208039e-01,-8.967728610155791674e-03,7.654490009622391677e-02,-4.580923888391582044e-01,-1.584140345128641214e-01,-2.971337927646925392e-01,5.455807427732707604e-02,-4.368530320235741171e-01,2.087885936903433604e-01,-1.348523067738212899e-01,-8.719469500388199457e-02,-4.364379835820941800e-01,-2.086101074157255958e-02,-4.446299937217335074e-01,-4.913059172668841623e-01,1.522214173937996018e-01,-1.917882263704353552e-01,-3.980424257953489864e-01,-8.560619813024285263e-03,-5.374838396997960038e-02,4.068361332059254876e-01,1.533231881297194010e-01,-2.016837536838038958e-01,1.343770007820956069e-02,1.922025567685674008e-01,3.770777856474430423e-01,-4.813446455403591062e-01,3.109993448162157170e-01,-4.663777050492582399e-01,3.529235959273666068e-01,-7.946831306585974697e-02,2.540656193196146884e-01,6.121610950927497408e-02,2.008384841550593658e-01,-2.331502367684038235e-01,-1.476008402548444343e-01,3.062667247858203434e-01,-9.716913054531076122e-02,1.760654404230115877e-01,4.125977941091420187e-02,4.380069435579289072e-01,2.333237705464192291e-01,-3.921039155549804756e-01,-4.467148501068122224e-01,-2.291715728412691000e-01,3.940876281182135177e-01,-2.362805587999639301e-01,2.558172227874797588e-01,4.376529148639785038e-02,-3.133243355460962332e-01,3.530340677960032703e-01,-3.895848045396505532e-01,4.428467607380341953e-01,3.982742255647864771e-01,-2.075611386460661789e-01,1.238241732249440730e-01,5.065815952478371909e-01,-2.054845975095813959e-01,3.992214120728687643e-01,4.356574393442236987e-02,1.184738390871223346e-01,3.723702025394531323e-01,4.303590249662754275e-01,2.265181096145175987e-01,2.016984425723319097e-01,-4.083851850347077761e-01,-3.319013021639595218e-01,-1.472544578680942684e-01,-1.455842119797413070e-01,-5.069353583992520784e-01,-2.705634535937614382e-01,1.122522422548936777e-01,2.789239599351803767e-01,2.033923620945450039e-01,-2.856402574646961789e-01,2.479210185061102301e-01,1.142539372397628761e-01,-4.290438734669960730e-01,4.432498854830298485e-01,-1.528759259591495889e-01,8.541822438443640031e-02,-4.181635460670420357e-01,-6.832079979754018817e-03,-3.689449327330487916e-01,4.799741016295050455e-01,2.075022950225318963e-01,-3.377568857025304086e-03,4.001694504406342889e-01,-1.596751103291127738e-01,3.850860834620521977e-01,-4.834629006641585347e-01,-1.283263630028676043e-02,-1.027053430779027166e-01,4.775192260845868564e-01,-2.105089858890532573e-01,-1.190694985507055881e-01,-2.951974872201394984e-01,2.939909300938751691e-01,-2.664039875887754261e-01,1.033425010596478316e-01,3.230230959479563624e-01,-4.150888377775149296e-01,-1.683709309948860644e-01,1.126144197376876682e-01,-4.501946312243493842e-01,5.694226415862273932e-02
7.990880929440914715e-02,-2.620901585259350353e-01,1.026870972961089201e-01,-4.978244305241821266e-01,4.090609252145000485e-01,4.568260261960095936e-01,-7.406325691861649629e-02,-4.411730947677023340e-01,-4.851856935582539165e-01,1.576035634487372161e-01,2.706307496897880638e-01,4.233300142938992150e-02,-2.046361366390528069e-01,-4.609312875311788460e-01,3.974218679869204185e-02,-3.358982632248367350e-01,3.310697730902967262e-01,-1.633737151193811743e-01,5.779000581257114078e-02,-4.499102471987705965e-01,-4.491928271744828338e-01,3.411267961346103328e-01,2.522202076934911275e-01,4.040108577372956977e-02,3.774059928009291798e-01,2.545949685790694361e-01,2.031097887456740497e-02,4.489192320387197510e-01,-1.035031310591788267e-01,-2.174768216737941184e-01,-2.403109093274922448e-01,3.856351876963502456e-01,-1.454865211289298188e-01,-1.712047750711183369e-01,1.391616804152155940e-01,1.968555691086543991e-01,3.844584568300549177e-01,2.997939698794213625e-02,-1.357874018592244991e-01,3.619730994651931821e-01,3.051601698683294450e-01,-1.944204881286288322e-01,4.856674675277739550e-01,-2.708074832636799822e-01,-4.563041269946847556e-01,-2.005368915477155622e-01,1.347223844210174160e-02,1.188176517910151525e-01,-1.218489415132603115e-01,-4.509149875495968574e-01,4.887979372753198382e-01,2.684941468958065847e-02,3.419139754921333152e-01,2.807785123438422126e-02,1.291759554058588555e-01,-3.139740138380217038e-01,-1.501667068172322372e-01,-2.309893319824717905e-01,-4.957615865446803882e-01,3.082902015013840868e-01,-1.536350233314587865e-01,1.113759441356581975e-01,-3.044005227077125064e-01,-1.213847617750897223e-01,2.729899574263547901e-01,-9.468775321405312195e-02,-3.437033415469823994e-01,7.183751740050220436e-02,-1.923861485986427811e-01,-3.633307947531160820e-01,4.700567562759784823e-01,-4.690094651806934745e-01,-4.126426601852897780e-01,-9.310909328569551280e-02,-2.447786704752182296e-01,9.009834592991335100e-02,3.858871265392660455e-01,-1.785669887659875610e-01,6.118269314019673943e-02,4.138440634994678957e-01,-6.774113718096905212e-02,3.335680222662664729e-01,1.333547088796582514e-01,2.215870189102277232e-01,-6.400358451418686201e-02,-3.833801719206982872e-01,1.868027907581497615e-01,6.244551896563239196e-02,-2.918427783491219785e-01,-3.863798646346329191e-01,-3.067426410616352350e-01,1.187801319627579122e-01,4.863234017754207161e-01,4.848801828746874265e-01,-4.828371990142847903e-01,-1.335608518435841274e-01,-4.369871522699640964e-01,4.405029227453408636e-01,-2.258020926622959224e-01,1.725789557649914097e-01,-2.879964756813847004e-01,-3.860288020088258887e-01,1.801889734453833436e-02,-2.240195100332739997e-01,2.802170680150039006e-01,2.546448146804575208e-01,-3.096717718808831288e-01,5.228206456843507294e-02,-2.761048186317482944e-01,-3.839428417596494891e-01,3.940903707393047517e-01,-4.652013401998286168e-01,-1.987839973521848547e-01,-5.042867234763549478e-01,4.102913599196970212e-02,-1.290806557027395496e-01,-6.302021173036420620e-02,-2.595171188257040518e-01,-2.798392302370413254e-01,-4.458327584580528691e-01
2.467146541109250524e-01,2.770883069087993200e-01,-1.118760213038978157e-01,6.031456655643253201e-02,-6.267395679394345553e-02,4.945888973590092941e-01,4.200357342788092474e-01,1.198343136724793617e-01,-2.396873104261054155e-01,4.317395285468524913e-01,-3.485346578151964775e-02,1.956415661362482517e-01,1.532631549651918279e-01,4.213873506213014486e-02,-1.658566077758741597e-01,-3.627396256143165520e-01,1.587432463658018655e-02,1.335768714539675717e-01,-4.959224649769563426e-02,3.378654615526698046e-02,4.169530497434035810e-01,-3.958191100896339409e-01,2.765374545299930098e-01,1.939331171587280189e-01,-2.117774924228287559e-01,-4.656157775995908299e-01,3.945772849315095088e-01,1.241812092240478643e-01,-4.659148326931369932e-01,2.528701424087300142e-01,-2.608973303057259691e-02,-3.913307725614321303e-02,-4.340769303384010569e-01,-3.549380008890687943e-01,-2.074095545790407853e-03,-1.787911307391885085e-01,4.621954853078173442e-01,-2.657370927583364018e-01,-3.034741893008668576e-02,3.613389102959198018e-01,5.012398899937349217e-01,-1.152996202693659655e-01,-3.689551954999406025e-01,2.175478911453486777e-02,-3.827495567301706370e-01,4.360602444841440439e-01,-4.297633416046965915e-01,-4.459253114972839271e-01,-3.627024875243818336e-01,-1.356516249654307060e-01,2.488617636468958283e-01,-2.238104302418286451e-01,3.159396051192094323e-01,3.221210914061048980e-01,-4.859375457852902480e-01,-2.199368686866552680e-02,-3.692446046815708316e-01,2.175535246895473618e-01,3.293664416013514229e-01,3.038551021120995954e-01,4.587710061151560881e-01,4.230750069860263890e-02,2.048382800299860251e-01,3.486379941634785984e-02,-5.646885928509229324e-02,3.652296245540007646e-01,-4.243751014817560563e-01,1.973697707012100344e-01,2.561779779749860930e-01,4.740894489959496805e-01,-3.821435474272074639e-01,-5.059576891851470526e-01,-8.674777883871302719e-02,1.606825426878256968e-01,2.828171215510628667e-01,-3.270012035520858951e-01,3.738419584125833306e-01,-3.444626061296142128e-01,2.763365196899937315e-01,-4.559244137858883827e-01,-7.673738293113263609e-02,-8.715926229372238099e-02,2.743196365938124215e-01,3.273350520942941433e-01,5.212712264745830021e-02,2.329322347426368567e-01,-1.175914715692516765e-01,1.924938137208200839e-01,-8.421594160837693466e-02,-3.331287446211014802e-02,4.329281338637372967e-01,-4.287416828183324147e-01,-4.550445396376330276e-01,-2.737234606795626024e-01,-1.628383406453633442e-01,4.222055174395242805e-01,-2.228870197954737897e-01,-2.329717629192355755e-01,4.735538212301072525e-01,3.916381530179658399e-01,2.601314684229393825e-01,-3.024950070666987956e-01,4.269754274347396517e-01,5.749780954731592564e-01,6.109794375110347286e-02,-3.812409741051464573e-01,-4.539734822648788248e-01,-2.176706751328092160e-01,8.699962614461105581e-02,3.731755983834193491e-01,-3.211386717646780298e-01,3.097809666621940683e-01,9.186831992678922906e-03,3.314650090744644673e-01,4.387733102499719595e-01,8.405457723500255052e-02,2.489968330439688571e-01,4.533518830626740992e-01,-2.518508478032689402e-01,-2.686414811756294638e-02
-1.093422090654784656e-01,-3.878728344042872145e-01,-7.035834780846546288e-02,1.676477580912524162e-02,1.044817992609413798e-01,-6.466119484522098865e-03,5.009283148340478720e-01,1.648105861532112304e-01,-4.346287989289023823e-01,2.166891776009340354e-01,1.594596024785548960e-01,8.114348118145614519e-02,4.411700305200911831e-01,-2.124854938435426499e-01,-3.845884663424925520e-01,-1.505352354711028406e-01,-5.061696954767305190e-01,-1.936451719111918768e-01,-4.446653079905493744e-01,3.575343703322677036e-01,-4.886345393273537341e-01,-1.260381189912549715e-01,2.453140412580181451e-01,1.324889099586473995e-01,7.236252284969622861e-02,-5.613853670748452512e-02,1.050888385339951853e-01,-3.972698129498959396e-01,-3.392573571053702497e-01,2.545924212602464487e-01,1.643008705646181733e-01,4.380789983508613927e-01,-3.086129671096228544e-02,4.957174595488283986e-01,3.774105166696138380e-01,2.926011227116528945e-01,-4.308810591297526082e-01,2.175639937004001934e-01,-3.121204288571165220e-02,-4.918219282722872121e-01,8.583963064546908106e-02,7.456858839126274952e-02,-4.743563915238284689e-01,2.239890064151607851e-01,-5.229540038375937033e-02,-3.512269564122971754e-01,-1.771758556308535848e-01,-3.026864242856656118e-01,-2.303387070706942319e-01,-4.348228164647936489e-01,4.106496754447608866e-01,2.490484603588982715e-02,-3.487317803032252139e-01,2.962074674911038263e-01,2.411564132173142361e-01,3.765036453787595216e-01,4.609376855591241773e-01,-4.451312096242121541e-01,-1.396053647897524397e-01,4.624343889151893983e-01,-2.993373108807311778e-01,-2.166870742774158753e-02,4.495069097993295570e-01,-2.455914598314423991e-01,1.443641023862134998e-01,-1.319116055462228598e-01,-3.734612695178678859e-02,-3.454435008350218994e-01,-1.331061509895260508e-01,-2.530864496570346400e-01,-7.813300178092753845e-02,-1.981173599880723529e-02,-1.290336859254573587e-01,4.191601790585849918e-02,-3.901046800040601226e-01,2.950504415426047911e-01,2.165640645936878772e-01,-3.667194870416036201e-01,-2.983906680355091212e-01,-3.715805110329147287e-01,1.956318637800310012e-01,-3.122035801495087748e-01,1.221739232929350411e-01,-3.338657643522256468e-01,1.353074590584694113e-02,-1.530853925021082029e-01,-2.124270402863481511e-01,3.805347414908654691e-01,-6.556207127229894682e-02,1.311947625551337926e-01,5.804117561082035998e-02,1.663364687613703430e-01,1.298019461734768384e-02,1.426703880518598588e-01,-2.591179328682113869e-01,1.519759067144776654e-01,3.188787695883837925e-01,1.591653306148551050e-01,1.194478420147204040e-01,-1.277371763756726328e-02,6.721480252662684340e-03,-3.767767706488692747e-01,-3.779296547017585006e-03,-4.990373006797005906e-01,-3.363874724485686474e-01,-6.333423562435169796e-02,4.869583334173269717e-01,2.398227596938423689e-02,9.844927586518571402e-03,-9.460644986217633945e-02,3.364486618815537011e-01,1.402074707988728297e-01,5.042042325724889196e-01,2.743230623391910705e-01,-9.003594526238861695e-02,3.606776388526501953e-01,4.499845644113219939e-02,9.415721091595166681e-02,-2.287483052204908884e-01,1.585306337788134623e-01
-2.545353997242507660e-01,-4.137761796529054736e-01,4.751853501940367930e-01,4.466131619747886194e-01,-1.047155150532125545e-01,2.733228240685652288e-01,-9.881872841652736272e-02,-2.192675899012369034e-01,-2.102937614937901434e-01,3.769990788530552250e-01,-2.687208143164289131e-01,-2.513715765112691236e-01,-6.714657612168728473e-02,-4.491258572613904265e-01,1.694238445932353954e-01,5.034666093271807918e-01,1.233759405026481071e-01,-3.159571102012329047e-01,-4.151326066547120774e-01,1.413756734452031039e-01,3.957474701092117408e-01,-6.044719293206919294e-03,-4.620259802760673384e-01,4.719621486958792689e-01,3.421703200226450803e-01,-1.274539438660300394e-01,-1.486856490079303122e-02,5.070991335954669887e-01,2.866703232565019910e-01,-2.874348557875597981e-02,-2.092040819948822183e-01,-4.487050111162014798e-01,1.736033405465542412e-01,2.226866316628856313e-01,-2.031390193182445181e-01,1.708132706607215501e-01,-4.152081745702189131e-01,-3.475871620703229192e-01,-1.374463597273565263e-01,1.047247440749538294e-01,-2.104036825905877539e-01,-8.224064286582814798e-02,1.928735668640014222e-01,-4.114461535383843183e-01,4.003545916475962918e-01,1.900454863130899563e-01,4.096019420627428631e-01,-2.270051392032904347e-01,-2.486459369681252030e-01,2.325640869571065084e-01,-7.968642960673396475e-03,3.125929250414160587e-01,2.061436044490482788e-01,-4.414714363508244199e-01,-2.448527766173329290e-01,-2.622779439557334502e-01,4.204647973064960520e-01,-3.168681112298446512e-01,-4.426873045484367442e-01,-5.072845310839739497e-02,-3.086616067827181453e-01,2.645230018575277509e-01,-1.286892802499255417e-01,3.028352591984430076e-01,-5.051332741544970473e-01,4.466367619870262873e-01,5.016778714167371422e-01,-1.987207271861883007e-01,-3.004909781094794452e-01,4.054133132177996646e-01,3.067872562348851195e-01,1.680351628076635628e-01,-2.505462146905040322e-01,-3.129867068419756038e-01,4.241433344644057191e-01,-3.564442803712948304e-01,-4.351225543672571638e-01,4.114164245373411744e-01,1.778300132305003223e-01,1.156098725287457163e-01,-3.976593193421391059e-01,4.065452554582275613e-01,-2.297283961154786835e-01,3.635726202291220677e-01,-1.631329652382398909e-01,6.415237976602936043e-02,-3.454868314227145798e-01,-3.886671066942765651e-01,2.419888162097411366e-01,3.275153449554584761e-01,3.843207368354956133e-01,3.226918248155241087e-01,-1.060435252026019209e-01,2.092754275789970031e-01,6.546279329995824403e-02,1.160742127216149999e-01,-1.444299740350200312e-01,-2.546423661648866132e-01,-3.978168741417084653e-01,1.499163409244450018e-01,-4.652857320334222169e-01,-7.260438512648871578e-02,-2.756080375388110792e-01,-3.968625246585797961e-01,2.436749394187200934e-01,1.454513039215489800e-01,3.496470918172133180e-01,-3.192169745311129736e-02,-4.566471058235533897e-01,-1.322027320740371825e-01,4.960002411138107470e-01,3.297951630655784894e-01,1.407782466601540106e-01,-1.753271398704804585e-02,-5.113364330527355728e-01,3.429527855798312208e-01,-4.502513539512823515e-01,3.198547251434217809e-01,-3.575900883529138929e-01,1.839251370357786464e-01
-1.590160091208697724e-01,2.987893290659869305e-01,6.677429104595941634e-02,2.257921193636273638e-01,-4.189071519147026246e-01,3.147048297305994335e-01,3.126315082079608731e-01,3.351423104792286556e-01,2.418422112101245858e-01,-1.074108288883288548e-01,1.009074651884127455e-01,-7.050862022997690659e-02,-3.622062238412769863e-01,-3.739404013797199000e-01,3.762160563246135236e-01,-3.773076946853141656e-01,-3.414079764952494545e-01,4.563594303758508053e-01,6.540342404452319063e-03,-1.329787403949572733e-01,1.043803808456859467e-01,-3.884439943438299236e-01,3.692565623829510701e-01,-1.990373055077512277e-01,1.773556183158716271e-01,-3.170118726757269467e-01,-4.843514914809253780e-01,-4.932459086347401600e-02,3.248467190104210589e-01,-1.169756594322854948e-01,4.856616556699501208e-01,-3.675515717221674028e-01,-2.433166994334181321e-01,-1.141041153490234689e-01,-3.596804388533565988e-01,3.645859751425976070e-01,-1.240488055834815251e-01,-3.371138865620722513e-01,-4.667831923237181213e-01,1.042105115811984145e-01,-1.006300666883588740e-01,-1.184722341621576996e-01,-1.518206109274359561e-01,1.290872095559938981e-01,8.225765540503579554e-02,-4.633566621044392653e-01,1.937639829327812979e-01,-2.154699076172207628e-01,-2.362037640007453865e-01,4.109741144653760725e-01,-3.977112618701570401e-01,-2.099801219687125187e-01,-2.866804313600408993e-01,-8.826798026415554055e-02,1.497021338280560276e-01,-4.688400105074824187e-01,1.899548577080590051e-01,-3.308036809909439269e-01,3.006225283836715945e-01,-9.372859188350099457e-02,2.023624967193596857e-01,3.019861270611598481e-02,2.703527721664617522e-01,1.230766085463710913e-01,2.617924105862319550e-02,3.046958720436333534e-01,3.659432050951368365e-01,2.794743409475821672e-01,-4.691845107109764434e-01,1.164335682358543789e-01,-2.292112846355739697e-01,-1.828066766462491943e-01,-2.401735037326573619e-01,-3.759724495115745468e-01,-7.961711387405988327e-02,1.046659541584872566e-01,4.232567425025938745e-01,1.343402256520432603e-01,2.749440006645721690e-02,-3.985843087165658050e-01,3.389228338289679981e-02,3.288807390327990188e-01,1.004464302766761297e-01,-1.822631463329488777e-01,-1.879372539800391317e-01,3.416052271519716133e-01,-2.608938953292100904e-01,2.134031879376769025e-01,-4.295091908542474912e-01,-2.999076396384386944e-02,-2.176582361670614529e-01,3.864643691811313064e-01,8.549064650986881730e-02,-1.650906511145849576e-01,1.230152794675216238e-01,-3.843329797313058682e-01,4.625444287562371914e-01,5.656793212585559116e-02,-1.069615932870657538e-01,-1.184344808720570325e-01,-7.916815486836255300e-02,1.999663311343807259e-01,-4.119431986967555526e-01,8.449787078872054991e-03,-3.168385552546069683e-01,6.108449003349577383e-02,3.985168605144193688e-01,2.035366731239736937e-01,1.760214241928241552e-01,-4.281810873654222083e-01,5.528750602135235059e-02,-1.067804216555358170e-02,5.324526267844356675e-02,-2.460217555055758953e-01,-3.889032724586485301e-01,-2.240694835807881813e-01,-4.665791719809456728e-01,-4.291304708229868314e-01,2.753729418822528641e-01,-1.217210635652490047e-01
-1.815841305816458806e-01,2.068722302100206578e-01,-1.678515649993101988e-01,2.192493690783451910e-01,4.953865106098578885e-01,-2.175768240591027525e-01,2.005121201011995369e-01,-1.982614174977366875e-02,-5.232614414712111195e-02,3.728044659307713782e-01,3.038891956002911510e-01,-3.121493919738592693e-01,-3.149574354571035295e-01,4.503641069527210550e-01,-4.783209095013065681e-01,8.742182182875841978e-02,-2.627986520491280564e-01,-3.027976146050713815e-02,-2.223826020691363203e-01,-9.347150343703002073e-02,7.303928095295864065e-02,2.467518402359420437e-01,-1.432563097962085141e-01,-2.946295528829989130e-01,1.339586620386495064e-01,-3.096039765718971437e-01,7.596217974471972112e-02,-2.769678106614878454e-01,1.725344667173372426e-01,2.889473427514584469e-01,5.332493832479244800e-01,4.610116340726633927e-02,-2.463096880289707691e-01,5.742404093276510212e-03,-4.894847363681066321e-01,2.061379021367368281e-01,-3.862550179225340274e-01,-2.099414308494615411e-01,-2.117197243875353629e-01,5.102137127510097958e-02,-1.968783132883045461e-01,2.085133596557507685e-01,-1.900908866658332363e-01,-2.540233038925963638e-01,-2.592847829150013786e-02,3.867489981803408639e-01,-2.833036153022619116e-02,-2.079553937629501636e-01,-2.648533914887494234e-01,-1.159518464018159251e-01,3.214174577557209478e-01,4.080733033475753557e-01,-3.630846190253573247e-01,-2.723784687893744394e-01,-1.376574581185105277e-02,2.436860923255166067e-01,-2.631288252600342825e-01,-4.815799510421664431e-01,2.817020808071239446e-01,-4.212431018291236673e-01,4.905833460343018981e-02,4.026390142816360651e-01,3.237048905599929083e-01,-2.738739652747863018e-01,4.547201591764309936e-01,-2.747912723277384436e-02,1.134996846595336950e-01,-2.843854153310561572e-01,4.268951365476122417e-01,-4.100772221923882355e-01,-4.732501094735375169e-01,4.948870161292883707e-01,1.399356424986470948e-01,4.965755439728904430e-01,2.659416417153143697e-01,-3.495326769198024430e-01,-2.345444134905308176e-01,3.057305251769661947e-01,-2.402989563716518284e-01,-4.324909603767104205e-01,-7.490145242888965327e-02,2.872053437047208252e-02,8.955114833102231428e-03,-4.919412876007552282e-01,-5.192480671414125837e-01,3.880251612049054888e-01,3.670832703110747941e-01,4.098065642902535832e-01,3.680405473327219568e-01,3.883995926263151821e-01,-3.210592851374096668e-01,2.111235050682010728e-01,-3.767167246530779834e-01,-4.666800694157975382e-01,2.184980042944381640e-01,-3.848355586353426894e-01,6.734366838647137810e-02,3.924350052858499582e-01,-2.332008720553115089e-01,-9.956180674883757797e-02,3.785854259956872303e-01,7.355268190128634587e-02,-3.671280142276010516e-01,3.635129749460038195e-01,-3.355846882035415368e-01,-2.361817224293376871e-01,-1.743194444600986923e-02,-3.036220919290681941e-01,-2.849214760110070355e-01,1.202010459468599024e-01,4.244080043018502724e-02,1.374376342942908169e-01,-2.172062637018347120e-01,3.086325531687362234e-01,8.540873936885777507e-02,9.321574285480355160e-02,-4.732314437095416770e-01,3.441682775903658897e-01,4.725190183027510593e-01,4.401746427016853813e-01
-5.139339026361593454e-01,-4.248470583183347471e-01,8.965687016456538871e-02,3.796772862351775468e-01,4.447896218840888261e-02,1.666203971614477475e-01,-2.560241198441620680e-01,2.301582081625241083e-01,4.578567750531860325e-02,4.179594993734292996e-01,5.034976771246282290e-01,4.156422038681366060e-01,4.464506984467294104e-01,-2.116837638951488965e-01,2.644516281835399552e-01,3.996540463716697356e-01,-5.270946660423034280e-02,1.971469888914673466e-02,-3.592234640442377169e-01,3.433614887874804067e-01,4.346689473761811140e-01,-1.514434538184496748e-01,-1.663103454191388886e-01,-3.349870617751340429e-01,-3.218922719808369193e-01,3.347057959455393417e-01,1.840139307299466787e-01,-1.003759231507306421e-01,-2.939427775464537596e-01,-3.768227554422309278e-01,-1.403366461722361722e-02,2.313362017764927225e-01,-2.132219452817216976e-01,2.680100081053277128e-01,-3.726198260211878444e-02,1.919863396548240619e-01,2.153195194902341736e-01,2.070431649964994125e-01,-3.750138568291553343e-01,2.985060172698523751e-01,-3.574764526684356958e-01,-2.526324227253057830e-01,-6.941354711422273449e-02,6.786373212662628884e-02,-2.927155670245282781e-01,-1.274921661093122993e-01,-2.429587916180061258e-01,-4.037249750846020335e-01,-1.231548714286605506e-01,2.615453378302548537e-01,-2.305815597308515930e-01,-2.782661375130184300e-01,-6.091687709000198625e-02,-2.931014257271840062e-01,-1.021332653313128253e-01,8.058049452246307531e-03,-4.956078110042667073e-01,3.964599760834576214e-01,8.618562289038322888e-02,2.685262176337727125e-01,-1.700212945305913312e-02,1.182924581172978828e-01,5.938235918349769882e-02,6.370793114191379038e-03,1.745728078224785540e-01,3.552603181100799090e-01,3.899737135233166674e-01,2.407261582776177855e-01,1.798448652772301204e-01,-4.246198294617031799e-01,3.069011547772558246e-01,2.679303186373892531e-01,-4.654220475253172951e-01,-5.159972018829483975e-02,7.615711972524875917e-02,-4.563394703962034837e-01,-2.247589198531872376e-02,-4.607814091753394126e-02,-3.365369159048054448e-01,1.305763875943359020e-01,3.677215148441725229e-02,1.079394786614529533e-01,-3.001843084533709627e-01,1.866781091377538726e-01,7.372698811906060190e-02,1.589682164908849393e-01,1.835837491525781628e-01,1.253517844437988527e-01,1.143147085524663480e-02,-1.944974671736020566e-01,-2.747150874948389720e-01,-4.457444671531320401e-01,4.413937987511794281e-02,-1.646223423394856389e-01,-5.912834343413869709e-02,4.232661669437495222e-01,2.188030984754898989e-01,2.632563612982004586e-01,7.016016443109268641e-02,3.818325053486533172e-01,-4.527104212607553357e-01,-2.250046547167707245e-01,-2.424129101097843852e-01,-2.035195333239920579e-01,3.921138956912556539e-01,-3.692607973753688211e-01,-3.595095530008775575e-01,-2.281932725894182667e-01,-2.043357746541889786e-01,-4.226264837999724189e-01,-2.016878361332861413e-01,4.723404757783841168e-01,4.978742424148969170e-01,-1.295338353455205704e-01,1.589633763061507332e-01,-2.268404618344256884e-01,-2.215625055963458823e-01,4.843928249786522144e-01,-1.782413630605637622e-01,-6.505952097982310722e-02
-2.765846232716549502e-01,2.225247348111152879e-01,3.067741775539184479e-01,-1.229985999294030269e-01,-4.230100987707657301e-01,-8.351885646756079806e-02,1.291868853675556261e-01,3.331381467597879231e-01,3.850203781290120197e-01,-2.769048759318041841e-01,4.092247523226461015e-02,-1.696045327499659250e-01,2.809277349911702415e-01,-9.495737591086891860e-02,3.588942229321473998e-01,1.856955692779406752e-01,-5.251406314120327101e-02,4.788604494058758543e-01,2.746507997334473039e-01,-3.978875820645800254e-01,3.314840984885316089e-01,-3.065117629173590985e-01,4.682196489498865327e-02,-2.558403240420275004e-01,-2.328012481504082576e-01,3.056168910025303664e-01,-3.229891828627639572e-01,-2.741627206131981853e-01,-2.198610878893471898e-01,-4.331593313486231112e-01,1.264081766766465553e-01,-1.843915949247999508e-01,3.984608949094432112e-02,7.599458858154600760e-02,-1.675179996427320767e-02,-3.350069151012781687e-01,-1.425691249708807007e-01,-2.514907823417631416e-01,-2.939698770712005915e-01,-4.924771554781222083e-01,-4.649564249522212811e-01,-2.268496258606101934e-01,1.493863710322405058e-01,-5.119680309014621455e-01,1.228301763848559797e-01,3.560783260449509879e-01,2.860277848919287602e-01,-2.635676515366188188e-01,3.002712803799831298e-01,-2.414407869874502233e-01,-2.433101347770727785e-01,-1.887796891767065943e-01,7.452590313729696991e-02,-4.768734933758819183e-01,-3.224761794808932991e-01,3.374971053355657613e-01,-4.927308635800239922e-01,-3.657349227116034607e-01,-2.631484966854633067e-01,2.677525985706513123e-01,-3.694258459401501549e-01,9.922028782657786594e-02,2.913010446971055906e-02,-3.365119147487609652e-01,-3.787623028262924185e-01,-2.966249049490726764e-02,-4.298600236438283595e-01,3.069599243935028920e-01,7.259595787862282990e-02,-4.237141894453240187e-01,-3.791567437953390907e-01,-3.437527676475347627e-01,3.955377727984689118e-01,-4.927413039962046937e-01,1.831263435201518630e-01,-1.954685880278465016e-01,1.596894192472971818e-01,1.649260130941588021e-01,3.370531662111656557e-01,-2.890987021741970864e-01,2.324599667792912883e-01,-1.359604397460506264e-01,-4.532833279346248356e-01,-4.897220209010588743e-01,9.025085543983159264e-02,4.637003223797993984e-02,1.601448792905510801e-02,2.848121560309914146e-01,3.518586619524773917e-01,1.887424211469484747e-01,2.555021290159437686e-01,-2.465805965086640891e-02,3.381227659265043650e-01,2.513101315637617517e-01,-1.850832228143698688e-01,3.374177107089845751e-01,1.576759956833306275e-01,3.829772564506236376e-01,-1.113752018404829403e-01,1.748595909683869354e-01,1.094107040282364107e-01,-4.337154636168419342e-01,2.360283533913429266e-01,-1.016730986079891069e-01,2.756308512433115476e-01,-3.643879554653022684e-02,-4.979214231347953157e-02,-4.068053864704844480e-02,-4.343278586265166830e-01,-3.372768411293375901e-01,-1.555398489702268794e-01,1.821482292229814060e-01,2.674823909653017973e-01,2.982266248780249263e-01,2.547528516142459898e-01,-4.765130322510023331e-01,4.225004997010396446e-01,3.810832323250934461e-01,-4.176777865589519356e-01,-9.777832053688965963e-02
4.373916449288897113e-01,3.294427533510517758e-01,1.162777514162512682e-01,4.185944468277670305e-01,-3.671739157460394698e-01,-3.016124917804811068e-01,-5.000212347348683695e-01,9.506098662580869663e-02,2.890982715832774441e-01,3.293717825478048034e-01,-3.836213766326765362e-01,3.002901984660116264e-01,-1.784629864882138761e-01,-3.203076714018386895e-01,-1.089063444923681623e-01,3.417818915558498150e-01,-4.803374561839789947e-01,-1.091434986890525531e-02,-2.126184908374396110e-01,-1.511062689369485068e-01,-8.608143813875493433e-02,-4.988816747521310768e-01,4.197786317373685128e-01,-3.596568667655043461e-01,-4.328066614319627803e-01,7.010572789912739022e-02,-2.310907774403286041e-01,3.742390539141126071e-01,1.301134830304287449e-01,-1.905389407593555129e-01,-2.783035097513589934e-02,-4.157497265773897610e-02,1.877519121708716432e-01,-4.417372959561973178e-01,-2.464290308597088253e-01,8.836880204557609475e-02,-1.249667243606153964e-02,3.387671022080461225e-01,1.667216897179175927e-01,-4.904284151007803905e-01,3.097911993660100102e-02,2.310043441618474525e-01,-3.085335338088603940e-01,4.795328036705024943e-01,-2.038321741705350632e-01,2.679768514561501891e-01,2.362825515492518458e-01,3.350551866239622756e-01,3.406724719751395569e-01,3.426802097258455637e-01,-2.969936213509458134e-01,4.687157595879026806e-01,-1.704732140071058832e-01,-4.501980190325984843e-01,2.147949638703949560e-01,1.076392511366888460e-01,1.463463963860827111e-01,-7.201413620947516581e-02,-5.839776879542775412e-02,-4.821231542333982989e-01,-5.118209792916049092e-03,-1.359388458075959649e-01,-5.473911627603201407e-02,3.139775713079016595e-01,-4.785309965723826831e-01,-4.549167189761969543e-01,-3.718260351382446927e-01,3.440387139981822551e-01,-2.479975376586894265e-01,2.741640180727916154e-01,2.930710890078025432e-02,-1.127936161295071266e-01,-1.193908694418982369e-01,-6.465718396263461787e-02,4.286161739450936037e-01,3.842987523466198652e-01,-4.912540698807981165e-01,-3.398325172098636271e-01,-4.411137610320033930e-01,-7.507403970198504861e-02,2.338076142091337906e-01,-1.641330325735189666e-01,-3.978275412988000609e-02,2.820320728474873251e-01,4.107284104907982236e-01,-3.045755184568905705e-01,-4.091762549432319263e-02,-2.544353912717132321e-02,-4.064746849454801969e-02,4.615584727036582957e-01,-1.692410938546890231e-01,-6.040362331725390721e-02,3.359487452961130161e-01,-2.090494630552583791e-02,-1.123105058276460955e-01,3.077110888226558538e-01,-8.206586036011760676e-02,-1.998208517026936748e-01,4.744760467486948130e-01,-3.550384844099714332e-01,-2.386337160918875211e-01,5.312684792938186275e-03,3.770944580045741956e-01,5.208491188505036673e-01,-1.027861436108733206e-01,1.110065486787382705e-01,-1.818321865854693742e-01,-9.252631720735263882e-03,-1.501367427933374965e-01,1.166539638620846114e-01,-8.016850954877439983e-02,2.162100509300728390e-01,-3.463777087483685957e-01,4.856530289495442076e-01,3.604754175578248621e-01,-3.876740998607092759e-01,3.856254559557423245e-01,-1.695478510081939449e-01,-2.015417608591235366e-01,-1.044838221699340985e-01
2.997330223096283941e-01,-4.100627787012503522e-01,2.173169805185819481e-01,2.005388160948776144e-01,-1.976618391243365191e-01,3.991281886445815497e-01,3.340990566303392306e-01,3.140308715884470581e-01,-4.317528527289373752e-01,-2.106453899876903901e-01,4.393594706731792643e-01,4.564267706849062800e-01,-1.060501033193788079e-01,-2.889497886515362546e-01,4.450609210557596729e-01,8.910809792133102258e-02,1.058370721834385186e-01,-6.735017033329797516e-03,-3.421947768737692575e-01,3.985971478953865277e-01,-1.228975585558347988e-01,-4.919983936700478983e-02,1.957525928358339884e-01,8.429770077218869118e-02,1.874265549504627038e-01,2.358686739704097535e-01,-3.766636757982430583e-02,-2.705118347539875456e-02,-4.828527985853788701e-02,4.613150206844550127e-01,3.721377428486621897e-01,3.495806867030062381e-01,2.637936471172714903e-01,-4.665663987203800406e-02,-4.961663107092207370e-01,2.228455669651291729e-02,-4.130610372941942998e-01,4.769812359436287341e-01,-3.056599221362119589e-01,6.135888083197644366e-02,2.401691883927163373e-01,-3.542891510274647771e-01,2.442209381870251439e-01,2.655858676726302603e-01,4.578348084394614492e-01,5.311291722535548265e-01,-3.988514913800932371e-01,-2.733192678088273153e-01,-5.585081353118113295e-02,-2.088054719449072005e-01,2.040981970331746942e-01,3.630912971068579465e-01,3.153260373373483749e-01,2.936358178848336165e-01,-2.988835401429131705e-02,2.117482688192839912e-01,-1.175099070618612213e-01,1.454981064070826891e-01,3.173503318736319301e-01,-1.336697475322259354e-01,-1.203653628664222569e-01,1.350259213006707038e-01,-4.030536625433411291e-01,-3.289324385730131861e-01,-8.190795707332414188e-02,-5.055598176844535718e-01,2.436283285927962061e-01,-1.651862986235808073e-01,-2.614151576635609930e-01,2.688028758091129400e-01,4.483391177873390920e-01,-2.414206834219426445e-01,-3.314978123821676892e-01,-4.364413296728311686e-01,2.766293540894056990e-01,1.034140833716466583e-02,2.143716153515468348e-01,4.581927530373332974e-02,-3.507094468364395090e-01,-3.707177954366620565e-01,-4.386232829239232467e-02,2.901556612321987694e-01,2.404547240903134875e-01,-5.794480243232628773e-03,-3.840401979803111376e-01,4.189426882914404349e-01,-2.876529896578765011e-01,-2.396581640097396049e-01,-2.275673339029199438e-02,3.862290159324882066e-01,4.993672470419358578e-01,2.360285820207545793e-01,2.862173258770226436e-01,-3.273811154211968555e-01,4.663717013524465438e-01,-1.272500681920390730e-01,2.260744012086059740e-01,2.866691845072242839e-01,1.129373977499603839e-02,3.348535148469364842e-01,-3.701273893990565389e-01,3.298064475078764102e-01,1.296715682692879124e-01,3.596891260269603763e-02,-1.761650999362009140e-01,3.409363673229636738e-01,-7.207624795898338876e-02,-4.788128825833547486e-01,1.761965571656313179e-01,3.395936509271329506e-01,-1.441279649917150685e-01,3.534971603071448421e-01,-2.072942310123291332e-01,-2.115808906462392225e-01,2.272632294967376620e-01,3.484361014676815027e-01,3.562347798847107505e-01,3.414439733029462354e-01,2.022305674267467213e-01,5.089190425529482864e-01
2.600814930639950284e-01,4.305266356694694152e-01,1.658812702036510656e-01,-3.794656803727689421e-03,2.328041883012380853e-01,-1.261736909542381102e-01,-8.946785845135077353e-02,1.476428094105474154e-01,-4.457999213957777318e-01,-3.778952389013496838e-01,-2.636994224957131538e-01,4.300986561286917476e-01,2.155306721522683849e-02,3.772563119409568233e-01,-4.793278892607138464e-01,4.684108160572836299e-01,-2.641451401245772240e-02,-1.372955753854726742e-02,3.885444763487138076e-01,3.530372833090834050e-01,3.353430311984335055e-01,1.069030126722185225e-01,-4.121626991914213445e-01,1.248086806208616450e-01,2.060463348673047812e-01,3.997680084638085551e-01,-1.021833386744807198e-01,2.420580846457129620e-01,3.177910805658824001e-01,3.416462962798268443e-01,3.733696382261995628e-01,2.789222276048268501e-02,1.167519091691987393e-01,4.195937986940808523e-02,7.183583866358303482e-02,8.337834911690462925e-02,3.187181965811590190e-01,5.024135168366112847e-01,-3.907457140239797289e-01,-2.943362258726265335e-01,3.919877898644852920e-01,-5.115843233897018338e-01,2.224255008267821410e-01,2.541928591503607726e-01,-3.543287727267966924e-01,-3.771219169553742256e-01,4.880245252731240657e-01,1.282882582389780757e-01,-2.402098047811470349e-01,-1.102659255743942829e-01,2.765992436795862708e-01,-5.264669594092172278e-02,-7.110803008067465014e-02,-2.991190720103842349e-01,1.025889186034171646e-01,8.990477238984229125e-02,4.868650320128705689e-01,2.387547652807930909e-01,-2.155329308740681071e-01,1.604887604545592594e-01,3.495605643679625674e-01,-4.462617354799136571e-01,1.368988988048980560e-01,1.569483545185511031e-01,-3.034638392132888440e-01,-2.270300336544493411e-02,4.238116077104504553e-01,1.415972690234008069e-01,-6.120118137480402842e-02,2.400126104815147599e-01,3.158607839227959291e-01,-3.597761816397266887e-01,4.020983481893888323e-01,-1.013237488485374954e-01,3.448629083528484962e-01,2.846901856036805900e-01,-3.353844611917015661e-01,4.070276500329183533e-01,-4.850965956473527463e-01,2.173966859935185236e-01,-4.550542114348659073e-01,1.884103207740059904e-01,-1.372832875268522601e-01,-3.633689208127799941e-01,-8.332596721725954447e-02,4.229639218721782945e-01,-2.394509742772968908e-01,5.026730463739167432e-01,-6.169375035445841954e-02,-4.382201632136821234e-01,-1.470513292175087972e-01,6.149199110020519762e-03,-2.388918325922549102e-01,-4.559641234163122614e-01,2.326545699095580455e-01,1.688932897820508150e-01,2.843657035133453914e-01,-2.890667148788171326e-01,4.275786239154084067e-01,4.295942086373666369e-01,-4.452094651540474124e-01,2.582078183443910491e-01,3.923797784651034126e-01,1.653105869127998728e-01,-2.631026585068698548e-02,1.979518524876057450e-01,2.741709432240163613e-01,-3.826985303891094481e-01,-2.629069732194994069e-01,-4.877273663808610604e-01,-1.659765837832573310e-01,-4.142979873497720789e-01,-4.665258248064189095e-01,-3.661812825084494460e-01,-2.972618058537963570e-01,2.018572854947593698e-01,3.011272078734798519e-01,2.594104916582099518e-01,-4.389126864243357296e-01,-1.539107619228072821e-01
2.109090837652066036e-02,4.665592820678163832e-01,2.266942171693658858e-01,-1.884840811083910994e-01,2.464004515978096832e-01,5.359886593088204060e-02,-3.619367784119879583e-01,-1.089351500069883072e-01,-7.942135242260275896e-02,4.838595266466922951e-01,3.835596398287607345e-01,1.102071725428162702e-01,2.670284187455148062e-01,4.665827072874794146e-01,-4.315134633443599155e-01,-1.003662813392408870e-01,6.959520364469815035e-02,4.230432917290053441e-01,3.480632406506530274e-01,1.507728829296921813e-01,-6.524611282796721756e-02,3.162671325522454779e-01,-4.105330764246484243e-01,2.512014631467609505e-01,3.143198107261648833e-01,-2.120190772119964068e-02,-3.573760852835280444e-01,-1.329999945664540051e-01,-3.014772925499662470e-01,-9.591507656280294503e-02,-1.241064809891528377e-02,-2.619496580752574966e-01,-4.062500365207157710e-02,-6.837498785592720230e-02,-1.812910247959467480e-01,-2.887927711220625304e-01,-3.755885918060982709e-01,-4.719522442911056048e-01,1.045678646830841413e-01,-4.770758709267016728e-01,-1.124555086593553299e-01,3.503477269137462713e-01,4.461719705786181267e-01,-4.122534846526105801e-01,-4.773231287766112052e-01,-1.951036819301591452e-01,3.116986374989904607e-01,5.130229015541508675e-01,2.918165834163264361e-01,1.266026770687544711e-01,-3.313071911100471875e-03,2.769052971714709432e-01,3.503738897619766424e-01,-1.127312341321738409e-01,4.631362156256159102e-01,4.851093133224608500e-02,2.927840725627325891e-01,3.691840284118232396e-01,2.221743567062356428e-01,2.076948604165101409e-01,2.968296512033660739e-01,-4.344790099810479367e-01,-3.381384598373380901e-01,-2.804336021001346824e-01,1.248904967129282340e-01,3.138373275424274911e-02,-6.215102979628864960e-02,-2.572241650509052638e-02,1.574601556739499419e-01,3.568773366256761115e-01,4.240697871835842347e-01,-3.980653028244572900e-01,3.926323598811502502e-01,4.594729224741931350e-01,3.019644571673025801e-01,1.702004189209128382e-01,2.854666247214429631e-01,4.578460391447625732e-01,3.204772221845659796e-01,3.402709308113359143e-01,4.651138667516951930e-02,7.144396789296474093e-02,2.607482098632262768e-01,-1.983335655191879043e-01,-1.606206098279592265e-01,-8.372952097940873639e-02,-2.662381939717092250e-01,3.584750013967186177e-01,-1.357664297503201889e-01,-4.404464131476252819e-01,1.783767428336493210e-01,-2.715435751828748079e-01,8.203112677818745480e-02,3.952525131203745712e-01,-1.373115277017013802e-01,9.786643836315130074e-02,4.777528578283469773e-01,-1.370461202709374327e-01,-1.575116673944619017e-01,4.090419273254040644e-01,3.108196762495789023e-01,-3.257967165425561529e-01,-3.098066026167526354e-01,1.689695140227720771e-01,-4.154415014688007113e-01,1.525394172308466578e-01,-1.513733910223224732e-01,2.780864659391556470e-01,-4.313288225750468163e-02,3.617614433253638073e-01,-1.724566363415123427e-01,6.426398979029374070e-02,-1.378949469127306593e-01,-3.216143434027964876e-01,5.366671395473733563e-02,-2.957017694436452349e-01,-3.807138621699827086e-01,2.638447151585486816e-01,-3.759923560136249066e-01,4.377923944076801965e-01
3.518566859580614103e-01,2.364229031331936404e-01,1.949389613212725858e-01,-2.609478687852402959e-02,1.793281358383072011e-01,4.500961711327980952e-01,-4.491745886959112588e-01,2.336187607418064860e-01,-3.661581916827367222e-01,-7.283114445989201380e-02,-3.135958188495199250e-01,-4.024130301409495347e-01,-1.507664315475577554e-01,-7.069984990127752000e-02,-3.773421551888415104e-01,-6.224568217408325138e-02,7.390223761349404286e-02,9.701920382173617741e-02,-1.064026306644786091e-01,-2.455560842917934028e-01,4.803229393394191360e-02,3.112731841998679916e-01,-4.003180023865574033e-01,1.984436924219699361e-01,1.529378049187482547e-01,-2.875663208977853880e-01,1.427018840671213373e-01,-3.020734931099979814e-01,4.392770889651834154e-01,-3.426843595608046189e-01,3.789472606808868549e-01,3.429066591604242042e-02,2.962537285630331696e-01,-5.525667834834041559e-02,-3.659789241796259085e-01,4.638532463747790241e-02,-3.466318300537010039e-02,4.141527768056584291e-01,8.153246066858665930e-02,-4.380514453500140015e-01,4.611733662095326980e-01,1.831433836910069113e-01,-4.365058937722071652e-01,1.545024762919767203e-01,-2.860129296395503284e-01,-1.529951524048721867e-01,1.598351123642361149e-01,3.463898509213118593e-01,3.943946912953259498e-01,-1.647608580266270717e-01,-4.920454816012524435e-01,2.830986883820017508e-01,3.078553774937751175e-01,2.908622962553780722e-01,4.118320084227166666e-01,3.653556435108042955e-01,2.660079750153849718e-02,7.506180882278185029e-02,-1.132172189484348668e-01,3.954315304927627506e-01,-2.696415094426129477e-01,3.555919014694808866e-01,2.552530730292185135e-01,1.343389848129743491e-01,2.846989908555626614e-01,-2.127203442355697360e-01,1.446450063472305980e-01,-1.430616001545570171e-01,3.758153056928921487e-02,1.785062712549593256e-01,-4.422853749400821877e-01,4.656231107031318373e-01,-2.137142026946801665e-01,-4.581628384347857796e-01,-2.248109328613732416e-01,-5.149030159268496581e-02,-1.241042173408558880e-01,1.304732990011924776e-01,6.233788323519995345e-02,2.399742135229603057e-01,-1.257167159942176871e-01,-6.077252888478344023e-02,-9.677757161877542647e-02,-1.629763356234160965e-01,-2.727527227952433742e-01,-3.915912707957688865e-01,-4.375649309424859412e-01,-4.379768543207782638e-01,-2.494273842258989959e-02,-3.712839173164532158e-01,-1.592895298311665653e-01,8.253976629617912342e-02,-7.526578824686562530e-02,-3.307996906876158327e-01,4.300913083331239090e-02,3.265363619405445283e-01,8.057986542381168071e-02,3.711862741807858690e-01,1.222172991466607267e-01,-3.158195990985712687e-01,-1.855070965257883120e-01,-1.489575890338833142e-01,-3.528959040815440179e-02,2.516147339466542343e-01,1.541108738433845660e-01,8.167112198678878887e-02,-4.603558483473845775e-01,-1.878124735165849213e-01,-2.140777026192563770e-01,5.158876447165235968e-01,-2.113094989206917018e-01,8.750323431447117051e-02,3.139840737079935828e-01,-4.826031289600801744e-01,7.999260089691428988e-02,-9.412497518333295954e-02,4.475041585160858815e-01,2.883695310367153097e-01,-4.021674808265777168e-01,2.484324011514525143e-01
2.565893904402896664e-01,-2.746965408382810031e-02,-2.593284205699002420e-01,1.973280915387377321e-01,-2.132836504946878931e-01,-4.723728860224152837e-01,2.325501793608049095e-01,-7.297749038360558729e-03,-3.988466843995049360e-01,4.578345809655686577e-02,9.626393285545484235e-02,4.084556876627345456e-01,4.801969065680842252e-01,4.776748244168211865e-01,-1.338242932779270741e-02,1.865035594895609605e-01,-1.444989015690141820e-01,2.887612461396698027e-01,1.197342628933568964e-02,1.462386537583558119e-02,-3.837516598774247112e-01,-2.349564634163922236e-02,-1.044722553715111968e-01,-1.612619621930824754e-01,4.759706324351719586e-01,3.198531097052132182e-04,-4.529037061945903053e-01,2.935581372955799462e-01,4.035647451083136383e-01,-5.316333945685742385e-02,-2.551254733664156671e-01,-2.863672445650953732e-02,2.303580050945376878e-01,1.188282927762811664e-01,3.084188827710402925e-01,3.131963856561842396e-01,-4.576332129943929683e-01,-1.542949628027899533e-01,2.701764633633323490e-02,-2.642294427856667349e-01,-2.503071611588104650e-01,1.398890692766729948e-01,3.584287891223668088e-01,-1.131386280700981059e-02,3.140035631824341644e-01,3.076201276223810566e-01,-4.216826378021960586e-01,-2.458803668506494011e-01,3.193721459093039616e-01,-4.355999298636378803e-01,-2.444078846683556128e-01,5.902778665260723090e-02,4.427857946911855080e-01,4.381114193557536507e-02,-2.443172197467175788e-01,-2.164735104092563867e-01,3.715796870206528046e-01,-3.548720715164223050e-01,-4.725459903542309492e-01,-1.026277447175351493e-01,-2.932220912920792677e-01,2.016945651016774366e-02,6.070822776840545387e-02,-4.877255905584124140e-01,-4.712204886192886688e-01,2.268403322406413181e-01,4.165236810711426818e-01,2.961498056581060578e-01,4.532877597315900231e-01,-3.065854677787936966e-01,4.259433003856401001e-01,-2.460543753744564854e-01,-4.909710086570620580e-01,-3.236907501482557681e-01,4.207649001503148134e-01,2.593252832584320711e-01,-3.359815078615178974e-03,-3.242258038861526304e-01,-4.954307512042505079e-01,-3.600661793530191002e-01,4.677956206001015332e-02,5.841803858055220205e-02,3.653599974297096487e-01,4.914099592426502718e-03,-1.471125053081961953e-01,3.561328974971065264e-01,3.737401079607498011e-01,1.455235194936217724e-01,-4.751667822471198899e-01,2.470158153190202543e-01,-4.159717081748628420e-01,-7.901756789120086347e-03,-4.283402016908697263e-01,1.438476973024581385e-01,-4.912289957082050657e-02,5.458628630649390440e-02,-4.890068303596713517e-01,-2.456395044935679450e-01,-4.541979890889583649e-01,-4.347617304621648193e-01,2.113216439769116106e-01,3.637398482668791067e-01,-4.095968080731860472e-01,-1.765813373989375268e-01,2.125009777382657339e-01,2.420020536992396054e-01,-2.908984506265941405e-01,-4.774834731699866830e-01,-4.443657986020395634e-01,1.496635364721315142e-01,-9.600854743826696402e-02,3.164084233349114261e-01,-4.862907441661176167e-01,-2.572766984087796957e-02,3.277156860943717942e-01,-3.563178003226010748e-01,-1.198746993064921385e-01,-1.035815259284683931e-01,2.049523765911856754e-01,-2.358087090421537857e-01
8.292863474931459755e-03,-3.687806253410488844e-01,-1.606760900329104180e-01,-1.271003502825149012e-01,4.381316471855024597e-01,3.606243588071239570e-01,2.973600409809037393e-01,1.123844430960259932e-01,-4.176296637323718697e-01,6.124563862240824108e-02,1.225962220085063427e-02,4.495308240086490770e-01,-1.366829238981538130e-01,1.066734348472383326e-01,-3.145854003185968861e-01,3.560568105429487984e-01,2.886629843611046020e-01,-1.061827925278328727e-01,-3.400133970615435430e-01,-2.590206969428499040e-01,-8.306618614902919195e-02,-2.911213264711358661e-01,-1.991728685308182811e-01,9.707332117180825226e-02,1.977712609718151882e-01,-4.087076713593622568e-01,4.520563006945294005e-01,-4.961154637105727461e-01,-9.481559951726320490e-02,3.359281125715615213e-01,-3.508474980721836278e-01,3.928442428699095434e-01,-3.200043917494893031e-01,-5.517559010641637923e-02,1.358010066153252371e-01,-9.317004676556865650e-02,-1.370859885450111948e-01,1.302095741717338440e-01,4.725978558085444092e-01,4.439867413872771729e-01,-5.195373939828955567e-01,-1.640603376213827791e-01,1.013908576645117243e-01,5.742392338241044530e-02,-3.049587229613326053e-02,-4.548324968354838238e-01,-4.159771998405098481e-01,-9.017311282905163261e-02,-3.678912987628923381e-01,-1.379026579761866711e-01,-9.781018147551180653e-02,4.232131668221452148e-01,-2.858401500533397921e-01,-3.948611060142163676e-01,-2.838990131179214282e-01,-8.888769117125322472e-02,3.459045212571022487e-01,-3.839878347273440462e-01,-5.085093027871712135e-01,-1.134609953538890346e-02,-2.052689824763050952e-01,8.569788681216525261e-02,-3.903198907357440794e-01,-5.111557420893322184e-02,-4.522449425958672831e-01,-2.207485917511019247e-01,8.967055415918702421e-02,-2.813897526585166231e-01,-4.794310126409790374e-01,-1.562853612914163470e-01,-1.773382011507970979e-01,3.368680708773036936e-01,-5.021225951354688632e-01,-4.844170160379938916e-02,-4.633839107534487578e-02,4.524285308613201773e-01,-2.929895839457507742e-02,-3.125536154799632427e-01,-3.912555616360482991e-01,-3.911225905457323959e-01,1.815206635643556166e-01,3.786035887364496144e-01,-5.098752852237944250e-02,4.645455369268328694e-01,1.772710988929998843e-01,1.462381906863446102e-01,-1.056423209681874552e-02,-3.345861683383246077e-01,-4.143450557806882539e-02,2.814698305310674442e-01,1.454854761941288821e-01,-2.363951628783436398e-01,7.535114323452328511e-02,-3.262701693529625451e-03,-4.608032892231442301e-01,-1.377810137181492423e-01,7.524657659958083888e-02,1.889625465097043988e-01,4.528615601881525454e-01,1.742953843558173871e-02,-3.738339053870044504e-01,-2.439545591748660536e-01,1.671182731324893922e-01,3.871053436535906722e-01,2.672416027740250333e-01,3.681128816487469479e-01,-3.351964451573584691e-01,-2.812567846342082234e-01,-4.807214715706925601e-02,1.940239124902282675e-01,3.695304325080777663e-01,-3.587131911745536916e-01,1.804536678039622144e-01,3.506494231746810075e-01,4.466489979000330401e-01,-4.403618856832829387e-01,3.908077099799611709e-01,8.011839992390493159e-02,2.185909249994046899e-01,3.520071346677223767e-01
3.800956411464923579e-01,-2.186342313055243680e-01,6.071775591160993857e-02,-7.138916488869845312e-02,-4.089131573256027385e-01,-4.568603356005244143e-01,-9.900395634715367099e-02,3.440962956611340329e-01,3.172187286109641735e-01,1.963520301188090289e-01,-3.829708056266832306e-01,3.051647383487282594e-01,4.478573935286442875e-01,-3.881953427502883858e-01,-2.066049963417369850e-01,-2.988946581906710143e-01,2.188366871374836931e-01,-6.619372630742649186e-03,-2.695844706905571875e-01,3.420968945266462113e-01,-4.067690505606774143e-01,3.706337508047323759e-01,3.173641061524080098e-01,3.410188323401595889e-02,1.632605465945101142e-01,3.610601982992280301e-01,1.933290474880842991e-01,2.920691221337500323e-02,-4.443156470097536781e-01,-1.911490403390134207e-01,3.359442543029569905e-01,4.481220679137823959e-01,4.178621257908610165e-01,1.666789133542662671e-01,-1.686226968414065996e-01,-3.085303966650773666e-01,2.034144160274542201e-01,3.768827300648848189e-01,2.434940950964014361e-01,5.294600659933656334e-02,-1.704273685624066170e-01,3.144390539118612771e-01,-3.732478850049232855e-01,-1.951945590305164124e-01,-6.829012396585187883e-02,3.828438811566831079e-01,7.128021892369211521e-02,3.546760671381136709e-01,1.319662323216343747e-01,-1.676434938037334454e-01,-3.435347077566285878e-01,-3.525686939485455085e-01,-4.979103804751052742e-01,-3.201337363601255981e-01,8.282135492530150189e-02,5.314230296508754697e-02,-1.350929813608791330e-01,2.665523439451413790e-01,-1.454670005249414644e-01,-1.951785649245151577e-01,-3.189843366964104088e-01,-3.742002572321463660e-02,1.753542515686354053e-01,1.367877141271189312e-01,-1.740281895684506475e-01,-6.625870885858479997e-02,5.135503631314738415e-01,2.692202395616630217e-01,-2.474559691607065848e-01,3.014889498273145008e-01,3.882695294888823812e-01,6.863127036777845469e-02,2.358997927744296841e-02,4.703832040812888082e-01,-2.909806805630161808e-01,2.482339210724098799e-01,5.433749994603763456e-02,-5.278452219588260219e-02,4.164780834175800250e-01,1.187057611721750172e-01,-7.848311013559422424e-04,-1.079047477613919170e-01,-2.843868007488800087e-01,-1.531522734570712474e-01,4.856544066930097714e-02,3.991085552190383745e-01,5.148213003347903438e-01,-3.354649220515860675e-01,2.491709757214331800e-01,4.790798693049741486e-02,-1.329421440498421703e-01,-3.488093352770270661e-01,-9.463123948747942382e-02,2.820971538383753030e-01,3.135433649349345098e-01,-3.917755378537133848e-01,-4.354873916033625836e-01,-1.086369202846687726e-01,-8.896128123985451441e-02,1.609687825654395332e-01,4.789601525677009142e-01,-8.068475700136891471e-02,-3.606472688970737694e-01,-2.704735852613222580e-01,1.141127508116777656e-01,-3.704654911495862679e-01,1.533224017455365462e-01,2.281038986512567979e-01,-3.096914967684297193e-01,1.381150446610762139e-01,3.983123318794696832e-01,-2.052867505267215453e-02,-5.290099338385959582e-01,2.139947760677505251e-01,3.794471168596177252e-02,-2.942223961052617409e-01,-3.528090680446074323e-01,-2.629239437381946654e-01,7.482851864314782331e-02,3.540023214112305583e-01
-8.808346547065509791e-02,2.846194025965317342e-01,2.724765061837899904e-01,1.919644176655617429e-01,-2.589850798565866419e-01,3.174684856381634890e-01,-2.520794061539554654e-01,-2.891988508151634441e-01,5.126886039004027174e-01,-2.603713773750560567e-01,3.863236401190939251e-01,-2.939901358669352871e-01,-8.693919230857474756e-02,-1.535314143177891888e-01,2.206431921934045026e-01,4.744085381089570008e-01,-2.150143423883876543e-03,2.576321272267476092e-01,1.338163012575874777e-01,2.959636417571415712e-01,-2.863723349483058289e-01,1.851512863580039026e-01,2.839713583743814218e-01,2.220190650223954620e-01,-4.190550718920559858e-01,2.734271824677582119e-01,-4.973849689097135651e-01,-1.282553913135988655e-01,-3.181056069771532324e-01,1.333500705277444187e-01,1.394891115723760899e-01,-2.010214577579815531e-01,-6.932684590314031059e-02,3.209008758035560849e-01,3.126461619328119168e-01,3.789545530784878963e-02,-2.158028424820903901e-01,1.014088387823490651e-02,-4.250618646332653960e-01,2.622441528911169661e-01,-4.491924191511643683e-01,-1.545709486993389337e-02,1.710094594879969232e-01,2.948247789098374372e-01,4.268180366534155556e-01,1.202655231067040545e-02,2.595209206077820352e-01,1.497978104260490329e-01,3.609805234786040429e-01,-3.273653440616222654e-01,-4.093662088863836424e-01,5.908022404060284984e-03,-1.952889472685477579e-01,4.728813961713715930e-01,-3.722752082586062161e-01,4.497174699598822656e-01,-2.633134755326621904e-02,4.484642904577930689e-01,2.737800047997002717e-01,-2.072205731911462012e-01,3.103901650335763943e-02,2.449831700433735271e-01,-3.021653296230592534e-01,-4.026024176855645953e-01,-2.464695260924201214e-01,-6.016188444933406182e-02,-2.803818133542376190e-01,-2.213914049946898999e-01,2.142760797277445256e-02,6.751919466792111191e-02,4.293919961789414291e-02,-8.801220550143477872e-02,4.718327052952340228e-01,-3.163360927319287530e-01,3.887821339781589169e-01,3.685692397460505476e-01,3.375072471284930042e-01,1.532606984354333290e-01,3.891689769089498596e-01,9.656644833941957842e-03,-6.896113337031736790e-02,-3.150283364303953920e-02,-4.561184144681650343e-01,-4.111799145206779804e-01,4.202070926217756353e-01,-5.105285362639224844e-04,-2.049013389146456809e-01,1.286389559319845166e-01,3.105765778047956394e-01,-4.884532304615937237e-01,-2.816692574110555292e-01,9.712340809022770860e-02,-2.484150785299759634e-01,1.714948737327894879e-01,1.919637816098499483e-01,1.558698859550674276e-01,-1.253990350380678742e-01,6.684576310623352446e-02,-4.472383368692290917e-01,-3.953069600310575860e-01,4.364907463206734589e-03,-5.180390068474896026e-01,-1.766541731804602555e-01,3.746566684639210387e-01,3.002626667859375348e-02,3.925000697535444005e-02,-3.831722364695388516e-01,2.010556911513191880e-01,3.790451767817330508e-01,-6.691963142373277829e-02,2.854809180478071196e-01,-1.475080323209052302e-01,-3.339133070586865482e-01,-3.161387067504567994e-01,3.751854713968591493e-01,4.440762118082574039e-01,-3.321640072300227620e-01,-4.140870450902108812e-01,-4.324783320893473004e-02,2.104155784497943327e-01
-4.988579578874525189e-01,4.496055229842891299e-01,-2.065630447520667295e-02,1.657217790969773008e-01,9.295090167293003358e-02,4.076808256204652592e-01,-2.015535249991529110e-01,-2.093834185228036354e-02,4.149188403010767856e-01,-2.498529910499113771e-01,3.758879530967770832e-01,1.610489825335848779e-01,-1.107921774754782596e-01,-2.972137880793025988e-01,-1.667725865718369671e-01,3.663803933734417762e-02,-2.632718016297348473e-01,4.250043292334167444e-01,2.606374216199445204e-01,5.145500417683797068e-01,-2.670637765446076672e-01,3.942910550373328604e-01,4.208849096217737173e-01,-2.428816059399938609e-01,-3.357389058512160185e-01,-1.790696450661744821e-01,-3.681977793456335801e-01,8.279563734177056156e-02,2.006385640404552140e-01,-2.870563971351293708e-01,2.260833815619670839e-01,-4.592122920277285081e-01,3.154030665964511204e-01,1.507262657405485651e-01,-4.770851709227185572e-02,-4.275346074209253611e-01,5.610277772977827898e-02,4.747472698919977252e-01,-6.951072341647791808e-02,4.409218626205354541e-01,3.254985650984125733e-01,6.196160557601313595e-02,1.873228277107888071e-02,-4.907263743189014815e-01,7.774948896276162591e-02,-3.197473151385187840e-01,3.492510605883414887e-01,-3.245593319996964987e-01,7.014026078889062932e-02,3.735898135949607402e-01,-2.906665305377796327e-01,-4.608195755891356105e-01,-2.984979905615420814e-01,-3.690338774763909924e-01,-2.101053130901859578e-01,-3.915142048686573450e-01,2.645099007997409601e-01,-2.653496655801143023e-01,-5.126929548286071059e-01,-2.474413312760386230e-01,-4.265695848802566470e-01,-2.160591218393607127e-01,2.510675239436397366e-01,1.056648926493761326e-01,-1.781854344708904969e-01,4.686978183300799516e-01,-4.982962403487818381e-01,4.428847069846791329e-01,-2.167571839380759702e-01,-1.478207519830279371e-01,2.964556631257533881e-02,-1.302892598179607349e-03,4.369091457275694479e-01,-1.444719754784330457e-01,3.551481108347556703e-01,-4.192459891327369181e-01,-9.728304474923336886e-02,3.023880779213761194e-01,2.570417592346083691e-01,3.928091135735898853e-01,-1.596729007741256867e-01,1.769608696832813133e-01,-1.486963535896617672e-01,-4.706427027961789245e-01,4.479943710632747766e-01,1.799590115811008084e-01,-2.690547704941142482e-01,-3.522177305575891482e-01,-4.179724496837631253e-01,-2.061229590869390407e-02,-7.793922372759090958e-03,2.112727866295049384e-01,1.226775682611098012e-01,-3.360438686991089607e-01,-5.040255639898184592e-01,-3.703065238080213706e-01,4.771984723305891518e-01,-3.014611170955106556e-01,-4.741448621293055110e-01,-2.746097704652474270e-01,3.076709310605081904e-01,-8.463236113029164176e-02,3.937594821506825160e-01,-3.233807499836717225e-01,1.365121138918029275e-01,-4.846654398036981948e-01,-1.767193848520238475e-01,1.556462898333138556e-02,2.446125970205210720e-01,3.253066434198723794e-02,2.150928804696347618e-01,3.702953891278061294e-01,1.194625763767702235e-02,-4.556717846308682152e-01,3.581993506926448023e-01,-2.826073794582620868e-01,2.054584658282981591e-01,4.108212630920845543e-01,3.949043088784805478e-01,-8.600353220979503610e-02
-2.350346776729138887e-01,4.729929960548323042e-01,-1.035365846784787325e-01,-2.990166810545172305e-01,3.912461143685273535e-01,4.973070514086673777e-01,3.068050742051908197e-01,2.818229455026789454e-01,3.706611902282699877e-01,9.325613769912912895e-03,3.804670777521279579e-01,4.736516197975277898e-01,4.640038718795963524e-01,1.151120511475424851e-01,-3.116862976923985284e-01,-4.355061980205478522e-01,1.467718760068116024e-01,1.027859650179600570e-01,-2.192625773532302647e-01,-5.671338017499063383e-02,8.468935326555125653e-02,-1.205167995202749004e-01,-1.152419642020970081e-02,4.544707759611041342e-01,3.473469538558883185e-01,-3.446280133818977465e-01,-3.429971807881002643e-01,3.620501627617606633e-01,2.073229458623977450e-01,-1.034661307411143955e-01,1.430410359774845763e-01,-1.448951504615502706e-01,-4.557001057803777289e-01,1.651061288554832585e-01,-2.761873476668718075e-01,-5.252596383955229209e-01,-2.065214932995294017e-01,1.662156008136828067e-01,8.043900323286147513e-02,1.223093743156813407e-01,1.302235334501098685e-01,3.626888738058454131e-01,2.870846848524730710e-01,3.811760508144818593e-01,-4.154934579378129489e-01,-1.631394093667677681e-01,-2.808913469315501010e-01,3.256687578670297567e-01,-3.250215398717468673e-01,-4.878647351564985302e-01,7.652902232577982189e-02,-4.883067513071611687e-01,4.377548945646030365e-01,-1.904785208367228977e-01,5.005085474976871396e-01,1.185157796671046926e-01,6.157490176523217756e-02,-4.513511510102684032e-01,-2.120967247999471506e-01,3.360738340415763553e-02,-2.517261477347082846e-02,-4.187476275992575991e-01,-2.737681583992496726e-01,-2.819949343493999838e-01,-4.497312872566378017e-02,3.496842518861201787e-01,2.196871685576444744e-01,3.122170832628513859e-02,3.815284562195790374e-01,2.536740402030768782e-01,2.546720993551800372e-01,-2.154617991327150983e-01,2.007170542331354057e-01,3.170322288972501346e-01,3.716726316373292760e-01,2.771396446550141168e-01,3.949161879716625023e-01,4.542470508458187339e-01,4.000705362109815977e-01,1.353242033572226166e-01,2.769248899205728476e-01,-1.195167064214522484e-01,3.849613868387026239e-01,4.950172524353635417e-01,-1.613831826929595648e-01,4.765725367165281057e-01,5.297751436971799288e-01,1.328273820300816532e-01,-4.053169979085443075e-01,-2.124369995205592221e-01,-3.483026566914635969e-01,-1.381010326823426011e-02,3.383070010968481367e-01,-7.788432724141111305e-03,1.046805532539284433e-01,2.345619302698593867e-01,-4.383499040203687191e-01,-1.946417789711636648e-01,1.874309390911930162e-01,-3.635756687518913455e-01,4.546493829830683953e-01,-3.825873150843418502e-01,4.240206328783310830e-01,2.079392190203420421e-01,1.933403253683189243e-02,6.609557518943615095e-02,5.075093080678921842e-01,4.335157291287144443e-01,-2.113151773435793801e-01,-4.776012146393450453e-02,1.458108479771466071e-01,4.636106139397485615e-01,-8.747884666268142262e-02,2.834409818691217137e-02,2.886764975423802282e-01,-2.743683999652264949e-01,1.700440264307397920e-01,-5.037431000872150642e-03,-2.864347355235157683e-02,-3.839550003931013200e-01
-2.977027315285304399e-01,1.486376383848644726e-02,-1.480692580604728581e-01,-6.402533175048753453e-03,-3.142989395234250249e-01,3.086282574334263673e-01,3.167780077336875277e-01,-1.179442298219480767e-01,-2.124143028337415751e-01,-4.315822589720096913e-01,-2.064862476331155439e-01,3.191454424646202881e-01,-8.747168856298188216e-03,9.159534141305283872e-02,3.800000382225334206e-01,-2.843785665456927680e-01,-4.379082025089318236e-02,1.052149638194503217e-01,-4.284615013417186757e-01,1.343469096216170500e-01,-4.890556212461045216e-01,-2.339596384972210119e-01,4.912124489856267151e-01,5.620159804102421719e-02,1.967493005726247690e-01,1.770654506128225836e-01,-1.751360736928347754e-03,2.244645241155718840e-01,4.633999407108336244e-01,-1.441944324930352350e-01,-1.252631113688653375e-01,-1.291131635394141830e-01,-2.720456737795203805e-01,-7.939081161344212212e-02,-4.981415879458481188e-01,-6.061386563250519693e-02,-3.909617204929437262e-02,-4.335003345996564783e-01,2.944761576802530367e-01,3.917941438294049727e-01,1.343425927457201907e-01,-1.724951561077190110e-01,4.770122798361901145e-02,-3.317740941921679815e-02,-4.047783714832284274e-02,-3.650526296598898268e-01,-1.676452534614606138e-01,-2.077452622936514504e-01,3.630284580714313591e-01,3.341775836784421361e-01,1.776929589129352949e-01,1.065879039378937326e-01,-4.665403620792445138e-02,2.430397217524653541e-01,-2.283117027468544447e-01,-3.356218265981898430e-01,2.582546792936627478e-01,-1.948394324675578604e-01,-2.627837963646201813e-01,1.203892858046509695e-01,-2.296315125970498916e-01,-4.784561245098348792e-01,-3.865596808897438508e-01,-4.955543273372086110e-01,1.015208999486528485e-01,2.808088589435514537e-01,-1.911243539515764533e-01,1.956034317457463478e-01,-4.401808584393623325e-01,1.001635177046784481e-01,3.790522220768079986e-01,3.982940780971433448e-01,2.350580311270120681e-01,2.444875891086416564e-01,-4.394976913388436990e-01,2.930332649369250531e-01,1.438525851164043912e-01,2.959299349989423233e-01,2.061056799784566351e-01,5.531367290108410439e-02,1.167754740517358003e-01,-2.538341357469003912e-01,1.992221406900246405e-01,3.349268475904132458e-02,2.308963388439555231e-01,3.505438402682982124e-01,4.289566846298245584e-01,-4.274282899718803153e-01,1.742199292263958699e-01,1.817063978527491963e-01,3.162361087973165202e-02,3.444457799685951005e-01,-3.429023600038698105e-01,3.140931113103981320e-02,2.185481310533893828e-01,-2.968752861898962259e-01,4.631648822988955749e-01,-4.173381801553619486e-01,4.368866756308263932e-01,2.769117871088135896e-01,-4.416002459858830442e-01,-3.424201071468088164e-01,3.603945849678991675e-01,-2.546393157036317412e-01,-3.271214732158946314e-01,-2.542980288578222114e-01,3.752809961604652855e-01,2.745328889024709063e-01,6.484172467585988531e-02,-3.794565371468894832e-01,-4.789045707743413427e-01,1.035718521182790591e-01,-2.463338972110633018e-01,1.536311811129572324e-01,-3.883992120664291336e-01,2.447481106219475955e-01,-3.477082158224495401e-01,-2.486895352163453754e-01,-3.557250024307000991e-01,-1.550722506403422012e-02
