5.590807313508008164e-02,8.963344676687880208e-02,-3.785603606933269499e-02,-1.832683844170501508e-01,2.242980933715989222e-02,-8.466958502058473390e-02,-5.316828756200218768e-03,7.442439444846739305e-02,1.076795956991521835e-01,-6.575696228841088065e-02,9.378936285991290589e-03,6.194408458052996086e-02,5.380362118453792253e-02,1.917499967558184415e-01,5.234732959310290507e-02,-2.944749398500256729e-02,1.002184923410595202e-01,1.059796524366116710e-01,-1.135482813899396509e-01,-1.548864810584762129e-02,2.767987523555400231e-01,-2.619559520089423388e-02,5.544196353308489950e-02,-8.234880104656640276e-02,4.356988236185225030e-03,8.428686722926004293e-02,-9.812950158908710641e-02,4.035184208476660234e-03,9.428158438543059183e-02,-1.235827708433362981e-01,-1.654650756040752790e-01,-1.288403949431013717e-01,3.562093372699506877e-02,-7.550630346380113322e-02,1.140529309529057372e-01,-1.660197645284937351e-01,-1.514420482941870871e-01,5.689290369728994441e-03,-2.018160900705282673e-02,6.766473516009262335e-02,-3.085997340704793243e-02,-7.663738469091153915e-02,-2.555621328269856718e-03,5.503030387120657480e-02,-8.699274119811724326e-02,-1.076817526187195430e-02,5.331284284708688592e-02,1.157278545688282811e-01,1.394306356378559320e-01,-9.455255043719842933e-02,4.904408213235381467e-03,1.179354674259488894e-01,8.339340782485368808e-02,-1.186729390190074084e-02,8.461406099620324972e-02,-8.978828089772215859e-02,1.623478450907963055e-01,4.953654917851179479e-02,8.445884988436093421e-02,8.755219007643642859e-02
6.423456579861600013e-02,4.047073862709713726e-02,-1.504702047098522844e-01,9.222228079264215006e-02,4.738798118792794667e-02,5.126648806923373575e-02,4.178807687293741024e-02,3.406753818122418981e-03,-1.704267852691388266e-02,-1.550708499232463997e-02,-1.483385865712406326e-01,1.862626490959500003e-01,6.977567849856299020e-02,3.527914743658933650e-01,2.179065019522561097e-01,8.897842680304469953e-02,2.899076751061964163e-01,1.515079884090168028e-01,-2.629843626175928928e-01,4.851047461672289979e-02,6.306819328081511578e-02,-1.896058096695314166e-01,-9.729699509647238287e-02,-3.954200934117738098e-02,-3.138300673150713066e-02,1.093318751311512516e-01,-7.710951790215800350e-02,2.492416994211087422e-01,1.735505200727503750e-02,1.196779145562502054e-02,-3.871018388199309879e-01,-1.838670715962188729e-02,1.881827567102526966e-01,1.144145750596905625e-01,-1.021353009096427483e-01,-2.582176216861887807e-01,6.649428087404617160e-02,-9.234390133647830956e-02,1.540456054323575963e-01,4.519914700875536651e-02,7.237982127787846720e-02,-1.594595207620108368e-01,1.073337077896450997e-01,3.116429937463748301e-01,-1.769214856995830060e-03,-5.981668854082279607e-02,-2.639656309380284879e-02,-1.295359462707450574e-02,1.556312849591631742e-01,-1.120399109305083019e-01,-2.141172142950807378e-01,2.316515786375906438e-01,-1.374011232789050518e-01,-4.582677259663220370e-02,3.160793921559237885e-02,-3.811109360511456823e-02,8.554222434632642591e-02,4.043926160903060091e-02,3.229466797333004069e-02,-2.067107421760550900e-01
