1.055920368759845178e-02,-3.445877018402020431e-01,-5.375794619133805741e-01,3.190711844381254048e-02,1.567627555216460217e-02,5.826247998863733762e-02,2.536384909900697426e-01,1.953889382553500587e-01,-4.671189904549113980e-02,8.258114590959293733e-02,-3.518822401179887982e-01,-3.200830461997780652e-01,-2.167184911268823233e-01,-3.676671387438407712e-01,-4.041570537104852145e-01,2.156704076813818205e-01,9.873558097068357853e-02,-3.741539157222165124e-01
4.714366867546668227e-01,-2.779432827709369946e-01,4.097792516891893833e-01,3.601879159882800940e-01,3.004953867457730854e-01,3.355034426726711261e-01,1.784920081794427182e-01,-7.991684031198779958e-02,1.091449835086618914e-01,3.335109533859081932e-01,4.438427638830615418e-01,-4.147912575894832088e-01,-2.304386692157034400e-01,-1.415551784359394272e-01,4.754919147577348348e-01,1.161762239129782298e-01,-4.288885760650024692e-01,-4.474194660171836313e-01
3.128192135485040604e-01,1.641315389263268282e-02,2.437966284719852161e-01,-3.975246708547658936e-01,-1.629350243374725338e-01,-1.832691300185017302e-01,-4.109272552247872912e-01,2.667384910704175341e-02,-2.539457004141709717e-03,2.354774722029662759e-01,-3.947912914389821171e-01,2.595218925888413963e-01,-4.105585948346702763e-01,-1.690941856823885148e-01,-3.551820961039632574e-02,2.321036251039983352e-03,3.546834976940445583e-01,-7.330033045880142428e-02
2.587100079652276952e-01,2.129021006481806588e-01,-2.418544320417726975e-02,-9.890681502713379036e-02,3.958611317634877502e-02,-1.786651434826981022e-01,-2.883186966031717896e-02,2.421166168261631169e-01,-4.794434989991540608e-01,-2.550669593223060527e-01,-8.902114057918449064e-02,-4.311405878170408990e-01,-4.200009964924060757e-01,-3.209778894754826140e-01,4.212204611642774155e-01,1.911859777554360262e-01,1.077222532893784002e-01,3.890111386133690563e-02
-2.548808817084163292e-01,-3.694551962470347117e-01,-1.685937816425800706e-01,-8.194626403107853341e-02,-3.833367115965242988e-02,1.737351684707154065e-01,-1.551049748526500960e-01,1.631115567572531122e-01,1.108533508609811126e-02,-4.904964559109969979e-01,-2.503941362866687337e-01,2.259855362265585643e-01,1.273334296170544888e-01,3.044538518556070827e-01,1.622534417806900664e-01,2.684574203556299721e-01,2.392889682366952375e-01,-7.643585178393855206e-02
4.483504848769723772e-01,-2.511986737999069574e-02,-4.397446441213286872e-01,-2.981493262077713688e-02,-1.033393778581912642e-02,-3.699626170745701215e-01,4.174991092774368862e-01,3.152160760255989236e-01,-5.144170638671323736e-01,-3.992577375947775065e-01,3.070893432606289775e-01,5.811737722303586540e-02,-2.748569708423674873e-01,3.056484006914133578e-01,-8.779490869679851608e-03,9.095109856478724407e-04,-1.641925930035557091e-01,1.062959530434215427e-01
-1.500644927955840369e-01,3.394658612238537487e-01,-2.689614696559058382e-01,1.077220521615766674e-01,-1.444033222040234099e-01,9.065261019719733637e-02,4.381846044520127936e-01,-1.500398942266845947e-01,4.974953115586917551e-01,1.068383934325760898e-01,9.990790719088137040e-02,-4.572896716813905638e-01,-2.420477798926774227e-01,3.942811812717347819e-01,4.293992781751242438e-01,-2.223271296615400294e-01,7.257189563986540803e-02,2.985319175992591223e-01
1.061790166071066299e-01,-1.406013857405066236e-01,3.678962179578717517e-01,3.977603676579185565e-01,-5.037520468994359383e-04,-3.653550588044238157e-01,-9.101135457829910569e-02,1.722816759039485224e-01,-2.490407734002232087e-01,2.912335147390970880e-01,-3.352755481760196776e-01,9.440282272190323593e-03,2.342597354413671062e-02,4.127355104489224269e-01,-1.028208089904828898e-01,4.250806950918859517e-01,1.381362249766822647e-01,-3.144162603139966095e-01
-1.692641836635994657e-01,3.618483184909390693e-01,-1.393797181860274847e-01,-3.260178278656548634e-01,1.439537599567754789e-01,1.419972706328830603e-01,2.960388798030752500e-01,1.258850432393220642e-01,-1.109489970619391558e-01,-4.764572107212392549e-01,2.165486919331659765e-01,-2.213853730760360627e-01,-4.612961690908999879e-01,-4.582177621715919913e-01,1.011928746318801059e-01,-6.062165951424552252e-02,3.667687108014652253e-01,4.020354265995669807e-01
-2.302316845340077467e-01,7.038304110698356819e-02,-2.810678338530441800e-01,-5.525438402796075676e-01,2.107953848634216698e-01,2.399202567339128178e-01,4.508545830617372019e-01,6.238763112926714455e-02,4.193451609356191323e-01,3.671030350937543596e-01,2.816290744418692427e-01,1.123322322871401907e-01,-6.760343521012660006e-02,1.065116819614298632e-01,-1.338845162789624454e-01,-2.611718679201631699e-01,4.086896109226549334e-01,-2.660045155058290423e-01
8.809821511791936233e-02,3.731574349157400494e-01,-4.177671519078587359e-01,1.150721962655193303e-01,-1.520783122725398173e-01,2.819417089285313205e-01,-7.699492468959406866e-02,1.254608244064007450e-01,3.346377290092115708e-01,-4.718866092167898763e-01,4.414180933770751047e-01,-5.139951502406042705e-01,-4.752950249511810749e-02,-3.813379223134909513e-01,-3.111050788655720378e-01,-4.456982747565553793e-01,-4.323351261890194253e-01,-4.781608318765926402e-01
-2.419608842450667874e-01,-3.499060072609698757e-01,-3.488073511530264681e-01,1.599686560072827446e-01,3.570344514452717388e-01,1.619543161101860418e-01,2.766935103443254884e-01,8.356392004200849377e-02,3.970124557491632178e-01,4.155374154524328900e-01,2.606078824155260154e-01,-2.009231145786979089e-01,-5.395403552390717339e-01,9.004779799855813782e-02,1.131356804133896443e-01,-4.353325012484961509e-01,1.661177960231447759e-01,-1.172478583505309896e-01
3.810055140139920749e-01,-2.758229630242505226e-01,-2.417781474703629280e-02,2.784200720801290885e-01,-3.026514899120208435e-02,-1.631399342941377284e-01,-1.638654100102911737e-01,-5.706284927407689889e-02,2.446196096788268715e-01,-2.300609903915657450e-01,-3.911049094278514771e-01,3.219311442214161656e-01,-1.195153108989051721e-01,4.914042291581676158e-01,1.055179268291566025e-01,2.745877014003740291e-01,1.100684425567502317e-01,-1.368128210588551441e-01
-4.916705199730219689e-01,-2.213641532608367768e-01,-3.563064223030407152e-01,2.412331550331858199e-01,9.655933053727978888e-02,-3.401579788886768818e-01,-2.162964170136069952e-01,1.874068787070041001e-02,3.670955402937171597e-01,-4.403159822726435690e-01,-2.089403856326412512e-01,-9.375542956413306095e-02,-3.256393241865331023e-02,9.078913857838268042e-02,9.972179448824241080e-03,3.458018136529581593e-02,-3.103040175452341787e-01,3.505108454505086457e-01
-1.207685090053709914e-01,-9.046129984417222714e-02,-4.015855096210278474e-01,3.096838647313802095e-01,3.227896564310792082e-01,-3.926886639010113145e-01,1.380563737486283082e-01,4.384831832252879535e-01,-2.930954716005899074e-01,-1.935414696436077442e-01,-3.043710238397366319e-01,2.538650975108636132e-01,-2.930829589752144693e-01,2.742428098490700128e-01,-1.982167151709427755e-01,3.800413890943797335e-01,2.185973792263117277e-01,4.721628298091211651e-01
4.140119065975496060e-01,1.153969123717982492e-01,-1.085159684553463864e-02,3.876691852295668927e-01,3.847047875817751206e-01,-8.542074125252757666e-02,3.815430540047896613e-01,2.845604454774428721e-02,4.448982302516366061e-01,2.808151801538639747e-01,2.681064227336854566e-01,-4.122805466344208608e-02,3.570584836069906065e-01,-2.831281881107031162e-01,7.170569291377527910e-02,-8.127325639246821623e-03,-4.715102138328992054e-01,2.939991455455350233e-01
3.422632654573215527e-01,3.572609730511470127e-01,-3.502282296274901452e-02,3.623142663583720502e-01,1.856095310522047903e-01,3.534073412058841845e-01,2.167241358596427581e-01,-1.000695624372525960e-01,3.635992589453958534e-01,2.603221520633712260e-01,2.234180183112113305e-01,-4.948754563757524205e-01,1.273879770657598831e-01,9.276452425129702584e-02,-2.427804042994025358e-01,3.841679284640731606e-01,-7.471927853033330513e-02,-3.108078029433053446e-02
1.610017122206328088e-01,2.469342641444163544e-01,3.865289686626022236e-01,-6.462296035871148425e-02,1.444879603424834014e-01,-1.399963412340324460e-02,-1.213941156190693760e-01,-1.026593891989133756e-01,-5.174208246795765076e-01,3.149214366075611671e-01,1.859997342376474294e-01,4.603030360945216670e-01,-1.770812611705954720e-01,1.062481850122731220e-01,1.519535130074725349e-01,-8.004390829759601422e-02,-3.552476342752479144e-01,-1.125022976029537852e-01
-3.857942076779188323e-01,-4.452352443253660974e-01,-3.617191078257517289e-01,-3.981350913946696823e-01,3.444779443939380847e-01,1.746088503472758846e-01,3.334267327228562783e-01,-4.788101598872888942e-02,-3.971406050145617206e-01,-1.158618996589415029e-01,-2.649779498745560846e-01,-6.848942569989273366e-02,3.586912173886579180e-02,-4.598642712406353916e-01,3.195712395856147303e-01,-4.241119537243384086e-01,-2.965151464188599539e-01,-3.767305471116433879e-01
1.272458193042694530e-01,1.865127738022935855e-01,3.878623059517484206e-01,-3.768957800053499563e-01,-1.230765464451964719e-02,-3.554253956095629330e-01,2.776828194581441589e-01,6.388016519374273457e-03,1.580809389658217878e-01,-5.122992610946135172e-02,1.236824077144207668e-01,-2.804895999125899264e-01,-2.259173229665566440e-01,2.542352758168223703e-01,-2.542190206124417262e-01,-4.449693862197645067e-01,4.496243722514404184e-01,-1.393205635153684820e-02
-4.148503432304456173e-01,4.135797476036260911e-01,-3.136529788466507762e-01,2.249316749106501645e-01,2.942934443275733725e-01,7.093874813924694323e-02,-3.309029200733333287e-01,-2.990363982495761186e-01,-2.396230236507573552e-01,6.116215876212673097e-03,5.084294792983183875e-01,-3.035978174773458771e-01,-5.826388659181584023e-02,-4.024947735833223073e-01,-1.215568455905523398e-01,5.402528900328240624e-01,-4.233921440020708138e-01,-4.898508647236854974e-01
3.010644337821911654e-01,2.874803076780270694e-01,4.868016767930383876e-02,4.443500829860026480e-01,1.062501232683167596e-01,7.876259799199742881e-03,-5.663236110010827148e-04,2.354863786486739441e-01,3.247579866529747283e-01,4.391668418826132347e-01,3.412403316957620669e-01,-3.488692442119818993e-01,-5.233379717972833772e-02,-1.713529822145649639e-01,-1.180825838272487743e-01,2.857994416544603622e-01,-3.707873028024528672e-01,-1.624906530112682213e-01
-2.589455541871645838e-01,-1.391836832967423276e-01,6.911300745196018169e-02,-4.074953712979253462e-01,-2.893268591834410874e-01,4.568570947547624383e-01,8.403481510578512947e-02,8.449236406114285503e-02,-2.004525664628979964e-01,5.426801773509926791e-02,1.761508449177019153e-01,2.039111248480961758e-01,-5.732009289587188805e-01,1.457302987887954537e-01,2.929942972020528336e-01,1.130625490889879299e-02,1.116795208898549163e-01,-4.346139257718865112e-01
2.618206162951061122e-01,4.326802376330258770e-01,5.616328714812326428e-01,2.465705471429972262e-01,5.220992583114045793e-01,8.386014578674205744e-02,-4.311374193212951234e-01,-2.904587351560575237e-02,1.191290544959679176e-02,-3.496181163567077532e-01,-4.638138267475226950e-01,-3.873607097490257001e-01,-3.183557008260417542e-01,-2.076799289572854035e-01,-2.959025974350054655e-01,8.534544036871374861e-02,-3.661522939813975641e-02,2.124253171851148703e-01
5.900989571479567375e-02,-3.557688443118305899e-01,-3.996512995262363477e-01,-3.007858941902765704e-01,-3.943057862228303845e-02,1.076830186745393325e-01,-3.029077246682765900e-01,5.017595115339862355e-02,3.739921373170574381e-01,-3.054041835330767451e-01,-1.765964123774213246e-01,1.652260281782329809e-01,2.888537684884329715e-01,-3.563020952094929639e-01,2.009142956895587293e-02,-3.532204187851553101e-01,-8.680683616954286072e-03,-1.085062698374819612e-01
2.798864425101926234e-01,1.136787261324504472e-01,3.355203151445370069e-01,-3.667351259809404351e-01,8.254943016271158729e-02,4.251122072760479820e-01,1.321235054734266057e-01,-1.267603715351057758e-01,3.897610874315303175e-01,-1.437173167857872524e-01,1.020775603044985214e-01,2.953495561807020220e-01,3.034566609998749498e-01,-3.024927040782351972e-01,7.450736066197280461e-02,-1.474818282350081333e-01,3.750097177036201823e-02,3.698987292577864960e-01
2.339897753115483814e-01,-2.279239823747566118e-01,-5.192447404825126789e-01,-2.618730130187745253e-01,4.413557864563611988e-01,-1.944464480436159382e-01,-2.529066546777529734e-01,2.851051402041686056e-01,-4.735853568215832587e-01,1.937278727962825076e-01,-2.083711302407529331e-01,7.098014585151170286e-02,-1.159870557319575279e-01,-2.673450944323481071e-01,-3.526918784277287000e-01,4.252887181183854226e-01,-9.286740372721091763e-02,4.618443742182318790e-01
4.257485700932698847e-01,4.732555079085920546e-01,-4.167765349927236573e-01,-2.793792013146403352e-01,-3.010564491537744414e-01,-6.436322085917720037e-02,-2.561933054550650790e-01,2.923909649438442560e-01,-4.627433506408146560e-03,2.270941971498486867e-01,1.342900911877965842e-01,-1.647041083774518910e-01,3.966389284192677889e-01,-1.293958943489123270e-01,-3.393388012889063110e-01,-2.621799567765265571e-01,-1.888940587382562653e-01,-2.438884048580892694e-01
1.886746570259456579e-01,2.637842141032354371e-01,-1.130680224744871343e-01,-1.306383526587904242e-01,-2.732611474179030830e-01,-1.746268853538253119e-01,-2.274092391784729161e-01,-8.345033539380897203e-02,-4.037847845788259948e-01,2.363224846034666371e-01,1.256651497724936006e-01,-2.537110832003842686e-01,3.342650547185137960e-02,2.139385315181419334e-01,4.203356622695589295e-01,-2.496739852201596832e-01,3.042147001925845640e-01,2.177041976980358950e-01
5.766217800453826009e-02,-1.588872075161875952e-01,4.505235055059021027e-02,-3.654949233898935890e-01,-3.389169086910201467e-01,1.790177425509364290e-02,-3.624310471476825390e-01,3.300630385773137276e-01,-3.587075889737868090e-02,4.682311251037416661e-02,5.244868805185092242e-01,-3.149298550337455427e-01,-8.869185770725435125e-02,9.671677255795205208e-02,-1.688958797128480571e-01,-2.410674479721120478e-01,2.250080781497403315e-01,2.546976480760971273e-01
4.417782905232947033e-01,2.089685552081113895e-01,-2.869199103674743845e-01,-1.405928738732691030e-01,-6.629481124375008472e-02,-1.693730438401377936e-01,-3.302307155136706140e-01,1.308168843639451462e-01,3.877353671622350006e-01,-4.464512941116500766e-01,-1.388000226043238985e-02,1.614653124655434091e-01,2.324811429189256873e-01,4.619196893185416597e-01,-3.682722413788201421e-01,-4.637224638802059373e-01,4.154585312881537429e-01,4.128533824404589381e-01
5.357536081346000317e-02,-4.597772121243736132e-01,-1.213332380333420335e-01,1.359619096826558127e-01,-1.890429335367920793e-01,1.947765486891700204e-01,-2.314201089442772252e-01,-9.039505704636385808e-02,-4.316863358240549675e-01,3.252074403743003550e-02,-2.720286686520137498e-01,-4.586883681922196421e-01,4.168141853778583594e-01,4.028840489640239664e-01,1.368344348989004589e-01,8.044110394128773170e-03,-1.708916074774926852e-01,3.381244308910482110e-01
-2.369363991676679271e-01,-5.188792047287171805e-01,-4.674235063937110524e-01,5.047383789694931400e-01,-2.299013702319452901e-01,2.031669954736630979e-01,-2.135316859920476096e-01,-3.700374454412993508e-01,-9.519070391719008928e-02,-4.397782037928673615e-01,8.699501187116084888e-02,-3.144953450884018231e-01,-4.808354744803678416e-01,3.724718482856813617e-01,1.990147336169551251e-01,2.922459875063499468e-01,4.848710510074143443e-01,2.208028744190579096e-01
-1.172707637402372050e-01,4.935000160093478416e-01,-6.871146361805170744e-02,-1.109811610308850532e-01,-2.804915461057251314e-01,1.753611415891221936e-01,3.543361941854329400e-01,-1.357822842181545808e-01,-4.838280254796361590e-01,-4.712879683935794484e-02,3.154863468258373160e-01,1.606722856937762844e-01,-1.735470453710501737e-01,3.851618641176947078e-01,4.009902982339556554e-01,-3.646099004986810832e-01,-1.485732422773943240e-01,1.258438239993436292e-01
8.625463663645521750e-02,-1.489532093811634650e-01,-3.121033006111724184e-01,-1.115929196718502964e-01,2.717527384429238579e-01,2.589604469749772209e-01,-2.933137454157184187e-01,3.521679842103746516e-01,-9.619667400987062800e-02,1.169183192855646203e-01,4.036217506265856736e-01,4.029932526169799911e-01,1.019575485431080675e-01,8.714925111681912084e-02,9.537635179350789638e-02,3.428077508610500364e-03,-2.254583955160308628e-01,3.715293813116327115e-01
-4.857646495754385785e-01,-3.377871459695849232e-01,3.062512210149886394e-01,2.771272328594677758e-01,2.384262061120480669e-01,2.226309611430216662e-01,3.691492260393549607e-01,2.597403730851906567e-01,-5.141031407751495141e-01,-2.174180628680484895e-01,-4.999778345921704892e-01,-1.534709885514668089e-02,-4.162453068662953087e-02,3.856760678054991232e-01,1.107714101972111231e-01,-5.004471063604029046e-01,1.409901071742580281e-01,1.438978149577038457e-01
3.483293895226436954e-01,-3.563551164395099002e-01,2.745314532834713384e-01,1.737897236986500615e-01,3.887912064992868899e-01,3.145634980500042199e-01,2.177731239423182086e-01,1.029940637701066697e-01,-7.945655448970033452e-02,4.029047358781792654e-01,9.347688220805785986e-02,-8.776087853075563439e-02,8.435680460464234365e-02,-4.901287241477123580e-01,7.492739001679339650e-02,-1.416454549287068099e-01,4.431653882815870249e-01,2.203681424527163812e-01
2.167911558802022853e-02,-3.398042485580754501e-01,-1.132809925831342324e-01,-2.443906822441017923e-01,1.799278751597544190e-01,-1.439615097202137607e-03,4.275258229730170556e-01,-7.310358633712739362e-02,-4.336244521775040051e-01,2.865382564394788889e-01,4.340254607643993512e-01,2.313046452761824967e-01,-3.430817240674700203e-02,-1.938647117739468462e-01,1.419944087790630805e-01,1.463148818848434285e-01,-1.972515409257591945e-01,-1.680296388072931024e-01
-3.530232082203866861e-01,-1.937151775037564971e-01,2.553000215848308385e-01,4.381764894290492984e-01,4.101736350196341641e-01,2.580192091374232666e-01,-2.812985306509985239e-01,-3.880469256090431363e-01,3.491480239671211905e-01,-1.567470583360730807e-01,2.132393884415028640e-01,1.076202482851379566e-01,-3.113821551094634876e-01,4.388158409586194741e-01,6.918705532412168513e-02,-1.006294709718251884e-01,-1.784993525660290986e-02,3.952190167733066195e-01
-1.069846655939893226e-01,3.598382356131867299e-01,-4.392229993284364475e-01,3.283163685756206318e-01,8.001616841212411124e-02,4.114114163906153476e-01,-5.295273432881225650e-01,2.707046636095912229e-01,-3.920887624678240369e-01,-3.872773508410399801e-01,-4.839274965967731434e-01,9.246641410255858340e-02,-2.626293359035402064e-01,-2.092680486895440450e-01,3.933271877459234567e-01,2.088890797714284542e-01,-1.666233149403565372e-01,1.722120771938723538e-01
1.225074165999602734e-02,-4.829894020163409962e-01,1.173955737996047327e-01,-3.146014499181432611e-01,-2.622770164187542274e-01,1.684755291620287365e-01,-1.956827760858232193e-02,2.509661735171503372e-01,3.360467478870222263e-02,-2.197433856261126750e-01,-1.955787372219809639e-01,-2.901929533570783981e-01,3.610946812416779839e-01,1.284684304699097168e-01,2.320079312447720921e-01,6.852073594922451771e-02,-2.381348907615236377e-01,-6.822942459484865330e-02
-2.664737319391551895e-01,-3.349062822820276231e-01,-1.698918201869221156e-01,2.393806612122984512e-01,3.055748978407828997e-01,-3.691708419631081761e-01,-4.811035695898813191e-01,1.039441793299748507e-01,-3.368358902692060175e-01,-2.549300856253580369e-02,-4.457530260984787218e-01,3.464062327841045952e-01,1.856151907772424781e-01,1.722063086461113890e-01,4.492271700950541402e-01,-7.899516944609490110e-02,-1.286981306330830521e-01,1.619149680318053008e-01
-4.062869804063659607e-01,-2.203196588900435404e-01,-1.984812988835762682e-01,-7.894645733997687764e-02,8.958865231959638187e-02,-7.269089227264492747e-02,3.508115104031719195e-02,9.235929410879606394e-02,3.925995507138275720e-01,3.564475394408216924e-01,4.300236925404425925e-01,2.300035482291369060e-01,-7.131429120930007914e-02,-2.607605614287289986e-01,-2.658101652999026454e-01,-7.589576285829935376e-02,3.224516788045267424e-01,-6.779602854976907178e-02
3.572960396528274685e-01,-1.605834016336040587e-02,4.828907826475527520e-01,2.675716275715037118e-01,-9.359712110106210847e-02,4.925018187617666854e-01,-3.461963004376198971e-01,2.245941892101155635e-01,-4.234337411580716970e-01,-2.781779926070939712e-01,3.155619396068775617e-01,-1.914312449949103281e-02,-1.931781897606354159e-01,2.967537685592240224e-02,-4.483436539705379364e-01,-3.874996739288799619e-01,1.591254484208058373e-01,-1.973333293771064034e-01
-1.363488435389437481e-01,2.944612010442501648e-01,3.840182024230956448e-01,2.043501505715333288e-01,-4.177016044761358571e-01,-3.454061022057897806e-02,-9.603674734653465384e-02,-1.028354597192072811e-01,2.857215683071147039e-01,5.957513003314508088e-02,1.138879261929010150e-01,-3.851195667809986234e-01,2.745104207843920285e-01,3.474689147611479956e-01,-8.871132795283225014e-03,1.943461602560214163e-01,-4.460934082317603577e-01,-4.077757463205814448e-01
2.292187076607866969e-02,6.573651226535648373e-02,7.176975237604196235e-03,4.439492250933994022e-01,1.511351902053164886e-01,-4.322727268205666662e-01,4.216350428068385559e-02,3.083563230531924382e-01,3.187018740492582602e-01,-3.123539774849285466e-01,-4.701352499179665134e-01,1.001548555722419909e-01,3.952122150035327630e-01,2.549816327394379203e-02,-4.292187739410787684e-01,4.362452865255221357e-01,4.755526585783052540e-01,2.867834015503548106e-01
-4.198435105809540935e-01,4.522084831398346938e-01,4.732423130953086199e-01,2.758317463081014775e-01,-1.506009963453250333e-01,-8.068579857572469316e-02,-1.939074635292115378e-01,-2.599924910912879694e-01,-1.242552965266705556e-01,-2.682534796318113979e-01,-4.297482420589411600e-02,-2.380573154177425821e-01,-5.090990711830521709e-02,2.695712578060210918e-01,-1.729303819869142944e-01,-1.987425969291432282e-01,4.575520015226709064e-02,4.361733445960567779e-01
3.996435883299190861e-01,-2.759508779668246592e-01,-2.594303317961358935e-01,2.640866094294364586e-01,1.253173024077341158e-01,2.226847530534243613e-01,-4.746719302067488044e-01,4.043729588956698762e-02,-3.429741717790078526e-01,-4.440745818345500640e-01,-7.358794162302863262e-02,2.914367078428831692e-01,-6.375895536867248747e-02,-4.186479180685237500e-01,-4.196358614524752784e-01,2.674686197023272705e-01,-2.156169662719816527e-01,-2.150472668958024886e-02
3.597714317973730869e-01,-3.334668853565003199e-01,-1.406466750233583418e-01,2.570702205916111649e-01,-1.540830907436330222e-01,-1.976753866692221584e-01,3.125286168217048521e-01,-7.151959355627146922e-03,-1.914303040942992029e-01,-1.852446201762854017e-01,-3.801164602352348210e-01,3.665544850182411024e-02,3.412764674369235252e-01,4.252528160201454188e-01,1.944425507846229140e-01,-4.713628831894478566e-02,-3.536657421173016735e-01,5.687299604786248686e-02
-4.490539835288949455e-02,4.640119539641594515e-01,-1.030631851544094590e-01,-1.056886076347452602e-01,3.133492441604587286e-01,3.255110322332117612e-01,3.380839787026421739e-01,2.043900798855102785e-01,-1.745831253406866512e-01,3.638836943122863987e-01,2.556695991631401377e-01,-3.685784403919643015e-01,-3.400151611794332007e-01,1.264056593214868962e-01,2.698041422856857843e-02,1.670103496464241805e-02,-3.216485412502725350e-01,-1.398988567345723910e-01
-3.051393135539376411e-01,3.996525602678378530e-01,3.900305548490363150e-01,-1.775605141670075771e-01,-2.923714753509824571e-01,-3.848017421318535858e-01,1.184309254202220579e-01,5.524403108560530518e-01,4.221560644013918062e-01,-2.144978909984998905e-01,-4.325821135674511875e-01,3.191872742045134825e-01,-4.193112166274596264e-01,-2.093829979201350111e-01,4.552016596283227079e-01,9.850841485196355773e-02,-3.441711648005302826e-01,3.330484381925086224e-01
1.509740311505128607e-01,3.990607385697979986e-02,2.413758757416062106e-01,-3.579161328767792583e-01,-2.750487529511325482e-02,2.134293052472328589e-01,6.714690975707618414e-02,-2.114369133902119502e-01,-1.859577797149285783e-01,4.485475378064038843e-01,9.651097448808880486e-02,-4.179836835543163098e-01,-2.564040235693382797e-01,2.890146968405202244e-01,3.142168909477451866e-01,2.647016771020942530e-02,-4.696759147300328396e-01,-1.674702247213359363e-01
-3.912930752085061470e-01,-4.774351708835745112e-01,-4.852498306103227854e-01,2.288240794899143102e-02,2.944121682697790621e-01,1.674739959161709590e-01,-4.173080037513278162e-01,-1.513396950114551665e-01,1.406779324719520663e-01,2.104481006208469562e-01,4.168898351239544442e-01,4.184833317069055481e-01,1.637083587153190800e-01,3.978998112703016066e-01,2.455458411992670620e-01,3.083450900432121999e-01,-4.304456528562402018e-01,2.777138737606802635e-03
-2.317983823102851837e-01,-1.452581730423325723e-01,5.625932343032405969e-01,1.420665152425996669e-01,3.695440206956027707e-01,-3.608660752078585721e-01,3.805203336783067880e-01,-3.335797323852133234e-01,2.015181980820090479e-01,-6.849985656621875203e-03,-3.434370985462289333e-02,-2.129519526406992991e-01,-1.815001020053041425e-01,-3.363041828593169025e-01,6.787396256503405723e-02,-2.593047507824299824e-01,7.314703497919591846e-02,-2.976857370098968669e-01
2.839801782056824986e-01,2.158772273625509386e-01,-4.020406358075070963e-02,4.770671483840009941e-01,-1.137620547848419844e-01,-3.955226482974297797e-01,-2.314047568766679497e-01,-1.171536498900350165e-01,5.121278827833420921e-01,-3.360187335703263001e-01,5.165453688891442630e-01,-3.401585737618363359e-01,3.090003600069781906e-02,-4.102185084514771152e-01,-2.821860608396282166e-01,-1.839512328782622747e-02,2.925280129456797051e-01,-4.534553166338902153e-01
-1.118331593898775900e-01,-5.134546048164890797e-01,4.379788847424106457e-01,-3.990746658404638603e-01,3.507834578190421326e-01,4.684299403140311235e-01,-4.099914822503695211e-01,-3.593068215355444406e-01,4.104005681461551647e-01,4.148961083450147802e-01,2.679644413901563493e-01,7.753672603000709429e-02,-3.879371418705679919e-01,1.120758355815524993e-01,1.705851731730969323e-01,-4.175146606579104719e-02,-3.349427631743220196e-02,1.703449720723425320e-02
1.851452074279899274e-01,1.766812764173758543e-01,-4.250686010877723076e-02,6.999188816643867050e-02,6.667923225640055851e-02,-5.064635387102243286e-02,2.785492619037200357e-01,1.045786239517642741e-01,4.588244925015731446e-01,2.152759468283026723e-01,-9.600735749417417531e-02,8.695645994658550426e-02,-7.373691208065253537e-04,3.211039777091874714e-01,-4.662502056463720956e-01,4.192640192699179785e-02,-4.326868867157429577e-01,-4.362030186500381879e-01
4.055103900734392530e-01,1.329157506719673698e-01,3.034822850338507183e-01,-1.777194595674198574e-01,2.808147297282078680e-01,-6.789254972201842243e-03,3.024975276609614960e-01,2.883203931870192416e-01,-2.754141272263798124e-01,-6.133775899663813230e-02,1.440947639381977841e-01,1.958939531487089714e-01,-2.110772011736831988e-02,2.800962352049122805e-01,1.451383805515149839e-01,-3.115615593446969256e-01,-4.636752421031160032e-01,4.389761367777407775e-01
-4.538057077000973161e-01,4.823510437976313847e-01,-2.023106098713391421e-01,-4.540965374017548184e-01,-3.732692461627220015e-01,1.279690947045083460e-01,4.825926507451123171e-01,-3.443701280617750271e-01,-2.416261975761112846e-01,1.803487036210158490e-01,3.754286337487114933e-01,3.429542045256003813e-01,-8.800362094887173581e-02,2.028414613502814989e-01,5.089825679091649624e-01,1.113113677876155089e-01,3.344519468015857422e-01,-3.029707598407658797e-01
-2.455775732525135868e-01,-4.394886395346949692e-01,-3.932709126679888034e-01,-3.197596762156512118e-01,-3.090905838734164246e-01,-1.950230186181877989e-01,2.517070827181137616e-01,-3.216385475510687431e-01,3.362083375429580911e-01,-4.111331470997456328e-01,-1.258792289869485326e-01,-2.757608181022417337e-01,2.540217209425938427e-01,4.112476928899497230e-02,-9.137144878211750365e-02,-4.327335346564666896e-01,6.357452114035197499e-02,-4.274503971492020216e-01
-2.302755980866965368e-01,4.046792816370389789e-01,-2.138260228490603265e-01,-4.850246304635250083e-01,2.500197875095976907e-01,-2.947127038630478757e-01,3.708083483126804469e-01,-5.782519152666758949e-02,-3.395972121499108987e-01,-1.469723931838587960e-01,3.886769899780386228e-01,-4.585156806311142808e-02,1.273269831667007967e-01,-1.516781750382175664e-01,2.080034687077108313e-01,5.051170686592854064e-01,-2.449708660254669434e-01,-2.667595566791731709e-01
3.016520696073865526e-01,-2.217493287554516690e-01,1.445920783939472487e-01,-9.674490891296551320e-02,-2.822263494074100931e-01,-2.978197212607164857e-01,-2.274882223250743185e-01,-8.017274149757250279e-02,1.090994044289150117e-02,1.603325365423867443e-01,3.993925373674166446e-01,1.995020999080357738e-01,-3.162627816749578602e-01,-2.955200142462768298e-01,1.814386944004471314e-01,-5.738666724648929657e-02,-1.580340002723073511e-01,9.564589408123831682e-02
9.030321204369617938e-02,1.138913506197083425e-01,-4.033098831176915033e-01,-4.613294186249706219e-01,6.731869926146659411e-02,-6.669872830166481692e-02,3.411590320452408398e-01,2.154007054859118087e-01,-3.759528429196162258e-01,1.840240137083508920e-01,-2.773145903757960329e-01,3.530633746395218930e-02,-3.585288743897507846e-01,-1.537549986040371297e-01,-1.783818061986509051e-01,-4.238614091472808765e-01,1.356944703750287695e-01,-3.329993792836375976e-01
-5.142458595317890291e-01,-2.495169735507027087e-01,2.503643633356721354e-01,-4.791949436934009876e-01,-1.255541361089063390e-01,1.864259347322912708e-01,3.816258289907530354e-01,1.184616194347346274e-01,1.487869959206144788e-01,-1.713281910734933133e-01,1.594135999186524211e-01,1.397021153138756078e-01,-5.247153114721163636e-01,-8.314440008406673993e-03,3.850381665351971794e-01,3.023194356642670139e-02,1.619767731893295704e-01,2.836286844135470497e-01
-4.214428981939988966e-02,1.220598335822081909e-01,-9.513261607753438487e-02,-2.549687745492985602e-01,1.924487182124212659e-01,3.612873671626414263e-01,-4.750061399423325392e-01,2.440108022479199334e-01,-2.783321107426547369e-01,3.474728992056059784e-01,3.583948822201358242e-01,4.274928407709055467e-02,-3.129099204788623467e-01,3.755063410755626330e-01,3.142742122681645434e-01,-2.522827400875728432e-01,4.685449214378049620e-01,3.615925657649446401e-01
-3.671851364468406431e-01,-3.818362400470065032e-01,-8.689579843007258497e-02,-3.285913079555036198e-01,-2.109391514279277402e-01,3.199669459505128377e-01,1.902054745961578031e-01,2.000661253192779210e-01,-8.734203517872766998e-02,-7.195733325052200424e-02,8.977662933393008859e-02,-1.980805916797694632e-01,2.649650277503129980e-01,-8.657371928720909715e-02,-1.996879915938127442e-02,4.574622355063965307e-01,9.490004550563593821e-02,-3.083404343965995276e-01
1.593895549047515126e-01,4.115424643111834646e-01,2.945929336810823029e-01,-2.311033870223623277e-01,1.642708650678909310e-01,-3.729453628172463842e-01,-1.072715537400877051e-01,1.805802194936598493e-01,7.529820652034897865e-02,-3.870563865120209002e-01,4.186081343432102031e-01,2.412589168965625086e-01,3.201106107129821354e-01,8.214953645694497708e-02,-4.696948110713679014e-01,-1.155246851951432924e-01,-2.308474638426424030e-01,-1.765587214220882828e-01
3.756528467581888853e-01,-2.361606498622095818e-01,-4.381956045014810952e-01,2.780030655162061271e-01,3.623853854240399186e-01,-1.967093050738628335e-01,2.856248363386760247e-01,-6.358123919870611873e-02,-8.714162358636154404e-02,3.510222922122350209e-01,6.097545533003525392e-02,-1.846649520591366334e-01,-1.432732391284061713e-01,-7.949369736824170307e-02,-2.096244799035768269e-01,-4.790174345783564380e-01,3.515003967669612095e-01,3.566039925550174017e-01
2.249025046835374519e-01,-2.431618067754184320e-01,2.982142471842919584e-01,3.170607157437632107e-01,-9.319109799505570502e-02,-2.580532748883237470e-01,3.025763523655926046e-01,-2.392854942737096535e-01,2.404202012500747943e-01,3.529131382694797869e-01,1.299760931683520693e-01,-6.463594822397369932e-02,-4.181552459665279775e-01,-5.543976735382354776e-02,-1.018752279332474503e-01,2.085902405572226392e-01,-5.180960189356177414e-01,8.315473675250301122e-02
1.056755368094004222e-01,2.340204035764119617e-01,-1.889101698937188933e-01,-2.303911224235372923e-01,4.068234188696196463e-01,4.478898416139583394e-01,-5.078979486631561568e-02,-4.363687529083749850e-02,-4.454641879522761028e-01,3.635944991467275900e-01,-3.209738596491187868e-01,-1.597685844239860389e-02,-1.108399989144268766e-01,-3.253774943268918918e-01,-1.922332303312104251e-01,-3.818549556454794991e-02,1.630336330111486348e-02,-4.002365201297832242e-01
8.234506002029902405e-02,-1.172694170301129546e-01,1.499171791825511801e-01,2.395633879949585487e-01,5.761648545198832551e-03,4.778031568008777041e-01,1.944884085874517554e-01,3.461046167476544144e-01,-5.099458783269564810e-01,-3.733021481681160769e-01,-2.390705583720403177e-02,2.398253530550553958e-01,-1.353435951159440431e-01,-4.432492403988253504e-01,1.033437981422906105e-01,-2.073866525433935570e-01,-3.627840008301790875e-01,-1.516100120168371868e-01
1.768992997981367887e-01,-3.959181455658882659e-02,-1.005072608145727298e-01,-7.526515185430752986e-02,-3.950231175774363557e-01,-3.526100738938640067e-01,-4.243947593767248283e-01,2.875439484923502653e-01,1.696236533618981357e-01,4.720294137148261515e-01,-2.225008550886763414e-01,-4.323009015329745686e-01,4.381899963956283339e-01,6.724248739349360238e-02,-3.610074434249745945e-01,-3.223048717994476675e-01,2.947703686451564331e-01,2.056425991909745510e-01
-4.549100453618883932e-01,-1.893692490627180147e-01,-1.412601879312868902e-01,-5.072273152515641148e-02,-4.850416399096902920e-01,1.238296792053092676e-01,2.220699453817981950e-01,2.204245679971987837e-01,2.245942556667113454e-01,1.385411643331616871e-01,1.641742310565778296e-01,9.252671981802751411e-02,1.010369572042562475e-02,3.030346311074968687e-04,-2.960345678129087665e-01,3.727517869242661375e-01,1.331841233542359892e-01,-4.733318759830146272e-01
2.022276428294134676e-01,-8.888950719088971331e-02,-1.759814659484189026e-01,2.482144720131569948e-01,-3.196921217477130539e-01,1.734302612587651504e-01,-1.827501491963373914e-01,-1.057464376485177660e-01,4.317347155729611141e-01,-2.931443075489829631e-01,-3.894694453803022594e-01,-1.612329138542736018e-01,-3.737859825828247495e-01,4.734457854148046985e-02,-1.098731190393545110e-01,3.477365802518515570e-01,2.206007904040828971e-01,-4.142711076641988344e-01
2.665509397074085074e-01,2.422250591322283042e-01,-1.040784761179527618e-01,4.338321096034695179e-01,-2.923419032456575084e-01,4.725197107291715937e-01,2.754581711583118375e-01,-3.522600752815924774e-01,3.261657063422480629e-01,-2.766653491278138755e-01,4.689131705255664695e-01,5.155922546087954306e-01,-3.679547513190981611e-01,-4.233844255611881602e-01,3.906119081523040104e-01,3.140155793582932175e-01,1.501317788908982376e-01,1.953329944799749307e-01
3.555874297791611349e-01,4.671495971364036937e-02,-1.448772524324088706e-01,-9.128364689944770682e-02,1.795557707177707074e-01,2.250654844883649142e-01,-2.752122006319094871e-01,2.728151180826721145e-01,-1.291484786372571192e-01,8.229828492496872594e-02,3.644722538389624233e-01,-3.931139885414258739e-01,-4.417679992929156030e-01,2.280323723484873055e-01,1.362268421097666549e-01,-4.599625924962617018e-01,3.444384467680515205e-01,-4.176887305319004762e-02
1.295072036346822941e-01,2.989420110120061813e-01,2.400439374215285540e-02,-3.302310120399182813e-01,4.701696357542110016e-01,-3.440060746160550353e-01,-3.711576292038328284e-01,1.995446443062016129e-01,3.391975867391957000e-01,-1.396644636902660275e-01,1.706097111764170726e-01,1.494595409736487190e-01,3.044086881476316675e-01,4.238504253341046080e-01,4.128284518773058798e-01,-2.385704731900449016e-01,2.257958087345356968e-01,2.888297750176003209e-01
1.025064540245215899e-01,2.585574755934748059e-01,4.449652510149887386e-01,3.708455379200902291e-01,-2.679921475906122952e-01,3.266114030786952394e-01,4.912019681560763629e-01,-2.521280061575381093e-01,3.987239377102483329e-01,4.372619938989350530e-01,5.784955570502575001e-02,-4.223295587683573160e-01,-3.368683947660537359e-01,4.882673986009995748e-02,-2.972799344381777953e-01,1.261664679340695483e-01,3.065739941154752013e-02,-2.365871941239744147e-01
2.264219869720268119e-01,9.935229898578248897e-02,1.305907025597722593e-01,3.234740638277669444e-01,2.074813713745947696e-01,4.066640825831163708e-01,4.757848179782566689e-01,-3.646007164296974912e-01,-2.729894779183786868e-01,-2.500280794676872365e-01,-1.009948770222249131e-01,-3.663769889538750490e-01,2.851238912014912863e-01,1.586648893652903569e-01,2.196932697168826609e-01,-3.533922939342821201e-01,4.160068478758722210e-01,-5.278008011347470330e-01
-4.421646788489869140e-01,-3.865388995793622162e-01,3.698620620183157848e-01,-3.398676259561319024e-01,-1.144818873668676240e-01,-2.381439189187302408e-01,1.447772164593927324e-02,1.811504425128281637e-01,-4.217903178864809144e-01,-2.295936645907859230e-01,8.162157755377574819e-02,-2.868754031561575671e-02,1.738765454194677873e-01,-8.517071001819847414e-03,1.860539039908152420e-02,2.386586863418511395e-01,4.520903345097103676e-01,4.799437388066780663e-01
-4.480618881976593526e-01,3.465406989930833737e-01,-1.650321447614086848e-02,3.818665991069998822e-01,1.391393334324879660e-01,-5.761591609456949425e-02,7.482444511307312363e-02,-3.863137061006314266e-01,2.033238269335541359e-01,2.607287090139170371e-01,-5.142007719126803211e-01,-2.732291142029480077e-02,-3.396131573225221190e-01,-2.629068104261634287e-01,1.558255992892935982e-01,4.966454513558370976e-01,-4.356215220911275887e-01,3.358778532760829383e-01
-3.397080816887862453e-02,2.152736730878293536e-01,1.190625296083628465e-01,-7.599021823266195741e-02,-1.725873302908141615e-01,-2.363678205590105663e-01,8.537286780885472437e-02,-7.407249287144819505e-02,4.474050803019063993e-01,-1.940528893303071489e-01,1.516717214576139283e-01,-1.551550140381729448e-01,5.319186532252878630e-01,1.804860480673889656e-01,-4.043175671685353412e-01,-4.546653869867569031e-01,1.736854184252358546e-01,7.382935473246832192e-02
-2.724522244732774934e-01,-1.642692486643631267e-01,1.125231351758663456e-01,3.962146211621687675e-01,-3.315958162253494490e-01,-2.700969478072774987e-01,1.690452614818954702e-01,-4.936600972281131663e-03,-8.564107434110117267e-02,2.619363390759097410e-01,-9.387525334826413159e-02,-3.295413242186492342e-01,1.830753439978579089e-01,-3.200433781737212907e-02,1.980298551106315919e-01,-6.850153639687057983e-02,-3.843947345485285716e-01,-1.585847783152461443e-01
1.224583831182527310e-01,-3.922723022725652653e-01,1.211707998454925189e-01,9.014538221796329631e-02,2.633489080262000903e-01,-2.284608027775018035e-01,3.382812599276817100e-01,3.277338553651675257e-01,2.351230316434126943e-01,-4.214723469034651893e-01,3.810531132991454850e-01,3.121065691472122428e-01,2.748953711650608533e-01,3.498782337462875147e-01,-1.743919097601895063e-01,-3.630818949959507824e-01,3.892915137044681423e-02,5.153148123126025659e-01
-1.895267384923166598e-01,2.423115356502642259e-01,4.724851393403196043e-01,3.842648817684797824e-01,-1.495088259632101624e-01,4.028908207772164407e-01,3.687840915209963932e-01,1.071301617682558077e-01,-1.016508282808869928e-01,-4.310768044371035002e-01,-2.045015422450880416e-01,2.459845161112276801e-01,5.806081908519929863e-02,-2.245275140859061547e-01,-2.879100108504121236e-01,3.444478199893339365e-01,1.829670528668590757e-01,-6.983729363547767910e-02
-7.678291560683493666e-02,-1.333206689442076598e-01,-5.024484443998508687e-02,3.027219548799720550e-01,8.127148226805672171e-03,-5.041311142215362251e-01,-1.397094143829660795e-01,4.160874706284291569e-01,-7.107596436350832082e-03,1.250635478003802314e-01,4.563994361528525556e-01,-4.750166457543663068e-01,4.818746958609852471e-01,-2.526908918433528051e-01,2.860629351191790737e-01,-3.897912576859497991e-01,3.561212455966796808e-01,2.194717064732388256e-01
2.787365304216691750e-02,-4.333494648531524551e-01,-4.976730053016150124e-01,-6.119347827882244684e-02,-6.517374401201178613e-02,8.937759777590817412e-02,2.010798205057505172e-01,1.170055439467103525e-01,1.467333373948306596e-01,4.274951835922208287e-01,3.644017413854120369e-01,1.555968498395514099e-01,7.761278045309037699e-02,1.832384931252659666e-01,-3.112585541134249567e-01,3.665528661367832841e-01,-4.360336972327509275e-01,-1.191941231591470002e-01
3.936587409053236564e-01,3.360971676813591102e-01,-9.711904146137372018e-02,8.521978397739775335e-02,5.228888017044063252e-01,3.517029647870696402e-03,-9.488990180804814101e-02,-3.375691329668828455e-01,2.891701408298067433e-01,4.198760063829559686e-01,2.124752930125135830e-01,-2.476867582063509432e-01,-3.808704773480195427e-01,4.848966242337381938e-01,1.293288557368260372e-01,4.823051023005699434e-01,-3.859359582445676673e-01,3.539149888269100264e-01
3.596327168775834138e-01,-2.601407689039634819e-01,2.527497503761145722e-02,-2.869389063046277610e-01,-3.735901851279133101e-01,2.318234545059444929e-01,-6.256550616172885937e-02,4.701384409541989884e-01,-1.262914823996262592e-02,9.602452466837364808e-02,-3.287588087118748503e-01,2.254901373633959594e-01,3.205496346202759556e-02,8.524195739088390178e-02,-2.224768313255088836e-01,-4.459406270074103840e-01,-1.869927574073281806e-01,3.856478591759452401e-01
-4.211394939492844047e-01,-4.618636896660970881e-01,6.469467065410039464e-02,-3.817954458732075729e-01,-6.744851818656874554e-02,3.804752280646247486e-01,-1.942718838702703898e-01,-1.450646448860175852e-01,7.075395186014361848e-02,1.249431401668865543e-01,1.653361599616672561e-01,-2.487967599742680336e-01,-3.623382189523917662e-01,4.700319178914411089e-01,2.481665555607711071e-01,-2.232630650511747139e-01,4.177353481182392581e-01,-1.067715010320008651e-01
3.771258915325524930e-01,-1.648351432623591795e-01,-4.146585250910296283e-01,-8.441740832759163371e-02,1.766653322052394726e-01,3.252130725063983457e-02,4.327366851964232763e-01,-1.599731911306242205e-01,-2.432875689604348246e-01,3.653584912418789687e-01,-4.235345493997351718e-01,1.201355058785749386e-01,4.633378202231540621e-01,-3.435128939516514657e-01,-3.414595746422178224e-01,2.981320581139823307e-03,2.368208421364494665e-01,-4.167808956208291504e-01
-4.005118655620527046e-01,5.023569900247366604e-01,1.472196879993825369e-01,-4.622354962631413100e-01,-1.522851019608307266e-01,-4.098568998716460299e-01,4.623707576817257525e-01,1.457257760462784268e-01,5.026973881167200175e-02,4.764984626483529939e-01,2.947697667384539533e-01,2.060884419851910232e-01,-2.452599189691108406e-01,2.496825616470404463e-01,3.661478301106645961e-01,-4.058380187970542785e-01,-3.135389556966532154e-02,3.963539251032521804e-01
2.813043779351338536e-01,1.628696099910934836e-01,-2.947572809371319935e-01,-1.633232861623963583e-01,-7.519415448169136131e-03,3.491575805797483834e-01,4.130057040519777845e-01,2.809324322168909593e-01,1.109177687529301903e-01,1.248607119914879882e-01,-1.233390844692689586e-02,1.900314806409183210e-01,3.436732509487980258e-01,3.787064303762928685e-01,1.367799487182385088e-01,-2.494001273086942916e-01,2.463075884273561444e-01,4.262211897236282132e-01
-2.695316442332037488e-01,-4.057972415850373271e-01,-2.975996152741255951e-01,-1.488576366421056341e-01,1.310129122927044809e-01,6.655177808842394072e-02,-3.266511488590750911e-01,1.197333289826498504e-01,1.366880388549412961e-01,-4.225578040127377366e-01,-2.621168896353692768e-01,-4.127802236498331889e-01,-3.119234666515656174e-01,-9.327711103128734360e-02,2.366563237585807278e-01,-1.772322105863965436e-01,2.897440213469587023e-01,2.028225061228497439e-01
-3.784347275830524104e-02,-8.204787219975322177e-02,-1.801774940150293464e-02,-1.585047153954454724e-01,-2.610685429959925252e-01,-1.489358085070680848e-01,-4.372465900898826474e-01,3.325036346721804703e-01,2.439572910311412768e-01,-1.796335703839014586e-01,-4.653487910733237753e-01,2.251215324329224055e-02,-2.403107225498288813e-01,-9.551336948899850909e-02,1.167921886487338912e-01,2.429281980948276298e-01,-2.613483741479034617e-01,4.299734393872572946e-01
-2.698718872221793075e-01,3.022372033369587485e-01,5.089676182907615365e-02,2.046777092794965780e-02,-6.950654306771932023e-02,-2.748376143681053874e-01,-1.184881712259797798e-01,-1.619957880829415164e-01,1.393823453021321157e-01,-3.971839117802083430e-01,2.441877509347837455e-02,-1.145252945096310454e-01,-1.349645288830852441e-01,1.610182250088840195e-01,-2.580986473831893835e-01,-3.288918352181101068e-01,-1.663650984419296208e-01,-4.325097532611995033e-01
1.674455512575986627e-01,1.488591720333316548e-01,-3.210268107186594611e-01,2.451334411799657442e-01,-1.208594940242490312e-01,-1.174175811730033409e-01,-3.792472687438172563e-02,-2.155207472269492219e-02,1.271987308489162805e-01,-2.353979048718917721e-01,-2.493631838733219308e-01,-2.347615163627433596e-02,1.677511558202411657e-01,-1.620461226643874209e-01,2.680269480793999182e-01,-1.635266756361447860e-01,4.793183567259979294e-01,5.351233922655063840e-02
-4.186909566994862497e-01,-3.509736095501763131e-01,1.029152746409889713e-01,4.385390477328643399e-01,-5.304099289302763656e-03,4.119931184695797000e-01,6.566325008918755257e-02,4.215387567242487310e-01,8.487495575253882485e-02,-2.023327880242184185e-01,4.534155599135408776e-02,3.606148034010972503e-02,3.146683949713917627e-01,4.297161051793326192e-01,3.302436195110614592e-01,3.308050617587887654e-01,4.137218552982973030e-01,2.891705503991123805e-01
-3.219684898507091386e-01,1.029591053458696753e-01,-3.262309552170655214e-01,-2.586478100262717406e-01,-1.970336498104185430e-01,-3.164268211385881102e-01,4.620837306977021997e-01,-2.115555975384269261e-01,3.151743441993051231e-01,-4.797302327965272672e-01,4.105912246831156520e-01,-1.523845675978924008e-01,3.403045891173386295e-01,9.110404323984747088e-02,2.613891863970329021e-01,7.041836026963828321e-02,-3.711599254731280384e-01,-4.370534817870193323e-02
-4.205883073859959520e-01,3.722595754337494900e-01,-1.953329078151970211e-01,-7.719333459067574676e-02,-1.119102609475224608e-01,4.623645386490827375e-02,-7.448754493583055469e-02,-1.362740611361695497e-01,7.629665540163761694e-02,2.777175714809990703e-01,9.221672449509087099e-02,7.644223548897130516e-02,-3.063092016986980748e-01,-3.177074581005207010e-01,5.189437618256332874e-01,9.574598576769036140e-02,-4.602480257847258449e-01,2.566530088056730441e-01
-4.370165560569752028e-01,-3.197171739389694234e-01,3.549566985642430561e-01,-4.517058703933977126e-01,-1.429349959747421017e-01,-2.263030620465136464e-02,6.503820506529699175e-02,1.483815135631550430e-01,8.894336122169808900e-02,-4.258202071023354796e-01,-4.138836317273240639e-01,8.873503819459135911e-02,-1.759101732502909854e-01,1.533711028372772012e-01,-5.242418065836255137e-01,7.765775928757438773e-02,-2.144670370062224940e-01,-1.307281765761346415e-01
5.122295299103302169e-01,3.375249687576498819e-02,-2.539605144567819162e-02,3.592248147629005239e-01,1.770791099406163194e-01,-1.178857299334708508e-01,8.239645521773679426e-02,7.417204940399875490e-02,-2.192508094710416688e-01,1.023806650647250405e-01,-9.146374513030573750e-02,7.302517249601218896e-02,4.936893778610473849e-01,-9.392374626675575877e-02,-3.789409298860859088e-01,5.336932975145110003e-01,-2.607800433561193176e-01,7.689531542622374261e-02
-3.409326894827985344e-01,-3.063294076261036808e-02,4.175848738572283947e-02,3.362702815500268616e-01,-3.495992352582765195e-01,-2.165126121691425543e-01,-5.718330469975216324e-02,-1.585688794725148010e-01,-4.693637176616696077e-02,-2.218415128866301211e-01,1.501348795786522083e-01,-5.540973238502552162e-02,3.813995996699314217e-01,3.071949100936787747e-01,-6.345992819269878626e-02,-1.047617637776654398e-01,-6.977772509639645904e-02,3.545237021058845334e-02
1.609836564974993223e-01,-3.138813691296092334e-01,4.570515655980547098e-01,-1.951094335637834978e-02,2.901016537217579114e-02,2.965979536374045433e-01,2.359545781042513557e-01,-1.965531100305787648e-01,-1.491970214702359465e-01,-3.759992646131987692e-02,-4.080705266130844611e-01,3.522425186480800385e-01,2.392141313773899769e-01,2.435138977746194866e-01,2.656472055964683165e-01,3.690893366315741719e-01,-3.103906899703214872e-01,4.218467011611028994e-01
3.140607056741404057e-01,-3.185078952071059843e-01,-2.819420316939512672e-01,3.031083705137892492e-01,2.076482756276596675e-01,-1.329587856100521159e-02,-4.761298780348630633e-01,-1.471507006888789215e-01,5.165577243037691724e-02,4.396761130192907152e-01,2.164544208389748148e-01,3.516372334565656677e-02,1.561803047541140965e-01,4.709778768350604827e-01,1.855739877033224239e-01,2.879584461885086322e-01,2.878259157606912200e-01,1.104022632644040408e-01
-1.989719762655275948e-01,-1.882053953968534227e-02,-1.346534631193067044e-01,4.231203015693277836e-01,7.792301460802615598e-02,-4.865729409051264276e-01,2.179440188324948957e-01,9.048770034900524561e-02,1.871114463710188969e-01,-1.306425306228629069e-01,-1.351717456290206509e-01,1.951242308454989027e-01,5.143639779763262698e-01,1.042372926198780608e-01,4.448008382170636210e-01,-4.014001050002108939e-01,-1.676965120315771496e-01,4.355861775932834967e-01
-4.084316808564251722e-01,4.240797764111134405e-01,-3.373343407814239914e-01,2.215491484059938995e-02,-1.520331362851690127e-01,-1.846760465001702489e-01,-2.385008434820846679e-01,-1.048766938758158643e-02,4.608761280591065490e-01,-2.471498200657561706e-01,2.241856333239617971e-01,-3.624960689775243994e-01,-3.952285094365844964e-01,2.371704630563850336e-01,5.122224283683891183e-02,9.813995135646384760e-02,3.648922836915811652e-01,3.749204978753808981e-01
1.376709168791283855e-01,2.300250913240760031e-01,-1.268543452082623035e-01,-4.669985533919440157e-01,1.279500615558293863e-01,-2.860392614989904492e-01,4.513080267377579391e-01,-2.619840391293271065e-01,-1.864776682867706481e-01,3.096934862285690149e-01,2.346435028342782614e-01,3.268589367833650283e-01,4.249160171779431394e-01,4.967764935255780112e-01,-3.365246510961722448e-01,-3.456897687496157667e-01,-4.339880315551197104e-02,-5.068402075218663150e-01
2.486044941098009275e-01,-2.001646111719912469e-01,1.948896100785349195e-01,-7.665545595460067363e-02,4.369314292827756741e-01,-3.352527261009685122e-01,7.253391257787359693e-03,-3.159845104114060721e-01,3.843506621056896333e-01,4.429552121322886254e-02,3.352857559953293376e-01,-2.019803315120054787e-01,1.759151745171508852e-01,-1.032941901637294962e-01,-2.536073446047114599e-01,3.300791181265539387e-01,2.461655718567829221e-01,2.883804845229429037e-01
-1.950436194419018776e-01,-1.186434039522741152e-01,2.115714477746721833e-01,4.155310584293767096e-01,-1.190217249121426069e-01,-1.006559863102207270e-01,-8.458725669245389933e-02,4.093011883580314342e-02,4.333310937350105529e-01,4.594635180409981645e-01,4.346682783092471469e-01,-9.832842797945418045e-02,-1.281683263878730106e-01,-4.660966805677038138e-01,2.832381723127642692e-01,3.463207828111163067e-02,3.018428629145917252e-01,-2.018648846802461039e-01
-2.477012944442965325e-01,2.409648264624795200e-01,-1.712441046112767344e-03,-1.513118363710883041e-01,1.279189020638436943e-03,9.561460179532479953e-02,2.346159415704886508e-01,-2.748139954264468554e-01,-2.556253018689803591e-01,-4.368218194360493634e-01,2.005512870555562488e-01,8.571710039282411098e-02,-4.437884890131375548e-01,-1.070656179546835840e-01,-1.012630237234567604e-01,2.827327335692235710e-01,-1.958685683103398301e-01,2.302151000359585198e-01
4.345787369266929101e-01,-3.615779360710730805e-01,-4.476718256874487878e-01,2.126234672984224638e-01,-2.736409693152150879e-01,1.467325666173616150e-01,1.253519190999514976e-01,-2.045035480315954002e-01,-1.072642638126159731e-01,-4.983889043912613781e-01,2.865740949501382473e-01,-3.322028942613728941e-01,2.847084413723112717e-01,-5.053764254380057469e-02,4.792075111331231367e-03,1.654804990727499203e-01,3.944237778078795165e-01,-7.942072973663314578e-03
-2.542634111580515666e-01,4.631109311504937875e-01,5.770501578869854931e-02,1.998807856579487008e-01,5.392974093740818819e-01,1.824538779040367764e-01,-1.232431689661413893e-01,-2.125924992878000797e-01,-4.279681196368075868e-01,-3.473104299896755398e-01,-3.459891277564250411e-02,3.325997012274127251e-01,-2.657401942312146992e-01,-2.069167401949309759e-01,-3.179887316850654178e-01,2.176443649935918823e-01,-1.500826680366422750e-01,2.855269568682354264e-01
1.507192697693441608e-01,-4.086119153996831677e-01,1.468576486608973684e-02,-1.077400200444236511e-01,1.816007417444185645e-01,1.286308741127956123e-01,1.019974773732185147e-01,-2.981943570540518743e-02,4.091959134500761652e-01,-3.814507239915895798e-01,1.753099402330273171e-01,1.498848625821527503e-01,-6.064252222594824354e-02,6.927400858155820240e-02,4.703041169765364016e-01,-2.756773050121956170e-01,-2.293004329977391120e-01,9.456902506019149168e-02
4.614438041006493352e-01,1.040232469376659447e-01,3.758662249786358656e-01,4.450384167706062377e-01,8.936609527885390480e-02,6.973957982142003909e-02,1.786936103834880218e-01,2.944642278753838438e-01,-5.494674848314269333e-01,-1.659742680270384629e-02,2.261431213973552901e-01,-2.908918997862487421e-01,4.338048131570437782e-01,-1.788370440438113995e-01,-1.622491861390671364e-01,-5.992516723654370617e-03,-1.717278981275444649e-01,-1.753400031671904225e-01
3.834149841559912897e-01,2.821642814872240557e-01,5.187692932268422874e-01,-2.110963274866450023e-01,-2.416140893301488846e-01,8.564461697917051530e-02,-3.967123589668829498e-01,2.145172821782844602e-02,2.268823370384527582e-01,3.077710189462201651e-01,4.041444940942973130e-01,1.686201455076758171e-01,-3.602836320982625296e-01,4.906624596862471099e-01,-3.491484118582184881e-01,-3.935480375804009667e-02,-3.921924590302088842e-01,-3.968745136678288876e-01
4.508965987943227560e-01,-1.561235154013603799e-01,3.783913163015614201e-01,1.043775050937561094e-01,7.956629376383672625e-02,2.457374629710437353e-01,1.778585191714315006e-01,-1.865287890197884491e-01,3.669205506065480460e-01,-2.499306338057467602e-01,-1.820599536406226626e-01,2.869677178318846486e-02,9.882821304548833341e-02,-3.050723801515369260e-01,-4.341337997375627755e-01,-1.448228436765779115e-01,-2.882310351217865496e-01,-4.705932251743632500e-01
1.743305277891773475e-01,-1.013657221325652835e-01,-2.814778454268699881e-01,2.179968479174748067e-03,4.262422418244300459e-01,4.199708318716020017e-01,3.374158408273094101e-01,-2.225471859373208128e-01,1.547512894645941828e-01,5.479742000504020556e-03,-3.156039330751731486e-01,1.274850807628639948e-02,5.757286212113402746e-01,-1.814063405250873340e-01,-3.364230610791772991e-01,-3.003835221127326149e-01,-1.753535243597130200e-01,-2.113902769524512171e-01
-2.665415338674546279e-03,3.336228138337195004e-01,1.259400596545323658e-01,3.058300811562474422e-02,2.159982497838266458e-01,3.186156211588888620e-01,2.443127709127412006e-01,-1.996173556600784604e-02,3.490241167564631097e-01,-1.243967333108361023e-01,3.628759600403542729e-01,-8.857475824338716108e-02,2.703856102684533136e-01,4.518529073322511413e-01,6.526681424969123235e-02,1.247378814669652808e-01,4.661738613812437260e-01,2.647171973461642791e-01
3.318218974519648867e-01,-2.577178041587755430e-01,-1.481523194824627132e-01,-1.681105513978887675e-02,3.625636956440293490e-01,-2.018966469832629840e-01,-3.110505636835350640e-01,4.171399382739968131e-02,-2.747994873869006316e-01,-2.880069807565802456e-02,4.645907817434075104e-01,-4.218034468337659715e-01,-4.011649916099611218e-02,-3.614987858476106375e-01,-3.204058962965119495e-01,2.086615127463279096e-01,7.406528453517631505e-02,-4.452738325673304964e-01
