-3.257557642463168590e-01,3.898078677596078512e-01,-1.453232746614637472e-01,2.293507348388911515e-01,4.108803108277034322e-02,-2.911194178301389490e-01,1.498310877447480427e-01,3.481938396598371344e-01,3.214905521547206102e-01,-4.697054316487030978e-01,-2.437919546616130334e-02,-3.300968032912941497e-01,-3.706266311754232712e-01,1.908411386357016792e-01,3.638565843079723527e-01,4.895751548002002518e-01,4.368552982661667583e-01,-2.152792718876430089e-01
-4.430281297229201054e-01,-5.864399835881806133e-02,2.154106048665242225e-03,-2.793439498108957197e-01,-1.580205046507187072e-01,-2.913711545269033198e-01,-3.323654500565311753e-01,-3.429312852283175062e-01,-2.373696725620149384e-01,-2.317790241641534965e-01,3.014138642609016927e-02,-1.501600190343041485e-01,-1.949814504951044580e-01,3.000833755362563027e-01,2.308059148597696730e-01,-2.152402193162189503e-01,1.451799612162539988e-03,2.968852412300329036e-01
4.511888385971218884e-01,-2.668769843656607771e-03,-2.100627354223633669e-01,1.317060751847539124e-01,2.961645278359241740e-01,-1.512268270950764548e-01,2.034616493214335409e-01,3.262652018918372199e-01,4.247813148413657758e-01,2.934364801820165680e-01,-2.264663078662075280e-01,1.077181752646909491e-01,2.624606579875182200e-01,1.648895328697654872e-01,-6.768255837738705594e-02,5.844460884107153392e-02,-4.235147573042793434e-01,3.260956050121253669e-01
1.754423631562440633e-01,2.051585962858801238e-01,2.330515992955792814e-01,3.621726819000115616e-01,1.701360453383899407e-01,-2.888817697687748876e-01,-4.264560845919975196e-01,3.435644402514401730e-01,9.185711717205326254e-02,-2.407430963132637380e-01,-3.493810380146468719e-01,-3.028502392993315251e-01,3.761618197919020662e-02,1.863808019025064988e-01,1.872095654821265276e-01,2.682214842872036598e-01,4.011135299784759911e-01,-3.625130707206872249e-02
-6.577013443529465542e-02,-2.873864770139133301e-02,1.348521782178290773e-01,8.409881750156943114e-02,3.330826487075222442e-01,-1.939179737329646269e-01,1.055318044847575049e-01,-3.041380222803519856e-02,-3.988011467024686896e-01,8.810551936902644024e-04,-4.427065113717106870e-01,-2.742552612986216554e-01,-2.718656666871078764e-01,2.360137067641135122e-01,-3.596639362374816073e-01,-4.435820468728569055e-01,1.392665544182705162e-01,-2.003664691900861050e-01
3.117798144731628307e-01,-4.633978965089374791e-01,-8.513224864838703221e-02,-4.279313135366366039e-01,-1.509128991361439187e-01,-3.504081680818902367e-01,-3.720229503392551429e-01,2.265146006877044593e-01,7.138454093356676189e-02,1.917912172805932569e-01,-2.460082299539273765e-01,2.142092796782432695e-01,3.412776365903280040e-01,3.571545371914326417e-01,-1.014293240423444903e-01,4.095772552660792432e-01,1.734242752854375513e-01,5.290172278070871814e-02
-8.344388274170055908e-02,2.446341890265687768e-01,-4.094893185269156688e-01,-4.549653200034065592e-01,-2.157908615503377828e-02,1.144719159986932328e-01,1.525490465351590497e-01,-3.954129273708269499e-01,-1.499008441395330571e-01,2.778346091505681792e-01,-1.115927778439241430e-02,4.073409863399773956e-01,1.201504338273477607e-01,-2.919818887972603916e-01,-1.354430584784279967e-01,-3.134045601725159447e-01,6.054042485754564801e-02,-2.539052969717259245e-01
-4.752219884444737752e-01,2.384545712977045318e-01,-3.769911131517901248e-01,-2.067808858988618992e-01,3.971710334499917172e-01,3.453098224674506361e-02,4.470625244098953011e-01,2.964424611581174818e-02,-3.681797272667467480e-01,-2.443577931533684744e-01,-1.701199112457963541e-02,1.711477247828757930e-01,-1.249718463007260388e-01,-5.047329342596306168e-01,-2.726175398340858202e-01,1.274992422266007230e-01,3.846167987345863182e-01,3.868315104612489730e-01
-1.595178329756541391e-01,2.049319064389463207e-01,3.030010107156234644e-01,4.432399922426653593e-01,-4.233846471779015297e-01,1.033476326326020073e-01,3.552289834185596296e-01,3.473047007081636606e-01,9.975727964575185902e-02,2.186700493954679431e-03,-3.897483565714618403e-01,-1.019988545822853032e-01,1.926563969971006873e-01,4.098838787582033127e-01,3.771842115628344372e-01,1.835362762779605417e-01,-1.180721519779114092e-03,-1.750415588333708306e-01
4.578233032066698072e-01,-3.203775217082465154e-01,-2.752419687861577535e-01,-9.819074936926278085e-02,3.600923206190260739e-01,-4.247042628899107553e-01,-1.664170116629709040e-01,-2.870809997219694321e-01,2.399957661525371211e-01,1.197384647376877331e-01,-4.608220825216648997e-01,3.032865235764594658e-01,1.109153501824974575e-01,-2.691036109843335522e-01,-2.785238922315499965e-01,-2.514154760296448757e-02,-2.020041945693556995e-01,-2.048390305096268738e-01
-5.063175658712203431e-01,-9.861203988879213567e-02,-1.232191037619850965e-01,6.831485188678544131e-03,-3.071749195462094018e-01,2.240724605853473550e-01,-3.743236660414302475e-01,-8.126108155533029107e-03,-1.574956479706399737e-01,-3.871354478019322087e-01,4.816659275603847323e-01,-2.060294725389663628e-01,-7.380779351464818172e-02,2.619521877000186016e-01,2.757717728197406903e-01,-3.721514885375412085e-01,2.127454691976603529e-01,5.659716305480770593e-02
-4.168609015894393921e-01,-1.166667681808473273e-01,1.485334313936369777e-01,1.183197885526403315e-01,3.533487743516307011e-01,-1.920782633363161181e-03,-5.888145109868663657e-02,-9.288826295979123182e-02,2.296799395958955270e-01,-3.228365180065104756e-01,-1.550324568962948291e-01,4.551027877316881631e-01,-2.769898537461381038e-01,2.400257508663142803e-01,-5.649781763121161093e-01,-3.942942055651763589e-01,2.566853300741230859e-01,2.859936184205407184e-01
8.433538253497385728e-02,-9.731231074864103714e-02,-4.304147800359145459e-01,-4.255992136370826406e-01,5.073655745784571014e-01,-2.859366462841897993e-01,-2.384025751601605847e-01,-4.102097905796869282e-01,-4.113309533616450464e-01,-4.104141535717803491e-01,3.063882304499486176e-01,4.433769968488702751e-01,1.153752916480726698e-01,-2.824829584750388478e-01,-4.173744133500134068e-01,1.170913113831299895e-01,4.876805660060520298e-01,2.124669567268834824e-01
2.935271437829448105e-01,-4.649661739804679672e-01,-4.619089213756227830e-01,-4.663800886067842599e-01,4.428029083815858691e-01,-3.291854633174217670e-01,1.517279471737690288e-01,2.429740482582175842e-01,-9.042459246508924298e-02,-2.231217327962292385e-01,6.890937143088858574e-02,2.501912087102279303e-01,-2.944290283310229892e-02,-1.546780168328307226e-01,2.151825520427761984e-01,-2.548245873553479646e-01,2.023386145327140673e-01,-2.203159380504769727e-01
-3.562214862853788633e-01,8.736606098834273637e-02,2.931961351538563132e-02,4.626726809398163942e-01,-2.006021552576486011e-01,4.404662000781757458e-02,3.056970529728579855e-01,-4.182670817677107133e-01,-1.852389795388582339e-01,3.429164177815018366e-01,3.809162760605622200e-01,-1.390221139984735288e-01,-5.970973248293048180e-02,2.475744984499280432e-01,5.312077830140763401e-01,-1.551303324230596525e-01,4.321083166034551670e-01,-5.165444867498963921e-01
-2.732726053768681496e-01,-4.801027834779359599e-02,-9.989022911559559958e-02,4.750936841298822322e-01,2.329985141128234905e-01,-3.895369364217947106e-01,2.450268332165315976e-02,-3.373011704519009446e-01,-1.425323021844150106e-01,-2.433874298684363113e-02,6.235626024322737937e-02,-3.081223542037206942e-01,3.229787828701117802e-01,-6.187945546270123831e-02,3.659677064890299869e-01,-3.760673244525031267e-01,2.590738453894830262e-01,-1.167402646220130902e-01
-6.627652122805329643e-03,5.258938979284351056e-01,1.409317426723097344e-01,4.817500255082708960e-01,2.725240016479635874e-01,-2.778831261134816488e-01,4.676827457477179817e-02,-1.200110636743476622e-01,3.922953157112501477e-01,-4.389203224442569939e-01,3.660052468847141971e-01,2.799264530844486898e-01,-1.095074780907889650e-01,-2.653400520850432986e-01,5.093690072707567351e-01,-9.260160188018037863e-02,4.793754618916239996e-01,2.707532938794963151e-01
-3.233131347361754560e-01,1.583593837508066871e-01,3.071204533382283497e-01,-2.252465185610271481e-01,1.052669298830095392e-02,-2.796389687675943092e-01,2.530016749961943034e-01,-4.422940503488967945e-01,-2.993793451390174831e-01,-1.245244676892045266e-01,-1.114206357758579756e-02,-1.826469891035498727e-01,-4.683107971025188970e-02,-2.935782074006614284e-01,2.502837754896410916e-01,3.053761249183269966e-01,-3.082758564823049330e-01,2.136770120676853013e-01
-3.824774730275223855e-02,4.545360709038391844e-01,4.101554617498786026e-01,6.739625182439150375e-02,-2.421843608333960063e-01,-3.501634010607547753e-01,4.261231910021762159e-02,9.411977513373319393e-02,3.970206518295484877e-01,3.108665958125551021e-01,4.661756453427922109e-01,2.612383302096398796e-01,5.177597094093763230e-01,2.088991885544873653e-02,1.617483512984727034e-01,-6.280616375693526265e-02,9.622202052232993463e-02,3.953079870907323934e-01
-3.968773518727227723e-01,-1.614111629866743503e-01,-4.251661565682576249e-01,3.057863454924743540e-01,-2.330631651072998245e-01,1.951962283164204170e-01,2.983374742796022772e-01,-4.041635951888372658e-01,1.824934210178466854e-01,3.293717721781202479e-01,-1.156120696139974063e-01,1.535396082810721874e-01,-2.709845811402546434e-01,4.860137198205519843e-02,-7.669098371988807006e-03,-2.446281483022359482e-01,6.186780745526044428e-02,-8.964630143287929953e-02
1.462042034981904208e-02,1.664352134445192810e-01,-2.712144891750701420e-02,-1.597540448561140525e-01,1.201839296876636154e-01,-9.081218091808034021e-02,4.530157922155314543e-01,-5.616066981826965676e-02,-1.707192547310675823e-01,1.631018371740471651e-01,-2.351877915499798466e-01,4.496090800334194282e-01,-3.171072213319167110e-01,3.273275315229584592e-01,-9.029350516441862762e-02,-9.965404303168688693e-03,4.652554706567123000e-01,4.981503367366772461e-01
8.505695861884712827e-02,-3.392420237151340112e-01,-1.435044834880773446e-01,-5.372958305199920098e-02,2.998627902078730978e-01,2.255157658783210062e-01,2.026039500569359886e-01,-4.385634432536471006e-01,-2.308966435499997666e-02,-3.908482986747847110e-01,2.036824732737256560e-01,-3.105268987611533582e-01,-1.523418822001406346e-02,-6.260451224992169550e-02,2.804522744229071551e-01,4.761390573277346494e-01,-4.416375448804297221e-01,-4.404443122298618563e-01
-2.267790623076577639e-01,-1.374951940325808419e-01,-3.250245697129774403e-01,-4.506654145977589399e-01,-4.125211900367605211e-01,1.117735366166557054e-03,8.371355091886879818e-02,2.901380732806941865e-01,-2.850970457108477074e-01,1.413943610486769961e-02,4.486612728787336413e-01,3.807757490260396671e-01,-4.147957417855944184e-01,3.616925614416778845e-01,2.140145132911911441e-01,-3.006132241545231842e-01,-1.372344794978712923e-01,-4.056906567189111912e-01
-1.638264849669704148e-01,-3.631150970574041625e-02,2.994585336082823956e-01,-3.946263947399365479e-01,-3.091004582947131651e-01,8.630197221380091210e-02,-3.510467563035640226e-01,3.290445766153639318e-02,-2.682480267262675189e-01,4.408766859756688139e-02,3.029702616684100680e-01,2.859275005020414095e-01,-2.436137510192881994e-01,-8.233163068484740388e-02,-6.212610432041168473e-02,4.089401062024546341e-01,6.786287649547610712e-02,-2.694668183556381269e-01
-3.192201574335988834e-01,1.950777187796292889e-01,2.302538484644602867e-01,1.122624619123341744e-01,-2.209179075997109443e-01,4.002791322050425760e-01,3.226046219358527090e-01,-8.022991490173479734e-02,-2.406911070131914354e-01,-2.616660800056416214e-01,3.960389524746906753e-01,-3.898586363678896993e-01,-2.931436837542036322e-01,1.066722345900408542e-01,4.459555615999623579e-01,2.032279925406646481e-01,2.747828718878409515e-01,2.795111895411212521e-01
-4.909703108042436925e-01,1.035511296914688045e-01,4.740418182384832924e-01,-4.760457018089691017e-01,-3.600386432700727196e-02,1.450662779837865179e-01,-3.372049544772608987e-01,1.776312516825535037e-01,-1.255969636311712601e-01,3.434047343171942046e-01,-4.170264819033674408e-01,1.752390627851103388e-01,-9.176076130895287342e-02,5.493961944051612561e-02,-2.180473914340801678e-01,1.835771473294620648e-01,2.957176788893117747e-01,-1.396229447548319458e-01
-4.245437831520553762e-01,4.917931947458162867e-01,-1.331921843879622092e-01,-4.314257282907160013e-02,-2.723334947043052345e-01,1.511344662737641176e-01,5.890226110431304000e-03,-1.858075942603328590e-01,3.395569474950273503e-01,-1.594941619002610556e-01,-1.849445664916571710e-02,-2.376877356620145931e-01,-1.512852724342562682e-01,-2.091559227111218777e-01,2.049207813847260529e-01,1.871688157792181784e-01,1.121106583623821124e-01,3.521772169895504567e-01
-7.712967814306313785e-02,2.116264628373717149e-01,-1.400993517181886305e-01,-2.241219436227860906e-01,-4.421300676913005878e-01,2.467939779609758522e-01,4.299300869304363282e-01,-4.241432989330572445e-01,1.411134088742383164e-01,2.074544329825332156e-01,5.069853605072485031e-02,3.139629870247772625e-01,-1.145308472051757426e-01,4.814859022858957727e-01,2.596250737566523914e-01,3.837285446187525539e-01,-1.679581209565212674e-01,7.489056827720878828e-02
7.630753149440389072e-02,-2.256942658622472231e-01,9.970313725515142500e-03,8.041271176760515782e-02,2.589525713549249361e-02,-2.384731287885919482e-01,-4.237147820325278258e-01,-2.700274955679064781e-02,4.796444395966574792e-01,-3.902822990692562111e-01,4.425988845040768616e-01,3.642974935801932546e-01,-3.235754762006105567e-01,3.312764295771297718e-01,1.345095798119841923e-01,-4.355053394931098221e-01,3.482428086212828178e-01,3.026301387460333947e-01
-4.251570144526084505e-01,-3.180370693152376194e-01,-1.824241147899961779e-01,-1.266602677831996614e-02,-1.841086844132691913e-01,9.578783684917976937e-02,4.883085379600979326e-01,-1.892166472562834267e-01,2.417876307667697275e-02,-2.483729402927383756e-01,2.759986361417652301e-01,1.383732508299846120e-01,-1.498447379814710212e-01,2.381622271043750683e-01,-3.517922382660251257e-01,3.527325479246296025e-01,3.890942686695983421e-01,3.738556339556334818e-01
-2.723978625441719759e-01,-8.320059139610416765e-02,-1.598547453717334421e-01,-2.444936097638257186e-02,2.465952704890382319e-01,-8.417638343730224348e-02,2.761080158048864197e-01,7.135406932054368101e-02,-3.473718943150883032e-01,-6.406867420794178092e-02,2.305464813322108120e-01,-2.733467907671115471e-01,-2.180746831947928399e-01,-4.596349997360136275e-01,-3.529609015999978783e-01,-2.330977687866505055e-01,-3.707158563356630632e-01,-4.909937412729155626e-01
6.739647572979338974e-02,3.279009319504579967e-01,9.747369995959455358e-02,-3.795800223783872829e-01,-2.834937502309061164e-01,3.429097920566794300e-01,2.423581448454106002e-01,-8.280090594940898996e-02,3.363620163175806144e-01,-3.962865131976229804e-01,1.112348732007074625e-01,2.254240217343650432e-01,1.364438788146814241e-01,-8.344247722765295305e-02,4.669366002170725061e-01,1.498226480657668114e-01,4.681028901384772234e-01,7.591212777306559356e-02
-4.982599557663969919e-02,2.077024911990788258e-01,-9.998120303134414022e-02,-2.567449844837265682e-01,-1.113938170510577891e-01,-2.353244777732433901e-01,2.833057634459814483e-02,5.848649181156453242e-02,1.079425052295727161e-01,-3.209974099658839397e-01,3.345471196674695280e-01,-7.827662223418871412e-02,-1.551422964061999477e-01,7.503723624609684624e-03,2.146856903082259849e-01,2.069442403468403358e-01,-2.714220626092261890e-01,3.970299723663795466e-01
8.242122275248782437e-02,-1.916588151904855819e-01,-4.134918817209953801e-01,-2.976741267053431006e-01,2.890980441956603753e-01,-4.134388270601895288e-01,3.204585585287509919e-01,2.930019717105552535e-01,2.570292818513439381e-01,-5.191904954917000437e-01,-1.244318220868850799e-01,1.443303384137799850e-01,8.331941585446506204e-02,4.717277386597616418e-01,-4.861474808223859578e-01,2.033999192757989238e-01,-4.010985818735665065e-01,-2.781953618225480387e-02
1.071544737124595185e-02,-1.614003382513936879e-01,-1.297418712301083576e-01,-2.454144608318451215e-01,-6.040587266435573296e-03,4.447808732470348581e-01,-6.669922079235572968e-03,-5.982377819287885978e-02,-2.068662505234404592e-01,3.626502002527082213e-01,1.022499079103105640e-01,-4.377358957334443607e-02,1.361375478333382572e-01,-2.897228529988228954e-02,8.961002609580864808e-02,-1.751103371804628717e-01,3.610910951965400073e-02,-6.428898826732604849e-03
9.861205925453188359e-02,1.397884463909602748e-01,-4.634791495945267958e-01,-2.485057622382303155e-01,-4.886868552132606763e-02,1.370904289426796985e-01,-1.220375198126179977e-01,-7.952030406385535155e-02,1.673771748170322649e-01,1.377395306912465034e-01,-8.525439569154973085e-02,3.991340366358883118e-01,3.611290944097566569e-01,4.005415431953191496e-01,8.127890087063140145e-02,-3.624188987683434893e-01,5.233168714759446338e-01,-1.484776585791480197e-01
-1.743798910628295007e-01,-6.861196014699907919e-02,3.040248522900559913e-01,-3.920934754879148998e-01,4.632410804646314162e-02,-2.241744431865441978e-01,-4.162558597541232003e-02,-3.932620031208106659e-01,-1.082228255842345582e-01,-3.446933494899610817e-02,5.290185449012655555e-02,-3.095076629543264124e-01,1.884028536329059034e-01,1.156102955132925526e-02,-1.063897532373052693e-02,-3.413597462085725676e-01,-3.996632520131108146e-01,2.361017043530962145e-01
4.141356407231526204e-01,-1.046893910247529286e-01,3.065867611198999643e-01,3.148057408534148116e-02,-4.878402299553825094e-01,-4.635812594308719725e-01,-2.361675653236436356e-02,4.827948759486616614e-01,-3.265003262949738860e-01,7.935517851158005453e-02,1.125878729671146022e-01,1.035105730691925630e-01,-4.610480253853498356e-01,-3.077972245467535117e-01,1.738020709579628231e-01,-4.330155429648170351e-01,1.690485100015164110e-01,-1.599559216868273737e-01
1.843411254766837148e-01,-4.035133938772763051e-01,-1.702629918368108175e-01,1.289042635329142872e-01,2.433121922754709066e-01,-2.027011794435999992e-01,-3.383606274024723581e-01,-4.791936518239526266e-01,-1.927731325817053920e-01,1.674795963055511136e-02,7.216274910898323736e-02,1.443789586853009253e-02,1.543196450809448117e-01,-1.458141973272980563e-02,2.384872102301791308e-01,3.160680801143414542e-01,4.292943251784331893e-01,1.144660115458533689e-01
-9.003537949704298752e-04,-2.179207345435920096e-01,3.759952703788673190e-01,-4.125464775661856209e-01,2.347361264940379666e-01,4.368323453267993206e-01,-4.634074455190115849e-01,-2.463765125565833269e-01,4.394704533622783016e-01,3.749975173696777023e-03,3.452951831005340311e-01,-4.236563548253263756e-01,3.210326432816099640e-01,-3.297709456007041351e-01,-9.315834774737175028e-02,-4.386986605061026223e-01,-1.248734130014519800e-01,-4.149031551479243074e-01
3.951398550894442696e-01,1.278385408120555344e-01,-1.571850298721149232e-03,8.269818555283607597e-02,-3.077901154757311519e-01,-4.345390244760672371e-01,2.506385866368389670e-01,5.033245435629852826e-01,3.382721961939550992e-01,3.603194014807005741e-01,3.398697064603015683e-01,5.744661327797448425e-02,2.151798238941940999e-01,-1.922959434818996560e-01,1.195826383747066041e-01,2.920278125878060793e-01,-1.379732529034571054e-01,1.005740086069922823e-02
4.779943956186178400e-01,-1.178138413661017625e-01,3.559915943181894415e-01,1.127072024479192427e-02,1.194210999780443046e-02,9.416630448859335256e-02,3.458463898763324273e-01,3.611641984740112110e-01,2.457683844609400148e-01,4.752352820906108888e-01,6.157314957203024325e-02,6.802268036994270350e-02,-3.195669986892175629e-01,-1.652574174321541078e-01,-9.187173649412727627e-02,-4.107568509124880085e-02,-2.207577570289812885e-01,5.884289516510253504e-02
-1.165726058217596110e-02,4.884477459247332093e-02,3.317674041243213745e-01,-2.527130184115644052e-01,-3.632409648469717700e-01,-1.400909045500100814e-01,-4.868384579428887415e-02,-1.921663237505769062e-01,3.190993783120182892e-01,-2.577371352980234627e-03,-4.950644088199185333e-02,2.530885710129641142e-01,-2.424741195928986903e-01,4.161783790057235755e-01,-4.878918878313160401e-01,-7.550020220941897064e-02,-5.193186762075792107e-01,1.266608155841503769e-01
-3.656145833987199945e-01,-2.199223439519155110e-01,-5.936860931521945051e-02,4.372288755369830304e-01,2.368615882858495225e-01,3.291167907430916917e-02,4.023578106821762423e-01,-3.588292440268703865e-01,-2.195306353809516053e-01,3.152859731852529768e-01,3.914577945933211400e-01,-1.164175479720448853e-01,-2.350788420816588287e-01,-4.077674067232321953e-01,5.434513419399937817e-01,-2.423234920048786267e-01,5.147787914548380694e-01,3.926657699534770729e-01
-3.568513339169696041e-01,-1.945105010387290223e-01,-3.570137824799520798e-01,2.342947321568330243e-01,3.622392034122579041e-01,4.320880444268823672e-01,-4.677404656452648912e-01,1.450817536264524810e-01,-1.352977625822865959e-01,-4.814724229784265730e-01,1.725356255077816663e-03,2.613697145836127445e-01,-2.378924536018855174e-01,2.357817535224601968e-01,4.755853892474205639e-03,2.841071372836669884e-01,-3.775721922329273728e-01,-4.531225948942220472e-02
1.444662728394799922e-01,-1.618744784820757288e-01,-3.608337690932515995e-01,-2.261256805792714319e-01,-1.821676338691479158e-01,-3.661575077631008535e-01,4.456831683004862099e-01,-9.817488933404926177e-02,-1.933547269086915987e-01,2.820648716785266741e-01,8.785589485085275319e-02,6.064722476825508135e-01,-8.814920848802086650e-02,4.203369522577757866e-01,-2.727403836619691213e-01,-3.441650872352117196e-01,-3.653726460875271198e-01,-9.072565434854326649e-02
-1.538943575899275051e-01,-7.411353807659964987e-02,2.204191500639467172e-01,1.574159224275706037e-01,-2.647698683932464547e-01,-1.185102039222592080e-01,-3.277638415902278668e-01,-2.665237949235363391e-01,1.856608779843029744e-01,-3.629559763301677955e-01,1.389491707039250123e-01,2.708404525219015313e-01,-2.213731192701165751e-01,1.707764932676877345e-01,2.800191509989702343e-02,2.867530501579535485e-01,-1.946339677785879074e-01,-1.030988693675842921e-01
4.445888813055770550e-01,-3.024863828282245981e-01,1.793752871697898987e-01,5.184350870608423617e-02,-2.252461696601092689e-01,-2.916800184770578785e-01,4.074708548601470581e-01,1.300512282653991381e-01,-6.913387544615501312e-02,-3.632238960248114212e-01,2.656332722155781978e-01,-4.523760738114214197e-01,-1.009687112876742621e-01,-2.362995241314095052e-01,-2.629116292525180976e-01,-2.169280144894925322e-01,1.692756594086865796e-01,6.738109513017839780e-02
-3.173547894985476736e-01,-2.613913777621798551e-01,-3.757957541333694085e-01,-3.575408670168072622e-01,-3.768379536936413698e-01,-4.627210472680998166e-02,-3.500740400027087529e-01,-3.180079958702293763e-01,1.703084864693271416e-01,-2.640324653502147245e-03,3.625354710872157882e-01,2.032401388749087157e-01,-1.430894668937870429e-01,4.548049922997074446e-01,-6.198646286883584267e-02,3.572792497320294025e-01,-4.966209427329329115e-03,-2.283546677120410484e-01
2.825581896051543862e-01,-2.605480413113139826e-01,1.849909119798712198e-02,2.251955624192062688e-01,-3.111556765346709108e-01,2.475626540419532395e-01,-2.636128957773811177e-01,2.032213416810522144e-01,1.772773368369225111e-01,6.527548643960792707e-02,2.913597788091679686e-01,1.312849029030211112e-01,-4.390839048175962378e-01,-4.167813868406435307e-01,1.206316205999488217e-01,1.842512078647340901e-01,-3.018648381631778774e-02,3.177175692265455376e-01
-3.436185134395720042e-01,-3.472201110539508973e-01,1.138387093583374809e-01,-2.874779601390133887e-01,-8.892482592766295935e-02,-4.745882728278245088e-01,-3.057164282530758226e-01,4.637449639023507042e-01,-2.942402460157407251e-01,-2.780971051403631211e-01,-3.232083136606806462e-01,1.733470300412110199e-01,2.155497486343844193e-01,-8.530998143310236648e-02,1.043305426783166512e-01,-3.090428559359573724e-01,2.227228300760022150e-01,2.595493322450121987e-01
1.858604779969535159e-01,6.177096397786852044e-02,2.725947506743391924e-01,-3.695538760449543214e-01,-1.208498841175009719e-01,-2.237736609038196989e-01,-3.191382377953632665e-01,-4.049650542197310576e-01,2.053658825844407454e-01,-7.616572428952123053e-02,2.905631550286981724e-01,3.194245268867655363e-01,-1.219994347524290118e-01,2.887909663502045698e-01,-4.539650951619088048e-01,-7.789195705656956625e-02,2.970552042270453441e-01,3.056587762305897349e-01
-1.937837190437524948e-01,-2.370307095418130450e-01,-2.409593932854982856e-01,-1.893441733005079425e-02,-4.478531587045713191e-01,2.893582635071887399e-01,-1.769932935452032674e-01,2.121467742196887774e-02,-1.074186699539797230e-01,-3.661422504423507418e-02,1.903112140336474245e-01,6.549403502162058112e-03,-6.830019888749577772e-02,-4.638767702752675803e-01,-2.690088094810579866e-01,-3.404371228406245509e-01,-3.116567756882246965e-01,3.135861153190218076e-01
1.004503879494272611e-01,1.423280653974109689e-01,-3.859987336011685422e-01,4.510581754154671663e-01,1.287758505967238898e-01,-4.966941401237897624e-01,-4.261973422501994513e-01,-8.506774806584058157e-02,-2.867731274711489697e-01,2.281064151105580418e-01,-3.402840748194551485e-02,2.445916054936290562e-03,-4.028904881984231995e-02,1.397272030664252485e-01,4.937550218078083641e-02,-3.030179341715626973e-01,1.969376076760115946e-01,-2.050500561815771228e-01
-3.450922548349473207e-01,3.535654509499415177e-01,-3.969044090949817583e-01,3.596027209470081809e-01,-5.602006224056171879e-02,3.876838154149418458e-01,-3.076157243307621747e-01,-2.160264868871657751e-01,-4.245361358759809356e-01,1.835543206540387051e-01,-1.354143970468685634e-02,-2.700806759585112626e-01,2.205460883404370132e-01,-4.081000030459208672e-01,-3.167209332056625803e-01,7.454224746815371616e-02,2.469877591534223593e-01,-5.152695085940577346e-01
-4.122692632839134452e-01,3.517582107624124821e-01,-2.169226578719743101e-02,-2.724494107052498060e-01,3.139989326744903053e-01,2.518109928297109223e-01,2.735103309000194161e-01,-4.212685031445730921e-01,-1.830767459531924268e-01,3.082279579257610203e-01,3.869387235791735824e-01,-4.116551531111019568e-01,-8.546994199790672320e-02,-1.470339932646044789e-01,7.406834496256334277e-02,-3.439136570292434802e-01,2.247317035258266371e-01,-3.199762494012029640e-02
4.904435011940030259e-02,1.445093336261450701e-01,5.682770545260024120e-02,3.212354754952074787e-01,2.860046639096250898e-01,2.667795817816628889e-01,4.155884368005212381e-02,9.265815330884405454e-02,2.132488861637447386e-01,-3.194999301395790026e-01,-6.411456417993492696e-02,-1.324389782362183909e-01,-4.193677479921750217e-01,3.265029641851627251e-01,4.377229201844407558e-01,3.335001513826109099e-01,-3.802048089076952575e-01,2.422536224228173385e-01
-3.700576737951771777e-01,-4.123756259208883335e-01,-1.967731405847467085e-01,4.265025031308552483e-01,-3.875172052923773758e-01,2.108477484897021692e-01,-1.373178336149822321e-01,-1.320246810957523553e-01,1.530186047292809437e-01,4.861692826503341003e-01,-3.565523239128069038e-02,-7.882150065981728682e-02,2.030773644929848021e-01,-3.641927246408452890e-01,5.000184260272307890e-01,-1.992673428001670854e-01,4.729286146981161176e-02,-9.047875245109923692e-02
-2.282872996316915593e-01,-4.928701793828093591e-01,8.567195057078756670e-02,-4.624597910210357377e-01,4.572842092915418988e-01,1.177127868274369937e-01,4.692090198547478885e-01,1.977913812133245686e-01,-3.145212592773453664e-01,-4.330685385725767111e-01,2.530960237664077184e-01,3.814782355677889814e-01,-4.116683884564565910e-01,-3.601370217025390286e-02,4.425316198701805259e-01,-7.867754362476382657e-02,3.531366081278036143e-03,-1.772889899819184434e-01
-2.162539232512262211e-01,-2.431243357278463080e-01,-4.601466633520367444e-01,3.650333448972047923e-01,3.122566732654971089e-01,-1.683506942820496011e-01,-2.464992430319437600e-01,1.027608627683812698e-01,3.274205463592180232e-01,-4.400008060085526806e-01,2.645388335181894646e-01,-1.315952059947807784e-01,-2.475419653870580827e-02,4.746980569012725915e-01,-2.754889973992691865e-01,3.252569033091121664e-01,-4.343376693475050621e-01,-3.283761374999449867e-01
-2.781609110799163620e-01,2.501750424882735052e-02,4.750972122395747954e-01,-4.144612971133480039e-01,2.722788455794915019e-01,-8.395480693212581391e-02,-7.608587320077841998e-02,-3.707353555661878075e-01,-3.942728687946583377e-01,1.091621614761928982e-01,1.275782083759191277e-01,1.034746584959159027e-01,-1.911096563922284330e-01,-2.641054556131264275e-02,-2.187072503787699518e-01,-3.185109765532171955e-01,-1.135651445416582528e-01,-1.918475941211944535e-01
3.447141823582880460e-01,1.356920793052802110e-01,1.132977175237059875e-01,2.372143778252192026e-01,2.158695842578880197e-01,6.430393804966505478e-02,-3.498019693633589999e-01,-5.579863480360700706e-02,1.421756313901925868e-02,-2.015207951713842982e-01,-3.458017090753140454e-02,2.377711551807282775e-01,-3.109259914121132451e-01,9.830926055054865775e-02,2.991880265228271663e-01,2.982476503489528974e-01,2.882577927370353829e-02,2.899749902180352445e-01
-3.978791125508482907e-01,-3.897719011078263907e-01,1.639342789247537902e-01,-1.505068559574013753e-01,-2.411241157251406142e-01,-2.609735983145853866e-01,3.821677184673153427e-01,-5.005628848626286764e-01,-3.224726179908286583e-01,2.282156042642120297e-01,2.774744920218524258e-01,-4.081395018227992194e-02,-1.447814913861939223e-01,1.329752798642343803e-01,4.805707329631131453e-01,3.519462461193749170e-01,-1.429613358470493284e-02,-4.363243994550169980e-01
-1.186262715868006135e-01,4.659381120002205057e-01,1.796748139814158263e-01,-4.352031820284670838e-01,-2.162191190593517887e-01,4.897104039892004601e-01,-4.232490342211960854e-01,-3.226263311099843989e-01,3.724369847289131785e-01,1.077940984372557087e-01,-3.245915700957655581e-01,3.593469778286015326e-01,-6.116537509278186652e-02,-2.427834941648431277e-01,-1.001123100913292319e-01,4.086381068604468814e-01,-1.751324609457546866e-02,-3.807344188957375447e-02
-9.191849312872797662e-02,5.374226879251350203e-02,-3.042189793044738910e-02,3.023853270193966880e-01,-1.255740005664835179e-01,-3.386165388037944979e-01,-2.154073587471593831e-01,1.470679363014377461e-01,-2.507295795141972206e-01,-1.921836810594647615e-01,5.243103899478657876e-02,3.661664007402641308e-01,-9.819918954601151995e-02,-4.531900810920921896e-02,2.657196601475828035e-01,4.152388341615687040e-01,-4.210938483005110533e-01,3.119429501594352949e-01
1.178517563336394930e-01,2.133540496675311593e-01,5.349184268146942728e-02,-3.203802195568285494e-01,-3.849013556691738835e-01,-3.254695245616192056e-01,-2.973919425542187120e-02,-1.230875056580127413e-01,-3.398697186063828757e-01,3.645627499316549947e-01,2.598176361702605672e-02,5.079371505707089285e-02,1.561855622394478227e-01,-2.465352316202408800e-01,3.855695725102424309e-01,3.648550105406917488e-01,4.396378981386567797e-01,-4.436414888754146579e-01
-2.602752548241963892e-01,-3.998022217564507069e-02,1.884708941369387103e-01,1.448684113547508701e-01,-1.029270602660558274e-02,2.631323183491132700e-01,-2.795731188329262165e-02,6.915127513365199041e-02,1.443784248509761281e-01,3.605219644431643111e-01,1.484015612795615835e-01,7.643838740035130419e-02,-5.248025120075477945e-02,4.339070868007274262e-01,5.675525020067383880e-02,3.858205690312213054e-01,7.046463814643977308e-02,4.370648153515173107e-01
-3.013838905090659992e-01,9.931107272424173626e-02,-4.942248661154369782e-01,-2.372125742415713209e-02,3.329154836870691914e-01,2.454254323696185569e-01,-7.859069316283821827e-02,1.780067527583244491e-01,1.873500224083400612e-01,3.810015012387451550e-01,4.462355810566107084e-01,-2.730851344148204629e-01,1.304893458809579798e-01,2.605378089669551089e-01,1.052082033601187405e-01,-2.418797464524583551e-01,-4.471042229681055358e-01,1.476746464053072527e-01
3.194087424318182711e-01,4.696263649808122831e-01,-2.384231593097456414e-01,-1.299652130013526363e-01,3.699385471361976707e-01,-4.162086180156557846e-01,3.426166158404381212e-01,-1.197017090923525526e-03,3.300596874236683131e-01,3.480587206415038382e-01,-4.373558830125192087e-01,3.147284343951433638e-01,-2.600338205089474108e-01,2.600113085214234565e-01,3.176501198156660433e-01,5.016089381615876537e-03,-3.317805667677779513e-01,2.788798534015832220e-01
-2.040883003121092276e-01,-3.185207594746499588e-02,-1.988014173435913023e-01,4.153082560265862755e-01,-2.567597959458576828e-01,4.156845787215867616e-01,5.159650043684923526e-01,-1.656622485706004955e-01,3.170657118354707621e-02,-3.569250467713375174e-01,3.215813566404816110e-02,-1.830175460141394705e-01,-3.015152232124918008e-02,-8.610054933009905764e-02,2.252698719035486907e-01,-4.320616267684142253e-02,5.132253914356760260e-01,3.525430173942633583e-01
3.732507467661686507e-01,-4.067521846824608683e-02,-4.568421604833189376e-01,3.982413418704283115e-01,1.570619865058079934e-01,3.186533692912171811e-01,3.976987936178575378e-01,1.304283476555920529e-01,-3.765508963753901872e-01,-3.772127316045408296e-01,1.225202708290510645e-01,2.181497127385996493e-01,-3.856022458887446991e-01,4.090858187470119423e-01,-2.626663671828317059e-01,4.060178926427318036e-01,4.286161161738621383e-01,-3.437005465148234018e-01
1.190628850082858931e-01,8.550775022028505798e-03,2.037920014237181165e-01,-1.704596696858623750e-01,2.325084355064369664e-03,2.552953867135357990e-01,1.593198680496063779e-01,-1.822298920084053919e-01,-1.499686193693954839e-01,1.887245085972653336e-01,-1.303846546307916576e-01,2.762742102997351248e-02,-3.471336916062788269e-01,3.809601858322235746e-01,2.853309578119459511e-01,-2.530863400557972209e-01,-4.826223742202729872e-01,4.755790751481909218e-01
-1.449002136184567580e-01,6.882995069382812081e-02,4.717198062997610131e-01,-2.269289972766102004e-01,9.661028184461666057e-02,-7.529773935265629548e-02,1.534638393672516921e-01,2.995524182123516788e-01,-4.443155198893162794e-01,4.261659134404012783e-01,9.701996016093268616e-02,5.031774150594296724e-03,1.924190086729176963e-01,-1.638188543589465807e-01,3.283832123014497895e-01,2.443985419764065359e-01,2.957489665559094316e-01,-1.316719097820379658e-01
-4.259437116670783396e-01,1.323128622661423615e-01,1.552290546728842813e-01,1.114237984250698865e-02,1.437504509802191022e-01,2.865487837750022027e-01,-1.459539032556501637e-01,1.294529823166308546e-01,4.647550973693619913e-01,3.084755123890619011e-01,2.975034251262717033e-01,2.796310783677847245e-01,-3.699325186552176459e-01,-1.930826790977650254e-01,4.855817209737249840e-01,-3.532906248322014164e-01,-6.272609249492394623e-02,1.825997916631192930e-01
3.490926147533977147e-02,4.612658104759640443e-01,3.808287324022541220e-01,-2.955154444460814100e-02,2.079217777238194786e-01,-4.095484961059793760e-01,9.262607346564019628e-02,1.141267315077651098e-02,-4.532631568094033225e-01,-1.477249572693572488e-01,-2.571982134345827120e-01,4.201232842365252296e-01,-3.123154914675757565e-01,7.919547394083839564e-02,-2.018234746205451735e-01,1.029712034470675192e-01,-2.969775252579339164e-01,3.588666861240776829e-01
-3.615521435747522938e-01,4.381857912877592381e-02,-1.596534151572543692e-01,-2.320373478522998190e-01,-3.413632037762296539e-02,-3.190801281773509857e-01,2.472031252320157080e-01,-3.248253786453346170e-01,-1.740646956381619592e-01,-1.813764660940481721e-01,2.640098782057117011e-01,-7.179852039454012735e-02,4.733063293794925741e-02,-3.439092295447707115e-01,-2.509295919255465357e-01,2.695488015115952152e-01,2.832674040905022728e-01,-2.374372397129548562e-01
-5.198334492279017560e-01,3.507265067595377595e-01,4.540066800042085737e-01,-2.321777101588792247e-01,9.609484480862068648e-03,2.039987288053266845e-01,-3.320323750405347329e-01,-3.389606368397597991e-01,1.752991000644129327e-01,-2.081917780885187141e-01,-2.690022754504199920e-01,3.535819327364443376e-01,3.961361414253296021e-01,-3.281739952603507371e-01,2.429747997175943919e-01,2.998385435489498985e-01,4.202580814593868119e-01,-1.459989034693236210e-01
2.606266895464812161e-01,2.242763250166996958e-01,-1.239666371224430463e-01,3.819437370615409444e-01,-3.710331481465928838e-01,1.744394269820357390e-01,-1.713684577191570690e-01,-8.127526215458433234e-02,4.511679186660678686e-01,-7.888838593540305200e-02,2.454084255387591895e-01,4.032187468990329759e-01,-4.821378687303905508e-01,3.519862584073378819e-01,-4.577256871436546359e-01,-2.134371640086884514e-01,-3.988665296185174847e-01,3.562485261024020966e-01
4.966071292459068864e-01,1.578171529070254708e-01,-3.390203239236233568e-01,3.222428132640084431e-01,-2.527920760201886052e-01,-2.625614040283422157e-01,-2.880761262738018025e-01,-4.686245833568164487e-01,-2.453156674480970190e-01,-4.374152554244685465e-02,-2.572541414956917571e-01,-1.486017332082580078e-01,1.003075581110562248e-01,8.266393931530932604e-02,-1.764261391016908043e-02,3.067283858556116849e-01,3.150700027929762004e-01,-1.567442358268371361e-01
1.641042637857055841e-01,2.735992834623878767e-01,-4.012222638953917286e-01,1.299115586360480301e-01,-6.206162607745413506e-02,-1.136375464258237156e-01,-3.154317547756532170e-01,1.077169341509194855e-01,-2.508550810999630176e-01,6.332765569673726169e-02,4.529373257322802382e-01,2.813815419515036664e-01,-1.064816299939004979e-01,5.414750273779998097e-02,-2.892323604782269242e-01,-4.123092582543924078e-01,3.585372320523921158e-02,-4.079353995692269197e-01
-4.109541425419383637e-02,-7.817631491037325964e-02,5.740820458347993538e-02,3.854940874281529983e-01,1.678856544750250562e-02,3.793339351417830962e-01,3.185651449369699129e-01,-4.292460266204712882e-01,5.865287804901475610e-02,4.020241572906121941e-01,-2.261185035648402286e-01,1.128111832357465288e-01,2.374596221609762414e-01,2.567898528603680952e-01,3.458664003005946230e-01,-4.096823702967057335e-01,1.216251383215352228e-01,-2.490024994728419483e-01
4.426324391939072678e-01,-2.064889305315671941e-01,-3.652730168864134486e-01,-3.432785026326856670e-01,-3.880469092010971899e-01,1.814313936472859712e-01,3.367877047421283798e-01,-3.388533534012691528e-01,-3.658295499299461517e-01,-3.492622091755941821e-02,1.925046798711499973e-01,3.568391784976204240e-01,3.340812366633943986e-03,3.640361513439491770e-01,3.424166722486627346e-01,3.047478557284127518e-02,-2.389341034308100353e-01,1.776733203184697740e-01
-4.721413637698292920e-01,1.004091240813793084e-01,1.359884378077218792e-01,-4.364808048169634414e-01,2.296652359013670874e-01,1.503537030004595265e-01,1.338934999007429238e-01,2.119178889599643567e-01,-1.705471471959041016e-02,4.281468221620246539e-01,-5.672974336586765753e-01,-6.517581365231409074e-02,3.594492942630465038e-01,-6.393576332060819933e-02,4.015230299757500676e-01,3.206257575373509805e-02,1.300715510320217261e-01,-3.804301080707004346e-01
1.773185336812962420e-01,-3.326052609604604471e-01,-1.891774051376703958e-01,2.998879918642267661e-01,4.187959372532000235e-01,8.712344329634157114e-02,-1.205171936179896264e-01,-3.835298746104277012e-01,3.457014500425969472e-01,3.192029193002653420e-01,-4.310898116960985571e-01,-1.815164401730589433e-02,1.682977976500623640e-01,4.779404315858697960e-01,2.283316428090109707e-01,-3.394883676776461190e-01,1.310350224426391763e-01,3.015509482851207457e-01
-1.381372675702989550e-01,-3.185447572555744622e-01,-1.658471373840823826e-01,9.874647857640377058e-02,4.481173823169087855e-01,-5.128883842372008312e-02,1.102924662112638177e-01,-2.301614468310027861e-01,-1.901822772131019357e-01,8.013540243967565146e-02,-4.164572664543223501e-01,3.214615750510235181e-01,-4.951763680974990978e-01,2.721625832558061675e-01,2.841751469148494635e-01,2.534896547727661376e-01,1.665430682414317520e-01,-2.987281573750572017e-01
4.437272457659316993e-01,2.479689876552551020e-01,2.049107693509349959e-01,4.086637537597193615e-01,-1.802911822047966600e-02,1.906912470783490576e-01,-1.660923693378203170e-01,3.998954060921825482e-01,1.454087199621930393e-01,-1.314625380694943169e-01,-2.568848132190418299e-01,3.187047410478152099e-01,-1.914395097819105718e-01,-8.089444002216367169e-02,-1.530442169459575175e-01,-7.181966316567896247e-02,2.218675928444582834e-01,5.151266528391286181e-01
3.876535243248834250e-01,-2.094105184902289862e-01,-4.502043670053646612e-02,4.488121160942824539e-01,-1.159748625211918654e-01,3.088794452791940870e-01,-3.161479862250082262e-01,-3.925118672885939408e-01,3.719148701552207337e-01,-9.799262021793075927e-02,-1.111676064083637755e-01,-1.472259673365446109e-01,-5.941780052068661860e-02,-3.781472337092028901e-02,1.022478316649926278e-01,7.521294642722660406e-02,7.192806905287862929e-02,3.802056257218327517e-01
-1.221255121149391887e-01,-2.090654236990192871e-01,-2.570045649091996509e-01,1.728005548477021536e-01,-7.793168937240424476e-02,-4.376591106238398865e-01,-7.692180618085889265e-02,-5.919240797220648442e-02,1.977032423761464208e-01,-2.215021974632241653e-01,1.835275248967659090e-01,3.858720028594007645e-01,4.229797088971019026e-01,-2.345793341457393655e-01,-2.363265451455781319e-01,-4.045956681194722848e-01,7.652288620820313358e-02,2.041596846652438402e-01
-5.133055747354786646e-01,3.238612419395021647e-01,3.825634338648538635e-01,3.548281327821484199e-02,1.636144255074631348e-01,-4.222633128364288724e-01,1.317467115063362254e-02,-2.129630661056761409e-01,-3.058754716400015616e-01,-5.749311579963966023e-01,1.582572033547441082e-01,-1.661858482144259463e-01,4.322140925686510093e-01,4.099634509642377522e-01,2.027333612080119696e-01,-4.540977799960347894e-01,1.751450742606675548e-01,-2.394052474037883238e-01
-3.924778974745783411e-01,-3.840115277291016871e-01,2.821557700480130104e-01,2.844418526696257943e-01,-2.844997414166317573e-01,9.245891341478178205e-02,-3.428182839859163500e-01,3.448377558144415100e-02,4.262962190975659871e-01,-2.364759424244388952e-01,3.378970913607772797e-01,-1.014451036850352039e-01,-3.853460070811673965e-01,4.483942256786337399e-01,2.366110844296841487e-01,4.487737403411320297e-02,-2.213912386101144769e-01,-5.086271324609973332e-01
3.751884818848628678e-01,-3.641430400197169237e-01,-2.514006674075335845e-01,5.157748835752675731e-01,-9.047123778137171335e-02,2.356827190726718847e-03,-3.152541219684403262e-01,-1.140178000748276604e-01,-6.063931773666978581e-02,4.057251820775105711e-01,2.157500230302759614e-01,-2.324850107769004803e-01,-7.545812175239741126e-02,-1.137309451588703751e-01,-3.429194008503830826e-01,-3.663304486469289301e-01,-1.282577731041966151e-01,3.258612706547587834e-01
-3.409474740877530777e-03,3.826474986109888454e-01,-4.775441078237319670e-01,-2.289072892090232292e-01,4.396482401017876573e-01,8.884296546078698786e-02,-2.203956644986173122e-02,6.320567142477977185e-02,-1.699493288633173449e-01,-2.567908860265544768e-01,-1.973211656335727496e-02,1.355572827737545200e-02,-4.172863758079020102e-01,3.183833790536601538e-01,3.976140100488445017e-01,-3.336377692557976338e-01,1.861681022926763296e-01,6.058918820025888802e-02
9.317230753057931247e-02,4.480916400481245732e-01,-5.042630638606913074e-01,4.254380985716253449e-01,3.879784399721819543e-01,2.872233793090652743e-01,-3.344939044532870276e-01,2.386425089967231239e-01,-2.637177297019626665e-01,-1.291621453171847844e-01,-2.942984451550100244e-01,1.872938490883800655e-01,-3.530474452013807052e-02,-3.679339478280201081e-02,3.775736605960901549e-01,-3.086001179303066427e-03,-3.605599430260836291e-01,-1.173560712425738978e-01
4.275771869878169373e-01,-2.380231944178272108e-01,-3.648074634088956936e-01,-3.881583918253075915e-01,-2.974680027230720558e-01,-3.972424638410920056e-02,3.630925657498022818e-02,3.147053475343786211e-02,9.026255674818010888e-02,-3.990361721948032514e-01,3.788530216805077733e-01,-1.330509367220734096e-01,5.941422212933916702e-02,3.259902958275482932e-01,3.727703364311452661e-01,9.492064475808130453e-02,-1.055400950126823278e-01,-3.992241854941588342e-01
-2.023899571591227797e-01,8.480455708115582081e-02,-1.747023312867854727e-01,-2.593558159485588877e-01,3.035623887679328795e-02,2.959598670220702221e-01,-9.177137835967538737e-02,2.218362614609999464e-02,-1.717609774110090970e-01,-4.485807298912284913e-01,1.436634028632678972e-01,-2.045458947684362372e-01,-1.868066459497959297e-01,-2.576563942880683578e-01,3.749999818277458541e-01,1.112678782887593747e-02,3.426916946787536555e-01,-2.636294035262569668e-01
-2.799654011240742535e-01,-2.391638614895685022e-01,-9.861992154597468141e-02,-1.176201324725446515e-02,3.059445531138421104e-01,4.169432510429993410e-01,-9.888844862851436934e-02,2.035965979887572053e-01,1.135064086554476818e-02,-6.593596101387261266e-02,-1.990861904283492134e-01,1.778600373034807669e-01,2.012200112038324551e-01,-7.768954803883289240e-02,1.113352735798624482e-01,2.016271372200024448e-01,-1.611791328983758209e-01,-4.140699583239418335e-01
8.158900248790296184e-02,3.800376476118232927e-01,-1.570915672324416645e-01,-3.680592939097543370e-01,-4.227961215966246078e-01,-4.101559976993228163e-01,8.119721843091333435e-02,-1.065602721112853951e-01,4.806189714758153375e-01,3.129896202603024702e-01,1.134255344516989644e-01,-1.545036510955571929e-01,-1.522201310782747563e-01,2.893377414111649726e-01,-2.783174838334404599e-01,2.727034018016989969e-01,3.836583862911037701e-01,-1.641153424773912906e-01
-1.216375595746664040e-01,4.061210377495870771e-01,-1.480076201350229437e-01,4.558501792253525919e-01,-8.313218058582726167e-02,2.288816718458234478e-01,1.830200333161584661e-02,3.297762844858880826e-01,-3.627079155284864131e-01,-1.128412017563978492e-01,-1.333077758799797174e-01,-3.583023860617845502e-01,2.042828008813784013e-01,5.263432353017931387e-02,1.777598807398526048e-01,-3.036609668386258676e-01,-1.689637388798680695e-01,-2.483226789671013623e-01
-7.826802953434314203e-02,-2.773603315638367151e-01,2.018164698784034872e-01,2.986386802267201879e-01,-2.762279059540648229e-01,-4.541027765266757860e-02,-6.057888577898766502e-02,-2.830215228602672717e-01,4.371268123468123323e-01,9.849487469266238193e-02,3.080826364941794959e-01,1.212210026450760147e-01,4.154905900495259874e-01,-3.690936833336088546e-02,2.921835967696380654e-01,3.128749270184760789e-01,-3.535759720070171253e-01,1.955966260223684638e-01
2.715565664177665289e-02,2.989285146776963220e-01,-1.212123875829916320e-01,-2.363117737042084998e-02,3.335603785796286691e-01,1.053879453348721684e-01,-2.653394758328376235e-01,-4.632242157254378156e-01,-2.637112461233786717e-02,1.477128931953715363e-01,1.369698667527674031e-02,-2.219053604719166406e-01,-2.535761188627206342e-01,4.799320931468076257e-01,2.800000002460605875e-01,3.311802947104890427e-01,3.697924190684884760e-01,2.263411820289599752e-01
3.435077416478728440e-01,-4.126823102259026266e-01,-9.282092833767645670e-03,-1.466241496114763787e-01,1.305011817926362248e-02,1.781609500620170983e-01,1.542377105470524867e-01,-3.527355846868781564e-01,3.826414815571178157e-02,8.974225503915353452e-02,3.047095129759359589e-01,1.312687230594904598e-04,-3.463006167515411127e-01,-5.192177186344712481e-02,-4.686169955243421614e-01,4.364785510634510146e-01,3.795606310305020825e-01,1.219052036212695117e-01
-4.627611277332790984e-01,6.033469204198117081e-02,-3.996224496168102602e-01,-2.380592909310454697e-01,1.220757552826781944e-01,-4.551245672099355488e-01,2.375798768030266128e-01,-2.609449481439645169e-01,-3.535841895671464584e-03,-1.030071607409247109e-01,-3.148838895401573357e-01,3.289318333043935172e-01,1.902776626173393881e-01,1.324884366564124949e-01,7.086803048440053210e-02,-1.650809568909019087e-01,3.611669011524305806e-02,-2.623250002385231205e-01
1.026590094428378591e-01,-1.827211676168033205e-01,2.004264498465531674e-01,1.990359637871152998e-01,-1.593229816881750194e-01,-4.896998586067790593e-01,4.189395704610094917e-01,-4.063432645290892542e-01,3.996867213754140002e-01,5.918912264641591064e-02,2.740708518492938062e-01,-4.740600733536596834e-01,-3.701520048480347325e-01,1.997317177230834018e-01,4.744187017249720251e-01,4.786123972913203795e-01,-3.196510905685602810e-01,-8.468761590353603153e-02
2.135376874985076001e-01,3.469153625245209316e-01,3.083894204298326946e-01,-3.662916494683887692e-02,-8.099683079730682356e-02,1.069595776688464783e-01,2.628135349931893239e-01,3.510005270850445336e-01,-3.859245290585208155e-01,1.347120388356874143e-01,-2.086795884054050698e-01,2.321289864710190110e-01,1.783649018018745591e-01,-6.978214893258175011e-02,-1.344974861693044865e-01,-6.646703298288072527e-03,-5.326297600052959380e-02,-3.720459754358863003e-01
-1.189197515403978417e-01,-4.115557001618998512e-01,2.454140541320736779e-01,-1.929067745461635064e-01,4.586961633503984781e-01,3.350625118296777782e-01,3.102359146064501139e-01,-3.882380185030064323e-01,-3.787264140139287583e-02,3.523455814507527872e-01,4.811482979717672803e-01,3.348181472308218998e-02,3.600135993708771798e-01,-4.764171258874596443e-02,-1.785337430295359240e-01,6.660074255589881753e-02,-3.011483863764913282e-01,-9.519874957128791892e-02
3.135093704574563045e-01,-4.012237757483788081e-01,-9.067051916688573243e-02,4.297823850929238243e-01,-4.298626136677423659e-01,-9.875053591348674498e-02,1.614221296095574854e-01,-1.569358713294880803e-01,-2.438787872792811950e-01,2.382888026559830952e-01,1.165519479111196549e-01,-4.082295705686127957e-02,3.576388536497149828e-01,4.115087405908754437e-01,-4.429680111853463026e-02,2.510009690917962555e-01,5.246393302550691473e-01,7.147050368439746004e-02
4.484246141628113191e-01,5.320299234203152983e-01,-2.199780913506964031e-01,2.979100620310295294e-02,1.258179454577845469e-01,2.866633935211497231e-01,3.782696474093040773e-01,4.591214258719768515e-01,4.285696095220504209e-01,-3.332541901408725415e-01,-2.153374099563641897e-01,-3.630243385489683727e-01,-1.593909400880597627e-01,3.110489946817069917e-01,4.916788654117658086e-01,2.097996940160169743e-02,-2.551979991315262430e-01,-1.039372260495230321e-01
2.909502807492208021e-01,4.194217489854027425e-01,1.150991669142376883e-01,3.861390924261242086e-01,2.554103913912937895e-01,-3.258403953883944326e-01,2.617631257782091492e-01,-4.836174939998248434e-01,-4.595335398720366005e-01,1.894393113179001012e-02,3.203460797246694969e-01,2.956558249176052811e-02,3.769659399520073478e-02,-4.396343854360223458e-01,3.010551451697824898e-01,2.352311217027680881e-02,3.015191291679948371e-01,4.182688711082276356e-01
4.725083171134225601e-02,1.120563527739088516e-01,-3.837566127876025357e-01,2.739879984631232168e-01,2.520710041829776205e-01,-4.489267427084404627e-01,2.807045740289472180e-01,8.447900890429738130e-02,-4.858865089537102167e-01,3.380059591276752262e-01,1.320988302810903181e-01,2.567723216463363989e-01,4.131532590499080448e-02,6.274497587452985969e-03,3.345720484090958236e-01,2.420463003494361387e-01,1.041686199275181218e-01,3.312301574641299817e-01
-2.222751547277372619e-01,4.523298749371926220e-02,-1.041300857862502427e-01,-3.205408954748139583e-01,4.063641455948640013e-01,4.502119032155800227e-01,-1.977670792285034784e-01,-4.744333295158748021e-01,-3.942968299026443635e-01,-1.795916140473271388e-02,-9.488297575224780012e-02,6.537766722153570687e-02,1.142772862972765840e-01,3.683306451564752892e-01,-6.635202432178313736e-02,4.967103353783622333e-01,1.490383934625421902e-01,4.536309319923900185e-01
2.230426351158200926e-01,-1.435254075889541014e-01,3.421593692102128936e-01,-1.213532534575458843e-01,-3.149899254332028109e-01,3.158199213585683451e-01,-5.075008086572563998e-02,2.582990197923840103e-01,1.148353527133787536e-02,1.999239004991525959e-01,-5.007052923165339342e-01,-3.723763013570924318e-01,7.998371017658542637e-02,4.020251502345051353e-02,3.936035819040095696e-02,4.502222639335648480e-01,-2.249231243405696301e-01,-1.969010466775501234e-01
1.271014182244733781e-01,6.568598755718221827e-02,-2.078659239885984056e-01,-5.152644743109811021e-01,-1.001077786175182255e-01,-4.722117372459989568e-03,-2.354097534201317621e-01,3.063792382832385974e-01,2.966124665987588949e-01,2.663392307326215569e-01,1.218907900563023922e-01,2.944021177711804715e-01,-3.586895262616247582e-01,-4.048794041826346835e-01,2.907625880584609468e-01,-1.844883277551170875e-02,2.252209849772547623e-01,-1.075626755184845990e-01
-4.378435240932312400e-01,6.100741419689946488e-02,-4.527067211441996308e-01,-9.073326181372817767e-02,-1.257660945238290966e-02,2.693386795065029204e-01,2.904209988541552323e-01,2.283364205881355247e-01,-1.525832450977039068e-01,1.647909765623902997e-02,-5.301887589101769022e-02,-8.950392637013659947e-02,3.240175901776584100e-01,-2.942593569279495225e-01,2.962618259722326133e-02,1.858917719103620747e-01,-3.898533953225122306e-01,-3.812432357783048786e-01
3.098244823805293979e-01,2.517247967277926879e-01,3.461922990314089676e-01,3.311199996124296052e-01,-4.708181617020951726e-01,2.446344261118176266e-01,3.453989800977230185e-01,-2.237048625431576065e-01,2.810694406629556941e-01,3.465162116439546303e-01,2.308764755559082338e-01,-8.080350347754382268e-02,1.401284915956440558e-01,4.173498748012401949e-01,-2.419615061250378063e-01,-4.885241132521673801e-01,-4.547083782274714547e-01,5.303564591662811578e-01
-3.266070713031049566e-01,-4.624446363112780789e-01,3.650136176435749835e-01,2.863935830603061422e-02,-1.579085977261309726e-01,1.097340855839554347e-01,1.970214211762458603e-02,4.557621067761393197e-01,1.211669488309507492e-01,-1.187576510195568202e-01,-1.027854891397427112e-01,3.502363975842752719e-01,-5.082991466958985960e-01,4.255589420304564108e-01,-1.224863751941966672e-01,-2.734294074129201002e-01,-5.005261293316273230e-01,-9.956530534427379675e-02
-2.789380961476161658e-01,-1.916726976110343372e-01,3.574148218500683427e-01,-4.238759493367037778e-02,3.608524169889918420e-01,-1.543047624498166681e-01,3.812796504544372911e-01,-4.054265951033673709e-01,2.583167609814501775e-01,2.037640354593703851e-01,4.542716877559513922e-01,-2.949099623786262669e-01,-6.762526142075117597e-02,3.449088830122463978e-02,-3.329852251886180475e-02,9.308517710719382832e-02,-2.355723654439847159e-01,3.852149469600358311e-01
1.236252922457759945e-01,-3.947154249294291817e-01,-1.631101630377815304e-01,2.994344887506306674e-01,-2.170408534405630085e-01,-2.525786686567248474e-01,2.056387033362091776e-01,3.323335856395181476e-01,-4.391696188302213200e-01,3.443312872830149862e-01,-2.631309715825536077e-01,-4.638082725665588213e-01,1.888667438073647620e-01,-2.863533089557004363e-01,-2.342355150758167748e-01,3.933632998527696323e-01,4.388947805429415094e-01,-9.401752471767690911e-02
-3.312259172463148382e-01,-1.234958904432077870e-01,-3.226720243248457076e-01,-4.956961456129537202e-01,-2.796383044430602802e-02,2.264852014014211989e-01,4.784978718259643715e-01,4.621052436183347711e-01,2.624450238081693643e-01,1.360405819563322849e-01,3.583532157525801121e-02,4.031685334224623940e-01,3.711314820853985896e-01,6.515992863594755047e-02,-6.253901381040199992e-02,-5.311837567854418157e-02,-1.372044405440376313e-01,2.764181352164061245e-01
2.264164793177191048e-01,-4.524369069286787171e-01,-3.681404462438866987e-01,1.298222842229081464e-01,-3.252212563356841196e-02,-3.138013805952932223e-01,-4.409570160503956116e-02,-2.706864813269692638e-01,-1.541734643273202920e-01,5.194406847246937353e-01,-1.897190235438285522e-01,-1.963915265293958989e-01,5.599679156179627158e-03,-2.959241504926182764e-01,-4.764181577789828870e-01,-9.521226968556784076e-02,9.146183261984669466e-02,-1.056910910165479306e-01
-4.001930055654094320e-01,-4.197668295058951810e-02,-8.798293196683305839e-02,-2.530935869409361438e-01,-4.445009102705773096e-01,-3.009040769718567265e-01,1.319574080490714951e-01,-5.399286330475625562e-01,4.471877139960064862e-01,-4.559669195685325804e-01,4.900943146986125321e-02,1.969592915062889360e-01,4.890248118240663744e-01,3.605038384852422562e-01,-2.660927009082629247e-01,-4.525407718244928712e-01,2.354727874685497158e-01,-1.397268809313780003e-01
