-2.192201767389906353e-02,4.175870593160834199e-01,-4.579508199270966862e-01,-3.372114801376690507e-01,-3.874007951868428945e-01,1.907667766246945729e-01,-6.957713548616205335e-02,1.419225580758233518e-01,-2.757857735152700537e-02,-3.634554896844155447e-01,2.087411791576276876e-01,-1.213454220351015550e-01,-2.614410867860539889e-01,-2.167790720997298803e-01,-3.755305349280282923e-01,2.961493500710291049e-01,1.992340119466991522e-01,2.085782698036153515e-01
3.721147698086185729e-01,-3.238774945458322008e-01,-1.121660842109675760e-02,-4.833058114520798892e-02,2.504299851080358241e-01,2.917052108106840125e-01,-4.979549572535010848e-02,-3.891528778739956895e-02,-4.420361479154542583e-01,-3.387733471910641669e-01,4.301600680934695720e-01,3.842903356888321964e-01,-1.521755360237417865e-01,3.482896683619538664e-02,3.245847861422145875e-01,-7.871487930318329940e-02,2.390012046797606038e-01,2.962735029306647339e-01
1.617617343005897657e-01,-6.616186933542701765e-02,-3.980322383273184050e-02,-4.250056947559739950e-01,-5.931436397880018169e-02,-5.046558206319990969e-01,8.187747528599702285e-02,2.187099069849687272e-01,-1.847759195123034257e-02,4.169569806758320341e-01,-1.044065241940589223e-01,4.089701798987357972e-01,-5.102323903062531141e-01,2.627329355474559702e-01,3.356804611691462936e-01,2.576815058889871390e-01,-1.646627986059842896e-01,-3.658518345112770076e-01
2.523843662494767992e-02,-1.705404582766155974e-01,2.685070236428354629e-01,4.433433212545888624e-01,-2.404949175684067131e-01,-8.914860885424172321e-02,1.009941307986976788e-01,-4.776189121687085537e-01,4.509388476811451718e-01,-4.656839365096276939e-01,-2.589021472573596050e-01,-1.126060472543125301e-01,1.495108429987554999e-01,6.700176256769503624e-02,4.531284420914075128e-01,-8.424485787522600910e-02,-1.736666035874905867e-01,-2.931060169194393272e-01
2.421420361507428121e-01,1.340075792259315668e-01,4.427996022148391608e-01,-2.585482691710163650e-01,3.865329080397064687e-01,4.023590920340760491e-01,4.166248450405112269e-01,-3.863216068581187823e-01,-9.415725059573673561e-02,-5.780629758952540720e-02,-3.918532759853869951e-01,-4.972845165952853308e-01,-3.235781165818106264e-01,-2.427433338189869116e-01,3.960646434974801067e-01,1.914191286644360279e-01,5.155770400848563167e-02,-3.148577109734410628e-01
2.333346009888350725e-01,-2.886534221300982028e-01,-4.897130778423058328e-01,4.531934618068764187e-02,-8.519577865537249217e-02,-3.058189079024067336e-01,-5.542484901307436207e-01,2.097759534502685874e-01,-3.046639395966946884e-01,-1.351200811229116283e-01,1.589492858089709693e-01,4.094433601017181679e-01,1.539280804186337615e-01,3.352238365273595422e-01,-3.581982985156950683e-02,-4.454334423965075618e-01,-9.516092738964754272e-02,-2.140848694026185051e-01
1.359568759058014664e-01,-6.256845142278633087e-02,-2.791592778622511983e-01,2.767888908103063317e-01,6.965326661676816966e-02,-1.458925520399771691e-01,-1.573609615531436912e-01,3.733407539370255934e-01,2.646616991619370474e-01,1.589851341809185581e-01,4.062553195914864190e-01,-4.277452855716765839e-02,2.524902438425066786e-01,-2.723066968906199259e-01,-4.298862599838865761e-01,7.952292700501359737e-03,1.434841274036757208e-01,1.511005891433605530e-01
4.196643645999851846e-01,-1.795890296346605297e-01,-2.371415383167304811e-02,2.653985400450258325e-01,9.850840453976644762e-02,2.403480814376605657e-01,2.054887732193047822e-01,-7.377096519393142038e-02,-2.633104460376082742e-02,-9.023313351549330785e-02,1.357728658078378170e-01,-2.707295439442906071e-01,-3.918534532406234283e-01,3.882610773987132946e-01,-2.879009595940036914e-01,4.450148370793770569e-01,2.729399063426447558e-01,-2.108660514442370071e-01
3.175999725361184911e-01,3.296988965140792201e-03,2.592985402106747217e-01,2.875437374325907625e-01,-2.196796863446526249e-01,3.029011506216762739e-01,3.939301083280464799e-01,1.841630339620675405e-01,4.845963198405217609e-01,-2.533636028619621339e-01,3.182495887807814117e-01,-2.355642293487851813e-01,-4.499398708437052918e-01,-3.871178877563637988e-01,-2.633350356409918658e-01,-2.747288311538447769e-01,-1.012450609889633951e-01,-2.886430463323055862e-01
-2.048322290429562265e-01,1.750529839366729568e-01,4.821459305273113199e-02,-3.409719320076189941e-01,4.372401028848731108e-02,4.203292127509501985e-01,-1.054689242671542071e-01,-3.316074605041874901e-01,2.552160228198900871e-01,-2.291283271840192093e-01,-1.086738564423314624e-02,-1.829760944615840823e-01,-3.938127895565132763e-01,2.848316143706559056e-01,-1.195454713675924846e-01,-3.196099203527077437e-01,4.736202423844066423e-01,-7.102028218765227274e-02
3.977748971452921278e-01,-2.967281926235713074e-01,-3.238472405099635520e-01,-8.427013154545763898e-03,1.311476684847726060e-01,-1.208243818482888400e-02,-2.238570084997784371e-01,9.686020097360248382e-02,3.525831411894947975e-01,-3.637648087821812593e-02,4.085952048205996334e-01,-1.991414328393512068e-01,-1.152715691149192173e-01,-4.040095364808923145e-02,-4.537818175004590393e-01,-4.966268738084480550e-01,-4.940829485961982792e-01,3.942713066767112307e-01
4.303211960581574957e-01,-3.746161231475883535e-01,-2.165344054639373184e-01,-1.588205974275135601e-01,-2.043241896192329321e-01,-3.584054684468894747e-01,4.362713668977593051e-01,2.088425207171869524e-01,1.945317162854066639e-01,-3.026302859830980185e-02,-1.751334302728008996e-01,3.548511649312159344e-01,4.971628805654719763e-01,1.565283169410700559e-01,2.437796011728733114e-01,-2.481538360834723567e-01,4.032465636572496459e-02,-1.254325721474923161e-01
-1.227502320923015561e-01,1.189541648191585616e-01,-3.142803830454914404e-01,1.884371579243563077e-01,-1.977492559351623491e-01,-1.668468292166436218e-01,3.016509614406381900e-04,-1.059432100978327691e-02,1.361672346931109279e-01,2.211138572177845651e-01,-8.111231442429955862e-02,1.366370263697896381e-01,-3.710590788498455139e-01,1.859352624461234893e-01,-6.088832789671107248e-02,-5.085076688777610820e-02,3.908655746346210158e-01,-3.880763708573398696e-01
3.036961451876357687e-01,3.999046876628739033e-01,-3.951001681967591765e-03,-4.582110285353529489e-01,2.970932438752872384e-01,-1.624609058126971067e-03,-4.614053094601929805e-01,-1.184657001066634768e-01,-2.688044577831979337e-02,6.286368629879102166e-02,-6.203132337128679230e-02,1.087685860505502589e-01,2.903311384143519858e-01,1.999369419018262872e-01,2.139939447678844420e-01,3.343107608699479871e-01,-4.629138818996890725e-01,2.105767984351435973e-01
-8.814769816403538599e-03,2.125674452234591894e-01,-1.531524092866982656e-01,2.712141194815629874e-01,2.882512069993172776e-01,2.933832907241092913e-01,-2.698191396476922951e-02,1.417976536734531223e-01,1.954598324458527159e-01,3.844058990349700222e-01,-2.820983113147037535e-01,2.653849792185797307e-01,2.978494220610884424e-01,-5.087014058137362404e-01,-2.497711559622355915e-01,3.981985557169361867e-01,-2.152110401555978325e-01,-2.015198868879893579e-01
-4.076072230584898426e-01,2.047580841401127616e-01,-4.649751454471068857e-01,-2.427528455253621653e-01,-4.468362673220426795e-01,1.396932947613484521e-01,4.132135416472583755e-01,3.136823099740551624e-01,4.058234688119260331e-02,4.659516887084116377e-01,1.974031234988369854e-01,3.746349854330416895e-01,3.128566548712152229e-01,-3.510216321091864100e-01,1.566351186655533800e-01,2.778514124661526918e-01,3.423038586065897948e-01,-4.352269145906434988e-01
1.526823240850998520e-01,-3.511169103980539830e-01,1.553584008769987035e-01,-2.977044107888987545e-01,-3.588603759910515278e-01,-1.846571105700658133e-01,-1.658918306750966076e-01,-2.418724353887854658e-02,-4.269939671575679330e-01,-2.656399637177511708e-01,-1.100171964179160883e-01,3.358579518610327885e-01,-3.274916544721384049e-01,6.299146948176684302e-02,2.886405929654057845e-01,4.140182984027039881e-01,3.969839850579628404e-01,-6.499746080964009798e-02
4.545911538694615284e-01,-4.365762157926088016e-01,4.342336993378234089e-01,-2.130120768335980741e-01,-1.768918795626711893e-01,3.648804557386792213e-01,4.373586052672882030e-01,-5.405847070176327679e-02,-4.801300136644122141e-01,2.954861833112816805e-01,-4.964911080043856173e-01,-2.991796102172821215e-01,-2.136505811406205213e-01,3.034560996789357756e-01,6.095084815010574919e-02,4.461611009541391892e-01,-1.386339261652372035e-01,-4.305514083189307395e-01
-1.733363561626652949e-01,-1.393891088731664674e-01,-1.242935433143016050e-01,2.898595205047216350e-01,1.222395925620022722e-02,-2.027161458886083956e-01,2.213860799912099053e-01,-2.846094843464853641e-01,-4.072115778908972916e-01,-3.948350174692951131e-01,3.756661351828297080e-01,4.194627784896079459e-01,7.547277080097077040e-02,-3.776871980819280217e-01,2.923397770924249794e-01,-9.464802055912902023e-02,-3.336303715635341449e-01,-4.819753529373462797e-01
-4.529366930569350691e-01,-1.187674380239762961e-02,-3.664957278850453637e-01,-3.720475384561428567e-01,-7.586915019521431325e-02,1.967271287899571286e-01,4.084748552093626639e-01,-4.910944163072668567e-01,4.942602317498193121e-01,-3.089361158687045084e-01,-4.212217843509903914e-01,-3.189636839284447634e-01,1.877813618143284735e-01,-1.375838869052879443e-01,-3.104927504156764217e-01,1.207030164851273513e-01,1.874320113702161450e-01,1.380306453281420487e-01
-2.355708959284298354e-01,-2.937284905202539598e-01,3.147572437134351642e-01,-3.392226005450152404e-01,3.253965393213074098e-01,1.561543344377590015e-01,-1.908949636675404682e-01,2.789529257237683968e-01,2.992909184200301942e-01,1.133260052571657128e-01,3.252691252773904362e-01,2.329711045625451338e-01,4.287790767702070321e-02,4.262646107177762156e-01,2.572868243553290690e-01,-2.302525310164337535e-01,1.645686020361990243e-01,-4.773402275283585294e-01
-1.593507226664055421e-01,-2.209092724643393624e-01,4.901498744716510370e-01,4.490984035649496775e-01,3.491999062058484538e-01,2.509089585476254047e-01,-8.382753603936579645e-02,3.678503315886722524e-01,-4.337880864349815124e-01,1.838601751512016214e-01,3.232211218384474227e-01,-1.066591962171845182e-01,-4.700336550134450175e-01,2.256808361170109523e-01,-3.371859272636025529e-02,3.815275810989292582e-01,3.684565066077746254e-01,2.731364234020834947e-01
9.484065066738395222e-02,1.463025358388482244e-01,3.441987482722049796e-01,3.995394414023260565e-01,3.935019022434819713e-01,-1.607548037850611150e-02,1.766824697300587929e-02,-2.741283807422218444e-01,-4.122390947114349946e-01,1.633045250057636342e-03,-3.801525270519121591e-01,1.838138878730614933e-01,-2.614499582359023147e-02,-4.472221692259824022e-01,3.478145655551814208e-01,-6.993946351443322378e-03,-8.868858006762227186e-02,-3.191371613797140960e-01
4.398503057484901002e-01,9.022493171578195581e-03,1.410076922967754276e-01,3.642215170935244051e-01,-7.457189413612216877e-02,-4.728968341942099696e-01,9.043620861784258669e-02,-2.781257074364871795e-01,1.788961046534979782e-01,-4.355607187788434476e-01,-1.871454048517482149e-01,-4.420102409829255175e-01,4.134332282307691120e-01,7.571669924464947965e-02,-3.913239713805752862e-01,4.057005865221864904e-01,-3.642723002455607872e-01,5.465651753479144892e-02
9.949634302035081576e-03,4.895252153304955889e-01,4.099868778940217728e-01,3.458937533000012721e-01,7.173888924563041891e-02,1.505503706049118526e-03,6.246926870610226834e-02,-7.244182095166284974e-02,-2.538133004911049539e-01,-2.939102598055662319e-02,-3.152700802102069155e-01,3.199391318392878492e-01,-1.355074220635313353e-01,3.590166962598366485e-02,2.071719866760138307e-01,-4.112921792274706195e-02,-3.921474851668919626e-01,4.407718545446927538e-01
-3.095397184018008896e-01,-1.436115647283658925e-01,3.613383888557218371e-01,-2.861640833134326267e-01,2.370420335192719163e-01,2.849877880311863509e-01,-3.177037022957301254e-02,1.985205167807526649e-01,3.550855886671727257e-03,4.459629408411867058e-01,-2.363213436444438764e-01,-1.847594507531143682e-01,-4.157618148061386076e-01,-3.986232206017071289e-01,-2.026563061403278132e-01,2.717422844322318065e-01,-3.099154736583831782e-01,1.184075300355491708e-03
-2.654019350418889700e-01,-1.343977434573390972e-01,-3.845759270957252451e-01,4.239961743628680724e-01,3.662684035733763666e-01,3.332644076095890862e-01,4.089413765637501252e-01,-8.150024707090317011e-02,2.156221899302943057e-01,2.113007348166300592e-01,2.646435670445391186e-01,-4.093452061811357345e-01,2.546174922078957015e-01,-2.561614069922755754e-01,4.019264025092554315e-01,-2.316031252627037129e-01,-4.292492514838626150e-01,-1.903630182492405676e-01
3.502147258402295016e-01,-4.646281947673160939e-01,2.295559752872452786e-01,2.215310124468411745e-01,-1.451309746195930117e-01,8.029678078917512618e-02,-1.032307149300977639e-01,1.495481960843071112e-01,-2.783702368738000255e-01,4.637562230663425100e-01,-3.632888246170485474e-02,-3.916780481486329402e-01,-3.456676012698254308e-01,-6.166492395620309236e-02,-4.353674465655098524e-01,2.299534829003619871e-03,5.936313479936867338e-02,3.794150712767292433e-01
2.421814720811250043e-01,-2.056772583820971056e-01,-7.515876258757031581e-02,-2.156269898204467850e-01,-2.904823317010642447e-01,-3.304447347690889214e-01,-2.987710314685371182e-01,-1.002103861781614980e-01,-2.336055251340277486e-02,-4.589129264274869335e-01,-5.010276617925342180e-01,-2.385082747003271220e-01,3.690836983778565950e-01,2.881716448128248120e-01,-2.854511816806453717e-01,2.793605658240368994e-01,-5.044928091221962951e-01,1.154698293523999525e-01
-3.628493559045396777e-02,2.647243596643895081e-01,-5.881643201059441606e-02,4.485509321817345296e-01,1.241248135104194017e-01,-3.018541299480532736e-01,-2.957317693178509455e-01,6.625485417597493099e-02,-4.467431459109486580e-01,-7.061998799203457466e-02,-4.038815571776661062e-01,-2.198589500195694824e-01,5.262149308383043955e-01,-1.351889564637165642e-01,-1.719074480708465691e-01,-1.597040990572384522e-01,1.185854570857696605e-01,-4.449827648194469853e-01
1.998439690303245309e-01,-7.769370789722770954e-02,-8.140333449181703929e-02,4.106158214919589655e-01,-4.726841589179729963e-01,1.662380219559864702e-01,2.746485912915148653e-01,3.832492120374051958e-01,-1.972703258450090591e-01,-4.764059497791337840e-03,-7.672671794480478979e-02,-4.590437951031665631e-01,-3.843655590986238546e-01,-2.002152515489147022e-01,2.925085354848555586e-02,-3.695542445326103209e-01,8.700932314027777503e-02,-1.213278687120591254e-01
-3.534675412287029972e-01,7.508254948521414507e-02,1.486799963530379722e-02,2.000891759277251269e-02,-2.970583810486595797e-02,-1.714782936078438902e-01,-3.505897807624989149e-01,-1.599689843252962429e-01,-3.886310018607608829e-01,-4.414147773126028129e-01,4.219712691809648364e-01,-1.975862136593870833e-01,-1.300989487544760015e-01,4.433039972061739858e-02,-4.943396630598579922e-01,-2.535405055890483858e-02,-4.476919180260847120e-01,-3.336564871275780053e-01
4.980544689470653985e-01,-3.091901729826290190e-01,5.332908503489794914e-03,1.724938168741727562e-01,2.189121303335367086e-01,2.177495542545383467e-01,9.402758506339525812e-02,-3.432410209797318035e-01,-2.262119207269165100e-01,2.740485324238038922e-01,1.773619100490488043e-01,1.863326718777794933e-01,2.357716470208253978e-01,-4.395839400587251977e-01,-3.026430016235141102e-02,2.335252950137844397e-01,-2.243925943557501523e-01,4.639779205626384795e-01
-3.200768426837720115e-01,1.098386403152006030e-01,2.427701763836773163e-01,2.729553922773391150e-01,4.203367068312545418e-02,-3.817747812997265844e-02,-4.711411171089839311e-01,2.373303256480019385e-01,-1.277587915025009124e-01,-2.384050303131873827e-01,5.138635983100044990e-01,4.171217009355797645e-01,-4.138278900656279791e-01,-3.279939996060419194e-01,-1.157954507508221348e-01,-4.943871477056976382e-01,4.328671158525507212e-01,-3.761676812719722540e-01
3.100642469541347590e-01,1.452485394614643210e-01,5.060208860047128443e-01,3.479298987299916379e-01,-7.584601005444524535e-02,-1.303753963104411773e-01,2.176141194627222164e-01,2.823160748510468721e-01,-2.212444825747308941e-02,3.476423543073278166e-01,-1.491017850907031816e-01,-1.537479053617557545e-01,-8.928665704087211663e-02,7.173940637969548895e-02,4.806142715004925736e-01,4.134149320776444592e-01,4.063196853682746745e-01,2.212110829726832983e-01
-1.953034041578269042e-01,-2.318765388660445070e-01,2.780340152668683285e-01,1.829704599011777177e-01,-3.169483918245587506e-01,-3.616058226564990430e-01,-7.380260517101280837e-02,-2.614367666407060309e-01,-2.970461886704250931e-01,3.914051627586030979e-01,9.519091339675393726e-02,4.614616165204391551e-01,-1.690192185730869379e-01,3.763964672280860069e-01,2.897271799942213732e-01,-7.967101580174523745e-02,-2.512516078510834139e-01,-2.302534668019817765e-01
2.353422520558625108e-01,8.642374389101566481e-03,-3.386290718299485580e-01,2.577427496115587344e-02,3.082734763318185078e-01,4.055341479257443260e-01,-4.688195202245763471e-01,-1.191157045565046230e-01,-2.239212124137827161e-03,-1.309202113889993413e-01,3.857318866786377809e-01,-1.048635273798901590e-01,-3.624426148256850166e-01,-3.831890007975814472e-01,1.754812001174665126e-01,4.022311573771424897e-01,-2.348650792940707999e-01,-1.256684119515658615e-01
-4.727028053017102160e-01,-4.598991154958597116e-01,-2.451119963810616531e-01,4.435999347948132443e-01,-5.071801427455143729e-01,-2.647315676892537661e-01,-2.966500382132261637e-02,-1.000094942226611161e-01,-1.741974106518847654e-01,3.579362019888188834e-02,-1.088292236248946387e-01,-2.420124843828648786e-01,-3.702808694287931801e-01,-5.424325756541241716e-01,-3.192168647358456512e-01,-5.508736456334683007e-01,1.786995694802238910e-01,2.868651609017743020e-02
-4.677754161646944797e-01,-4.203236312103228456e-01,-9.454777277081062581e-02,-4.817469297594384470e-01,4.146181783078528027e-01,-1.666083437392798239e-01,-2.275169568641536300e-01,-4.157625916375817798e-01,1.604518813966268331e-01,-3.876665404234166945e-01,4.111658066797458932e-01,-1.445000284248124656e-01,5.780790012779800369e-02,2.241298633344314117e-01,-1.982398576483434260e-01,-9.460250818703165587e-02,-2.693743239699409875e-01,-1.595658221210129457e-01
-4.265719778757122715e-01,1.110991982632363179e-01,-1.616459168883469244e-01,4.629874004242757746e-01,-2.065551478089222015e-01,-2.588361681521044733e-01,4.991529545552893521e-01,7.311792340603498475e-02,3.345752582303734846e-01,3.034666594268803363e-01,-1.736703868326435474e-01,9.308720561390980419e-02,2.847473285247462682e-01,-1.233988322868970477e-01,-2.726330056631391385e-01,4.634812495016107370e-01,-2.157639171462099881e-01,-2.242799935093171271e-01
1.358538460920265343e-03,1.372218162512895689e-01,3.909401023850240242e-01,-4.913248522666621154e-01,1.821646769829152190e-01,4.808330047064399149e-02,-4.952405212339978102e-01,3.903401391835878420e-01,1.240633889848050120e-01,-4.018746665634323478e-02,-4.550148013042934481e-01,1.890977102538567711e-01,1.283361723789855080e-01,1.416778183811416292e-01,-3.643161921431377626e-01,2.922616617169420117e-01,-4.198239257301951688e-01,-4.588963881108207299e-01
-9.881985495871849212e-02,-2.404704278112092808e-01,-4.333572057675831868e-01,-4.306305572134730419e-01,2.323440906000853179e-01,2.213609846832381156e-01,2.977906401184067797e-01,4.510524238559605048e-01,2.622378670636658637e-01,-3.956556643888312630e-01,4.150797412326782121e-01,1.468040191334377964e-01,1.066923615015154536e-01,1.519130435564716164e-01,4.408649652883606107e-01,2.270490326370869505e-01,-3.991963880619208704e-01,3.649671154508994375e-01
-1.326569004756376624e-01,-3.876368651985502845e-01,3.730648523449924675e-02,3.758030722612989982e-01,4.727496845083437593e-01,1.634951454693493178e-01,3.997744055547811648e-01,-1.879472155926317500e-01,3.023275803475792278e-01,2.847716146462042075e-01,3.594140038479858718e-02,-3.989879086178698686e-01,3.618166001024415018e-02,-4.464345571259648038e-01,2.966525891879215338e-01,1.359627015292336205e-01,3.336144837504008698e-01,1.921499917275479308e-01
-1.215022776943485427e-01,-3.185453343322255937e-02,1.874320342257105310e-01,7.384038142459595222e-02,1.853625511163587980e-01,7.207673837408497264e-02,-2.056933286354293566e-01,1.855246702497713451e-01,-4.779351911592867874e-01,1.396317469423690172e-01,4.174049310511204064e-02,-4.664067437616992717e-01,-1.676565793886058420e-01,3.201668266393741247e-01,-3.646534272149237754e-01,-4.183410322041021812e-01,-3.769152197003836635e-01,6.246229246507513377e-02
1.612869644006774961e-01,1.336008401186934424e-01,1.519189770417829211e-01,-8.288149826800284004e-02,1.253583814920218309e-01,-1.848393989710825636e-01,-4.398966460325648420e-02,-1.086524867162217724e-02,3.000814826616868825e-01,-1.612230951387192412e-01,-4.338133410121363664e-01,1.462236560229785709e-01,-5.255679769244597788e-02,2.670861127372513646e-02,-4.440442840651235290e-01,-2.900717176063838387e-01,3.279881380942744618e-01,-2.027627446900452102e-01
5.237633846333223930e-01,-4.525408304878429377e-01,2.880229392581564185e-01,-3.796895465642055600e-01,6.201129595651153764e-02,-2.983665914568822686e-01,-3.094401512264317589e-01,-2.909001287907549416e-01,-3.326422034152068385e-01,-1.695025904424348959e-02,3.344106048623190497e-01,1.371354526241341798e-01,-2.129369925986555889e-01,-2.249762390046091964e-01,3.710330834478351436e-01,1.685827895900348650e-01,2.127343580124189115e-01,5.999802985862488260e-03
1.157875297258845054e-01,3.764965888648792447e-01,2.291238575847443781e-01,-9.438567193269767341e-02,3.462879094630679222e-01,-3.300769684466736686e-01,3.800334119516064479e-01,4.776479653450647206e-02,-9.577142990800500966e-03,2.749955479810789472e-01,2.716405205558176661e-01,-2.131292575991286520e-01,-5.025557559270447117e-01,-1.970042516933920851e-01,-2.681153386997635613e-01,-2.857257452483270010e-01,3.805889196285217602e-01,-8.129627648792127348e-02
7.599088799840336694e-02,-2.158592753207390080e-01,-6.249275639382587122e-02,-1.189959559533823596e-01,-3.887157565979513230e-01,1.032824139122978102e-01,4.731393873430035923e-01,1.660971773101584115e-01,2.930689045507849366e-01,-4.703242130108933883e-01,-3.168905408021224224e-01,8.837778006487478910e-02,-4.573882903425139368e-01,2.515340385126388911e-01,-4.639473852783044250e-01,2.424262596215275567e-01,1.544670118177035589e-01,3.579657975210533971e-01
3.672162708070347281e-01,-3.930101297432458951e-03,6.797704630048355401e-02,2.965779273740463129e-01,3.187815226081511799e-01,-1.258504051639528221e-01,4.047729339778683433e-01,-6.285680224599658750e-02,-2.768633117337073735e-01,2.071998553329451945e-02,4.556295023064329541e-01,4.359676073876673774e-01,-4.225394242730646233e-01,-3.014752612403229226e-01,-2.558924288736541541e-01,4.345534995896049302e-01,-4.808597147318650067e-01,4.806712295564247728e-01
1.273521741257803153e-01,-1.501566715130192020e-01,-1.692592388064054210e-01,3.962131436009382335e-01,-6.824203713100124129e-03,1.636421073513504576e-01,-3.892584704687734182e-02,3.201858841237391617e-01,7.356735015354906593e-02,7.518335682768566286e-02,-2.845013688177094324e-01,1.677103799987146315e-01,1.801324090369054443e-01,2.764599459173134322e-01,-1.387385479955657031e-01,4.738962122667669252e-01,-2.578769385412159054e-01,-3.558504031138001733e-01
6.347150032330636793e-02,-1.715678232087615163e-01,1.794874094920559937e-01,-1.590343775172410323e-01,3.913260256543443782e-02,-5.236508770531405482e-02,1.055663196378544555e-01,6.601817854097249971e-02,-2.955165059565746932e-01,3.981495120363974238e-01,1.958504648315199936e-01,4.665629091875839879e-02,1.688779040065356285e-01,-3.731046657825047297e-01,-2.655176179806827963e-01,1.133425401237918156e-01,3.332522797547965987e-01,-1.385219450762095184e-01
1.599153957240500440e-02,-1.789791350729004749e-01,4.110029282518566363e-01,-4.206836194032225751e-01,-7.616637817735014138e-02,5.696951729268264625e-02,2.151811842880539671e-01,3.694988251111268052e-01,1.690838857724960009e-01,1.108650904655417019e-01,-4.852526417334704356e-01,2.338995922879986977e-01,-3.662501012872343420e-01,-3.182497107248111745e-01,-1.495055843773763493e-01,8.100961592144816092e-02,1.316105064565515070e-01,-1.128525777221659893e-01
-4.357071889757346272e-01,2.683011651690236921e-01,-3.701657633481276188e-01,4.174088092523563498e-01,-3.018586377217344352e-01,2.650889043904052222e-01,-1.714615447037286522e-01,3.318592551282739667e-01,-3.013794776324245014e-02,2.634484782693178317e-01,2.243582113759934327e-01,5.365031631817460817e-02,4.712238105532125521e-01,-3.474670188872833743e-01,5.177484347826976085e-01,4.154217795406572877e-02,-3.474694557138882645e-01,-1.804568395975235384e-02
6.849142745447400760e-02,1.722305907080389775e-01,8.568842840418654239e-02,-7.580853580087601462e-02,1.313992366095706188e-01,-1.806312917920584460e-01,4.360726605752725527e-01,-1.389296243117625895e-01,-9.467245678366406625e-02,-4.662469795178477150e-01,4.572163180356106915e-01,-2.314178700355417895e-01,4.290877941069781154e-01,2.431291116022008258e-01,-4.751116734300963457e-02,-4.679757496722668497e-01,4.721991474352831841e-01,3.028077614452686084e-01
-3.818430984207978329e-01,-3.630943255929196534e-01,-4.571874036777610062e-01,1.071824939690219219e-01,-1.639051642646769669e-01,2.850580713809054978e-01,-1.357886901329779725e-02,-2.926052462976044821e-01,3.160794639619296520e-02,-1.029982992983098367e-01,4.811834796628197686e-01,3.059966628657461163e-01,2.212218786960196693e-01,-4.604000930196007757e-01,-1.739497359943187604e-01,-4.486431165610973992e-01,-1.407675624199569708e-01,-3.418726856601537190e-01
-4.426869609834964137e-01,4.704092898906429565e-01,-1.964316737361497256e-01,-6.212502294804721215e-02,-5.938813483284721695e-02,-2.422098591195663009e-01,2.765878827391865524e-01,3.195373897523127726e-01,-2.086174372942803390e-01,-2.978426300868398102e-01,2.926919673426815471e-01,-1.196105266224718883e-01,1.484553368134127194e-01,2.407760446045270064e-01,4.289448748744652540e-01,2.030263533695667033e-01,-1.284902364233120875e-01,-5.016749433599719810e-01
1.580684334930275992e-01,7.687351800100802879e-02,-2.059309666337316158e-01,1.814627593756917845e-01,2.238640435995189193e-01,2.544762057078425732e-01,3.902172538790532608e-01,-1.333474334797950245e-01,-3.527906146632537876e-01,8.919686663646074487e-02,-2.721979901024924597e-01,3.459075704983428645e-01,1.478623887566728190e-01,-1.442583141566072258e-01,-1.824883136345074319e-01,2.419364954399403841e-02,1.379553854868039720e-01,4.924035976004090265e-01
2.849390630893610665e-01,3.888430168720112823e-01,-2.514472054523759770e-01,4.356539357981353278e-01,2.315637063547806018e-01,1.846732879260276627e-01,1.542194809668516187e-01,-2.223018446652819669e-01,8.043866188131020001e-02,2.921663210346396311e-01,1.886691881856381592e-01,-3.175785576241543784e-01,-1.141214722274458936e-02,-2.343704049431896697e-01,1.594836799756157719e-01,2.400695406016934708e-01,-3.346368762417869513e-01,2.717531725715353619e-01
-4.162314180140674336e-01,-2.743285704920625512e-01,-4.753714058538319187e-02,4.672513586026998296e-03,-1.464481635874464831e-02,-3.251207367626986477e-01,3.298520342348216783e-01,3.389475999055885369e-01,-3.302769419196384115e-01,-1.219178127589541499e-01,-3.601443253978190984e-01,-1.419439280092086031e-01,-2.679664731989589432e-02,2.923719633989655398e-01,-7.039664343640744670e-02,-2.070481859074969622e-01,2.598137253555031223e-01,3.136088884112027686e-01
-9.134021250595127095e-02,-1.890446757687667956e-01,3.257546249032104435e-01,8.344092921521738260e-03,1.283881015756768162e-01,2.958446368532509085e-01,-2.888691306508562318e-01,-3.032271990695283859e-01,-5.047373177940118749e-01,4.731746884491409011e-01,-3.863335877792183903e-01,7.169251791387794455e-03,4.453069792277117855e-01,1.562921348452736559e-01,8.342274564154097960e-02,-3.884934025149928694e-01,2.952988655381532102e-01,3.568755774937072967e-01
-2.615000558053164337e-01,-1.327649942474670199e-02,-3.418589015596903979e-01,-3.392172593657518109e-01,-2.053633596844206266e-01,2.361047661998267322e-01,-2.949979111373998708e-01,2.948450474124253984e-01,-3.167398413450295824e-01,3.193663004951743933e-01,6.144339382773465232e-03,-1.627279709886623738e-01,-1.532194852897273141e-01,-9.209560772822122932e-02,3.021061583981449750e-01,-1.782469181783400691e-01,3.884902785214527365e-01,-6.643347348181180556e-02
-1.353426598179847395e-01,-4.523496620374880539e-01,4.797351683724413451e-01,-3.944075430987468156e-01,3.173610774686186353e-01,3.137647562600217044e-01,2.797621845283430608e-01,2.143225169002504604e-03,3.419505314524832196e-01,-1.992195170081787481e-01,3.796046778059165017e-01,6.441054536432669342e-02,-8.615455366213127519e-02,4.161595212054603476e-01,2.098970265296158100e-01,2.268864863939655530e-01,4.586818170849308457e-02,-1.545946790280825212e-01
2.430975190658083221e-02,-1.807647711513481470e-01,-9.884110545615777677e-02,-4.771824173927077251e-01,2.557314495973439517e-02,-5.708798308946160666e-02,3.491083964272331808e-01,2.665807287854512486e-01,-3.970185435154481302e-01,-3.405882078863359808e-01,-2.526545791908523797e-01,-2.963824970353876043e-01,1.146784484028978562e-01,2.250535477285724728e-01,-4.973693199081724581e-01,-6.989794291909673385e-02,1.159127359693370163e-01,4.863034381287559271e-02
-3.854195663601618915e-01,7.694696081247268463e-03,-3.807591877295243288e-01,1.146906216868021494e-01,1.024116236002440561e-01,1.265897142501362649e-01,-2.466302283667199668e-01,-1.105697356822230720e-01,6.062859340816770248e-02,-4.388406072696641180e-01,-1.320872003914302095e-01,-2.967070001262954726e-01,3.190721115729355795e-02,4.950825532325131562e-01,2.139406980170544537e-01,-4.270307651338473565e-01,-3.164369999674397915e-01,1.034532925354533783e-01
-5.958737524690184417e-02,-1.226459247500996247e-01,-7.900723991723011819e-02,3.564165424861863718e-01,3.686913765573344159e-01,-1.459754634154947738e-02,-3.604080280869742525e-01,7.813532989840023257e-02,-3.032843167901929093e-01,8.348373240654985428e-02,4.099567912837035477e-01,2.042056551771394002e-01,3.508502989087055601e-01,-5.338176864008449263e-01,3.662314621948735693e-01,-9.570960513677820303e-02,-3.159677374279074025e-01,3.884945445663436359e-01
1.383643579019791237e-01,-3.624675663205932930e-01,-3.785863219324187567e-01,-1.079323723117346229e-01,-4.966019452158251107e-02,1.536533616698557425e-01,-1.858952205112732736e-01,-1.626337184966452909e-01,3.969517778150525866e-01,-3.241485100867911862e-01,-3.533236147314420816e-01,9.172875496473364629e-03,4.673130587711166184e-02,2.316863939246034954e-01,-4.508341152089013759e-01,-3.152408052279294104e-01,4.429594312439804615e-01,8.029210647938803125e-02
-1.873658478296610086e-01,-5.015870030941250723e-01,1.349174472388831314e-01,2.527489929391162904e-01,-2.516994089282507119e-01,7.548330638951387950e-02,2.070632234257547832e-01,-4.136717778539000800e-01,2.740895177717970754e-01,-3.195026907053053616e-02,7.432383337144626845e-02,-8.674115716709789037e-02,1.735823989176701887e-01,-2.391677197552146972e-01,-6.488869710929257018e-02,5.249694549759225531e-02,2.893351755727846530e-01,2.957657765141304962e-01
-4.682292089998057460e-01,-4.260609279607918132e-01,-7.428741565963993543e-02,-1.093472517947594452e-01,2.959164036375166451e-01,-3.570711579721056461e-01,4.494632084073763717e-03,4.145897239351807317e-01,4.793405790127273913e-02,-8.816679195463495225e-03,1.563064846215099502e-01,9.338657008087079825e-02,7.202868501899321006e-03,4.182956479502275560e-01,1.895485909588358053e-01,4.423666391335333570e-01,6.381790750765793663e-02,3.600686716796167031e-02
1.413548176612389184e-01,1.281873863786294615e-02,2.752049241585947104e-01,1.498870722241927855e-01,3.899721119691930069e-03,-1.668992087899595078e-01,1.646231988809088720e-01,-3.723544195320333539e-01,-2.955661366066790197e-01,5.436429953220420913e-02,-1.667154260200412741e-01,-2.223854504307490321e-01,4.544054436739797809e-01,4.451320693462297307e-01,-4.000446521318629101e-01,-3.873308942069347838e-01,-4.849187153841136855e-01,3.982652865798870789e-01
1.220692761291682360e-01,-1.999337563579269006e-01,4.742392104535513714e-02,3.677153528866399235e-01,-4.234301499725351969e-01,1.034402709917119356e-01,-4.500346297118735239e-01,-2.816500825820893450e-01,5.032771005019639476e-01,2.751551441954731489e-02,3.908557680274895030e-01,-4.009623231177312785e-01,-2.128855823976326944e-01,8.773372376967186748e-02,-4.913102104898018907e-01,-7.648491060265820429e-02,-4.273693027254424348e-01,4.197914577258661795e-01
-4.021400655682727532e-01,8.908434339218226916e-02,-3.206460838371150146e-01,3.904163528265638949e-01,-8.709385621367844721e-02,-3.437977839771571426e-02,2.746032313304168637e-01,4.128670752273566058e-01,-2.324036408323452985e-01,3.382542411419244832e-01,-3.968621821227741875e-01,2.920181454099681218e-01,-1.811584906063973821e-01,-2.225613834884209233e-02,1.371479668706487298e-01,-2.770111485155712927e-01,4.028832410421293031e-01,-1.143008009807252451e-01
3.941023466347242654e-01,-8.220871607537329206e-02,-2.587957562038793458e-01,1.168483894652680155e-01,-3.901403401121491532e-01,-4.532222282899749377e-01,-2.413116837231673584e-01,2.974621190083473476e-01,-4.797087158574647736e-01,-2.583266277533139213e-02,-3.647923795010741821e-01,4.844586257012594710e-01,2.774563135851703527e-02,-1.977116903854316543e-01,1.718993174638575316e-01,2.276831648303362654e-01,1.625695454102973891e-01,-1.952396092818399209e-01
-3.023172965333522644e-01,1.160492971632704207e-01,-2.948163302147494003e-01,1.344473471026140232e-01,3.596759385193165071e-01,-2.832501463141013920e-01,1.597246209196086508e-01,2.708902864047871839e-01,-4.074955382924116409e-01,-4.418141132939482074e-01,-1.203509659122590780e-01,7.471484613951054343e-02,-3.471999398460455799e-01,1.390790685222957901e-01,1.631690338167586518e-01,-2.113048298785765999e-01,2.705101740191678261e-01,2.478908646543412364e-01
2.484907845946449090e-01,-4.835217180136591048e-02,4.008518355821088369e-02,4.188107972785946598e-01,1.097510328559113818e-01,1.235068223250102848e-01,4.982569509677903796e-01,3.339237713488320547e-01,1.761782694912667757e-01,1.132059701185926803e-01,-1.629113410225419278e-01,-1.743336326778481826e-01,-3.020078391153984548e-02,8.559416749414006098e-02,3.669806998805798942e-02,7.572824871254641918e-03,-3.083939315788665758e-01,-3.329084068799962326e-01
-1.041340333919011929e-01,-2.866219994067684129e-01,-2.796452571242255547e-01,2.971542704689860148e-01,3.439693426554948918e-01,3.259101978291151225e-01,1.177391357958811058e-01,-4.513620982863835174e-01,-1.400726701033788157e-01,-2.985240930758766287e-01,3.872097570621273466e-01,-1.305179223809377620e-01,-2.918242310456867217e-01,-4.183222835692357311e-01,1.769331820116647469e-01,3.499813870133253180e-01,-2.818805994714543295e-01,-2.801243647311095208e-01
6.535114120514495806e-02,-7.137493707954040145e-02,-2.510738534157384572e-01,8.607868344522615067e-02,-2.135364487125678279e-01,1.151107273921139762e-01,9.611602997645682378e-02,4.227879756410520273e-01,2.589326401572840664e-01,-3.971763146722794291e-01,1.441418314066475470e-01,4.843585399991123253e-01,1.376468758387771052e-01,4.272673486313726676e-01,1.772857031579371245e-01,-2.429928570762777684e-01,-1.189112424839905702e-01,1.062290634745522008e-03
8.666685015303343675e-02,-4.634398297599670591e-01,-3.196401554770139097e-01,1.534316704794278785e-01,5.880171907675704052e-02,-4.360247747649103472e-02,3.544724316326487018e-02,3.637834774970822860e-01,-2.636898707774600337e-01,3.451159134719781751e-01,-3.879937151111615967e-01,4.372621534788835862e-01,3.239497284086285678e-01,-1.213059080340932600e-01,-1.737135250842978748e-02,2.968605854616472861e-01,2.232875390183527431e-01,2.183516777833048317e-01
-3.954190532555178494e-01,-2.772136431348338759e-01,-1.811246755087432547e-01,4.414231745162564557e-01,-2.042758446327373467e-01,2.297067188968144602e-01,-1.307273296679653182e-02,5.204459325659764879e-01,2.260353136788109119e-01,-4.220014812962633588e-01,2.083777022083831976e-01,4.032393473642442716e-01,1.576938949189876094e-01,3.461424322903418060e-01,-2.365847951412515249e-01,1.035000469473291579e-01,4.760635807695626220e-01,-2.969923059513907004e-01
2.394858466941885977e-01,-4.160011396140302353e-01,-5.350766490570081357e-01,-1.045627733619905464e-01,-1.800607723841019248e-01,3.525339602977194398e-01,8.643876113435169928e-02,6.036857031165398374e-02,-4.827191637899073684e-01,-1.568206980680668661e-01,2.117733698635757555e-01,3.914271713471855763e-01,-1.064563337582173641e-01,1.102121672731841556e-01,-3.300947833495541939e-02,-1.820197612107038732e-01,5.126841059637518051e-03,4.320810677462449956e-01
4.138746716777262913e-01,3.685039008935505622e-01,-1.623181902613401173e-01,3.470648772958199735e-01,2.948910388044003184e-01,4.091748384857209209e-02,1.085653294265347402e-01,2.381717533766499473e-01,-1.748427179520473662e-01,3.637917257967670376e-02,-3.840231832315888494e-01,-2.852447446291456190e-01,4.277463733658081746e-01,3.059319390082390622e-01,-4.399045610316601462e-01,-2.345867965003539390e-01,-3.849684103991318218e-01,9.059075582679611272e-02
1.827853218794924239e-01,-4.869071977249306848e-01,1.323812059320529366e-01,-1.101152321827491148e-01,-4.570768712363468267e-01,-1.621134952041384247e-01,4.099078784944847342e-01,-1.895713122683228002e-01,1.127906819686362305e-01,1.548131714811888937e-01,1.717151560513348330e-01,1.705596621644479560e-01,-1.514689026567820340e-01,3.208800941369940318e-01,3.200961185614647486e-01,1.538227924276821534e-01,-4.340800745842499433e-03,4.235684391476761124e-01
-3.524814497338557007e-01,2.677657495124692935e-02,-1.584606877974658878e-01,-2.086825996790898641e-01,-4.145949947411833869e-01,3.141680001572624836e-02,-1.764718437041381260e-01,2.276423432944595648e-01,-6.748503301557652601e-02,1.051144613316745829e-01,-1.366544156935239618e-01,-7.139430657268569513e-02,2.079804344251622028e-01,-2.629150834974747220e-01,2.408644021319625017e-01,-3.910215682412898630e-01,2.410905508504018191e-01,2.992314571516335731e-01
-9.426477938327171291e-02,4.145487268936222901e-03,-1.711448356609080179e-01,2.166100004092825215e-01,-2.922946852126314665e-01,4.366934492493960707e-01,-5.362212197952518494e-02,1.959077977477834132e-01,1.923803054462294160e-01,-3.776867770900710908e-01,1.280053508043225152e-01,-5.332000092941972802e-02,4.564940711552119557e-01,-3.651336092119406018e-01,4.612081336376448459e-01,-3.951308467429774929e-01,5.393796016830557649e-01,-4.619224491933215937e-01
2.654330192752407669e-01,2.074789846574122132e-01,2.831487158498696005e-02,-4.828675764073364074e-01,1.285113141531857295e-01,4.367233453652434316e-01,1.038434841498826200e-01,2.884138241868218211e-01,-2.918789950577454495e-01,3.274789320302712303e-01,-2.820504973788157121e-01,2.678482389399681196e-01,3.006316982635691137e-01,-3.125369189738610998e-01,-2.424371731715771749e-01,-4.675371595728007312e-01,3.421459276090867974e-01,4.181579343094100065e-01
6.416156815268024560e-02,8.870145387820058125e-02,-4.903769472294444154e-01,-2.453035951580562549e-02,2.029950804693156363e-01,-3.376203824789003952e-03,3.733068233778134015e-01,2.206174631536522990e-01,3.780134141136873294e-01,-4.019047766657646292e-01,-4.048318038362970217e-01,-4.129522651952464707e-01,2.266302779277006019e-01,-1.382545315093850619e-02,-4.816181411273264823e-01,1.116429602927545561e-01,4.788313395002403716e-01,1.143701490135016520e-02
-1.054067550504875772e-01,2.678984339933384584e-01,-3.850797847401487561e-01,9.933078254706929899e-02,-4.243442477907730104e-01,-1.106215998047445498e-01,6.523265376961299988e-02,-2.856370868687371223e-01,-2.703967246660258020e-02,-3.679300705269723526e-01,-4.024962549924731015e-01,-1.992860314263829591e-01,4.882980201648935981e-01,-6.280750528057930937e-02,2.263722341684928918e-02,-2.979878844962648432e-01,1.864727956242271945e-01,-2.452574934947585883e-01
-2.878597985522835523e-01,5.288570274489671208e-01,-3.450185294531101232e-01,2.464383689929297849e-01,-3.774473582084073020e-01,-6.015615142971878632e-02,3.869313468059270011e-01,-2.089397644876205828e-01,2.206617223056077659e-01,4.344968266605917645e-02,4.031997942111775757e-01,-3.292033457190898238e-01,-3.764132118636139279e-01,1.879137801134058705e-01,-1.087660936585133076e-01,-4.787019348828590593e-01,1.709469520975335222e-01,2.714888062310305550e-01
-2.195709754380503198e-01,5.032012368693442594e-01,-1.336665491843492259e-01,-3.348822170297761636e-01,-1.894698968131540151e-01,4.504236031172010324e-01,4.940083741885137325e-01,-1.190352088328696795e-01,1.663078519185851728e-02,1.143161406498521410e-01,4.345179685451848739e-01,-1.269771908049234788e-01,2.568468201352896441e-01,3.995838353468488813e-01,-1.232566793381075221e-01,-8.142399396413081691e-02,-3.525859719714746765e-01,1.042441212002853806e-01
2.767795881866685903e-01,-3.657030940343664743e-02,2.198936596150481149e-01,-4.495928486932075988e-03,-3.525514583546023317e-01,1.896349162090548990e-01,-2.982596565855592519e-01,4.551331672456468413e-01,-3.959730146715009780e-01,-7.959305779198630471e-02,-4.263325368262483317e-01,-1.958608951643805440e-01,6.113015746516244769e-02,-4.751954001775368641e-01,2.554338524175454039e-01,-1.153480666141982747e-01,-3.965239821065054127e-01,2.674839450787903083e-01
-3.950982111697573518e-02,-1.423501447673050646e-02,6.131422145929305890e-05,2.931034111617077456e-02,7.292544254059880882e-02,-2.250377453870492372e-01,-1.503392564719462920e-01,-4.016195440571714292e-01,-3.380744770632784224e-01,4.716497646831959156e-01,-4.577541920396485664e-01,2.480516551172610162e-01,-3.764621725537752317e-01,-2.310606988619398061e-01,-9.848493132411099971e-02,7.167146505952101503e-03,-1.776395655978607047e-01,-4.164510962266287919e-01
4.352017804670032519e-01,7.259842205860370275e-03,-1.365268684930233400e-01,1.556890506496620974e-01,-4.664086841935807248e-01,3.598913850536771264e-01,2.420837290118112717e-01,-6.204937161476662549e-02,-2.744407316183998802e-01,-3.009867688080539727e-01,-5.022016539020859316e-01,-4.760603999622197158e-01,2.178282517992377876e-01,-2.722940926131109385e-01,4.031420758856512077e-01,2.987762305672458929e-01,-4.202123111651002163e-01,-3.813095914080979476e-01
-3.768655448274890185e-01,-3.130578611973006686e-01,-2.582042638475955387e-01,4.637134454877048229e-02,8.954606257067260211e-02,2.680508386126005949e-01,-1.414608032004080473e-01,1.604877067417407044e-01,-1.477535625062129654e-01,-2.825361529322056864e-01,1.942230553336580234e-01,6.398437088946416773e-02,-3.598234392279295313e-01,2.638181619127127897e-01,1.519556987385582425e-01,-2.562906562149297462e-01,-4.264247517529911047e-01,3.142898318071570829e-01
-3.845294368672245722e-01,1.067078997057636230e-01,-3.481651095837591248e-01,-1.216937187161684503e-01,2.738951191095996274e-01,3.987081358524583452e-01,-3.367237122193463827e-01,3.109077572379776444e-01,2.908859128707244057e-01,2.229365934325845400e-01,-4.922011563672027412e-01,-2.344565097474049786e-01,-4.314452165074227907e-01,1.510846268273080550e-01,-4.972949863631478395e-01,-9.288891998216103341e-02,3.485930877491195679e-01,-3.300313076224232200e-01
2.937746723543183669e-01,-2.798853163960620116e-01,-2.756404407859742722e-01,-1.983323482844710772e-01,2.555506558426551833e-01,1.042327910476162633e-01,-4.363892363916745953e-01,2.181447862401227761e-02,-3.174906818582087786e-01,3.376404364188358431e-01,-2.633796990090161438e-01,-3.337499247484576048e-01,1.081971908672256233e-01,-4.556071360890164845e-01,5.188640777159995304e-02,-2.595552208064875743e-01,-5.761895827314052893e-02,-9.093305899938207426e-02
1.942529283804396156e-01,3.912361760389138077e-01,-3.659984919406722992e-01,7.886877066264333380e-02,4.549116792237103968e-01,3.862938554944675973e-01,7.755056235862957392e-02,7.388235075401534957e-02,-4.094124102261663678e-01,-2.557422733951258964e-01,2.124733153439675726e-01,-2.756245781932140648e-01,5.073658497094893916e-01,1.813777113983444933e-01,3.587611599884037439e-01,3.358904680888318839e-01,-1.562517325778510213e-01,-1.537583259194520435e-01
-2.116872120566700433e-01,-7.109102453546574385e-02,-1.603943199684841336e-01,1.625982031042387255e-01,5.917056330714551282e-02,3.616794829973125625e-01,4.794983116641791110e-01,4.740214503841415072e-01,3.872166800206019999e-01,9.971528385018632590e-02,-4.068494711935823904e-01,4.556598518358024319e-01,-3.678512430732855942e-01,-2.550406748754026620e-01,3.406392120133016066e-01,1.624828789895972347e-01,-1.829052841476436209e-02,-4.193930159321530016e-01
2.893326208914943076e-01,1.294420674927579396e-01,-2.855350703249398547e-01,1.852553686816615641e-01,4.542474458542155591e-01,4.077310427705306273e-01,3.805455308577839202e-01,3.263021324378268528e-01,-2.908450785120267890e-01,-1.713267852832559002e-01,1.729647617281769856e-01,-5.083710886771218851e-01,-3.709238305719823048e-01,-4.352777802067900881e-01,5.117751487478745531e-01,3.255696532532470489e-02,5.169913220649360319e-01,-4.748738526159395068e-01
1.199203121960685792e-01,3.548875281968856266e-01,2.231011871220343612e-01,-2.637629667860793004e-01,-2.405115347352329291e-01,2.357582705780618404e-01,-1.650854152369836403e-01,3.363891103417772088e-01,-8.995292353148962028e-02,2.614741028407313594e-01,1.773145555506359383e-01,2.556878053725413213e-01,2.618005320669640756e-01,4.812619701315658943e-02,-1.795809984345751731e-01,4.184874980959724655e-01,1.615491695077997114e-01,-1.667277616960929354e-01
4.973787617986266674e-01,-4.675458035641986282e-02,4.272463545396848472e-01,9.952471940706714149e-02,4.173150532494208642e-01,-1.707759846574216089e-01,-1.958975610000370238e-01,-5.256365697781893026e-02,-5.347428420120246828e-02,-1.643269110290932478e-01,-3.194260648007042971e-03,-4.343784942814553074e-01,1.960967661514599336e-01,-4.888113298270740925e-02,2.605972723249999068e-01,-2.826725823672138205e-02,3.930317810022646019e-01,-1.616025676346951045e-01
2.241683543993900629e-01,4.315931566433378608e-01,-2.924226712244336612e-01,3.931003708189299006e-01,1.273803801700021665e-01,7.571550975153959473e-02,-1.604578349190821929e-01,-3.867952822298539872e-01,-1.241859352248579490e-01,-4.583034429289152278e-01,1.260495518346750332e-01,6.350959813057394099e-02,1.623444519069519310e-01,2.201302213257955165e-01,1.530492076837466631e-01,4.723689736882464296e-01,-3.314994788821267191e-01,-2.178548540659068222e-01
-3.350192443945300136e-01,-2.242667824255924203e-01,-3.993241454369322874e-01,-3.757600981541879825e-01,-6.737043989339784600e-02,-3.373362344860731943e-01,3.691561543712502669e-01,2.955267089448638806e-01,-1.789986259466286311e-01,-2.358301829633189239e-01,6.482043540246176794e-02,1.344677103405838015e-01,3.444619358414368615e-01,-1.602515815877554317e-01,-7.122322509408225699e-02,4.467689361877245080e-01,-2.390851092592563218e-02,1.481156394619120575e-01
1.240909364104874485e-01,-1.717210641327420254e-02,8.381459856407655340e-02,6.961256932979971446e-02,-2.465326761655949883e-01,3.079715412129574448e-01,-2.318305468726105933e-01,2.262881766506171996e-02,3.792032792195097479e-01,-3.888158463634280859e-01,3.470389331543107247e-01,4.491970971984706185e-01,-7.272285483189050437e-02,1.273729975390236746e-01,3.805109319333627171e-01,-2.027520025152423078e-01,-4.507675586639940390e-01,-2.094159723457295619e-01
-4.107255874587262268e-01,4.866333885057049780e-01,-2.936249594842612609e-01,-4.310971595276596458e-01,3.541240996105787797e-01,-1.778001684471747779e-01,5.138656549518531014e-01,3.197412226102853694e-01,1.654515252878005493e-01,1.101702656803155711e-01,-5.033818205889361019e-01,9.898256235383849633e-02,4.645544281297597777e-01,-2.736804380826581840e-01,3.348631832774471295e-01,3.937313484262389696e-01,4.852263889531023555e-02,-2.552230699578497686e-01
1.092506005964878901e-01,-8.362271188049001658e-02,2.341439468496761267e-01,7.965896513765191589e-02,4.361711468232180033e-01,4.748640993652565867e-01,5.458410511266985343e-02,1.159780612953661277e-01,4.224773617905070444e-01,1.211569579321274265e-01,-1.476920820540689530e-02,-3.669677256448101721e-01,-4.635615592421037934e-01,-3.622303195342645998e-01,-2.364564078789261822e-02,-4.383089010605037417e-01,9.212664409845719438e-02,1.343991716761507027e-01
-1.534997358659808686e-01,3.778692467039980740e-01,3.060986174557415729e-01,-3.183680226610826058e-01,3.910200537678865662e-01,-2.263623165451027486e-01,-3.928724770452639015e-01,-9.936959960505063749e-02,2.788936079891744524e-01,-2.092156068551506987e-01,2.304135578065562018e-01,1.502332216951001165e-01,1.928956255863526204e-01,3.834062113634123525e-02,-2.571130502380011285e-01,2.478450944309275039e-01,3.041720803273316176e-01,3.245234860383928166e-01
-1.205604078734494669e-02,1.411098774737027939e-01,1.998534646683673699e-01,-4.040604315938214897e-01,3.083275500488187326e-01,-2.599989892520897516e-01,-2.038935841782354708e-01,-1.177191487082583227e-01,3.300706389378904593e-01,2.385026387443535123e-01,1.444969979428433748e-01,-4.387570964100734328e-01,-1.093545202723986837e-01,-3.742350778177910148e-02,3.117023448537675212e-01,-4.701998156983399624e-01,3.461084462052095301e-01,-1.919745070023074485e-01
-3.865503018084547326e-01,-7.654507783677272359e-02,-7.457643035298629208e-02,3.166245600842921282e-01,-7.438029760502505583e-02,2.896850567791330877e-01,-3.555428410831401598e-01,4.919260125928851674e-02,4.060728349129710812e-01,3.280661455307045671e-01,-7.410373751094956329e-02,3.241746975911737327e-01,-7.989214380814108063e-02,2.313619937007273600e-02,-5.079856736380813365e-01,-5.320734608420192302e-01,-7.934276876066873041e-02,1.237803975178689148e-01
4.462002041814023823e-01,2.611242441938204858e-02,1.342205400223611955e-01,-8.738669142228475128e-02,-3.503896932989087332e-01,8.877010060084343165e-03,1.493029001631806796e-01,-1.507233365500549871e-01,-1.674338409125414665e-02,2.256388983216076061e-01,-2.992297305638732530e-01,3.432293611005048373e-01,3.468592265937757713e-01,1.408093929660722120e-03,4.847841302072877778e-01,-3.651228120772499475e-01,-2.861005698313929813e-01,2.937163194059885796e-01
-1.066395280464777356e-01,-2.973941079080581473e-01,-3.319838635316100239e-01,-3.243398236930911671e-01,2.274183152558391097e-01,-4.786438794768448912e-01,3.104970145330857023e-01,3.642994173461068241e-01,2.974993591443276797e-01,-1.438211426161983830e-01,1.504864234564760317e-01,3.273712383806133275e-01,3.704018534394171724e-01,4.044785587634542323e-01,2.638548291459196782e-01,6.410551208011913693e-02,2.606802630988150904e-01,-1.476626674892211055e-01
-4.711093638314061138e-01,3.441576631221167082e-01,-2.909369696308390929e-01,4.111323337869335903e-01,8.591467303596157790e-02,-4.179488809883078471e-01,4.659171973104315190e-01,-3.643120133432548591e-01,2.599394963606749820e-01,2.880457509342736477e-01,1.137958116469541953e-01,4.321941613235028568e-01,4.055587412790081503e-01,-8.580241179817869879e-02,2.779004408189263975e-01,3.581061711863735564e-01,-5.016297534809255332e-02,2.304950041826045737e-01
1.936698670540147882e-01,1.860579543670246305e-01,2.498156818736191331e-01,2.487376469529108680e-01,3.687711296236555469e-01,6.621962986545050500e-02,-4.790896434821608763e-01,-1.171700926748610455e-01,-7.287724338962342507e-02,-3.094754098022498012e-01,3.944851423526302830e-02,2.610115552433403194e-02,-2.586606876877141636e-01,2.094953305571048419e-02,-4.330237025924849603e-01,-2.427418545751824641e-01,9.095978284810737891e-02,2.393006533964774085e-01
-4.764516778830122923e-01,4.055460481875391987e-01,-1.368387724989212073e-01,4.682142847858132284e-01,4.798543154315253467e-01,3.431024423610851692e-01,-8.836069397078018250e-02,3.236329314644460498e-01,-3.381746677553156277e-01,-9.114977852486830234e-02,-1.716583447157477849e-01,-5.404013896749659124e-02,-2.714931038037815547e-01,-4.243525765546024564e-01,-3.233581518788260500e-01,1.812427180190288589e-01,-3.928444854979187828e-01,-1.776266421766641568e-01
7.988727602744015444e-02,1.152767322676467726e-01,2.633552550501033207e-01,1.218883962696289541e-01,-3.390323463377926116e-01,2.270179936168547491e-02,2.261260851850283582e-01,-3.894442056387126261e-01,3.600248754539798757e-01,-3.428148774045121083e-01,8.498837784983172272e-02,7.571743843507076910e-02,-1.283479925241618747e-01,8.290366441068928310e-03,8.946288322810218296e-02,7.525801897938105833e-02,1.245353700997619273e-01,3.626050721395660537e-01
-4.850527719362459078e-01,-4.968065265452433765e-01,-4.089197388788994303e-01,-2.567851962458629900e-01,-3.218645153144502058e-01,-6.799806875160650799e-04,1.549913399800243174e-01,-1.616248204098036656e-01,1.361504023146681563e-01,-4.370196994589281014e-01,5.367832719294037686e-02,-3.737140254685301644e-01,-9.108472891316295172e-02,1.722048177395297253e-01,-3.882224162762881181e-01,-4.823111959906923873e-01,-3.520067337218805714e-01,-2.628730413141234790e-01
4.075265292694314478e-01,2.580104509977491634e-01,3.153637769427921067e-01,-3.113952785349073382e-01,-1.890972511317051408e-01,3.001451809778574176e-01,2.398396956619084919e-01,2.680359839025220348e-01,-3.215079174411362289e-02,3.378935354529056800e-01,-5.102007894726822562e-02,2.493934075599810174e-02,-2.122272351652768618e-01,5.370004116553673407e-02,-3.390553496970876157e-01,-3.062492924208970457e-01,2.681742365705817588e-01,-4.263714695222828310e-01
4.520040548823241466e-01,-4.829611327648367092e-01,7.870693466482094058e-02,4.169810797280616432e-01,9.353210388042448864e-02,2.741075958507692145e-01,-3.123098136359884758e-01,-3.154146542175805257e-01,2.554530061365449245e-01,-2.413151225385061494e-01,-2.211208274668777229e-01,-3.177469684083301660e-01,-1.776654448141193332e-02,-3.600050173990613223e-01,3.608990073083217509e-01,-2.335277343117707696e-02,9.329237047390565030e-02,2.518086147918692508e-02
-2.466219067310868873e-01,-5.617856976889873399e-02,1.668611819335265867e-01,2.872614218452674284e-01,3.858653696329585325e-01,2.356981948533351870e-02,-2.849871123341409240e-01,-4.193659313355564966e-01,2.034350279320314148e-01,-2.848451874999959887e-01,-9.817442915767826683e-02,-1.816835586489085330e-01,-2.996142296814933714e-01,2.151334368035394684e-01,7.626648872080223074e-02,-1.276856427851546516e-01,-1.237856193721361270e-01,-4.182097603223945970e-01
-4.909019292106130972e-01,-2.440315652172903582e-01,-2.714119936204013039e-01,4.024596255826169422e-01,-4.478714105845141846e-01,-2.656392949698613282e-01,8.038611458160066503e-02,-2.165765720240211134e-01,-3.154049633042969036e-01,4.839560793370253911e-02,-4.153451766882233498e-01,-4.451442940133922277e-01,-2.692742948115143392e-02,1.266653501656871128e-01,4.200758364601399064e-01,-1.976677351225540336e-01,-2.724984612741953027e-01,2.852137633129426253e-01
1.574691559451638911e-01,2.318632452635838517e-02,-2.822186863542347490e-01,3.091538260981566144e-02,-2.047647928614098334e-01,-3.549836813907116806e-01,-1.473703017461710230e-01,3.373124061129213480e-01,-4.860411587098265040e-01,3.196504028590524404e-01,3.894001756283429483e-01,3.655685699981145453e-01,2.722193137518753581e-01,-3.259793783400027345e-01,-2.465509397218147158e-01,-3.379809217211603989e-01,2.795907153216710683e-01,-4.953915709492590080e-01
-2.568615216433482451e-01,-4.250725335013126327e-01,1.013177841010255292e-01,2.808877491416643668e-01,3.390689873728863213e-01,-2.857507528117795292e-01,9.227903994663859411e-02,1.017592677134718931e-01,-2.302468161343996234e-01,1.538221823130862809e-01,-5.399500396286644605e-02,4.553186452082726432e-01,-1.848881217824805551e-02,-3.121720434143405720e-01,-1.305718017141117571e-01,-6.485348988462208419e-02,-5.752148217323180962e-02,4.212733432988597926e-01
