2.092511145517278182e-01,1.750714427443151311e-01,-3.108629952392176141e-02,2.352435785563686266e-02,1.478009274309288468e-01,9.358048648373645806e-02,-6.710234854375990432e-02,3.720726213967368717e-02,7.520351129159701109e-02,6.503378345356360113e-02,1.257480514241469671e-01,-1.013256660723534444e-02,3.168677614847616869e-02,-7.923086754682034938e-03,-1.422206119591264487e-02,3.780272546003369399e-02,9.790877779570868189e-02,-1.894942721060523076e-03,3.602507302248444260e-02,-7.966844974631634782e-03,-2.903945207612635901e-02,-1.743259739234584715e-01,-1.200531446332143287e-01,-3.076601699930288716e-02,-8.226542607580318578e-02,1.131856889894492790e-01,-9.593606697320505861e-02,-2.573679982504815597e-02,-1.947630911996030278e-02,-1.514867838392620625e-01,1.470959613428699658e-02,-1.177766057424098345e-01,1.553371220663320174e-01,1.619019345725381254e-01,1.127269603636484735e-01,1.086757540322184495e-01,-3.701680107855600393e-02,1.727523724888271328e-01,5.896234224578821015e-02,7.190068262362050988e-02,-4.453699674095191324e-02,-7.247767912759539577e-02,1.584648587889596685e-02,-3.234375647386088237e-02,1.629301134909371951e-01,2.506234437158393058e-02,-4.051682807530655739e-02,-1.167841341972081226e-01,-7.687983870184229851e-02,2.833726084152429769e-02,6.691964267185783813e-03,1.261012595173567341e-01,-2.540041564220188453e-02,2.430649924032178208e-02,1.134252596411190889e-01,-1.527531888794255929e-02,-7.742811408232982973e-02,2.962378689434175608e-02,-1.336816536191851590e-01,-1.195990346882430840e-02
-1.182317645326037489e-02,1.030646122558360155e-02,-4.905767409024348359e-04,-2.274223858295509534e-02,2.432015307173985424e-02,-6.183466926165248102e-03,-3.168212480398456803e-03,1.192370615809658536e-02,1.389350021829894623e-02,-6.311893644537248937e-03,1.270973357560985922e-02,-5.907880417322796014e-03,6.565451897126110305e-03,2.184653714855746762e-02,2.367250214547999762e-02,-3.963737183419149823e-03,3.283383555421115312e-03,-1.514618357944499602e-02,-3.245536564213264905e-03,-2.981225708255748428e-03,1.354185428990291665e-02,1.994689057234412533e-02,5.782484349896065742e-04,-3.329334224608095777e-03,-8.479131450139950482e-03,-3.821416972579816818e-03,1.392914800996611184e-02,3.509459046456627970e-03,1.471463951400734348e-02,-1.253263165483051514e-02,-1.619702434417471040e-02,1.067667802256899376e-02,9.812643356806199403e-04,-1.882149570538942801e-02,-1.119362801165565968e-02,-2.655253058053124240e-02,-9.010314629180829135e-03,-5.442205081287171745e-03,1.286405799406270881e-02,2.905587509261339536e-03,-7.956855285270405045e-03,1.271689330304364221e-02,7.037273923998606934e-03,1.551152599888474572e-02,1.721329044144942130e-02,2.560353077655709141e-03,7.658774704036155900e-03,1.590894507277012745e-02,1.249625457125161203e-02,1.428071829709377794e-02,-4.088621015090279642e-02,-2.055567151446694167e-04,-1.178180037925177434e-02,-3.203245468193324785e-02,8.009464119233472915e-03,-1.706732539543689975e-02,2.463875954484918106e-03,-7.888958127502043380e-03,-4.073537913990489534e-03,1.715498368921305810e-03
