-4.304026888627045938e-02,2.839250563653472059e-01,-4.420972557853425355e-01,-3.073255469051980882e-01,1.223448256585826510e-01,2.027406271785106920e-02,-4.126655703152776189e-01,-6.559544747219336891e-02,-1.627655525943669801e-01,-2.594071613847329094e-01,-1.130882205974990395e-01,-3.976334974671978384e-01,-3.657355668648390457e-01,5.273863496628388159e-01,2.995663008635202074e-01,4.493044856964982792e-01,-1.447437877147056962e-01,4.545836626470031727e-01,-2.549524405886162137e-01,3.188023572400778827e-01,1.795527353694329198e-01,-2.357388965864615216e-01,2.497362283008605910e-01,4.624828764711971796e-01,9.734162326716751246e-02,1.694109213338145792e-01,-2.982433853979692961e-01,4.462216184254026996e-01,1.477994923425833829e-01,3.201962821619478983e-01,2.485330281221409532e-01,1.538465103316059845e-01,-1.803369205581414336e-01,2.749894369666812111e-01,1.082042333680256763e-01,1.103647285367368586e-02,-3.372491730903577345e-01,-3.770923076214558467e-01,3.682519379720220476e-01,-2.948987257164019105e-01,-1.206748345688579832e-01,-2.293169445704898446e-01,4.809346792387158565e-01,4.930507326126779555e-01,2.880858486771534777e-01,1.847197906056766981e-01,-9.024163384546431133e-02,-3.620377242428983733e-01,-3.507804015454042412e-01,1.886257574689618466e-01,-2.824481144458567128e-01,3.553537574218558204e-01,2.603151866740057163e-01,-1.703205013342231067e-01,1.542450757621194324e-01,-1.341455419744932431e-01,3.656020085456905822e-01,2.800632312337820728e-01,1.212047510708088860e-01,-3.900186380664882879e-01,6.918730924541152683e-02,3.486588557494838536e-01,-1.602510435244849929e-01,-4.662061184052970764e-01,-4.463460417600939034e-01,1.240386057048323970e-01,2.506018201561882684e-03,3.378910073003421610e-01,-4.455250466667921572e-01,-3.513868800973474205e-02,3.805274003295395779e-01,-2.694548024384651463e-01,2.178913879534589426e-01,-1.427382841105697131e-01,-1.131734025842924540e-01,2.566544874256245778e-01,4.446306264726473945e-01,-1.301324404393706669e-01,-1.311558138597139767e-01,-1.578227037448810821e-01,5.178329676641706819e-02,2.279138686814888293e-01,-2.028116885686636894e-01,-1.798699181502430577e-01,4.021258530745802640e-01,-2.224780545058377135e-01,4.487015422593415570e-01,-4.542838477169820477e-01,1.411180888908889763e-01,-4.570306581992477080e-01,4.260080256711966107e-01,-4.690224199059456894e-02,3.081203305581312057e-01,3.172840845541641808e-01,1.779033093664068865e-01,1.524549708387814007e-01,9.747826653161172084e-02,4.112368575896376832e-01,1.714470139749339067e-02,9.297296531384476384e-03,1.190556505407512622e-01,-5.899538767560974506e-02,-3.566117764784071942e-01,-3.032940998862044824e-01,2.843639052429695058e-01,2.924124108719158843e-02,3.880414402052246303e-01,2.919944985152198580e-01,-9.382543211893488999e-02,2.675920128659671215e-01,-3.417944208695363195e-01,-3.081449339340643911e-01,-4.168408292222733902e-01,-4.051940688510282107e-01,2.074127895263815774e-02,-1.585915133270152377e-01,7.110976038895627793e-02,4.944773584054762416e-01,1.958725879328089559e-01,-2.193562428675202014e-01
3.197465296519850786e-01,-3.071778282875264887e-01,2.296912829211035512e-01,4.464971024973230507e-01,2.599814430731766431e-03,-2.733364027499464721e-01,-1.617871700318426406e-02,-3.937838079860289109e-01,3.061814080163734464e-01,-1.263963976385193422e-01,2.271101378604593601e-01,1.609153754872980069e-01,4.919922653498168957e-02,2.689225758374972353e-01,-5.806841215612149748e-02,4.485269326884632202e-01,-1.550764024681645058e-02,2.011955717929568010e-01,1.860647439785926838e-01,-1.028721379380821005e-01,-5.876373486239222510e-02,5.655873268363317830e-02,2.771675793070136895e-01,-7.355206294832743186e-02,2.384824498235181278e-01,-8.986013834730664784e-02,-7.093714801666391179e-02,-6.595779652952558914e-02,2.413985843677055043e-01,-4.595766772409946577e-01,-2.350367030592856454e-01,-4.604696226722972408e-01,-8.363516895257636086e-02,-1.287808509575945615e-01,-1.126317402980825805e-01,-4.633117755835310936e-01,-1.462755821874133222e-01,1.148246812852330573e-01,1.927543340748427148e-01,-3.231205690435510203e-01,-3.310095836817678050e-01,-4.432634648215114104e-01,-5.075968276574188698e-01,2.249815314649861175e-01,-4.741283281454188869e-01,1.735484784052367113e-02,-2.835856819316583954e-01,-3.954687296296623966e-01,2.630779555181406160e-01,5.332814659225952880e-01,1.064939162661363847e-01,6.095179829828340640e-02,-1.969130795713186777e-01,3.849614072550601174e-01,-3.370189112562997913e-01,3.552307507391745389e-01,5.219617258219538120e-02,2.285943611275391973e-01,1.193482843563190565e-01,-5.970574889381509431e-02,4.731603805050540318e-02,2.999725026165795949e-01,1.847764004429946483e-01,2.430314134513064661e-01,4.166959570325125539e-01,5.515010264074211854e-02,2.053533597501326358e-01,-3.604582406436164232e-01,5.079676570558976784e-02,-3.588619087785233086e-02,-1.098449691993207272e-01,3.130662518858847165e-01,-3.184371826294039032e-01,-4.586672187465267725e-01,-4.222770397799930908e-01,-2.547627043751726772e-01,3.554358248414269950e-01,-8.724683144669451162e-02,1.470288515833231835e-01,2.642726952354826353e-01,3.890125635198599663e-01,-2.340604514158392824e-01,3.481629916832864047e-01,2.415335156391614779e-01,-1.207750581310783507e-02,6.332866497767596081e-02,-3.386469476310375870e-01,-3.852300014112244320e-01,-4.924394664748754091e-01,-3.202587180276594836e-01,3.601253992210231569e-01,-2.394210836748568716e-01,9.093520611026811862e-02,-2.595464409186026486e-02,8.602621270022623584e-03,-2.880607883361996913e-01,4.671733981139034042e-01,1.491912155124124062e-02,4.928461898689637799e-01,-2.186326387667388016e-01,-2.140645598131038774e-01,-4.559247603059511933e-01,2.926611030232925681e-01,2.505789647861445535e-01,-3.846439546377474206e-01,3.099648485872630865e-01,3.775904123037714388e-01,-4.672314281706929640e-01,3.290032737490902748e-01,-4.001520444242247232e-02,3.264434051023044625e-01,-2.830540687716657788e-01,-3.530376503342024797e-01,4.637979603136627160e-01,2.445528956275880295e-01,1.897377526879325538e-01,2.890987552357364709e-01,4.142853645539996688e-01,-1.762617885538061979e-01,9.405633699859737573e-02
-2.559312811269726096e-01,-1.607516266768117263e-01,-2.789768955923196403e-01,-2.139544316686022574e-01,3.169518010073266168e-01,1.818892688164848725e-01,-1.675567627570259399e-01,3.678370045025033397e-01,-4.529623264867584931e-01,2.707509917794383991e-01,-3.976788021200542977e-01,2.792102602640412767e-01,1.779742201007303570e-01,2.102521188173239186e-01,2.666694631399966764e-01,-2.126676024935029441e-01,-4.169488108002132876e-01,8.318207499417831774e-02,4.037861563719299940e-01,-4.588100456156738449e-01,1.116918171788302827e-01,4.808065598241717531e-02,2.480609710965342718e-01,-9.605730805766621305e-02,2.991247248423108407e-01,-3.758329717568497652e-01,-3.458880653604567978e-01,-4.958646352542544489e-01,3.533686680329157226e-01,3.386701249681086656e-01,-2.847850866361946176e-01,1.330377632878526617e-01,2.291780687915190295e-01,2.237243795388061118e-01,3.703913365837978033e-01,-3.810394567963786283e-01,2.443154425514513506e-01,1.148203090243762464e-01,2.216861610403130511e-01,-7.594937761759908146e-02,-1.993824720404286932e-01,2.902784150939381469e-01,-1.175831074553991412e-01,3.841379626849916185e-01,-7.402496147688136796e-02,-2.838214829478646895e-01,-1.770372113302931261e-01,9.175396009341839354e-02,-3.689096548522112773e-01,-3.953135811521226728e-01,4.961494560678930688e-01,4.378190310071307378e-02,4.862493973906402700e-01,-4.457234161427998248e-02,-3.762805395491884974e-01,3.196816738858068163e-01,-1.342895166052148481e-01,1.211752054387562477e-01,-2.293577948910631714e-01,-4.547477322275342293e-01,3.633208264547418964e-01,4.881027955029953458e-01,2.853786447508078195e-01,5.568405581673203236e-02,3.230374405590150655e-01,-2.718167472312299580e-03,-1.969485109442435100e-01,2.836076694461683312e-01,7.902939958643682983e-03,1.319828778947509107e-01,2.395979101120646604e-01,-3.601389255399091160e-01,3.099581688931816181e-01,-4.250275808855104587e-01,-1.281436260296483498e-01,9.308477899991540738e-02,-5.103135126697893043e-01,1.491392869189013815e-01,6.423936205791155873e-02,-2.632528007312587848e-01,3.234571620158870342e-01,3.699564877492534376e-01,4.805182279706137760e-01,-1.794263181707023425e-01,-4.839446825150852671e-01,1.731232467986232038e-01,-1.390676031976734450e-01,-3.670122354249130692e-01,3.516889163157061460e-01,1.246819945978512867e-01,-1.301936889838969102e-01,3.725232395913281869e-02,-4.634651243694629108e-01,3.801498374623507592e-01,-1.155508425500367253e-01,1.699922675937305117e-01,-4.649866995892983912e-01,-4.784170498948270289e-02,-2.849235866036343157e-01,-1.542959051850444352e-01,-3.254664851948266824e-01,7.140235742925581108e-02,1.867663917148676134e-01,4.969757944533021443e-01,3.705281439467955074e-01,-3.951796479469641410e-01,7.918880490545762707e-02,-1.080774632374125604e-01,-1.994284902740522114e-01,4.291521933279942025e-01,2.476287296428302254e-01,-4.075837435264054870e-02,1.019651439516027214e-01,-4.970345627608578343e-01,-2.435481982476139784e-01,3.425512759321101136e-02,-3.608216360210055734e-02,-3.391592816578066494e-02,4.336248086121688439e-01,-2.986832136919381209e-01
3.295989599553071359e-01,3.943898775657436739e-01,4.821740073393629977e-01,3.659748450773803261e-03,3.928674068717011303e-01,4.687927715484384583e-01,6.153492716596226098e-02,9.880466216071621954e-02,1.187811950964807045e-01,2.622448740732830075e-01,-2.897205818536713884e-01,-6.602767226791948774e-02,-1.317127109686555830e-01,-3.848689957591319710e-01,3.010175599423859927e-01,-4.147493503252146496e-01,3.726564795181344647e-01,-1.904695126590957299e-01,2.299431664836745492e-01,-3.727598528304712500e-01,2.055813810706020317e-01,-2.855994030573262288e-01,-3.140540389847255587e-01,-2.559924257511438928e-01,-4.130602675554812531e-01,4.391616940616599463e-01,5.081001133808524250e-02,-1.025252384496653513e-01,-3.153690727105331604e-01,1.788407199208050524e-01,1.192283638146325042e-01,-2.167452973200011679e-01,7.348532967415777328e-02,3.239245049127807419e-01,4.534292192280430234e-01,3.900601651875543197e-01,3.920657617425220981e-02,5.494461647055383369e-02,5.544009514811250317e-02,-3.761824218842148571e-01,1.207632206048975670e-01,3.418773237006607624e-01,-2.332391082491056811e-01,1.758825649507865518e-01,-7.018579395074786564e-02,2.656755941474343574e-01,2.935552610819082697e-01,3.369326902089360698e-01,3.283399590156989567e-01,-1.833637030557692116e-01,-1.382853532039906574e-01,-3.500104530514909773e-01,1.853029042417250749e-01,5.633630974724796597e-02,-3.663436291491212748e-01,2.495378123699431017e-01,-1.645296083261485187e-01,-1.037496280195112780e-01,3.550115614299530209e-02,2.638921176599688390e-01,3.698891626130068611e-01,4.885484566736267298e-01,-2.393875776466857230e-01,-2.296319222032557408e-02,-1.306913228253735737e-01,-3.917916480042014649e-01,8.877752707983360692e-02,-2.768653152834099629e-01,-4.350817323984370044e-01,1.311708331390366855e-01,-3.336520698266182139e-01,2.686810250739213868e-01,3.042089094336076771e-01,-2.563655554894593847e-01,-4.387133756288897901e-01,-2.146229979871368820e-01,2.103765949275356040e-01,2.435820276085001734e-01,2.505823914701333366e-01,4.254348631196365194e-01,-2.526840391458939350e-01,4.486346774583876984e-01,4.742976279573797305e-01,4.811371292347826900e-01,-1.434696661784847227e-01,2.564345426514297865e-01,-4.194778867071340400e-01,-3.252102273812276234e-01,2.696921987182903657e-01,-1.083653243987506010e-01,-1.731477133113429323e-02,-2.758146564956291957e-01,-2.030529706963590461e-02,2.123206714821779251e-01,-1.249758482667289866e-01,2.292420652279375526e-01,4.622205456503369198e-02,1.958023243328002594e-01,-7.054433829288124513e-02,-2.532830951628368132e-01,2.145730395681510194e-01,2.414568457843812854e-01,-3.253749643432405358e-01,-4.935456590532114607e-01,3.545964630835478082e-01,2.299593598634023517e-01,2.830023638382536677e-01,3.704763410322594042e-01,-3.042250881066407286e-01,5.330157201931596811e-01,-2.002368378317930797e-01,1.397296591518267239e-01,4.295141222088137978e-01,-1.514013107005343917e-01,1.647471128127762224e-02,-1.149813492561474332e-01,3.802018534434368768e-01,-4.339414715118807830e-01,-3.093355506177385972e-01,-2.250944188876263449e-02
-3.813182373901379818e-01,-1.791600917777847191e-01,5.746247220802799122e-02,-4.380411053947636524e-01,-2.565962071500928476e-01,1.915489607247624071e-01,5.148284710435592215e-01,-3.772661703929808263e-01,-3.582422395326730347e-01,4.043645422504135167e-01,-2.486988229911823722e-01,5.030016362305460564e-01,-1.290635048196518975e-01,-4.177619456371333140e-01,4.455472911570002026e-01,9.856421757345314172e-02,-3.395984191235039140e-01,1.614708964154679405e-01,4.519756852484966281e-01,1.719774175539364180e-01,4.981750250472253422e-02,4.058702675039471131e-01,-4.285265136544668674e-01,-4.750465408354673791e-01,4.100300254483514872e-01,-5.233846647915313399e-01,-2.139863500094482326e-02,3.060634401986017661e-02,-1.197784841110415416e-01,2.308271431919566852e-01,5.163568572489041220e-01,-4.486557949734885642e-01,-5.190609071058967933e-02,-5.070030756490297996e-01,7.012301212616320334e-02,-4.578757164525231738e-01,-1.243726719042035668e-02,-1.822524819479997005e-01,1.062089132410516251e-01,5.679224151439509621e-02,-1.982616882049434981e-01,2.193671240255637978e-01,-6.744297864976780965e-02,3.952892870886627330e-01,-3.605070680242397629e-01,2.744105597007385766e-01,2.162648461134488997e-01,1.099788369260821519e-01,-7.637416843881048023e-02,-2.425229557760502641e-01,-1.363149891237369800e-02,5.067348699121664302e-01,-4.723857507683122403e-01,2.319908350071988590e-01,-2.579114084497124981e-01,-2.450024923660972243e-01,3.376497280350794772e-01,-2.398449707839643841e-01,2.487267400086292657e-01,-1.659659612270775186e-01,-1.738822303319990381e-01,-4.423731570355250720e-02,3.502442122199758701e-01,2.975758133236933722e-01,1.281440920009599416e-01,4.772251316761536577e-01,-3.531899898143884275e-01,-3.231431480459858729e-01,-4.853453112447821405e-01,1.458275060214222763e-01,4.431360505370885439e-01,4.593670376587634108e-01,-3.629725436051760568e-01,-1.158967033659937945e-01,-4.691632510797096867e-01,2.430853723784854592e-01,-3.131461017962196558e-01,4.397371688902538267e-01,-9.452418717118157149e-03,-1.645832464856597510e-01,2.179807604381380215e-01,-2.329227704513729957e-01,1.280901977649030743e-01,-4.603821713571462082e-01,-3.502385702963050629e-01,3.811085820191386642e-01,-4.894544294585398969e-01,-2.632780685131553833e-01,4.576699943607941967e-01,-3.579655268054331985e-01,4.900635296603466085e-01,3.368706085114824278e-01,1.488414635706455658e-01,1.616588338958545312e-01,-1.150764301126924391e-02,2.721061631907211176e-01,-8.360007313893132175e-02,5.339085220855609437e-01,2.348654366192436810e-02,-2.757836196553902219e-01,3.377434078334535239e-01,-3.411886031108731787e-01,3.272293683979494161e-01,4.585025677239459863e-02,-1.299066301619324071e-01,-4.397546568254396826e-01,-4.556014105610817766e-01,1.315963822619204138e-01,4.860684561254918767e-02,5.122973402666248788e-01,-3.738192727343768174e-01,-1.810530253026720882e-02,2.073025978634827349e-01,4.275122365105690214e-01,2.138601384996216548e-01,4.419782488544921062e-01,-5.214888122898910655e-02,-1.262248350790753102e-03,2.998207092791975725e-01,3.336189097530536940e-01
-5.777227963058190197e-02,-2.904065246951725854e-01,-1.050937986167076454e-01,-4.541692361345281981e-01,4.016393697676713670e-02,1.459687574195226989e-01,3.789144544532069836e-01,-2.829865953104900855e-01,-4.501004080418505304e-01,-1.310653815401002231e-01,-1.175680043301369354e-01,-3.524677456291899769e-01,3.381366080406291164e-01,3.865039795636390219e-01,-1.608718984559644183e-01,2.649055194278573389e-01,1.335895207881661606e-01,-2.317689367074996509e-01,3.216424702030206695e-01,-4.476224815680486802e-01,-2.579474110799164777e-01,-3.661800854145021988e-01,1.902889042816841847e-01,-1.030266119561611994e-02,-6.307472510200783089e-02,-3.383596980348688721e-01,5.048818935570930679e-03,-3.732422729860967459e-01,1.305436571303346394e-01,2.501012990891088306e-01,-4.503296117216208372e-01,-2.548599193023383114e-01,1.616477216770355885e-01,-3.686702991528716805e-02,-3.884918574363003252e-01,-1.490137253036474471e-02,1.757743704685507391e-01,3.902234823073992831e-01,-1.758456387047423741e-01,3.746165180130372474e-01,-4.387570126595855546e-01,-4.419263471458711456e-01,3.219035260386632347e-01,2.788972415949133032e-01,8.860400741551931192e-02,4.718319051202057302e-01,1.555312650683230713e-01,4.384707333883313685e-01,4.848913662777233902e-01,-1.825411626360126383e-01,-2.246069836842673473e-01,2.540831900433919155e-01,-2.969748268079416276e-01,1.433997187077337421e-01,-1.662840670517209685e-01,3.591369782843108482e-01,4.632634506616268855e-01,-1.902020279701287786e-01,2.520650173057945587e-01,-1.984468656465976644e-01,-7.784649432407647618e-02,2.704812486188306608e-01,-4.108886272486464430e-02,-1.076674235334202923e-01,-2.130944234809340476e-01,-2.595171639130925412e-01,3.428152917221471974e-01,-4.664175825670628384e-01,-4.357877128903147601e-01,-1.838475666022441196e-02,2.011316905975545077e-01,3.987524922005542538e-01,-4.197608068349813482e-01,3.655188876940053677e-01,1.025099479065205016e-01,-4.318775370147281412e-01,4.642989237416509374e-01,-4.097076851447494783e-01,3.793991687590284045e-01,1.846860413248122279e-01,-3.980711633893435630e-01,2.761964694157993394e-01,1.989988999871805941e-01,4.377849767975925399e-01,4.544635106736523711e-01,6.077312103730570653e-03,4.155657306010141494e-01,1.976756643829142429e-02,2.148583775168826926e-01,1.009783534360359780e-01,1.300140616129887017e-01,1.542943456679155001e-01,5.185968268006746484e-02,5.557114878885741766e-02,8.771779762774727096e-02,-3.852135573641521371e-01,2.851800749122996304e-01,-4.153110769990130957e-01,-3.374548970102382306e-01,3.139550702291216133e-01,-7.802226267202722054e-02,-2.842320603789148525e-01,2.153760957803755038e-01,-3.447865044000931745e-01,-1.664618338061452096e-01,-3.894216670150175141e-01,4.228901900539071557e-01,-4.066288871376694813e-01,-3.009014613149353368e-01,3.270540457087608432e-01,-4.409408162602024839e-01,2.579356131200082336e-01,-3.012405091622010200e-01,4.046908394687518951e-01,-1.262865902970066734e-01,-2.470832579128381945e-01,1.819294790426705943e-01,3.209903704257711654e-01,2.548660480848769505e-01,-2.854856346783756216e-01
-2.954770370166361904e-01,-3.326777372030611524e-01,1.377421901114434799e-01,-4.407799529085089651e-01,8.118148711414066576e-02,-4.796360722773356788e-01,9.041472523129492900e-02,3.012027488446265000e-01,-1.285357860981513056e-01,3.075118603065874479e-01,-4.134548068874546733e-01,-4.876277725560790310e-01,1.202808740348486616e-01,3.434453856827850982e-01,-3.980659812826317090e-01,-2.922406853014954953e-01,-1.447616671113546583e-01,1.183500013796205258e-01,1.083854545779292383e-01,-2.763082441322124716e-02,-3.624651216887561644e-01,4.701904074780331455e-01,4.626175541920706236e-01,-1.450844279521034397e-01,-1.170090952426283554e-01,3.277256391369531285e-01,-4.437029822979601801e-02,3.804689180459659981e-01,-2.513800560468670287e-01,-3.657050732961391465e-02,4.478398674025284576e-01,-3.616777433145121345e-02,-2.519594630136322566e-01,2.999226321473899004e-01,-2.908820603327978982e-01,-1.665483141212739382e-01,-5.401067490849354585e-02,3.516666818309290288e-01,-9.490096609808948425e-02,-4.445133756727533969e-01,2.323382049158307650e-01,-3.744215502249788052e-01,-3.678887322970899598e-01,-1.309405111763667084e-01,4.017491574066853754e-01,-3.412205001854038411e-01,2.857334232994958589e-01,-4.282130978765757434e-01,-2.601865354473784087e-02,1.611021146489765021e-01,1.570861835730407163e-01,-3.420143027411386982e-01,2.583736037976432920e-01,-3.025296057318329623e-01,-3.487491320574908488e-02,-3.387886020404488052e-01,3.488571744284075238e-01,-2.002068662659252027e-02,-4.892537856799235585e-01,-3.864253444172833230e-01,3.776338548802296580e-01,-2.567720007085911305e-01,4.326959902740222519e-02,3.594539451855338075e-01,1.481875410475690935e-01,-2.448859718891676918e-01,4.561451767709255312e-01,9.202464854351385948e-02,2.561063877308026315e-01,-2.297636481813317699e-01,4.159232185908244284e-01,3.864164761470222365e-01,2.813104332513669537e-01,3.825242179999381320e-01,1.056260605830899729e-01,-1.181776710239140771e-01,-2.736176025762463229e-02,-2.726651697685751885e-01,3.467436694462614488e-01,-2.250448276681334958e-01,-2.129754905149028044e-01,3.774694850879874441e-01,1.183261814506012810e-01,-5.122778568893335271e-02,-2.337648201778487478e-01,8.458166755610881105e-02,-1.640975421901640641e-01,2.898043366173957414e-01,8.100522563318350577e-02,-1.730336899149252372e-01,2.740187217526213193e-01,-3.125376122893058772e-02,-2.843032574332833295e-01,3.236837030386692238e-01,-2.894951512965704965e-01,5.058335461388018262e-01,1.828474323729230855e-01,-3.679697910623547785e-01,2.502481101715649595e-02,9.209945476508071827e-02,4.700789057829094508e-01,4.122568552311888651e-02,-7.682398390809583311e-02,4.863168737966122035e-01,-2.939018362222426961e-01,-2.011266651345178513e-01,1.281473406911610990e-01,1.903925882710518769e-01,-1.658854724228840671e-01,2.003454966189723019e-01,-1.658761179312273713e-03,2.819370318482128934e-01,2.065358676636848412e-01,1.824950237557310950e-01,4.303827283379521029e-01,-3.236782262768416740e-01,1.802812041643532259e-01,-2.693265487594465046e-01,3.351896921310367761e-01,-3.710298553509335795e-01
2.513773674559814930e-01,1.912045366045875827e-01,3.860855013131080926e-01,-2.847146274899715612e-01,3.418313352750596001e-01,-4.159575099454810854e-01,1.754034768671542122e-01,-4.311631482359089274e-02,9.382376723084601133e-02,-1.050379439100941475e-01,1.270094384247463515e-01,-2.201727918620907110e-01,-2.638020451474739625e-01,4.685183420947253707e-01,2.412506724059490792e-01,-1.820640443578201151e-01,1.001590140765585557e-01,-2.044056281347355619e-01,3.556413473516137902e-01,2.771566968130608211e-01,1.539475331389210111e-01,-7.098899214631594623e-02,3.353659047390554204e-01,4.659791563797134328e-01,3.594243475246531871e-01,-9.979124989922757982e-02,2.583652354213396563e-01,-3.557780495889954486e-01,2.930620072714004154e-01,-4.792620945836966739e-01,4.027790438602877332e-01,1.320965022671706235e-01,1.215006413606836699e-01,6.969077476999437082e-02,2.678730095404749378e-01,-3.461677734431028441e-01,-4.560855027766108627e-01,-3.517824580398271617e-01,-4.327160926626503201e-01,4.138089151826939704e-01,4.003464585089317462e-01,1.530078371534150383e-01,-2.716847538350977698e-01,-3.242370538880983699e-01,-1.167094408863879745e-01,-1.580875063359127308e-01,2.658212507907121713e-01,-4.852382719273000689e-01,-2.826021599843731025e-01,4.139506545444000540e-01,1.112737870315255867e-01,-7.917998246021790143e-02,3.869522987768386213e-01,-2.733198991950915868e-01,1.593981644461917868e-01,-3.353603646599674915e-01,2.265662797402493156e-01,6.200107162791099191e-02,-1.268863048438951535e-01,3.495339416963819668e-01,1.620889393254696179e-02,3.958880619235892739e-01,4.785137087339667583e-01,-3.423193806708688114e-01,4.038622565229056383e-01,-8.947397564362705169e-03,4.245000313384022506e-01,4.794942877886511634e-01,-9.718880005893885954e-02,2.559056579220820443e-02,2.665127338040985117e-01,-4.382780597454660754e-01,-4.609751851176697168e-01,4.476055492973681216e-01,-1.296620708602606864e-01,3.037876031798347753e-01,-1.282685976110198300e-02,-2.604879020679432555e-01,-4.983921511602210641e-01,-3.549042486630771820e-01,-1.775355656281202843e-01,-5.070512917799172709e-03,-1.594981606035176247e-01,-3.922915787651808373e-01,-3.090711556009991812e-01,-4.802450147475197384e-01,-2.717160508740119607e-01,4.165387086135405315e-01,3.664534634579078021e-01,3.290351963165676907e-01,-1.475602995392540362e-01,4.949859862526995863e-02,6.415593267202505945e-02,4.109446591607024413e-01,-4.406131990479426608e-01,-3.741443640029217810e-01,-5.785100443590679431e-02,-1.543644982965887771e-02,-7.320430857246182366e-02,1.009829225337122854e-01,-4.055007951403830635e-01,-2.521031061096236092e-01,1.111366350878582321e-01,-1.091149298138544693e-01,2.354360919730475177e-01,7.179972416430890902e-02,-1.261018675272198852e-01,4.595848246479224825e-02,1.245109464878398770e-01,-3.015557626340569786e-01,2.611363058975182949e-01,1.629394407167491510e-01,-3.990912550967723460e-02,4.691310156085244376e-01,-1.623210811088085515e-01,-3.941496431187597183e-01,5.396876956747963527e-01,-4.032832791691166041e-01,-5.181750875721831129e-01,-7.901736014993421264e-02
1.623888709057651480e-01,-2.146252313738307091e-02,1.042165159730290003e-01,4.338495984169969955e-01,-3.093411519054882208e-01,-3.783150079293032264e-01,-3.052932495497253651e-01,1.791252596602237457e-01,-4.156300510731236741e-01,-3.221408105110504794e-01,-5.174022270843932070e-01,5.061165416846451492e-01,-3.506377665300745849e-02,3.298179633357765650e-01,2.519670313874067952e-02,-2.681435621769009958e-01,2.508587645325036086e-01,-1.350820905867726462e-01,2.163395452192624080e-01,-1.461220283897779471e-01,-3.769632858955933308e-02,2.422144441490114430e-01,-1.027505805293807695e-01,3.949025581200520940e-01,-4.889582892141364212e-01,-2.976970149036886615e-01,1.769386157111804414e-01,-2.102224358212712307e-01,-1.819869407565404273e-01,-3.845233292079677234e-01,-3.908787037915263940e-01,-2.716425164287945004e-01,3.216139741788042183e-01,-2.555329631172546107e-02,5.368658790285700810e-01,3.578534926351334966e-01,4.254857120464530795e-01,9.353501481700529641e-02,1.504138422223920413e-01,1.231433614862469661e-01,-3.993506469582340790e-01,-3.387553937811461635e-01,-1.571369081969402615e-01,2.558537795016801453e-01,1.737263693273913279e-01,7.125130177815540422e-02,-3.431555405999073827e-01,3.046059974130598258e-01,-1.259656841658506887e-01,6.399985684806040742e-02,-1.633760142055439568e-01,-4.465908361849027508e-01,1.063869694877285846e-02,-4.612275545494778917e-02,-4.274835234302727660e-02,-4.582700875528746831e-01,4.424703276766644433e-01,5.312704564287423770e-01,-3.437554657273770298e-01,4.590728974208997393e-01,1.276077681876326975e-01,-2.204681124206406273e-01,-4.620369405889774295e-01,-1.900100915868843943e-01,-2.250411249250738183e-02,-1.421825332330233782e-01,-3.621423598512593656e-01,1.065043568931706014e-01,3.825377141947039483e-02,-2.568306733007150178e-01,-1.431018104235360633e-01,8.767432930411228620e-02,4.648754176481800227e-01,4.574441557448954976e-01,-1.171716806604110178e-01,-2.302419034919673535e-01,3.916839142774425353e-01,-9.238913385424475655e-02,4.348811688811730081e-01,5.181700338423838037e-01,-1.431131940704933325e-01,-1.572615502853566827e-01,4.006046089984559022e-01,4.414224615829099307e-01,2.133537888681009687e-01,-3.857022199408370322e-01,4.365784217723742144e-01,3.051534237062533128e-01,4.286385068114520469e-01,2.996707008925362792e-01,1.632073214703249342e-01,1.390346796093908099e-01,-5.879463038984691220e-02,4.584573180989846009e-01,-2.387785123795868880e-01,7.547589427350495650e-03,5.443561854666124633e-01,-3.931881339630194372e-01,4.992806794253683011e-01,2.465461988537312188e-01,1.801869226301498761e-01,-1.743594928287710843e-01,4.865320405254968672e-01,-1.482180820432773549e-01,3.146887857741229033e-01,3.072297697307700415e-01,1.547776572244632109e-01,4.402023860557826018e-01,1.482402490375017146e-01,2.306654725475829892e-01,3.895337591487810780e-01,-2.660795469156430615e-01,7.226161424706219194e-02,1.999900227591208113e-01,-2.031626342071833902e-01,-2.760690063330319965e-01,-2.298700702341115523e-02,-2.646762287556156390e-01,-4.529768109641144069e-01,-9.176984640437675644e-02
-2.507117644148842417e-01,-2.942100548502815313e-02,3.642049598409737854e-01,-4.710603016038739654e-01,-2.620567574515688114e-01,-4.217974316275892033e-01,2.387985955287611484e-01,1.050499490337979541e-01,7.344818317532203489e-02,-1.218992860942241380e-01,2.320982131189413267e-01,2.416403774784480485e-01,4.979774284243896898e-01,2.502579266297559335e-01,-1.151384556452020036e-01,2.365723194563114085e-01,-2.625868731874910281e-02,-4.672301499350139942e-01,1.367920097018077430e-01,2.620914249679800467e-01,-3.981108546639840484e-01,3.146664284822947022e-01,-2.416239081221762397e-01,-3.858339208644746554e-01,1.507893726970470638e-01,4.087424622719778022e-01,-2.423372757498009344e-01,4.025201027969325107e-01,2.694682937810257695e-01,-2.187894956097436450e-01,9.744488027869198377e-02,-6.573091687807866568e-02,4.146020393109785540e-01,-2.108723661581752840e-01,-2.919513150725311923e-01,-1.260481419949292525e-01,4.173364775359050260e-01,2.955897925314419639e-01,4.307190883660761971e-01,-3.736019702425326661e-01,-5.130878954877929887e-01,3.450509635120364571e-01,1.222670468206207839e-01,-1.709373846890847315e-01,-3.165054353460968750e-01,3.292593435546421476e-01,3.130390959245703542e-01,4.859889981293241124e-01,-1.652127959573159721e-01,1.647193301181353597e-01,2.267296560389708004e-01,-4.742461001204130722e-01,6.500180384953616053e-02,4.640249601020346448e-02,2.937814412640187278e-01,3.229019226948132149e-01,2.922086683981947597e-02,-3.577386756568528559e-01,-1.206844844737888500e-01,-3.198817421055299981e-01,1.838452609076840771e-01,3.356527786840287630e-01,4.607376407270623031e-01,4.601625133798081108e-02,2.351886999034902281e-01,3.770197947412877726e-01,-2.982744873436932731e-01,-1.762514384883249463e-01,-2.175277546610691615e-01,1.213126147730783921e-01,4.668763679538630584e-01,9.421585049948025259e-02,-3.676605595773485557e-01,-1.545845283264486170e-01,4.491928024721860702e-01,3.173338790698935763e-01,-3.759553581024935864e-01,1.537745565336986753e-01,-3.534522780124505492e-01,2.819615639828345829e-02,1.806461787299045718e-01,1.535385291457205814e-01,-3.357643400959637869e-01,4.224369929191573170e-01,4.013689047132994459e-01,-3.804764308926518179e-01,3.863433927382788902e-01,4.973313448058370723e-01,1.989661587626015693e-01,-2.526223368277378256e-01,-1.360755473503820756e-01,7.007248053810907762e-02,-8.757622649731570952e-02,-2.160260729345160613e-01,2.038191366051867182e-01,4.360229456418648897e-01,5.512498762141958275e-02,2.934315343956108157e-01,-4.111040080773556982e-01,2.360842128608447443e-01,-9.468898944896919634e-02,4.351200219955608239e-01,-1.993118253412044516e-01,-1.832729184118836452e-01,-1.225080548122187696e-01,2.495418949290733601e-01,-9.323645371169274332e-02,3.405288578270995736e-01,-2.445468628519739951e-01,4.357062480910350866e-01,-1.329664864424405686e-03,-2.860706705444297504e-01,1.761625780281819709e-01,-8.809695431316734437e-02,-3.476358757873210248e-01,1.653482643124692675e-01,2.624658572012331104e-01,2.966698881416051647e-01,-2.267387387254642811e-02,-5.707942556300555498e-02
-7.464199765147473686e-02,4.872004917578778294e-01,4.071002674537272381e-01,-2.429986976930113840e-01,-4.261691258261288140e-01,-2.516377158722566398e-01,2.986153272611483667e-01,-3.542083871298324360e-01,-2.637948197883595580e-01,4.884619619953319697e-02,-2.669647476788690743e-01,-4.435263897634454389e-01,-1.546836625672148857e-01,-6.038556196664934123e-02,2.064384027593055004e-01,-1.321463856399280878e-01,-3.792604392464353213e-01,3.023406240816957635e-01,1.038599876163915775e-01,2.853567290120171962e-01,3.001763972350749432e-01,-3.333350875530669555e-01,-1.928055319324596326e-02,3.487888253617867085e-02,-5.492359087632073950e-02,-1.335641502617355980e-01,-9.320429608778531272e-02,5.071929419427373409e-01,2.700638525887891772e-01,4.299255639535717877e-01,-2.477284530812975394e-01,1.765791102472435425e-01,1.175571911295170552e-01,2.494524955631052462e-02,4.238037506809926025e-02,-2.309577937622475929e-01,-1.463014111150671148e-01,5.827269703597242473e-02,2.125232807585997752e-01,4.337690905352561410e-01,3.755572631638188774e-01,1.530811771274787625e-01,-2.151153248768334636e-01,3.470572983182407256e-02,-3.718544248732778557e-01,5.712033041730401077e-04,-2.263120807600176865e-01,-4.700465471119446015e-01,5.635827248669175032e-02,5.049205899292897870e-01,1.032889961669815476e-01,2.820806033893948905e-01,2.535812401145114969e-01,3.427979799341617784e-01,-6.008963406889939601e-02,-3.187778348440592491e-01,-3.104783244427198885e-01,4.772360157743750775e-01,-2.893880934111903169e-01,3.030925960017766263e-01,-3.202221325217609049e-01,-4.764339032718543643e-01,-3.692457586320775920e-01,-1.528004918314245786e-01,4.341007684851692222e-02,-2.497285558534965699e-01,4.901037849447278383e-01,-4.382806732611845835e-01,-1.040216240099936240e-01,5.482837540833272738e-02,-3.878839302129309941e-01,3.305575468369223446e-01,-1.847005333461115006e-01,-1.662413591372958743e-01,1.623295039405936169e-01,-2.205107294061419976e-01,5.152690931321531886e-01,4.254711705306660763e-01,-1.420002366068102151e-01,6.063258207121047932e-02,1.017036606533014143e-01,3.746779271740213746e-01,-1.882093947066002249e-01,2.299283293492326574e-01,-8.182412788272183657e-02,-2.866543275791885170e-01,1.250826050999004624e-01,9.792307647735314091e-02,2.150134186678217263e-01,3.281331588924273346e-01,-1.642236479728332865e-01,5.663337461368848219e-02,-3.241025127488110780e-01,3.527132321729138376e-01,1.198814418672634607e-01,-3.953868464771823632e-01,1.073750880734858082e-01,-2.309872321225134861e-01,-2.898447946233149719e-01,-4.625632674991487781e-01,2.936613909720340865e-01,-2.737521463647835662e-01,1.213764845591786407e-01,8.010345026315486561e-02,3.941800793262584812e-01,-9.746723042449940977e-02,-5.107685889892426001e-01,-2.405807630317519374e-01,4.657792986299390536e-01,-2.752360103811699044e-01,-4.279662522013890635e-01,-4.835430597937059871e-01,-1.235316945277599859e-01,-1.675886218006879536e-01,2.073643815742773067e-01,-5.861957441099740346e-02,-2.683026160218794920e-01,6.243986505372606244e-02,-1.579314606229946238e-01,-2.007610075829783791e-01
3.121538987256343156e-01,1.187492559641844803e-01,-2.315460828753851119e-01,-4.310037935439847145e-01,9.766988504557731765e-02,3.505008873471652242e-01,2.772876631361453903e-01,-3.917006352211909737e-01,1.222831779010530029e-01,-4.545855891085590628e-01,4.100190237837376683e-01,-6.499004380642998957e-02,2.467966704004599665e-01,-2.626681442189210403e-01,2.301330885576735041e-01,3.698877983570096339e-01,4.246217917998754698e-01,1.786195998717295813e-02,-2.764369463522550197e-01,2.753082386623033062e-01,1.847898341756329388e-01,7.612775422235878997e-02,1.809804548769018417e-01,4.909298796469728221e-01,2.179580711921970948e-01,-1.361620963136543072e-01,9.377412443325837399e-02,-4.827439649966536739e-01,2.139031060168951892e-01,1.705911748594509114e-01,4.163773596348891437e-01,-4.241612981260602933e-01,-2.935422553210230157e-01,2.949408189665767011e-01,6.214000941849302795e-02,4.884744294609778825e-02,4.235917528962539480e-01,-1.065330644355817480e-01,3.208467865584209155e-01,-1.728564389585655892e-01,1.191227075602142443e-01,2.314622977743893695e-01,3.293487289606136792e-01,-1.229997545716533663e-01,-4.186350098650920559e-01,-2.571406287013237035e-01,4.346354623335558776e-01,-1.113860159330642696e-01,4.263070225570231297e-01,-1.935976052428766692e-01,3.873504590003172265e-01,1.523805515046802173e-01,1.878886049776333500e-01,-8.190180981977512875e-02,-1.750342088326075907e-01,-2.857989421801656604e-01,-4.458533968067243114e-01,-1.685246498615182442e-01,2.002528915751717320e-01,3.135921845923188567e-01,4.139385613070895031e-01,3.677633093129305253e-02,-1.102068408738724886e-01,-3.902956398346772438e-01,-4.750640318070677992e-01,3.000060034795998809e-01,-1.463741237409302287e-01,-2.871981569668688450e-01,4.707480098320835915e-01,-2.005787604731131823e-01,-3.728755492436219843e-01,3.651561668298954899e-01,-2.258223173206190260e-01,-3.694521586940351376e-01,-3.848293218151983552e-01,2.231137062131201970e-02,-3.489790956172229563e-01,-3.143875152439697951e-01,-2.588462333337112065e-01,-1.984682674549067272e-01,-5.077125983173685908e-01,3.317192367408465237e-01,1.439237755570643429e-01,3.587415069238424070e-02,2.106046799934055413e-02,3.793708433067544128e-01,3.536734674387111421e-01,3.156514172992512246e-01,-5.969547119357523912e-02,-1.707742296365490353e-01,1.844912960225861265e-01,2.737996250948661059e-01,-7.784084732121815398e-02,-4.308383259648307928e-01,3.489052781938433712e-01,2.393171449129024853e-01,4.613150040195835300e-01,-4.275622527679031615e-01,5.195372142351848410e-01,-3.886704334315994602e-01,1.998516737546696953e-01,2.244305298159404993e-01,4.934791067939697240e-01,7.126145709145650931e-02,-3.961369448799264004e-01,-4.757319195778894616e-01,-2.863938920499107810e-01,1.298314409595325014e-01,-4.133336465990476716e-02,2.193883720824693351e-01,-3.183518770590003655e-01,-2.940073319433021415e-01,1.600790046918481591e-01,3.336360824182790230e-01,1.192712474054444666e-01,2.588016953282434307e-01,2.872439703946308431e-01,3.648124892371894523e-01,2.457662036601317157e-01,7.084120132924290325e-02
-2.419352610989144309e-02,9.102949801969506538e-02,5.234011788840604584e-01,-1.479660884117836028e-01,-1.531221373760975335e-01,-2.425224122874840849e-01,-9.192328782186046099e-02,3.972565525225145722e-01,2.507340875737364971e-01,-4.054462371680322974e-01,-2.175658104770552825e-01,6.511638328191790559e-02,-2.883858271224967740e-02,-1.658937675115345900e-01,-4.055621584762544307e-01,9.380768758591521983e-02,2.206631625958871967e-01,-4.082092738778225066e-03,1.151096035740353657e-01,-4.363130402895836202e-01,-1.077352371054905028e-01,-4.068375348539768344e-01,4.926599508129522222e-03,-2.335850656932791092e-01,1.089357724491283458e-01,3.255946101410567839e-01,1.848264758159720578e-01,-1.000144463993224847e-01,-3.008179669020863978e-01,2.966929104556297325e-01,6.414911653625707082e-03,4.048210485668218284e-01,-1.377355001016205005e-01,-2.576631823984000258e-01,3.144618000006912245e-02,-4.617246380678438622e-01,2.147181062182010880e-01,-5.120398159070809196e-01,-5.222727109163511489e-02,2.718264623065988483e-01,-3.826260363795588870e-01,1.887600013606125504e-01,-1.181116675165607699e-01,1.424286615185804857e-02,5.466931526604830449e-02,3.517836424681668461e-01,4.147540713443750304e-01,-7.302241211919036079e-02,5.077149146949441194e-01,-4.663910937689472180e-01,3.247701599826192248e-02,-1.240718947647248688e-01,-4.986918078581609737e-01,4.910999847152788811e-01,-1.015972758751254867e-01,5.087575578838664236e-02,-4.235395634349085059e-01,-3.415578973132887275e-01,4.163884721987651805e-01,-4.297006648024730424e-01,3.820820215173653112e-01,-4.129351520206811510e-01,3.986020661012685262e-01,2.138681106240585550e-01,3.722594696763536493e-01,2.538523697895598841e-01,2.343155298777413187e-01,-6.788564250265979871e-02,4.345089069444992291e-01,3.536579376274278097e-01,4.815786747213777752e-01,-3.320884756573971308e-01,-3.287687328552207910e-01,-1.289844204274772366e-01,-3.739303261620199881e-01,-2.747556119215947557e-01,-3.805197280204417609e-01,3.097782570152441545e-02,1.028347907945611484e-01,2.617409037180191689e-01,-4.254662844699433344e-01,-3.834611297212771608e-01,3.917005104268614368e-01,7.367817304714520399e-02,3.276920091112350275e-01,5.823977042127442827e-02,5.702994005985463286e-03,4.592778121191184448e-01,-3.119520232617459254e-01,1.832594069734008180e-01,2.009869086593108478e-01,-1.530865438317663418e-01,-3.541204813832802278e-01,-2.645571747833447840e-01,8.478848123958536431e-02,5.112100041886958879e-01,-2.161578014563257655e-01,3.488924214356707854e-01,1.102833177237185353e-01,-4.212913203531065132e-01,1.385191338672195072e-01,-3.941319739842527037e-01,3.556658434867243646e-01,-1.489771390710792863e-02,-3.777862995977232519e-01,-2.320555448381280972e-01,3.737295229183855150e-01,2.283716568707155892e-01,1.163104842697115227e-01,-1.126922467416718171e-02,3.925244654287747270e-01,3.113176545341100887e-01,-3.107560944187427454e-01,2.627414232648508374e-01,5.146350685720109119e-01,4.895121637096644385e-01,-2.745837189900594555e-01,-3.110659543109108027e-02,1.828404752343043560e-01,-3.684184221192455255e-01
-4.956739215241837138e-01,1.816060664924900314e-01,4.229361485190611947e-01,2.522994973149029693e-02,-3.263417328996566225e-01,-9.470796873539141791e-02,3.664139728660580908e-01,1.234485928742744820e-01,3.499978951479667533e-01,3.531332067910121775e-01,-3.888087315369692099e-01,-2.065962785299689242e-01,3.748213831173885513e-01,5.885273218609479370e-03,-1.888164248172706783e-01,-2.375024202150071428e-01,1.455675276711711208e-01,1.613743994168230153e-02,-3.106935102379311253e-01,2.174884833808869156e-01,-1.139937446587416525e-01,2.257351029773509710e-01,2.107794446411333233e-01,3.847494592799988872e-02,-1.587082514900722829e-01,-4.513623005088786971e-02,-3.187441674186632795e-02,2.053878503451092019e-01,4.079173751817449234e-01,-7.805460728720758912e-02,-3.870757792944785058e-01,-2.529937263360527155e-01,2.967394311666674001e-01,-5.299676976683551644e-01,1.839612073106009285e-02,-1.008906909976158145e-01,9.343960016252747525e-02,6.776856753070963080e-02,-1.283221708407228934e-01,-2.895616139149804757e-01,-3.320484330365804371e-01,-2.313151136457951285e-01,5.898049367860229431e-02,4.425143694188143906e-01,-2.543056078168543510e-01,1.592566306977364066e-01,-4.915610490850148562e-01,-4.100207467668712802e-01,-2.435089822402990434e-01,4.133817877968989918e-01,8.082620153744284053e-02,3.167606763832294114e-01,4.623944149523913274e-04,8.916301071492784003e-02,5.436826832659301389e-02,-3.492801832407705920e-01,6.455908213710422061e-02,-1.835675486510427168e-01,-1.492699614824856136e-01,-3.847955547177374647e-01,2.293983998009126446e-01,7.850042685311423019e-02,-4.832715586399869978e-01,-2.759140955763339856e-02,1.098375854938966889e-01,-2.472414440789517664e-01,2.345013383385853301e-01,2.112590055807499201e-01,-1.270009905925978122e-01,-3.614318405949364932e-01,2.975018898657334487e-01,-1.817387527940344388e-02,4.340090018452714138e-01,3.567744200280070777e-01,-5.047859655715213334e-01,-2.877050409974542533e-01,2.913306499344146538e-01,-3.422037339191602578e-01,7.116630189319247957e-02,4.253283671508708008e-01,2.607588315954524893e-01,2.620340669038927484e-01,-3.696422453253961904e-01,-3.324432977561234126e-01,4.548456958635283542e-01,1.479723627684280396e-01,-5.247891112518074039e-03,4.403186980038485965e-01,2.854958238334813769e-01,-4.541473058170634181e-01,3.467203718622541841e-01,1.949218623772931702e-01,-1.011098296562611999e-02,-9.376687348753580398e-02,-1.144083957123001177e-01,4.071417399508796275e-02,1.331448303668521793e-01,1.822828718813198356e-01,5.567028375359142078e-01,6.786810156588490850e-02,-2.251370748228244678e-01,-3.394735071039291230e-02,2.731057037595586157e-01,2.784875727575238935e-01,5.404392838788953796e-02,-2.793498267344801111e-01,1.607667222804902429e-01,-2.096572468731707772e-01,-1.430923002800258970e-01,-4.620638118650673976e-01,-2.897838729697295168e-01,-4.683496836093160587e-01,4.285618175555829801e-01,-1.510952570760006330e-01,2.920791334508146542e-01,3.569879348619122705e-01,-1.503500477781480049e-01,-4.827008564989331285e-01,2.257218391865237761e-01,-3.232611780753747444e-01
1.121808495865254107e-01,2.985001905399695121e-01,3.114523794929672795e-01,1.128935054401384724e-01,-3.635858299154735018e-01,4.234970519929253108e-01,3.212932001763378342e-01,1.060641936605139501e-01,7.784324818152914272e-02,3.220579562244633154e-01,-4.365960137980973710e-01,-3.171942971675607847e-02,3.348478928005981237e-01,4.586372092170678538e-01,7.077006021531149528e-03,-3.692703248027913165e-01,-1.649365712069605083e-01,-1.469110246767611205e-01,-9.982860411391769606e-02,-3.859282261043801010e-01,-3.056511553234826373e-01,2.661072328796690659e-02,9.016927362945732771e-02,-4.630407253098292597e-01,-1.768508764123064292e-01,-3.026899509419803125e-01,-4.259153667354891870e-01,-3.399270859421763546e-01,-8.378319055104492541e-02,-1.459760233693534470e-01,2.922701467429092426e-01,-3.409138446881780360e-01,-7.754464947169828481e-02,1.186915513191399152e-01,4.790967000358417605e-01,2.837708285394886509e-01,5.399180632625159154e-02,-3.862346068698978008e-01,2.682732650207167099e-02,2.440940066221799210e-01,-3.690793107558369424e-01,-6.244465658323095081e-02,4.827562721381229438e-01,1.428042975236484269e-01,1.036769219997847602e-01,-1.975895924434782902e-01,1.840360057482571532e-01,3.864517195992057119e-01,2.663220753739918845e-01,2.051025626334989915e-01,1.808702665413403632e-01,3.720941085774044921e-01,-1.200270402030118727e-01,4.349721668493304882e-01,-3.691913675996243427e-01,2.372171023007250412e-01,-3.015466512902383826e-03,-2.331355883349815195e-01,2.983917892862242849e-01,1.972033787368832058e-01,-2.386482410876819837e-01,2.327121665590270172e-01,-3.072821797261200416e-01,1.973034172474412706e-01,-8.667890748614655305e-02,3.121244755017317241e-01,-2.392962102684736969e-01,2.268624450223318822e-01,-4.263769034136498104e-01,-2.027987737586013084e-01,1.877104447652407429e-02,-4.735571552456554478e-01,2.637016350013434152e-01,-3.145861448847027675e-01,-3.080258202864217809e-01,1.244465150520054075e-01,-3.951815418499941002e-01,-1.552527626421968121e-01,1.610773566601865492e-01,4.098711992978406604e-01,-1.873625076986229487e-01,1.859232103783409473e-01,-3.155048162592486993e-01,-1.889064657967986227e-01,2.564384991017059634e-01,-4.798721058102216608e-01,2.415306277178742855e-01,2.444451386690056349e-01,4.399429979979689875e-01,-1.424613782562941522e-01,9.326636216417556746e-02,-1.419300731965694208e-02,-1.490392072631553377e-01,-1.101903889480775750e-01,-3.283470701713338546e-01,4.998262923436589955e-01,5.014859419278613895e-02,3.098087912953961243e-01,4.495378533816594691e-01,1.604869776452477470e-01,7.790712350530237806e-02,-9.191390704116944588e-02,-5.347551180152470413e-02,4.261227367390280074e-01,-4.353414467925412201e-01,-4.718111291174748589e-01,3.690275209592319694e-01,1.012997601561293481e-01,2.837062588728210266e-01,5.748260435020902809e-02,-2.568367974889631533e-01,4.918502232003054142e-01,4.040525593750125544e-01,-2.050604902132221186e-01,1.552902829755996306e-01,3.495607100439468984e-01,-1.151475214205602421e-01,4.205031439032081986e-01,-4.218493712444219002e-01,1.392721875114581731e-01
-4.385499868990917482e-01,-5.505396948041376554e-02,-2.111844654894044215e-01,1.774486554294977536e-01,-4.774044587033557385e-01,-2.236343791416577249e-03,-4.629616244545113335e-01,-2.873048194358430174e-01,4.237978811136590696e-01,-1.138347877765649580e-01,1.609574668173583967e-01,-1.709025413768345547e-01,2.651297469249381811e-01,2.191550388498404167e-01,-2.110232987159027795e-01,3.794386816715385191e-02,-5.027605506328605145e-01,-4.243197581631329429e-01,2.292554236438027193e-01,2.755452976492058226e-01,1.840571097156648572e-01,-3.708412504668067156e-01,-1.814492328574091318e-01,-1.175459262570368868e-01,3.179172746064440336e-01,4.494936288532812019e-01,2.378809355482045251e-01,1.180463463102016664e-01,2.097860300808243872e-01,-3.321053821088538749e-01,-3.338101400410926900e-02,6.860129287451479686e-03,-1.807806539897457709e-01,1.757143435370935869e-01,9.479216491764559660e-02,-4.791039194298366000e-01,2.741167420919485287e-01,2.503497307205255762e-01,-5.915392433693519858e-02,1.052183667634299796e-01,-4.539689896835330529e-01,1.694614734369488396e-01,-2.553084791671034193e-01,4.359303712630449579e-01,-9.322713813633014268e-02,-1.651035132761310142e-01,4.034382447747100753e-01,-1.659492911319412067e-01,-2.236174935560946708e-01,-9.601568733553170198e-02,3.860760227213383966e-01,1.050332488820689691e-01,-2.918359248625329028e-01,-8.999663933544265956e-03,1.796070333254957407e-01,4.621214012283796774e-02,4.710991441622216502e-01,2.856965102829809866e-01,2.464629770644866796e-02,5.166450034027945254e-02,2.248923191438229330e-01,-2.703728718104421724e-01,2.959316518381946426e-02,-2.770832323256209317e-01,-4.426724754011154839e-01,-2.198982686428585243e-01,-2.356401213285463092e-01,-2.425228887834350588e-01,4.477695566524018123e-01,-9.234493520217973428e-02,2.512210687297239953e-01,-9.355657493970348515e-02,-2.473198068098916846e-01,1.533521097670618172e-01,-5.568596488870579397e-02,-1.492188380355955191e-01,5.882110747785673777e-02,2.173583176952249146e-02,-2.908096244652161322e-02,2.871478276003510133e-01,-1.473043022136567848e-01,-8.402987365495881433e-02,3.372264425648267006e-01,-1.753423463281738037e-01,-3.065016905964259020e-01,3.978344340344907026e-01,1.779339795081431308e-01,4.605706339369095570e-01,-2.776869198412620365e-01,6.833531195786764212e-02,3.997481474844747917e-01,-1.842624315694732784e-01,-1.421641101408170627e-01,-1.932140639820238426e-01,-4.336015178408888504e-01,3.503495420521434700e-01,2.087652280504536939e-01,-1.882360760163011848e-01,1.466216198474660226e-01,1.758552192990197327e-01,-4.584635737206851913e-01,4.296333775977731473e-01,3.721596135687018636e-01,-4.094081612741199416e-01,2.427582336347458569e-01,-4.321065404987671221e-01,3.672034417839590836e-01,-1.147483572641685434e-01,-2.554581196319866687e-01,4.085116730531870854e-02,-3.541781050439627432e-01,2.754252760680976353e-01,-6.474463055211969464e-02,4.153211092737031374e-01,1.747131148914334298e-01,1.028275428327243557e-01,-2.913647929555404636e-01,4.667948401925702262e-01,-1.939516496041405330e-02,-1.021890930846023060e-01
2.791924780834151854e-01,-3.824155986483845915e-01,-4.299492382289454295e-01,-5.045063823632251615e-02,-2.564415369705304037e-01,1.672464421223258946e-01,2.126638686037169157e-01,-3.969480853796186204e-01,-4.496285209117547033e-01,-1.302172647266881256e-01,1.169023853141705222e-03,4.447707880793809743e-01,1.053266792505395399e-01,3.041047827728134423e-01,3.013659947001228606e-02,-1.972713658983522023e-01,2.556968869056945315e-01,-6.000148930325838875e-02,3.593354635812896769e-02,9.872111645049634621e-02,4.951199058933974245e-02,-3.834554313581793883e-01,5.719904133563001591e-02,2.704213184096573852e-01,2.763257268178978023e-03,3.919066243942542771e-01,-4.198720347865492752e-01,3.747007884443537828e-01,-4.680301550817572015e-02,-1.393835183252909449e-01,-1.916243285008217556e-01,-3.793099437311058253e-01,-4.869766750657482657e-01,-1.142150392725483077e-01,-2.508617829771623842e-01,-1.394240707040201588e-01,4.009155210412012060e-01,-3.078928567561832752e-01,2.482534840132107623e-01,1.858684219854566111e-01,8.626346555582589670e-02,-4.239056785074653000e-01,3.574021015512201527e-01,-1.796776849510463847e-01,3.896226074508795101e-01,3.293379744082493565e-01,4.749702584225498070e-01,-2.188871243187373583e-01,-4.474299512833031511e-01,-4.715220593313411146e-01,-5.091060454136982043e-03,2.771658780095636598e-01,-4.011317572942896814e-01,-3.433535681369643267e-01,-1.563757020670325515e-01,-2.786427581524489883e-01,-1.231517084772789858e-02,-3.722035717337660587e-01,-4.104466262200870963e-01,4.566939946947164430e-01,4.784376379179925420e-01,3.474401992868091371e-01,2.028426956491061472e-01,2.024340767446236589e-01,-2.533786981971058450e-01,3.067643378301614376e-01,1.525213760799457863e-01,1.241196986287067955e-01,2.037694219923225636e-01,-3.052911456943340762e-01,1.073515333479415773e-01,-2.566066663218847035e-02,1.329670882560961831e-01,-4.100044042555005541e-01,3.501733154574755424e-01,-4.799785375923555364e-01,2.866451359448857761e-01,2.293790046577451613e-01,4.278275928206221601e-01,4.163418592420353725e-02,-5.295861318627168718e-02,-4.412610523923135575e-01,-4.033498510439785800e-01,-1.520155515004543156e-01,-2.173344047149215752e-01,2.524001487706634735e-03,6.508578201164222365e-02,-2.115877636005837892e-01,-1.752087902937972119e-01,-2.454357865585427567e-01,-4.067110956739046213e-01,1.760052783079416594e-01,-1.684646002690305122e-01,4.443213304010117937e-01,2.296582163690204514e-01,3.324834897282148011e-02,-5.011925320269531303e-01,-2.927795478037880095e-01,-3.820968211330120212e-01,4.760106117096269407e-01,5.053955107329531904e-01,1.001847132349644870e-01,-4.061765960933852448e-01,-3.322318486432211948e-01,-5.017651466503799673e-01,-2.704669534947354292e-01,-2.568992698458998913e-01,-2.414577230214481895e-01,3.076608087368495892e-01,-2.161825513459930126e-01,-1.121229201013896823e-02,4.108330620920124798e-01,1.443002164272217669e-01,2.570094220815200559e-01,3.309490085158699468e-01,-8.759058453717410986e-02,-4.025937317506788626e-01,-1.040934282046991344e-01,8.680068637035746881e-02,-4.623860867331046620e-01
2.670629507450758000e-01,-4.349788939599071869e-01,4.311096875071784851e-01,-4.527403794393639047e-01,-3.846959505288921610e-01,-2.814588543548424693e-01,-5.517705096163905837e-02,-3.771892689414472200e-01,-7.146853693778676408e-02,7.293725730370187454e-02,-4.307413298395333934e-01,3.983264882604923285e-01,-4.831764460692021257e-01,4.686493893133577560e-01,-2.566950347776028596e-01,-4.769088157407822548e-01,1.612010750536821413e-01,-1.320894793375244625e-01,-2.794806564316587028e-01,-4.922313933725864371e-02,3.714958077626850236e-02,-3.183739288570821557e-01,4.927037648647207280e-01,2.217854197808854511e-01,-5.066502428662176261e-01,-3.656366077027147776e-01,2.439171921011309696e-01,3.323196282413901081e-01,-2.436543717846690049e-01,-3.456526261119287069e-01,2.673485553835444062e-01,-4.356305203692057981e-01,-3.126574117912618300e-01,2.628236086530930660e-01,8.487458970520272983e-02,3.436368985529478226e-01,1.713186433413903809e-01,-2.742413738697950798e-01,-3.226597322296386600e-02,-5.256492626046530697e-02,3.250437259036031978e-01,2.506941297428589288e-01,-4.723175851281607995e-02,4.418666041144452827e-01,-3.066419146973506926e-01,2.104262050379770432e-01,-3.881941798586969194e-01,3.750394321985253132e-01,3.226219937210746402e-01,-4.763531737500986130e-01,-4.313387391984344066e-01,-3.865095333974469249e-01,2.417868891451490088e-01,3.329442311051742931e-01,4.965456403784156980e-01,-4.321688252421804211e-01,-1.393966141155301708e-01,-1.725520571845851614e-01,1.403857626162338668e-01,1.560877728296464484e-01,-3.527563737693266699e-01,4.200613988396027509e-01,-4.108784983790270129e-01,-2.959757246958872878e-01,2.930158164416588606e-01,-3.067512436518892716e-01,1.150174137200677266e-01,-2.646225873907901982e-01,-4.656376198332105587e-01,-1.575595927200185431e-01,-3.159112478755960463e-01,2.098001506550471740e-01,9.414854859628618566e-03,-3.880915546783891279e-01,-1.405287333134793148e-01,4.843719914740733483e-03,-3.148506625561296457e-01,-2.880280192577190368e-01,-2.179914829889918193e-01,2.760606733740144092e-01,4.444577429435506155e-01,-5.700676424452146007e-02,-1.450677871701725741e-01,-2.071077328449942023e-01,1.188916702711595996e-01,2.293865569064921228e-01,-3.693196982229520198e-01,2.751681324773981308e-01,-3.637374100733904991e-01,-4.479825752597369481e-01,-4.761740656150762613e-02,3.925979431577409917e-01,8.115465574544857008e-02,-2.040918704247264848e-01,4.223183461071731981e-02,-3.385924752867106036e-01,-1.205844066962808575e-01,-2.361892940232570570e-01,3.560107847471615239e-01,2.416368071193344680e-01,-1.220887471685259407e-01,-1.592301284373409398e-01,4.478198154620297577e-01,-2.293304748096949321e-03,3.002721766517794100e-01,-4.240890766676208568e-01,2.342831169786516454e-01,1.770633073984778927e-01,4.998186056391253768e-02,2.580416862512729392e-01,-4.797498431228120475e-01,1.597993230872747916e-01,2.405905656635480561e-01,-2.699775676091221710e-01,3.421519463183854137e-01,-2.090367366479094560e-02,2.764167697392609299e-02,4.449582084478845845e-01,4.971966080061299142e-02,3.174963052196002056e-01
-4.298775859645183051e-01,-1.307222828990480812e-01,-1.929716043796182723e-01,-4.156233389873215667e-01,-2.909824772843346268e-03,7.368705317098959984e-02,-1.343018169828858951e-02,-1.668400574295190314e-02,-3.430381761801259421e-01,-3.459520726535221247e-01,1.489204169704853031e-01,-1.084622671907042729e-01,3.355221341772925969e-01,-3.356179795951382827e-01,-5.334118799531201854e-02,-8.366014154102123512e-02,1.330483512579130334e-01,1.863590366271933307e-01,-2.123816305389239489e-01,1.535657550221489545e-02,2.853444547966316747e-01,1.881324198010324023e-01,-1.778272839227318380e-01,1.669605515194451384e-01,-1.515023213463059515e-01,2.779715495832536520e-01,4.723083148946701781e-01,4.308317257672405476e-01,3.360709204180570286e-01,-1.878676202470164203e-01,-4.623934609947140673e-01,3.533195293900088241e-01,-4.283009841218207714e-01,-2.036093994214731306e-01,-1.894684602752480795e-01,-2.746508192055457376e-01,4.666972876103276935e-01,-1.045679773238784166e-01,-2.098702604624861356e-01,1.599398442386156804e-01,4.781005947563045644e-01,-4.787961311336134673e-01,-2.994855336243932298e-01,2.271036698431424805e-01,-3.460048501017655154e-01,-3.256304641123112242e-01,2.126863138254109498e-01,4.814254908809134093e-01,-4.576023620946116921e-01,-6.299557122566956657e-02,-4.948172259288328295e-02,-1.355735948385559941e-01,-3.068428786811200348e-01,2.437159596208120504e-01,4.310772788394331978e-01,-1.944282715711750931e-01,-3.199642085373267664e-01,-3.577659022357840835e-01,-4.473691028175106887e-01,4.825674569448006879e-01,9.550368614630769248e-02,9.696822092894497036e-02,-7.611283922739080221e-02,2.743998465725192015e-01,-1.469637337620896267e-01,4.512907102800798320e-01,5.080247639932586323e-02,-1.198924126629054149e-01,3.440230341793301116e-01,-1.625363520566825218e-02,-1.439933489772368680e-01,-9.878171396016226236e-02,-8.088271530061444392e-02,3.979975284613460618e-01,-1.106270456717531464e-01,1.686646836095416768e-01,-3.226862565891283618e-01,6.914745475641047301e-02,-2.903639157743402310e-01,-2.593974799948540189e-01,-2.874788142864307533e-02,-4.472153949326057587e-01,8.136113922388790720e-02,-3.253386138837023323e-01,3.085579213298194068e-01,1.263215662519654239e-02,3.420788022406696660e-01,7.461681329056796264e-02,-2.608740392016747345e-01,-2.211867864746397683e-01,4.287342604831181209e-02,7.485547252399624152e-02,4.606194343748802877e-01,1.500554713221545766e-01,4.582391765220603652e-01,-6.858273709198365632e-03,4.814180057408968816e-01,4.044709438001476975e-01,-2.481503945942341027e-01,-3.750899849851918044e-01,1.660653014443647657e-01,-2.323625715195643815e-01,1.139340347772092865e-01,-1.514932256508380592e-01,2.013830649803287354e-01,1.420594245910503095e-01,3.755395312437178612e-01,-1.935342408815656778e-01,-2.743148092728871501e-01,1.080449344703665743e-01,-4.462325640374348312e-01,-4.652168791722752217e-01,3.091658042451432831e-01,3.802446651517405463e-01,7.292069707186615846e-02,2.935231314044037254e-01,-2.394289548903772921e-02,2.914598303693745063e-01,-3.873186393263410854e-01,-3.853691356202803009e-01
-5.178753289991467890e-01,4.974388327632084938e-01,3.287607245664284084e-01,4.177374054008305970e-01,2.701027700827889344e-01,3.462553241169326612e-01,-2.603823120949957937e-01,-1.994614419780737502e-01,-2.036935594561617990e-01,-2.708821647243530584e-01,4.153313259627820497e-01,4.680403418611108757e-01,2.830405900527543928e-01,-2.699035081020030868e-01,-1.378319743578008127e-01,2.788777437402706338e-01,5.356720528397506120e-01,8.261114146466327912e-02,1.719006105126671402e-01,1.808800986112372444e-01,-2.016150377785484032e-02,1.145203194762779014e-02,-3.364648668473582682e-01,-3.622952895845986676e-01,1.827116704707813510e-01,-1.792305242512247654e-01,-1.282767964368478897e-01,6.685755339087239013e-03,-3.922953408825689547e-01,1.999666412509110147e-01,-2.778417206665316219e-01,1.872912952262751896e-01,-5.224230709234297526e-02,-2.858142290452829193e-01,3.715415146423041159e-01,-4.238648896118260567e-01,3.610688240695907880e-01,3.419241379612619758e-01,-4.096055216804660448e-01,3.778706783261139845e-01,-3.806349317163119639e-01,-8.249901948316491762e-02,-1.338760022392654070e-01,-4.820339182518337262e-01,-1.721805508114452876e-01,-3.794632110114488088e-01,-2.764689446080913493e-01,4.102401362252608430e-01,3.904443309161408915e-01,4.580920779062340464e-02,2.869657445063613643e-01,-2.174195382367714036e-01,1.663912741502827364e-01,1.278538686518265188e-01,7.561600263081180717e-02,2.297559484473299940e-01,-4.742380076377199216e-02,5.435379069834942456e-01,-3.443717143893175736e-01,4.520364910074974735e-02,-2.559690884356880317e-02,2.804018122724002415e-01,-2.156501821887626957e-01,5.655502112413829385e-02,-4.346937741124801136e-01,1.724630993554515657e-01,3.544001562078274437e-01,3.037268183398063037e-01,1.126922251418000787e-01,-3.026538185487193111e-01,-3.667979055003827565e-02,-2.160160293809604004e-01,-2.689315210977276105e-01,1.618889786103704098e-01,-2.266326677335951945e-01,-1.225536157711751423e-01,-5.602175315705067993e-01,1.124670841520434561e-01,-3.109614650538870539e-01,9.071709283747498437e-03,-4.049029621733620798e-01,3.794005457909158108e-01,2.280234368737468209e-01,-2.649008169571386295e-01,-3.913439285009950308e-01,3.921413215570059840e-01,3.110415810630978162e-01,-1.660925484776625549e-01,-2.237850895395245288e-01,-6.172622418507123926e-02,3.737222489358629218e-01,-2.428232766622118732e-01,-4.845389825804353179e-01,-2.069629280816636940e-01,-2.685953325188765173e-01,4.079492090032230123e-01,2.093060101724240618e-01,-2.892854687170096084e-01,2.098682538690735400e-01,3.458053321672062697e-01,-1.259141108146010213e-01,-4.156925305408264992e-01,3.544328669874539095e-01,-4.025104079908239374e-01,4.187569404734498013e-01,9.216097417481414200e-02,1.136412485944751222e-01,-1.987291514852431440e-01,4.418898313565783331e-01,2.593377386242506355e-01,3.688724012053189449e-01,-4.926070236305700734e-01,8.066411207263689612e-03,4.315349912106603014e-02,3.459431986274171811e-01,-4.126950621185547230e-01,-3.039756423455248768e-01,1.996274547210295236e-01,-4.811539802683965639e-01,-3.732981852223189734e-02
2.174916663500873538e-04,-2.394980964849416916e-01,6.711269639025175399e-03,-6.840730308570937626e-03,-3.203094978976586127e-01,3.173132012705115468e-01,-4.917578106116657355e-01,3.922098758362054238e-01,1.904192964730144072e-02,8.104476884410903581e-02,-5.208993495169117471e-01,-2.461723335361488130e-01,-2.517037503407487109e-01,-3.430268822386924321e-01,-5.315464990390655897e-02,4.996268480884485386e-01,6.874603012633629783e-04,4.737910788546815244e-01,4.512177554011810865e-01,-3.847482465159524634e-01,-7.344716195396296630e-03,-1.944969568064703891e-01,-1.525097874423758382e-01,-2.628192554455483498e-01,3.664081825302227813e-01,1.930629655304930137e-01,-2.469254551225857353e-01,-4.120547399941660305e-01,2.863233074658926847e-01,2.512543025331651636e-01,-4.484692429763254551e-01,4.907194355006467279e-01,-1.229028640833401270e-01,-6.180194824008078402e-02,2.574089026742568120e-01,4.604988143311897764e-01,4.345136972120452468e-01,-4.948160376618618295e-02,-2.651235997654350363e-01,1.975606262171645533e-01,2.517881218300612733e-01,4.714273475326947738e-01,1.164787392848037756e-01,-3.041373603822086769e-01,7.903238450736362053e-02,9.445587114385252392e-02,2.395095966292090373e-01,-4.164516610076479108e-01,-2.636146060681409109e-01,-4.543858842504754358e-01,1.637668032739087731e-01,-4.687037962214724574e-01,-3.603302780223148205e-01,2.593714516947713267e-01,-5.591821863486210603e-02,-1.677967961162585009e-01,2.692468036612654658e-01,-4.499830028778955548e-01,-2.109983914265631810e-01,-1.739617639838575147e-01,-4.451035593125557410e-01,-3.591428012665470737e-01,-4.357532214264541182e-01,-4.626387764940929903e-02,2.118745611341018090e-02,3.351387858051964597e-01,-4.493091838478363020e-01,-4.544545000141172464e-01,3.157784845334746793e-01,-2.935140698750103860e-01,1.099555613216953304e-01,2.001129313953605993e-01,1.133805501248370123e-01,5.659203602643360365e-02,1.536595574267061726e-01,2.396748731276114597e-01,-1.471165489504572821e-01,1.762559918703069661e-01,-1.989697968722309585e-01,-3.679436677989026544e-02,-3.812295410980336419e-01,9.444483996199466713e-03,2.134908628859942537e-02,-3.763910259959353799e-01,3.831580001475859976e-01,3.591161055991169415e-01,4.872879395752859333e-01,1.273596412652115706e-01,-4.492151473510919146e-01,1.143031993217912129e-01,-4.002746881630848685e-01,-4.678990402869981913e-01,-9.930163922979436120e-02,2.710732670353659390e-01,2.822842326221469689e-02,-2.080493332713625465e-01,2.437837439560738839e-01,-2.117782773288575116e-01,-1.321398031002049833e-01,9.417274581224459318e-02,9.961073484888250187e-03,5.925331706904064799e-02,-8.646910178848279949e-02,-1.740800502033316710e-01,4.529911418642333376e-01,-5.183210232122776873e-01,-3.430171156293812529e-02,3.750732693566835585e-01,4.107959863654250254e-01,3.122164728054247496e-01,1.794460441196698564e-01,3.781816231494223857e-01,-2.837896074816077530e-01,1.177345089034232822e-01,-3.722261712555994251e-01,-2.605820170571243044e-01,2.176414244986781266e-01,1.238860322308499295e-01,6.481546040253503838e-02,5.066355758492913086e-01
3.472845219192337018e-01,9.734351331958854270e-02,5.670431555303416526e-02,-3.980032104108575941e-02,5.849558396269615573e-02,-2.267911897873005900e-01,-4.212697264202437952e-01,1.563933387572535583e-01,-4.692809437181267307e-01,2.085934989728102928e-01,3.714812157665758896e-02,-7.717591921877277328e-02,-9.722054967670543113e-02,-4.176870755025453852e-02,4.268377828162003285e-01,-7.997920591275743674e-02,4.244658058038252024e-01,-4.394131763490317227e-02,5.201020185884389774e-02,-2.882632024978078467e-01,6.348068951012358907e-02,4.110645511522063589e-01,-1.973527633994941188e-01,3.532890394504823450e-01,-2.660847377970309569e-01,-1.541138844293873655e-01,3.786091646955670048e-02,2.347545736432527230e-01,-1.660407767038322158e-01,-4.322137193626779395e-01,1.732593977842742661e-01,-1.759888061746890942e-01,5.051784874981907203e-01,-4.526291719972838634e-01,-5.691775547152931602e-02,-4.464727827342160338e-02,-8.571969788284164449e-02,-1.872579735881369292e-02,-3.556603066819145464e-03,-2.783413011990718000e-01,3.620865192286623069e-01,-1.025375940972395178e-01,-2.483601991386654995e-01,-4.674527835472741533e-01,4.021182837194424708e-01,2.569520651535085465e-01,-4.426310717575033804e-01,4.831977501711749445e-01,4.672119392457756981e-01,1.787803322508574322e-01,-3.264164128867929615e-01,3.189053937976112363e-01,1.389202224238010874e-01,-3.666002458975128886e-01,-3.213207549025219323e-01,-3.857213964102358672e-02,2.096287419045454736e-02,-3.136844483564782959e-01,-2.665374743655099521e-01,4.755853501247356285e-01,3.282808067921418327e-01,-9.176697630962804553e-02,-3.979062833714043790e-01,9.611829403843792641e-02,-4.605537016137589701e-01,-2.779652379691386344e-01,1.855839735060828832e-01,-2.191880939938843642e-01,9.824329923834131117e-02,-3.675459084999531112e-01,-2.897342455416586637e-01,-2.094974650177040265e-01,-2.243540645046186166e-01,-1.596695112139721040e-01,-3.057537972973309870e-01,-3.701162970672670638e-01,2.727267490430638208e-01,3.044707763186106919e-01,3.060694437998265904e-01,1.425617912694242817e-01,-1.732595063184701745e-01,-3.425184636649900582e-01,7.423880966609840149e-02,4.758107406149124641e-01,4.425788873096220821e-01,-2.854268337344185169e-01,1.341921046737577783e-01,-2.312259866114947660e-01,2.758121012531776772e-01,-3.557022095320879762e-01,-4.533130094648653990e-02,1.477697962291778765e-02,1.563198845388320546e-01,1.932969411461163411e-01,3.634613235615601345e-01,-2.391316643341893644e-01,-4.761200235656459778e-01,-2.544952506585947127e-02,9.236745222174631842e-02,1.369784074351906022e-01,-3.601065279920987461e-01,1.616499414848552030e-01,-8.390904401500241805e-02,1.786103219791277015e-03,3.801601840326241932e-01,2.013426895642818071e-01,1.170672281742774490e-01,7.155203295858157675e-02,7.272337846834997510e-02,-3.898508544743891080e-01,4.307800991034217014e-02,-3.807445130245006304e-01,3.625143666980072954e-01,-3.690587966984308355e-01,-1.485537862585249169e-01,2.836697564223603640e-01,-1.401852121411687191e-01,4.873360303884518019e-01,-4.671956588302700331e-01,4.569449138797490040e-01
-1.874739582722171824e-02,-2.603779090587006184e-01,3.628901299320194118e-01,-1.495116483229557147e-01,-2.567882287296394117e-01,-1.542249704600104267e-03,-2.181307008542236747e-01,2.447298357518634393e-01,1.849915894159931684e-01,4.458299802305808468e-01,-2.770769430587422533e-01,-3.601542309133732855e-01,3.890220566472120112e-01,4.192619819053167163e-01,-2.728368580846803060e-02,-3.321100909775060450e-01,5.983134186852574754e-02,-1.973909108199261575e-01,-1.368104334181884651e-01,4.222619590319698357e-01,3.132039583945145922e-01,-3.973424619832266469e-01,-3.796060424213156259e-01,-2.859996930128284598e-01,3.202641289621933063e-01,4.742410820182315634e-01,1.439233663195198520e-01,-8.111280385082252076e-02,-2.922069995482346610e-02,-1.423657491432407385e-01,-4.349062935918691086e-01,2.873096881831134208e-01,-2.364194050749005571e-01,8.966188264490229654e-02,-7.674956645334728503e-03,4.280273488589155795e-01,3.189003400853337999e-01,2.064744630656472069e-01,3.906079518558789460e-03,2.791882725560914658e-01,-1.746478602828439586e-01,2.513034235160560015e-01,4.648072143129213241e-01,-2.782401754560801521e-01,1.658577583754265467e-03,1.678387502031765399e-01,2.944309488362865102e-01,-4.028426401196776308e-01,-3.551237275392342685e-01,7.246098829325879620e-02,9.740858935814789010e-02,-4.501911739996406481e-01,1.886305714848901527e-01,2.464488989023052024e-01,-1.185764547270412236e-02,5.070418207842757319e-01,-1.470284686791213380e-01,-1.247344087195105533e-01,4.808874759144822764e-01,-3.047630181245628567e-01,-4.447466474159209038e-01,-2.753564181961357105e-01,1.278399456672972834e-01,4.970766954022761142e-01,3.521875581549802625e-01,-2.641285174930859680e-01,-4.790630433157080370e-01,-2.628085125624475549e-02,2.745070876669061799e-01,-4.664665702590015117e-01,-3.305947337464060221e-01,3.266463264137758338e-01,-4.896493840386932361e-01,-4.849904027073370094e-01,5.899366033406677756e-02,-6.572858818073032405e-02,1.059495172268522661e-01,1.769926889806514581e-01,-2.790105672702413164e-01,-3.272910964969741876e-01,-1.966228622258623937e-01,1.564038618218148782e-02,4.593547730319623712e-01,5.665898571285522822e-02,1.183968921752787118e-01,1.078133672343560140e-01,4.362710643128267507e-02,-1.418526147177610608e-01,-4.021349317495492293e-01,2.169011277539921456e-02,5.185402659311318802e-02,-1.641968166681770369e-01,4.028165954243731472e-01,-6.654976848852350857e-02,3.511351939147835943e-01,-2.701056409894873611e-01,-1.242636738135217828e-01,-2.863210555719766792e-01,1.855605631866086569e-01,8.869472221258977926e-03,3.964879165278298312e-01,1.896384808993429316e-01,-4.039161795793219101e-01,-2.041505658790946920e-01,4.788183925075877867e-01,-2.325097338569100947e-01,3.591120947870780067e-01,-1.621659750115242160e-01,2.562012329611852990e-01,-4.548262589650238774e-01,-2.358923628579537024e-01,-1.240863326974466774e-01,-2.137485043588517042e-01,-5.264228689060563848e-01,-3.167659311736798489e-01,-1.463409966286321751e-01,-9.171693019883821185e-02,8.911583957917487697e-02,4.952254578432054855e-01,-1.679380170264279382e-01
2.220167036445803710e-01,-1.921484015853190674e-01,-2.670060280719805945e-01,-2.269230769508601975e-01,-1.297184573444123135e-01,-5.317163763342560578e-01,-1.481715011891520106e-01,5.074071559295572076e-01,-2.877659251343612778e-01,-3.967134715361875785e-01,2.089743138549202128e-01,2.930164454226662565e-02,4.130205348911727414e-01,1.357519000578220891e-01,4.448394281143183138e-01,-9.241617547953941136e-02,2.246099429184234553e-01,-4.792151399750025909e-01,-2.865243231918717659e-01,3.014613245970858557e-01,4.590012104432911189e-01,3.779165122723268100e-01,-3.431025156845805002e-01,4.162814948421993955e-01,-1.502207462587948350e-01,2.833587275752714740e-01,2.560826961894957510e-02,-4.280421291684939344e-01,3.369475592108213680e-01,3.202988008142423904e-02,1.525747408854410958e-02,5.463971621424697916e-02,1.447041782878369098e-01,-4.472291944099471284e-01,-1.867996708761471281e-01,-1.158571429189732410e-01,-4.160015504166713063e-01,2.796567739775623340e-01,1.465207794821870579e-01,1.662578868596291393e-01,-1.338286232541821552e-01,4.612206351261022297e-01,1.036525227179387054e-01,3.195139435548207119e-01,2.449698177910506758e-01,-2.736352372164431723e-01,-3.949217637729867114e-01,-3.931631447318900130e-01,-2.863957787156247714e-01,-1.384276708632428965e-01,-1.293234417228655286e-01,-8.404972979754708751e-02,4.048288280028949915e-01,-9.337209412669640607e-02,-2.768576820070219879e-01,1.062292141488376945e-01,1.017286520966802776e-01,-1.511874378527812424e-02,9.096855172941843704e-02,-3.078571698121009836e-01,-3.601708398620211971e-01,2.492500000749502675e-01,-2.815113969580260167e-01,1.770766586165653245e-01,-8.505455573365418298e-02,-2.673882545663220922e-01,-6.109860791291851778e-02,-4.279395032263886289e-01,-2.822870256190607163e-01,-5.018097240495517086e-01,7.700201431829460652e-02,5.181836418492958840e-01,-4.266015169109150795e-01,2.897291258430584882e-01,-1.004544987697777170e-01,-1.155454357921451569e-01,-3.658309873881552265e-01,-9.909843840537084503e-02,1.851064883170886466e-01,-4.542512789165150111e-01,2.343449687407335447e-01,1.360478676251690999e-01,4.763467661469597547e-01,-2.143103594869346651e-01,-4.783260629568281685e-01,1.486265117432182536e-02,3.970938147625120984e-01,4.404545563602272340e-01,-2.157089020841222726e-01,-5.298522066815023468e-01,2.264100401950961405e-01,1.749554502248838184e-01,-2.008231055070719140e-01,-4.646571375679349192e-01,4.637942021243016688e-01,3.468431297867866636e-01,3.039174459315128751e-01,1.958001637835103947e-01,2.396822993717626915e-01,1.919253371636097383e-01,-4.889616293781458567e-01,4.579025070075122827e-01,2.055139931814059517e-01,-1.559114900107622104e-01,-4.202187691426630817e-02,1.471082308204365585e-01,1.573901253045781323e-01,-4.759244912928208282e-01,-4.334266927959885551e-01,3.799035929793703747e-01,-9.755947543834425639e-02,3.764761533139563965e-01,1.024633926713831439e-01,3.714215683299033066e-01,-4.620258221689796385e-01,1.044263412444208644e-01,-4.796867020366267220e-01,-2.398078677494077660e-01,-2.123210569956776247e-02,-3.315748389516008365e-01
-1.967314503559354222e-01,-2.527317226968939790e-01,2.288526376835579856e-01,-3.013676086020627420e-01,-2.137307723995334474e-01,-4.193400128404700666e-02,-1.691168825958112298e-01,-3.044660665096495800e-01,-1.689037424773287832e-01,-3.404375180273398471e-01,2.061992232161150365e-02,4.733645942753376967e-02,1.588299725045588806e-01,-2.325168773410710432e-01,-4.944526228148799496e-01,-3.275507715333406122e-01,2.770918428733546990e-01,4.747013315288103885e-01,-2.719653607181650168e-01,-3.327114735561173542e-01,1.969790388688291427e-01,1.199274821137114727e-01,3.144842150499668754e-01,2.783440636753182207e-01,2.644499644333168642e-01,-1.031891506909338174e-01,-4.511806418094784776e-01,-1.589173080387606407e-01,-4.391109356382430495e-01,-1.667218399696999975e-01,7.192502833989524932e-03,-1.612398927657792136e-01,2.609860309040023529e-01,-4.493839111199212089e-01,-4.304165100278796174e-01,1.315369697196497878e-01,-4.083987973466723376e-01,-2.155732106584103691e-01,1.962098509356931531e-01,3.456532997632488780e-01,3.135528618783280375e-01,-2.694171370766945128e-01,-1.406564099515624222e-01,3.045169305450173280e-01,-1.905325617662157189e-01,4.927735141240768141e-02,-3.312851224428579044e-01,-3.850008456083331976e-01,-3.881703308661362817e-01,-2.597074554656375600e-01,4.917507270180126455e-01,2.000338097347732422e-02,1.882694401789268279e-01,2.603478886080345389e-01,-2.346857569415275180e-01,-2.443681699099874982e-01,2.540083887036298504e-01,-3.144099117204955940e-01,-4.698706844371212665e-01,6.687114100483734259e-03,-1.906478827077058014e-01,-1.976014837952754510e-01,-2.659985388347445578e-01,-4.145619429021037972e-01,-3.283920718413404494e-01,-3.256569188298999995e-01,3.985183550455712043e-02,4.463589385553535793e-01,-2.946039654737307445e-01,-2.657106935342695708e-01,9.951640269366919533e-02,7.990834235330100677e-02,-4.412959071935954047e-02,-4.092456479818734061e-01,1.987479507502633858e-01,3.585860838831430031e-01,-1.759505890589563581e-01,2.761610680561401576e-01,1.321033376746565402e-01,-2.622528420597249887e-01,-5.526455678558896134e-02,-4.227474907341279287e-01,3.326795060589674002e-01,1.364201103844159269e-01,3.901666724365005501e-01,4.301426936671114976e-01,-4.156287958150735040e-01,2.855308015678787933e-02,-3.388235093902696587e-02,-2.103015290694296990e-01,1.534335027677042884e-01,-1.228255653026680411e-01,-3.360186005586649483e-01,-2.200896039733917509e-01,-3.839840139971253952e-01,1.283884254627960797e-01,5.024341436672244976e-01,-1.236053803153370212e-01,-1.579232477849302763e-01,3.870187434883509137e-01,2.160124508423127698e-01,-1.266161024130181001e-01,-1.651169284768072912e-03,-3.938843539499900515e-01,-2.890569430577735188e-01,-2.299308180477693808e-01,-3.715735312444801847e-02,2.719308674735796405e-01,2.160541780674647000e-02,4.721202167293528928e-01,3.681602612300599597e-01,1.285348899880143225e-01,6.951226959074265077e-02,4.200636187608985939e-01,-4.575606097620807389e-01,-1.246374366455268445e-01,3.282822134521906632e-01,-5.099428865875641481e-01,9.386595981310953685e-03,3.715324499848353113e-01
-4.371476067861437276e-01,-1.829242834059505995e-01,2.583924536983707443e-02,1.215300752575878135e-01,4.468930583106159315e-02,-3.977976869354106770e-01,4.754282363065209238e-01,-1.717198440235759849e-01,4.035876979274597987e-01,-1.229743347656171194e-02,2.465048618462926944e-01,4.545194034410725004e-01,-4.445266178974839333e-01,-9.212469462840086609e-02,-2.177810612663954870e-01,-4.596499663524522550e-01,4.508995873170346114e-02,-2.786250682929000688e-01,-4.727555435763654001e-01,1.877595291277495484e-02,4.459992625413422007e-01,1.517559990765937616e-01,1.730519243731898082e-01,4.574674149188051042e-01,1.081276730369380712e-01,3.254025432039570065e-01,-4.614010293507037064e-01,3.059415786488787203e-01,1.911372314189095645e-01,-8.025789959660031836e-02,2.342924129095520780e-01,-4.097171270134016829e-01,-2.053503961001848788e-01,1.328308624530275261e-01,1.710529285763449370e-01,4.585998049984748443e-02,-9.503253969501967990e-02,4.351888502823466065e-01,-3.327284256441823684e-01,-3.348109665276091662e-01,-1.938122285514531570e-02,-4.558498810136165647e-01,3.540866573148019891e-01,-2.485897517234070611e-02,-3.104309508324906708e-01,-3.580835745659526337e-01,-3.054078230799576188e-01,-4.342184367842117365e-01,1.737254432317210939e-01,-2.606028153214512422e-01,-5.175778654468501383e-01,-8.981216637677548464e-02,-3.898867190497311008e-01,4.911173390211679562e-02,-5.092566904309359099e-01,-1.124495613198398247e-01,-1.477947024960056255e-01,-1.246336685280127615e-01,1.677232802947922485e-01,1.597619121409566134e-01,2.741364511143946636e-01,-2.396564191174118397e-01,-2.803917764237160992e-01,3.820567830903989770e-01,1.316631799303168843e-02,-3.193788588845057341e-01,-5.023858002293571379e-02,-3.388802144718183751e-01,4.972883880803083967e-01,2.243164411684439308e-01,1.864480998076159524e-01,4.645406294617774323e-01,4.630899280266340678e-01,-4.150965879788116042e-01,7.885242874425442416e-02,-4.412507793250880495e-02,-5.554544772665322844e-02,4.252016219701417188e-01,-1.338343577746139157e-01,4.760304958512274198e-01,3.663482617062145397e-01,1.812549246680214277e-01,4.046106291120201565e-02,3.111578535246430910e-01,-9.462937010635519286e-02,-3.510631138504078375e-01,-2.022566964754400065e-01,2.108390250035479252e-01,-2.342726512565400099e-01,6.744502597594309590e-02,-1.248181394832268976e-01,-2.859169080257359385e-01,-3.834635749126497628e-01,-1.049292246163573555e-01,3.751489165328733555e-01,1.803142196339783121e-01,-3.740914286162614344e-01,3.403937744699555568e-01,-4.833658008236194625e-01,-1.029705665067231907e-01,1.276394423405393941e-01,4.361147589157721161e-01,3.916985497953681672e-01,2.093511797563898102e-01,-2.548840310613081916e-01,-4.328176695426337872e-01,2.989839116860195101e-01,-1.220061111611425581e-01,1.593690142731948312e-01,1.747688822084960403e-01,-5.042952955937427539e-01,-5.165498105809067375e-02,-1.296502243140859878e-01,4.912661158868806832e-01,1.867685624370243533e-02,4.449089452231170805e-01,-1.716936534580019713e-01,4.955812393319647402e-01,-1.093785683147214527e-01,-9.037768232727855233e-02
1.841064489772342716e-01,3.034740640871498862e-01,-2.003239994550946312e-01,1.186549564964421571e-01,2.892506376670547774e-02,2.621730575942883834e-01,3.973000061079496326e-01,-4.061316807932996431e-02,2.903468508894226779e-02,-1.339707523933447442e-01,-3.471899599653352486e-01,-4.814084941991099709e-01,5.160870181520108707e-02,1.527398528177957848e-01,-4.487286956411384309e-01,4.791085306822287504e-01,4.348677267076005992e-01,-6.752188151095110669e-02,-1.404678659135251417e-01,2.719599942813972770e-01,8.999086407225562190e-02,4.493996235428825425e-01,3.121557912297580617e-01,3.738533082871818847e-01,3.854596094681272955e-01,-3.861186548849788736e-01,3.856466534965468651e-01,2.398994543998346496e-01,-1.500828806903166668e-01,4.428201162737713803e-01,-4.054776224027752118e-02,-1.628442090788665975e-01,4.033077121282666599e-01,-4.144064365142513529e-01,4.279397477053839549e-01,4.016711787463114747e-01,5.205946816921965675e-02,4.240440886344205018e-01,-8.483752144701468823e-02,-4.310710034650810929e-01,-1.202287075957750523e-03,1.068110762045787060e-01,3.638603122771869591e-01,-4.086719360417069291e-01,3.316177097913521332e-01,3.355550558970816222e-01,-1.588794626235607577e-01,-4.359515543992634745e-01,2.622799126397852287e-01,3.109940088853999085e-01,3.734325681461895252e-01,6.231098957410017430e-02,-1.060681170056492484e-01,-2.534041727827433532e-01,1.037991645433750248e-01,-1.383432882215081261e-01,-2.966809721234576203e-01,3.516909066438611009e-01,-3.625368561306334669e-01,-1.335356240150341045e-01,-3.124074591597682526e-01,-3.858672698641435472e-01,-3.179678500320788914e-01,3.030464006736838245e-01,-3.247712591730718690e-01,5.365341895141587658e-01,4.412588787616190666e-01,-6.394308707025465888e-02,4.358630404778419676e-01,-4.505402342707927610e-01,-1.972295989119422222e-01,-1.482987001584949172e-01,-1.603737940794961458e-01,-3.097674048535830615e-01,4.669251838139313326e-01,-2.814672114782586498e-01,-8.583799753579744729e-02,-1.506942127199828174e-01,-4.327613075772230311e-01,2.987447749839894917e-01,2.341003672617675280e-01,2.359049794073933906e-02,-2.772141471586207079e-02,4.752716957659220975e-01,2.262204472182036685e-01,-2.839076637239391632e-01,-5.248275508127283606e-01,-1.042702671581705459e-01,2.625514470614837559e-01,-1.115744822998041182e-02,3.618532318317593810e-02,-3.415241493434004738e-01,-1.387079503150340232e-02,2.939409322347524833e-01,4.865319179542981209e-01,4.710876882645582686e-01,-2.115610692477964683e-01,1.508091595762461878e-01,4.188104611954223538e-02,-3.845956902894666074e-01,4.257686015361549225e-01,-3.141120076223173907e-01,-1.809413102143944962e-01,4.358645146537400983e-01,-1.136774769431887627e-01,-1.448843933006961349e-01,-1.205187556573018848e-02,-2.941870992045398925e-01,4.524224714778706802e-01,-4.032867490633773033e-01,3.964549236638967300e-01,-3.550878713452086666e-02,-1.418575073401687481e-01,-2.841536141329025766e-01,6.135073879952465670e-02,2.206654356568474862e-01,1.601015878037826967e-01,-1.604370072944410197e-01,1.249992429737433689e-03,4.762634123098294925e-01
2.002292280956114723e-01,-1.425669710904196030e-01,-1.852567772553835312e-01,1.191685992711929709e-01,2.957442177132793004e-01,-6.646216537702152871e-02,1.861384203105489674e-02,2.272721890206577389e-01,-2.770646735431472329e-01,3.610850794937927044e-01,-2.504865789359794759e-01,1.085003516261204420e-01,9.927450554608933941e-02,-7.980978959083506741e-02,1.457130182631961313e-01,1.347128109442232748e-02,3.573871558005181637e-01,-3.406437962696852728e-01,-3.746119467284980131e-01,1.956716270305092487e-01,1.415423266035847616e-01,5.064393900443751040e-01,3.076977788405026448e-01,-4.439658169405615307e-01,-4.116921842897388606e-01,2.958328222147480480e-01,-4.445720472244029664e-01,2.573106433170090357e-01,-1.967040597521314826e-01,-1.216107435866499165e-01,7.343306851036165983e-02,-1.196341964325987883e-01,4.014228172463061850e-01,3.455912182980621083e-01,-2.042609486951609266e-01,4.170649746412842807e-01,2.074143863327494175e-01,-6.929765390209902121e-02,7.841796279879820197e-02,-4.508686555046142463e-01,-4.533591527574379332e-01,2.496307321168199089e-01,-1.396331188655608457e-01,-2.973128926786828760e-02,-2.694848961889358963e-01,3.475975101457489114e-01,1.750439946932986351e-02,5.183378558097211097e-02,-4.377270240212430830e-01,-1.135617434853514358e-02,1.969363762550982999e-01,-2.247041346302217912e-01,-1.974121429554922813e-01,3.253329516102028141e-01,-4.853077018577256485e-01,-6.504085119637710924e-03,-1.449652366080164401e-01,-3.445474868809617619e-01,-3.996393060883016157e-01,3.528064866607484307e-01,-2.097252660449902550e-01,4.223960452270085209e-01,2.832461274527951073e-02,-4.803757601544978995e-01,-3.721297430743185641e-01,-2.058006900859698785e-01,7.623548337816773990e-02,-2.747560360707092530e-01,3.428637026405689237e-01,-3.726070327810832028e-01,2.753982556082716360e-01,3.369687373485300008e-01,-4.871836290778898126e-01,-3.097832530812519303e-01,-4.874340540382874482e-02,4.290333189123375912e-01,-6.315663233614328409e-02,2.329336844623220229e-02,-1.830716698902747075e-01,4.228940081662853068e-01,-4.004692741438553027e-01,2.813622636617235107e-01,2.215219799562672121e-01,-2.999038453014281624e-01,-2.437815861169439768e-01,-2.144457834274261510e-01,1.582458558069234078e-01,-2.827601570243227225e-01,9.444501619838817363e-02,-3.367737490984621940e-01,-3.601647283841251101e-01,-4.779742450006991272e-01,9.424768289701787594e-02,4.741963534642085754e-01,1.459329837118331363e-01,-2.901964245452197666e-01,-4.310953105653852480e-01,-8.415952529587993058e-02,3.390413277781485490e-01,4.428795700388956508e-02,-4.795003320724389173e-01,-3.802984336496533224e-01,2.644114585960197772e-01,4.303903387501689104e-01,3.146460625492246144e-01,-2.867551078518560392e-01,4.503433978244427149e-01,4.053724468632194378e-01,3.218531944256914912e-01,-5.996018232813095719e-03,3.545136490505078064e-01,7.290410965402789600e-02,-3.954721071966537660e-01,-3.078120693153928999e-01,-2.299252602674946855e-01,-2.584056354074721895e-01,-2.901609516408233322e-02,-2.835688229687083339e-02,-2.825271773844477696e-01,2.269841298955328490e-01
-1.755835620810484998e-02,4.340039317186357715e-01,3.021734609596442578e-01,-2.391691126360359076e-01,-2.599499099740935071e-01,-5.904519655637393422e-02,-1.512793640052178257e-01,2.661299479133097390e-01,1.391262196854607391e-01,-4.463994935682036314e-01,2.199392090219157714e-01,-3.337139916699781161e-01,-5.157512037782152614e-01,-1.707020611483458239e-01,-3.570254957994405953e-01,-1.783102530617895198e-01,7.348948137184281582e-02,3.625542288928553236e-01,-1.724437082969539625e-01,-1.030340538706631393e-01,1.799306407565883226e-01,3.681561282876468222e-01,-3.590351362393638945e-01,8.379513665368069908e-02,-5.479456350956683590e-03,2.978336063172732067e-03,2.816903926820903403e-01,7.791437157264237412e-02,4.436326146685964922e-01,3.846516742290838065e-01,-2.732079005616585565e-01,3.516045419431726993e-01,1.019113351708203913e-01,-4.839093933083699617e-01,2.185954540748377140e-01,2.729701933936731773e-01,-2.079916378952581246e-01,1.940001350157377347e-01,-3.129316912198830125e-01,1.330883925286731884e-01,1.321451738330685632e-01,2.353239203837718951e-02,1.495432243692491059e-01,1.072975772192947541e-01,1.150548766621715124e-01,-4.227962301629502040e-01,-4.796467961302037369e-02,-4.077132018527567237e-01,3.005296791199697434e-02,1.247513616264045860e-01,2.642111430786714746e-02,1.929114520246780484e-01,2.382571412758919538e-01,1.521766073853355605e-01,2.785040545947031765e-01,5.332968686002437925e-02,1.709520075851072088e-02,-3.643995542285869971e-01,2.130867189013212551e-02,4.007242696694610640e-01,-5.286520833321520785e-01,5.030754672352411028e-01,2.124444520554353844e-01,-3.429117941565370531e-01,-4.930593164809813911e-01,2.273919560688342500e-01,1.150162357307692451e-01,-2.018472051337869000e-01,-1.964518001335406605e-01,-4.061659772762998277e-01,-4.556406504166228832e-01,-4.972625248637257966e-01,-1.995232064438590969e-01,-2.341450524316167348e-01,4.563060262923522570e-02,-2.289585611941443166e-01,1.282770478482407606e-01,4.414954053743710971e-02,3.731236897702981947e-01,-1.935807733697154920e-01,3.421977565708808067e-01,1.530290309285555483e-01,-3.495869451071764722e-02,-2.711090714176697114e-01,-1.875292284256643294e-01,-1.059887348372419089e-02,5.503548497123850192e-02,1.137587299146638337e-01,1.240436828174356770e-01,-8.890869004481062599e-02,-2.096981122732263225e-01,4.800549126574165104e-01,-8.547744330693884951e-02,1.946251776328629390e-01,4.562173268875930887e-01,5.020943604921825898e-01,-2.234884031665129722e-01,-3.282881144310932919e-01,2.708819890248175266e-01,-4.865656538577794454e-01,3.869587735666911166e-01,-3.386063753878003624e-01,-4.390028794323794226e-01,-3.009729658276498743e-01,2.949466946534931577e-02,2.262047161420306998e-02,-2.249946029424607086e-01,4.866890511531061780e-01,-3.801377334503435179e-01,5.977045642516522206e-02,-1.671708585435001948e-01,3.690706802938560349e-01,-1.520316617427852901e-01,-2.916355881539826056e-01,-3.328508058634359612e-01,4.049117222077199818e-01,-2.151158271551473489e-01,1.471012875491523875e-01,3.025842810956475004e-01,-1.897263436580698404e-01
-3.280601698365906982e-01,-1.815758484828117469e-01,3.271504507494228942e-01,-2.376744963092217999e-01,5.044614363561192860e-01,1.561740750287515800e-01,1.017303625585504606e-01,4.088981791700964097e-01,3.560320266241324139e-01,1.256046133935720226e-02,-3.143972117970585956e-01,-2.327113821662927240e-01,-2.012475192489595888e-01,3.094645943090982426e-02,1.434359960978292547e-01,3.495528408707953560e-01,-3.955627155595299871e-01,9.866234997044659449e-02,-5.098551153418056509e-02,2.418272550601614501e-01,2.706621438449508532e-01,-4.125786587802319771e-01,-4.838082599339265100e-01,-3.009624397023791809e-01,-5.027570404942878213e-01,3.147244938253722646e-01,4.817380200252871503e-01,-5.648741847376997222e-02,4.359125528419998119e-01,-2.615047378406848422e-01,7.682679800489557176e-02,-3.397803019091364951e-01,4.685368609412502994e-01,1.624677113492479508e-01,1.262964568627951423e-01,-3.619999698201478155e-01,2.667292792330687168e-01,-7.325085366019738753e-02,-2.688334246212801745e-02,-1.776503418250013622e-01,-1.847918717181213089e-01,4.228607179076993017e-01,3.592351867154518208e-02,3.273539667334406933e-01,-3.253981208067150410e-01,4.025985034541804120e-01,-3.402151540873251667e-01,2.772799531354578351e-01,2.293169333084961736e-01,-2.054511728261920744e-01,-1.637170350210305492e-01,2.395590899657145181e-02,-1.772660778970107931e-01,-5.018732728820082256e-01,2.214277001984946425e-01,-6.747444666538296443e-02,-3.626927346930721718e-01,-1.169261756619876247e-01,-6.814942778340385421e-02,2.791524994778198376e-01,-3.099784192831224749e-01,-1.756914440155567803e-01,7.111675024801023676e-03,4.745608619845954057e-01,-3.061367907486087780e-01,-1.239785863958133144e-01,3.413105917562050950e-01,-4.454812413225001655e-01,7.763482704099634868e-02,1.860916099722139672e-01,3.583713399305303304e-01,3.332813407681298190e-01,-3.920137918364938745e-01,-6.447537109229918573e-02,-1.141394752179182431e-01,4.005848919692864829e-01,-9.726010455025477230e-02,2.567453179985205725e-01,-4.926637571446385588e-01,4.811517339462123011e-01,-3.804176778688458938e-01,-3.962220983225900328e-02,-1.639246217784657844e-01,7.260110094909143219e-02,3.645688617778878315e-01,-2.999953996237540998e-01,-4.220268452040855101e-01,-9.034159068452843333e-02,-2.564557817977189957e-01,7.574512666702998276e-02,1.357956969123456092e-01,-2.000344616479343973e-01,-2.301225592861198821e-01,7.880154616295430292e-02,3.163089142017269650e-01,1.692486322254069253e-01,-4.018298475011851667e-01,3.021373326940750004e-01,3.262690793466187511e-01,1.804421640757845058e-01,-4.944296538972784982e-01,-9.313558909288965904e-02,-4.233268261385531583e-01,4.900213518593949935e-01,-3.481356131314483626e-01,-2.859471560029745452e-01,-6.847638823164869937e-02,-1.559355018115504143e-01,-4.736709216837562963e-01,6.968019056249318000e-02,-1.568500200976924164e-01,-3.012787531690623299e-01,-4.212192957772518676e-01,-2.681408252597879405e-01,2.926798034861115005e-01,1.157297794197219287e-01,-1.273011947175148872e-01,2.043159520046144983e-02,8.763830423887741805e-02,-1.792634080942322738e-01
1.887275459280276513e-01,-1.001413881537258493e-01,-9.780410772382888696e-02,-1.643548292833832136e-01,-4.776974005592100614e-01,-2.742853724535951887e-01,-1.167925710083566188e-01,2.943332715322011239e-01,-2.511806118191088275e-02,-3.892148604731970885e-01,2.350088907843647934e-01,3.153109489093146034e-01,1.010808899046092280e-01,-2.101048685398209381e-01,2.854842319752883342e-02,-4.516970422873503588e-01,2.612294763981696244e-01,2.451961206184732345e-01,-7.886968297215438128e-02,4.941185097905225199e-01,4.281686014810840990e-01,4.984499558356326188e-01,7.759171249247917047e-03,1.927413852351154630e-02,-4.126402440939301863e-01,4.141074182397724290e-01,-2.301263038649216663e-01,4.988627589408031193e-01,-6.532873733700925167e-02,-5.102967282262494547e-02,-3.778179195504234866e-01,-3.213030657453938010e-01,-2.168796612932347156e-02,2.750649774976180462e-01,-3.590533200206230680e-01,-2.433434261817919719e-01,-6.395582395331532444e-02,1.665614213901137064e-01,1.692417870409005376e-01,-4.760044438027804525e-01,-1.994488638601691621e-01,-2.649187982815818243e-01,-4.004464175813977067e-01,2.434525597788496920e-01,-3.082866634457724717e-03,2.306796094980812506e-01,-2.245641585047700173e-01,-4.101905682095358663e-01,2.279393406338837413e-01,-4.208201396421680784e-01,9.228436643817733431e-02,2.504762317527938209e-01,-6.065031762436123852e-02,-2.918168497827603458e-01,-2.549529255920455206e-01,7.123170065528637920e-03,1.386184581047492648e-01,-4.938175456724003820e-01,1.531216695038512508e-02,3.328848822078602776e-01,-1.706258679840580161e-01,-2.331567244951942564e-01,-4.856135993105920590e-01,1.156859807980189780e-01,1.425956203447989804e-02,1.482893126947378015e-02,1.078947906007043794e-01,5.055742157874069109e-01,-3.825627405666654490e-01,1.100261455100701308e-01,2.443188871278418606e-01,3.492819127718748695e-01,-2.977615499223494333e-01,1.214329271148354567e-01,1.674602775751464767e-01,2.454577879737123922e-02,-4.216441593203171800e-01,-4.561447597721507430e-01,-3.947001857026963267e-01,4.086744082018131108e-01,2.619211943629068395e-01,-1.089318996349249724e-01,-2.061364973038883885e-01,-3.919438635084364353e-02,-3.198772857670257319e-01,-3.718330884796119951e-01,5.832314262459287885e-02,-3.018856015116406777e-01,2.673253478043485787e-01,-6.710134110311499755e-02,3.885554546678571808e-01,-2.329415173677648609e-01,4.967262124903955578e-01,3.059630742277583138e-01,-1.751274941681027486e-01,2.114383592590916294e-01,-2.156530171107344518e-01,-3.908634097596029311e-01,1.372574854876952022e-01,1.411557788578161055e-01,3.873353637236001679e-02,-6.434058028277446495e-02,4.498680354087801203e-01,-2.882464655028256217e-01,4.057323180659595518e-01,1.177262462865726195e-01,2.168455445512021684e-01,3.834757122400314078e-01,-2.616549558060152214e-01,-2.846774447609528580e-01,-4.292193948125773706e-01,-4.828392343046906676e-01,4.125902148281417881e-01,-2.649432129232776600e-01,1.637331371279309722e-01,-1.426097858480842306e-01,3.274624774648112191e-01,-3.603564420851519401e-01,3.648804948567686141e-02,4.015118077969591637e-01
-3.388232463924241156e-01,4.183686738713935926e-01,-1.602722808464661919e-01,-4.823958794974882863e-02,6.117239327893046058e-02,1.501455988454091228e-01,2.908872712138516059e-01,7.860778065810218596e-02,-3.772455703641051650e-01,-3.181062156915516748e-01,2.672803599431324284e-01,-2.732923913608862332e-01,-2.266108854939113681e-01,-3.771093056719023728e-01,-4.134812146743834793e-01,-3.318237337639758366e-01,4.218685778958294885e-01,-5.197383853086366967e-01,4.040621460685926425e-01,-6.891985316383993088e-02,-7.374740090229806554e-03,6.611969291824104644e-02,-2.963855578467903817e-01,-2.801659403364054057e-01,-2.598751901432280187e-01,-3.081272266929361847e-01,4.123282220316850655e-01,-4.896290314493227380e-01,3.851895274594413499e-01,1.018091605145930306e-01,-2.895546338737002290e-01,-2.832049955960000420e-01,1.242392791897867499e-01,-3.737154102791709342e-01,-8.663552756605584493e-02,-4.259846735537431983e-01,-4.133152442965746798e-01,6.643852989178852808e-02,5.172633411095550748e-01,-2.854099961615187420e-01,-5.009449442853471934e-01,-8.810975478390201121e-02,2.067925055379181420e-01,-6.958169906286004736e-02,2.056612622920322431e-01,-1.263448272215031143e-01,3.801891029600717453e-01,-2.780106160288192685e-01,-2.839305850477789606e-01,4.454026923730646237e-01,8.791742277650467507e-02,4.360903398300877143e-01,2.198606669029201308e-02,-2.186867914026343895e-01,-4.169571103310011906e-01,-5.229327107875685575e-03,-4.064222872129237829e-01,-3.682164431109355984e-01,-3.926794012124721345e-01,7.468546265772323112e-02,2.199220959269293507e-01,-5.795702855157835315e-02,8.228904893765442985e-02,5.873612388335729823e-02,5.330511763036888118e-01,4.972621564153930085e-01,-4.336328263036107189e-02,-4.377787694547755626e-01,-2.556201199179893857e-01,2.069944568947020280e-01,9.755552563911647213e-02,1.203107551506739370e-01,-1.059989346697164658e-01,-5.385585202502841673e-01,2.904605032584745561e-01,1.962255988902903425e-01,-3.091265460467217951e-01,-1.384064133160936849e-01,2.417431011755629133e-01,-8.178143834930109990e-02,2.941966668377914984e-01,-4.489321858541994170e-01,-1.711629598431631538e-01,2.382399225996672809e-01,-3.612511719876639327e-01,2.147553961717634241e-01,5.938373545470486681e-01,-2.966830045528895399e-01,-2.467075059623783373e-01,3.923900166308424975e-01,-1.798485216950943266e-01,-4.248853693206823823e-01,3.197306486561946604e-01,3.757409548078756711e-01,-4.646562914675764211e-01,-1.846542507512633491e-01,-2.720248451974272008e-01,-6.867184511537757774e-02,-1.330756866670031457e-01,3.883660891118391745e-01,-1.748774391723395549e-01,-2.195509867995049380e-01,-1.822416733127280308e-01,1.271232325718411604e-01,1.441637981054227080e-01,-3.214518390885895416e-01,-2.206672505924995586e-01,-7.604348773829824881e-02,-9.835148780094533916e-02,3.011562624464016458e-01,3.517987248040180953e-02,-2.363958166697266786e-02,2.049847080911877673e-01,-1.179400891050955136e-02,-5.171159240736389329e-01,-4.437091198323040997e-01,1.618679110764904882e-03,-3.651691598369221081e-01,-3.184053588085486441e-01,-1.313430542094672082e-01
