2.868604778855783910e-01,4.153455670589097370e-01,3.273958668208272749e-01,-3.522636934963275235e-01,-3.934870084423170988e-01,2.608823235083713721e-01,-1.190779615488085086e-01,-3.226924245440181416e-01,4.265412238169439818e-01,1.549680950472894503e-01,5.294586224892558479e-02,5.036213778864628843e-01,4.349435873361190419e-01,-3.228240352888162024e-01,-5.083239008105828738e-01,2.971680076898601808e-01,-3.930369520439279396e-02,1.169487374594096463e-01,-2.084821012908123772e-01,-1.044072914005830660e-01,-3.584803716343537561e-01,-3.501687358406508910e-01,-1.363446246785396387e-01,2.893277057716543976e-01,-1.262218030193750506e-01,2.446039173715972848e-01,1.369346030210254750e-01,-4.301305563528369236e-01,6.993275305084230287e-02,2.022743993761717818e-01,1.213251167644859851e-01,-2.656608617952198603e-01,-2.028060728664680956e-01,2.056052714991724595e-01,8.271627042700684107e-02,-3.715414119657499681e-01,1.439282839080626430e-01,1.021871717939014934e-01,3.949594172248538371e-01,-2.358784874738194814e-01,2.906476578863543825e-01,3.566425949179879429e-01,4.778550886919594731e-01,-4.776296232934816310e-01,2.790089933506352537e-02,-3.742560144341817718e-01,-4.220921146084278819e-01,3.271978233990677915e-02,7.502366230976158235e-02,7.628964802061938798e-03,3.262207988073708154e-01,5.198225508340404977e-01,1.979278376574430953e-01,9.189349731275740785e-02,-3.103051009605050647e-01,-2.729482459998385790e-01,2.303282876694633385e-01,-3.409431960064531753e-01,-1.007017742421319750e-01,2.145780374991600459e-01,-7.440435609725065680e-02,-5.664925637773905731e-02,3.428805674860725961e-01,-2.451281741411860393e-01,1.472117105815976823e-01,-1.917715740027735316e-01,-2.492832231651131991e-01,4.393185718613028951e-02,-1.201084527165744431e-01,-2.972614939707615700e-01,3.708070711971550582e-02,4.787520729773654948e-01,-3.038101776333057558e-01,3.109386393490322642e-01,-3.930123550183213799e-01,-2.726139190606070573e-01,-2.742794262931937954e-01,-9.177944266151408237e-02,-1.568374886222287656e-01,3.853868269970782134e-01,-2.608844187452109484e-02,-7.802110364931268138e-02,4.036984517088210711e-01,1.778276408387851060e-01,7.527477016759601125e-02,-2.572037894083931131e-01,-1.347657591544980660e-01,4.241956321915839601e-01,1.398107120984143914e-01,1.801917685532645474e-01,-3.006886894020224243e-01,-3.682066654681944717e-01,-4.920936034972824002e-02,-3.044580006755564505e-01,1.164187762073779983e-02,6.907553931288073872e-03,3.616448598296894135e-01,-2.734902448509211048e-01,2.530236329877685875e-01,4.568830530639339527e-01
4.519861019766510668e-01,-4.221929278048956458e-01,4.124268879003957222e-01,2.138553360135218850e-01,-8.874534148856098870e-02,-2.294258080338645867e-01,-2.161171761200421371e-01,-4.596700295914856182e-01,3.481670132937949580e-01,-2.345076774644249129e-01,2.195301955749090483e-01,-4.788927344264706232e-01,1.242797418839899637e-01,1.774179659260470832e-01,1.874736450832487633e-01,-2.720620156915269927e-01,2.479729254403202077e-01,9.013610715603918855e-02,9.455100621271569916e-02,-2.664270588423591768e-01,1.871791627420333060e-01,-3.436045319806074194e-01,4.222618716463850258e-02,-4.524078151074804044e-01,3.689398744050407797e-01,2.054395637157746812e-01,4.390782511313893743e-01,4.890879407819907071e-02,-7.664136640241214771e-02,7.614307789773784585e-02,3.452419665142777983e-01,-2.585677314035231822e-01,-1.962649041891179336e-01,2.837348926623952106e-01,-1.213221062254044719e-01,1.041005956734015053e-01,5.257971712092437411e-01,-1.550424474162366284e-01,-1.871486026870060881e-01,-4.426759960467322452e-01,2.212038544290480246e-01,3.209206226344877844e-01,-1.339394373790428472e-01,2.669518636041107174e-01,6.397439264086153543e-02,-4.407060577390871647e-01,1.602879607880182133e-01,-4.696516852812294140e-01,-2.633313986622457525e-01,-9.959738931120901140e-02,3.181053287072506119e-01,-2.806216155632573761e-01,8.732629066651655114e-02,3.964186158779754998e-01,2.878119804098869250e-01,-3.113813099445854604e-01,2.063538738237091774e-01,-3.832989869119734494e-01,-1.150309858246088964e-03,8.764055678519001857e-02,-1.047320100761058859e-01,-6.772456604758088361e-02,-1.409490870611723734e-01,6.587301092888737941e-02,-1.787472023672215804e-01,-2.081895583471646549e-01,4.960168129604009546e-01,-8.086334649172298439e-02,-3.006630368014099886e-01,-1.037690356615731391e-01,-1.095397569422582040e-01,-3.041730812531703299e-01,1.322313628713111255e-01,4.232507247361446678e-01,1.647861584673643853e-01,-4.318805017479656061e-01,3.406436674759241168e-01,6.067341457300458318e-02,3.123641327262673406e-01,3.745479317031993882e-01,1.971827795497970437e-01,-2.025445012057268401e-01,-2.243366985163698368e-01,-4.615177511422048351e-01,2.004710361674041930e-01,-2.158523571261524721e-01,9.245120358305919384e-02,-1.731257195204791433e-01,2.565799072740345688e-01,-2.705808614316680960e-01,-1.899891162130384059e-01,-1.305981038281838480e-01,1.985407732440747086e-01,-2.232303228147244079e-01,-3.831761284599399797e-01,3.439159998686633357e-01,-2.479111001841194373e-01,-2.781943341296023720e-01,1.115401945759140617e-01,5.166203464594132377e-01
-9.555075122973008539e-02,-4.888835993851857187e-01,4.517736141067975331e-02,1.561057604977128532e-02,-4.502775499887016197e-01,-2.176170471644830740e-01,-3.449203589709596840e-01,-3.203712947404028788e-01,-4.511795788943194774e-01,2.836346895267946241e-02,-2.312588505037854389e-02,-4.208203609279677626e-01,-4.806055769461600180e-01,2.769181271126602284e-01,-1.331344709809595128e-01,-4.407474093195076215e-01,7.004826615155557157e-02,-4.271529854887783362e-01,3.944736447385660538e-01,1.552527744422037559e-01,-4.225683096147874185e-01,2.660110353486889734e-01,1.294503585188415684e-01,-1.171390301670601902e-01,-2.576223141259155747e-01,2.274360049269199824e-01,-1.957291488446629979e-01,-4.891637996518994336e-01,-3.744656158348394492e-01,-1.473566468909684735e-01,2.024899590989328313e-01,3.906911970636495757e-01,5.468111542271537617e-01,-3.465303593733078391e-01,-1.202667029953016775e-02,3.809636596146119270e-01,1.299802320781290876e-01,4.864298175526064472e-01,-3.665537388396939433e-01,4.137823830609224651e-01,2.454208648884836363e-01,3.637029974145800648e-01,-4.557840010387026464e-02,3.187937609622614743e-01,4.785144546526846621e-01,9.942978711540691183e-02,-3.857197759405078807e-01,-2.998050900548744901e-01,2.856034402945971107e-01,4.404550644502780443e-02,4.088907858504237103e-01,-3.205418697792088434e-01,6.985858837845622393e-02,-7.669643990786305376e-02,-4.744575562274945257e-01,-1.346335824406662829e-01,-3.451503689180253076e-01,1.878829112338186447e-01,-3.407918424354936526e-01,2.337017312552774062e-01,4.518156359222583740e-01,-3.893846642418912624e-02,-2.539506333164305296e-01,4.390829551763751337e-01,5.995439230146851761e-01,1.741174454036591712e-01,1.801275175996311373e-01,4.064678085074273084e-01,-3.859891178194655992e-01,4.657455796961491590e-01,-6.982470714796860933e-02,-3.990241103175530823e-01,3.685130713100849831e-01,-3.067106105928877890e-01,4.990843362749841639e-01,-2.839239101047102976e-01,3.767991613809283935e-01,-5.758271904369300503e-02,1.994955165829120636e-01,-1.967553287855617894e-01,-1.744241333491338419e-01,3.220095292311580537e-01,3.135972787845421328e-01,-4.098412829674372149e-01,2.737173215659590153e-01,1.982308599835079788e-01,-2.743665115771781182e-01,4.376545575492989393e-01,-2.599870084624958944e-01,4.292006531506712963e-01,1.461895075411778766e-01,5.291981532441599606e-02,-2.319459883474699335e-01,-5.812446667324933092e-02,4.531421630349621171e-02,4.323071003176207627e-01,-1.228456379304114915e-01,-1.280745973924994965e-02,-2.779202393067234378e-01,7.933547280296850829e-03
-2.538569023657918367e-01,2.805095646513900420e-01,2.245669882034567189e-01,2.898886554531002191e-01,-1.153316178279035487e-01,-4.573158377393565788e-01,5.106936724055103349e-01,-2.367086406568545687e-02,4.810331902826980310e-01,3.236107634998724447e-01,-2.210406064241904056e-01,-3.231193055966323779e-01,-6.695213960179244306e-02,3.891889049687602409e-01,-4.450142510732045253e-01,-1.048262779561313501e-01,-3.584285022154570233e-01,3.412232383654539847e-01,-2.455571637054662915e-01,-1.784666388558307781e-02,-5.013965150120123226e-01,-4.397554079839722796e-01,-2.537644844675957523e-01,-3.648057328784200248e-02,-1.495209822809681344e-01,-2.391855960405441239e-01,-4.106385545907718648e-01,3.565883445777282001e-01,4.179361644330605308e-01,-5.118261080152576581e-02,3.889037352029622308e-01,-2.361067573819071730e-01,1.256178585036680506e-01,-1.677928391190648405e-01,-5.090263279596204393e-01,3.532114592553319832e-01,4.290958172623192124e-01,-2.319055891829422678e-01,1.905957740256046251e-01,-2.411392105608201400e-02,-4.751849304381697836e-01,1.096578767537942367e-01,-4.284507383211744735e-01,-4.413296806878053147e-01,3.409257903045738725e-01,3.070934407086667872e-01,2.682416491645144285e-01,-4.493607472935666758e-01,1.459690298494193371e-03,-4.754145857983206602e-02,9.690597620745250440e-02,2.548897295624543702e-01,3.687809737648828357e-01,3.417660275996756147e-01,3.314120657483199395e-01,-3.178209875130042494e-01,3.422639591051283015e-01,2.571465483390432682e-01,3.439430686437260354e-01,1.155250918743131600e-02,1.733597225685666876e-01,4.449844892601311219e-01,3.525346618034187474e-01,-2.314922743229511914e-01,3.399795488975909108e-01,-2.750605825509201963e-01,-3.249080878891853486e-01,1.810656423504206358e-01,-2.057917027916192632e-01,6.033514996323715435e-02,-4.035815002223736569e-01,-5.520580069830978431e-02,5.267081252770959843e-01,-1.816020723991510211e-01,-1.268682874425201557e-01,-1.201522006176359986e-01,-4.833964091637066481e-03,-2.613479627347224388e-01,-3.302334372427747633e-01,3.818688666088976280e-01,2.065082507261698230e-01,3.797943322172043779e-01,9.170801846891543652e-02,3.878453181996304178e-01,4.014369169468149368e-01,3.613072578618916619e-01,-4.079178156725555282e-01,2.272120714504179406e-01,2.515971418053502551e-01,-2.904610132165479433e-02,4.314444953999259369e-02,1.933794621662576763e-01,-4.783705704579731544e-01,-2.244831843871527288e-01,1.901637203725882463e-02,-1.070742940458555559e-01,2.579004985656490612e-01,4.364039698410999701e-01,-2.774900631378854898e-01,-2.671224886333203319e-01
2.704084116899103246e-02,-4.798291011808719086e-01,4.875976378286691476e-02,3.732760578309888277e-01,-4.814174368262404968e-01,4.614664614557637545e-01,9.445450942271896300e-02,-3.328985311283564341e-01,-1.503555596101683323e-01,7.824640775014563010e-02,3.396971583759216817e-01,-7.114355076552180551e-03,-1.413440698541431340e-01,2.192197318483296853e-01,-4.000170993200724556e-01,3.832259389865220189e-01,4.496384221119290592e-01,3.755074550185051874e-01,6.253947733630434158e-02,1.394122300723155683e-01,2.684989966555393903e-01,3.254672804870618608e-01,-3.542343174985412846e-01,-1.929205243511301626e-01,5.545047949387087172e-02,-1.508372415789706877e-01,4.934157460557659358e-01,-1.299135983562811347e-01,-1.950866349475446349e-01,-4.087240569017210889e-01,3.974309544473406675e-01,-5.116373054761240713e-01,-2.127399578256231050e-01,3.812088602449733576e-01,-3.897136223386409304e-01,4.046798524746303971e-01,2.207576604666344477e-01,-3.336507268624878952e-02,3.084397172092677719e-01,4.940044945084643979e-01,-1.952834686094514771e-01,-1.180154201754067544e-01,3.611766666149222593e-01,-1.692337430386247898e-01,4.142681582260966389e-01,3.787994037535537539e-01,2.430691714720996655e-01,-3.325785247432961889e-01,-3.731429622394935031e-01,2.374664079005552320e-01,-2.597680483280889185e-01,1.925951078631331637e-01,-5.592980940075810148e-01,-6.015237324211378939e-02,1.015574458287691467e-01,6.371723894360853402e-02,-4.104893106662952373e-01,-3.795444839735996889e-01,-3.581966771393992888e-01,-5.542079229203799445e-02,4.328805744266842059e-02,1.390639431555029670e-01,-2.157378951783980314e-01,3.852257946955070511e-01,4.863143183589510032e-01,2.325990145528655240e-01,-6.547267238849154014e-02,-5.910073633782349928e-02,3.576293025723624730e-01,8.011276803112754585e-02,-5.644761758338646268e-02,-5.150622328327262300e-01,-3.284463668962424587e-01,-1.687059044533558427e-01,-3.517663389579285260e-01,4.154804963242132998e-01,1.208033480131923409e-01,-2.335620029331301195e-01,1.453215642640220684e-01,1.310464776779984020e-01,1.535652158032138614e-01,4.888486434790046409e-01,1.039501657960042597e-01,1.173956865676660521e-01,2.593709418167663983e-01,-2.103996768674997742e-01,-2.360597610050156614e-01,-7.632100761986186643e-02,-1.485649871871347338e-01,-1.814344656291752567e-01,8.834381352246485630e-02,-4.601856852650885177e-01,-8.575427701884079379e-02,3.478812162316641809e-01,1.298351808798564877e-01,-4.885024188722635052e-02,-1.553694354083163531e-01,-3.947808695970195791e-01,-4.324316675780115471e-01,3.117728313018469644e-01
1.431904776362380449e-01,-2.226370769985017983e-01,8.528960277128827538e-02,2.829486408813868814e-01,-3.267267556919069005e-01,3.459499594763729147e-01,-3.483555937080981112e-03,-3.830680921826172813e-01,4.156887805797628010e-02,-1.234260278843166275e-01,4.390115124792752233e-01,-1.592342830966134160e-01,1.726430648480437036e-02,-5.955301688978695968e-02,3.278621772301633652e-01,-3.937681627119994365e-01,1.170849053578509047e-01,3.418899368500720182e-01,-2.751741458291523945e-01,-9.552290529248159967e-02,2.430653134527385739e-01,1.765561930221898890e-01,3.729767923175447697e-03,3.932838328162464037e-01,3.803992258781205282e-01,5.706395006233971889e-02,-1.516528903905195180e-01,1.699463447735830024e-02,-4.343332333053685490e-01,-4.995298572671987292e-01,4.609785573051747298e-02,2.036971621801922094e-01,1.289550485802925250e-01,4.366484411264353466e-02,-1.188291142050721116e-01,3.259319402605730387e-01,3.628914311168672802e-01,3.431391316061999652e-01,-3.485093355918317259e-01,9.822453643749209928e-02,1.337220017514237358e-01,2.748135143556697524e-01,2.693966041525728827e-01,-5.306162930878369766e-01,1.488661564745298871e-01,1.086233582033628159e-01,-6.291126441586060436e-02,-2.889168963709969895e-01,-4.237494467280544796e-01,-3.050576837746455938e-01,3.111428940828900869e-01,-3.309286682927676249e-01,-2.958637687521960546e-01,-1.177794038556627815e-01,-4.352144919975284298e-01,1.228535683850684873e-01,-2.166906063218621836e-01,-2.603601079379760930e-01,3.951027760990631910e-01,-2.983315918048711768e-01,-1.544789976484717275e-01,-1.831598204893218618e-01,4.279845523052772660e-01,6.859970021059934309e-02,2.506299020279206258e-01,1.949770778817352945e-01,1.802565489083323702e-01,-4.203980755238155842e-01,-1.364373206537790595e-01,4.001857276868359126e-01,3.183256276939120388e-01,-2.911423872417075454e-01,-2.000005193762087741e-01,-2.984169554426477355e-01,-4.084725297293351765e-01,3.266797661726829061e-01,-1.727343125288100800e-01,-2.973397396493962508e-01,1.174321956181245824e-01,-2.259274167147738432e-01,4.513577812579315229e-01,-1.415187797364005351e-01,7.954183123432763403e-02,3.400945690131350618e-01,5.089989298435295684e-01,3.776575062585872146e-03,-3.586138585065922202e-01,4.950081866876463454e-01,-1.220811713052254027e-01,-3.244222941161333806e-01,1.133059790450714338e-01,-1.124107151678265526e-01,4.198624114353836645e-01,-3.513664737027751284e-01,3.770106760519626593e-02,3.639521385874737169e-01,-4.650790705014424264e-01,2.216052957013715241e-01,1.924672968522095351e-01,-3.532752928202786882e-03
-1.956180071264644049e-01,-1.403877104577750390e-01,-4.055696634167859846e-03,-2.820722533872345728e-01,4.173857474171252524e-02,-4.931814090814400364e-01,2.575170576078644746e-01,-2.393596440800173919e-01,-1.663206889870453842e-01,1.746281558277329726e-01,2.667709576457421017e-01,1.846935710287161969e-01,2.366751463912071529e-01,4.029598706616342452e-01,2.079715984134436133e-02,-9.382660728801012207e-02,-4.922659995661820553e-01,-4.444505179547314500e-01,4.189854039211503012e-01,-2.833724330200222408e-01,1.734176504982376174e-02,-1.076192457412488562e-01,-2.075569087080161579e-01,3.881866412823331558e-01,3.319875627339796686e-01,-3.591203589757028802e-01,-3.423836446476348216e-01,2.917688108092894028e-01,4.521687538069219525e-01,-2.267858949794401280e-01,3.747099927979688494e-01,-1.565395465338999537e-01,4.843782962741541853e-01,1.809071122990205116e-01,1.966539535958072016e-01,-2.078019541733867048e-01,1.538701626051953708e-01,3.316580237284536548e-01,-1.708852222285926759e-02,-3.967249758356913292e-01,-2.198013221460792463e-02,1.645463764657414119e-01,2.399963159633655696e-01,1.259081139060328099e-02,1.523961232128788201e-01,1.687612615004584161e-03,-4.083640278918786448e-01,-6.921473437797553974e-02,-1.719755732644239199e-01,2.012726577954811191e-01,-1.596599070550699939e-01,1.810595688407058701e-01,3.049876089853348904e-01,-9.790487825853359805e-02,-5.248254754511183506e-02,-3.661723691581464935e-01,5.263975463710398595e-01,5.770686156017492546e-02,1.872087562003680317e-01,-3.017110320987803629e-01,-2.046997937066689921e-01,2.972074487009580546e-01,6.883459447308198920e-02,-4.065025144348220487e-01,-4.611675340800615031e-01,-6.251019237835619968e-02,-3.893130403060438005e-01,-4.012988252779279424e-02,-4.221831869699379375e-02,-3.408437959579779242e-01,1.133384753412565726e-01,2.590096907192495079e-01,-5.625471674207070671e-02,5.933847021282425555e-02,4.460146727758348972e-01,-4.791278019725201953e-01,2.490129211906029205e-01,3.132164561589126373e-01,-4.264664001834647666e-01,1.822159008104106970e-01,-3.852322867321283928e-01,-3.652942918107776049e-01,-1.652603193294256700e-01,-1.771438719647549231e-01,1.661599787427985309e-01,2.918221267755800041e-01,4.773605906027433288e-01,-1.469899996801469488e-01,-2.254425614281852508e-01,5.201809183820184368e-02,-3.109424830439355691e-01,-3.686633487428824241e-01,1.113059930836377415e-01,-9.236191239465300906e-02,4.923725563169691344e-01,-4.168840548702589799e-01,-2.881920348578506652e-01,-4.015274438071819163e-01,-1.519818231394534647e-01,7.508453938122154614e-02
2.070013684301018342e-01,5.261533831700434538e-01,-3.974199497218319777e-01,-2.766005647088429775e-01,-4.093363043023671710e-01,1.855053957726683911e-01,2.566497795027798401e-01,3.910319050871853275e-01,-2.915872539169059863e-01,-1.396077627760887174e-01,-3.909928528439280404e-01,-3.475105335658437711e-01,-4.239655789662268304e-01,-3.566723045405327808e-01,-2.453538116473433575e-02,1.831943835205900595e-01,-2.046655758528393432e-01,-4.573772528444535190e-01,3.781902090867785837e-01,-4.291865071810854748e-02,2.967403574497562424e-01,9.076842181549119037e-02,3.939928766011207006e-01,4.506169890487244367e-01,4.750009115418687977e-01,-1.651227290485338117e-01,4.676663340809490976e-01,-5.091128225134102653e-03,7.799190785797673053e-02,2.709107494974152264e-01,7.404425241083704978e-02,-1.854478877733391207e-02,2.938299429267471896e-01,-3.964157310919791954e-01,2.518550325149155888e-01,3.841154200965778975e-01,-4.203924762470396259e-01,-2.113060461620155650e-01,-5.716484642861391352e-02,2.804948966898036522e-01,-3.516815844520175538e-02,-6.323338695083593509e-03,-2.711925892897984469e-01,4.737996610512216766e-01,2.820259990852030940e-01,4.595667464302773397e-01,-1.611940098444128722e-01,-1.426643093600095669e-01,1.466442553159286455e-01,2.407787679769585187e-01,6.669080636609995595e-03,2.431610570463271781e-01,4.167152428873391323e-01,5.224503559524581314e-02,-1.215934650705573494e-01,-2.028966161388786049e-01,-9.627855394184328675e-02,4.351914936301459064e-02,9.009861035982417998e-02,1.000864883537608691e-01,-2.809314809116081335e-01,8.682118721432272035e-02,-1.921854164560669320e-01,1.987009765432488084e-01,-2.062113556101934086e-01,-2.190588558643611905e-01,-4.099271363687019831e-01,1.461607603850663406e-01,2.077930961052733005e-01,5.587020032105913248e-02,-4.197657290933207858e-02,2.435320570014590513e-01,2.360317800500682794e-01,-9.732560002637991037e-02,-3.622613134386938882e-01,-7.527034204176429044e-02,-1.005817812213272711e-01,2.046344118333927875e-01,3.495975681219878894e-02,3.548988514590679655e-01,-5.465656594306871341e-01,1.250242908728312619e-01,-4.003826010179702410e-01,-8.584447501191204422e-02,-4.496172718801583201e-01,7.360387978941734799e-02,-3.428954168240309630e-01,2.760170495169191329e-01,-2.867281759948810960e-01,4.370702357685538747e-02,1.236798704889304976e-02,-2.732624077574161703e-01,3.621680695167064368e-01,3.704131814883843132e-01,1.798612049226955278e-02,1.206778559701831011e-01,4.509223167773637186e-01,-3.541343464049914180e-01,-1.740297022085985912e-01,2.232047709766695476e-01
-4.197782930864115553e-02,8.712485810048593848e-02,3.581530743553339446e-01,-2.803047331839761958e-01,-2.378295540120270724e-01,1.724316464103252400e-01,-5.272086721588200575e-01,3.046234003092400666e-01,-4.679774901505242002e-01,1.333225787921378802e-01,-3.632680493650936038e-01,-4.139380644802482800e-01,-2.179621627021462726e-01,-2.081181616132137813e-01,-4.633061423874349494e-01,-1.872638308305668575e-01,4.351000755121157693e-01,-2.739909945061583252e-02,4.165473410766274975e-01,4.358485944076163077e-01,-5.305982571971848416e-02,-3.073232776097376551e-01,-1.326026906831864749e-01,-4.346409376027828841e-01,1.831015306041031132e-01,2.965472036019162205e-01,6.948976871356907226e-02,3.286938943571450222e-01,4.165975568799005768e-01,-3.123084724354483477e-01,-1.810962191993281123e-01,-2.838338738563809804e-01,4.133721765550881222e-01,-5.491883878373826633e-02,-3.663749582797243276e-01,-2.975963805526108952e-01,-2.781928600420605635e-01,-1.164179865827227739e-01,-3.179007477947963789e-01,-3.474346454218624203e-01,2.516538870222631216e-02,9.420362136385680707e-02,4.852256076081435943e-01,-3.133217805228056818e-01,1.748302452172277310e-01,2.845066281183817880e-01,-3.659642725934980634e-01,-2.775105406739699632e-01,-1.736266168812658495e-01,2.348314770305474225e-02,-2.242404002359832393e-01,-5.108627394981909431e-01,-2.539956671814599387e-01,7.558107046465269152e-02,-2.784372855202007502e-01,-3.027109628457201329e-01,4.180515900929046014e-01,2.372729149767806300e-02,1.814820443641007308e-01,-1.138764025078828901e-01,3.799738431231720615e-01,-7.465238877312621590e-02,4.784964655715295834e-01,-1.002419098556588256e-01,-7.343859272686460715e-02,-3.363364765192544681e-01,-3.194365825501181699e-02,-1.288916295208076546e-01,2.034523031438588980e-01,-3.847104510065162825e-02,-1.753785027317859846e-01,-3.125503977179526771e-01,5.278038076305265058e-02,2.119386149653628704e-01,-4.544048625679676934e-01,-3.281964211823141242e-01,-1.106302995796618338e-01,2.167910045198752078e-01,-9.104710907516690155e-02,-8.036413294938757335e-02,-1.449172792288595801e-01,-3.977355382929234073e-01,-7.491729427023870180e-02,5.152529588561386570e-02,-3.584781627277137117e-01,4.088508454694169680e-01,-1.908493323221694127e-01,-2.089554396455441665e-01,-2.779426980715332673e-01,2.724593706286217998e-01,8.956110178937604083e-02,-2.620684577013351890e-02,-2.090485231353523821e-01,-8.694413677548470942e-02,2.701072530466342991e-01,2.771772182076133184e-01,-5.290967072624738199e-01,-3.141544851839498942e-01,3.710123007049531685e-01,-4.481642820366414925e-01
-3.302879312472346007e-01,4.571177676440669746e-01,-2.881392300030318765e-01,4.186225599263690977e-01,3.355531012090161580e-01,3.392036156513419942e-01,2.430231140456543537e-01,1.792933982745338606e-01,-4.363457930860663997e-02,-1.504109871844857005e-01,-3.171286332590750878e-01,3.665139678086495878e-01,-1.484454481304189333e-01,-6.242656996022051541e-02,3.719307396549213496e-01,1.857918527915498885e-01,2.116077118539574364e-01,-3.746988586538763655e-01,-1.004467056041620371e-01,1.714076998631010040e-01,3.822063791099279961e-01,3.523935275825130359e-02,2.209571071954390953e-01,-1.471526875253183764e-01,1.134509570574487453e-01,2.050381111540635348e-01,2.569799755098388094e-01,-4.229121688811263713e-01,4.310582538667987462e-01,-6.810719734894764288e-02,-3.238224908484767517e-01,-1.959160808395897166e-02,-1.985400400118107200e-01,3.790198197853896778e-01,-3.997694796584335686e-01,-1.024653295410328652e-01,1.907841475616309235e-01,1.040510986264887722e-01,1.404098368214830583e-01,2.598889931268915515e-02,-4.914604484673982393e-02,4.307700084656982953e-01,2.986123350518886665e-01,2.774010800328847726e-01,2.685926174889907703e-01,-3.527296205773524651e-01,1.025412542825253764e-01,-3.822960789065027454e-01,-1.639632624573688913e-01,-3.287190494578595135e-01,-1.008379116077988587e-02,2.299092640448908431e-01,1.066041113585134148e-01,1.934059220134721480e-01,-3.689159475021618340e-01,2.515676283610991382e-01,1.350849414858520114e-01,4.265350962685121039e-01,2.191655272860342230e-01,3.556294886493102103e-01,-2.842386487272508533e-01,2.519446396775607000e-01,-2.923422907497641443e-01,-1.703517628527146111e-01,-3.169947146624721435e-01,1.614209382644636315e-01,-3.273410678326212353e-01,2.894649790584084559e-01,-2.592874628893502842e-01,-4.998592826459781757e-01,-4.091832320819538960e-01,1.056160725672708467e-01,4.168855601133623634e-01,-2.908406458630183877e-01,-1.346870992727915994e-01,-2.117131275716482297e-01,-4.523607808920228623e-01,3.587742818437781867e-01,-4.235232259084717454e-01,4.638872705961438747e-01,-2.704740398732276563e-01,-6.666975555127854780e-02,-4.468136091321459058e-01,-1.209669692428593790e-01,-1.084910980424606264e-01,-3.682686024098176525e-02,-2.093384319073818001e-01,4.103057882804253542e-01,-4.447821354596817045e-01,1.514259343805808566e-01,1.727517229833497869e-01,-4.320284219825813038e-02,3.240309448778117551e-01,-4.646417196029577201e-02,-2.792951842306333199e-01,2.601985056600946700e-01,2.901638301223268823e-01,5.096030863604741196e-02,1.418109970707543688e-01,-1.621907665709071134e-01
-5.137958384914055321e-01,-4.571432402208033263e-01,2.130546480221603423e-01,1.349993987966720543e-01,-1.190436286811433486e-01,2.946060055429629565e-01,-4.299654125580986697e-01,1.053169153337055325e-01,-1.778641185251277346e-01,-3.265680681989827083e-01,-3.488820935635135734e-01,1.723642180125409817e-01,4.050090835582983440e-01,1.250905425960189277e-01,-5.030807732074573657e-01,-3.577811276475165725e-01,-1.642924970134400919e-01,-2.456577427539050895e-01,-4.060236140504381863e-01,-1.492393709465503482e-01,-2.265715228497032496e-01,-3.967365734012953116e-01,3.178357207823256925e-01,3.965813696637196517e-01,3.507837283075349033e-01,-2.580930158463808355e-01,-1.376128489151531853e-01,-1.608102922368152554e-01,3.623389875466834220e-01,-6.694017625227303980e-02,-4.907618281863030951e-01,-1.979982927149994965e-01,-1.483645926011387117e-01,-4.095741003271978209e-01,1.351478120917436465e-01,5.864046043931000346e-02,-1.313130866943023334e-01,1.652301462098709206e-01,-3.302634108077556752e-01,4.812997330669150919e-01,2.121269724481980243e-02,-4.031545811251097122e-01,2.616539067408905073e-01,-4.263201382122283056e-01,-1.984231262010402730e-01,2.006615873891079149e-01,-3.289734748617522686e-01,1.051708496436965790e-01,2.491014460429383584e-03,-4.091811040116095644e-01,-3.545060813174751302e-01,1.634690013658840202e-01,-4.966017602871515280e-01,-3.531642706527151621e-01,2.511781362857969380e-01,3.210732504213086314e-01,5.132843882358959636e-02,-3.406975720385103656e-01,-5.955081685844158812e-02,-3.522776530276073848e-01,-3.927075325700906672e-01,4.172916607176703763e-01,5.284646821340861500e-01,4.130586974294019886e-01,4.351578774222807366e-01,-1.701707016134347272e-01,-5.593034632195411637e-01,5.091977755532219874e-01,-3.099174575283926147e-01,-3.252200345442466389e-01,-3.779794955422496883e-02,-1.763067441791688061e-01,-6.035848520949118473e-02,-8.051605467778531755e-02,-2.532312997267547328e-01,-2.603631775554262062e-01,-2.905747194444877612e-01,3.145421319526354176e-01,2.457431287839035861e-01,3.727992914045318851e-01,1.082323497115791483e-01,6.214019331638525982e-03,-1.921635490053853479e-01,-1.073474893261364971e-01,1.598583603447124302e-01,-3.427128661776154273e-01,7.396693030260460995e-03,1.724750110075707610e-01,-1.209049734257757261e-02,-2.832827177912852212e-01,-4.857183615149406747e-02,3.914107011588803253e-01,-5.179531418911956925e-02,4.567395337066362804e-01,-1.366570618401589388e-01,3.219556808588468905e-02,-2.028233466737817958e-01,-4.085111939801639447e-01,-3.526634287817990709e-01,3.936597563713571390e-01
-2.056461256352842548e-01,1.601883272855043339e-01,2.775060915311631793e-01,5.699271364779133486e-02,4.375501859033113505e-01,-4.143342116273422415e-01,-2.330083052084206546e-02,1.960906756926924510e-01,1.960527197109458164e-01,-3.169748038694449321e-01,2.429606881352384118e-01,-1.935308871641034378e-01,1.198685447279088517e-01,1.719071765480451874e-01,8.323383696907545731e-03,-2.278755081265711468e-01,-1.302202829458572464e-01,-2.078954652906002398e-01,-3.946831170251878795e-01,3.075053295348691984e-01,-3.832204923618364178e-01,-1.172152389492154556e-01,-1.617110917217888869e-02,4.831881281884565782e-01,2.408044840134191122e-01,-4.595075822799825627e-01,-3.341147531557331907e-01,-2.989198445050080810e-01,2.726739632152589410e-01,-1.864494529557789160e-01,-4.628722749404921011e-01,-1.644048109010404213e-01,-1.241222488494592019e-01,-3.775923710967969971e-01,3.754409105705709959e-01,-6.791852581343649220e-02,-2.972841415652537900e-01,-4.205310262166955804e-01,2.854551098986249924e-01,1.164949365826537797e-01,-3.324966858316591445e-01,-8.701656181540050328e-02,1.287182804572216954e-01,2.505840491190372554e-01,-3.149065266198974311e-01,3.660335934296002902e-01,-4.304918941368308105e-01,3.150358370959257526e-01,-3.134998184239930485e-01,-2.836221393403648428e-01,3.424333173042101719e-01,-1.134814895267690638e-01,-3.051424775465877981e-01,-1.480276388370599036e-02,-3.867812782653594073e-01,-1.602736071810856033e-01,-4.516118628851842898e-01,-3.263850997141458377e-02,-2.234864510915114677e-01,1.328534745592805655e-01,-2.141346720841852957e-01,4.833805674298299188e-02,3.138327219413893365e-01,5.919369706546157364e-03,-1.951860503335119956e-01,-2.447244702437887665e-01,1.579006353716728150e-01,-1.747646115675556278e-01,2.735892827015113521e-02,-1.363586338454581270e-01,2.058383995758803625e-02,3.344261377232015109e-01,-4.388368760604073882e-01,3.837856782862177352e-01,-2.508557443176747670e-01,-1.806531170406673603e-01,4.895291118929966101e-02,6.319093056749799930e-02,4.652289451990210822e-01,2.002344556958765565e-01,-8.468381256398402335e-02,-6.497957602871719252e-02,-1.454672524392423560e-01,2.979514005771680685e-01,2.424781038950337975e-01,-1.635467121072970223e-02,-5.499770211236694462e-02,-4.498060374451839927e-01,2.796513101338266583e-01,-3.409261595058225014e-01,-3.301178468731538751e-02,-1.899180851043075491e-01,3.873221335097341567e-01,-3.198053216792483555e-01,3.362266163775183281e-01,3.203154573052758858e-01,7.033342011895311885e-02,-4.567014481493771733e-02,-2.043832019418636292e-01,-1.111041806372367879e-01
-9.768904167315720088e-02,-3.655823011927396005e-01,7.742022501368311937e-02,-3.597343338312981587e-01,-2.219790717349732490e-01,-2.050303463975833018e-01,2.086987393584634476e-01,-1.979800200583364811e-01,5.395130929391578345e-02,-1.199354489893147691e-01,7.734412506150485644e-02,-3.550635252989178814e-02,1.535069984608813387e-01,1.458305719799055100e-01,4.114517169251977191e-01,2.565901243952680225e-02,-8.973068625800167952e-02,1.136677549989612707e-01,4.193822469967172228e-01,2.755189506114474884e-01,-4.694638746698187592e-01,2.260792620510201634e-01,9.427280120067917102e-02,-4.785419816920044034e-01,-9.935612854819696194e-02,1.730287677253180001e-01,-8.406828982189758215e-02,-2.181441347416125665e-01,4.524748165901206765e-01,1.832513064363041622e-01,1.764111896130871604e-01,-3.608646459635334730e-02,4.822943400821747550e-01,-2.389885304748648465e-01,2.665799642180335383e-01,3.348995047796206048e-01,7.964089627875847732e-02,-2.152897960003084254e-01,-3.503942043621787739e-01,-1.971261562178470428e-01,3.745586061946680201e-01,1.956554398149274454e-01,2.734748119266855459e-01,3.356761449966238486e-01,3.065884556198880673e-01,-1.804467755781200555e-01,1.651420774592486651e-01,8.828681853667939838e-02,2.035189686793318076e-01,3.705763271293910366e-01,-3.616915878012983560e-02,-2.054692706289855397e-01,-3.107416005194207909e-01,7.014250300026149409e-02,-2.634819172707492108e-01,1.203198773848454355e-02,3.739496503329812205e-01,4.778031567793564749e-01,4.181407970432849397e-01,-1.602238539243190374e-01,-1.168801098290660478e-01,-1.412769248681609510e-02,-7.624692389092541100e-02,-4.492743629844995201e-01,-3.418551715711164868e-02,5.737508410884074178e-02,-4.806050335538604723e-01,-2.635615945157086526e-01,-2.019823828178479164e-01,1.801111219839999361e-02,-3.408217716931540298e-01,-9.760455291424019464e-02,-1.593335195315366271e-01,-8.309452974212862275e-02,-3.601177554549911397e-01,1.897382829358118528e-01,4.020042572466387965e-01,-4.588698462198048666e-01,2.969950863326367152e-01,-4.911183802100246298e-01,-3.145827526638187988e-01,-3.219088003289130584e-01,-4.031031990219878236e-01,-4.985719439770912031e-01,-8.211488022400882658e-02,-1.676958338660086423e-01,3.477512930166396510e-01,5.466728260529796213e-01,-3.553325487872640576e-01,4.288732124725663231e-01,4.898184530354333655e-01,2.230292544914376784e-01,-5.234628284807690823e-01,-3.640065519715022235e-01,-3.913703171806146575e-01,3.318282606467626850e-01,6.069308696070944975e-02,4.816983490172124793e-01,2.067984540568902907e-01,-3.850609603441888795e-02
1.315599972489163716e-01,-1.567044087344988956e-01,-2.213982919655267112e-01,4.605402826409230044e-01,-3.647269203843500618e-01,4.449297090153919165e-01,4.049605984608264375e-01,2.098570764950855594e-01,3.232023947156610622e-02,4.920750430407529880e-02,4.689691396282659464e-02,2.975980019089763950e-01,-1.048163442896491576e-01,1.346256332916886400e-01,-2.991265265021230135e-01,-1.761488291152049912e-01,2.455244879180348561e-01,-4.495231193262517744e-01,3.583467565953730172e-01,-2.900287337471229021e-01,6.523039401511210311e-02,4.610557454971404567e-01,-2.018613037768451912e-01,-6.631881589378320341e-02,-3.116072887234028199e-01,3.243039754532542895e-01,-2.378278351492485454e-01,-3.599878700418215893e-01,-2.738515330074116072e-01,-2.044799937371332421e-01,-2.017067776630636911e-01,3.560890943377245654e-01,4.079559218760878125e-01,-3.191092260956404636e-01,4.142628203384479679e-01,1.636405623411799895e-03,-3.455578157855360155e-02,-2.004352353950437232e-02,-2.754858222983345151e-01,-2.634227514566785389e-01,-1.025013518064308154e-01,-3.614835107487022192e-01,-1.879733632445422867e-02,3.129539320711985373e-02,-2.917427850012885848e-01,-2.324154143995217081e-01,1.351336085411477400e-02,4.640348434621716089e-01,-2.277502446506058376e-01,-5.031256069548763199e-02,-1.100699414518902658e-01,-4.395831434209261368e-01,2.873101575497052917e-01,3.565291559105774888e-01,9.124931456126732232e-02,-2.839790757956024703e-02,-3.455750407267183522e-01,1.814314499719223150e-01,2.090703050525448692e-01,2.003139249324343771e-02,3.366198862395179958e-01,7.429606874330509092e-02,-8.509423769955865025e-03,1.717416867394389868e-01,-4.078281708930838086e-03,-3.189233243997201001e-03,-4.158474655617439564e-01,2.036421796635480216e-02,3.458385902663274059e-01,3.234739600977623586e-01,3.250225528988694434e-01,-3.976144334709673656e-01,3.249615374185704786e-01,1.972272018883210881e-02,6.743042267905496878e-02,-4.762742455153757271e-01,3.254637119514806054e-01,3.602156182036609366e-01,3.098649416001234558e-01,-1.003965647644620152e-01,2.169160777738782242e-01,4.560042231055824041e-02,4.341262945731632072e-01,2.904441768033889648e-01,1.288137068547089981e-01,2.282441105620855101e-02,1.582833600307302635e-01,-1.735405016921306998e-01,1.619215107188702596e-01,-3.213017197292750149e-01,4.872564053170485021e-01,-2.440806749785405516e-01,-1.527431866431714358e-01,1.817768840136593789e-01,-2.229942392796545325e-01,-3.638210048672416153e-01,3.121657276832364922e-02,-2.259279209268552358e-01,1.902570902726158086e-01,-3.292431664051942986e-01
-2.788963310038297116e-01,1.856315477357967092e-01,4.030525780953489456e-01,1.513504379132382394e-01,-7.336127482674452416e-02,4.796804061398712848e-01,-6.897435644573429725e-02,7.868323392555172380e-02,-1.338355395439901896e-01,-2.330452699444190146e-01,1.776803240909001491e-01,3.243796427486637657e-01,3.582098835781872825e-01,-5.715692121297159117e-02,-2.988728281923158092e-01,1.949469340948018492e-01,2.903333182805173385e-02,-3.362240584315531189e-01,3.988321270035260352e-02,-5.369709159021767153e-01,3.694518569573734812e-01,1.592097838522857911e-01,-2.115141382206584819e-01,-4.126926748082389018e-01,-8.134035480261439521e-02,-2.066256868040064754e-01,3.400201374179295799e-02,-2.556340019064474722e-01,-3.669269966454099530e-01,-1.731219965196344468e-01,-4.601095279689527140e-01,-2.250641600117683216e-01,-3.367487732661146593e-02,3.760219369653876043e-01,1.795613466221490373e-01,1.439471231264262234e-02,-1.064910463055060569e-01,-1.947078835506312888e-01,1.168737649452339378e-01,-1.197525247088660899e-01,-2.607063671188718512e-01,-2.152538778657865914e-01,2.224656438964695282e-01,-1.166795791287611322e-01,-6.642497737776241820e-03,2.965666580249070594e-01,-2.664541765878929436e-01,1.335708701894303130e-01,-3.960003747747847802e-01,2.683292560281823613e-01,3.629301098655226543e-01,3.856692912828985076e-01,-5.643928454273086093e-01,4.787741451951008642e-01,1.594273787671994791e-01,9.203815980737048430e-02,-2.246532718023717123e-01,-3.844456605008647609e-01,-2.505797364236996838e-01,2.831436232985203860e-01,4.255328899835371659e-01,-4.566097906151999619e-01,1.694958555053865112e-01,-2.879386735063227953e-01,5.319670234265045927e-01,-3.787854739185050335e-01,1.076133564284651595e-02,3.526161504589537254e-01,-2.451144786018966681e-01,3.219391806351606933e-01,-8.433962750020880528e-02,-5.240178759436544542e-01,-2.964682435863795762e-01,-4.682367383691282137e-01,-1.084173823462385722e-01,1.116559629037005980e-01,-1.999710522345999608e-01,-2.514924818617854108e-01,-3.463447861847441245e-01,3.131419862196782589e-01,2.419077957500048726e-01,1.540217295933503650e-01,3.089842649039356570e-01,-1.667255233431322314e-01,4.317685709918067660e-01,-2.806776400543719574e-01,-3.733290022878172909e-01,-2.688385039200700266e-01,-1.718846444736768508e-01,7.936513923349353128e-02,-9.888604934438864624e-02,1.187208030298106815e-01,-6.734582631224488025e-02,1.411526176975795854e-01,-1.939871547721607192e-01,-1.277543228853767199e-01,-4.284614849852980134e-01,4.247503671463532804e-01,1.304156855872784238e-01,-4.677407869334873070e-01
2.754263758488224578e-01,-1.095956599807974552e-01,-4.163300868439734348e-02,2.877431678626575784e-01,1.485252391005525419e-01,-4.824584274986168375e-01,2.041743376039130697e-01,2.121910408783915791e-01,4.133128607891697892e-01,-1.157654469632030669e-01,1.830369523158714429e-01,3.002823550280102061e-01,-4.235220296605602952e-01,-7.634859577746002865e-03,-2.955311401219201106e-01,4.100138204691923249e-01,-2.068457084198916177e-02,-2.221865276549984253e-02,-3.273263390842635068e-01,-4.345155470972787981e-01,1.361809612200423347e-01,9.316674329183123604e-02,2.567425674951503978e-01,9.379856578192921623e-02,4.455001659815773229e-01,3.934494882156223117e-01,2.665087717321630301e-01,1.424177977768213421e-01,1.958430741239818862e-01,5.238147497526761676e-01,3.046933331031709789e-03,3.033210148324796615e-02,-4.753212200256802800e-01,7.347922642572140249e-03,5.145954814129745092e-01,-3.447455015066027556e-02,-5.569503192205539632e-02,-2.549244745017023028e-01,1.261323103109097121e-01,4.768182192152731758e-01,1.040687935213501503e-01,-2.915129603041541895e-01,-9.676983577765582711e-02,3.963644379212707403e-01,1.878617626191070034e-01,2.931452860196738230e-01,4.041499127071082054e-01,2.562572794858346548e-01,6.472407869399880720e-02,7.886556827249470436e-02,-4.860365845079375746e-01,9.396861905648623212e-03,3.523899809337346922e-01,-4.285961894204208256e-01,-2.552996111743577323e-01,3.908631886375710240e-01,4.437310731961561783e-01,1.566075242238543219e-01,-2.342358626025121127e-01,-2.315449123072027549e-01,4.123105902142004675e-02,1.063659548937965771e-01,-1.332200945980920870e-01,-4.015429198005698308e-01,2.888990776723986409e-01,-3.099662741509935926e-01,9.913220046908448324e-02,3.329560256932904694e-01,-8.968415488372755151e-02,1.007453999755117229e-02,-1.115601702857063476e-01,-3.903556485022047773e-01,-7.341868031494731828e-02,-3.087200402421180767e-01,-2.382836583585739298e-01,-3.546026377982394728e-01,-2.553380614399224369e-01,-4.175706499371886760e-01,-2.726790267410856075e-02,2.924871046784867645e-01,-1.997256295365574252e-01,2.141042768671913010e-01,-3.296432761305426173e-01,7.468009743618669871e-02,1.273129371231734863e-01,1.615952461755395253e-01,5.342226758395812736e-01,-4.625675482063705823e-01,-4.637046982439584908e-01,3.552438016669794973e-01,-1.157293649601517233e-01,-1.744675559660890940e-01,-3.026800587138278598e-01,2.966300292442841102e-01,-4.243515966210834045e-01,2.272483611030915174e-01,2.737123376210546244e-01,7.031192193711975624e-02,7.898839794679342330e-02,2.915721605647569326e-01
-3.627363443547757527e-01,1.195502065397496816e-01,4.230649703699627118e-01,-4.206638231585348164e-02,-3.087948918649774388e-01,3.257918034764883397e-01,-1.907734495897333293e-01,1.861232653300314288e-01,8.851564116763849244e-02,-2.444092345759465157e-01,1.611977820079812385e-01,7.122303313038962080e-02,3.670095819407113713e-01,-4.850746982095673066e-02,6.514029893897472709e-03,-1.580387343596636462e-01,2.897665390298379551e-01,-1.101439346638058842e-01,-4.775289306499532760e-01,3.032830027411338447e-01,4.734107487722385432e-01,-5.108490221708211765e-01,-3.017435606449394014e-01,-4.412367583488517875e-01,2.199985015333817129e-01,-4.763014794571004407e-01,-9.458671432049413352e-02,1.644333792912135439e-01,1.954335830621234393e-01,-2.997023489184535983e-01,-3.667628222968755680e-01,4.373665725574150120e-01,3.020695675173035166e-01,3.063108235034525673e-01,1.276657151851532486e-03,-2.250244408584979317e-01,-1.699784924565954092e-01,-3.203112734297864916e-01,5.030981426384354555e-02,4.656712171673012546e-01,3.317337614693281478e-01,3.053393235330449929e-01,1.115857633501728535e-01,-2.379261858089166959e-01,1.335327203800362184e-01,4.286815473198705151e-01,3.151461125776293670e-01,5.340210705903464250e-01,-2.413276986403113389e-01,-4.004643188746338442e-03,-3.225897110250810496e-01,3.298213477300936947e-01,-1.386979780593942946e-01,3.996656815011303543e-01,3.769179737820864684e-01,-2.451766055774051434e-01,-3.648760488800915081e-01,-5.137605891280486170e-02,-1.439775274186214371e-01,-4.354627666192013025e-01,-4.157208316769689938e-01,8.088708860542799528e-02,5.126678205080355960e-02,1.791155449309316250e-01,-2.818940302279697163e-01,2.072440705110344672e-01,1.462529979010185333e-01,9.895737230842148457e-02,-2.565906936004203609e-01,1.629111781344883686e-02,4.823252900114778363e-01,-2.393232489753399639e-01,7.335237742668480887e-02,2.086415729761947335e-01,-1.228354099814578243e-01,-4.867675590245374995e-01,-2.709961087306125838e-01,1.114363293029485558e-01,2.477957522876360896e-01,3.286262231515208465e-01,8.770850843700617183e-02,3.032996237355646274e-01,8.060154671806451761e-04,3.491597898248547382e-01,2.070432693612571096e-01,-2.535796452589896277e-01,1.010355475499353228e-01,3.890863225883585408e-02,-1.248254033886095626e-01,-3.238573949389078055e-01,1.937022543265677632e-01,1.926722024410477963e-01,1.427945596362750758e-01,3.035330579284557517e-01,-2.243057559493819575e-01,3.208242282299357262e-01,4.330865640892666013e-01,-2.725260605264583913e-01,2.432218445314075772e-01,-3.546871073195331237e-01
-2.990907594557357663e-01,-2.038432638415834386e-01,2.627016152592809295e-01,-1.015116465995882442e-02,-3.221786795722481056e-01,-2.623882931879128466e-01,-4.634677832471145176e-01,-4.035370025346728395e-01,2.764183673858332524e-01,1.692527514869357486e-01,1.981797011924127661e-01,-8.226246840221426715e-02,2.096879625876473252e-01,2.905072840640157694e-02,-8.200273609693217725e-02,-5.530269321739592625e-01,-2.721798018164406363e-01,-2.005841457317584786e-01,-2.894393921227049193e-01,1.478604633583366912e-01,-1.146725899641688751e-01,-5.525742206929692285e-03,-1.031126829798922201e-01,1.401208153806820234e-01,3.610586345525918645e-02,-2.093568534208152809e-01,-3.161321623868298958e-01,-3.876541953399272877e-01,-2.083013472529713361e-01,1.385029999858934380e-01,-5.161567219424915143e-01,4.029477558587739594e-01,-3.107218210784452594e-01,2.083530340662440028e-01,2.235955318614387399e-01,-4.147031132876690118e-01,4.649434040131087964e-01,-3.313421359682544587e-01,2.660859780802596886e-01,2.544038908388862041e-01,1.353154267224219720e-01,5.392822164389318024e-02,3.094839647935407854e-03,-8.173948652861268149e-02,4.008954385380484320e-01,4.954667975742259034e-01,1.342707193008946809e-01,-2.008975851718378947e-01,1.723505604233704913e-01,-1.972913005339023418e-01,-2.534035557088926659e-03,3.545757383275484065e-01,-1.238004574680905412e-01,7.677170048624153142e-02,-4.508920351508906021e-01,5.010815032556840132e-01,9.017570820201216419e-02,-5.419897924762537289e-02,-4.649623789956053299e-01,4.867321850569908404e-01,-1.964442803957572592e-01,1.048077450739811206e-01,-3.392799603769015571e-01,1.593842333285771518e-01,-1.221847120438160489e-01,-2.412991600244528134e-01,-4.188049209673581075e-01,2.494616952737101906e-02,3.714229778250322661e-02,1.488338383692385802e-01,6.331405803003087307e-02,-1.941953973873413730e-01,-2.530487703026840229e-01,-2.713311865178616999e-01,-1.170059826412479520e-01,9.556064852701559587e-02,-3.889373643761168120e-01,3.465724182795475450e-01,3.529106123769318315e-01,3.622041717428308161e-01,-3.341148878816462831e-01,-2.125706730898651586e-01,-3.480486450651590902e-01,2.506283788678083657e-01,3.502669745602120521e-01,8.466892440430610900e-02,2.297518617683871611e-01,-1.450735333149010542e-01,-3.157970191461885734e-01,-3.496240112780032439e-01,-4.790945490538823237e-01,2.328376421283645803e-01,-3.623159044373536197e-01,6.446779685948880734e-02,4.188739827555104100e-01,4.424220246853898808e-01,-2.564559269653287621e-01,2.625829895315042739e-01,-3.996759629944182102e-01,-7.657296257777244930e-02
-2.647179966443117261e-01,-1.838834969283887066e-01,-2.770136176981112808e-01,1.612342310240685028e-01,4.303749163833840430e-01,-2.172561348072508947e-01,3.228689142040151450e-01,7.789139323695554173e-02,-3.143485827252255616e-02,2.311508309601833233e-01,-2.046540345872487898e-01,-1.914745349512614325e-01,-5.282308847187386358e-02,8.564370563625814392e-03,1.076380649238682791e-01,4.269310850461018325e-01,-3.982481994240878037e-02,1.523869314935787644e-01,-1.322894017110392562e-01,5.006096875040859651e-01,-4.437131268884762503e-01,4.524201498632305363e-01,-1.206631489754050740e-01,3.281675186904676189e-01,-1.127477923804876686e-02,-4.311245575483634851e-01,-1.179007248018881515e-01,2.650629854527106755e-01,-1.238923873780529983e-02,-3.625596301992745074e-01,2.425842904511970044e-01,5.181599425869667375e-01,-1.710750009849668907e-01,1.439098322682251518e-01,-4.470324012947360370e-02,-4.187944990628885700e-01,-4.559213361414202192e-01,5.369175051850538088e-02,4.310578101392588402e-02,-2.420261623118090399e-02,9.989561740460883854e-02,-1.187156392335544097e-01,2.488271670882212239e-01,1.946220138682676001e-02,-1.598714499788428389e-01,-4.796372563263297528e-01,-1.455538868205094039e-01,-4.208424687647255996e-02,-1.355635966610037324e-01,-3.362005033822708655e-01,1.969344033819645304e-02,2.605685801276421132e-01,2.927175128181343511e-01,4.274744080061172458e-01,4.394014239093702590e-01,4.143025980724847068e-01,4.417874761546979889e-01,9.021734719698689536e-03,-9.104928460451916505e-02,3.413222311831771716e-01,2.940957451945660495e-01,4.553499710426911484e-01,-1.737361224128915749e-01,3.274580780239920164e-01,-4.685784893180696131e-01,9.356781643024082717e-02,-1.755897643200914904e-01,-3.811182967155286594e-01,1.221074047363709669e-01,3.392831006438800645e-01,-2.315875894981681282e-01,8.686187490268279521e-02,-5.445011495977957611e-02,2.434030116138393429e-01,-5.852575581964482299e-02,3.654698266101094051e-01,2.046871253801860469e-01,4.663964071923213384e-01,-3.561406042616889756e-01,-3.003722945988493431e-01,2.306579061201067260e-01,3.480207550107864423e-01,2.891786608310152329e-01,4.149339838265813096e-01,-2.820910454765412911e-01,-4.539191015022926989e-01,-1.569043074511562372e-02,2.467364294604522390e-01,-1.829718848490884398e-01,-3.972494763073067814e-01,-1.582910350381393494e-01,4.992760838128044720e-01,-1.191747692650640539e-01,2.726348778047394394e-01,4.908597384438212474e-01,1.990516955352332473e-02,-3.706979058411782324e-01,4.391249171389859929e-01,2.181318502519249969e-01,-1.097581753600046367e-01
1.242328085400873777e-01,-1.188221612593010484e-01,-1.765173301622043750e-02,-3.704668855408415062e-01,3.266352805836168494e-01,1.803305874480889692e-01,-4.736519257815722250e-01,-2.702790185604406203e-01,4.492363115832345016e-02,1.139952303872743961e-01,4.589469787507054026e-03,-7.001301333179153763e-02,1.674558689079336249e-02,-3.113614169250431551e-01,-3.111452612806229756e-01,1.394851822646817618e-01,-3.004900005341032410e-01,4.347837176951346860e-01,1.050144656339596499e-01,3.920371548763697533e-01,4.320536428023008524e-01,7.526934059435731739e-02,1.328630434906757918e-01,2.763991035589491441e-01,8.566347764762143047e-02,-4.733496403730217961e-01,1.623929383874367915e-01,4.094313937117515234e-01,3.152295119226865977e-02,3.353419180766086249e-01,3.488168577755327293e-01,3.964495087000944884e-01,-1.660732951413764202e-01,-1.718231301262490296e-01,-3.507684160052485511e-01,4.324704626721860290e-01,4.377252040975593839e-01,-2.193161519317663177e-01,4.136156027183039430e-01,3.384106410259251074e-01,2.755841464638164595e-01,2.501113106090061544e-01,-5.400907342494967178e-01,-1.448220509157196467e-01,3.752395242649143592e-01,-5.212686358732308012e-01,-2.225285226797364402e-01,-6.264656715153076039e-02,-4.435264517138235996e-01,4.616451633771737617e-01,-1.876122308869053734e-01,3.040602378998946143e-01,3.822713518665112331e-01,4.584547128002177119e-01,-3.980080402405887230e-01,-1.253907742588968033e-01,2.048562851995867073e-01,-1.029382145949395977e-01,-7.975121058471695834e-02,3.193573409742756497e-01,-1.132974437783343113e-01,4.390612344989840432e-01,3.609655645441561811e-01,-2.953409673006349156e-01,2.801491408516045278e-01,-3.809185696853507278e-03,-3.093548768569684970e-01,-2.368809362489041892e-01,-3.298660538422698574e-01,-3.912062032251458210e-01,-1.410409214955951791e-02,4.626471850011333597e-02,-1.341269715521568595e-01,4.259057818653947391e-01,-3.394084843174283161e-02,-1.026901682571169511e-01,1.505201489657957137e-01,-7.097266329446398625e-03,-1.178702084525074800e-01,9.657874402203250885e-02,-1.473244582449691475e-01,-1.629287954184708842e-01,-1.079508680903382839e-01,2.448805008173143560e-01,-3.749405132474448177e-01,8.782857255813072972e-02,-2.084877533425218699e-01,3.991027818777666547e-01,3.034491993444061730e-01,-3.046814419004686969e-01,5.010358422542522672e-02,-6.324386389664296559e-02,8.406172069713881145e-02,3.343901634455626604e-01,5.177878746615640626e-01,3.440150883052208175e-01,1.087691745244198649e-02,-2.655578015238880749e-02,1.000158566162168278e-01,1.960909494234944761e-01
2.152196485871250564e-01,-1.086458738634322047e-01,2.623866810262513449e-01,4.639135932130163953e-01,-4.005019697570394444e-01,-4.129121432003861059e-01,3.366566266859743473e-01,1.151844934579217550e-01,4.350977824751433576e-01,-4.365044941754375185e-01,-2.613130777988817988e-01,5.158101676184854156e-01,-6.857683122261819253e-02,-3.842000959395449056e-01,-1.263818975590954574e-01,-4.111751148435370262e-01,2.515845646403057703e-02,3.608838959148348846e-01,4.584200579690955735e-01,4.478496549811273320e-01,2.097539322467651540e-02,4.566510651518592701e-01,-2.472244501290935259e-01,-2.667604794858818851e-01,-4.497414235579431652e-01,4.879687596173611086e-02,-3.805470125478254695e-01,8.969294226450286178e-02,-4.923293447119227451e-01,4.187111446136649318e-01,-8.868904626578087702e-02,-3.409315377494950283e-01,-1.471929607166831966e-01,1.492655549645300825e-02,-2.256097090852655640e-01,3.686090745106342381e-01,-4.723004727498420624e-02,1.332699017841969535e-01,3.025289714470000835e-01,1.498250850026682790e-01,4.232766068846623153e-02,3.191969564592975761e-01,-2.630001527931366545e-01,5.764296962720479034e-02,2.078471882478939714e-01,-1.657892567300246062e-02,-8.299093089036803372e-02,4.470779363503802339e-01,7.348648589165741873e-02,-9.401892623250665548e-02,3.788710586405129033e-01,3.220031548513720976e-01,3.249283676534763243e-01,-7.727564677339515686e-02,-4.363898215270684555e-01,-1.676314809636786640e-01,2.166013884652989441e-01,4.105473716161296971e-01,1.290932026861728588e-01,8.561161623184031580e-03,2.152297534687166308e-02,-4.739543094264918599e-01,3.932837772235253104e-01,3.869359236340206842e-01,1.444844546512690231e-01,-1.309151066183321908e-02,2.268551351862238552e-01,-4.218829338926798345e-01,8.887920459534609519e-02,-5.134666005388187626e-01,-9.904329115483140322e-02,1.511999325756116785e-01,1.718516532337168168e-01,1.426753187029904113e-01,8.148060289433040060e-02,-1.729556957449066845e-01,2.489299968913535888e-01,-4.368633643756058005e-01,-5.234955062193337172e-01,2.686563442799390078e-01,-2.122024995777262169e-02,9.717005714531561089e-02,-8.705301963120422315e-02,-4.902285259982386290e-01,3.409133318208754648e-01,-3.366785065549710576e-01,-5.512898128150840737e-02,-3.583000441199098995e-01,-4.220739582343311924e-01,9.301041441380701602e-02,1.228389471118928322e-01,-1.709955070404190619e-02,-3.810535463538598511e-01,2.981433758495198316e-01,3.889138948998767664e-01,-4.412870283501952456e-02,-1.854992901243678327e-01,-1.787748312477030754e-01,-4.610904578903151085e-01,-5.140927844895087917e-02
1.606112615703636226e-01,-3.266926167724237273e-01,-3.800116083464476491e-01,2.785825195826589495e-01,-3.284708830590200163e-02,-3.782469989799872589e-01,1.891815956572142909e-01,-1.711065367501376500e-01,2.428817266417016285e-01,2.601326187626359365e-01,4.604488290804580747e-02,2.329395777735294715e-01,4.003406217065241246e-01,2.296542359220943574e-01,3.363588047795223468e-01,-4.087602200706720867e-01,3.445612656608256219e-01,3.429473369437731067e-01,2.870416524599916919e-02,-1.673254262052527586e-01,-2.770461279768960394e-01,-1.050339924340608078e-01,-4.108947378801589556e-01,1.792873873622670977e-01,3.936126581721342138e-02,4.934854605477977385e-01,-5.631275897271758452e-02,-1.115098148851760423e-01,-3.533205216389189718e-01,-4.208146857177988420e-02,-2.934050379809235443e-01,-7.712119982810981822e-02,-3.964358504279981155e-01,4.227100829564144346e-01,2.642517306335933625e-01,-2.566284237363711251e-01,4.143627193024784772e-01,-1.679469594791854481e-01,-1.977809650188495361e-01,4.603097499912046642e-01,-7.127928496682876813e-02,-2.032783841383300760e-01,1.660528462399698812e-01,2.895296478729733058e-01,-1.273126924201783972e-01,-4.206912037840552787e-01,-3.881821630758383046e-01,-4.028374264300862428e-01,-4.883101982284890341e-01,4.544839861356376326e-02,-3.269172101941196784e-01,-3.737177142952934766e-02,-3.094384059781039586e-01,3.140797731863577691e-01,-1.620286585661553092e-01,-1.133294481825412453e-01,-2.031841773148273800e-01,-4.655728872159461268e-02,2.954809168654098372e-01,-4.921646664132797722e-01,-1.150209032411120824e-01,-7.266150053904565920e-02,-2.113569477841328037e-01,-3.451933468481904743e-02,4.609021017475021798e-01,-4.008624713416227281e-01,2.847075317254051940e-01,3.334637827394016374e-01,2.820485031643083507e-01,-6.574279198059033991e-02,4.872994353185591265e-01,4.149624748076487235e-02,1.378167178567767659e-01,-1.072065406212230065e-01,-2.124326512110567555e-01,1.663187796766030790e-01,4.088799872099866395e-01,-2.309595108910063588e-01,-1.803304490248165415e-01,-9.926793419224749782e-02,7.744946625669364704e-02,3.798491114514351286e-01,4.395938965724804914e-01,3.689350237018524381e-01,2.715610198034142941e-01,-3.602054126281257762e-01,-3.047581050595990493e-01,2.061590844455280791e-01,-3.607215237777183781e-01,-2.958723356231655610e-01,2.129197257818028211e-01,-3.105469964922000781e-01,-9.258833567582160085e-02,-2.650891905097710888e-01,-3.476136106639060031e-01,2.742113968079717412e-01,4.844966563374597524e-01,3.467464764211421469e-01,4.107540947866003544e-01,-4.589602493283773677e-01
1.198684597772282576e-02,3.614668284214207494e-01,9.070030112343215045e-02,3.850242105993423314e-01,4.002189982308581029e-01,3.072976413926537531e-01,2.970038694427777903e-01,-1.612115129924660273e-01,4.903166541917683974e-01,1.625271337992484355e-01,5.070191414570071609e-02,4.848290976010216635e-01,-3.857176237902849025e-01,-4.749591962200791495e-01,3.135777682739608330e-01,3.983517750597205254e-01,2.934157095166034512e-01,1.552076606189916053e-01,-4.751565275695345258e-01,-1.032054227206644255e-02,3.492193417536970657e-01,2.392383670224710601e-01,1.260079562200773495e-01,-4.348374417067603082e-01,3.385006257570253307e-01,9.235161905346520039e-02,-3.512797066520650935e-01,2.810425435455181642e-01,1.626721003048699765e-01,-4.514627902097128609e-01,-3.012850276757418899e-01,-5.201239940220074853e-01,-1.212242259258783927e-01,-4.346641496456581377e-01,-1.001514596740842589e-01,1.024040380624420266e-01,-3.518930613110997085e-01,2.805247558266175112e-01,6.521845965531329614e-02,1.070281251254509292e-01,4.545611767396637859e-01,-8.946416654049177408e-02,2.709065056572426133e-01,1.026586001620556111e-02,2.375557087532187694e-01,-1.969619947262524484e-01,-3.167623282802115026e-01,-1.699212534003884459e-02,-7.808300381216755348e-02,-3.840508451699873871e-01,2.686427728621049726e-01,-3.432434240753923227e-01,1.135106916264142091e-01,-1.366257727672743338e-01,-3.796871730704876602e-01,4.453710343346196643e-01,-4.932249203763959811e-01,-1.994289544756798205e-01,-3.280731294468869352e-01,-3.088758985224454578e-01,-8.284017229517279257e-02,-4.153771681189359355e-01,2.601111908376381107e-02,-2.590179676589426383e-01,5.606834925186413715e-02,-7.798829180406777195e-02,-1.719684894837917033e-01,2.338105773543044386e-01,-3.413305120435583540e-01,1.894303037001753010e-01,-4.145130872279246259e-01,9.069173865549634561e-02,3.564520540657732939e-01,-1.787604632079665135e-01,3.407560590277283752e-01,3.699812501016318533e-01,-3.429738847125534673e-01,-4.220677014328853005e-01,3.291392119280746598e-01,-2.668477543575227262e-01,-2.272174170920798764e-01,-9.930134231418105695e-02,4.558484117574286287e-01,-2.111242445556442693e-01,-2.260194710600887114e-01,-3.837582373893924648e-01,3.813267604009427658e-01,-4.898719003658870141e-01,-4.511347553823521483e-01,2.934046841005999440e-01,-1.377814958127061007e-01,1.461262709593824927e-01,1.459209040724752382e-01,5.444126301365932452e-01,3.038268180250067729e-01,-2.968407009310686795e-01,-2.405530730727142574e-01,-2.149857642513045008e-01,-1.657519986067094997e-02,4.209097667931911979e-01
-4.062647348943385639e-01,4.120286769925633474e-01,-1.610844239405323508e-01,1.028884250631137698e-01,4.714560668178146563e-01,-2.265340643184655667e-01,1.107965474302670533e-01,2.192058215861068804e-01,-2.834068982992392263e-03,4.297355939049620766e-01,-3.487631162341537916e-01,-3.188524368030817291e-01,-3.030904902227843922e-01,1.552049469695311046e-01,-2.884169426431729133e-01,-4.405256280693262139e-01,1.208230984195437785e-01,-7.515841680332146189e-03,-1.166316066594177137e-01,1.067539172478533527e-01,-3.402534900867570378e-01,-2.325862796080104822e-01,6.486268655661442395e-02,3.580519265215575397e-01,-1.053758926579893423e-01,-1.708554484154793940e-01,-6.223089559058173070e-02,-3.103485364860166795e-01,-1.457728541486505609e-02,-4.808623043625084165e-02,-4.069851977430302692e-02,1.632341971651311840e-01,3.707827391582930177e-01,2.672573564807061430e-01,1.098029968557832359e-01,-2.066726708552206471e-01,3.366105622194364710e-01,-4.018338896631480917e-01,3.113814451594186170e-02,2.761774319947248868e-01,-4.548060439460678284e-01,-2.845841811565962276e-01,6.077572181213301145e-03,-4.480991887228096826e-01,3.939245319545186391e-02,4.443461823083194040e-01,4.310979371929004600e-01,-5.558228865628880855e-02,1.292267586523467293e-01,-9.467701213576122654e-02,3.388102306065109426e-01,-3.406999780833981362e-01,-4.318693098498892491e-01,3.317568637302663048e-01,-7.183713593863211289e-02,4.405180000844983179e-01,6.294231299655848877e-02,-5.266576815014194501e-01,3.476607586266918792e-01,7.930796570378911836e-02,-2.240966650100877089e-01,-3.765919507359013485e-01,-1.583436806720499579e-01,4.679086886446204852e-01,2.964712305573996010e-01,-3.905166978760058472e-01,-4.991567662070967720e-02,3.275783416453149077e-01,-3.563511746104757183e-01,-6.829959185851913750e-02,-3.337272277725601977e-01,-9.087965233306367907e-02,-2.978829994398997649e-01,-2.006841756665407872e-01,4.750336002158306314e-01,-7.856693206467094126e-02,-4.239233439250856272e-01,4.482007529654898348e-01,-3.255328310265362401e-01,1.313795920461973132e-01,-1.742523570105276864e-02,-4.581165860983399951e-01,1.152856929948554848e-01,1.568501785343831556e-01,-4.106546599748071014e-01,-2.560475805271583694e-01,3.415732169583257649e-02,-3.202546513561128072e-01,-9.667960676005847576e-02,1.978678879777956423e-01,2.011243207520122533e-01,-4.028182822419604792e-01,-2.886108941834728547e-01,1.126995237742613731e-01,2.556097296438235023e-01,-4.263235858839846126e-01,-2.021632914543576576e-01,1.604355452955849304e-01,-1.846332828752112742e-01,-2.452909397071087183e-01
1.920054375177915051e-01,2.969946989453509101e-01,-1.112611723905110733e-01,3.107414849418705938e-01,7.856300517711285736e-02,-2.753912387860029676e-01,-2.635235797160900145e-02,-3.873508102940689812e-01,-1.168632428836021142e-01,3.374186790463744590e-01,-3.193389929844899777e-01,7.365389576604658428e-02,4.208772540157191266e-01,-2.591658309206329447e-01,-5.850812060996648384e-02,-3.930490598541466207e-01,-2.050565439484246244e-01,-4.580454156800572996e-01,-1.920271518570582786e-02,-1.380354364288239287e-02,5.196591870009851233e-01,3.455088463845240598e-02,3.096115604965966606e-01,-1.893732558039598890e-01,4.391016827953521662e-01,4.847342063817595276e-02,2.898093488354955283e-01,2.718993435705717165e-01,-2.695276776854207967e-01,1.912360132056511453e-01,4.220527621801224982e-01,-1.857080939765484995e-01,-2.676510814922535286e-01,-3.064696128588261653e-02,2.297504983459866534e-01,4.610638922167085152e-01,-5.622569512237486355e-01,-8.358189918699225618e-02,1.765485578560773705e-01,-1.966714088258117998e-01,-8.926181144697029057e-02,5.678857022491776152e-02,-2.003906763069356056e-01,-2.243609328728659869e-01,-2.872191910114532121e-01,8.140175736000121454e-02,3.236309426674366940e-01,-4.771430119729386798e-01,-1.061957689623463513e-01,2.952338217613180160e-01,4.800340464808319774e-02,-1.730698115949399207e-01,-5.058170835331330384e-01,-1.560124682908168858e-01,-1.428108862743098506e-01,-2.566601317913970726e-01,-9.398065658757340235e-02,-1.605466442757620127e-01,3.810855064663809522e-01,-2.298576558793017088e-01,2.738204748399040156e-01,-1.075226351932451335e-01,-4.466530678900844653e-01,9.540929101754196118e-02,4.402219634659569336e-01,5.268370571574931827e-02,2.402869064300189594e-01,-2.764521265502044578e-01,2.921846557714085635e-01,-5.359246492489239122e-01,-3.852417739175038602e-01,-2.790532655502892673e-02,8.472600450826610341e-02,3.839568713218052820e-01,-3.714473602765345772e-01,-7.150295380368144882e-02,-1.709867608863664123e-01,-1.806323149684695428e-01,1.955958348397043578e-01,4.313719522771809478e-01,-1.473511690493575499e-01,4.529360684161271577e-01,-1.367830035540009148e-01,5.050601423654735855e-01,-1.363547876665320013e-01,-3.861039943787517026e-02,-2.106106942045717356e-01,-3.029483144744472556e-01,-4.148040502890868453e-01,4.491927065321600909e-01,2.064149649794335128e-01,3.270918073509277990e-01,-6.394752320214541590e-03,2.767478384932423596e-01,-3.214875527018452028e-01,-1.889517791915110712e-01,2.699885777679933430e-01,-4.263263979718283081e-01,-2.469880142791361921e-01,4.825065973072357739e-01
3.795466443777141263e-01,4.784897037503534345e-01,3.522222065992309803e-01,4.074377648410340003e-01,-1.959710530846358878e-01,1.289019353121859390e-01,-2.406781140961792853e-01,-1.155900683041014565e-01,-1.036049831707609864e-01,-4.986085192879564643e-01,-2.288103066163015842e-01,-1.365453722394854019e-01,1.861952031012463205e-01,1.434328404208026070e-02,-3.608031601978112790e-01,-2.975848884116124027e-01,-2.117457030401810325e-01,3.941805986853462729e-01,-1.951614742846104478e-01,-3.225979439099779245e-01,1.993450290904300870e-01,-2.499651008893275239e-01,3.927183728925955353e-01,-2.112649821095349822e-01,2.857316116252259786e-01,-3.250102714768168255e-01,-4.157890894995088238e-01,2.529640623697014812e-01,1.052932872355336613e-01,2.600812303143074100e-01,-4.999543623434274430e-04,2.552310756392329738e-01,2.465922586285815010e-01,-4.240708601693800317e-02,-1.484956278147355480e-01,1.755293464827213934e-01,3.271761243045575585e-01,2.810458536330088797e-01,7.530069380626509823e-02,-2.752717782834682159e-01,-4.901389893518565688e-01,-2.213345624576250892e-01,-1.262640107224298654e-02,-2.584233038725954335e-01,1.647721410761592009e-01,5.668740372579683662e-02,2.648031425489498769e-01,4.424848696163676265e-01,-8.472992498480984291e-02,3.849814994203827334e-01,2.838999062742793011e-01,-1.156488775286675097e-01,-2.368545648777233559e-01,2.723181236254560988e-01,-3.215697614340679023e-01,-9.866337395102169061e-02,4.976032308539258403e-02,2.254315536351752247e-01,4.534476973667361244e-01,-4.700628094648341970e-01,2.827140397208466327e-01,-2.924633651773596577e-01,1.174537615646419203e-01,4.843771093278062545e-02,-4.829441834875752293e-01,-5.293815472774802966e-02,3.841634431051153820e-02,-3.934759298791825621e-01,-2.718945437606696824e-01,4.874030885484383346e-01,-1.462137521319162858e-01,-2.468234516540101231e-01,1.781739278377974731e-02,-6.854301748000866945e-02,1.134411834930256213e-01,-6.683941194392221952e-02,2.601313270557584767e-01,1.736990156185914957e-01,-2.846078538792050083e-01,3.420197660246273030e-01,-3.940205497682937041e-01,7.789418905402911708e-02,-4.180977211614542721e-01,2.122944047894459452e-01,-3.258471375305423412e-01,2.439205446381607634e-01,4.242514753578224829e-01,-2.821423034281455022e-01,-4.907085757396153491e-01,4.277091194600929347e-01,-1.867373505180560389e-01,1.096838361398351086e-01,-6.217238755451273084e-04,1.065130903498500148e-01,-3.247503876738488948e-01,1.080806080942176284e-01,-7.246548654466236639e-02,-3.288863759917602381e-01,-2.612019497154337566e-01,-3.901347528118129793e-01
-4.941728191262561021e-01,-1.712394626771161221e-01,1.024877813935612739e-02,-1.696137733442104334e-01,-7.565060686750374637e-03,4.159463054381282721e-01,3.659413482472402279e-01,-3.158563240750653089e-01,2.590342987094126359e-01,8.247401213319725810e-02,2.509521256379460552e-01,-7.218570303154611678e-02,-3.435258944820319127e-01,-2.484547868747042088e-01,3.650906994438605779e-01,-1.879206209516348924e-01,-2.944612465638916099e-01,-6.064254090966372107e-02,4.463100688258802573e-01,-2.334265792242600293e-02,-2.455854222828361133e-01,2.049143751306267691e-01,-2.717598003542634477e-01,1.430646361509773090e-01,4.443032169468675852e-01,-3.723561269513931404e-01,4.258750984626814007e-01,3.651670915194835110e-01,-3.782447216920679645e-01,1.265528668859169648e-01,-1.703183695392390395e-01,-2.022794750709090983e-01,3.582176518960576012e-02,1.919925576869761785e-01,3.898355126909944235e-01,3.537858885026542444e-01,-1.924899688654961583e-01,-2.338484460770581114e-02,2.110073871751856345e-01,-3.354900569537246358e-01,2.564662703319324777e-01,-2.235967100234389215e-01,1.259505308040836241e-02,1.854882747672605969e-01,-2.110478465962767058e-01,-9.038979285010456666e-02,-1.263556350641524030e-02,-2.813875502771209791e-01,-6.747864919934425630e-03,2.227656455939797386e-01,1.766403674080421482e-01,-2.231797006496126501e-01,-8.274739330869863851e-02,2.955291323406424725e-02,-1.196276249200334402e-01,-2.670884998821566603e-01,-5.236955838092631765e-01,1.133992488109779734e-01,2.172472355449047432e-01,2.056633142322522034e-01,4.262311050632335008e-02,-5.051054147192275412e-01,4.227340146359748196e-02,1.869777652367122234e-01,3.641430536987538824e-01,-1.170629695115216473e-01,-4.630084376452163197e-01,1.938333217423526267e-01,-3.401794320933358429e-01,4.349812930803700906e-01,-1.911673339210877287e-01,1.481425740804127866e-01,2.354537566502260260e-01,-4.827777042050263590e-01,-7.466610445346362479e-02,4.162927612442345882e-01,3.308204346644071370e-01,2.355610778987786424e-01,2.119486173932956241e-01,2.971261122731440607e-01,3.684985547024309249e-01,4.991715249338013471e-01,2.673973557387612776e-01,1.995883426448773479e-01,1.098273080043337124e-01,-2.310861164658586098e-01,4.154448951058005712e-01,2.084753005718025243e-01,3.152052714372123310e-01,-4.592937742849061422e-01,2.892036847069075212e-03,-3.946196964185383349e-01,-1.642877376644608645e-01,-1.587359325208966832e-01,-3.859500943981050702e-02,-2.656102686905985610e-01,1.369906116703888677e-01,-3.398399822358351419e-03,-5.978882892903839008e-02,-9.719229486452013456e-02
3.771841043299321572e-01,-1.750474130133635731e-01,4.221993730111724408e-01,-1.712242479000298245e-01,4.413070819073124096e-02,-3.226841693703145220e-01,-2.252112126240880807e-01,-1.757275798690800805e-01,-4.470444351823573137e-01,2.907629926634403006e-01,3.463479337194593777e-01,-1.195588522176307261e-01,1.188092827417152053e-01,-2.090733725464538617e-01,-8.099131057967171032e-02,-2.924787396378783402e-03,-2.735964991424985615e-01,1.145864977669756729e-01,-2.577621938504477961e-01,5.237692045749531983e-02,1.282434830218714683e-01,-1.300974601687107657e-01,-4.783442546629935732e-01,9.113178730129588290e-02,-4.263581697457736741e-01,1.811476510499287762e-01,-2.637548754542619334e-02,-1.346314171300197204e-01,-4.602240967720687137e-01,-3.886236780084891262e-01,-3.491656882770290404e-01,2.556101109981392949e-01,-3.804674459807578790e-01,-1.369534048170535090e-01,1.763759821347029300e-01,1.013612319474061774e-01,4.186084826640676937e-01,3.416391498960908435e-01,4.385775724133928466e-01,-4.975441432204130709e-02,-2.872037300503274895e-02,-3.396150044199250373e-01,-3.020489406440440283e-01,-3.032368201317080514e-01,2.289565048411120463e-01,1.044315839760572157e-01,1.723743657653614425e-01,-4.098211480443944565e-01,-1.959796999545502794e-01,-2.285601148013499118e-01,-1.922028456999202300e-02,4.339682424916396775e-01,5.065484813239792272e-01,3.034995956993752908e-01,3.883531980488083013e-01,2.035613788511506095e-01,-2.538939273046380007e-01,1.995476126751200285e-01,5.068585927478486131e-01,1.900493746981283538e-01,-7.054327363182490152e-02,9.631094002737037793e-03,-3.646556065724371187e-01,7.704162995564825533e-02,2.475383552330661652e-01,-1.050115449918477828e-01,1.854348400889548054e-01,-3.118740297418192697e-01,-3.456685754897873553e-01,2.760266338928411556e-01,4.504513645569575009e-01,-3.887797563431352188e-01,7.173837291370986115e-03,-1.965753085193573946e-01,4.225250178995675898e-01,4.129902060692512422e-01,1.501382446568947093e-01,-1.087087045292397108e-01,1.808830265808233084e-01,-1.004930679123394177e-01,-4.292641734886136484e-02,2.615662546777779429e-01,2.437787650640562964e-01,3.164582539154489060e-01,1.285453811230738153e-01,9.099413679098898589e-02,4.218721155312770144e-01,2.555354471860895593e-01,-1.505467943721438828e-01,4.554363035828125073e-01,1.769157926883573873e-01,5.616774053366850594e-02,2.815685196275098945e-01,4.538482340916454860e-01,-1.256508954738408679e-01,1.315637602041231646e-01,-3.557022580845811133e-01,4.218394852081868707e-01,-3.077240516757583436e-02,-1.714025931964743843e-01
3.893823255793770199e-01,-1.943212092790216339e-01,-2.414015463347566059e-01,-1.564351386887429252e-01,1.421076354032413391e-01,-3.822646416788602619e-01,1.247471971855691926e-02,4.432475775166752618e-01,-4.049634899831647816e-01,-2.960270563750909689e-01,1.637771901622146475e-01,-4.560711574693409598e-01,-2.006899369698731880e-02,-1.112261949403625105e-01,4.349471639956671853e-01,1.381968795391157190e-01,2.349807078536635396e-01,1.129280891733733250e-01,1.019598449261715223e-01,4.530585856279250034e-01,-5.976799950230238939e-02,4.321581954949047510e-01,1.636527169648405999e-01,-2.843791418107226576e-01,2.980938613980941287e-01,4.653121080648549013e-01,-4.724822720643621909e-02,-4.461052109842515989e-01,4.392991672827082361e-01,-1.522263192433657431e-01,1.525718475327444423e-01,4.099561045046614671e-01,1.037399356718952392e-01,-3.592931316009903009e-01,3.485399282620396666e-01,1.990884375952889640e-01,-4.600047761219700493e-01,-2.092324939874898593e-01,-4.320081793358906408e-01,4.042235580763198222e-01,-2.084044547615387100e-01,-1.428646779268442635e-01,1.933646745168653702e-01,8.865771404234522313e-02,-4.487827158437201515e-03,3.577322500393898541e-01,-1.238302396308777614e-01,-3.963171353195952262e-01,3.470973683927445208e-01,-3.427470575312965839e-01,1.191047148523805832e-01,1.733664902084821324e-01,-4.116637691777532693e-01,-2.924238116756413541e-01,2.405051376457668227e-02,4.605311727309961412e-01,-1.504690980814093471e-01,5.853096479697467852e-02,-3.494324979984034241e-01,2.048470263698350391e-01,-4.098325239902585460e-01,3.349711271434895749e-02,-1.296999430117484475e-01,-1.514374597485242668e-01,2.640149532276694910e-02,1.741649537220766042e-01,-3.216890570368941549e-01,4.698756184265034941e-01,-3.421139961678369423e-01,-4.138201194399593330e-02,-2.060463117985243675e-01,-3.732575058889855968e-01,3.156740722444063008e-01,3.276211848724929210e-01,-4.242890746580559314e-01,-8.491860898041520000e-02,-7.081983535224475879e-02,4.272801957276078921e-01,-2.254784421243676285e-01,3.958204584138756976e-01,-1.193590969281890790e-01,4.049921907694458700e-01,1.886048634097322041e-01,-3.700813758935582176e-01,6.541473096373776920e-03,-1.993751771500399672e-01,2.458167417632236285e-01,-2.917409994398479367e-01,-3.518135627093850193e-01,-9.094346731836618070e-02,-3.524918376659871844e-02,2.454586315432322197e-01,-3.811332446237458704e-01,-2.573411891148632002e-01,-4.088162107314468607e-01,2.185378444371521844e-01,-2.870346772984483930e-01,2.386558027269281845e-01,4.964078077984863668e-01,2.797627905970879736e-01
-3.765565909169243941e-01,-4.125843853153962626e-01,2.518710018683542259e-02,3.775492028246276166e-01,-1.791114790951749691e-01,-1.969530868970952031e-01,1.481288919425031159e-01,3.118252442025617466e-01,-5.762181540299139010e-02,-4.936219959014653269e-01,-1.552395076247304329e-01,-5.191505707725168305e-03,3.979882948467317050e-01,1.621350559801122138e-01,2.972528255338524050e-01,7.575248605487598652e-02,-1.450618012724089745e-01,-1.954334210226025270e-01,4.775506925182800289e-01,-2.565551272127321036e-01,2.733563855696770871e-03,-1.455794490924382789e-01,-2.397586467508693864e-01,9.059038323703391682e-02,4.886315438393207811e-01,2.961540613506138953e-01,-1.755977444804473209e-01,2.644375945063495801e-03,3.584392959394150369e-01,4.419978970850744204e-01,2.600146496077296865e-01,-3.204007158824832002e-01,-2.067567822226092922e-01,-3.572422860835175462e-01,-2.332643244093269286e-01,-2.371354129478586356e-02,3.342626761760981169e-01,-7.164826532889094490e-02,2.107882638909842898e-01,3.731921293635150905e-01,-1.368852465449541256e-01,3.623978937396469258e-01,2.157172782951393697e-01,-2.599396470326058584e-01,-1.489837497696182012e-01,3.549102471120673119e-01,2.434378826465442291e-01,4.160137261485382099e-01,7.260908644346941720e-02,-1.003929101623043385e-01,-7.822737639118880482e-02,-1.173042812611603536e-01,-2.700992005324659995e-01,3.933915521610521493e-01,-3.204722685790916126e-01,2.150289072092049780e-01,3.215277989494095823e-01,-2.791535830287642309e-02,2.492393722404305789e-01,-1.377773143493786767e-01,-2.616364171385991422e-01,1.398113985536802717e-01,1.350943540182520108e-01,5.501264822373787000e-01,3.848837431838190715e-01,1.149327552525811029e-03,3.289070813590689868e-01,-1.437999889348228096e-02,-3.662080325078442833e-01,2.832459377862597272e-01,2.551781079405553432e-01,-3.700289864992515332e-01,-2.549898046994023559e-01,-3.569574724082738570e-01,-6.107049847033502177e-01,-2.614823735525722004e-01,2.452202373720120676e-01,1.303158576451362294e-01,-3.489963798489434943e-01,3.623282559407540737e-01,2.970706740586804839e-01,1.551192140522356377e-01,2.719058676809159580e-01,2.133744234607835855e-01,3.434026110676799970e-01,-2.798514012464109468e-01,3.689872510929634308e-01,2.087812931922538306e-01,2.857652993072701264e-01,2.718037931498663018e-01,1.899738961188159603e-01,-5.585470572512907239e-02,-2.366796528777247999e-01,-1.327722250028485207e-01,1.259104002633784636e-01,-1.870796854541142973e-01,1.508468579737056170e-01,3.089849924899576439e-01,4.771730901104292433e-01,-4.008913675941150334e-01
2.952132334086120524e-01,3.574987770346109150e-01,4.446698392458472981e-01,-2.037803078924902422e-01,-3.605659814153763243e-01,4.213647358995506464e-02,1.464095845895592440e-02,-5.087355266421710043e-02,-1.488654305762747432e-01,-4.195015256776502555e-01,3.086449907072384424e-01,5.743583117759171186e-02,4.253707142509449701e-01,-3.934140395536653290e-01,-2.862761267782167052e-02,8.207471188999142242e-02,4.634545069703641662e-01,3.614611733926105241e-01,2.928341440298356524e-01,-3.670160088685124888e-01,2.617226027849517966e-01,-1.548784027279117015e-01,-3.167392847613166862e-01,2.963890209986979607e-01,-4.057743566023892801e-02,-2.864528450611965038e-01,-3.581527436072616255e-01,3.582009467868949720e-02,-2.559873957200186623e-01,-3.551428527642982447e-01,-3.661603407759022044e-01,-1.874234333377173267e-01,2.912879924391902908e-01,-3.511610776041632631e-01,2.021209987939188990e-01,2.912417698470136651e-01,1.899718121770672952e-01,2.143663708399665691e-01,-2.144394440691062276e-01,-1.609292356462775075e-01,2.807522248673544052e-01,2.573299585878108253e-01,9.488845059245584745e-02,-1.481503242485869287e-01,-4.442395973573075030e-01,1.193160161764891813e-01,2.364666410490464665e-01,-1.449322914658675576e-01,-3.413136162354037384e-01,-4.656080269437662400e-01,4.183706605582795945e-01,-5.711310468284953173e-02,5.358830385613150282e-01,-2.169914628223082453e-01,1.976767750028268211e-01,4.464090802970201860e-02,-1.582788618868558317e-01,-1.760414950465770956e-01,-4.046139577194047821e-01,4.228564623800109556e-01,-3.847628942682719266e-01,2.944973009085851690e-01,-2.539871248566348827e-01,2.300071480006953550e-01,-2.931386265586175544e-01,-4.122476261639089756e-01,3.215594088498784364e-01,3.620720455708473784e-01,-2.592841206555274169e-01,3.252779556655596011e-02,1.169589619862318325e-01,2.564022486434333614e-01,2.522893097322142508e-01,2.995761496753096553e-01,-3.241930768164187349e-01,-4.204307151323321556e-01,-2.138377297039760205e-01,6.822854495480050810e-05,-3.816029800605133526e-01,2.002999089187686987e-01,2.061063786973197365e-01,-5.407744116875476958e-01,-3.800324086193491713e-01,-2.208500134052257258e-01,-3.995248439129315404e-02,2.044916158553576890e-01,-4.051174611730498643e-01,9.608739580538511182e-02,3.260490224514875912e-01,-4.489501921830400533e-01,2.762485147768132809e-01,4.175455836257867537e-01,-9.064110674514777588e-02,-2.621045951079136738e-01,3.372155605865979205e-02,-3.674781378672142274e-01,-3.178282295548939818e-01,-2.200555822379999804e-01,2.508357913330058753e-01,3.369344267961306150e-01
-3.983483989560341332e-01,-6.068974054975537907e-02,-3.275911349083263646e-01,-1.030503519906305343e-01,-3.723529466128369658e-01,5.608050053189488765e-02,1.320491968305853026e-01,4.105225949340313152e-01,7.346056998018458961e-02,-7.111092280366131113e-02,-4.729315131736673838e-01,4.990658150284603412e-02,1.446609943642696849e-01,2.320773303814168131e-01,4.327429779340091764e-01,3.156667294527914502e-01,2.792806759150571749e-01,4.026360853995565314e-01,6.324777624608145243e-02,4.342961672999610667e-01,8.087074434023006075e-02,-3.765909808609521070e-01,-2.902559152296757539e-01,-1.892687910991737721e-01,-1.380762490443150359e-01,3.697050200035555956e-01,-7.550194197936571650e-02,-4.340779683979631431e-01,3.094326298607382175e-01,-4.970103467284211485e-01,-1.516226874710490946e-01,2.635287511727512633e-01,-1.830163343582544566e-01,-2.537794252385570659e-01,2.964141999371623371e-01,9.762321110938915192e-02,2.763867875661611961e-01,1.633844020618027970e-01,-4.995884422882119758e-01,-2.248234226618114340e-01,2.963658331700741999e-01,2.319028286049577559e-01,2.926134761068094892e-01,-3.927012916680848176e-01,-1.731435886704523475e-01,-4.584301588723716514e-01,-4.012155737273595535e-02,2.487892113682939332e-01,4.879551691573759120e-01,-1.956001836853397610e-02,2.282442331643023958e-01,-7.451457465393085400e-02,3.667971742046521877e-01,-6.148585749791523475e-02,-1.106794421196244799e-01,-4.487204378303138452e-01,3.675294444501526203e-01,3.253655689419673314e-01,-1.054504985735358891e-01,1.073854097138769170e-01,-2.390159104512970534e-01,1.721123785480398183e-01,9.476198364475021951e-02,-6.528601294137064727e-03,-1.780253933496596108e-01,3.863382028974394200e-01,1.364757688773748645e-01,2.344488373149794247e-01,3.082911950160034942e-01,-2.869919217382248533e-01,-5.005406585378906481e-01,2.019866141321120245e-01,1.608241720373959349e-01,-2.609478691916313209e-01,-2.840122197641583579e-01,-2.284453989952659608e-02,6.250352050999313791e-02,2.366230431860679995e-01,-3.113493272835756720e-01,-1.223665158972930822e-01,-4.692490821980369042e-01,1.739647304281981555e-01,1.870647523571570547e-01,-4.454616276912505279e-01,-5.793119366840678713e-02,8.565032721985053887e-02,2.857614399090953050e-01,3.257428144268713077e-01,3.021679361430985034e-01,1.946516974076002993e-01,1.853644435777963284e-01,9.548325723622373695e-03,1.644752050967428214e-01,4.654606265246540031e-02,1.840794845213752362e-01,1.864924419387667676e-01,-5.407839820056061647e-02,3.317520234436622806e-01,-2.542742572601601192e-01,2.646370573656015024e-01
-1.334725586967238642e-01,-1.153214095253750626e-01,6.577738235114417853e-02,-1.325412843907502747e-01,7.284042988155649268e-02,4.732418362347868279e-01,1.624635891547852318e-01,-2.553120650914656939e-02,3.693926491679470209e-02,9.470030757128472532e-02,-4.598400876472105714e-01,-2.537649055832837952e-01,9.488812351683015289e-02,-4.034346467480498521e-01,-4.396035709135674985e-01,4.762811168130975936e-01,3.195229865186487994e-01,-4.300835029531184794e-01,3.992523051668370737e-01,-1.986808971779100430e-01,-1.015087585856195990e-01,1.837298619841727099e-01,-5.095434200107552131e-02,-2.171151238810949125e-01,-2.300791304353240752e-01,2.697836297266496541e-01,3.099373378847105134e-02,-1.633915104117500683e-01,-4.118393519546852954e-01,-5.024949807419657466e-01,-3.059218440625361968e-01,-5.845869300605791574e-01,1.860905334202341832e-01,-4.427308066457370517e-01,4.354935163366850381e-01,-4.226064654067530069e-01,-4.656485137250370721e-01,1.987622479166415990e-01,-5.221967824117353940e-01,2.961411206757471118e-02,4.717410453515467061e-01,2.478194126492439531e-01,-1.317840369817823987e-01,1.369515450543511148e-01,6.245965255495314165e-03,4.473027181305946898e-01,2.006429589178026773e-01,-2.067775174481356337e-01,-2.904928880465398877e-01,-3.446890584734788598e-01,-2.449031101095002494e-01,2.136020940453592365e-01,-2.358049821868611340e-01,-3.898343414409738417e-01,-1.699051984074829713e-01,-8.874922751929706366e-02,-4.648942502665152632e-01,-2.689504628678959439e-02,-5.663778520607246070e-02,5.029486528688851266e-01,-4.044925902647738408e-02,3.298938574283277747e-01,-4.596749018959337962e-01,1.370259214893017052e-01,1.137562678942661692e-01,-1.375444755889506931e-01,4.133976524079089332e-01,5.163497207998807292e-01,-1.872155416031921482e-01,1.292132170192481465e-02,1.184512609322032617e-01,6.382701798117379477e-02,-1.140055346070161096e-01,-4.550000568000009404e-01,2.791019358903365499e-01,-3.254909325693486899e-01,-4.626730681041232862e-01,-1.987344865296344076e-01,4.910698641221271643e-01,3.423547994790676618e-01,2.926599065146580081e-01,1.937797904237761881e-01,-2.351459084788596887e-01,4.043184736305734939e-01,-1.724811060958219289e-01,-2.621154631978442340e-01,3.082923334944405735e-01,-3.427408909694920625e-01,-2.395320101622547271e-01,5.299633158832892793e-02,2.338256032729718881e-01,9.558692528204981720e-02,-8.253092466916961412e-02,-1.125335334025393680e-01,-3.387866166368052601e-01,2.324016979004404071e-01,3.211398131307924841e-01,-1.015232543344659656e-02,-2.921402855792301634e-01,4.373138105119386276e-01
1.913749251114233718e-01,-1.407826023015859851e-01,1.996722050850763819e-01,-1.213986401991087177e-02,1.079253137034512228e-01,-4.160516520877255431e-01,3.220544492741585496e-01,-2.879197516631542553e-01,2.982846368653235269e-01,-3.435147181994758769e-01,4.580689277302632534e-01,1.032433435082961114e-02,3.659897666988399800e-01,4.407518674244635393e-01,3.482462755727713799e-01,5.521907899143247214e-03,2.423583376279332124e-01,-5.287156501118316365e-01,-4.506111325777348853e-01,2.446611707159845606e-01,-2.590436135702049447e-01,-4.841976368694207999e-01,2.005748064169631528e-01,4.555941176848014584e-01,1.356044046679546478e-01,-4.735797715657790730e-01,3.105643780199260351e-01,-4.680160019741317901e-01,4.053206743555808900e-01,-3.550921299007119281e-01,2.049282452594953716e-02,-1.622571926098462514e-01,2.138617345197255659e-01,2.141291893318145456e-01,-2.570146085101566308e-02,7.458099817425610512e-02,-2.875052556947691601e-02,-4.067578605506171341e-01,-2.720778928817877973e-01,-2.595266324383734835e-01,-7.894866170662398486e-02,1.007825861665394840e-01,3.270525878342147030e-01,1.976149527259195848e-01,-3.040219920032350212e-02,2.397915313498789613e-01,-2.155703372708037413e-01,1.348440268098779204e-01,9.705615777023028634e-02,2.188445014566413674e-02,-2.908533085514752436e-03,-2.303741605200421427e-01,5.166849220980532925e-02,1.038625140135842062e-01,6.887687465973953843e-03,-2.704559430575605439e-01,-1.637208514579297780e-01,-4.092843178936287907e-01,-2.919280854418394855e-02,-1.812600405437796505e-02,-4.406553220674004900e-01,6.191255298922649503e-02,-3.704925253407159169e-01,-4.490605296626618004e-01,3.405550724639044291e-01,-7.000631882595345634e-02,1.762919023224364945e-01,-8.017063540674091923e-03,1.697546240155888703e-02,-3.852488432298078330e-02,4.674507538682939889e-01,-3.468726032869913212e-01,-1.867058837753529654e-01,-2.032349074134025269e-01,-5.110052073556625718e-02,-2.528535630448853766e-01,1.649314382129075385e-01,3.331806546952959525e-01,-3.279776802960243653e-01,3.429144146737183596e-01,-4.301892876152232370e-01,1.541750779020279183e-01,-3.771717321618672236e-01,1.781215932786909817e-01,1.701515253381752912e-01,4.425197901303306453e-02,7.965125645327823800e-02,1.506093410521675280e-01,-4.556786473474152416e-02,-4.309973065875855047e-02,4.301975374312280720e-01,1.334554585479899858e-01,4.923301013405949611e-01,9.463062088710413877e-02,2.593679254936553241e-02,-3.679447512205222259e-02,8.036330105474960572e-02,-6.262771911598731533e-02,2.519523927403564123e-01,-8.238002479712279447e-02
-1.693994130384412489e-01,2.050399685224841284e-01,4.831187027410512869e-01,6.449632200308214047e-02,3.820200753268520599e-01,1.517235969673165208e-01,1.353844474610630122e-01,-4.588908454052315761e-02,8.466670842964435506e-02,3.432687253542407446e-01,1.976723473944543008e-01,-2.640798506372453169e-01,3.310273551251110002e-01,-9.423829074601701439e-02,-4.109397094039229925e-01,-3.248849291169488840e-01,-3.237307039393316210e-01,-3.027916819444220198e-01,-1.928625268497036749e-01,2.865111969042670736e-01,-2.884354462785789774e-01,6.226686563382290152e-02,3.185790765131830682e-01,-1.267911075588077328e-02,-3.159182960689616571e-01,1.412923427270249832e-01,3.731684517755781000e-02,-3.709816233181340572e-01,1.610044096743827036e-01,-7.742751670084557780e-02,-1.727232417803201137e-01,2.424626453690578165e-01,-1.852663165130121192e-01,-2.854837953342352352e-01,-4.000710894868854117e-01,2.991332980335170699e-01,5.899805417417067210e-02,-4.696935878165759415e-01,4.383933560378066030e-01,-2.985640578402886103e-01,5.502661713753505268e-02,-2.076569362194139734e-01,9.622882695177976953e-02,4.451050368371540222e-01,-2.602483674930580748e-01,2.141884825419721194e-01,-4.673028714382145288e-01,-1.995309174483187731e-01,-2.905783515454989363e-01,-4.206808117305088079e-01,1.089139388705963746e-01,3.273606958663556332e-01,1.799942099610560564e-01,1.871304518023330643e-01,-2.805883867428844020e-02,1.799785613090925385e-01,2.914772589560468696e-02,-5.108385578838514629e-01,-1.587830599945385945e-01,-3.123304760981386319e-01,-9.215642228257982238e-02,4.460189313583680371e-02,-3.684379564882028779e-02,1.959665166447975837e-01,9.977198593935041049e-02,7.700519845330537627e-02,6.112015276253755271e-03,3.900966668077720523e-01,3.352790174459021610e-01,2.393585934997957132e-01,4.837452727268389263e-01,2.017521389670265120e-01,1.786029063210188561e-01,4.933821328916357940e-01,2.439482186796792726e-02,1.532768079573672282e-01,-3.449735912087401601e-01,-2.832303465448236801e-02,-1.494893412291266876e-01,2.209774070320971728e-02,1.332129967147913617e-02,3.402885350104136175e-01,4.629920694154089911e-01,4.332334657152496771e-01,-8.404430860329254946e-03,-8.690418906699828167e-03,3.493645197581083384e-01,4.774492443193100177e-01,-9.254438950443959200e-02,9.533697836909169054e-02,-3.881678280266257497e-01,-3.476171306575488451e-01,1.897964822059033385e-01,-3.809397038423920079e-01,-2.819129673468676600e-01,2.388096444908248961e-01,8.868986769448073543e-03,2.864466759487842989e-02,-9.051771666402150252e-02,2.087366455892736283e-01
1.562056624016352202e-01,-2.473590906560384772e-01,-4.589617765799630100e-01,-1.300774115099075645e-01,-7.244718784952718094e-02,-9.979259833785943112e-02,-1.096731956826336590e-01,-1.520139095787190198e-01,3.184144138941866209e-01,4.114071005335010467e-01,-3.395815579416919805e-01,3.757681813771168167e-01,-3.370806696661901025e-01,1.616908900124771620e-01,4.299016910225987587e-02,-3.649037674486658306e-02,-3.377904790086298514e-01,1.451733417351593891e-01,8.840536828175060702e-02,3.665541209729243355e-01,4.951519953259232998e-01,2.247172903331869365e-01,-1.441076015174147795e-01,-4.784790059720716582e-01,3.179690072199825024e-01,3.496075549646920355e-01,-4.773350623234179357e-01,3.392496756818159098e-01,-4.202524157636760571e-01,-2.993476223908442257e-01,-4.488340521892402180e-01,4.675037637194034285e-02,-2.571487463748338698e-01,-1.906952190471796205e-01,9.399683633954363654e-03,-2.904552937465078588e-01,-2.619484207182246061e-01,-2.417063996638112722e-01,-3.383870496176620835e-01,-1.570245745001343507e-01,-5.175668978731085348e-03,3.757469449118375215e-01,-3.760611745099283754e-01,3.822686683007140429e-01,3.970210005071047599e-01,4.807766343770361606e-01,-2.474738943645557118e-02,1.507033958213435942e-01,-1.744772412427019193e-01,9.851710195637190803e-02,9.986006360545654492e-02,-2.970021080903884614e-01,9.109759256265980917e-03,-2.669774621466980968e-01,3.075448799843942815e-01,-4.862038838358960224e-01,-4.162516813618769573e-01,3.414631241089777225e-01,2.522135712396454954e-01,-4.650698309606572933e-01,-2.698816530106698530e-01,-4.105190045489932604e-01,-2.117840955454793617e-01,-3.623939664466757082e-01,-5.268574873746756371e-02,-1.393509344710351823e-02,-4.338597166532158766e-01,-1.454648917016970189e-01,3.628214531947607790e-01,-2.978093154039575530e-01,2.502407962794445107e-01,7.551732456632855028e-02,3.978323651820133144e-01,1.669192309499166471e-01,8.953922832418248490e-02,1.272606478904219351e-01,2.129137087277503115e-01,3.906853018199643590e-01,4.622322060056837101e-01,4.253880033678966166e-01,-3.360417669207827474e-01,5.811878197709031794e-03,3.126465759551853574e-01,2.200584317093902675e-01,-1.494293727541153305e-01,4.022278975207632667e-01,-1.592520481572350100e-01,-9.948615763600446305e-02,-3.394189531540465210e-01,4.566040487556807803e-02,6.510606842665986327e-02,-3.209347938587432669e-02,2.332406588118021706e-02,4.312621723572460652e-01,4.236540103356815079e-01,2.297725007985934320e-01,-5.149534070234071392e-02,4.586196543050738428e-01,-5.941653606619690803e-02,-1.562002232156476933e-01
-1.066680747444720273e-01,4.192291037959987032e-01,4.792553009235533401e-01,2.865424165359129471e-01,-1.804559138309411725e-01,1.930136927275094283e-01,-7.542880721533330723e-02,-1.727673829428206520e-01,-9.905861934786577838e-02,2.440134325140842775e-01,1.999812262544376495e-01,-5.308007886635764810e-02,-1.126658672691834562e-01,4.944266001469547755e-01,-3.416325646137187699e-01,-3.061490924040795591e-01,-1.802653548287451446e-01,1.605389542391049418e-01,-5.012297008294309686e-01,1.535449159876784986e-01,-4.633591701152874887e-01,-4.544400948236808624e-01,-3.129045077359725591e-01,-1.576745198149231142e-01,2.452390683862173126e-01,3.758490040429536272e-01,4.202768459750788055e-01,-1.260611007769327496e-01,6.339649737512055572e-02,-3.755186712198889665e-01,-4.716940454122829918e-01,5.246735428490603148e-01,1.387906849750775440e-01,-3.947858748813293794e-01,2.414941221810167349e-01,-2.715655180069463381e-01,-3.493280679991032089e-01,-2.844267622428778841e-01,3.456839081015667947e-01,-2.310970661788959712e-01,3.595050155993219643e-01,-4.715752697083703399e-02,-4.456622731086734013e-01,3.559411387080900213e-01,-1.444854982906137661e-02,3.595530542765102422e-01,-4.682468710127534184e-01,4.550162560837380799e-01,-1.597911724247350895e-01,2.662695643956958149e-03,-3.679103191341915324e-01,-1.667312062502969150e-01,-1.548255140777123062e-01,-1.740646541179457218e-01,-7.356638430800896411e-02,-5.995433310664090298e-02,3.964976746889717352e-01,4.912036680122990051e-02,-2.611964059281462469e-01,1.984940526344937117e-01,-3.102072095060320889e-01,-1.583386290180899617e-02,-2.627274172539484920e-01,2.386355492757873953e-01,-4.489486224459401931e-01,-3.102628584308509962e-01,-3.140397763681472276e-01,-3.346052157701258079e-01,1.981033244121193637e-01,-4.111417325403534662e-01,4.085956942347813703e-01,2.283439978374908197e-01,2.753632450770927553e-01,1.992418362009192589e-01,-1.496792514355183880e-02,3.956290115056854129e-01,-3.682396752014913677e-01,-2.789987004676698357e-01,-3.005650858047809737e-01,-9.329750888472411463e-02,-1.020140133126079957e-01,-3.003573970143780802e-01,-4.673501773535977677e-02,-3.723912351742431764e-02,2.632803878797877403e-02,-1.387730529134684199e-01,-4.071465580917331684e-01,1.398193086690394660e-01,-4.259629687903497830e-01,1.679368854454257320e-01,-1.278264415967957368e-01,2.273916824680812521e-01,5.550826569875690758e-02,-3.030529566732138580e-01,4.191357601431021096e-01,1.698604128795415391e-01,-3.117117856895557787e-02,-3.809372460871146560e-01,4.204906868534062925e-01,3.534317596273548467e-01
3.368262754520474217e-03,2.380886650286112571e-02,-2.939931920611515981e-01,-3.264788385869303311e-01,-3.765771900316023379e-01,1.156670747843363267e-01,4.289341096826688737e-01,-3.952487328210373407e-01,-1.272888806313073329e-01,2.780743861856319055e-01,3.092328415494409732e-01,-2.589953420910549031e-01,-1.012102179362111276e-01,-3.954073119738329423e-01,-4.852296368954625572e-01,-3.941391180752438217e-01,3.211759257594418715e-01,-2.219272866702956259e-01,-1.536526182655433004e-01,-2.036533614269715742e-01,4.166329809646662219e-01,2.393422700768589040e-01,2.949835357317668466e-02,4.742572818685513725e-01,2.816402814817837164e-01,4.325621454812476896e-02,1.683089576230447151e-02,-3.483439009764944805e-01,1.156659619315585641e-01,3.624990367922519274e-01,-4.262566806626872928e-01,-2.956194727588743257e-02,2.771621025826824236e-01,-3.404816376917840226e-01,-3.759769041375102955e-02,4.675447187442490216e-01,2.486171172203574531e-01,-1.443296569748957203e-01,1.359513362709816597e-01,-3.324363749727372586e-01,-3.334889921462664275e-01,-7.474621323495080072e-02,-4.149890347158833315e-01,-4.414309410496173869e-01,-1.120804836542848432e-01,-1.081109889660607920e-02,4.118906641383150435e-01,-4.172355304552632926e-01,3.432870281592877437e-01,-3.423228575847320765e-01,-3.841533584829827097e-01,-1.192395409843067799e-01,3.727674168943202471e-01,-5.280103737704561900e-02,4.335984417951147529e-01,-3.878476159169856885e-01,2.269090527313298855e-01,1.679623962874398357e-01,-3.829421797266430172e-01,-4.274110659497039055e-01,3.107018679396726935e-01,3.840361936688013733e-01,-4.252929134606737160e-01,-3.106238020016778290e-01,4.683712485768024569e-01,-2.314535939180547008e-01,2.395879353852640170e-01,3.076405192745718109e-01,5.117822444046933317e-01,4.475924730153765241e-01,-3.353511062670078147e-02,-3.460168098157216932e-01,-4.056003168785742713e-02,-2.444956435241738002e-01,-3.965051524886698542e-01,-9.751432372373901314e-02,3.561615687398518859e-01,-7.344688426098430756e-02,-3.788289185159823269e-01,-3.353627937082829802e-01,2.560323168484626710e-01,-7.648738007101947914e-03,8.913030491563796176e-02,2.940506338854024793e-01,-6.297261711450719002e-02,4.989734038958335005e-02,-3.764107418632627322e-01,-3.698670073372801181e-01,3.228324924029782328e-01,1.241159220626205685e-02,2.270060762749652739e-01,-1.274527399716964549e-01,-3.761536235791576033e-01,5.110894333020052360e-02,-8.468510084105820845e-02,4.401188236814589372e-01,4.326166863460390033e-01,3.997755851663506443e-01,-5.238581664932465687e-01,1.851182999138115404e-01
-1.862120659798275624e-01,-2.534899024757981678e-01,-3.525140654523620243e-02,-4.655894603852010483e-01,3.638369411804935616e-02,3.857256240176926698e-01,1.760217977464688943e-01,2.765315898769895586e-01,-3.810782151187449562e-01,-4.919423126710248950e-01,-4.466592678779091052e-02,-2.478001270068257711e-01,-3.017514301780729324e-01,-2.556482755131539997e-01,-6.079949391970147776e-02,2.696132078275496613e-01,-2.767995871789397100e-01,4.479038661296699253e-01,4.470060973367242507e-01,-4.006138682491855452e-02,-3.784751137878739069e-01,3.390772261911315644e-01,-8.643504380351367533e-02,3.211395308030511320e-01,-4.516944822852346220e-01,4.247444520316726035e-01,1.854724713294373939e-01,-5.804179973048578800e-01,-1.594002458980205150e-02,8.955124967046861062e-02,-1.491293433815072365e-02,-2.496647677995572634e-01,1.570090642633342193e-01,-2.147756579357646411e-01,1.171982120157799706e-01,1.735580831628084353e-01,-3.144122404639013157e-01,-9.728891372115701375e-02,3.729361423569091949e-01,-3.082081103521391308e-01,3.747562947144881806e-01,4.106229020229015120e-02,-3.597784106427851514e-01,5.513420289987864820e-01,-3.334418826975585337e-02,2.992771982240209905e-01,1.619968709812854568e-01,-4.358133161207255468e-01,8.749771839200944090e-02,8.440309867067880001e-02,2.317985885799256351e-01,-4.283968919407772358e-01,-1.399831847897698434e-01,-1.396790050971180586e-01,2.613182209107662093e-03,-3.758228650257217779e-02,2.070499800443195704e-01,-2.756536211601576802e-01,3.357455851760818288e-01,-8.643152409704316086e-02,2.091349783030315157e-01,1.042848826593686662e-01,1.725718475914107819e-01,3.797312497030774781e-01,-2.470575565577417809e-01,-3.454601157590049820e-01,-3.234524464886912032e-01,-3.376020635775900947e-01,2.087411438216747739e-02,-3.039375133081329561e-01,-2.045030213963071331e-01,2.442694568997579863e-01,6.922401785215022418e-02,-1.777494280739854160e-01,4.634063554889778502e-01,9.205769852038994672e-02,3.028204983726551225e-01,-1.224784558042680827e-01,-4.518245064286847690e-01,2.629603024460031580e-01,4.308362031820468507e-01,8.373170768183965662e-02,3.387490740182373949e-01,2.569913443839968448e-01,-2.761849446683975473e-01,2.590706445584520790e-01,-6.000612773045066461e-02,4.645921215211747113e-02,-3.953525546863884688e-01,-1.436104654068590114e-01,-3.805763228398957310e-01,-3.745642349489411438e-01,-4.359243166292190441e-01,-2.579068175680261921e-01,2.959478539855334156e-02,1.274388885618291389e-01,-2.096494493896184919e-01,5.239360933140174009e-02,2.853651131031399446e-01,1.554644441720949011e-01
