-3.655673039290054938e-01,-2.707017327018428343e-01,-3.686721978718183190e-01,6.253821338200502011e-02,-4.512817394678794725e-01,2.189718718057034608e-01,-1.792355796507990873e-01,-2.777058742513371370e-01,-3.046317007924843612e-01,-6.305929841672919256e-02,-7.565009299538436038e-02,-1.802020605757937710e-01,-6.760999123633533447e-02,-3.997543470968532020e-01,3.769832311020478444e-01,-5.345432389870015399e-02,-1.610379788282882974e-01,-3.975843993129195009e-01,-8.986222357666859978e-03,1.490908714846644369e-02,-3.113300243128698797e-01,-4.131089015534801234e-01,-1.334504352746067324e-01,4.361777408970604619e-02,3.673132300855264099e-01,3.234983143735415956e-01,2.755734297196449911e-01,7.670663163783081329e-02,-4.961033939195123033e-01,-3.308319092204683454e-01,-2.705302458607649618e-01,-2.407669546924627035e-01,-6.981059829827601995e-03,3.403762496478728722e-02,4.690051731316132178e-01,6.408295855769717553e-02,5.545584424210055902e-02,2.963032654180920988e-01,-7.572600656337327707e-02,3.061195138986008701e-01,-2.326327453076452723e-01,-1.571964431770486170e-01,2.884862715625927665e-01,-5.038651439153175593e-01,1.115217036711649429e-01,-3.376468927112383778e-01,-8.881423650815845061e-02,-1.795558341055700224e-01,-7.807951238196120247e-02,2.600335371140101159e-01,-2.820706198945571730e-01,-9.214741577031004827e-02,3.247700813560740474e-01,3.803335180927781556e-01,-3.938833912896965717e-01,3.375279717220628362e-01,-1.183299869552133787e-01,-1.737275585549598045e-01,-1.107573811158322763e-01,-3.500875879532422408e-01,-3.853947704329751534e-01,3.290027283629208266e-01,-3.779148008930892644e-01,-2.867345475762572149e-01,-3.216114781115606558e-01,-1.640817827454919553e-01,1.961302914974168976e-01,-8.141086421484219904e-02,-1.309453266362157198e-01,2.284090207729439215e-01,-8.897209492081084581e-02,-4.422876019383221724e-01,2.799228187335229268e-01,2.371967419967012103e-01,-3.774550624200854188e-01,2.413917245022821900e-01,-2.162437494574518393e-01,-2.852055029117249105e-02,-4.322803527456940964e-01,-1.846471213863747629e-01,1.154049445271275731e-01,-2.304879399348084279e-01,1.079664766673841120e-01,-3.502165461176087180e-01,3.866999177036708479e-01,2.148679396372772388e-01,4.337485297376004190e-01,-2.444386148677749615e-01,1.952051146503087087e-01,3.677469086396357306e-02,-4.968989489877752574e-01,-4.768406233362295077e-01,3.352941719758428252e-01,-4.530935225501783736e-01,4.909978912975544452e-01,-1.746048342602924131e-01,1.475413292073558535e-01,-1.100452581374989081e-01,4.509598100018124001e-01,2.895086279975001564e-01,3.340533305736556602e-01,-2.295423769821615945e-01,3.304865758750354932e-01,-1.868501371841211345e-01,-3.105098708433888244e-01,3.999339684878247536e-01,2.579542350780905102e-01,4.009884208812012907e-01,8.692258437719427300e-02,2.623108782721958465e-01,-9.791974054437077579e-02,6.744620841790358338e-04,1.922654108475460311e-01,9.657198169913339125e-03,3.186257836248997388e-01,-2.029618257140699267e-01,7.270236684324106469e-02,-4.257961673524781054e-01,-2.979978013307388318e-02,-1.866045455032954992e-01
3.208609453575804737e-01,2.522928836262207097e-01,4.404058255031149671e-01,1.238137773742969405e-01,3.010065625857905602e-01,-2.880461629403511248e-01,6.339174953320957095e-02,2.129481322341330585e-01,-1.577646098066713409e-01,-3.157947167933840976e-02,-5.141997243609879725e-02,4.845778239491515538e-01,8.824755312207090141e-02,4.410107058140407682e-02,-4.520487197547042868e-01,-6.007271916450301896e-02,-4.202167497016557896e-01,-2.936840893158925159e-01,1.777655129677535861e-01,-6.705411833940327915e-02,4.228114387012599229e-01,-2.043621163310225253e-01,-1.454158141446369179e-01,1.941183385636472414e-01,3.392073027907436394e-02,9.474142324097811763e-02,-3.309672638142439061e-01,-8.894410605830901928e-02,3.019004287322151203e-01,-4.109167615622694725e-01,-2.301397306438520696e-01,2.527667120096513953e-01,1.973843272255524084e-01,3.998673471362238496e-01,2.228429675727365833e-01,-2.577898857716355296e-01,4.782098881877218655e-01,-3.688326839848606875e-01,4.388636386230246877e-01,-2.904979064093433094e-01,3.198416452360373485e-03,-2.746643903946338061e-01,-4.889629885202511489e-02,3.554400820435194563e-01,-1.411477146328493359e-01,-2.462062204943786525e-01,-4.234106947954516809e-01,3.823827402809838460e-01,2.245130226375753324e-01,2.756961999821809228e-01,4.732279611657261298e-01,4.187386955319014059e-01,-2.680219089846741856e-02,5.543502125862554558e-02,-1.225403831431392393e-01,4.804341561191157184e-01,-2.911409184561447039e-01,-4.742471865551358551e-02,-5.219122064622028732e-03,-2.272635393122054426e-01,3.981282151420909576e-01,-3.390223724300430175e-01,-2.526250835277370488e-01,1.221031807937288105e-01,1.655266125649659803e-01,-4.273945664457157734e-01,-1.049892346852195624e-01,-9.791342883960865717e-02,7.827291392749260307e-03,-3.418012169128106792e-01,3.006136486449417777e-01,-1.263311501854137708e-01,-8.826515669870690917e-02,3.750770961073258691e-01,3.767761802131120996e-01,-1.215420231220537967e-01,-2.500697665918076296e-01,2.971986441867876527e-01,-3.732570543037356803e-01,-2.310654408104662397e-02,-3.433007793479522229e-01,-1.724450044668137949e-01,-3.066496877685994105e-01,3.194100676411492645e-01,3.505569960236261384e-02,-2.020720765796765739e-01,-1.161068743936182618e-01,-4.340646520419785825e-01,-3.246492243854738335e-01,-4.178938269194826804e-01,3.704764389793826496e-01,1.063849876538963957e-01,-1.759674258075100695e-01,-1.473804517183242013e-01,2.218735361563072273e-01,1.026607420856946312e-01,-4.720561594668734040e-01,2.892851673933020118e-01,-8.675958473850967079e-02,3.900879461203187182e-01,2.037331375850389426e-01,4.977168882438864905e-01,-4.476635271755213807e-01,-1.572402755533407470e-01,1.150882305811088413e-01,-2.476203940179649010e-01,2.817029514130816592e-01,3.169126723509723687e-01,1.301921678019196393e-01,1.247849349628234877e-01,4.548016163614624352e-01,-8.367285352874568455e-03,-4.532571988168684896e-01,-3.039119604380037254e-01,2.245948800862613282e-01,-3.580671600623886452e-01,-2.186687192631328325e-01,7.789100742038103375e-02,-8.474648722573388526e-02,2.682882873254712960e-02
7.453169272393136979e-02,-2.421506667200476748e-01,6.685235372974390744e-02,-4.791223358788481712e-01,-1.024801469129816983e-01,-1.282172489524342762e-01,7.211679607629520317e-02,2.712152085346876129e-01,4.457518256606349955e-02,8.117999508321248336e-02,1.315214932526719005e-01,-2.997164430657119905e-01,2.068049495745254152e-01,-4.635995787604332286e-01,-3.482442404763157473e-01,1.242810929398611430e-01,-8.247175034335846311e-02,-9.769407890817317919e-02,-6.724091254193953482e-02,4.296675947685390518e-01,-4.469909372989679386e-01,5.394100839259720337e-02,-4.601768023013725895e-01,-3.454495787656021721e-01,3.549200613615941524e-01,3.395329214933729550e-02,-2.570159727274689415e-02,-2.078943089308834258e-01,6.302413253350273858e-02,-1.658566345279401666e-01,-4.673686840579567292e-01,3.502537162741651833e-01,-2.324120543721353849e-01,-9.164303671379878113e-02,4.076233804808808703e-01,3.465104663323779755e-01,-1.639146205985189120e-01,2.219361896813773494e-01,4.382781208656750249e-01,5.593223631947210478e-02,-4.622102856215821176e-01,-1.329263107867230675e-01,-1.930361171217112939e-02,9.372707827080892229e-02,1.618289530833283418e-01,1.885701524866489065e-01,-5.027903182261502790e-01,-4.275898882684763258e-01,6.570560796862010000e-02,7.657014496104835866e-02,-2.682696109773399784e-01,2.706869392308004496e-01,2.093402183024985486e-01,-3.302158748007069100e-01,3.714640746800719207e-01,-4.986795005456674534e-01,1.508920436013467536e-01,1.323746548192828443e-01,1.414660880281598809e-01,1.716788648473222267e-01,-4.543724401059851536e-01,-2.368137228001083172e-01,-1.928599003640585341e-01,-3.816303103979247768e-01,1.174892811626488398e-01,4.165175924628509163e-01,-3.809835631360702357e-01,5.144492999313626802e-02,1.661799122706723308e-01,1.576272901947362304e-01,-2.175084496562851577e-01,3.765258132418454196e-01,-9.346756202536229963e-02,-2.727876021825804131e-01,-2.323405736418566736e-01,3.824338568458875431e-01,-1.686239373983046963e-01,-4.621821903194878733e-01,-8.124974304029215777e-02,-1.003493866536508683e-01,-6.853979514793730188e-02,-2.268999672828713454e-01,1.473566492597859490e-01,8.166986405739184995e-02,3.957994866715108806e-01,1.367787131128151146e-01,3.445022426541329286e-01,-2.806635818862723286e-01,3.586190825309785168e-01,3.446188315260386714e-01,6.002675477954152322e-02,3.676087618130922108e-01,-1.073957599343977609e-01,-2.885672810074742523e-01,-2.964717270704307905e-01,2.145758806989780942e-01,1.040523500742563390e-01,4.224146323937593150e-01,-1.644046567832272987e-01,4.797166471639585095e-01,2.214763930686724780e-01,-2.686033404388063484e-01,1.347331610839284932e-01,3.131678918525410138e-01,-3.158024846897831694e-01,1.760883821706049901e-01,-3.100271131682430514e-01,-2.429513623791461352e-01,7.229139400105137614e-02,-3.841087332732671111e-01,-5.004388855123149682e-01,-2.141165672122512520e-01,1.549634419281620545e-01,3.277916515697858468e-01,-2.780110524069061007e-01,-4.308601620974202850e-01,3.620803865972949676e-01,-3.021636810900635850e-01,-2.853749370691831544e-01,3.901963651653522214e-01
-8.648239319742799525e-02,1.248643293371445584e-01,-1.013933907679235580e-01,3.892133946220956986e-01,-1.675779589496546040e-01,-5.745340848423689112e-02,-3.513670599692136909e-01,3.511178126654175280e-01,-1.279533453813087307e-01,4.898592509492878944e-01,-9.844362083016257314e-02,1.608908502511929572e-01,-4.377485142747304658e-02,-2.799396341004478997e-02,-4.475859940604240417e-01,-4.823673812116430759e-01,-3.356533760089563390e-01,2.600688516539373732e-02,4.059766387990833003e-01,-1.263809717083602124e-01,4.594180542820021085e-01,4.550358170025057825e-01,1.007922197385978935e-01,3.473761495588132409e-01,1.324847930908281401e-01,-3.664089694780016671e-01,-9.021714475602432559e-02,-2.574266766135003756e-02,-2.146654810053439388e-01,-3.154384804613760140e-01,-1.523303651280615845e-01,-3.873658419660648278e-01,4.865921666877091045e-01,-4.099845318337641542e-01,-3.085667940217113325e-01,2.500750259583600088e-01,-2.478422259843850728e-01,8.282266261739093874e-03,2.796377730405132794e-02,-4.743325735550628641e-01,-3.708446805326044426e-01,4.738937982958044137e-01,4.429983747788877602e-01,-2.010545969211868789e-01,-1.624458011811179547e-01,4.986406847706168488e-01,2.212185158511576766e-01,-1.813719417569611692e-01,-1.352179475645358120e-01,1.630230612317359606e-01,-1.446246774230422168e-03,-2.156571805915120654e-01,-2.579986501758984793e-02,1.718947377800938148e-01,4.230779424861246807e-01,-4.701966034009884554e-01,-3.211380427943529292e-01,9.032353237634667409e-02,-3.135924323335820274e-01,-4.289955232083844661e-02,7.047565489494403423e-02,3.391304581104832017e-01,5.000042272346155725e-01,7.026087929242200159e-02,-4.882988241248549799e-01,-1.154977421718004077e-01,4.891940801919098525e-01,3.833429435805558311e-02,-3.706393957326114541e-01,-2.645673150511062555e-01,2.397857994407514293e-01,2.176159800869343630e-01,-3.533570378918434729e-01,3.694809851034718817e-01,3.156678278192746046e-01,1.236271073718535757e-01,-9.298939807157473314e-02,-4.039134907234412375e-01,-3.407027410197446815e-01,4.920870523700333066e-01,4.673438056839733235e-01,-1.713029345678455939e-01,2.364916826564694707e-01,-2.704391052307950627e-01,3.503942136268250462e-01,5.675033188797679734e-02,1.921233257823783402e-01,1.068730991041917655e-01,-3.379476146805820980e-01,-2.654486126031880833e-01,2.063144939811754897e-01,9.281183578878879348e-02,-1.861342740982128430e-01,3.838622949258374550e-01,-4.022159206577446411e-01,-4.489694711614357070e-01,4.129275131892244932e-01,3.233394248827061723e-01,-3.730764810741741266e-01,4.987222307248064812e-01,-3.418201929012391616e-01,3.743367610481642682e-01,1.637018993857463356e-01,1.550988025008442628e-01,-2.807974118935976371e-01,3.855750676815449807e-01,2.275392532384221678e-01,-2.623567541491611532e-01,-1.594174085070321489e-01,-3.887967482244361062e-01,1.719650624256096466e-02,-4.709913148393415211e-02,2.394365806013200038e-01,-4.695883808271195670e-01,-2.560385568222386388e-01,1.918070738997010305e-01,-1.166235810284063923e-01,-4.808848324794202655e-01,-3.476646747370530366e-01,4.886234022781159037e-01
4.244475120008120439e-02,3.471669119304878759e-01,-1.840651475260553574e-02,-1.374482531471765967e-01,-2.766082028828372938e-02,4.631134649817796045e-02,-3.599537667598164820e-02,1.675702490917125587e-01,1.232632179349610752e-01,3.875067322849991558e-01,-4.347879973902986084e-01,-3.047124131666290037e-01,4.461333605199473418e-01,-2.206970014790393675e-01,1.155756047423127722e-02,-2.497699828540606015e-01,-2.705317965434478333e-01,-1.032923618267784539e-02,-3.398501269784250378e-01,-4.621998537683015551e-02,3.520431148946912558e-01,3.643756602930053323e-01,-2.182912228033709046e-01,-4.050615611297472829e-01,2.393431616855527244e-01,4.509784303030673902e-01,-4.927379312934540567e-01,-1.549337654549375054e-01,-4.627374183252424555e-01,1.172874126206903678e-01,6.235660937688776093e-03,5.707100360630862346e-02,-7.510240442224291879e-02,-3.224709572423011816e-01,3.668176808910095232e-01,2.522021702018955036e-01,1.087377010571341923e-01,-1.804866093611394995e-01,6.494050645879131944e-02,-4.387439738457242777e-01,-1.240638550658968581e-01,-3.915703041520105648e-02,4.883863232335828863e-01,3.203971148870830843e-02,3.211812849386760371e-01,-1.195394720609646994e-01,4.374431580369042005e-01,-2.552823964310504401e-01,-1.766405595917278082e-01,-9.714256865871266633e-02,-2.992286689277194878e-01,-4.251022510347682998e-02,-5.546333833178075656e-02,-9.188694463071390983e-03,4.499854252637355834e-01,-2.808940424609565611e-01,-4.701965117696260132e-01,3.235831771046596139e-01,-1.038380606566037534e-01,-2.830956829364480454e-01,-2.259867820133157346e-01,3.601472625428103064e-02,9.996958227354038606e-02,-1.303072991987421492e-01,-1.097579657761631883e-01,-4.857367110128982812e-01,4.336401138673010025e-01,-2.595454896380066656e-01,4.586583681040422578e-01,1.096924231893331020e-01,-3.054985379482679786e-01,4.577757646860063923e-01,-1.889426599544631324e-01,-3.777478458745376910e-01,2.946223330658971351e-01,3.984918475748790434e-01,1.344884237465356625e-01,-2.908337095919961701e-01,-3.049864466932045159e-01,1.745038752597164178e-01,4.313311169442121118e-01,4.688917893532337788e-01,-1.622988376367189567e-01,-3.483342760259641180e-01,-3.758184640493985040e-01,-1.788005741308747454e-01,1.157395980323456114e-01,-1.684016334780133184e-01,-3.194932701281562037e-01,3.662634123608452530e-01,-1.594023580447525013e-01,-4.259526997778885771e-01,-2.131685934127343640e-01,1.596704567359655547e-01,-3.029791075263132960e-01,2.653502325391225991e-01,8.746265120712387597e-03,-4.874467719024710988e-02,-4.580809269550997764e-01,2.144491699970985099e-01,-3.447885875139836132e-01,3.446375507083168088e-01,1.268667435349357109e-01,4.043753786558034746e-01,-2.891319200515563015e-01,3.472504559100531574e-01,-8.590126157308208832e-02,-2.146495102634154439e-01,2.102629918822853661e-01,-4.643325969170210982e-02,4.290480364424499871e-01,2.990308336187164628e-01,3.438605477927451082e-01,-1.005028781848997244e-01,2.009466263383448414e-01,7.923998964200261105e-03,-3.512058800486431154e-01,1.664364755154793263e-01,-2.715261971554313036e-01,1.514696819536670291e-01
1.240929689282454194e-02,2.095378633208360153e-01,4.056670214657112084e-01,-1.667101013405075105e-01,7.374709743177412791e-02,-4.779611633617545513e-02,1.232967103319241586e-01,-2.742349273057922976e-01,-1.419903843161058610e-01,1.369788945621873422e-01,-2.384467381068000047e-01,3.882623865394670970e-01,7.004680731798816617e-02,1.834613393063385389e-01,-3.293138154456328737e-01,3.172593257285991064e-01,1.223431752149228315e-02,4.563858579285899331e-01,5.652670876004298878e-02,-3.732485128982034883e-01,1.428054827162776041e-01,-4.801082127718002690e-01,9.896329974483394736e-04,-1.509638903892118744e-01,-3.693639358731061750e-01,-3.663206080523142005e-01,-1.848472681407289653e-01,-1.673055209157289502e-01,-1.057612295947354779e-02,2.199943472781829001e-01,-1.634943475043158789e-01,-4.264028418604771109e-01,4.771564528238117497e-01,3.263127921251668950e-01,3.428018891884591079e-01,-3.899685623567744064e-01,-2.021432970576318155e-01,-1.062605813284461798e-01,3.880286384585355242e-01,1.716937759464154944e-01,4.704457253380084358e-01,-1.123877471554162177e-01,-3.332958694409531297e-01,-2.031646701416617018e-01,4.725158688826574527e-01,-1.761518829097826200e-01,-3.551354794747433874e-01,-6.665340480050901961e-02,-1.200976105114969911e-01,-3.337196911643645625e-01,-3.631719216860225252e-01,-3.435521888188633466e-02,-7.351649610202658225e-02,-4.585300293237294378e-01,-3.500472275889768628e-03,-9.196444684504323508e-02,-3.291321991873192299e-01,-4.154041853981235710e-01,-1.552892206264448460e-01,1.610724459141410769e-01,-3.051133112756410082e-01,-1.903161624681299346e-01,4.485764094542908920e-01,1.529404594793380701e-01,-6.020719573968369431e-02,-2.986800990890626228e-01,-4.734597688996514120e-02,2.966486366386101858e-01,-4.190259012282011031e-01,3.537892288055280998e-01,1.037817569030155818e-01,3.488904131465120906e-01,2.125282581586010744e-01,-2.076894760572828291e-01,4.568740233324089517e-01,-1.092140774153455146e-01,1.042711348685482209e-02,-2.357837608340261279e-02,2.648765393152397452e-01,2.123479693566522053e-01,-2.060319123155459065e-01,4.654743442449810198e-01,-4.892325843356053472e-01,-2.871374446411026904e-01,1.786786858246589837e-01,3.658036929057982278e-01,4.260150690078285951e-01,3.914189534919566005e-01,-1.873098426500801328e-01,1.486912620791537576e-01,-1.755433677738743314e-01,2.672571630145424426e-01,-1.927324475195571762e-01,-1.350310309430002853e-01,-1.663766875350159713e-01,-3.340200342672773881e-01,-3.030582381029690020e-01,-2.606780951945403269e-01,2.708726757337270308e-01,2.672856325883843920e-01,-1.902230502134127921e-01,2.189504168181970467e-01,-1.132597971451545366e-01,3.213528855112843946e-02,-3.630410312269899409e-01,3.620681345036191878e-01,2.806674381466436885e-01,-3.686838562095665073e-01,-1.772604367463539443e-01,1.589167299820909707e-01,2.434463119635152939e-01,-9.629070111568639734e-02,4.827406231389221869e-01,-2.053594310812617840e-01,-4.650960830126735224e-01,1.061582468760330633e-01,2.873917101344146130e-01,1.715215712776826940e-01,-3.852861617769116065e-01,-1.529156151987852708e-01
-3.376956756361098044e-01,2.761531902713561942e-02,-1.564568756163502439e-01,-5.627722251146918819e-02,1.859009672176576144e-01,-4.221204457389994280e-01,-5.249712831138781538e-02,-2.134947127404843159e-01,4.590276064277684642e-01,-2.053705023080888009e-02,2.609448182699677377e-01,1.655556878256044251e-01,-3.900001328849183602e-01,-2.702909222543226631e-01,4.788800191710202575e-02,3.163497820354897461e-01,-4.450834940087456948e-01,1.663770528808142246e-02,1.612410582968565320e-01,-4.236142581537749585e-01,-8.586752228695149203e-02,-1.703488162471821221e-01,4.830687002754029402e-01,-1.688000609179274580e-01,4.527873648613594537e-01,7.329951172738277676e-02,-2.008146748842776219e-01,6.242006451646987808e-02,4.724619290841163000e-02,1.176541236675971158e-01,3.759404741196986088e-01,-2.839511216944192173e-01,-2.364754307046800508e-01,4.044274533991609188e-01,-2.483346380353855798e-01,4.174289142392180740e-01,-3.206616041808860174e-01,2.057055601831412339e-01,9.839798254346353301e-02,2.537973865070867197e-01,-3.789074075535044384e-01,-6.328643704801911740e-02,7.173342035865823418e-02,-4.391008284211892487e-01,-3.015841834442937186e-01,3.246424099326412627e-01,5.034425372902815443e-01,2.300930332799714650e-01,3.963533193044307401e-01,-6.336007991224579250e-02,-3.632689122067962462e-01,3.263794391119735350e-01,1.509160410867226021e-01,4.577391691902221171e-01,-1.099963382444062859e-01,1.262956409484558840e-01,-1.008893709565957843e-02,-3.885969148551131624e-01,-2.153866956886323070e-01,-3.435699743926780014e-01,2.055203543160378510e-01,1.083439800611561005e-01,2.191579289789156310e-02,3.469420232731086906e-01,-3.054742899398815159e-01,6.040772624733071333e-02,-4.608281169147668832e-01,-4.206814267891703651e-01,-7.548651117424104440e-02,1.364483657271977624e-01,-4.226287888248569380e-01,-4.484911678390859913e-02,4.504372732182155420e-02,-2.261386616259541404e-01,-1.773815237053136262e-01,-1.240018871618156632e-01,-4.203904838816480138e-01,-1.733678084667613362e-01,-1.314729538130305075e-01,3.464851534925230125e-01,1.544474541661228911e-02,-3.565575082061995249e-01,1.647070512359231909e-01,-1.703636322318073937e-01,-3.568706935730694418e-01,7.332807971029687427e-03,1.165934581376545237e-01,-2.087614881452173887e-02,1.933896609892819529e-01,-4.514341543088204456e-03,1.041811013281743609e-01,-2.022608889483837324e-01,-3.057402053123052243e-01,9.118211539575132862e-02,-3.725697415101791865e-01,-8.845210354985801049e-02,-3.914116688743128902e-01,-3.008150169599219104e-01,2.633003763603606329e-01,-4.483709594014983479e-01,-8.171768478723261120e-02,-8.204131134528679092e-02,4.215318957825840429e-01,3.107530203540315172e-01,2.455519969432122251e-01,8.703922556159358892e-02,-1.351825630423553193e-01,-4.732397867685396164e-01,-2.239957718810996756e-01,1.472200102608945127e-01,-2.183425040445601364e-04,-1.927930807007008640e-01,-1.695218349870409591e-01,-3.714928352185114524e-01,2.633242791960601070e-01,4.917889783409535448e-02,9.117161908025037120e-02,-4.792718967705160149e-01,2.851068381862067319e-02,2.056612025985759817e-01
-4.801730106349963445e-01,2.682026822601770721e-01,3.496256553918415944e-01,1.497740487220920215e-02,-1.070152857734051471e-01,1.672128948843444318e-01,1.561016552962471438e-01,-9.008717524952096836e-03,4.695875342318645562e-01,4.277311235504324682e-01,-4.577563313395838218e-01,-1.582722919381099325e-01,-9.261290565034058231e-02,-3.189728384552874552e-01,-4.056428751068629768e-01,6.629396944489306109e-02,-1.623572687789072650e-03,-5.771125515603310607e-02,-2.498288704527166504e-01,-2.044804432523404658e-01,3.786852924894319461e-01,3.519990018273375099e-01,-9.215647604505727841e-02,-2.062611110285754099e-02,1.594679961534246349e-01,-3.474675033897103305e-01,3.671308279550423714e-01,6.176344285636677089e-02,4.069977974786876396e-01,-3.301585978010094791e-01,2.571609077733879034e-01,2.930548867335763252e-01,-2.240505442933127950e-02,1.395300491263595233e-01,-1.614606473091897976e-01,2.651175130178722861e-01,5.911755163438054544e-02,2.009149936114202617e-01,3.023878578819978458e-01,-1.991458830187820273e-01,-2.440055563683886652e-01,4.158712225635530224e-01,-4.730102871532038677e-01,-8.429268511205904868e-02,4.131308449987962095e-01,-1.887368728608826984e-01,-2.191472740801776731e-01,-4.980711361399354220e-01,4.081947069291130270e-01,-4.140946516236920227e-01,-2.217734223627124968e-01,2.557436820998216231e-01,4.821667477409206093e-01,4.736465351899561971e-01,-1.695987649308589862e-01,2.315350032167037830e-01,7.425837623005290822e-02,-3.342811885400491234e-01,4.530722210083436563e-01,3.522154363749543937e-01,-3.883640973911603456e-01,1.971599290019188377e-01,-2.402767335559578832e-02,2.564094537055522927e-01,4.943682571413681726e-01,2.707984851163510731e-01,-1.371124897009197152e-01,3.304800975345447700e-01,2.310433173952100572e-01,-4.378455415648130344e-01,-3.218614997522994958e-01,3.193481999066125065e-01,-2.475751233759657666e-01,-4.537884372409410894e-01,-6.555192074219748366e-02,-1.028483521152149804e-01,3.801497418742934009e-01,2.380719607629915857e-01,-3.764713189270597615e-01,3.063658494559664755e-02,-3.498432734072710604e-01,4.291451209933112576e-01,2.330526744841208142e-01,-2.635698438797940968e-01,2.854133928513918339e-01,1.207972261582959533e-01,-3.314410818629883737e-01,-4.927029091044761444e-02,-4.749892547696317191e-01,-4.322790871160022141e-01,2.740865036235432331e-02,1.896598359242951115e-01,2.238147413978517908e-01,-1.693159624473721536e-01,-3.622275493344614405e-01,2.042795166634925885e-01,2.678462393647645379e-01,-4.837371233925781833e-01,2.097814078569369967e-01,4.241276692032266982e-02,-4.872671913891643003e-01,-4.351627052956994479e-01,1.848023339894595829e-01,5.522448529584978588e-02,3.396200142844941761e-01,-3.934888642428653327e-01,-1.955683058731831347e-01,-2.430847674887767484e-01,1.965069331267971509e-01,-4.736425901656995396e-01,-1.756717390536030599e-01,3.886283142604778362e-01,1.531117279051825465e-02,3.405440154591099500e-01,-4.766440832196096045e-01,3.939366210424091741e-01,-3.887235539492235603e-02,4.024106971953796963e-01,-2.454593221143938075e-01,-6.828847039420538056e-02
4.619586408316280757e-01,1.735866018877587347e-01,4.204835523883926895e-01,3.035912777409855989e-01,4.433531713847523870e-01,3.871310470478340343e-02,-1.968102392766298003e-01,-2.576838712849109925e-01,2.877015630610945673e-01,2.829002115918620164e-01,1.585421528257006246e-02,2.541935035090682748e-01,2.494882502440162186e-01,-3.428212090277463764e-01,-3.835728823523684716e-01,1.282342110189919338e-01,3.797351840866102224e-01,-8.329390324229399289e-02,-4.512423879355295653e-01,1.338585657689230490e-01,1.849212410440332841e-02,3.360098112800184444e-01,4.861433875808995331e-01,-4.039287112394615575e-01,-2.349428664777598874e-01,3.563593654698672952e-01,-4.533118396778330617e-01,-1.650606736045676093e-01,6.747233314757708489e-02,-2.222613689984833940e-01,-1.360671239122324405e-01,-1.753951772457425506e-01,2.854451001460203696e-01,2.714028363117731435e-01,4.305300828690841741e-02,1.986664026467815924e-02,-2.916923611088517720e-02,-1.232984920585190741e-01,1.531686656700349293e-02,1.280140251566934395e-01,2.942512134853453309e-01,-1.088369544216866158e-01,2.120134458044589387e-01,-6.403928017093739322e-02,3.969794604334961896e-01,-2.214677746703351546e-01,8.629426836325079786e-02,5.463017377399960461e-02,1.142415345994112069e-01,-2.306937698074089382e-01,-2.554087031852057543e-01,8.840857947570067432e-02,-2.107812589689125882e-01,2.459874015897307864e-02,2.276133333263010983e-01,1.083810104250648165e-01,2.823797624077831192e-01,2.092651993631617635e-01,-2.795387832522375771e-01,1.020144903040110795e-01,-4.656177538068175248e-01,3.172285877206170168e-01,1.533772990995413699e-01,-3.973411015461491003e-01,-4.541324272570422260e-01,2.930381327362397981e-01,3.805585725311758649e-01,-4.774495224263016202e-01,-4.504410509559085840e-01,6.843122949484498063e-02,2.661315790794955283e-01,-1.295083916435897375e-01,-3.683099808636120659e-02,-1.141067293265386057e-01,4.910422616802377627e-02,3.020134778980218537e-01,-4.826397177118975645e-01,-3.418703772911592664e-01,3.371637402239313075e-01,8.537877883787278743e-02,-4.644074949375638639e-02,-1.707504123473831958e-01,-6.182294717049344190e-02,-3.879771294664818293e-01,-8.919582249924881689e-03,-3.600770748920185116e-01,-3.055168648604855708e-01,3.164581781407883598e-01,-2.057093632984267062e-01,-2.388588878015919514e-01,-2.682634505776746586e-02,-4.094476790114756071e-01,-2.185337154142110924e-02,2.494235482637248424e-01,3.815601555951066426e-01,4.248239292074911244e-01,4.106717492354233778e-02,4.529747261111650158e-01,-2.985770621829775262e-01,8.324127238062706269e-02,2.380170647701042863e-01,-2.737105283315198756e-01,4.218600987935723981e-03,-3.479307852929492406e-01,2.066944896427314604e-01,-4.112017599202602014e-01,-3.374512436994709375e-01,1.988722214271124722e-01,-2.901841024569112304e-01,3.647882244662716822e-01,1.515716188187231084e-01,-5.824652234735004652e-02,3.668062415327872916e-01,3.426806065804475776e-01,3.255584704518783012e-01,-4.211067175849937949e-01,-4.395615387249576234e-01,7.483102020265527954e-02,4.954354144591365250e-01,-9.884551213448516949e-02
-1.644420693035314462e-02,-1.343250351512845775e-01,-4.911498159373994810e-01,-3.897600916012841088e-01,4.139491996894643089e-01,4.350440657350811424e-01,-1.763366976831088340e-01,3.702797539533080884e-01,3.451725932667830121e-01,-8.706934283575153144e-02,3.581751053197850809e-01,-1.656216493844109771e-03,-2.391677492179413445e-01,-2.028807990284991480e-01,4.008318972121854840e-01,4.409313159679806304e-01,-4.388685182618509706e-02,1.368023181255910714e-01,-4.325184733203734644e-01,-4.215964260095549365e-01,2.480192264195433538e-01,-2.470103222481033201e-01,-3.015679815610544656e-01,-9.445894783503326619e-02,1.893361438363029003e-01,1.353385668160126121e-01,-3.613877911015845323e-01,1.343342057686340851e-01,-1.190197992216917161e-01,1.994373841820976656e-01,-3.755662451231578380e-01,1.408056985431457020e-01,-3.357512319294670977e-01,3.287243261571852204e-01,-2.684978653240370217e-01,4.464148427957040366e-01,-3.330272291694271747e-01,1.890930888997650328e-01,1.225716614625882439e-01,1.300391627204248446e-01,-2.724076395698116215e-01,-3.610365881535052002e-01,4.771028875445134099e-01,-4.235782516706414202e-02,4.098579211417612833e-01,1.132081625821791532e-01,-1.130374138013976459e-01,-3.935912567397752970e-01,1.134914534289721971e-01,-3.658377562082378298e-01,1.908944455052653810e-01,6.560203307758541436e-02,-2.316952457193703074e-01,-1.985123949615441585e-01,2.195161810873321462e-01,-1.118842648522627992e-01,2.580022938360298501e-01,4.407385344287276796e-01,3.012465437986099892e-01,1.103673263319888409e-01,-1.227545158561218763e-01,1.505490189320395911e-01,4.511667327688228535e-01,-1.485867620267378175e-01,3.618025376345362226e-02,1.144521616764517385e-01,3.457565980674988659e-01,-1.261124001220416957e-01,-4.660064965629158729e-01,5.723168097707605900e-02,-4.826871628376727674e-01,3.332260702096989657e-01,-4.276160510076994492e-01,-3.401489747764437910e-01,2.504185551966889300e-01,-1.599121027679865081e-01,-4.873694846837314243e-01,6.031536322313189868e-02,-3.228448414684337853e-01,-3.275240726909698502e-02,4.749909995503506233e-01,2.969887421534431193e-01,1.232700009689752241e-01,2.200233933480371662e-01,3.527806443263631353e-01,3.567702856973771763e-01,1.477765889378920006e-01,1.013558060960181445e-01,2.774047926340355019e-01,-4.599679621965272469e-01,-4.336519081520072705e-01,1.520718078900333559e-01,1.537107065057776445e-01,-2.315473292432891350e-01,-4.759061998108882752e-01,4.939243295338324735e-01,-3.995270314513174048e-01,-2.751352922195181572e-01,-1.487793977692943859e-01,-3.652682726922327761e-01,5.999445389267270279e-02,-1.015130073272587918e-01,-2.045383829833036238e-01,3.020529203320214684e-01,3.308235673490184103e-01,-1.170610055016113940e-02,-2.588866331274138899e-01,7.345303208717147980e-02,-2.211887308076230796e-01,-3.897060453189679086e-01,3.363315796323248508e-01,-4.421572608133736981e-01,2.851003077889304183e-01,4.891249136675788339e-02,-1.472327373435356745e-01,-3.322255863833452061e-01,4.819910048853566220e-01,1.918508239701352813e-01,-3.974049472170851360e-01,-3.503432911156637575e-01
2.541641905574646976e-01,4.721266302932202591e-02,-4.654361987007816226e-01,3.143178834360657037e-01,1.148311100904483156e-01,-3.514303242079526712e-01,-8.201784264849944217e-02,1.766968237804815989e-01,-4.574550869374842677e-01,-4.371870452710082677e-01,-4.529879892847256118e-01,-4.572991139657225368e-01,-3.400573267532036592e-01,-2.894595457666639393e-01,3.965460041341982156e-01,-2.662087060716178955e-01,-4.482890647689505847e-01,1.297286338954196649e-01,-2.209137333801686753e-01,-1.178067116009876431e-01,-4.756879435001493128e-01,-4.523075672960351623e-01,2.179415526943803416e-01,1.982408160146242604e-01,-6.038033542855487240e-02,3.728783854471414139e-01,-2.335711934307191651e-01,2.343625745761477308e-01,-2.383631680618652771e-01,3.176665860759985555e-02,1.523479383402599752e-01,5.703064242030804476e-02,-5.001102502061515187e-01,4.377176990830829451e-01,-3.964311779992655826e-01,-2.660530390433065162e-01,-2.627015718988193749e-01,8.851043479012205006e-02,-3.967166942073568903e-01,2.109028328870022895e-01,-7.628558938103598142e-02,-4.084201442841599583e-01,-5.676851588192641240e-02,2.849349456383793444e-01,-3.647878956560939856e-01,-8.157510633738351835e-02,7.435155263515068336e-02,3.488647958846597397e-01,-4.857528177191972052e-01,-3.748480882370657241e-01,-7.747310980068261577e-02,-4.491791831840744043e-01,-1.417903796271503813e-01,-8.956216268428435212e-02,6.735307814006598337e-02,5.524623894224302278e-02,6.861239431467378025e-02,1.120254642738472556e-01,-4.132078884811477004e-01,4.509955422625658294e-01,4.822465385719736930e-01,2.418249384960285686e-01,4.964872100497204621e-01,-3.714288455336939854e-01,1.614646814094954363e-01,1.207136540612745862e-01,-1.739284358667081143e-01,-1.512377895455591092e-01,1.285000185715866605e-01,-1.426785124511776859e-01,-3.479200762026393723e-01,3.282707431487074667e-01,4.382715502147921938e-01,-5.100989907341886287e-01,-2.511798001036684713e-01,4.423912115155397839e-01,-4.755693644435825540e-01,3.162958522690444418e-01,-3.449642491486078488e-01,1.629715998292221857e-01,-2.340823255334729402e-01,2.921987134694342680e-01,2.632578317198656093e-01,-1.749276399855956010e-01,4.542113236441417956e-01,8.025707385525446269e-02,7.658132170200156186e-02,1.385920494778374035e-01,1.121997427627225742e-02,-2.582850513775271709e-02,-1.671008240924599653e-01,4.484812072173016140e-01,-3.146596862374154840e-02,-2.319395497268192663e-01,3.200762910233766467e-01,-9.561009519765441278e-02,-4.198495431781285037e-01,1.363063148820215509e-01,1.692050245285563748e-01,-4.465308393830580425e-01,2.708461478889452323e-01,-2.024449814637750006e-02,1.502417452759209071e-01,-3.542309256508773818e-01,7.221000009631475813e-02,2.818700798458809165e-01,-1.748848408086851880e-01,2.952374843706687124e-01,-1.538212210115894318e-01,-2.351137369059772553e-01,4.348854802568529743e-01,5.597460651384380398e-02,-8.648556283624317387e-02,-3.477845732512322985e-01,2.013544270588677465e-01,-4.453053183259946257e-01,-1.307099277059323161e-01,-2.203323673481523137e-01,9.141078794778159655e-02,-1.824296758422807863e-01
2.305383227388147216e-01,3.037896161082895841e-01,2.183005823645831345e-01,-5.086046185440085132e-01,3.947739934622395142e-01,-3.019788082554792363e-01,1.510169151626097883e-01,8.322699479693469737e-02,4.732178445740196637e-01,1.632886400851086550e-01,9.345523952966462711e-02,1.569209475731934145e-01,8.937804407837168785e-02,2.995996833977154772e-01,2.264371886727455652e-01,1.343392570259282770e-01,2.558030303731043675e-01,2.425006547696703929e-01,5.415441506209390382e-02,-8.649156961403557664e-02,4.667296958168735133e-01,-5.659606174510502935e-02,-2.979350346101502511e-01,3.866625908975789838e-01,1.067882696254758290e-01,4.024367383458166136e-01,1.148911093909310305e-03,-4.421502572609071202e-01,2.177286229263291351e-01,-1.695423437345933981e-01,-5.072538500136144352e-02,2.260010972041156807e-01,-3.258885399584818265e-01,2.501571885280669538e-01,-2.766329731620534305e-01,-3.719111695388708227e-01,-2.388626759976985869e-01,-3.997612224042954576e-01,3.800336927171306112e-01,1.226437491124049706e-01,-4.591615622995421364e-01,-3.058788586625891051e-02,4.144532255539533083e-01,5.031509769577197089e-01,-4.248823621608533996e-01,2.683819138636032720e-01,-4.493308101453630243e-01,-3.563820572961329258e-01,-2.003984548089573492e-01,2.482958417859703615e-01,3.702061555984588748e-01,2.936201419873143426e-01,-4.380523596677857179e-01,2.738286236584328015e-01,-5.487494904728475176e-02,-2.892931222767745614e-01,-2.548112318682578259e-01,1.986654748741474852e-01,2.866021246352548624e-01,-1.100196751066898487e-01,-1.139613270176845217e-01,-6.712516852504363252e-02,-1.229371943757999325e-01,1.275009407190483106e-02,1.244303302343330725e-01,5.853221918880820163e-02,-2.830684949655563054e-01,-3.809977085675161218e-02,-1.769994064806221790e-01,-1.039829009683637326e-02,1.971426798287860827e-01,-1.200508237421771679e-01,1.096964967497081195e-01,-2.900969476070072717e-01,4.927943843044027550e-01,1.397067393875849051e-01,3.898837495736961478e-01,4.044841578952874106e-01,-9.513505859485532623e-02,2.904575586368502993e-01,-3.525721166185861732e-01,-1.302147790409778905e-01,3.294513464918683021e-01,-4.776382605364904443e-01,-3.124509994846627267e-02,1.788225055561376287e-01,2.973845436636914918e-01,3.218056995503123519e-01,2.823516712384827043e-01,-2.163264645743980252e-01,-2.966303195401415738e-01,-2.676764505486548332e-02,-3.779780484779164240e-03,-2.140334414466325552e-01,-3.548208271769947020e-01,-4.552810988862265318e-01,2.674552333652978064e-01,-3.757317260970194361e-01,-1.235954281201560034e-01,3.322291822209546552e-01,-4.595432224916473629e-01,-2.000876272515407506e-01,-5.183306329512763627e-02,-4.190963953694170629e-01,8.141921389914397178e-02,4.371278945481414380e-01,-2.171161018833390743e-01,-4.315776459341272298e-01,3.780909496961972760e-01,-2.794890440522302955e-01,-1.096735724887305530e-01,9.572451529031640594e-02,-4.669538583585560176e-01,-7.316045930794171093e-02,-2.050528405055509762e-01,-4.386735608326422509e-01,2.803326201149858310e-01,-3.107082731331781145e-01,4.022291342605562869e-01,1.046645038389373283e-01
8.301826533054701418e-02,-4.691520130510761222e-01,3.203824805493120653e-01,-4.399321508808077263e-01,3.552663069631553094e-01,4.535566074978072404e-01,-3.631600063642985710e-01,-3.907356988445364609e-01,-3.843755469828255000e-01,6.333853816323764541e-02,-2.316989051819782208e-01,-4.243108978472822090e-01,-1.797755524035530017e-01,7.284807740536977660e-02,3.510978760343755334e-01,-4.028730250182075423e-01,2.397883825874769226e-01,1.011187884561616512e-01,-2.045751802014853793e-01,1.622355509732008594e-01,2.456440223235079323e-01,1.844139077783783429e-02,-3.911982888681129200e-01,-3.255434995452589075e-01,-3.743458106888120085e-01,-1.041425129651503967e-01,-7.854292080569802437e-02,-3.119578574904448565e-01,-2.040610973514779825e-01,2.434017844498027605e-01,-3.111812586637688338e-01,4.550707047664789284e-01,-2.488527358547096002e-01,-8.338412433184494432e-02,2.579135682839882038e-01,-4.235617971564822892e-02,-4.801861985784956488e-01,-3.758112548487534399e-01,1.218723011689120707e-02,1.300637378202198213e-01,-6.723781173599445438e-02,7.156978937855018597e-02,1.982836509748296672e-01,1.024979646880560813e-01,2.839303286439551766e-01,2.683438859803830012e-01,2.662953142678481377e-01,-2.149328164263570595e-01,2.929422658679660674e-01,-4.222454040947234977e-01,2.830003869398165298e-02,-1.687661883736617241e-01,-4.183373606033538583e-02,4.583975455886318273e-01,3.167077693486378687e-01,6.329506393519339878e-03,-2.931031834136710867e-01,-4.024243162257347128e-01,-3.046393635112102372e-01,-2.309862440010241325e-01,4.721678488827024123e-01,-3.416492818661940323e-01,-3.019983673866511453e-01,2.482446140890911812e-01,3.384470764838240497e-01,4.542407454618886953e-01,-1.566891514202948810e-01,-4.683320561448255925e-01,1.971119431074293826e-01,-2.525105241409237311e-01,2.382889840867778719e-01,-2.881811961637386621e-01,-1.344716490616791049e-01,2.436725875073058115e-02,-4.607171107656907738e-01,3.685511963038327066e-01,-3.699163142454827691e-01,4.422398510874023803e-01,4.619073376106886952e-01,-8.172091716655849325e-02,-4.956125438613778744e-01,1.305139286045572944e-01,3.236651537594930628e-01,1.308145028825295486e-01,2.449941936287268474e-01,-1.826303863333761102e-01,9.125651815776900100e-02,-3.476392347681895312e-01,2.049537558181143693e-01,-1.634882833897471632e-01,-1.602044170997741768e-01,3.723471533336616401e-01,4.882910111020895005e-01,4.109071065368540276e-01,-7.432538966404986236e-02,1.513718951324454463e-02,-1.716706173577092764e-01,2.542996061284143461e-01,-2.517526834790803289e-02,3.746274383298965893e-01,-1.068055840091582664e-01,-2.504931148909155247e-01,-2.745315076896189255e-01,-3.623539311967519105e-01,-3.344747683438739627e-01,-4.512060073946592698e-01,-3.882088227213020826e-01,-1.128756202742770554e-01,-8.822473796556408454e-02,4.431733251245589256e-01,3.607143390869954613e-01,-2.316808563072384752e-01,2.658433933327585819e-01,5.289075673458181193e-01,-2.579192829975714835e-02,4.999077104656874521e-03,-4.869993635087814798e-01,-6.938198047281875225e-02,1.900770077686656234e-01,-2.868063910409969497e-02
9.150758761355902438e-02,-1.100538115395670036e-01,7.181646729613347380e-02,-2.021299447056724291e-02,4.062598335544011507e-01,3.731460085927140180e-01,3.303610468949914059e-01,-4.007302458996114258e-01,1.430407656945489325e-01,2.587809545916270881e-01,1.687486836866166628e-01,1.357143433203829852e-01,1.862788406562007892e-01,-1.640662810726874199e-01,-3.650897139383347811e-01,4.442884545639956828e-01,1.503206240857971332e-01,-5.498052061551057801e-02,-6.518206982048709019e-02,-3.349377655233704565e-01,1.228816561783133282e-01,2.536667897298235386e-01,9.212436047553529406e-02,3.530031175914996044e-01,2.607431103949683915e-01,-3.968244220666571898e-01,4.244761854702600035e-01,-3.823530812217664221e-01,-1.995013218880545836e-01,-1.382045987111819862e-01,2.890543723216864591e-01,-6.652252075200304482e-02,4.405841194226097768e-01,-2.263884094889091758e-01,3.018949609268690160e-01,-1.117535202599689442e-01,-3.031870453350300476e-01,-1.652415699788872816e-01,-2.365568629900072495e-01,-5.657047532042949051e-02,-1.066593833624599752e-01,1.629507497969076291e-01,2.592835956642132178e-01,1.423240144297268639e-01,-4.605978984582002056e-01,-3.083598561646200831e-01,2.691505363193439360e-01,-2.822762574989682444e-02,-1.080301781950805673e-02,3.303082128047378219e-01,2.625359926364140284e-01,7.978214988611831426e-02,-1.331073537491785364e-01,3.964586557186940974e-01,2.510517405046956349e-02,-1.273026404641010578e-01,-1.916967743969347493e-01,-5.365064379520071564e-02,3.092135929815243434e-01,-5.771455819333229376e-02,1.991764870665279630e-01,3.365078487977327670e-01,7.674774213176342730e-02,2.272790076733502418e-01,-2.603726723610288452e-01,-2.304583481804848566e-01,-8.579705167849589753e-02,-1.446601774420148423e-01,-4.757658183979638356e-01,-4.132969484810136152e-01,2.562941775763059593e-01,-4.942893958964770795e-01,-2.706674693991895086e-02,3.149625243911562816e-02,8.531645912823804245e-02,-1.733819055663492759e-01,1.574784267459166387e-01,-3.844787892113967764e-01,-4.189963227723648709e-01,1.878492008960664095e-01,4.532458952130560270e-01,1.643175805555951163e-01,9.695899120233017476e-02,-4.351448850050895767e-01,6.267459365401480305e-03,-2.718126059128617711e-01,-1.943396692110639923e-01,1.200257426792707277e-01,-4.485531688601637756e-01,4.993998574431328108e-01,2.280502110207810185e-01,4.217159504469328302e-01,-7.328236125676591654e-03,-2.625826291882167873e-01,-1.075517075678157630e-01,4.768954742703453431e-01,4.802383322931732534e-01,3.526871397667348251e-01,-2.295359111979103639e-01,4.897870886011001512e-01,-1.092580979958720638e-01,1.825130516096217237e-01,6.220797056429957367e-02,-4.637883652132936962e-01,9.573007393077594129e-02,3.381447451916428371e-01,-3.295495035355976432e-01,-4.156977374208348230e-01,-1.892865166635077923e-01,2.879256838215130121e-01,1.024871697094057316e-01,-4.114195388892336047e-01,5.765957100623558818e-02,3.795258215276957614e-01,3.203930746749423797e-01,1.338814588386014748e-01,1.701864405279414627e-01,8.794251759407045732e-02,-2.557933796003794558e-01,2.236288601478683968e-01
-1.075568658972402697e-01,1.679970236986250698e-01,-3.782123072318573365e-01,3.609301188992376092e-02,2.482624198559069129e-02,3.636851074356980407e-01,-1.421386367465764800e-01,2.621120894696032377e-01,-6.189838255077503848e-02,-2.773689074711691016e-01,1.133239268355233087e-01,-9.168535731598465022e-02,-3.700410632855116733e-01,-1.631810954479479825e-01,4.636670096995733625e-01,-1.452811602909008237e-01,-3.052430005470014862e-01,6.020408447088329562e-02,1.704324103051079176e-01,-3.117610041258960310e-02,9.631343341499713773e-02,-4.771973665377588492e-01,2.422380173081567223e-01,3.511836278358797525e-01,-2.043652983120156780e-02,-3.123974967526400512e-02,-3.813208636070470336e-01,-2.940148149435806157e-01,-4.815966794903215331e-01,-4.361261055323459868e-01,3.785357486819919126e-01,-2.750076579907275165e-01,-3.945775845129862458e-01,2.337494217671441110e-01,-9.125152653502964506e-02,-4.625165790395366905e-01,1.534544218996284348e-01,-1.411372742026255345e-01,-2.967208493120629953e-01,-2.470079345453289610e-01,-1.929610233637401029e-01,-2.596629664736516130e-01,-4.586124513675562397e-01,-4.161027521357427150e-01,-2.503861185509154708e-01,1.679187419010987337e-01,5.463428304426355686e-02,2.823979112237763323e-01,-4.673919447595834865e-03,-2.212861869553434894e-03,-1.688506249690331917e-01,-4.526550772658867738e-01,6.740253812009941448e-02,2.983639550598476409e-01,8.756002193281173240e-02,3.697199393723248351e-01,-3.595519346986127962e-01,-2.766178640169512648e-01,6.674514036135259509e-02,-3.299400340083335492e-01,6.085477028711597236e-02,-3.361521111562180697e-01,3.507474402397038338e-01,-3.990456284195099124e-01,2.883044452987355011e-01,4.387464219071130489e-01,-1.254082801061353891e-01,2.000258553698760489e-01,-3.551934637441311327e-01,3.717697161601738465e-01,4.630317101385897360e-02,2.105537257086156910e-01,6.327902523071277097e-02,1.154517056451444118e-01,-1.082165738857807230e-01,-3.810757888961988082e-01,1.300299337008648248e-01,-3.658866037602108157e-01,-3.539845771633107763e-01,1.807173266163457359e-01,-2.920125481281075214e-02,2.872680397672003894e-01,3.651072171615042938e-01,7.116046751870608311e-02,-1.861006712147250941e-01,1.353059986670846360e-03,-1.431642913909167703e-01,-4.534247002583406960e-01,-1.582175361046309625e-01,-1.653468095270478611e-01,-3.836709716846289919e-01,1.254910193624349801e-01,-4.226015479266883035e-01,-4.837529059844581925e-01,4.623657837854157626e-01,-3.554538502602102579e-01,2.627461572734525186e-01,1.567140684142824814e-01,-9.035267281439079978e-02,1.296175339633878210e-01,-2.316685722882828591e-01,4.061548135959607841e-01,2.276971216335799408e-01,-1.568872266363226936e-02,9.122600815215271830e-02,-2.030451977264447483e-01,4.348033280638944342e-01,-2.039698197287986015e-01,4.106498801137093424e-01,1.018623828603874432e-01,1.114122744349395899e-01,2.672241891846358075e-01,-9.156697494246637814e-02,-2.761052261794573193e-01,-4.403001106641311058e-01,-3.696061789430961642e-01,-2.355199592453316726e-01,-1.654889849058750473e-01,-2.420767577742852575e-02,-9.652864244426360985e-02
-1.893185692468886960e-01,5.237297633159068155e-01,-3.738574919398882784e-02,3.416590566900089554e-01,1.905374953487217957e-02,-3.604660881312074516e-01,2.459528140928929074e-01,-2.676144929387912486e-01,8.259422746785309577e-02,7.643020796219159030e-02,-4.841999249990042165e-01,3.702107331798492607e-01,-1.416029534796846463e-02,-3.760459230277426318e-02,2.344960349867780680e-01,4.445259946140701079e-01,2.858555899816826451e-01,4.673277359889974614e-01,-3.095461970859297307e-01,3.586512741562606910e-01,4.906198063937489695e-01,2.522452162366717876e-01,1.169743668901132017e-01,-5.078544586523602716e-02,-3.867497682169204753e-01,3.255064072254704177e-01,-4.281525462434080387e-01,4.742400731404649572e-01,6.514530465611891030e-02,3.063398939080936301e-01,-4.618903894914123121e-01,-3.738479514223309041e-01,-3.873860195658692662e-01,3.580083029517212578e-01,-4.361031871634570845e-01,-1.343680024511139104e-01,-6.961123691790424561e-02,-3.552072745459748937e-01,-2.336864064871230495e-01,-3.779959465742198099e-01,9.683703589578256761e-04,2.805350456053170571e-01,-1.456612283593076984e-01,-4.390947095759140106e-01,-5.386923763429005835e-02,-2.441526981193922752e-01,-1.613322536788048545e-01,2.702118632183376778e-01,-3.566023913929518285e-02,4.402290968008130134e-01,2.931010037879960284e-01,-1.864312643584207507e-01,2.963599660031971950e-01,1.170235674235469286e-01,1.553129241399544003e-01,3.744244858867503689e-01,2.423281809786852481e-01,2.812679279955242889e-02,-1.480629943054799502e-02,-2.447432055299651188e-01,4.358233672862606434e-01,-2.242134596890462961e-01,-3.889703964846600304e-01,-1.409895895212106287e-01,-1.747564713415247772e-02,1.777250891930328425e-01,3.301381833769079788e-01,2.683560684984663547e-02,-2.624531316818686233e-01,-1.480188143823339963e-01,-2.974322507429725260e-01,-3.626165724949682589e-01,4.086971868829518684e-01,4.230722785021294730e-01,-1.884800586702822800e-01,3.066244307980794948e-01,3.245570112042479166e-02,2.767589009120693389e-01,2.633441830254327765e-01,-3.162223224210604644e-01,-6.223342692731887588e-02,-3.044043282099993461e-02,-4.548491993912434639e-02,-2.236207021893688862e-01,-1.071129373953732811e-01,9.935134883284311991e-03,-3.692953540457355466e-01,3.988025914249321291e-01,-2.047539893785711316e-04,8.746898285750745461e-02,3.805343556147200434e-01,-1.617391185392208219e-01,4.014862926235734930e-01,-2.317199249853709175e-01,-1.909990323932294898e-01,-2.715561595382902649e-01,3.549747210109411855e-01,4.007974825122003204e-01,-1.064316104987173550e-01,4.390347109246943158e-01,4.241807058321406254e-01,-4.593970205331744938e-01,-2.862968604500879671e-02,1.427383094005774400e-01,3.469929684268736603e-01,4.923548229647061181e-01,-2.274575240751093574e-01,-7.495322782215763091e-03,4.366752199141514801e-01,-4.864375675164668844e-01,-1.030542312785272807e-01,4.400061888780616992e-01,3.886163620441803190e-01,-2.053546432366612773e-01,-3.359429040676163436e-01,4.592240863710084220e-01,-9.966852982755990131e-02,-4.340634382226429833e-01,-6.963611539415674734e-02,2.544338835246357511e-01
-2.657130479081136754e-01,4.181988597381959272e-01,2.814210007288107107e-01,-3.546088436577393144e-01,-4.534004669404910204e-01,-3.762498024434955957e-01,-2.787074187767766831e-01,-4.439772266822794577e-01,-2.382372493695303350e-01,4.647002047714425821e-01,-4.683126303385024003e-01,-2.047576885716405892e-01,-9.828592821280751624e-02,-2.618580720242681403e-01,4.621341262165856723e-01,-2.562124681669930015e-01,1.055237252408683934e-01,-9.667886314114240709e-02,-2.733774605733944596e-01,-2.674062483710272775e-01,6.854141041483867436e-02,1.343116308150518745e-01,-3.949754290570469673e-01,3.028833425623927433e-01,1.901142147091498535e-01,-6.394633592405356282e-02,1.356207530771368908e-01,2.176041306279487553e-01,2.758547985672212266e-01,-2.543930288575315668e-01,4.274108536686448967e-01,-1.114789041264748343e-01,-1.656072287200163751e-01,1.460731399428058797e-01,-3.939720170307370317e-01,4.440963263918830672e-01,3.882158593514348222e-01,4.165528897006320896e-01,-2.867419257498128315e-01,4.543398378492568002e-01,2.229540344852284917e-01,3.563663493163123364e-01,-3.827976632815910940e-01,-3.159427795580447285e-01,1.468042588873215426e-01,-4.940250784048943328e-02,-3.979886970452792827e-01,2.099089635810022503e-01,1.401211326061838069e-01,-8.483322629512725366e-02,-3.019804867170974849e-02,4.476649001569581454e-01,-3.254604728249464451e-01,-6.750920901273031738e-02,1.932822353872332699e-01,6.947726203556953140e-02,-2.504172623001588160e-01,-4.789051499617200808e-02,1.732139255874575179e-01,-2.959879061653833410e-01,-4.860197341823611072e-01,4.766179919843800405e-01,2.108096499032909577e-01,2.316680914088953824e-01,4.906910882160024356e-01,-1.521408413459608144e-01,4.109734768416306583e-01,-2.239721108748138345e-01,2.473853647436165815e-01,7.001613635439034138e-03,7.484787586013359750e-02,-3.930624732441816982e-01,-1.469568845337869967e-01,-4.700097275202249625e-01,-3.687329111182985897e-01,3.414515669487529492e-01,-4.307007330190267824e-01,-3.911054918302909328e-02,-3.927422264677138952e-01,4.824533983260581582e-01,-2.220694269039912849e-01,-4.277257272293608636e-01,4.223884396916526285e-01,-4.297342519154735974e-01,-3.710919930659170030e-01,2.921847271450876415e-01,-2.887989697577229564e-01,4.254788158829108102e-01,1.593656431478729096e-01,-3.247230580172952852e-01,-3.163809776704706311e-01,2.503801649337258350e-01,-5.039869561038304996e-03,-4.026240633323995288e-01,-9.430696850222142213e-02,7.221987201583110472e-02,1.854673765933231855e-01,-3.997292940466903310e-01,4.311868588247973477e-01,-1.269198092217128093e-01,-5.582013241319261354e-02,-4.674181436519017074e-01,-2.643147024982652749e-01,4.405152863250311746e-01,7.609875376322593199e-02,3.936070225925933364e-01,4.722942235859752674e-02,3.104263784625150291e-01,-4.888472314641948424e-01,1.131483499778399293e-01,3.410569346741797458e-01,-2.223088256370036979e-03,2.486497448352334438e-01,1.470786129044297265e-02,-1.797042401350685548e-01,-4.483900400636609551e-01,2.657123328757935998e-01,2.086206909244271712e-01,3.651861930142842327e-01,-4.459924308009983740e-01
-3.652466547840929056e-01,4.246570802181466320e-01,3.754989010201428834e-02,-2.128287458632790730e-01,2.980995301473415293e-01,8.554252306355376867e-02,1.308611894708863049e-02,-9.336544269161051179e-02,-1.067398089443941656e-01,-8.829037372340989287e-02,-4.265343787798195341e-01,2.854022676650397328e-02,2.565585401734817861e-01,2.672935103340873253e-01,-3.539809853928211347e-01,5.174498607625468427e-01,-5.031261691194007790e-01,-8.757278559720141353e-02,-2.623080930616906170e-01,-1.204391644647573138e-02,1.998392068692778356e-01,-1.709890406048834577e-01,-9.321442272062778478e-02,-1.248934090490323862e-01,2.538544487133645444e-01,2.489340312792414633e-01,2.511222516122839088e-01,4.182436335209192002e-01,2.922209812066309254e-01,1.510534392373419632e-01,3.506932728526124254e-01,2.152968418483018620e-01,-2.110636643484228026e-01,-1.179341548590850247e-01,-1.992655409075949346e-01,-4.917560467498193755e-01,-2.277466296033959503e-01,-1.201220739081327177e-01,3.707541946307369440e-01,7.615381210995161854e-02,-4.580750723857301421e-01,2.733161765979617575e-01,-5.697607526010279103e-03,2.231215540374232031e-01,4.450854228227150156e-01,-4.183080696415969468e-01,3.210193658480814394e-01,-2.862813915597188230e-01,3.300634780621402031e-01,-4.919746161716811450e-01,2.548510909048433137e-01,2.900344316456022753e-01,-1.203959562784129994e-01,7.687387511831973719e-02,-2.994065894396788496e-01,2.511379884384914302e-02,-3.526507910739412055e-01,2.080275742491846380e-01,-3.827873950915897105e-01,-1.041695962867307534e-02,3.960461248653225352e-01,-1.528984869155275428e-01,-6.382056342225826684e-02,4.392187642857799945e-01,-2.549591337904765775e-01,-9.472621873196386544e-02,4.459769335821551772e-01,3.881319858196856099e-01,4.779054059788060416e-01,4.692032305789605173e-01,-4.112819990363139055e-01,-1.317953717248186440e-01,2.736193224282592595e-01,-1.004008803645579095e-01,-1.427135639029488146e-01,2.078447613347560174e-01,-3.176972373957681617e-01,3.238172901374684054e-01,4.336300459192297257e-02,-4.444289739010713336e-01,-9.494529535803003517e-02,4.724407384321786807e-02,2.865426315725745354e-01,3.818962284998286272e-01,-4.058436492291126463e-01,-2.069980834800836111e-01,-1.751157577349385722e-02,-2.158244871281018440e-01,-4.420795347572391565e-01,3.281094404987205393e-01,4.607502140857531736e-01,1.992527626982235067e-01,4.879284507846241015e-01,1.300611612152157981e-01,-1.009324563415689852e-01,2.720984949029902622e-01,-1.404583623173802920e-01,-4.706098132134471923e-01,-3.570420021494876694e-01,3.889783179444187833e-01,-2.081191202808946872e-01,-2.125613053318225198e-01,-3.483440819376044106e-01,3.899874780796829810e-01,-1.378438912174051456e-02,-3.624460045885549708e-01,3.658272578938348008e-01,1.990040927511153857e-02,1.466678939685280014e-01,-4.340470838597589309e-01,4.757404035139029541e-01,-3.587816461734402718e-01,-3.834742077674440086e-01,-4.632983958177819828e-01,-4.624191202446821802e-01,2.875722547103212179e-01,-4.417919536858097018e-01,-1.072207617304851562e-01,3.664544393382773713e-01,-1.285447928825134978e-01
-2.872494680221558405e-01,1.974980408110953434e-01,-3.016650705958284218e-01,-4.081735132342723810e-02,3.170120434850290936e-01,-3.775409845549455023e-01,-2.707376109346399384e-01,-2.566390818011701075e-02,3.298824656698742808e-01,-3.353506361256052282e-01,-2.956611531742049381e-01,-4.382141548142871879e-02,-1.340752104897430241e-01,2.124150838331306454e-02,9.765716672411228760e-02,-4.517049423491652504e-01,-9.545006812697023890e-02,4.142059501016741585e-01,-2.623210653548068150e-01,-3.485643284936338904e-01,-2.979989903685176800e-01,-3.939284705814046772e-01,-4.766206998398994088e-01,3.186558369960491022e-01,8.761232641838083424e-02,-9.833376073506661097e-02,-3.708345639828641294e-01,-1.465756186493352986e-01,-4.644364512692947256e-01,3.919608665150315363e-01,-5.283583198620076665e-03,4.038302857387893741e-01,4.712132453351031147e-01,-5.027377664691929926e-01,4.837944647912378535e-03,3.315872868192841771e-01,-2.634285189457837850e-01,1.812346205635606555e-01,-1.534692124743927688e-01,-2.679798573676697715e-01,1.979041390559774238e-01,-2.453023437525389816e-01,-4.391194938871073039e-01,3.504578385405845431e-01,2.306602713856688303e-02,-1.681950705577235639e-01,-3.928654709927273392e-01,-2.820282558134405704e-02,-8.844025057936437395e-02,-1.634907194537697506e-01,-1.748713230008544506e-01,2.259441730846541707e-01,3.403981436594997745e-01,4.568581561976783889e-01,1.397118218722392113e-01,3.850651211243376060e-01,-2.116472327898915318e-01,-9.117574302623447646e-02,-3.099635964655864662e-01,4.860512861947256513e-01,-2.917346788785957212e-01,-4.735595197917494836e-01,3.360534974698529131e-01,-3.457558455519106344e-01,1.462016011851967612e-01,-1.800219691411350173e-02,3.163670675683495914e-01,3.469250005890400258e-03,2.184369454782029152e-01,1.269680943146386243e-01,4.470214894462181676e-01,-1.265333348745645570e-01,-3.715907644790234499e-01,4.413158292258635984e-01,4.961603626974249726e-01,3.781884046009870159e-02,-4.180213008310774692e-01,-1.883911057572041914e-01,4.830302598710446010e-02,-1.200076499550149084e-01,2.517431050737812259e-01,-1.523296861208812414e-01,2.942657783316591225e-01,-2.787818139674511642e-01,3.316270597722267843e-01,-3.061354203976923705e-01,-1.029021655298420837e-02,1.763970691764166765e-01,1.986498583865944634e-01,3.896426938882662228e-01,-2.425311169353681906e-01,4.256542918916343399e-01,1.015802004450421653e-01,5.446267919790373502e-02,3.285605400665266296e-01,1.910546245350828454e-01,4.000053130758149944e-01,4.442952413502037623e-01,4.131021773339461634e-01,1.555899408113728677e-01,-1.142836628811696453e-01,2.669302567720858999e-02,5.020384431181663665e-01,7.187750161674991145e-02,1.378596547871704381e-01,1.167389746868526326e-02,-1.533284281545910510e-01,-8.702379450963265706e-02,3.308878885187304664e-01,4.252678559917887902e-01,-1.241970266776463161e-01,9.523445955811128683e-02,-2.826946342228499054e-01,-2.736654684458775799e-01,4.175913884516682106e-01,-5.267421413189361107e-02,-1.554943939162326816e-01,4.664018343903562624e-01,-3.204320133783597480e-01,-4.830129351581750052e-01
-2.401453202090652606e-01,-1.769576319003118570e-01,4.750005938250766446e-01,-2.919439699845844949e-01,-2.323459851687355304e-02,-3.990170742846655960e-01,4.185841313533887609e-02,-5.022233929135799801e-01,-2.085095258991891687e-01,4.799313101679344995e-01,2.248113719348493744e-01,3.220970441711916155e-01,-4.408546660900002773e-02,1.273992168218942012e-01,-3.091465014192611993e-01,-1.487471395278460243e-02,3.734739557529681009e-01,3.761440653000403533e-01,2.972441003131510162e-01,2.545206840884826072e-01,-4.540476665009732064e-03,-1.444978988778094497e-01,-2.439992723246240391e-01,2.091803040051117279e-01,-4.426002400360898870e-01,2.670827759562097170e-01,-4.464824822755011358e-01,2.310919867690034990e-01,4.654849534459731819e-01,-3.670089426942167443e-01,1.109894963244998783e-01,-5.924300397908118659e-02,-2.509292773613465075e-02,2.375058550053625872e-01,-3.742143903524289827e-01,-1.140738126602752756e-01,-2.833028332475406308e-01,2.363890500538948780e-01,4.866367035833808058e-03,-2.389484925948897609e-01,-1.302524077902089128e-01,9.357432122369752081e-02,-4.168608793487274533e-01,3.451833110700211482e-01,-4.143032099079090314e-01,-8.281599832318618792e-02,3.971112182187241380e-01,-3.308151106292497867e-01,2.460496943875108977e-01,-1.225950106485950430e-01,1.500373393768132321e-02,-2.948520287394073569e-01,-1.864146071841353558e-01,3.568859370515022889e-01,1.736543150008294234e-01,4.802832463500028570e-01,-4.228666611014346710e-01,-5.855611927803401617e-02,4.856697074777991951e-01,3.173905973255032875e-01,-2.663349333937538310e-02,-3.061084776356400861e-01,6.382570447202173466e-03,-4.139842655402493077e-01,4.826243302138509550e-03,-3.727258700169375771e-01,1.351488221013180668e-01,1.027343639060141062e-01,-1.940993814435711465e-02,2.209670013355589657e-01,4.778581711192075171e-02,3.367880361204595580e-02,4.135693856821140435e-01,3.081852341334662126e-01,-4.758591534581578242e-01,1.332099263874950978e-01,3.147818242520004084e-01,2.048637033291542675e-01,4.516174339191623144e-01,7.455645908332446045e-03,2.726094560685655699e-01,1.612234342924736413e-02,-5.029539805761599341e-02,4.065786614135123433e-01,-4.470863009094152574e-01,-2.489219265946215343e-01,3.901238533423758703e-01,-9.432031621446916592e-02,-1.660361024320814727e-01,-3.779957654557581370e-01,-4.801555726499964760e-01,2.039428640802678772e-01,-3.768239211817694945e-01,4.773604121397239108e-01,4.096316795278791001e-01,9.876875470889112663e-02,-3.497640452033023983e-01,-4.578003203318163350e-01,4.517191772072492451e-01,3.731112961342936130e-01,2.554446605154599981e-01,-4.377716503082309529e-01,1.519154044611582821e-01,-2.883635312891976721e-01,-4.288218158530944790e-01,-2.682662341600645650e-01,-2.485054915001583264e-01,-5.808946167424918275e-03,-3.336513677418045942e-01,-5.504668641258481099e-02,4.543970910966472210e-01,-3.647207189451036613e-01,-4.154482380346758430e-01,-8.341415228675919113e-02,-3.087308621665897923e-01,-2.283919724126142470e-01,7.520035149639830996e-02,-1.070866895659986079e-01,2.551241778147513364e-02,-4.890741014021396382e-01
-4.064259224109080249e-01,1.745738489762456436e-01,3.739342426660288154e-01,4.739305164243101665e-01,2.657771117778939263e-01,-1.198275239341846238e-01,3.692216331636792304e-01,-1.219626643997636234e-01,2.964369464879280658e-01,1.101805742073304686e-03,-1.347110611157429083e-01,-6.807685745615595085e-02,1.792695309572750473e-01,2.814953947818242264e-01,2.997278704430104135e-01,-4.688648939689749606e-01,3.494252289882230356e-01,-2.207257550998195372e-01,-4.347928878495365690e-01,4.130578127816585954e-01,1.139891911210320170e-03,-4.182190360816413488e-01,-4.266962447961561988e-01,4.353730181700975477e-01,2.495852260148778423e-01,4.299936044595808471e-01,-3.319918884497274902e-01,3.201883828467423365e-01,-7.016873477096277623e-02,-1.229913820160446342e-01,2.984447619355389270e-01,-2.903182928376824012e-01,5.072808507981207971e-02,1.077027525986216233e-01,-1.340849114274702547e-01,4.755274502461973030e-01,3.652859438668746850e-01,4.570490524019242273e-01,-1.448501841705485960e-01,3.938508204709897931e-02,-4.951373726271002251e-01,6.669807335358662881e-02,-3.981930713721030246e-01,-1.721237624689465340e-01,3.292833479494211568e-01,-4.375769664662269576e-01,-9.627138254641602610e-02,-1.960412774687063653e-01,4.778050171472421614e-01,-9.994017942316858749e-02,1.438128632925758099e-01,8.773215084118363150e-02,8.661493012089602206e-02,-1.589418626651126210e-01,2.321746126328425863e-01,4.665590870626457054e-01,3.070972886162444127e-01,-2.196058823662400683e-01,4.904504062326582314e-01,2.919785649162198737e-01,-3.015293968206448905e-01,5.203614292137476172e-02,-4.792179295616703638e-01,-2.469579105834398547e-01,-2.132352993778247885e-01,-1.586162757010052826e-01,-4.843125061685417676e-01,-2.419810719997059767e-01,-2.672560222973376365e-01,-3.045231784881192172e-01,6.429462032838309526e-02,3.427400593874539991e-01,-2.478487956396172587e-01,-8.809748057877128669e-02,4.821655429076642241e-01,-1.541287980618943343e-01,2.338417260177484691e-01,-5.000246834435940757e-01,-4.428477643180844803e-01,1.444060410726916710e-01,-1.024871379837347662e-01,2.601429431157263883e-01,4.545747765283519870e-02,-3.144582611491792967e-01,4.798871386341841405e-01,3.597193759888499542e-01,-2.807459269289693249e-01,-1.469472858558276696e-01,-3.872528553965285947e-01,2.421059666310814151e-01,3.530510249391603517e-01,3.779496205586586055e-01,4.325435317486379105e-01,-1.095576408369296206e-01,3.337668567076230164e-01,3.106468471379194018e-01,-3.812750094666085832e-01,-9.476638012338083061e-02,2.933645669827353308e-01,-2.595404249102108984e-01,3.896611260423742951e-01,1.276623901513790627e-01,-3.787060421142891542e-01,-6.933529770137847326e-02,-5.755965833441198387e-02,-1.956750213462793778e-02,3.407385222261544166e-01,-2.562455675673140920e-01,1.168241680954948125e-01,2.226572454992008787e-01,-3.411106285675629679e-01,1.490711498026885407e-01,-9.920053534397930972e-02,-4.819779314700486927e-01,-1.244526590644373237e-01,1.627211177288641342e-01,3.013871097963439216e-01,-2.362263642757301829e-01,3.819577064498858726e-02,1.603639167215368810e-01
3.765118576234437464e-01,-1.624031339374730210e-01,-2.378618644786149872e-01,4.160574148189408183e-01,9.558403080404226371e-02,5.049714034399979123e-01,4.678702075113791437e-01,-4.356591087705338761e-01,2.445001910473739160e-01,-4.785616255281695958e-02,3.800336619926937831e-01,-2.926588890185609637e-01,-3.215593381403583084e-01,-1.836285597464872299e-01,-4.892378650399823448e-01,-6.043991777470131277e-02,2.469141033590711576e-01,-2.155344541802760860e-01,-1.384266335167777355e-02,1.592158469480515863e-03,-3.349681556491999612e-01,2.318102188287729792e-01,-4.902657825640941436e-01,-1.942215559672688940e-01,-4.965292196552430204e-02,-4.918296013534593225e-01,-3.901276617738386743e-01,-3.756663072898407951e-01,2.760670045451538712e-01,1.575767674122706408e-01,-3.213732463080633539e-01,-3.812882840958424779e-01,-2.688606776096935103e-01,-7.480958877063990931e-02,1.058131524277498153e-01,3.153304674703170662e-01,5.099091953313095171e-02,-6.068532026961370035e-02,5.001030076758564147e-02,-3.957032814340174370e-02,-8.785441868454343939e-02,1.669816228062760699e-01,2.203342605175755142e-01,-1.282639293933747482e-01,1.643789588399496848e-01,4.431189598022916565e-01,-1.115982451335398723e-01,-5.003450732682799273e-01,3.671700438877488204e-01,-8.983898129898637563e-02,1.577438538672048174e-03,-1.623950463067668770e-01,4.875198533490940900e-01,-3.275805888207172778e-01,-4.752721493850751294e-02,3.347719223918503850e-01,-3.163589714480355974e-01,3.654396828902558014e-01,-7.027240422461408786e-02,4.087691653983223650e-01,-7.265257931495308630e-02,-3.966047721079523081e-01,-3.178332887109380778e-01,-9.935366543483893642e-02,4.590979413208262638e-01,-2.045828295819936415e-01,-3.757664457381085232e-01,-1.029713873616798642e-01,-6.760250086104546696e-02,7.262397154056506043e-02,-1.538911544861387426e-01,1.269488463954007162e-01,1.554769600160093579e-01,2.206721011094170681e-01,-3.152383599837241257e-01,2.994490059184979833e-02,3.010290128964538958e-01,-1.617773822080003643e-01,-3.815957089315150097e-01,4.356945028762304051e-01,2.762958920630932957e-01,-4.243155746944228812e-01,8.990807081255940136e-02,3.271314328956997919e-01,1.491925949415625063e-01,2.669225818654221705e-01,-4.427599157677338249e-01,2.668860174841903299e-01,7.615874571131313331e-02,-2.942118264366564984e-01,2.342623767504996291e-01,-1.655619741697117731e-01,9.466034601194327214e-02,4.551677015652283442e-01,-4.150092529841735711e-01,1.644189608201439834e-01,-4.978099042657372353e-01,4.961083886760979111e-01,-3.271953345673627722e-01,-1.094314060463105927e-02,3.371330809151859009e-01,-4.485148555358707545e-02,4.172503780987747990e-01,4.719592332129205481e-01,-2.727095267317879435e-01,-2.265597536087385067e-01,4.578237341664856963e-01,1.613805475493127473e-01,1.513148466221399535e-01,-4.441797179237481075e-01,-3.425203921019330799e-01,-3.328062623076032955e-01,1.757641410736897336e-01,-4.186652376969825506e-01,-7.173389653427975077e-02,-1.143802153657922510e-01,-3.541572222433037598e-01,-6.405627321075922642e-02,-2.475642990010078551e-02,-1.457045001814932239e-01
4.536180847567775759e-02,-4.781704596904973181e-01,-2.810052290727770852e-01,3.629883845031863232e-01,1.319781166767042824e-01,4.263075453327180159e-02,7.427704235809805267e-02,-2.378926316608715175e-01,-2.428350655115273649e-01,-2.114504199147642094e-01,-1.694107163998773424e-01,4.489492855715375152e-01,-4.231245203402004829e-01,-3.423866915183929605e-01,7.380674645100819553e-02,-6.712256262580755528e-02,-4.508259288030000422e-02,-3.636850710305810086e-01,-1.471660877912308041e-01,-2.325590461815921217e-02,2.337337427503448917e-01,1.614308577673484180e-01,1.950117627863876824e-01,4.664647357754474477e-01,-6.555759622142429133e-02,4.842954042526607661e-01,7.932427120707848112e-02,1.923474376688071863e-01,-4.399040935799874985e-01,1.175260639486725156e-01,-1.963232723601805174e-01,4.883452516183484637e-01,-2.728862202445032636e-01,2.487564030917706059e-01,4.498447375338660570e-01,-3.885001613950986310e-01,3.573887151819297170e-01,-3.282193423437028690e-01,6.173859083354390348e-02,3.384654015160415974e-01,-4.307447311820049585e-01,8.348801971939243116e-02,2.954214027049940072e-01,-4.830067089329677099e-01,-6.609400466796673881e-03,-1.494217741998484783e-01,5.882356808538724557e-02,3.563732067171996865e-01,2.532561184228783735e-01,-9.559091864873874023e-02,6.726695481477962257e-02,-2.283526596560446209e-01,3.767846250681891607e-01,-4.430149981061118902e-01,3.256705555389085571e-01,-5.572114825447020692e-02,2.197138153595739329e-01,6.137146016622301720e-02,3.473129039115996908e-01,-4.185883370838142659e-01,-4.064444882911511514e-01,4.987510277759467092e-01,-1.004681934757894468e-01,-3.979579532015332655e-01,4.134233491323434095e-01,-4.212041616448774367e-02,-1.104322572705170591e-01,-4.519190893640220863e-02,1.642759554410377215e-02,-1.955704073972781010e-01,5.570322387847093798e-02,-4.305341984551486201e-01,-1.998339917559091294e-01,3.622418165881340912e-01,-6.832044988930478790e-02,4.821049460191341174e-01,4.920486405070247926e-01,-1.259052014913935591e-01,2.346935187902164655e-01,2.308139045481307494e-01,-4.439556389181806284e-02,-4.474573931500540613e-01,-1.660071946771415619e-01,2.223819226153172512e-01,-3.913167618781355217e-01,2.998252294121680483e-01,1.935881450569769957e-01,-2.470417939354194736e-01,2.538322662054568607e-02,2.859961676287310905e-01,2.538997027960355757e-01,2.348065437305154324e-01,3.231590646951196244e-01,1.551370325204601830e-01,-3.964236402277479532e-01,2.084939874773252266e-01,3.229005116463325997e-01,-4.215690711254068135e-01,4.661824777129066621e-01,2.671301434847602740e-01,-9.183709364674196018e-02,-2.909803484576303778e-01,-2.104769655770024062e-01,3.072630772406332866e-01,-1.842569135095869781e-01,1.709655074626298121e-01,-1.571135069603774026e-01,-2.761243957414266995e-02,3.147639740166924271e-01,4.145603868065398934e-01,-2.249455145140165091e-01,2.941889542826580661e-01,2.422219392264123028e-01,4.125167863432203236e-02,3.589739213406067386e-01,-1.676887598755795739e-01,-1.663859467092874134e-01,-1.806705502620959691e-01,2.662462315051101203e-01,3.125117968561927362e-01
-4.213682376504273575e-01,3.610251962269655501e-01,4.717936912746333311e-01,1.512101809967209276e-01,3.556580776290682588e-02,-2.550016111447445111e-01,5.062837134006714646e-02,3.801405438090353361e-01,1.235051247101286338e-02,-3.398962330818980915e-01,2.604236511381391450e-01,2.639635713232311165e-01,-4.914654769062615225e-01,-1.997038778931548297e-01,-3.982788842121912642e-01,-2.370675398936572531e-01,2.582552162491325576e-01,-9.255719815607557632e-02,-4.318441188480678927e-01,3.362347455129754414e-01,2.973710913795889477e-01,4.196732505718463457e-01,3.250088593098774403e-01,2.079312368991889926e-01,4.047271972649880145e-01,2.058054553747405702e-01,-4.419148645188771818e-01,1.236158054848625482e-01,1.077934987839200970e-01,-4.088860809884786729e-01,-1.595010284691390223e-01,4.062348235244103711e-01,-9.581047065697621823e-02,4.996161051715427015e-01,-2.665752990524127841e-01,-4.693421337995545839e-02,-2.397826960138739819e-03,4.175040100782300562e-03,-4.497442228685412102e-01,2.624074281892728178e-01,2.691920965146022415e-01,1.673629872671799079e-01,-3.412209204689942710e-01,3.912527522682586190e-01,-7.731694273334141498e-02,4.271794833794218538e-01,-4.801742528525077547e-01,1.371889801531837871e-01,3.887543052730133009e-01,-4.149545208872160162e-01,-1.326902211886286098e-01,-1.183242891134353159e-01,-1.125456335913589540e-01,3.918093613916009965e-01,-1.427180378961179219e-01,-1.593296162419698403e-01,8.665642864969293202e-02,2.887364839849539469e-02,-3.427502627165585070e-01,-9.041493520829885222e-02,-2.651021540549374292e-02,-2.777109691969643079e-01,3.956714586590827087e-01,2.945825807699128940e-01,3.570787282503825599e-01,-3.897264405877250842e-02,-2.686381758110654716e-01,-3.605760638886175706e-01,-3.480632100417220542e-02,-4.559664250903749383e-01,-4.829547085351859059e-01,-1.759709999247887069e-01,1.466690008999690931e-01,1.325337013485037019e-01,-3.431179245886345486e-01,-2.197876889335736439e-01,-3.779373771076151023e-01,2.538132557755593544e-01,-4.451201937062272962e-01,4.110372976563729797e-01,1.873027800465956461e-01,3.385785684840334486e-01,4.233999885991893697e-01,-2.845331889001896375e-01,-2.370075175820200164e-01,-7.929670333324306819e-02,-3.584294154154821221e-01,-3.315160481650122337e-01,-3.872229703040289683e-01,-4.478534124531816651e-01,2.943483639267613361e-01,-1.585536986777794088e-01,-4.499009299230463665e-01,-2.535109188066260733e-01,-1.120642833185559184e-01,3.137578520484796685e-01,-3.415041164300932075e-01,-2.211262894975506432e-01,1.722062716167885588e-01,5.695565925319578254e-02,-2.755393009867566079e-01,2.707468242201940822e-01,2.310166374665113820e-01,4.182951771873343882e-01,-4.767967235008197524e-01,-4.265067492171119024e-01,3.787731241645179159e-01,2.708943182521523774e-01,9.342537116983518075e-02,-1.952465879851954800e-01,3.036644720161696398e-01,2.587911279995858127e-02,-5.003267250272760425e-01,1.315440913224286690e-01,3.215915294655406487e-01,-2.725977079877316966e-01,-4.309981067410991740e-01,3.991005223252108158e-01,-1.187699196241051441e-01,2.826697604718264589e-01
9.388852949286627392e-02,-3.695254380598819721e-01,-3.579691598267829011e-01,-4.436451952996349202e-01,-1.011068819190346635e-01,5.149815745769948938e-01,1.363662778271771403e-01,-1.848781060997304881e-01,2.410671058036750053e-02,-4.436950563543720638e-01,3.410982909869321733e-01,1.241903848578611858e-01,3.367935759927392914e-01,-2.702060788499188182e-01,3.590844577459971210e-01,2.525718480095232032e-01,-1.479121778242226959e-01,-9.492669247581802736e-03,-3.939043612541056061e-01,2.000410472461345013e-01,3.968754700166018945e-01,2.017962192876282534e-01,-3.278824990141678275e-01,2.795354733637713807e-01,-3.316086188862932271e-02,-2.100691591633701283e-01,4.345090319862487949e-01,-2.943757308559267760e-01,5.039590338969944794e-01,1.433246004351119984e-01,3.681179323970358852e-01,3.231942780246691016e-01,-3.036291568842586774e-01,-6.293527784023250637e-02,1.616164227837447454e-01,3.323718276167859087e-01,-3.814489706921230794e-01,3.498587751377942312e-01,-3.122695869294177529e-01,-2.295286979815419071e-01,3.609516628211494882e-01,-5.567114664496093657e-02,4.880315238141861856e-01,-2.566796236928212682e-01,1.569522046760919443e-01,7.148893949561999084e-02,2.692523688201757803e-01,-4.548442337714163064e-01,-2.266602585644816523e-02,-1.222654846363798870e-01,4.673851079931984898e-01,4.487312643899714626e-01,1.261318778798418971e-01,1.994470340456592217e-01,-3.637084366792390222e-01,-1.273148847720978194e-01,-1.139675994259376456e-02,1.069485906416238197e-01,-3.162256519386142384e-01,-2.274703526519046004e-01,-2.017299095451584590e-01,1.262944292182267558e-01,-3.400242432386396674e-01,-4.068475757494308120e-01,-3.422751115369360164e-01,2.791476776597872633e-01,1.670403426091515153e-01,3.694624077484655045e-01,5.054210530958656022e-01,-3.656753868892350101e-01,-4.730915269624795805e-01,3.757034091818944183e-02,1.521139763293636316e-01,-3.418871590085038603e-01,-1.811326485168094913e-01,-2.058623482336334465e-01,3.873660138369475758e-01,1.864539814313088406e-01,4.996710777141273319e-01,-1.874634707919000109e-01,1.226151257528590860e-01,2.115880412068901414e-02,3.622010101707370255e-01,-4.103381657437846913e-02,4.773923241966498421e-01,1.179807475585823717e-01,-2.668342648403918549e-01,-2.026646708336333758e-01,-4.090459624754842483e-01,-2.999226221447778284e-01,-4.504953814028058168e-01,4.158604575028739675e-02,-1.147095276415915771e-01,-3.146911497351171372e-01,-8.846414615957159987e-04,2.217442457556194901e-01,-1.802705476088185821e-01,-1.759206972087720977e-01,-1.190031617944322384e-01,-4.641989539429810518e-01,-4.775495225463173843e-01,8.501169197267839650e-02,-3.338689208988630530e-01,4.616762282880623181e-01,4.269177728220442392e-01,-1.090803412623583130e-01,-2.898831360080385555e-01,-2.461069122207706628e-01,-2.483170734736113161e-01,4.498169421980405258e-01,-4.743505518408867028e-01,2.097241077385027241e-02,-2.876770681127165941e-01,1.561331412305367317e-01,-2.310626628974875585e-01,3.235052021931546506e-01,2.341198488208778850e-01,1.262033124175283016e-01,-2.225214564244577253e-01,-4.808453126040614367e-01
4.080248942928610956e-01,-2.817038687576958744e-01,4.070583476349873830e-01,-1.866697928378365234e-01,4.083859974992739006e-01,1.791227744401612254e-01,-7.092656346680571711e-02,3.494923160467736656e-01,6.394009259807041656e-02,-2.539564250947848323e-01,2.550531185235023757e-01,-1.639619908910096013e-01,-3.017505278511914968e-01,-3.501014223377304502e-01,-1.189169664900844268e-02,-2.904968150355796697e-01,1.778365172453046372e-01,-1.720627452121494538e-01,-2.176313950678349651e-01,-3.001889325880334192e-01,-2.570872394806931194e-01,-4.833335331261918999e-02,4.356480805993632188e-01,4.042545947180944399e-01,-4.580696232313387073e-01,-1.036691370878515400e-01,1.763522589936756535e-01,-4.091824207903150268e-01,-2.918496712208953348e-01,-3.267271355184069859e-01,-4.487859049377700416e-01,7.827236545972758586e-02,3.248556071111819987e-01,-3.191808366617949755e-01,-2.777906927832566875e-01,-4.628985107532839205e-01,2.047486030909035637e-01,-1.147669409821940184e-01,5.476240601777137423e-02,-4.061994499779145174e-01,-2.716617657530639995e-01,-4.858955271760092010e-01,3.586410354510056187e-01,-2.188002085565217691e-01,-2.030593100158254449e-01,-4.444291056727572853e-01,-8.609234900063728047e-02,4.010479076384491637e-01,-4.167715625594385909e-01,-1.995222532209925959e-01,2.813495867892858854e-02,3.919508613389761226e-02,-1.466433601847230983e-01,3.641899735190224918e-01,-4.198602468562780410e-01,-1.262156795793981795e-02,3.654290256671306469e-01,3.592830340737108719e-01,-3.572972569025861800e-01,-2.461118529706032287e-01,-1.899945624576125647e-01,4.325801197008372623e-01,2.950387282895620134e-01,3.181195480352869143e-02,2.627891370099634250e-01,3.995603348707281177e-01,-7.075441142558903940e-02,1.874713784297492303e-01,2.565030931441041884e-01,9.197245435414287684e-02,-4.581753677309319261e-01,-3.940858737963482405e-01,-8.174078205337079184e-02,1.103045913535821848e-01,-4.329555673429228424e-01,4.405814570540369512e-01,1.988992309859350383e-01,4.381144310105220541e-01,-3.581239946243849337e-01,-1.384864958978601901e-01,-2.274459343258846966e-01,-4.679820418448764618e-01,1.160213008699636922e-01,-3.495883320363976088e-01,1.992802885915347100e-01,-3.911351219751322272e-01,4.617714319256378541e-01,3.091448111802868465e-02,-2.292158607087813604e-01,4.403723631551061946e-01,2.686017335946845885e-01,-2.918472075730142445e-01,3.508843489031214236e-01,-1.074527764292165510e-01,-1.647139042546385546e-01,-4.292946830993377705e-01,2.080179578949006569e-01,-1.318231703404052213e-01,-4.181992870066616463e-01,-4.254614439547661497e-01,-2.331858083897832834e-01,-3.336936775216213236e-01,-2.767921070707544118e-01,-4.434063181227872463e-01,-2.219957150076874719e-01,1.668253682123810311e-01,1.406511828499248107e-01,4.595974096829472111e-01,-2.180319186568664414e-01,-3.242252385679707943e-02,-1.273131444122953815e-01,3.233846187097931257e-01,3.493325281443832031e-01,-2.749989113067202728e-01,1.602190540718989586e-01,1.878305387445538543e-01,-1.567050693119627636e-01,1.246739804818649405e-01,-2.096290968325565940e-01,5.519269415195206252e-02
-7.430335351385942977e-02,-9.814290911502268622e-02,-1.634164125273915857e-01,-2.157592513010028745e-01,-9.363634416169493158e-02,-3.428165105692363990e-01,-4.815456811145388816e-01,1.407339927058834095e-01,-3.132397432293780870e-01,2.200008923566758867e-01,1.599426478943784258e-01,3.853204003630769647e-01,-3.911037692450752279e-01,2.404816147908636625e-01,2.310548023599190148e-01,-4.019734780656127882e-01,5.502697795516607593e-02,-1.694889677167593645e-01,4.920662394791922717e-02,-4.818687418021153634e-01,-2.280636951187713091e-01,-1.832715518860981718e-01,-2.458954894207619202e-01,-5.881982622727568305e-02,-2.380381919673826285e-01,4.733096095403206416e-01,-1.450409894146513501e-01,2.710645303279065124e-02,6.938903934486141678e-02,-4.441826964736123595e-01,2.474116361783155749e-01,-3.952345863174001050e-01,-2.104160443023156968e-01,-2.111430679987775227e-01,4.259184858629000980e-01,2.917961278927454494e-01,4.335490919264617937e-01,-2.482918803460694712e-01,-4.129532789079707333e-01,3.283066554123243996e-01,-3.001728414564625580e-01,-4.176813861200323053e-01,3.338687042272319716e-01,8.736246369405689660e-02,-2.880633682777674620e-01,-2.688844747570906871e-02,1.922724194403324371e-01,-5.232806970043225869e-02,8.632104053081364470e-02,-2.560701307644264180e-01,4.103659183570109170e-01,8.480663054267691126e-02,2.321448322616689319e-01,-1.157267997126265879e-01,2.258486852056686700e-01,3.482796572373063615e-01,1.398175844941969559e-01,-2.933998452411780145e-01,1.569489701091706935e-01,-3.596312913289989588e-01,2.641635784733558645e-01,-4.559581860495875438e-01,-3.647369913370365202e-01,-3.809397279552282356e-01,4.216417828227037035e-02,-3.390264795285494875e-02,4.590584965176375820e-01,3.463945103929801372e-01,4.145388670317248225e-01,-1.146639238176359321e-01,-4.433137490757975141e-01,-4.015868282565031588e-01,8.036505159638468454e-02,-2.161359250604394655e-01,1.438820378954751011e-01,-2.793015556890633411e-01,-5.585100675546462307e-02,-4.432749980362660908e-02,4.167992581204585933e-01,-4.981280198498221901e-01,-4.953202671671672053e-01,3.547418366625360031e-01,-3.466775169345281404e-01,-1.654708182871115207e-01,1.371597087591026019e-02,3.975283380659770938e-01,3.176259975267552438e-01,-3.185477375944517076e-01,4.971155908777012966e-01,3.753521201456782030e-01,3.396210169209891716e-01,-3.750916992507646319e-01,-2.181344003688402977e-01,4.613584142032063629e-02,2.210910348366722233e-01,-4.742038251353627998e-01,-1.985829762365113604e-01,-2.609355835940482260e-01,1.341948577105673279e-01,7.464560089269689155e-03,-2.039505811459324802e-01,4.660182192152700908e-01,4.449193238555070318e-01,-3.475667754457780756e-01,7.073462123665016921e-02,1.219274863195333458e-01,-1.590258062452117316e-01,4.244144523015818682e-01,2.504417381337778470e-01,-2.012363284058677482e-01,-1.956934767175922685e-01,3.083649186402290798e-01,1.218518697857663424e-01,-1.742452765091095090e-01,-3.100880216418953061e-01,-4.563769308829059290e-01,1.234507915660288530e-01,-4.533475719498753498e-01,-3.109418293859024171e-02,1.221748499352958012e-01
4.106774425891500657e-01,1.536547155344300808e-01,2.291272498136507907e-01,4.752309660125662027e-01,-4.394652782162903892e-01,4.530673644384979326e-01,6.161108394176644659e-02,-1.903063040862441047e-01,-4.436608638474751065e-01,-9.690255466105289484e-02,-3.187129260724775315e-01,3.570930284818717992e-01,-4.095955657556938911e-01,-2.704274140177834185e-01,4.368510663505385111e-02,-2.937490021629529102e-01,1.940359817163233025e-01,8.305136247292146945e-02,-2.777736405206597259e-01,2.418495142165986433e-01,-4.334251334116049348e-01,-3.781225523882957851e-01,3.815167591487225729e-01,2.972084096690152388e-01,4.868856504449132760e-01,-1.051372554897124501e-01,4.885613201419752860e-02,-4.713713682547147066e-01,-1.531600360819358464e-01,-3.127016151342722483e-01,-1.084461032378107176e-01,-3.505626239329624472e-01,-6.712571178101266189e-02,-2.687250522003947761e-01,-2.246997781814787098e-01,-1.374962922899971851e-01,4.906382389377690889e-01,3.732993975190140867e-01,-2.188457562955325453e-01,-3.319350738434730108e-02,2.923306894973065062e-01,-2.801217556236702544e-01,4.129330727832272174e-01,-1.099565097274142200e-01,1.351349226201065401e-01,6.789498249399182617e-02,-2.923421066841403460e-01,-2.324418273432107274e-01,-1.840389974303689724e-01,5.872637886842933114e-02,1.814098522699660598e-01,-3.821709942647751879e-01,-1.043123749875750211e-01,-9.273348508674274238e-02,-3.358028683830689420e-01,-1.209793733200461435e-02,-2.549503058220973228e-01,2.965748702514313662e-01,1.735046499696094591e-01,1.275388545190922207e-01,1.901070407406845186e-01,-3.477901100058176653e-01,1.067273042409675049e-01,-1.356062929744750734e-01,-4.257261254933373262e-01,-5.686108914914264623e-02,4.114655592171110876e-01,4.205754983416018500e-01,-4.019337666125259445e-01,-2.013393948138408052e-01,8.444464323515195325e-02,-4.320239334148343047e-01,-5.411743036678032248e-02,-1.991235887470559907e-01,4.790450582527304713e-01,-1.935255760663859292e-01,-1.174995763394697662e-01,6.343878229856426965e-02,4.381089984607784704e-02,4.836299702449366467e-01,-2.143958341369215093e-01,-1.081455499381020202e-01,2.398857231184945704e-01,-1.460984957391709138e-01,-4.344649730049152114e-01,-3.062578406540140130e-01,-4.821335963687485293e-01,-4.919815980773291630e-01,7.287501509404467614e-02,1.208194280850192759e-01,-1.813014255485431436e-01,3.472433935221029833e-01,3.493472585416048104e-01,9.813157385153811751e-02,1.756649357865252836e-01,-2.005554201172314241e-02,7.846631007860779827e-02,2.451556703723233588e-01,3.970759679175684537e-02,-3.216199964132183675e-01,-5.007159338774133106e-01,2.632941184867724216e-01,-3.855990996320327602e-01,-1.990542263041922555e-01,1.529579424288718958e-01,7.468853684999005038e-02,1.967184765760170151e-02,7.698626888288583048e-02,-4.221372273839706923e-01,2.629037165057484526e-01,3.547433996822131341e-01,4.350588568616297058e-01,-1.015547830490887496e-02,2.177219074137454469e-01,-5.317582508784569895e-02,4.535299323736376453e-01,4.569434738466850443e-01,-3.877557171354510945e-01,3.030405112390133771e-01,-8.505938858169302674e-02
-2.228446861261419443e-01,-4.980048395233327430e-02,3.613289140764860408e-01,3.540597035238426393e-01,-4.466113463127461269e-01,-4.691610196741994310e-01,1.613654594720059451e-04,7.826580296151092186e-02,-4.591294241416918887e-01,1.303501304172775266e-01,3.895276637893680394e-01,4.737631368855483444e-02,-2.568067275364786517e-01,1.354231225168311958e-01,9.649014497818028668e-02,1.263463513620501355e-01,3.490456083080361038e-01,4.718154350946182629e-02,-4.566797388821733916e-01,2.724638887790606714e-02,-9.480567958921966298e-02,7.398079989762804121e-02,-4.968367258872245507e-01,3.219389724499211458e-01,-5.083045349023708193e-01,3.934473911882558905e-01,-4.333172757410817533e-01,2.715648547848979466e-01,3.186217633480157851e-01,-3.365577723176657043e-01,-1.775075677735969415e-01,-4.573841521290492040e-01,-1.066330341561275014e-01,1.858383031310182065e-01,-2.543409903038067466e-01,-8.736567045641804863e-02,4.233116990834294158e-01,-2.815038218806020232e-01,-4.030202478100195496e-01,-2.907332895992186667e-02,-8.628823153670740764e-02,2.082959941871719012e-01,-2.039854859782422314e-01,-5.123254848623733926e-01,-3.653738792346501452e-01,-2.167712787889208292e-01,3.114241374962969378e-01,-7.273001169971347879e-02,-4.107926333572384792e-01,2.147438661488061118e-01,-3.288902345259159810e-01,8.089133997988062763e-02,1.696946032567686335e-01,-2.331496593980421084e-01,-2.520283575256332398e-01,-2.160523941826332228e-01,3.421515406231749878e-01,-4.452315383295936402e-02,-1.015638610910550993e-01,3.554803063110535954e-01,-2.737602589300354786e-02,-7.219426114433002972e-02,4.163565285257037063e-01,-1.281614270147497965e-02,1.179960748812498850e-01,-2.905997516371490730e-01,-2.505932559030344398e-01,-1.500206138853124871e-01,-3.753907572831285400e-01,-4.504802734039764500e-01,4.641923199240708398e-01,-2.838459965361722626e-01,-5.675346516071057279e-02,-4.845100475472585710e-01,-1.697370716371842114e-01,2.218759351057598972e-02,2.838612606271587735e-01,-4.751822507476622520e-02,-4.820765450685804421e-02,2.993157953664367099e-01,2.289696809493624308e-01,-5.713747656623888865e-02,2.439511378569815883e-02,2.518893656122696001e-01,4.210768444404018318e-01,-1.101472274181438393e-01,2.346544147330983099e-01,2.543936153445158221e-01,2.483002606135978063e-01,-4.180394272077398443e-01,3.231466396316959311e-01,4.960213998535781266e-01,-3.468253304738173060e-01,1.667453327685140818e-01,8.286687832401262721e-02,-1.707557205103790166e-01,2.009973606821904291e-01,-1.854999979099812846e-01,4.673127184416729363e-01,-3.399670826285801084e-01,1.343466567541330182e-02,2.774233759134817068e-01,6.918294565043410504e-02,-7.752568363985588851e-02,3.127907166359194524e-01,-3.031621005965048354e-01,-2.467330427539137505e-01,3.294119171355761044e-01,3.109647719913493091e-01,3.411463286967224978e-02,5.158795469530731703e-02,4.313437566024536651e-01,-1.908322125174056194e-01,1.941339185747173735e-01,2.653642289964378009e-01,4.854729228617298831e-01,-1.878837851533395886e-01,4.109133245315448879e-01,-1.545491780640389223e-01,-3.082765801949572948e-01
2.547868414246241553e-01,2.033918992865794140e-01,-2.999990887998119637e-01,-4.979820102514332936e-01,4.967562000348407225e-01,3.717225644233817516e-01,-2.385626635570882170e-01,4.309843765847964359e-01,2.529704202766445142e-01,4.734620175101956346e-02,1.837456967270849895e-01,-1.017284941487784332e-02,-3.688571914143818908e-01,-2.897823965553051884e-01,1.855465245599400848e-01,-6.224606119670845344e-02,-2.434083305504233796e-01,2.999349697872743525e-01,2.126461870041821411e-01,-1.614988111029914686e-01,-6.651859740154648926e-02,-3.435424892582435996e-01,-1.339483789397373781e-01,3.640050838177810166e-01,-4.885658388626508697e-01,4.457012850473555665e-01,-1.612090644534157347e-01,3.115093789946037917e-01,-2.983817333688332796e-01,-5.721385141659303397e-02,2.457157710152505226e-01,9.416179037561661636e-02,-4.778316431081465199e-01,-3.343314520041799076e-01,-3.045603748587710768e-01,-1.165812407350980129e-01,3.422390564326795448e-01,1.511832731859523438e-02,-2.787351466252969701e-01,9.385998059708059241e-03,-2.710396228415209441e-01,-1.370476244857333215e-01,4.185904049648179748e-01,1.414894681321817171e-01,-3.716195033664405067e-01,3.880700129870690018e-02,1.308980163779286388e-01,3.375868022950987424e-01,-3.209969681607725001e-01,-9.757974173820620212e-02,-4.398250107088079730e-01,2.743285613486482477e-01,3.668466465739601001e-01,-1.407952219451669151e-01,3.045502500183448480e-01,-2.377925387951887806e-02,-3.610332479590686594e-01,2.420326312049344425e-02,3.195673352313936899e-01,-4.761673601614479501e-01,-4.162788731985628266e-02,-4.977908972830880595e-03,-1.002976274611774854e-01,9.641785333740771069e-02,2.070957590640082890e-01,-1.640161881970129409e-01,-3.664722452147127219e-01,-4.209081297270568789e-01,2.685517611039370256e-01,4.179068544429715565e-02,4.285883206362484654e-01,-4.866611574964117004e-01,-3.132044193606275395e-01,4.222581736306799671e-01,-4.439700459186734366e-02,1.958301754850083898e-01,3.843609198704638907e-01,2.770313310351502634e-01,-1.489701243153535581e-01,1.926116967179561934e-01,4.061271558248893410e-01,-4.022092470611506321e-01,-7.176978914730981762e-02,9.880184351577472879e-02,-8.399669538569584648e-02,-1.783098193938832121e-01,-3.942687115392906061e-01,-4.631307338755207836e-01,-4.739315217174289718e-01,2.669673377268338421e-01,-1.942399895811793842e-01,4.102426860271108922e-01,-3.994431573403096625e-01,-4.721537975313290225e-01,2.464789036423014890e-01,-1.025942363691345199e-01,-3.376513872071171263e-01,4.644534220214504017e-01,-1.196560958454026807e-04,-1.322394037839218495e-01,3.245402773251955530e-02,-4.835121721415612805e-01,9.228669797335817271e-03,-4.315432819857606406e-02,4.867678604542506893e-01,-2.061073572272772436e-01,2.510046941911975860e-01,2.777215498537642380e-01,-9.585708101190132391e-02,-2.239797723138883534e-01,-3.985321283751563359e-01,7.276522354498815570e-02,1.103475709248077502e-01,4.762079809556427623e-01,4.643868447681410161e-01,4.572996757417837066e-01,3.819018899201059303e-01,1.503723829507421506e-01,2.320757614114198845e-03,4.124300156548708629e-01
-3.659452548152662410e-01,-1.271538560594691614e-01,-2.654016648470158141e-02,-2.987655481601779739e-01,-4.261869713684385275e-01,-3.079335400997690320e-01,1.247235044711272750e-01,-3.132156965531603388e-01,4.709053339329014043e-01,-6.894503878548077780e-02,-7.019927092313699157e-02,1.414992866660852444e-01,2.670298607234418697e-01,-3.603096951838251627e-01,2.630168401081816598e-01,3.051648392964695367e-01,-1.166770081199359349e-01,1.807036308593628904e-01,4.344058354593436921e-01,-8.519891674316681929e-02,-6.900049506317362802e-02,2.863286996754664526e-02,-3.231540826244688192e-01,3.504268080087684090e-01,2.993346742098005331e-01,-3.694702891793937849e-01,-1.136006338835671148e-02,3.359984617389913941e-01,-1.112913809285139000e-01,-9.887959057358766679e-02,7.537989906813054308e-02,-3.031503640845810144e-01,1.284493773027438335e-01,4.256191335991809099e-01,5.513616225198936932e-02,2.541210031665998570e-01,1.047857821288945002e-01,-3.983940934471099510e-02,4.473408697116353916e-01,1.551049815914098406e-01,-2.257336822935887832e-01,3.367137858912684911e-01,4.272076346061908225e-01,3.349844680422836007e-01,-2.916898440630643075e-01,-4.192088652414796002e-01,4.593177025499856625e-01,-1.463527444626066265e-01,-5.019439830735891728e-02,-2.560793147013176174e-01,-3.634486419273205149e-01,8.366489114585282105e-02,-3.092086085936783871e-02,2.465286549941538355e-02,-2.846989023979464295e-01,3.338225907866430031e-01,-4.945733913064151444e-01,-7.800658731358535436e-02,-3.934820358366168391e-01,-3.997907301818941495e-01,1.453973322528739620e-01,-1.156748642540493394e-01,3.570135396676488160e-01,1.170659982175699942e-01,4.437722534157936272e-01,-2.697039046377622262e-01,3.432836010835442486e-02,-2.435751869448744278e-01,-6.319470325284354262e-02,-8.033299239998441948e-03,1.406432470015331893e-01,-2.225605486386609821e-01,8.933031711260407126e-02,8.607725251896479468e-02,-3.470476633182587034e-01,2.991459836839507336e-01,-1.155607790924456924e-01,3.560372710149406483e-01,3.971098727733736178e-01,-1.605302519939290073e-01,3.124825416461067817e-01,1.673441775288916911e-01,3.566773970314711106e-01,-1.503636650174932921e-01,-3.958836828290387966e-01,1.265082446358233859e-01,1.037880576263052468e-01,4.410450408331587635e-01,2.607024066598423451e-01,9.575303053188144453e-02,-3.875487340355351917e-01,4.931518439732477388e-01,4.490735671175412058e-01,-2.234910794800065437e-01,6.402811994339692447e-02,-3.126114051787513559e-01,-4.363031609494067570e-02,-4.300700805830455220e-01,-3.526942023491194678e-01,3.755526823108664147e-01,-3.699508033847501709e-01,3.705216558278532357e-01,-4.192824917037424881e-01,4.049677492037928594e-01,-2.122317108954824283e-01,-2.681585838333955807e-01,5.876170618312034910e-02,-4.146272705789031399e-01,-4.474304698677807890e-01,-2.121034320937701112e-01,-2.384208944523614204e-01,4.895803846957033634e-01,-2.159138598207593351e-01,4.083785349304623336e-01,2.812546084776815225e-02,3.270024110567542053e-01,5.492635201060099698e-02,-8.321561566849789218e-03,3.320445790502938449e-02,-2.115048728357031005e-01
-4.891382605338492340e-01,-2.826076891815484937e-01,2.662586651625911127e-01,2.478827712851935927e-01,-1.967544981452986896e-01,-1.334308224454805736e-01,-1.383086990462700505e-01,-1.945113897058884933e-01,-3.363952252632472217e-01,-4.966740050318708688e-01,3.528273448895649644e-01,2.253007564646406502e-01,2.538447170261058372e-01,-2.946718585981986660e-01,-2.635392096206672363e-01,1.318920780605626619e-01,-2.273716671207680062e-01,-4.202445824324432255e-01,-4.647442306960147818e-01,-4.132068296652595119e-01,-3.957367187883287923e-02,1.644286774610131951e-01,-3.095497693430800112e-02,-6.049994952093822043e-02,-7.720634396646446074e-02,7.405781303404902760e-02,1.508908663434736785e-01,-2.845390506114404139e-01,-2.715552201132411803e-01,-4.554573791851467823e-01,4.603659502204520693e-01,-4.480301882353188159e-01,-3.268233599928589417e-01,1.644840888067472529e-01,2.975216574506921452e-01,-1.333578469610220973e-01,3.680797173049553117e-01,1.968739516983199767e-01,-1.758744467265557082e-02,-3.515136973973661538e-01,-3.188313285321147661e-01,4.422590396818341096e-01,-8.834921340753364161e-02,-1.544160223657795594e-01,2.398853483914382967e-01,-3.295328073223481313e-01,-3.554843938378630247e-02,-2.158435057682984159e-01,4.567425206187488151e-01,4.942076181225557030e-01,-2.628640222647578573e-01,1.995645049675904281e-01,-1.595155654235590470e-01,2.782991167747159711e-01,4.429578464688689321e-01,4.110580932748619798e-01,-4.925009906228278167e-01,-4.447205544293617585e-01,-3.341306089492935838e-01,-5.940385863049244680e-02,2.823783561851070031e-02,-1.060435315878139467e-01,4.998505798855948923e-01,1.261529070449362855e-01,3.659522216842395204e-01,-3.285583845086043064e-01,2.356432510817781101e-01,-2.736574311773218304e-02,-2.831914132597077582e-01,-3.789190758342874110e-01,3.700725802436866108e-01,-3.888128128342777656e-01,9.760992783066239908e-02,1.654781579503651900e-01,3.635335059515936162e-01,7.394048794730084806e-02,3.884217720538047924e-01,-4.352619954415329340e-01,-3.369234618960493810e-01,2.449327903500289616e-01,3.212004363242075833e-01,-4.285644761883269371e-01,-2.160400972356548988e-01,4.100508736808936017e-01,3.837465482648337867e-01,-6.725017875034773607e-02,3.096098046476951082e-01,2.155994925604408641e-01,-2.083171049342259218e-01,4.289563039806863487e-01,-2.686134282563791276e-01,-1.593314274750130821e-01,2.573747228158944633e-01,2.713118014467843508e-01,-1.963097732251831429e-01,4.443681180087666327e-01,-4.980577909496803346e-01,-2.570803394610918780e-01,1.438296906713535384e-01,3.453694473431915268e-01,-2.256246285957241859e-02,4.299532587263462102e-01,-2.419963105506121592e-01,-4.839041012704532463e-01,-3.257358411463362469e-01,3.515676368122606643e-01,-2.012336928862994978e-01,2.939323339272754132e-01,1.099763944312499714e-01,-1.042040177866368350e-01,3.251080656003780267e-01,-1.268513008336134562e-01,1.326504436238945539e-01,2.026571277844876340e-01,-2.669914798971821379e-01,8.234202043632701806e-02,1.002533300208254818e-01,9.013650529897546115e-02,1.290043288224217710e-01,2.126363676760114479e-02
