-2.464949129744202494e-01,3.128581022574382087e-01,3.022869050864036150e-03,2.140166478126354632e-01,-2.988341117314821105e-01,-1.720724556992921442e-02,-3.833735849925208328e-01,1.087741795575842552e-01,-2.113087394671392116e-01,2.054717458001812380e-01,4.744664373814311831e-01,-1.660649627512499893e-01,3.620928995851733223e-01,3.080620262239891494e-01,-1.488611273325073092e-01,-2.527025583421274590e-02,5.022164581586299192e-01,3.667212516446618498e-01,-8.804348929456932982e-02,4.978367557514153940e-01,1.666396142774947686e-01,4.790777830636053780e-01,-1.040985976296579379e-01,-9.027297157970673447e-02,4.862146137938068158e-01,-2.945148046628970340e-01,3.354015592976199445e-01,2.580838534908769244e-01,5.126901183099843440e-01,-4.004607700805049575e-01,3.075961033814825774e-01,-2.296083607843480145e-01,-7.502406177232746887e-02,-2.948855077798760438e-01,2.240792592286558749e-01,2.501910723624338195e-01,3.238119287961984116e-01,-1.618897970839268674e-01,2.004187603092162095e-01,-3.897012392642065781e-02,4.161495485612151657e-01,-9.003353210861135547e-02,-2.388451956153179456e-01,-3.608277780920632893e-01,-1.094899908036417041e-01,-1.762067003402788545e-01,-2.150876517254005360e-01,-9.498245330478341519e-02,-8.481117625938643101e-02,3.408146809644078679e-01,-2.691911252108596386e-01,-1.558676683822658171e-01,-2.763415636473753323e-01,-3.419861048432846357e-02,-2.765452487539887261e-01,-4.039444055275027701e-01,1.043320543310176547e-02,7.720774367397668925e-02,-1.734302548689937440e-01,-1.409963464763104302e-01
