-3.810795685161028623e-01,-4.100390646509494696e-01,-8.757278007282626175e-02,-1.816865819877748200e-01,-2.891895584315156142e-01,-5.433829415148993397e-02,-3.712575902882634948e-01,-8.083107969344940913e-02,9.872371637263270550e-02,4.548721211701474698e-01,-4.745424817162100517e-01,4.694011347789477373e-01,2.878799161987007915e-01,3.033588125102247846e-01,1.291241131022268229e-01,-3.580443275789730456e-02,-4.462982958058763217e-01,-4.820652362624715942e-02,-2.698214094354014492e-01,5.092380162158200579e-02,-2.500572374372347917e-01
1.011036313498504119e-01,1.780734640016143067e-01,4.942836634230586279e-01,-4.189149918507844572e-01,4.958496653653006458e-02,4.169591341421859387e-01,-2.191469699281766992e-01,4.327376743749274945e-01,4.407166376792321927e-01,-9.689209978573855298e-02,3.967374694175535565e-01,3.622733574325275319e-01,3.352225277930896974e-01,4.385568054856715525e-01,-4.040658348343959538e-01,-4.787749908613181393e-01,-9.947312336314405312e-02,2.562287910186558104e-01,5.007000844826262620e-01,-3.486911110476508258e-01,5.994174098589122313e-02
-4.349568254463937467e-01,-3.107622996020421580e-01,4.566060601396484953e-01,4.301675116804527521e-01,-1.798309475381424660e-01,2.798152145216489806e-01,1.708548121102788364e-01,-1.787686607891062485e-01,9.953790761490387273e-02,-2.492685613564216141e-01,-4.871704805874571553e-01,-1.840994776746330830e-01,2.409435334872019330e-01,-2.894068979751482362e-01,-1.918880692651594444e-01,-3.015671062336721664e-01,4.370571270019439902e-01,2.690797439924282886e-01,3.037687365861607702e-01,-4.935901017992141981e-01,2.068128402347937239e-02
-1.403937108743844586e-01,-1.809300929005676628e-01,3.361793043264151848e-01,3.924365254351692145e-01,-4.431678666170803943e-02,2.915436497698691287e-01,-4.324484471922495632e-01,-1.289749350301208908e-01,4.925991259187590399e-01,3.986005426481549208e-01,1.507791193281361186e-01,-2.698175254379560073e-01,-3.917812442276039087e-01,-4.294547552989158579e-01,-3.032725681068610402e-01,-3.641931137845232369e-01,9.374845810696768103e-03,3.401624899044550232e-02,1.987004451068228594e-01,8.359539367223485506e-02,1.127607634633630701e-01
-2.656235886227714116e-01,-3.787701114065001318e-01,4.261542200180769291e-02,-3.942466920204718561e-01,2.474129203975963809e-01,-1.254961171327949598e-01,-4.775498809203466699e-01,-1.333537173457241543e-01,4.401629947881666727e-01,1.208682229368943095e-01,4.016677392164590965e-01,-3.582819035959982634e-01,1.938572553689534017e-01,5.544925432638825313e-02,-1.547068117980075763e-01,-5.777459958630117715e-02,-4.180915309220191167e-01,-2.351860544111329943e-01,-4.781485392852159455e-01,8.957984096177177766e-03,3.740342137638285602e-01
3.466494561551099474e-01,-1.504629957552063302e-01,-1.086354345473658778e-01,-2.880830080196695731e-01,3.189144519736311079e-01,4.664550530705828535e-02,-6.207087423832668982e-02,-2.538884076958218827e-01,4.754355438176279258e-01,-1.615945902445446170e-01,3.725064929733561958e-01,2.457118573261393157e-01,-4.259649831683591237e-01,2.953063581176246233e-01,-1.453600642796801512e-01,-3.751528405524071630e-01,-3.232950816258856608e-01,2.736928888661989689e-01,1.299951955966247852e-01,-4.028218601051325454e-01,-1.115485755432718967e-01
-4.698709001547767827e-01,-4.073203110121453308e-01,-3.839564881718795508e-01,2.837653849867144418e-01,6.402094567213111043e-02,-2.726105837416986644e-01,-3.628373580729788994e-01,2.127748738174481680e-01,1.838132107418854744e-01,9.789078217633408185e-02,5.918972273858170291e-02,-4.724184502798007279e-01,2.454311272313962899e-01,2.491314974081782485e-01,-3.636115556033973073e-01,-3.849027811315680614e-01,-1.297475989659638007e-01,-4.480954144705812658e-01,1.880246431356123737e-01,-2.311165522299850894e-01,2.120574187969333224e-01
1.308148785667354319e-01,2.010150571476500281e-03,2.417955325329958216e-01,1.668742268004879958e-01,1.247579391957452377e-01,3.215950385747196605e-01,4.689286114855879539e-01,1.206397854482231247e-01,-3.371291103425561736e-02,-4.712259579581870028e-01,-1.039186143586327410e-01,2.576429211127248542e-01,2.807481968360931446e-01,3.764037726863989075e-01,-2.858529121420206633e-03,-1.101615282802066026e-01,1.541352627431268330e-01,2.316335838435236091e-02,3.246824801167172425e-02,2.067100557762288349e-01,-2.971129532779349658e-01
-1.090980497373836566e-01,-3.802449776830508221e-01,1.969752939687030857e-01,2.930326421372002055e-01,1.566283950581181805e-01,-2.607149562529604836e-01,-8.920253687290043143e-02,4.877227244978540877e-01,3.941372817838333931e-01,4.351176842903700659e-01,-1.327690735385287091e-01,4.744726939230588525e-01,-3.915565080917161045e-01,-2.499603227832258023e-01,-1.242517624366934748e-01,7.034894256296864157e-02,-1.840061917077615572e-01,2.504113013390237841e-01,-5.701105273888536218e-02,1.355251519565902896e-01,-1.363743639748817571e-01
3.082298343827207798e-01,3.570486182451853008e-01,1.095814282102713227e-01,-2.568307739596107364e-01,3.898785989128824014e-01,-3.642069267245005154e-02,-3.587083478540638581e-01,-4.497787646986677740e-02,1.234410457598852928e-01,-4.729307550309345132e-01,-3.563228116649981292e-01,-2.141269110465955916e-01,-2.597727938879256238e-01,1.232435194847495974e-01,1.561679492399181517e-02,-2.001959088275752363e-01,-3.648264771575631671e-01,5.705033615735510127e-02,-3.189989657265467349e-01,-1.299161301674969515e-01,5.075703709918256111e-03
1.898916737635425733e-01,-3.260591740735362398e-01,-4.028028194777110715e-01,4.396338000895453901e-01,-1.250206343248144447e-01,-4.321940832066236138e-01,4.287521576664334727e-02,2.165947711057315539e-01,2.228955905443173180e-01,4.270870822453769478e-01,2.167216482032121028e-01,4.178085423051883240e-01,-4.254089674257323095e-01,4.764490034473044255e-02,1.994165032054872888e-01,-2.252611547443100215e-01,3.489927538927389133e-02,2.298322077803746644e-01,1.193594060083838782e-01,3.674832237238124244e-01,3.531740592186998762e-01
1.650433904101112625e-01,3.446387351263484611e-01,2.841256314656863680e-01,4.573487781486146320e-01,-3.703193604829553842e-01,-1.891356039647599518e-01,-1.714005804671650535e-01,-2.563166629610335034e-01,4.273897271366529638e-01,-3.172062824231961509e-01,1.035709306304603838e-01,-3.851473692528569609e-02,-1.275920098911715039e-01,6.085153131138637539e-03,1.743371196552816887e-02,-2.682656782150453223e-01,4.160102732014727689e-01,-1.916019807355127669e-01,-1.412586164923753385e-01,-3.229825261238345457e-01,3.113237805608012887e-01
-2.708069629003157508e-01,7.291234293142646872e-02,2.577105713950776922e-01,4.002025516498707025e-02,3.131433360427116619e-01,-4.654127420562671064e-02,-1.584584753588011430e-01,-5.011363098941486877e-02,-8.958726737801706030e-02,3.492504308734274421e-01,-2.718639373846081231e-01,2.971441461981113585e-01,-3.818134594131177700e-02,1.338155547510344046e-01,-4.473972936726482441e-01,-4.184363376673453372e-01,9.623110624195581331e-02,-3.585807719843720487e-01,-2.676100128872189732e-01,-3.478705875887906362e-01,2.204008371570804481e-01
-4.884637870391400627e-02,2.265662213461780705e-01,-4.120076469064530289e-01,-2.450421523090933612e-02,-2.451255580367283915e-01,-2.570320908415145433e-02,-3.805680279042341074e-01,-3.986906920730192150e-01,-3.161890836016752471e-01,-4.022831038341297405e-01,2.699286039863935671e-01,-3.369177449382511624e-01,2.647871742383974270e-01,-2.002664844347016582e-01,1.022692859076895083e-02,-1.360814421700636823e-01,-1.156690444161069670e-01,-3.345346709036771671e-01,-4.881684272549050019e-02,2.401476259203730312e-01,1.042935116201723217e-01
-1.692082795601559386e-01,2.894994760094606323e-01,3.274376673894742462e-02,6.908317087201569506e-02,2.450518481998806009e-01,2.394384816390027482e-01,6.992482514321224016e-03,-3.284470328079851509e-01,4.628281999565356242e-01,-1.962968536752326132e-01,-6.430063966875237957e-02,-4.640381337614205015e-01,1.524889689913219160e-01,1.187606378277109853e-01,-1.276672289949118411e-01,4.520046867688878311e-01,-4.427426969774349019e-01,-2.112092988040171759e-01,1.086236562611730405e-01,4.867134948380970050e-01,-5.080732021431988432e-01
-3.950392612090911082e-01,5.334432109364262153e-02,-3.301695701858340382e-01,4.875855492999457419e-01,4.561191747232486993e-01,2.731367265217777285e-01,9.746945032079193383e-02,-4.893285124400659769e-01,2.094956557418788112e-01,-4.345512263853615331e-01,-1.781956612815132346e-01,1.518884474310336630e-01,4.870190694054904457e-01,-1.063368732862419869e-01,-1.121392407069416730e-01,-4.595280012153361016e-01,1.489349592072639061e-01,4.717494292339173834e-01,-1.017663783997769938e-01,9.479287876479228214e-02,-3.811526229850975001e-01
2.619329904423335353e-01,-3.624071520875213337e-01,6.207816287146791789e-02,4.853299506258380580e-01,1.630445988867019191e-01,1.043506382690478629e-01,1.205079613993192550e-01,2.337811348806863310e-01,2.344734571176939134e-02,9.163377799218441755e-02,4.365776115335058827e-01,-3.802080203188126784e-01,-1.968445592656345722e-01,-1.947657702830916104e-01,-3.778453073500538939e-01,1.292299563223949788e-01,1.530105625300245686e-01,3.803314190143308737e-01,-1.799080577926226998e-01,-2.205730638258228404e-01,2.051259463883923495e-01
4.000582367095037450e-01,-2.595430622227107853e-01,3.887030174853868536e-02,1.530790363769581608e-01,-2.412482173542057073e-01,-3.740651965898311171e-01,4.967127481345159357e-01,4.004739615766586547e-01,-4.373164906082288583e-01,-3.626275589402890298e-01,1.661891045655608523e-02,-1.289980987526175363e-02,1.225523270440929263e-01,-3.416533147191059827e-01,-3.971613866689714389e-01,-3.859001561553342396e-01,-3.106145467845506936e-01,-2.800133376497832005e-01,4.409288699959041935e-01,-3.052065645590066878e-01,-2.739636495759686929e-01
-7.046174391766947542e-02,1.630456689390111513e-01,2.858125645903933365e-01,3.831203743302882825e-01,-1.801021878726677405e-01,-3.018408644383406905e-02,-3.829537848901273800e-02,-2.942294644929447922e-01,-4.474964517581008216e-01,2.978551627276941893e-01,-1.921104016011206811e-02,4.465731999721405665e-01,-3.360613963409805338e-01,-2.014476264939017991e-01,-3.160898660927520809e-01,-2.686594517945523619e-01,2.395848784478247506e-01,-3.387372097765078416e-01,-2.043276540685375620e-01,-1.668574819797231379e-01,3.509621145778265422e-02
2.722389159438203671e-02,-4.335125871673215503e-01,2.855985765701379853e-01,3.887847191915506095e-01,-4.005662665213767792e-01,2.273563927548890029e-01,-1.172526947637285953e-02,-1.844532971010431899e-02,2.215688989157612310e-01,-6.732352665343999121e-02,-3.489295660064519189e-01,2.491919949129677014e-01,2.829224737601211959e-01,3.076740963344177238e-01,4.174495258031359346e-01,-4.710756906418561013e-02,-2.933128678553091895e-01,6.119926298442970175e-02,2.792358573443995962e-01,2.413469803188234009e-01,2.622342452938286952e-02
-1.613906709899898817e-01,-1.531451165233693734e-01,-1.572089380478508894e-02,3.698164900616898176e-01,-2.710636192647121190e-01,3.423512666990634057e-01,-4.887197347384381607e-01,1.848716760125987957e-01,6.504490071773589600e-03,-3.676987363561857736e-01,-1.265685421628625906e-01,4.496257267080644993e-01,-4.063570637145589304e-01,-2.444878926832995125e-01,1.693944884866334377e-01,-1.744716606030874140e-01,-3.506865557007440848e-01,3.183983165003574367e-01,-2.189551922057985656e-01,6.026422572143299433e-02,2.360110754835318680e-01
-3.015070207975259486e-01,3.370695324781183277e-01,7.038792325021611673e-02,2.032897144977929282e-01,-1.109197783863676012e-01,4.147839922096556164e-01,3.805019291666807413e-01,-2.771825825683721933e-01,2.774204841006698910e-02,-1.183578669275080486e-01,-3.791914745909926721e-01,4.023695119764064132e-01,9.998613795397177928e-02,1.521351454863500985e-01,-5.128983579647442559e-01,2.589822458330793831e-01,2.107084290074185962e-01,-2.884355988138373461e-01,-4.704375183602083760e-02,1.287110646482542420e-01,8.434700827935431855e-02
-3.883306854296174060e-01,1.844530407609538125e-01,4.055035124425890314e-02,2.899793789633715035e-01,-4.507941810853633990e-01,-3.730459351325220857e-02,7.142324451083266468e-02,-2.005352629239976203e-01,2.431202562575723869e-01,2.956487377567319497e-01,-1.972224180993194242e-01,-8.328923590452709524e-02,-3.912933131163858214e-01,-1.501709862889218094e-01,4.522581180152647484e-02,4.696326729798261379e-01,1.173534978076792856e-02,4.139704876693804381e-01,1.002281355409935654e-01,-2.247956131439950503e-02,-2.442247398421173721e-01
1.844280572778780047e-01,-1.153985759587476123e-01,2.337230502714983671e-01,-1.671626163277086796e-01,7.966591292400652946e-02,7.890453194557811578e-02,-4.645917442553825216e-01,1.232257752731903688e-01,-1.891908856020597385e-01,3.664968087403394637e-01,5.383985796144364483e-02,-4.625487730764987204e-01,-3.297494910736906149e-01,-8.725202323909599100e-02,-2.979394664493657530e-01,4.253260817936444504e-01,-3.449229983898838281e-01,6.365853767662565943e-02,4.276419586608788959e-01,-1.249274503769175343e-01,-3.190499328150056546e-01
-4.843021682102436332e-01,-1.630138663905463664e-02,-3.113386395738377832e-01,-1.218687457959243547e-01,2.887203700902013503e-01,4.438840031926982177e-01,5.065258014403981046e-02,-2.097037103765196364e-01,1.388324277407366851e-02,-3.434031891610089815e-01,-1.347351623469992821e-01,5.951295957280664656e-02,3.281649525488142816e-01,1.441294311978662257e-01,4.180198623764440347e-02,-2.528844188196137099e-01,-1.782417390080566766e-01,-2.741094525660793257e-01,1.223431926413739990e-01,-4.146873002675801612e-01,-3.050196230826815458e-01
-2.506565744867639278e-01,-3.378297833127010819e-01,-4.468607241025361887e-01,-3.833105464519970806e-01,-3.630053966426861622e-01,3.227118474657162395e-01,-4.584259875940298046e-01,-8.689883669231376895e-02,-3.705545805155474048e-01,4.504349642621335303e-01,4.755571800264091209e-01,7.789690766893356266e-02,1.161426481093481289e-01,1.625314534377252929e-01,-3.738716446455241926e-01,9.920245230906318823e-02,-3.212674694377222195e-01,-7.188720276634968931e-02,-3.017287677232835530e-01,1.457280426282951680e-01,3.031204634170971413e-01
-3.804665097595366086e-01,-3.329291920198353960e-01,-2.932216036733985010e-01,3.616302687307648700e-01,2.722660005781721293e-02,-1.033077698959709023e-01,2.945986304298660596e-01,1.751039140086659840e-01,3.135159039684649596e-01,-1.227717725835939661e-01,-4.753107451324157795e-01,-2.544181806967268922e-01,-4.992346211648304721e-01,2.422233127719685963e-01,-1.739699016419134769e-01,9.771822803205157393e-02,-1.482364823596274694e-01,-3.831885212051807515e-02,2.579391242404574514e-01,-5.075318735096646938e-02,1.756083421837356662e-01
1.639147188879864743e-03,4.807718420794211966e-01,1.677706008265926474e-01,-1.108235676507797335e-01,8.724486506420625620e-02,1.169498692463913359e-01,-7.295102804301363542e-02,5.971415417370810191e-02,-1.072393654241183686e-01,2.125509355794196475e-01,-3.649467929521857390e-01,3.900998189713730246e-01,4.818712235509310937e-01,1.440191206346861374e-01,3.438757577439648938e-01,-1.747794494125698705e-01,-3.539570586704695598e-01,3.689882346505812261e-01,3.496132251029582250e-01,-2.109292301862841432e-02,-2.004463684574073201e-01
1.970831796590950258e-01,1.925135025359444056e-03,-2.687598196009995943e-01,-2.958870125805795892e-01,1.433062032060261337e-01,1.585990598963782916e-01,-3.797538897005847125e-01,-1.837547352697154746e-01,4.235642642767242783e-01,3.611401712619123350e-01,-4.028856625127191227e-01,1.135886477042553216e-01,-3.273314642619116199e-01,-2.332292775281408770e-01,-3.188654143984302469e-01,4.876723123131522231e-01,3.137369381091252851e-01,-2.674788548761755647e-01,-4.904678303809230089e-01,2.177664925703627075e-01,-1.631088535275778129e-01
1.824381818061736882e-01,-9.251898323727883455e-02,2.703873130146355885e-01,-4.124384385721155399e-01,-1.529174202698351248e-01,-6.354718779239981741e-02,-2.677608543225656890e-01,4.804703168989050699e-01,5.150684305080419252e-03,-1.561439483619096041e-02,-3.210029009709072095e-02,4.617458574697954621e-01,-2.218953201666302166e-01,-6.499352575833704238e-02,-3.925898585430682153e-01,-2.345317099194194899e-01,3.275872860747248705e-01,-4.456295744595157871e-01,5.054834199555002794e-01,3.315127275768378068e-01,-2.570113377048139913e-01
6.101335023960141601e-02,-2.805742120095622294e-01,4.534188863356102273e-01,-3.943635388499038830e-01,-2.504549314156223616e-02,-2.062784906858207978e-01,-4.129000821129472643e-01,-1.768522374401699793e-01,1.914901207872836061e-02,-3.136026295061813407e-01,-3.010729402292944834e-01,-1.177575649807433705e-02,-2.508157107658283147e-01,-4.296396771230760747e-02,3.113473427353675160e-01,-1.164275310051913342e-01,3.333658581213933547e-01,-4.287949282203366019e-01,-2.499829485370629045e-01,1.430213453900276710e-01,2.880520715354131234e-01
-1.820884967715646063e-01,1.349248577466589105e-01,-1.431818160012523211e-01,-4.689746108225292809e-01,-2.504686649085191563e-01,4.072745644170869261e-02,3.154931953420491708e-01,-4.989173280824855672e-01,-3.089277047891866856e-01,-1.227520605050706343e-01,5.988680289601001905e-02,1.262081791649884710e-01,-3.956448049887344443e-01,-4.940400123971434021e-01,-2.969338695719239002e-02,-3.082747478484769155e-01,-3.682789206712253072e-01,-2.723795973576645379e-01,-1.899707550976571790e-01,-1.910881141866970223e-01,-3.264298505575917164e-01
-3.530508833991715112e-01,2.038039040967511706e-01,1.210317133798920197e-01,2.505848444386404514e-02,3.139799874381098976e-01,1.158767514019871797e-01,-4.563224537720684260e-01,-4.442684143412107822e-01,2.739532149475217837e-01,2.157718360167334634e-02,2.950013562814495782e-01,-3.673191070228877253e-01,3.364587801816465995e-01,5.286801795306798890e-02,5.917937445115901973e-02,2.658814382943060217e-02,-2.140945626840879412e-01,-9.719478097098911695e-02,4.737147062510939088e-01,3.953226657868746385e-01,1.467062530534166132e-01
4.572776318635587423e-01,3.367334871805890972e-01,3.600306047817903310e-01,3.390281786488391069e-01,-4.583777545921440821e-01,1.937563606478409362e-01,-3.410265321139209771e-01,-1.763446436666440617e-02,-1.639700565321258185e-01,1.605944531432273725e-01,3.080806490555831889e-01,-4.317646510606432120e-01,1.566135583603260328e-01,2.653288175429241447e-01,-2.065770345090960913e-01,-4.304929691650286050e-01,-1.575664856503291855e-01,2.461277800084995040e-02,-3.134442879835887541e-01,-4.472269771115675585e-01,-2.434272890514017629e-01
-3.341569706697792297e-01,-2.588997047856546052e-01,3.090308057732167324e-01,-8.100272727636963210e-02,1.834239267714586064e-01,-1.321987420953634473e-01,-3.595317460971063084e-01,-5.373513244800788569e-02,4.303490683258215377e-01,2.265427304740164072e-02,3.743024239748401483e-01,1.937275879078560747e-01,-2.227057041040627072e-01,2.504692273242530298e-01,-1.944156514400313951e-01,4.536606562387145991e-01,-2.543763912946123695e-01,1.746871664054338302e-01,-4.195057484306268791e-01,4.670693942991820946e-01,4.751895702406407351e-01
1.984523090350069630e-01,2.677854595608820665e-01,-2.448284774305475031e-01,3.283103233990609660e-01,-3.609581486033398845e-02,-3.201978104636345468e-01,-1.499517583956130884e-01,1.892566167882161199e-01,-2.940149577574142220e-02,2.197254846819710616e-01,-3.063603832367538526e-01,-7.516994636075943759e-02,3.583411401714897693e-01,2.005141997569956092e-01,-4.602783561584765093e-01,-1.905423031003876388e-02,-3.958659344165674776e-01,1.105894807126716218e-03,2.182973560969475590e-01,2.968018939847074655e-01,-4.636267382795276615e-01
-4.625005835060641557e-01,-3.527955779134573921e-01,-3.868449269260376133e-01,9.210980066507010178e-02,4.795258221093965934e-01,3.637874079825734186e-01,-7.286134313206446556e-03,-3.509100439939752958e-01,2.906372018900142962e-01,-1.212197247547924933e-01,-9.292719980826797885e-03,-1.297981699702697722e-01,4.879362212548189470e-01,4.195214055387116447e-01,-3.781183179249356652e-01,4.404274523650592577e-01,-1.840422806199515371e-01,-1.742144756294593533e-01,-1.835361223124739871e-01,-1.722893229126587836e-02,2.379149500591395683e-01
-4.883623942756151748e-01,-1.059998082895605848e-01,3.614208473105627872e-01,-1.466147377798752149e-01,3.634497663574935422e-01,6.517722182598251202e-02,2.445032584406758580e-01,1.201906634870937574e-01,-3.864305604288805207e-01,-2.126449507568097530e-01,5.440938607969497860e-03,-4.735330501804194681e-01,4.836160897123379376e-01,-4.588949729722961446e-01,4.926746212174111794e-01,3.584946965465086732e-01,1.938367932698460416e-01,-1.548449401353945709e-01,1.748011731818382986e-01,2.245502491650441523e-01,1.061142313871429009e-02
-2.985333581881352560e-01,-4.094783715482772646e-01,2.408897574417929455e-01,3.731472356313542682e-01,1.258592540151853567e-01,2.875734396395201453e-01,-4.077613653127217797e-01,4.527470127164841540e-01,4.369042188545352867e-01,1.469367950327149785e-01,2.905098758845340301e-01,-1.733328985704752634e-01,3.497307368986850573e-01,-3.952601264153358662e-01,-7.202248067473300541e-02,4.205005782540348624e-01,2.175380714328279119e-01,-2.739671095116336663e-01,3.787587779286239464e-01,4.219170266980588613e-01,-3.537515918370084389e-01
4.170757219586375408e-02,4.520949884728814316e-01,2.651683845614511981e-01,1.610104134700630213e-02,-1.948560360485479814e-01,9.223850621578899567e-02,-3.579837544810000605e-01,2.321537197666777019e-01,-1.525940619399923925e-01,3.599194628476361513e-01,5.483709186025505222e-02,-5.032774381788972518e-01,-4.031980505510223689e-01,1.195830709158653415e-01,-1.410443382430023596e-01,2.383536670979336664e-02,3.775889887420652014e-01,-2.862620878740954611e-01,-3.425978404737819311e-03,4.217859194127486777e-01,-1.152167718755172376e-01
2.656167199569716697e-01,1.200255131433009270e-01,1.897506612213560595e-01,-2.277625705867952488e-01,3.455258589102353506e-01,2.518729074289439152e-01,-3.325860948674155826e-02,-2.473716592009837789e-01,3.373882989842147406e-01,-2.219076239525923921e-01,1.230067794578936641e-01,-4.269265289627332538e-01,4.779035993708419805e-01,-2.081168161694213203e-01,3.604742408570238976e-01,8.391510284436952405e-02,7.022498909669341871e-02,-2.980952466831562897e-01,3.442855491511784272e-02,4.554221360214049663e-01,-4.383790557067233640e-01
-2.522862473909909808e-01,-3.983867490885024121e-01,-4.129632145801248044e-01,-2.585397169784076632e-01,-4.577255730630313546e-01,-1.860549035052700140e-01,3.508617490086533008e-01,2.675748421699323254e-01,-2.419041316865491176e-01,1.595911072729759572e-01,-1.436966022096825557e-01,2.861540474906569265e-01,3.395612985194883526e-01,2.084618975027438537e-01,3.481380615497918496e-02,-4.319528549822573282e-01,1.731011735169231402e-01,2.832432936029752879e-01,2.997426808012361166e-01,3.308481819715164418e-02,-2.492876808799614763e-01
7.944093681348440850e-02,-3.991669123322686419e-01,1.180195164385271778e-01,-2.700061505243236265e-02,-2.730114973523291994e-02,-2.153554186057871078e-01,3.750372963554788330e-01,4.780009298294458087e-01,-2.677272759656015855e-01,2.690945759267297510e-01,2.051748176852551120e-01,3.886719971465690260e-01,-2.434631968087568044e-01,4.516970393957901453e-01,-2.798654944950081935e-01,3.551489054491322461e-01,-2.299037398066945126e-01,3.859507789937682287e-01,-4.001546867876383806e-01,3.193013309006881295e-01,-4.800904818417465747e-01
-3.957078120019038581e-01,-4.941171776421359740e-01,2.404380093357682546e-01,4.170729247238594284e-01,-1.051176058567753757e-01,-3.482643552578354451e-01,4.420433267640344055e-01,-3.095763263390727271e-01,-3.781160915613926421e-01,3.026709955025846943e-01,-3.407818937023923134e-01,1.707401343385828441e-01,-4.965598619849612705e-01,-1.682151514986514607e-01,2.818229821676863089e-01,-2.508657044681514292e-01,-2.872317470780380577e-01,-4.227907117649062352e-01,-1.960805353795496905e-02,-5.423963375566213246e-02,-2.281428556342940950e-01
2.792014472363565231e-02,4.158319328284780791e-01,-2.736060435685457870e-01,6.808128458050984044e-02,1.086821659265122392e-01,-1.123228132155675574e-01,4.947128825204753499e-01,-4.606974400042650464e-01,2.288301725616065652e-01,-1.408964391077726364e-01,4.268361306824559609e-01,1.294362734164151985e-01,3.052212195107130155e-01,4.744936213939292546e-01,-6.227674405727284118e-02,3.361028739977216517e-01,4.111455992673979654e-01,2.875163648809956896e-01,-8.809535769534532212e-02,-4.528522497516663248e-01,-6.161301020718320393e-03
-1.868745596322335389e-01,1.063787504029013592e-01,2.804251981784151027e-01,2.878360608080411387e-01,3.131224324836084372e-01,-2.457383327896420500e-01,2.223250545833174441e-01,-3.646666179948753611e-02,-3.513118248099000307e-01,2.110783867759342125e-01,-2.121512191204174766e-02,1.681590854151663872e-01,-4.644387430312560405e-01,-5.010579991984596138e-01,2.543572024696063583e-01,-2.028865999135864503e-02,3.324202115219667686e-01,4.834852622323920213e-01,-2.188904592036195473e-01,-4.318099807483399277e-01,3.696518385250016636e-02
4.338755816122986664e-01,1.728037017728508914e-02,-4.637812323769424649e-01,3.939858140020617849e-01,3.882027528026135155e-01,-1.680462232765400632e-01,3.521961542987254723e-01,-7.874990836953180270e-04,-4.339221316328403799e-01,4.312241347888746690e-01,3.256573179700036347e-01,-4.628703832991838962e-01,1.395386829875245316e-01,4.707139757200428654e-01,3.386578601270648914e-01,3.141491174620176796e-01,-7.746068591918483029e-03,3.052281920933252457e-01,3.593426106765872374e-01,-3.883261537734220559e-01,-2.591443124599445147e-01
1.110069804509251912e-01,-4.749630219341072768e-01,1.228347163797743613e-01,-8.546038992111745780e-02,3.718010953375122107e-01,2.783039284671724387e-02,4.745442910798183256e-01,4.179414131961814438e-01,6.542499041502548851e-02,2.560067335646020736e-01,-2.393572637161136551e-01,4.319333716758494424e-01,3.527775090038282046e-01,-4.350369295800780023e-01,-2.132256727456383338e-01,-1.893558222283999587e-02,3.280222507193315540e-01,-2.494399760668796484e-01,1.865269186020965808e-01,4.016955791953200072e-01,-9.965909800385687467e-02
1.509140146781886571e-01,-2.480726758542604882e-01,-4.597188608700056300e-01,-2.504581701425947493e-01,-4.402918951347902787e-01,4.438261185315222623e-01,2.005973382282975059e-01,9.207530615553845277e-02,2.975470680455239436e-01,-1.010105452879390686e-01,3.010612267191202784e-01,2.105864952659526612e-01,1.148714375392930892e-01,-1.556087037419791042e-01,1.642309435117355332e-01,2.725120795579452637e-02,-1.138996228004270361e-01,-4.080155733500399062e-01,2.707843713195736204e-02,-3.779289188058604920e-01,-8.424863492328620029e-02
-2.399873427916146829e-01,-8.104899182823359360e-02,-9.445817340190913736e-02,3.496386157553875718e-01,3.640509841194428109e-01,-4.799570410412982158e-01,-3.612863332993351273e-01,-4.115772150450424105e-01,-4.876755422865284295e-01,-4.647391363236345607e-01,-4.564702455967908357e-01,-3.734651732307149308e-01,-6.342866576954654667e-02,-4.610294684314377583e-02,-2.695843148206606976e-01,-3.184079960958011712e-01,-2.267388368116118880e-01,8.534749501102312230e-02,-1.005181377190875469e-01,-2.972017505356491784e-01,-3.254077329417203179e-01
9.813552063456916497e-02,-2.594635920082432046e-01,2.579907743126688691e-01,2.100148338123980496e-01,-4.180428180669011895e-01,-3.365447302863446843e-01,2.660190922236058131e-01,2.699371417972714071e-01,-2.803355541799789838e-02,-4.388356867781366411e-02,4.259718119109750512e-01,3.840754396906865820e-01,2.999367628251814466e-01,-2.817292459335965504e-01,-4.922284015496985327e-02,1.703360221212449344e-02,-2.946678326884378252e-01,8.543271389964991747e-02,3.620000476033155001e-01,2.386599756995178290e-01,-2.628823468717551570e-01
-1.682461118406116674e-01,-2.530824768643158973e-01,1.063559825261053832e-01,5.548501163240669720e-02,1.505859675516277030e-01,-2.787807804062021888e-01,2.743299340044947493e-02,-4.322069459771943345e-01,1.544262447508411018e-01,-3.199224239968712080e-01,1.977217687200635843e-01,2.522188711528782976e-02,-6.818586156629453943e-03,2.580766617666672702e-01,2.058354661471392677e-01,1.055097196307635404e-01,-4.202814657901695061e-01,1.345818578641776696e-02,-3.208968498351497112e-01,3.735374393261821635e-01,4.257431476637767165e-02
-9.324974607737845922e-02,2.639440812917390744e-01,-2.009760569362863680e-01,-4.261124171455600851e-01,5.093762366734947422e-01,1.386042535305272334e-02,9.877734854365452510e-02,-4.174046821213855951e-01,-1.229394610774822011e-01,1.685008111162549227e-01,-1.863294040709532473e-01,1.813995789483741627e-01,-2.798632561839923816e-01,1.555743087101092437e-01,-4.225234075011289336e-01,-3.802616981620759451e-01,1.571068312205898820e-01,3.508808304423022828e-01,4.174772821531070321e-01,-2.444277980257213712e-01,-1.180973894196408747e-01
3.159176695678972413e-01,-4.840348811879958690e-01,-3.303213082340848428e-01,-1.006585375530336183e-04,9.088226917969892404e-03,-2.350109935614393686e-01,-2.472351777519161964e-01,-2.444520109178652256e-01,-3.411480197432832373e-01,4.686376334578629121e-02,-4.095404512001620811e-01,4.903371727583399897e-01,1.695348990202959205e-01,-1.845350509414203088e-01,3.422032267259280114e-01,4.786271524184945170e-01,-3.913720589165696762e-01,-4.032561831874399982e-01,1.457379689290216607e-01,-7.017724711208360444e-02,2.984987112879026183e-01
-4.903363385576807731e-01,-2.890578431483047939e-01,-1.028112816439086669e-01,9.090930155972246074e-02,2.655408312383408242e-01,4.703311021299854677e-01,-1.524303228716287484e-01,-1.380600185996547768e-01,2.757466299086068773e-01,8.183126250210027985e-02,-2.913174635663716705e-01,-3.544858550948739584e-01,-8.257890136425137528e-02,-4.986311381274133869e-01,1.733191055147832171e-01,1.010535716870921835e-01,-1.167911750763201417e-01,-3.776949977439381656e-01,7.336730020765666604e-02,-1.518185009914814476e-01,4.093538052331751470e-02
3.881894998659611851e-01,-3.508928439082121820e-01,-2.317734046881718968e-01,-4.696891926383796045e-01,-1.670055691115020224e-01,3.041026512319411346e-01,4.490144960588107748e-01,-2.986975305697252558e-01,1.782282175762048559e-01,1.883026251268430651e-01,1.549283291642482296e-01,2.256921459385115292e-01,-4.812813141450752452e-01,-6.209503775237684015e-02,-4.180398345489012152e-02,-3.287304924222992919e-01,2.714227998486335447e-01,3.474885479833294544e-01,-1.656653409523108078e-01,-9.505710268699159304e-02,2.490188326731614110e-01
2.385066754716251292e-01,-4.718096442020772163e-01,3.900751402151992342e-01,-2.257102189001250481e-02,3.821081161250956537e-01,4.793290843776996935e-02,-1.036779393937942162e-01,-3.484488495327606739e-01,-1.808182651664848872e-01,4.059455875744523712e-01,4.729072901797988782e-01,7.300045482135897323e-02,8.937497914173095359e-02,-1.622685974937725095e-01,4.656134258905063050e-01,4.358762758998347975e-01,-1.448246042237927855e-01,1.307068412699219917e-01,-2.047442942171435742e-01,-2.306994094780312754e-01,-8.278127888452301020e-02
-3.833795715047356167e-01,-4.233737722149761851e-01,-3.776485202925157492e-02,4.565783732437493914e-01,1.372585562467275588e-01,-2.895443792926938875e-01,6.663845557867806302e-02,-4.831028035989410885e-01,2.956294666273240890e-01,-2.898187867608120194e-01,1.095704669301039297e-01,-1.299348221295864858e-01,-7.861030461905138544e-02,3.654747230200637853e-01,-2.845058144264617783e-01,-3.248706024441430085e-01,-9.150186176812031419e-03,-6.494091887345605774e-02,3.106452856992137912e-01,-2.614065158946292655e-01,-3.781949787029694754e-01
-1.858852412359685013e-02,3.542745226036662642e-01,3.655404868829564835e-01,-4.063578782151960889e-01,3.243707498419910046e-02,-4.004533155013281776e-01,4.885600988282062795e-01,-4.837324225786124310e-01,-3.908820088151826466e-01,4.831094112836999410e-01,4.186348272704507045e-01,-9.887592057227338749e-02,1.071069880342739866e-01,1.690429683468826563e-02,4.790978072307883195e-01,-9.338023006519366453e-02,4.499457170394806638e-01,1.179030480199498715e-01,2.862181402030762323e-01,2.612459609114810011e-01,1.360078932783256866e-01
1.084725381399228583e-01,3.240398476191078125e-01,-2.541710227006898637e-01,3.863333824492056201e-01,1.979498211821296982e-01,-4.228945264029665974e-01,-1.925234676456551164e-01,-4.433424518555422744e-01,-6.809936949938236173e-02,-2.717855454577522978e-01,-2.355593420583820541e-01,1.160654028402899607e-01,3.956100355840792560e-01,-1.414753679195575875e-01,4.544537998858081407e-01,-4.757238777187700052e-02,8.111289368026933233e-02,2.109920379877632535e-01,2.481145846777808028e-01,3.982563425237155008e-01,2.315257715911276382e-01
8.319527483903352283e-02,-2.706413276811057145e-01,-1.569466364265408309e-01,3.839742573906543832e-01,3.962176750875027742e-01,2.283668746083234724e-01,4.453423677406969511e-02,-2.908067548418707959e-01,2.346917108700895815e-01,3.167976723181067378e-01,-1.266230414579967989e-01,-1.129583866987215746e-01,4.319472233687868812e-01,2.316838358087611460e-01,-4.677484700897011072e-01,2.268801867515416182e-01,3.668446825191397087e-01,4.494451749275993890e-01,3.049436150955717739e-01,-3.877551489453121003e-01,-3.107510035993397701e-01
2.587884431337651725e-02,1.777410577862207353e-01,2.524069967769427408e-02,4.090469167957784813e-01,2.678856513810287665e-02,4.098644853878569694e-01,-1.632173309056756116e-01,2.656354081887090518e-02,-1.343464516012261578e-01,-3.106782662462213018e-01,-2.319641700031490339e-01,-3.736402083591775503e-01,1.739777391989892619e-01,-4.368835060243929092e-01,-4.208304540255900505e-01,-3.911316648614498459e-01,2.202211401619622033e-01,3.827940441753870382e-01,1.479146480116241558e-01,-3.379909616609965139e-01,-1.643910097180918128e-01
-2.361364906368435268e-01,-1.813494398800467589e-01,-4.111393376800723809e-01,-3.760756289053309165e-01,2.649483128989290059e-01,-4.819103948788844294e-01,-2.327330814163090511e-01,3.764318698546223474e-01,-3.341565256928078487e-01,-5.334258370628403717e-02,-1.349654182690731563e-01,1.444809976813846708e-01,-4.833340873076881483e-02,4.304633935095329017e-02,8.902549895199925178e-02,3.142064476569614989e-02,2.425549266036556018e-01,-3.019124173516122278e-01,-3.909758399176029853e-01,1.437727177135523227e-01,-3.990747727299971959e-01
3.336962460727229685e-01,-4.576499979427475218e-01,-4.316126761866350553e-02,9.652155034151306545e-02,2.874699687293984507e-01,-8.768386456054794165e-02,-4.045873446794050476e-01,-1.974415997476464124e-01,-4.220160297814623540e-01,-1.575729725894880473e-01,2.486287269031910163e-01,-4.461646762447009640e-01,2.094692098909034517e-01,1.579683681566224629e-01,-4.653439398887726508e-01,-1.671344944549823797e-01,2.130119196569529860e-01,1.268344496988851600e-01,8.999871831795969168e-02,3.070852952483049680e-01,-4.612853987557046787e-01
-3.891603299938033445e-01,-1.992237781894501680e-01,-1.780484050953305419e-01,-3.962831616671470547e-01,-2.684116900219186697e-01,4.155818372778892211e-01,4.584038103526422714e-01,-4.862150877769927382e-01,-2.195025069834613263e-01,-3.751382408543222913e-01,-4.870226844498828922e-01,8.811558863086809204e-03,3.544773808555395367e-01,4.176537507066266364e-01,2.307155061052272582e-01,4.358743456769345603e-01,4.335811664300626145e-01,-3.413680272296499285e-01,-7.373040727751848994e-04,-3.595669828058311035e-01,-4.639500062317641199e-02
-3.917449173401153506e-01,9.371678327599430869e-02,-2.245034478838605074e-01,-1.727337083658606609e-01,3.253490219110921067e-01,-3.640514135189233391e-01,4.112882842255788929e-01,-3.563616074592826366e-02,-1.872372250242350655e-01,-2.817995627896116573e-01,4.086741409353747412e-01,4.796637470779531731e-01,4.080359748247893159e-01,-1.840827644607390956e-01,-7.685357740451033426e-02,-9.089945412280106551e-02,4.352095682003237487e-01,-1.864210720592908155e-01,3.286328204889410465e-01,-2.397902227556855947e-01,8.456078537882993906e-02
2.762654878322706731e-01,2.592444632605604427e-01,-3.687748666651748386e-01,2.352632074948980967e-01,4.322409778677704373e-01,-4.449934618803568220e-01,2.362703583285956366e-01,-3.801662027546541256e-01,-4.841939680347822073e-01,-2.883463815500138527e-01,9.679983574785935851e-02,-1.107600697059555883e-01,-1.741220583952379775e-02,6.580138948556679690e-02,4.361162294361575209e-01,5.372195181275934983e-03,2.741162690438260774e-01,8.108835779421723344e-02,-2.322574365564522847e-01,3.322443832888891113e-01,7.739608504779686704e-02
1.427371560316857968e-01,4.135071007794281078e-02,5.446476943912221397e-02,-1.580122521217728893e-01,4.701037887640708290e-01,-1.820108306347624216e-01,1.594364040447438513e-01,-3.453989467101986066e-01,4.241365633684226477e-01,2.203031758647822913e-01,3.678466799723181802e-01,-3.516407057800230440e-01,1.649256967532904961e-01,1.714138822911886739e-01,-2.889193329974130975e-02,6.545802022081134534e-03,-2.297199276938468315e-01,-3.170408031012603156e-01,3.014907371236973110e-02,2.396101608108930081e-01,1.014757094515234132e-01
7.926085209241522100e-02,1.925174291075634758e-01,-1.256295338922663318e-01,-1.578290247678655611e-01,-4.187705759713744036e-01,3.521354638367232281e-01,4.458186191372630613e-01,-2.010691588533954077e-01,4.280191627426790379e-01,8.856859496523043773e-02,-4.047147649321450324e-01,-4.323667902027644727e-02,-1.576768384266296064e-01,3.406849860992353651e-01,-1.389829129453084011e-01,4.760134285821047695e-01,-6.728290646809939601e-02,-1.128340309244902778e-01,2.806844575089267324e-01,-4.220087162469353115e-01,-1.029098346494605187e-01
3.478220651410000169e-02,-3.879601374630515381e-02,2.088873928017797865e-01,4.155512447112231778e-01,2.234792420311838557e-01,-2.459768717051835640e-01,3.864360013111849401e-01,-3.424510226997052875e-01,-2.707687514889118297e-01,-3.124253887493220749e-01,-4.112895133388872471e-01,-3.214528173778331138e-02,-7.449130905076518927e-02,3.910866222876147602e-01,-3.949401511493968453e-01,1.676977369416859931e-01,1.984075787729983331e-01,2.686688743503722332e-01,2.009582280974845647e-01,4.792694592403275999e-01,8.216202705298203401e-02
-4.340555759047280415e-01,-3.701944092545807197e-02,-4.978948792320215394e-02,4.542506875152780288e-01,-1.545402047426427949e-01,-4.298643248560398700e-01,-1.784974453422027429e-01,3.554272043771272704e-01,4.349264714640840301e-01,4.081137845762100591e-01,-4.173574212365552816e-01,7.759266944253635778e-02,1.849804778297462760e-01,-4.219719274718216617e-01,3.937911843360882291e-01,-2.706811184723466601e-01,-3.169795514263188396e-01,4.544024976071916327e-02,-3.329688050546305567e-01,1.415019719560223765e-01,-3.815898975118474645e-01
3.756220962757675363e-01,3.981170413006916431e-01,-3.801705213075049494e-01,1.561611933572095989e-01,1.538836378703496155e-01,4.816424091290168463e-01,-2.433032111063068437e-01,1.064439181717286853e-01,-2.146161527151574377e-01,4.890266176873778736e-01,2.017837707366174418e-02,-1.209447019185574818e-01,1.601520799958878333e-02,1.849963137597475105e-01,-3.564961858603757916e-01,-4.658994811265887437e-01,-4.242568585825312599e-02,-2.793144682630377962e-01,3.142145009103755604e-01,-4.588799734090116822e-02,-3.663126567644365283e-01
2.437378897387496857e-01,-1.505075729491160176e-02,-1.474799250979078324e-01,2.534230378501334258e-01,1.333875847045476737e-01,-2.042489502771877852e-01,-6.709001420593628529e-02,2.383624914114051419e-01,3.891466560416081411e-01,1.569933185026881756e-02,2.409156723866670916e-02,-2.379672740663633101e-01,1.849089738698113106e-01,-3.895806931318043231e-01,-6.598715744388752857e-02,-3.373320448396839311e-01,-1.945080509313208417e-01,3.762173037794075414e-01,-8.514913699899834265e-02,1.593381106892325372e-01,-1.309520920021822188e-01
3.274542953961908087e-01,-3.941255457926137185e-01,3.550050920607831229e-01,4.902128732371345832e-01,1.901650318639610537e-01,-2.463475708699026101e-01,9.376377410765471265e-02,-3.188815846016719857e-01,-4.310352069852710355e-03,3.457569754966441922e-01,1.784484512395747569e-01,-1.234459962155277091e-01,-6.786227547131871984e-02,-2.390766764012646206e-01,-9.686389232100875088e-03,2.450738839374165534e-01,-2.440925841018311837e-01,4.748811214883981169e-01,-2.890696055907855389e-01,2.113634055246020604e-01,-4.484935726808458867e-01
9.499870712698695041e-02,-3.794486821280438904e-01,3.636432406318646643e-02,-1.180156148402542737e-01,-3.633525335490061375e-04,-4.965068404168688221e-01,3.726210705256381983e-01,1.636437455040961608e-01,2.453683940252868734e-01,-2.736341746613040193e-01,-3.780413603581727067e-01,-5.468518360886970991e-02,2.607301344968313561e-01,1.166130136855268382e-02,-1.407449713462276264e-01,4.621138999990221374e-01,-1.007797284123393422e-01,-4.319212970950357389e-01,-4.167628331321799329e-01,5.900595415718706827e-02,-2.750157395630263846e-01
2.935585145747534042e-01,3.279976465516504236e-01,2.402476770984265236e-02,-2.305478362189418429e-01,4.065273288918792166e-02,-1.318906411474963514e-01,-1.131910370477609562e-01,8.359557788641060194e-02,3.635633365222249447e-01,3.279807558348655228e-01,-3.629595857729666086e-01,-4.392637895512440105e-01,-1.353014819865560030e-03,-1.739431805589108093e-01,-4.179519124811796882e-01,1.889069826008632101e-03,-2.708443833023974068e-01,3.694390243896413795e-01,1.081539820989881572e-02,-3.821128004286776236e-01,1.189761437718214049e-02
2.209665080090729983e-01,-2.825604260793620481e-01,3.996284400407940640e-01,-3.767854804534565005e-01,1.917246484349150182e-01,2.133567816920559357e-01,4.754077188177329716e-01,1.939164555592935157e-01,-2.372892467117658777e-01,-2.243004494238793611e-01,-6.835063337253505233e-02,1.832277282140121477e-01,-4.902399897760249536e-01,-9.372896939851688147e-02,-3.531694146112025409e-04,3.840554742176250369e-01,-4.943058752625150154e-01,-1.713815288840169482e-01,-1.948908430668206404e-01,-3.480359681431393626e-01,-3.019837961870316945e-01
-3.309960608889465639e-01,-4.594307674304564659e-01,-4.292434905421624314e-01,-2.894393046328172514e-01,2.542749340478510645e-01,-1.028798521153625745e-01,7.217352282661625151e-02,-4.088941614698437532e-01,4.296192244025495710e-01,2.716164575623733479e-01,-2.591497013550800865e-01,-4.108282749399091299e-02,-2.055940346081172876e-01,-2.566558860045450863e-01,8.554782085367346189e-02,3.828640249225515602e-01,3.675798159019760813e-01,4.393657179697674220e-01,7.039956954163412162e-02,-4.506275239427364188e-01,-3.004148998354654321e-01
-2.715654846356383434e-01,3.026304009772020631e-01,-1.888659847918272849e-01,-2.169936487555591542e-01,-1.099511210898218849e-01,1.683981461236425947e-01,-8.082208626307096910e-02,-3.130837130129271451e-01,3.835890351065131543e-01,-4.809339583515152006e-01,1.715936027143726839e-01,-1.691824219245543492e-01,-3.076890975289039432e-01,-1.472446207856191736e-01,2.149508576452179576e-01,4.707320081100236364e-01,1.261785471524606295e-01,-4.168059281995847853e-01,-4.429328921238000483e-01,2.972043603859286787e-01,-2.070373516582966200e-01
2.891654487312042554e-01,-3.682809182136827508e-01,-2.457425638211800378e-01,-3.322808339450770698e-01,1.896797091239780797e-01,1.133592167241427584e-02,-4.614604910740612298e-01,-3.231449343178347533e-01,1.648309011970730820e-01,-4.660894166660582982e-01,-2.438276487353739641e-01,-1.473741376825539462e-01,-1.255050744850828848e-01,-2.339553508767007739e-01,3.638438982264967092e-01,-2.158712657127929979e-01,-2.832066403658545783e-01,1.711959936099444191e-01,-1.967547356922392521e-01,-1.572894849931976702e-01,-3.881695626275529221e-01
-3.359867970360823630e-01,4.809993396045557090e-01,-3.279989918222852019e-01,-2.884033066065354589e-01,-4.543929952506822190e-01,-3.195128548359116305e-01,-2.966826338644910632e-01,-2.902761133531999160e-01,-2.235784096038986313e-01,-3.879502887076587969e-01,-4.726001634561977083e-01,4.121893287722456223e-01,-4.866659998574732193e-01,-1.797160877601449436e-01,4.122674964703480494e-01,3.182728065036922738e-01,2.585773054967751006e-01,-3.689119747286729312e-01,-4.886560512991558469e-01,-2.751842838459352403e-01,1.890458755519368317e-01
-2.228676534456597302e-01,1.590469980674200645e-01,4.209974287176694863e-01,-2.598024798833979410e-01,-3.492631909435166548e-01,-1.779822704410224665e-01,-2.328224282233162523e-01,-1.902285753506874066e-01,1.789272613775597376e-01,-2.156473930296896602e-01,1.167009255339594709e-01,5.505487188230823864e-02,-3.484409586346860488e-01,-4.409952720490358663e-02,-2.825932879697516387e-01,5.556171293870097727e-02,-4.107044530858486309e-01,2.483594369462389373e-01,-4.384385590651939668e-01,4.644097216578259024e-01,-2.299517909929755244e-01
-2.492035844539990108e-02,2.157834577041239845e-03,-1.358658069796552237e-01,2.745857440195578758e-01,6.446913434250545194e-02,-2.131934627734115850e-01,4.245273590860161872e-01,-3.350976629313418553e-01,2.828245181789240115e-01,9.095914344166936005e-02,3.204673221956004237e-01,2.701559295015152143e-03,1.019323802311008775e-01,2.752757998320110588e-01,5.255715481502557657e-02,3.819369787692190044e-01,-2.083690302121535623e-02,7.187479710289432222e-02,-1.024758491122395171e-01,-3.079794671625030178e-01,-3.031397004766092085e-01
7.954201991755243187e-03,-5.801426799629121750e-02,3.560807647143116594e-01,-6.315806373519282368e-02,-3.723655872907129238e-02,-2.200982847322589531e-01,3.619581267159202587e-01,2.347930006453776419e-01,-2.276902739891683014e-01,-9.192862640461241241e-02,-4.636291402663814121e-01,8.109260901532813759e-02,6.245735592099203870e-02,3.590199526514021855e-01,3.927914047620735261e-01,1.294431061624249646e-01,4.189723461430096274e-02,6.432136661422609147e-02,3.325010238411456598e-01,2.807842626646141482e-01,-3.264136068034649285e-01
-2.457618949482569537e-01,-1.309540793681510107e-01,-2.331428419229792937e-01,4.357228071858857965e-01,-3.273281791285627129e-01,-3.632267807694879447e-01,-7.917622330438842115e-02,-9.993504733943286630e-03,-1.674901804267113770e-01,-4.776773393710934124e-01,4.254478740399665893e-01,3.612859394335953267e-01,2.176589234214695578e-01,-3.019880963390025319e-01,4.523528959714568365e-01,-3.246162236441840210e-01,1.321516077593586358e-01,-4.806013324866935665e-01,-2.834130523405131372e-02,-2.089732922355925105e-03,4.855656098417433508e-01
-5.226452710051077144e-02,-4.557280463443859064e-01,2.161203655387879952e-01,8.286943760784803992e-02,1.455016469505345245e-01,-5.700141276034150634e-02,-4.620482179116690014e-01,2.615517711765845132e-01,-4.377744430937983711e-01,3.885007901657686752e-02,-2.983266225394105020e-01,-2.410888479409306617e-01,2.712552353992377374e-01,4.800703853667930843e-01,3.562103677229757070e-01,-4.946689907549395304e-01,3.794577672161247306e-01,-4.831788797849000949e-01,-1.306029065642972942e-01,-5.028383285722197726e-01,4.581721602179903430e-01
3.133357693056666032e-02,2.927590964968653786e-01,4.902534383692097597e-01,4.311086126654674056e-01,5.824812802456087735e-02,-4.986537595366887787e-01,1.879648943923199755e-01,-2.855267286982267061e-01,7.558889121497135155e-02,9.294178797058892660e-02,5.035554278141467499e-01,4.541405345141326100e-01,-4.852644909557248254e-01,-1.303272909584838324e-01,-1.210792460002354798e-01,2.635234386981556431e-01,1.465859731399821453e-01,4.841697046844747332e-01,2.078927435485194708e-01,-1.688095301399743578e-02,-8.921989021693044197e-02
-5.461281352504068765e-02,3.242324103083575326e-01,-1.492028003225242816e-01,-4.663181784747314484e-01,3.932509792235013707e-02,1.437895870935596010e-01,3.662786198077286892e-01,-3.620005322365880129e-01,-4.604545400620368434e-01,3.901618811973629475e-01,-4.583440004457735029e-01,-8.946085134523262816e-02,5.087296542141059863e-01,-2.589109032211637240e-01,1.712027687487504002e-01,8.012180664979089151e-02,-2.166443880380687637e-01,5.274659624870002561e-02,4.733266007187236224e-01,2.702017659248966419e-01,-4.082740944702745178e-01
4.493966703587898293e-01,1.407978118129650513e-01,1.365504563842888652e-01,1.326881821609375567e-01,4.703132499239552899e-01,1.777152692553486679e-01,2.160674062947197105e-01,-3.057053998456867872e-01,-1.148274057569640717e-02,2.983563172266222585e-01,-1.308792567436800891e-01,7.741131544919573060e-02,2.030692935399366350e-01,2.295823873094336720e-01,1.503312396749596075e-02,-2.283342977754820868e-01,4.298253441520256679e-01,-4.676539187509598516e-01,2.122207226369541566e-01,-2.143921523216901770e-01,3.863091398803784604e-01
-3.781921308446958285e-01,-3.870458293926802296e-01,2.575584731495939028e-01,-4.168234724975362071e-01,-1.166192407697661249e-01,-1.720394426967309376e-01,1.256234125741559696e-02,2.492873712349733539e-01,-3.221579806466253193e-01,2.805437744663015764e-01,-4.648455949815396004e-01,3.233269367085083723e-01,-2.601722377673002518e-01,-3.665127550696987146e-01,-2.068506928102291087e-01,-1.574209878917508243e-01,1.706203529876860192e-01,-4.008226672792966627e-01,1.900509890495412080e-01,2.909490362271225927e-01,-3.408350207711827728e-01
2.578062249918801063e-01,4.196483582459747952e-01,4.132543412265480276e-01,9.488539317404526274e-02,2.720055856814170003e-02,2.880829258021271877e-01,-7.515929221980245656e-02,-3.094351717724781459e-01,-3.988607343460137677e-01,-2.909374272248990874e-03,1.758756689288339115e-01,-2.550525106227456429e-01,1.074531303075782068e-01,-2.590485094997262983e-01,2.476912024381030253e-01,-3.578854933280884443e-01,-9.195759307480469436e-02,2.379016769580256652e-01,3.200952373180872557e-01,3.665089376166165147e-01,1.164127851688503135e-01
3.157623034380817040e-01,-4.714968899599548680e-01,-3.872676759452138295e-01,3.394191677030738985e-02,4.806274548761226839e-01,4.418454884812406114e-01,4.024615648298167092e-01,-3.950666776229916355e-01,-3.972713910035209905e-01,-1.977563936943264877e-01,2.819239067413550348e-01,3.177289850963143647e-01,-1.236857531056982928e-01,-3.657899797816678567e-02,2.520447293487491081e-01,-2.751887583517828584e-01,-4.521150115058840679e-01,2.424291643127643447e-01,-1.464305783407796879e-01,-6.685201883351907237e-02,2.689131224238077711e-01
7.076724001200495814e-03,-8.839327957253541312e-02,-1.953442520708663019e-02,-1.409301396661659656e-01,2.514162762678035512e-01,-2.674943513314713694e-01,1.082501287741593626e-01,-1.082191127390035035e-01,-1.370594081681831833e-01,1.496887100346223388e-02,-5.596214467089978550e-02,-4.415286090168942246e-01,-4.046748773352999984e-01,-2.099030492353665678e-01,2.787279197670265440e-01,2.959097291529809159e-01,2.047788150676479735e-01,8.412395594125701703e-02,-1.687098980713957752e-01,-2.210222995966711068e-01,1.357677647108439523e-01
-4.834557190174832986e-01,-4.548462642139200485e-01,-2.149280001093293868e-01,7.336184426442893258e-02,-3.286044100399027057e-01,-2.939030305223465020e-02,-2.786692378913263046e-01,-4.658675309676508225e-01,4.830338117213994753e-02,-1.009626739359510833e-01,3.453815743526230109e-01,-4.066062239359541364e-01,-1.237485963960491819e-01,-4.762152495575345812e-01,4.379711363010950209e-01,-1.050566677550497513e-01,-1.786679923012000348e-01,-2.847736983737150229e-01,-3.284923142782463223e-01,-9.286760609477913431e-02,2.202786401833843333e-01
-1.043555354120403456e-01,-2.089872215576281111e-01,-1.649780947540814280e-01,4.441017322514142496e-01,5.057138761871218247e-01,-1.761922448064612845e-01,4.556609796179987293e-01,-1.151509140373458834e-01,-2.331386753381972932e-01,-3.251799622442440030e-01,-6.089160435339568793e-03,-2.181498128578669982e-01,4.358276259009482567e-01,-2.420611057688852596e-01,-3.148897626153877027e-01,1.268141496406346158e-01,2.992765281148673795e-01,3.334438650754638078e-01,5.053164544134172154e-01,-5.017877740735968844e-02,-4.200673199772400612e-02
3.546783981546127590e-02,-1.250496877242348592e-01,-4.344096906854855167e-01,-1.185993906059691350e-01,3.554604246836413073e-01,-2.196668041192964549e-01,-1.378404286304095172e-01,6.028407655538407794e-02,2.805515486340166009e-01,-2.338715789574153936e-01,4.771978108036773469e-01,-2.547019533755696119e-01,-2.866238766556877815e-01,5.065207390226117434e-02,4.893015502800187599e-01,-3.839040354682600742e-01,-4.659578443973464434e-01,4.644628527331736145e-01,-8.318356178341512752e-02,4.861003186499647244e-01,6.310043255623240662e-04
1.935052943653465807e-01,-2.332520291131815193e-01,2.540021809447330914e-01,9.890316555286214617e-02,-2.255161500220275450e-01,-3.137937470314349775e-01,3.782876165520683842e-01,-1.197795840340350471e-01,-8.018425672003172411e-02,1.836251418450422501e-01,-4.980034265556917278e-02,-2.291479724895289782e-01,-1.098599409366265468e-02,-9.558055117819695690e-02,1.595956104398896791e-01,-6.282897949647946179e-02,-3.666352438357128873e-01,-1.004650436616742748e-02,2.983561254597699164e-01,-1.119596022401941893e-01,-4.472915898790960632e-01
-1.038429248581388548e-02,1.346126050813647446e-01,2.443488788205038231e-01,3.516037609960610127e-02,2.639379752164920934e-01,-4.026761658700424018e-01,3.309984602796319786e-01,1.456561718150472529e-01,-4.670553755025957238e-02,-2.755001042322586247e-01,-1.459892353188304015e-01,3.900626103345077311e-01,-3.750624330825007569e-01,-5.651357914654996095e-02,-4.583552028973189030e-01,-4.887814484496423861e-01,-3.618758718849361400e-01,1.258223937787553426e-01,7.913093342641767947e-02,1.429124139690300388e-01,4.418653936366036539e-01
4.700407836486691360e-01,-1.386304437576358906e-01,6.252388349889485830e-02,9.046728096018064047e-02,-1.729396177015633529e-01,-3.013546019125711295e-01,3.547042418193490643e-01,2.650249018980805338e-01,-2.913968369394954183e-01,-2.728828194077133062e-01,3.121678597428292901e-01,-4.486023243826840479e-01,4.659292599035251281e-01,-6.093004585300935277e-02,1.059302142909999134e-01,-3.636580069284539030e-01,-4.850996201380004536e-01,3.996994820780868651e-01,-4.246743458673249427e-01,-7.008900894601909071e-02,1.037201397696115995e-01
1.162393048372368093e-01,-1.055715296418734683e-01,-3.309148772102559199e-01,1.526718871873292416e-01,-4.793268310525897191e-01,4.383739017985090469e-01,-3.858884352134063778e-01,-3.837209841790356624e-02,-1.282197066415566022e-01,1.621277808128405162e-01,4.446453183055110725e-01,1.996544508030986542e-01,1.972017550398963703e-01,4.337536764637413556e-01,3.234259585080063726e-01,-3.740180146596215893e-01,-1.101110968930426454e-01,4.492755816242103850e-01,-3.506896746146563326e-01,1.735254430138296611e-01,-4.275589919804826944e-01
2.913335337517058976e-01,-3.495892699789437397e-01,1.385692867348100044e-01,1.727635552433633426e-01,-2.919279067725839560e-01,3.903126727881729430e-01,-3.401888294215460462e-01,-4.234984033524692992e-01,-2.766694946913983433e-01,-5.667872020009226929e-03,-1.422274697894197470e-01,7.801951988248860548e-02,1.506005567712221348e-03,2.068539103346391309e-02,-1.210733229943469907e-01,-1.770008893526840710e-01,-3.923700700579368927e-01,9.858376144202669888e-02,4.667530734034840978e-01,1.587176629697127361e-01,-1.616787359419507297e-01
-3.730338748142483785e-01,1.702995430524530118e-01,3.254930562607353806e-01,-4.418159535473484834e-01,3.875620779719496922e-01,-1.787222891730340379e-01,1.186364999051018748e-01,4.593710359555041034e-01,-3.700482930184008090e-01,4.652415163644079144e-01,1.046555899082068225e-01,1.456576535331281785e-01,4.492449480824778907e-01,8.937565018228792180e-02,-3.567901844468160943e-01,-4.900982092003057233e-01,2.382451025004931611e-01,5.219626091100584148e-02,1.240801181459907365e-01,-1.755268556787029088e-02,-3.283487762522619979e-01
1.303349140725213184e-01,1.501952630223812313e-01,3.900012748826709591e-02,1.822458339794806870e-01,4.386076818623266815e-01,2.667606883430244658e-01,3.720071126663272998e-01,2.827935306563122420e-01,3.239447165086213887e-01,-2.501215013759735539e-01,-4.820070842907208664e-01,-1.938378752006740813e-01,-3.004517524386843830e-01,-4.416676250643497559e-02,1.936430465918392574e-01,-4.525349418801989376e-01,7.859936422848984305e-02,4.377384962545018410e-01,2.668655874648668824e-01,-1.005581114573079748e-01,1.437935576454088538e-01
-2.716861235133120056e-01,-2.221165809401969005e-02,3.211889097452036435e-01,2.915806039583807574e-01,3.097026941633166386e-01,3.318996994653071186e-01,4.297105517082981385e-01,-4.537177005482106451e-01,-3.449549985102236538e-01,1.605429134792032975e-01,2.743624752890629903e-01,4.908024162390864920e-01,1.859417835997908275e-01,1.347931125744215031e-01,-1.472308353413736282e-01,3.277623053316582324e-01,-2.604311416106567800e-01,6.672961679760518530e-03,2.258814931906310552e-01,-2.051117121757817675e-03,2.575585881182456682e-01
-2.121894815894403430e-01,-3.824780936819066612e-02,-1.432866108186812287e-02,-9.664959591143178208e-02,-3.988511491119853258e-02,-1.611629617884875049e-02,4.001973023903185878e-01,-3.607318093570617279e-01,3.425945693654016688e-01,-4.178986902057327257e-01,3.596732268410868794e-01,-4.501646609605288729e-01,-2.489591078988048212e-01,-4.476781008304040604e-02,-2.435923621744433276e-01,2.806062294388619611e-03,-4.049379696166346965e-01,-3.166843426940063599e-01,-4.185027772306545990e-01,2.082071265369602464e-01,-2.947041933257248392e-01
-1.605616003001478220e-01,-4.783774039033040215e-01,-3.628890201985183750e-01,-1.286790138079214330e-01,-7.411402877924760935e-02,-3.273173707331286097e-01,-2.375411045097006180e-01,-7.575133806323715302e-02,1.171838278747932699e-01,-3.122937341024637492e-01,2.482162763846666453e-01,3.916604375519207315e-02,4.410485397059447643e-01,-3.055200820893463343e-01,-3.326093553743434406e-01,4.412345559629844982e-01,-1.500940415309970077e-01,-1.951908655292420025e-01,2.822192278251156594e-02,-1.260441232199608907e-01,-3.432490789933036468e-01
3.458398210698360176e-01,-2.476493606183123586e-01,3.431943630403150314e-01,8.598303471195870365e-03,-4.150026015844313076e-02,4.067838991049708697e-01,1.895140103706792201e-01,1.206692573542238051e-01,-1.709721219923577562e-01,-2.241183969802629239e-01,-1.304161024556105622e-02,3.741492396749490634e-01,2.854062547456238663e-01,-2.269348065622151522e-01,-3.158096679717311006e-01,-1.172094974596660233e-01,-1.434961984321987960e-01,3.713094971534656730e-01,1.302104447580646751e-01,-2.576377766913486855e-01,3.136607579025367243e-01
-1.624176311884999169e-01,1.595033557875804864e-01,-4.093793925189988941e-02,-2.298192296371125987e-01,3.355328586575943017e-01,-4.817787234080253000e-01,3.680951949400410733e-02,-3.051391602931124436e-01,7.381146917198480595e-02,-4.809086734094512039e-01,-2.856083928858156873e-01,-4.746670582360551505e-01,1.161410321221484077e-01,-4.399353023019716286e-02,-8.356697854707384465e-02,-3.358285597826183300e-01,2.481620045399551833e-01,8.233872965444312408e-02,1.810871879185118076e-03,-5.061658547199555658e-01,-2.219512013931476332e-02
-4.543658538423237525e-01,-2.943325357824710942e-01,4.143476295780280649e-01,-1.694882760753017581e-01,4.516968568427933706e-01,3.579235497317821979e-01,-4.745892532960143129e-01,3.559975844822434454e-01,-2.375015752254482637e-01,5.027778589673088661e-01,2.085884082843725978e-02,-3.659882136760133631e-01,-3.436352102035196698e-01,-5.404488600803368514e-02,1.526146135433523177e-01,-3.139490761023422949e-01,1.000926465988253161e-01,-3.662961070464421098e-01,-4.369875340874044278e-01,4.708012334202745230e-01,-2.199301885785083788e-01
-2.604032798968839990e-01,9.994350378723466932e-02,-2.918939223892924595e-01,2.297884123002877088e-01,4.115856482834528429e-01,2.963776172528898578e-01,-1.510559578778760681e-01,-1.313383420219339237e-01,-2.623240595152203647e-01,-4.793180730160182534e-01,4.129408498324222965e-01,-3.589270900254658281e-02,-2.596372411400131308e-01,-2.345604807031591021e-01,1.171130186248115213e-01,-1.037547381625896215e-01,1.657023433691525438e-01,8.079184950663381715e-02,2.075301258947016003e-01,-6.518839455662070459e-02,4.803308601715733372e-01
1.065944733427049290e-01,4.063931413219277755e-01,3.090357448885354685e-01,-3.072103360754119272e-01,1.808814237552678339e-01,3.755668576008688309e-01,2.995587028611091385e-01,2.141968178722154781e-01,-3.765265121264149140e-01,1.427818195445043348e-01,-3.500782683858881250e-01,-2.077164710896056976e-01,-2.314873505572786483e-01,-3.660887129789401340e-01,2.855317970626770063e-01,1.653657915609357820e-01,-5.622386268518109187e-02,3.223642941787288607e-01,2.298060047130697503e-01,-4.868426307201810799e-01,3.352066399371488314e-01
2.347078142772862641e-02,-2.667111306976308049e-01,2.993211607206708869e-01,1.672181835916110026e-01,2.696358676036532120e-01,-4.132627090758608790e-01,-4.062891637670961176e-01,1.364605274701225224e-01,-1.109420446477131367e-01,-9.326408000499769591e-02,2.977422211516432826e-01,-1.014241952856705931e-01,-1.498794220345126549e-01,2.953248579010767094e-01,-8.446974816326061064e-02,-4.852517723126428262e-01,-3.024980149686616882e-01,4.020766418746932191e-01,1.120099506139377032e-02,7.641986328839981205e-03,2.214843707117096216e-01
-3.969454472305746218e-01,-5.759568869938780367e-02,-3.747388614348486913e-01,-1.382496230258193348e-01,3.104161527165371637e-01,1.942975888841039500e-01,4.275722755858470947e-01,1.025569418838611635e-01,5.514369292971475073e-02,4.628863972501580104e-01,-8.185257148613761524e-02,-2.585957964048727908e-01,1.055178929157723766e-01,3.816009172720284948e-01,3.966597539447238585e-01,2.802078189604229053e-01,1.555230548662182022e-01,-9.998662003796794651e-02,-3.254832151320212474e-02,2.507992373234105843e-01,3.004301756715542782e-01
1.818805723451396017e-01,-2.528604539919078187e-01,1.694312410199526053e-01,-1.824044598613026036e-01,-1.752125316668567412e-01,3.670579234318840922e-01,4.719390226319559178e-01,1.146429242441273505e-01,-3.415567554360809388e-01,4.578314674080388724e-01,-8.516511789386344011e-02,-1.812310235538562297e-01,4.769765005267824209e-01,1.906947471297202601e-01,-1.357207158738646113e-01,3.946343870840138268e-01,-8.205419881019801465e-02,1.286862985205322607e-01,-8.689078471482132582e-02,-4.731817804623614232e-02,-3.382259958851499548e-01
-7.806672909908832052e-03,4.280216834860855468e-01,-1.380632123675385459e-01,-3.568324977382662522e-01,-7.997392913967686645e-02,-1.351273670561662921e-01,-2.777386878633787415e-01,-2.329793020779288848e-01,-2.048829522577038376e-01,-4.162898839041465071e-01,-2.523717766714009270e-01,-4.842876980971461132e-01,3.393772520756750677e-02,4.960591065714203274e-01,-2.876291573212834130e-01,-4.838045730825298318e-01,-2.942619723371591722e-01,9.281410345362361980e-02,-2.917151819087214770e-01,1.922371946686670940e-01,-1.455531315784359403e-01
3.243059212991677431e-01,-1.487777401263011556e-01,1.189363523140286871e-01,-2.657380874445988139e-01,-4.754969630389777047e-01,3.713490252563896865e-01,-1.865322961067819030e-01,-8.329225619138684589e-02,1.856575730690383785e-01,-3.670529181578730538e-01,2.384827922135795697e-01,8.202349857870525757e-03,-3.298495995548147985e-01,1.855836767103247464e-01,3.324313188956918852e-01,4.056823801366885029e-01,-1.260363344937630858e-01,3.627409348063485028e-01,1.431513975902925229e-01,-4.107544173938375565e-01,-2.960654935672689114e-01
1.348908294255660445e-01,-6.038557589263719369e-03,3.361898596232645309e-01,3.142019069664919173e-01,-2.194701307092738751e-01,-3.124570982911185069e-01,2.793202815281631834e-01,-4.630956079185547525e-01,4.605338841179358322e-01,-2.081257460314807628e-01,-3.057608190496537426e-01,-1.825408318770449789e-01,3.822438932827870728e-01,7.762921897768000623e-02,2.793706650614988241e-01,9.383931230162217974e-02,4.610212171872842685e-02,1.231218153853538971e-01,-1.518354673492333939e-01,2.268280983009705598e-01,3.955185431874955193e-01
2.033630689350836296e-01,3.909274089940164010e-01,-9.758818037646252441e-02,-4.423226763732706623e-01,-1.396977837369158815e-01,-4.871750034815921504e-01,6.196902131634173840e-03,-3.624303735046165154e-02,1.481178165089931664e-01,1.721506142452190469e-01,2.197464939508771836e-02,-7.586098643565908350e-02,6.249863684870908542e-02,-5.497947511626758571e-02,-4.447768945402294505e-01,5.768035235810268363e-02,3.544817070136204729e-01,-1.764133184266199195e-01,3.737669374000108791e-01,-2.756158626000986267e-01,-4.477877781622368047e-01
2.088380318707998562e-01,8.239676898182984183e-03,1.408894340897947905e-01,9.436445192271535401e-03,-2.278252093065527839e-01,-9.711291849607128768e-02,1.146049045615731843e-01,3.071291249011384172e-01,-1.053382143671472287e-01,-4.321653349927588317e-01,1.091630686624116692e-01,-1.040772109080039670e-01,1.790636229560779169e-01,-5.532051839006695004e-02,-3.016190458635805566e-02,-3.448493891654024757e-01,-2.808854083844714022e-01,1.172717282827797497e-01,-2.669812071985530055e-01,-4.423505978840188702e-01,2.684526827421120920e-01
-3.189046374705343245e-01,7.556163402541354879e-02,4.028087911783426178e-02,8.158999680956781353e-02,-1.355509315382848745e-01,-6.771189437512749321e-02,4.099331229637578344e-01,3.698439213660838498e-01,-1.086311803513248520e-01,-1.545409146823892577e-01,-6.753183272830701189e-02,1.486297224474525946e-01,-3.445097386092320357e-02,1.494257500278439177e-01,-4.248078665031216478e-02,-2.456009501344921242e-01,-4.884043269381507235e-01,3.031901747267424230e-01,-3.538828100841586166e-01,-1.922628968518538539e-01,-2.491242084924899791e-01
