-3.590378252719343966e-01,-1.739500465349366198e-01,3.529604043908141087e-01,6.201456794127051947e-02,1.250406859862628062e-01,-4.526299338443408593e-01,-4.551936906204644417e-01,1.724674876971695747e-01,-2.508480482271168710e-01,7.468227458622030135e-02,4.800512819592723801e-01,2.838748007288405817e-01,-4.619480713100532210e-01,3.373045081697222392e-01,-1.134478586560016544e-01,-6.630558362403198291e-01,3.833129270900972191e-02,-4.848923813563076335e-01,1.870870670998935892e-01,2.513143720829710825e-01,6.446449612048207878e-02,3.765737963913060593e-01,-1.817680830580774287e-01,-2.895595235189832861e-01,4.802276384222582961e-01,-4.779717998717619154e-01,-2.708295095773686212e-01,2.522807803931716997e-01,-2.571939339290928439e-01,2.469081162874890156e-01,-1.409920523116187929e-01,4.036396662077485487e-01,-1.566409620473070419e-01,1.859965945473672222e-01,-2.333085105916020766e-02,2.173985267812944822e-01,2.679378639468487089e-01,8.700883798512829004e-02,4.479238072663633830e-01,2.190403066885063255e-01,5.773882353281304392e-01,1.352686549545205619e-01,-3.302676159117812760e-01,-7.269158616056720090e-02,-4.126354089252117219e-01,-3.602737614110888831e-02,4.196126400324725614e-01,1.471705218174351182e-01,1.207718427366156616e-01,-4.086633711890059750e-01,1.991819081168767769e-01,2.191985064455744259e-01,-1.158532287602720978e-01,-3.350613700966983410e-01,-2.804055475411663667e-01,4.835814525935191316e-02,1.728099015516526282e-01,4.929536310608538807e-01,1.929091660176067147e-01,2.944261917417063668e-01
