-3.025979102251283998e-02,-4.920413866075576959e-01,-1.955675241145379828e-01,4.089538946811442366e-01,-2.228427599467176223e-01,-1.661117750400253803e-03,-2.503500262763798667e-01,3.514035930410102093e-01,-1.035481258424249679e-01,2.074457038803981801e-01,-4.055792079750639711e-01,-1.205300214218231053e-01,1.419498437926227374e-01,-3.657992090716101763e-01,2.065572562505037513e-01,-4.180485524822051824e-01,6.580213163198407600e-02,-4.006543880399877078e-01,3.650615493558194147e-01,-2.415314077036746498e-01,2.019496449902407620e-01,2.065933895900665673e-01,9.794722040829786924e-02,4.855999579549945266e-02,-6.861612742065743842e-02,2.505174800726870932e-01,3.164304699409662552e-02,4.920392436071692743e-01,-2.190634481892743679e-01,-1.774255263658644222e-01,2.428497881086091603e-01,-3.986561653130348826e-01,-1.140330558824397544e-01,4.221851288524209878e-01,-7.331890781755337483e-02,-8.169269075858420770e-02,4.899622931766143830e-01,-7.364236858774268757e-02,5.228166764373372022e-01,4.750298177014773970e-01,-4.743282958389755111e-01,3.805229020562421738e-01,1.825728768218337628e-01,5.893631308829648530e-02,-2.445131137574194091e-01,2.148083269640461146e-01,-1.533854443189947292e-01,-2.919232638539517866e-01,-3.979448129336372597e-01,-1.652294016908620045e-01,3.854340350725968256e-01,1.066119460780927397e-01,-1.774740370571614712e-01,1.269161491637383621e-01,2.008612941714973676e-01,1.570380094807164451e-01,4.740795985248573707e-01,-2.244167441749715386e-01,3.320580781238200441e-01,-1.372277441584373869e-01
