2.359081685297186688e-04,3.696897900012637850e-01,-1.599722851706099624e-01,-4.740020071677140123e-01,-2.438885290235480729e-01,-6.518354993040609280e-02,-2.294160826486570798e-02,4.513375399035762237e-01,-4.651717672410813353e-01,-3.756773836682884005e-01,-2.492247321653143777e-01,2.181620670907392090e-01,-2.813617526940371261e-01,-1.664443542353203631e-01,-7.369605686692238221e-03,6.786971935211585927e-02,2.694774446127209400e-01,-3.580366810307226699e-01,-3.716752012670281324e-01,-3.750902860311381426e-01,3.157260305622426322e-01
2.656453098456790785e-01,-2.845352213393905760e-01,1.707903558847212733e-01,-4.015677756609118410e-01,-4.737285801382460915e-01,-1.407216617557024707e-01,2.014267775001087057e-02,9.996988806899425803e-03,-3.975942883405935713e-01,-3.981841494295232375e-01,-7.500653105219415306e-02,-1.239453030620278340e-01,4.208735022202307885e-01,3.182521505681896734e-01,-2.265143507163531467e-01,-4.996035994284788728e-01,4.578736703546102960e-01,4.950915044139057031e-01,2.815986372866896570e-01,1.420765571399856819e-01,-4.050042800807369114e-01
-4.341585325046941057e-01,-2.254695369140162775e-01,1.590888844595672313e-01,4.981745649052173874e-01,8.619658265811229458e-02,-2.734358107344858624e-01,-3.893242179894731425e-01,3.890737156701629673e-01,-2.741559527923025374e-01,1.514126163106389589e-01,4.210249482987657998e-01,2.378169081614703306e-01,1.369803606888965741e-01,-1.253181120596030124e-02,-4.858855724048553593e-01,-2.529972337440309915e-01,-4.204130081401614150e-01,-1.956978657155764023e-01,4.304977747647976138e-01,-3.313638893584060219e-02,-3.483942890185391383e-01
-6.713436221113938673e-02,1.623360593127062823e-01,-1.248469668926455584e-01,-4.732376511186253132e-01,2.279222785087434699e-01,-1.400183012087346905e-02,-4.067945787238818056e-01,4.145631704690077579e-01,-1.999092203267413895e-02,1.233255005878371030e-01,-4.752942147934337003e-01,-3.931909634757346228e-01,4.411457610579724298e-01,2.664309505051854488e-01,-2.132480405785871780e-01,-1.176545670751533851e-01,6.151481461571729065e-02,-2.313197938829704148e-01,4.535755062996655873e-01,-2.806786951438055011e-01,1.625919339850925294e-01
-2.565506719476761677e-01,3.554529847917186069e-01,4.404323538919020509e-01,1.763119697278693054e-01,-1.501203812461659737e-01,-1.743423978313833889e-01,1.591473139159659822e-01,1.560632504683005795e-01,-4.673027637940881940e-01,2.051904487487306861e-01,-1.228257503027240238e-01,3.669346048163150131e-01,4.792520371720809108e-02,4.349000368684638462e-02,5.603269785924459151e-02,-3.448363199419736125e-01,-2.145839547365493150e-01,4.467419542706731472e-01,-3.553439362742197988e-02,-3.932460019529707695e-01,3.552492183496331335e-01
-4.580985243462079581e-01,-2.664768390261701980e-01,-2.823042428088592959e-01,-2.779046239594293866e-01,-4.656897912551526408e-01,2.939169238043675136e-01,-1.535365335958923695e-02,5.098857466715028819e-01,3.058853550231382598e-02,6.479840942987272201e-02,9.065801996455821743e-02,2.225610904026829595e-01,-2.279307295403020309e-02,3.351670530807802223e-02,2.652935503110793181e-01,-1.140971705077491738e-01,3.543361779696478642e-02,-4.356082664078561040e-01,-1.583610361780951881e-01,4.205270394821618574e-01,3.612421172462499941e-01
-2.383077691403654580e-02,-1.245200125321747897e-01,8.782551198081407773e-02,1.232710787966482535e-01,-2.876854424567770740e-01,-1.813073829471071319e-01,-3.711373499035451329e-01,2.088743953026237499e-01,1.908948080609262632e-01,-2.951960428843741768e-01,-1.635432295373420719e-02,-1.730656363959361399e-01,-4.022098742102065555e-02,2.632465748715141496e-01,-1.056716421785908050e-01,1.967032500087808125e-02,-1.543110813233426470e-01,-2.975264566131560762e-01,1.627503429935295010e-01,-2.744808416984764743e-01,-1.561838876973805634e-01
-2.571533717920956308e-01,-9.709999233946749186e-02,-2.456543128397167819e-02,-4.878815138937369622e-01,-1.659157041176319847e-01,-3.898302266928903581e-01,1.241710440590270137e-01,7.014849171229420310e-02,-2.076325870897289538e-01,-4.813555557415027941e-01,-4.543538390324145526e-01,-2.363956022648884547e-01,3.268239590674540396e-01,1.033249202628560987e-01,-1.346130665391204184e-01,1.486592608171638796e-01,1.794672377602212487e-01,1.850548853165855656e-01,3.008328012540681384e-01,2.924577291143897750e-01,4.872524345397093448e-01
1.816145812885298638e-01,4.511940071846176070e-01,1.052089685743009817e-01,2.616742550562134451e-01,-4.613018138820315639e-01,-1.916638113096155727e-01,3.690158776960331122e-01,-3.243792746416750417e-01,4.481432449771894921e-01,-6.623373506555109425e-02,-3.554961106793591008e-01,-2.901347641300057179e-01,-1.266288951361360382e-01,1.159887001402455931e-01,5.101941962598285363e-01,-4.503522194389456001e-01,4.770357587973006463e-01,7.698519325542409197e-02,7.826249639039650763e-02,-3.222376968872141534e-01,-3.919599995294760775e-01
2.050569579284185900e-02,-2.799058140277541629e-01,-3.552884359422554539e-01,4.214880798651962635e-01,-9.164381715138400497e-02,4.940113589959723578e-02,7.159338895183789409e-02,-2.889271126820054936e-01,3.809810660441782515e-01,-2.580432766888126062e-01,3.095053870108069871e-01,1.742135712887976362e-01,-3.513812353885288342e-01,2.537282287179215556e-01,-2.573655967744034601e-01,-4.923125653738136265e-01,5.651414697485179078e-02,9.057076371070840737e-02,4.548731647779258869e-01,-1.413699501792770041e-01,-1.267852486119097899e-01
-4.088230096151894144e-01,2.920676582516233410e-01,-5.417033020517241643e-02,-4.333043511044368246e-01,-2.705161688914912155e-01,-4.178737567134266362e-01,5.144759737364256180e-01,1.840103208488311215e-02,-1.658609050536316576e-01,4.841568475700703256e-01,-6.038166304296099102e-02,-3.142112601431922697e-02,-1.182373827966670538e-01,4.258776393982922626e-01,3.524089266024045819e-01,-1.180164340142307589e-01,-1.291445839169133303e-01,4.329504760533408603e-01,1.879104197294409473e-02,4.749166016202231999e-01,2.744796141728524375e-01
-5.027937777934757962e-02,2.551753197860355260e-01,-4.331331787542197498e-01,4.690007999127254190e-01,5.123806504594723144e-02,4.182678795221106416e-01,1.303395871021399699e-01,1.889557129954909653e-01,5.032015566719501010e-01,1.163590862718052316e-01,3.183774711312576944e-01,-2.188378377004302766e-01,3.396750615293712972e-02,-3.186473483284910091e-01,4.465560256911792480e-01,4.769520662566416047e-01,4.628484718937689868e-01,1.363147354111426957e-01,3.975668061700061290e-02,-1.217703712147354678e-01,-4.153750613978560158e-01
-2.778480402894665802e-01,5.090442117989805310e-02,-8.551370856093309936e-02,3.545834517183468759e-01,-1.304353218804915893e-01,3.632896564230669312e-01,3.152490038100356773e-01,2.618126300021192399e-01,-4.608154763280409433e-02,1.252615949515587523e-01,-2.106881123530233435e-01,-1.482841555974377667e-01,3.393847129323500078e-01,-3.412019667018304642e-02,4.415981937624037235e-01,4.758475124280829305e-01,2.633000139981147014e-01,2.093737190078271138e-01,1.673567168947261985e-01,-4.163825495443156943e-01,2.586057111487424232e-01
-4.442126328698532411e-01,-2.710152989837206761e-01,-2.356187146721686887e-01,-3.867394305613846561e-01,9.280983710026373401e-02,-3.551647069249808664e-01,9.290524362055491148e-02,-4.743339499592503783e-01,2.731326637157945325e-01,-4.030092346867616415e-01,2.306913593681969021e-01,5.014008095992177338e-01,1.115449371815096236e-01,-2.628558525437807436e-01,3.110413790064514017e-01,1.473498106835938737e-01,2.670257736227370504e-01,-4.832412720578522780e-01,1.213154543498575211e-01,-1.668609651312156217e-01,2.654794060034902925e-01
-1.264368894275391952e-01,-3.302534721787444560e-01,3.291753502032891965e-01,3.173507467379129143e-01,-1.355523227304756273e-01,-7.397900961061726344e-02,-2.661547040297283506e-01,4.891931827923246545e-01,8.201690465166819322e-02,3.070303423471655302e-01,-1.285557739876528327e-01,1.561968922212018940e-01,2.185386132388631164e-01,1.630429175493861849e-01,1.647021490342319983e-01,2.410411054957415922e-01,-4.089867273822651167e-02,1.459373231510618929e-01,3.717550833432635704e-01,2.876803327722365355e-01,-2.191295342133208965e-02
3.202198889848612562e-01,-4.969544876971042080e-01,-1.653356069018504793e-01,-1.132519927388574849e-01,4.513978983754047269e-01,1.265560372558033886e-01,-3.731957021722108747e-01,-3.018451034823025347e-01,-3.377161505489290755e-02,-3.915864108838797986e-01,-1.907113036952773899e-01,1.257529422110952311e-01,9.454505209027144752e-02,-2.592407439147840012e-02,2.749746498430494235e-01,4.077808077724734415e-01,1.918642536450458347e-01,-2.655387448001347850e-01,-1.588647379284023053e-01,4.063637480785641798e-01,1.908135680753450802e-01
-1.814618507168958006e-01,3.056864923486009647e-02,3.270182842858496697e-01,2.115459768656206274e-01,3.729508761983858500e-01,1.333534811984211643e-01,-2.935280460985963125e-02,4.078079872837360731e-01,-2.267752971780757631e-01,-3.206165996902630710e-01,2.757009007330983863e-01,-1.331720024436784840e-03,-1.941116478945617840e-01,4.098005316594482417e-01,3.772391462639860804e-01,-6.712608607684830697e-02,2.119128525256707696e-01,2.329776097088459841e-01,-2.033016608546723003e-01,-2.527941382723302155e-01,-2.584068755449673849e-01
4.104318805839152207e-01,4.770826313559023424e-01,9.847053883216699832e-02,-4.918065280130083927e-01,4.533557567137446731e-01,-1.082914199100740993e-01,8.105742939852367268e-02,-3.271289082867486209e-01,-2.863738167320551420e-01,-6.231007565958545519e-02,-1.891021076030138109e-02,4.218368416726916426e-01,2.590785070937348666e-01,-2.311040453739390474e-02,-2.884291138494594620e-01,4.754217295684701194e-01,-4.549402586278346594e-01,-4.329234516566586866e-01,-2.725316653581406554e-02,-4.968946464957273851e-02,-1.716374806033238443e-01
-1.096108657068005504e-01,2.230973326947753577e-01,2.426516659319398472e-01,4.142295295839290015e-01,-2.594994800546149838e-01,-3.160682332413827789e-01,-1.288028935964773691e-01,4.805505150335366293e-01,-2.514039148118240030e-01,-2.769399641824139488e-02,-4.596638102925605929e-01,4.282498179732292520e-01,-2.484057947283027368e-01,8.878333664382187518e-02,-1.666529565493249931e-01,-6.071400795309814247e-02,-8.698256381234678591e-02,2.571286273466530381e-01,-4.443779713634633532e-01,-1.659810008063582198e-01,2.774287794934399698e-01
1.714870232018673724e-01,-2.834913836112288310e-01,-1.056030340872652490e-02,3.391728782905603090e-01,3.249346308768749636e-01,-1.441699026733489764e-01,2.979039933037151422e-01,4.565667025068452234e-01,1.502508941271906984e-01,2.332949128671332750e-01,-4.000211942314217950e-01,3.273451379038257447e-01,3.791555737425043593e-01,-3.182994130647145981e-01,-2.949857912356917966e-01,4.357270409055847837e-01,-6.293380708949300462e-02,4.986381583734839085e-01,-4.852970222662392752e-01,2.513465352034887634e-01,2.859483967674510407e-01
4.550949009280472191e-02,2.827091030517704939e-01,-5.354292767831262539e-02,3.033122100048025183e-01,4.059448332355212186e-01,6.921121479815778819e-03,-4.329787747992682734e-01,-6.142585764230656942e-02,-1.588552841158382412e-01,2.236267102596467826e-01,-2.411304607186848803e-01,4.425600231940571283e-01,3.643197774049946047e-01,1.866414861890693944e-01,-4.052688916989134471e-01,4.579851256702497375e-01,3.681680658649369442e-01,1.415126432124934053e-01,-3.108502559648058661e-01,-3.872009400891927022e-01,6.747975198812483644e-02
6.700457053040474731e-02,-1.411781116163093042e-01,3.800955330488778317e-02,-4.591773528039135854e-01,-3.240408564710316464e-01,8.730536095343115199e-02,3.746815253277653301e-01,-4.373379090556361315e-01,-2.159606875929715730e-01,3.783687067309928209e-01,-1.036043596975841502e-01,1.471633981445172323e-01,-1.994133449633986033e-01,-2.234375791063750449e-01,1.112203729151187842e-01,-6.755498166311950381e-02,-3.736293699091575715e-01,3.277252581000727472e-01,-2.157973191040007122e-01,4.489582598088338594e-01,-3.879274418127516832e-01
-3.047432062544603859e-01,-1.301627040786199341e-01,5.766557573694779115e-02,-4.240674447713664308e-01,3.011309995198805517e-02,-9.687548381350404025e-02,-2.854341511471085169e-01,3.135558182391509630e-01,-2.198806481446868299e-01,-2.022618089509956030e-02,2.845394801584117395e-01,-4.890629220963926271e-01,4.089378900979760423e-01,-4.607118829575588825e-01,-3.997867482509545045e-01,2.294636973758799187e-02,1.947187822576136040e-01,2.454472903177726817e-01,-4.494606182198958022e-01,-9.385680566534637670e-02,-4.551772981423238829e-01
-4.004471180318911472e-01,-2.163688432689011565e-01,4.491674134373939142e-01,-3.285360141032343528e-01,-3.861338051126914084e-01,7.931511712490034449e-02,3.440368053679214722e-01,-2.870158180780059132e-01,-4.320299901083452521e-01,4.595786011448303454e-01,-3.565774493725322181e-01,-1.278687983816822749e-01,-2.671416902510294067e-01,4.295762072191681158e-01,4.433394691634005569e-01,3.457322097030249286e-01,2.289728743507563613e-01,4.766317536751139561e-01,-3.221516014780640424e-01,4.568846570046899980e-01,-7.579170076198124550e-02
-4.627396921792797935e-02,4.122931808325372982e-01,2.459176513493742944e-01,4.722877514902973362e-01,4.888369797253702687e-01,4.826257909811491886e-02,2.349159485485655952e-01,3.250119090615809503e-01,4.415013195909686106e-01,-3.507859042527385895e-01,-2.859881477377209658e-01,1.561297119811657641e-01,2.387403631722388453e-01,-2.353529084483185485e-01,4.403841363146229204e-01,1.937674469152767254e-01,-3.084151429989880899e-01,4.876503230359549024e-01,2.733717227050193599e-01,3.622645703153094532e-01,4.655818050096233174e-01
-4.408670803787425041e-01,-1.241814888402359984e-01,6.594607809626953747e-03,2.055087345633134777e-01,-2.555635394567861707e-01,1.454640851852645744e-01,1.444398388865358700e-02,-4.902006716804866437e-01,-1.861837294768856621e-01,9.566274639047583905e-02,-6.326110314460312023e-02,4.917486078039369213e-01,-3.343454053307420848e-02,-2.136231649869144988e-01,-1.338725206529775280e-01,-2.915487227982957452e-02,-2.895722941978238762e-01,-2.879791788983293022e-01,-3.771929084406329125e-01,3.508124184409325830e-01,-2.211944627289326448e-01
1.899664918439868677e-01,1.883111281974213236e-01,3.776386020234281382e-01,-1.889817573894380376e-01,4.561672709974078782e-02,-9.426198166267502065e-02,2.307324773699999387e-01,-4.376075735563354496e-01,-1.487483229745675539e-01,2.082033862620454590e-01,-4.416785763820530453e-01,4.775241577805017235e-01,-5.561573955269634439e-02,4.717073005859247492e-01,-2.114708220095296853e-01,1.249079613154988888e-01,2.233550685280965842e-01,1.807677417214004906e-02,2.448431426889345341e-01,2.550737102886323493e-01,4.006763662503396994e-01
-2.104715226008512241e-01,3.558199559377908661e-01,-3.039712947969362422e-01,3.843905988687297270e-01,-2.831996907699278407e-02,-1.453367195248126964e-01,4.171053605379517193e-01,1.551152289684095964e-01,2.713105130975499435e-01,-7.255166033051552166e-02,-1.394723264930775898e-02,2.820312493865275716e-01,1.438389209010264569e-01,-1.165779692511380583e-01,1.427270444253722625e-01,-4.101705375638266537e-01,-2.171475459506099215e-01,2.519095186832565059e-01,-3.890792905122696932e-01,3.267126320623899849e-01,3.040747443758531898e-01
-3.827517584558413621e-01,4.467893330594097101e-01,8.681676890160920645e-02,-3.529421874821800365e-01,-2.111989075068883004e-01,6.946256157136400378e-02,-1.136988695564087742e-01,4.099921393584400886e-01,-3.135658005165586348e-01,4.314472171588542015e-01,3.456670002478859360e-01,-3.606112913289164640e-02,2.147259473658825191e-01,-3.931355339680307481e-01,2.351444090841292023e-01,7.305186118382371585e-02,4.032166012745233563e-01,-1.289239462678484216e-01,-1.784541406784017348e-01,4.139324303423475016e-01,-4.304761374049936862e-01
4.033109797918754680e-01,3.905545160286087447e-01,-3.181232613261235076e-01,-3.312736761794313756e-01,-5.557027998875078145e-01,1.403128797535467820e-01,4.333141100540164325e-01,-1.993067395099753225e-01,-1.136131876608990898e-01,3.296181274378466308e-01,3.425369150379604932e-02,-3.382605304676439828e-01,2.512676076280918602e-01,3.717436941907308334e-01,9.662956394983487213e-03,5.916204916738513481e-02,1.868993232223928047e-01,-3.595569991259180420e-01,-4.188091731665475881e-01,-3.974799434320405722e-02,-2.359916615217277358e-01
-3.348074466592609322e-01,-5.608458406844329946e-02,1.422134116869742670e-01,-1.760793833546062670e-01,6.061767984205575222e-02,4.974182270597975464e-01,-1.053988629486647260e-01,2.050737220501971381e-01,1.328074639776733179e-01,1.999356090836100497e-01,-4.342477702152859886e-01,-5.072062394873788627e-01,-8.385380837679143329e-02,-3.005447515335408215e-01,4.966795381735377712e-01,6.029861896228790041e-02,1.080625789742996334e-01,-5.395846584600662299e-02,5.255580838985950132e-02,-1.266407722842807781e-02,5.204953846900486208e-02
1.523117309990775214e-01,3.276419045627712023e-01,4.784870529024578545e-01,3.620868481537350969e-01,-4.228048323354524629e-01,-2.648789562726362457e-01,3.554058428906407552e-01,-3.457771235320244441e-01,-6.679648249374246782e-02,4.153368458588013040e-02,2.155141838173910418e-01,-2.723995459969950073e-01,-8.119391005580044174e-02,3.318053395479220735e-01,-5.163329302892416539e-02,1.167621972610337344e-01,-1.887096642256026399e-02,-4.645297517372932727e-01,4.746034549105908606e-01,3.778951448258486834e-01,7.166103420662661705e-02
2.760958123434087974e-01,3.244860741902645951e-01,3.583524057186653344e-01,3.628320326805878349e-01,-4.365110472585034818e-01,3.359837578449338391e-01,-2.852569911991674201e-01,-4.749298560347670062e-01,4.456996587736968274e-01,1.622080627470977587e-01,9.558398050791698519e-02,-4.827294868153712004e-01,1.008073908401573848e-01,-2.960120689558781368e-02,1.803137425586251730e-01,4.591677710271381552e-02,4.672439274848405599e-01,-1.604257660238992411e-01,3.520033708372048709e-02,4.180077696837745105e-01,-6.786562994301305329e-02
-7.364188114971441379e-02,-3.816447797913525841e-01,4.149963220509695350e-01,-3.418849590746351197e-01,3.788873452693610755e-01,3.015476842918651257e-01,-4.406955464176329773e-01,-2.573896473400508755e-01,3.616480871591518098e-01,-3.247137837994919507e-01,7.179190793845090235e-02,-4.793249967939618439e-01,-3.522683963832969889e-01,-2.670733437588842726e-02,-2.637500492886418191e-01,2.804481848873323080e-01,-3.609840389068469935e-01,3.296363783956844373e-01,1.691557798766565313e-01,1.522323808519566307e-02,4.529151222439433133e-01
2.782944451772357275e-01,1.843518288169275765e-01,3.973779693591784068e-01,-2.602203006585800393e-01,-1.442152103304511837e-02,1.285787796904068470e-01,3.974906788019488268e-01,2.542635789110090361e-01,-3.823069921693101891e-01,1.274570482296464025e-01,1.158826341293198864e-01,4.254741944356170702e-01,3.334299041602897806e-01,-2.977330725644934395e-01,-4.606957168863469732e-01,3.019743407515734224e-01,8.633932084977308241e-02,4.484530820973862963e-02,-3.651292714718527010e-01,4.265090095742121723e-01,4.030478140847287838e-01
3.039691547203620670e-01,2.851322657326152161e-03,-4.601202814568883248e-01,9.341985777984869455e-02,2.963430757560749917e-01,3.014447289537309782e-01,1.526626148569266428e-01,-3.477676896246235660e-01,-2.072686465913706200e-01,-2.641325213043279607e-01,-2.912565065558088695e-01,6.326090047324985088e-02,7.650349888126273257e-02,-1.449533558363542141e-01,-2.144897071303172864e-02,1.004097606531072356e-01,3.182820494083192786e-01,3.563705677909677627e-01,7.986979380963200870e-02,-2.324724055008481338e-01,-4.153560370377687438e-01
-3.744157471269872195e-01,-1.424355101332077517e-02,-3.145407343068299943e-01,-2.819702193781788435e-01,6.061432237832443948e-02,4.187716524350059699e-01,2.039330868002203756e-01,4.205755060462896266e-01,-3.704954303181409170e-01,3.846506384175322757e-01,-4.931235954828959711e-01,2.966190192774027443e-02,3.211768591984496407e-02,-4.926396402053681567e-01,1.723660094096356871e-02,2.440145939320400026e-01,-2.388458093801177351e-01,6.640038724851407559e-02,-1.082979737404295290e-01,3.345821771681905532e-01,3.959616617054863563e-01
5.071864839153076288e-01,-1.626147449594612382e-01,-3.134695111837408898e-01,-6.662790670335726195e-02,3.806033330271036963e-01,1.282347048259737943e-01,-3.424425706524558688e-01,-3.818408986133828287e-02,-7.003137041859403000e-02,-3.456220829263005334e-01,-3.172369475342705081e-01,3.639490418230387769e-01,-4.729058548518880190e-02,-2.414788974475652328e-01,-2.578062121021084674e-01,3.357060983994754610e-01,2.947555670462306820e-02,-4.179800143165340320e-01,-5.600281618096880631e-01,-6.779702627024832007e-02,2.024845376489906035e-01
-1.234861461267934279e-01,3.978524885460543725e-01,-2.641049910158954073e-01,-3.113138885752352869e-01,4.184400747278525512e-01,-6.296387120469403020e-02,2.271694689617167751e-01,1.373077131049459942e-01,4.486850540360373674e-01,-5.888467837114001735e-02,4.027868685494042089e-01,-6.661170231356408622e-02,-3.672761052213974753e-01,-4.648096358984150078e-01,7.756450079777656159e-02,3.881433644847162578e-01,-1.647079309764219734e-01,3.315774202416404415e-01,1.070731892606806290e-02,3.793644474547116369e-02,2.524609139229668786e-01
4.623584196851636130e-01,3.516291710269414672e-01,3.068087722416140695e-01,-2.947737427132718913e-01,-1.498315141664687856e-02,-1.342106965895833448e-01,1.949154940837316552e-01,-2.119925662157437773e-01,1.175114901748005175e-01,-3.048189489747061276e-01,2.320386856504945416e-01,3.547232939887173253e-01,2.812312549357120703e-02,1.660030854039917514e-01,-1.847132982880419771e-01,-4.826071722089749771e-01,2.484842795292603046e-01,1.988443664769317387e-01,2.521227686503368925e-01,-2.435530516334041273e-01,-3.457852675841686096e-01
-9.701793847107821611e-02,-4.770425176191524508e-01,-1.311355944788074046e-01,1.658952916758594243e-01,7.823499786688867252e-02,-1.797662550638502721e-01,-2.669906412723357936e-01,2.794874520608465751e-01,-2.026720718782131225e-01,4.471069977382555738e-01,-8.946953830867973925e-03,-8.892684784006109344e-02,2.622421163956667467e-01,2.405828808027187238e-01,-3.004725030119551055e-01,2.483817391955981391e-01,2.670598409340280144e-01,2.595436961786668495e-01,-4.480910386925076455e-02,-1.890004834630985842e-01,4.901682370008053069e-01
4.154088301461901778e-01,-4.521287056746683963e-01,-3.730733931397109404e-01,-2.222024100049311279e-01,3.203983772428479759e-01,-2.831415101989765981e-01,4.372231529377585413e-01,3.147147379997126265e-02,1.644368461451646835e-01,1.400857076551549098e-02,3.328610189400638131e-01,-3.636099470931223321e-01,4.604796241778399274e-02,3.960898597928865783e-01,1.745388479152679140e-01,-1.707948946535433055e-01,-4.528817608390027782e-01,-2.217150911834475657e-01,-1.429425029715055695e-01,4.564512547147606125e-02,2.219825117143167659e-01
4.838169550859690582e-01,4.996342480685035947e-01,4.913211623648711113e-01,-4.762585447727625265e-01,-2.938275208268394389e-01,-2.328764545143874043e-01,-8.527594484724174140e-02,2.826453433749275823e-01,2.356243049278481869e-02,-3.847078004923553673e-01,-6.638471382066887631e-03,-1.728482755459354037e-01,3.928886808119856910e-01,-1.312985942579809884e-01,-3.793918503009619525e-01,6.993856853455150679e-02,8.058763306896343792e-02,3.700660647084288990e-01,3.411312587087367287e-01,3.774084236489999578e-01,4.566945848553266019e-01
4.385506883753196861e-01,3.841758549903173114e-01,2.041886440999471711e-02,-2.164744716011207659e-01,-3.459100426640063786e-01,2.582151722585173115e-01,1.817568003461928483e-01,8.909295212362194905e-02,-5.873970190842441041e-02,-1.708281033124421644e-01,2.589953490559079308e-01,-4.300708792189124052e-01,-4.177478059276329980e-01,1.264347373373709595e-02,-4.424395065475820177e-01,-2.926424844368168965e-01,-3.335768636234486828e-01,-2.633317069329665916e-01,1.331895795865251607e-02,3.356326944037930637e-01,4.015408418914986344e-01
-2.998497457032234248e-01,-2.662562062248735595e-01,-1.866803227427850376e-01,1.505295023276487232e-02,4.531683191647394027e-02,-1.703172276617523351e-01,1.562595759107310300e-01,-2.311069298407666672e-01,-2.392430328752051180e-02,2.710695774149389226e-01,-1.372527441021723256e-02,5.435299195126365446e-02,-1.401785123412745415e-01,-1.866930067434499629e-01,3.121318816849483757e-01,-2.916710531766327219e-01,3.576466241498108545e-01,-3.945519507472587950e-01,-3.770200349467638934e-01,3.362390511499637191e-01,-1.591060670612943762e-01
-3.746913285168665397e-01,-1.381106848223013772e-01,1.315547045999319875e-01,-1.135415660959471391e-02,3.794426622457895415e-01,-2.941041732575702117e-01,1.258472999709321638e-01,-4.893316781049412700e-01,-3.662527752026275563e-01,6.036411440127131128e-02,-1.432881206497092774e-01,-4.668022138012387634e-01,-1.022821056644584309e-01,-2.280814732494849117e-01,6.796580333132909435e-02,2.565155181232693371e-01,2.349852191610038166e-01,-1.595279740134303847e-01,2.854831856906580034e-01,1.607558211293956818e-01,6.158626939703108066e-02
-4.441436849759988204e-01,6.135563110112238032e-03,2.357158350815232728e-01,4.618326147631889866e-01,4.274973306022438746e-01,2.052529376259992211e-01,-4.564034669679489092e-02,-1.468986235001277507e-01,4.607278278385709691e-01,-4.598303666135347134e-01,-1.948553611558534182e-01,6.193780570533212460e-02,-5.967780356495997656e-04,-3.724803925217687328e-01,2.310972970905438295e-01,-1.382143528953834466e-01,1.078448915972541299e-02,-3.522394952084029196e-01,-2.062408347067890835e-01,-2.106923694146659587e-01,-4.272574838295619126e-01
-1.835175588037102623e-01,-1.270265165577449118e-01,3.526251397795258091e-01,-3.554959283608885023e-01,-1.531774961842856109e-01,-1.472555391790810742e-01,-1.649933501405266845e-01,-1.177787028493178373e-01,-9.298261985719050160e-02,-2.431791624758498568e-02,-2.890813231759282176e-01,-8.129209397002298831e-02,-4.313812023093289150e-01,-1.497907126205190176e-01,-2.641117511430422504e-01,1.851964384501738892e-01,2.564795705077214244e-02,4.303715099452558035e-01,-2.584761947613584687e-01,8.633063223061315794e-02,-4.838503155406771450e-01
3.363224862266778192e-01,5.237816385686783205e-02,2.322551634926039651e-02,-1.887697059169577141e-01,-5.037052034036816096e-03,2.532522094744505403e-01,1.562829907123155018e-02,-2.018192443728355212e-01,2.877284702025003638e-01,-4.530452308730007482e-01,4.344670909255664570e-01,3.710758140107003333e-01,4.727587537238931992e-01,4.036019760341902352e-01,3.764939942458639388e-01,1.830820218775070229e-01,-2.543536858864818839e-01,1.786808137065362678e-01,-1.962828190567651385e-02,1.737273370110964110e-01,-2.254679423341638678e-01
9.503400025225827025e-03,3.904928247254835783e-01,-2.600702463376453055e-02,3.597892944410376881e-01,-2.390191768725172250e-01,-2.452576161586729822e-02,-3.010587069337875565e-01,-2.669950922239027746e-01,-1.764359970132801103e-01,4.541067940386551149e-01,2.743205380515978953e-01,-2.771487741692499895e-01,-2.106141173646938758e-01,3.901773469646872550e-01,-5.539313050773123082e-02,3.798799406149752644e-01,1.154071185917808773e-01,3.897059989672499447e-01,-2.805105098513843154e-01,-2.245921131398634363e-01,-1.370058562322191142e-01
6.238569552812425756e-02,-3.510730581216365831e-01,-2.919949102883919179e-01,-9.806785719033603299e-02,-4.192627797397200373e-01,-2.531897949037946183e-01,-2.784907601172319502e-01,4.385818385938616837e-01,1.791678846488194143e-01,4.135179591883563766e-01,-3.814121314612030633e-01,1.425553501183084715e-01,-5.379908775143545929e-01,4.009116827965826801e-01,-2.152742733149202170e-01,-5.875888068246835211e-02,-2.778550199224874007e-01,8.258724248387459832e-02,2.898294655872802883e-01,1.062940677203655093e-01,2.365583769782918511e-01
-1.418914143218068524e-01,4.298052580965001090e-01,-4.775566581694481311e-02,-1.640615597116775737e-01,-2.602514266814278665e-01,1.073587170559615056e-01,-4.899688011663900222e-01,-3.206309326475342836e-01,-3.767145686805255522e-01,-2.780766098977359158e-01,-3.772673582674421905e-02,4.437103608793613319e-02,-3.727743433908655701e-01,-9.182796262207643112e-02,3.119825667511090250e-01,-4.597439935536805633e-01,2.665963342029858962e-01,2.354131919306402809e-01,-2.933840741998190449e-01,2.029201707185772086e-01,9.652332404236209362e-02
-4.764138332932509878e-01,-1.229621333623522605e-01,2.332277582877297084e-01,-2.786936665723295792e-01,2.301716370591232741e-01,2.648401138289293022e-01,7.086110383611862740e-02,-2.303839229547950673e-01,-4.906739733923771996e-02,-2.350570303625434676e-01,6.995941435098934624e-02,-1.061927058545127089e-01,-4.149850145143087476e-01,-1.804024674821564922e-01,4.998671379605792997e-01,-3.311700951277405380e-01,-1.750033691264526181e-01,1.726755838925921049e-01,6.993092251833875339e-02,-3.510110775157836427e-01,-1.373163454613600676e-01
4.647371580834733229e-02,-3.802228029164280154e-01,3.834640210890941647e-01,1.138806493475378878e-01,1.211715377523841369e-01,3.924973991884690983e-01,-1.759091574708137040e-01,-4.784471320212514978e-01,-3.624003169241808431e-01,-1.628664652844084848e-01,4.063556114678859021e-01,-2.416320760181309424e-01,-3.163384387970758632e-02,-2.506960020389132904e-01,3.612628204908803209e-01,-4.240785146829840757e-01,2.275783791182887095e-01,-4.306315671061020089e-01,-2.446682623306485616e-01,-2.881607130335142042e-01,5.185720578735959763e-02
5.094987146860969346e-02,4.639806389337660653e-01,3.358950973018065000e-01,2.114694731227692026e-01,4.525332229178925525e-01,-1.723292965038343005e-01,8.796451562019848291e-02,-4.719731101833921083e-01,4.368930142879947631e-01,-7.595578088962361141e-02,5.617572937649503023e-02,-8.794316978057331591e-02,7.523422884187788706e-02,2.921271816092425172e-02,-3.505061178962883828e-01,2.517339321568193289e-01,2.643455087658805880e-01,-5.055383839153860803e-01,-1.640853332621925176e-01,-4.374326268959133346e-01,1.141197173442590751e-01
-3.862174966663914910e-01,-2.040547271584399192e-01,-4.496437446805634508e-02,4.766890714259345851e-01,-2.315662571212052934e-01,2.454849518802102726e-01,-4.640772051767223516e-01,-3.269460418401530233e-01,-3.554535503324873780e-01,-2.805037821269057985e-01,-3.567854537611925836e-01,4.707272188269268076e-01,-2.427910202616462565e-01,2.361154672656792519e-01,-3.128189556692438367e-01,-4.324296623004166285e-01,-4.102280087543141440e-01,-4.499767164339778525e-01,2.765978505379323993e-01,-4.209927862226517936e-01,1.150155664771772834e-01
-3.564920776381144130e-01,3.006464464954203275e-01,2.919013387439962220e-02,4.432010087023927625e-01,7.732924105314685492e-02,2.969616664743667811e-01,2.521464242891054419e-01,2.684275556913919281e-01,-4.350556749176617277e-01,1.851005377232888272e-01,-4.312338763922641816e-01,2.592783822615828959e-01,-3.207455923098218586e-01,3.410530673389433609e-02,2.492197736937165897e-01,6.366427717272656051e-02,3.688656805562236518e-01,-9.285771767795349130e-02,3.006793222179721670e-01,6.596692598128120477e-02,-1.582513468212770266e-02
-3.145159345752384650e-01,3.727301502491868201e-01,-4.416552943066995307e-02,-3.155784387053438000e-01,-1.595533275676352392e-01,3.085291757797575252e-01,3.254655622415458249e-01,-3.701253985244470357e-01,1.217913438767026235e-01,-3.290653085057321930e-02,1.868015299420960063e-01,3.359554236682982947e-02,-2.853439670937912842e-01,-4.456875979512520680e-01,3.805318107633524904e-02,1.849381577182263592e-01,3.388799843632082087e-01,-3.073507740225442375e-01,3.633771043795751554e-01,1.540842768003020669e-01,6.659578540731651841e-02
3.623714284074380787e-01,1.749695747815339653e-01,-1.747825337591637218e-01,1.043152233079601976e-01,-9.633982411041584759e-02,-4.573580383245332004e-01,-1.878681857154853863e-01,7.403421317680623781e-02,-5.546670331099525647e-02,2.520340784935270473e-01,-1.203588708008385133e-01,-4.179249508475771924e-01,-2.138472101980078977e-01,-4.104074606347369314e-01,-2.599073962739411048e-01,-2.020467196360214712e-01,1.877799049024777844e-01,-2.984864443752983654e-01,-1.919776120744525749e-01,-2.888711485043762295e-01,4.686617119328854719e-01
4.824989495045873267e-01,1.594158553356976871e-01,1.287180005243369722e-02,-1.097813368028234399e-01,-1.925703111502999332e-01,2.892542992813230129e-01,-4.604373233577943036e-01,-2.655139886838003282e-01,-3.638139558192092504e-02,1.807960668467841758e-01,3.529270724880130827e-01,2.038437046227376259e-01,3.177459750042416209e-01,-3.759967345138488515e-01,3.515074476458190378e-01,-1.740748245668858815e-02,-2.907324973491456355e-01,-3.400940873860112124e-01,-2.516099206857004833e-01,-1.136268827780410745e-01,-2.905039167513591147e-01
2.772195465469644640e-02,7.538308826770517834e-02,-1.900801036334785477e-01,2.654411209575417707e-02,-3.764358146753814527e-01,2.979752429533234492e-01,4.302966510026605129e-01,2.991613010332077605e-01,-3.553383061794881392e-01,-4.043127504662990535e-01,2.903853123385700119e-01,2.640129823952967469e-01,-9.260963646208614231e-02,1.837033127074346461e-01,1.636324674860786810e-01,-4.979668248522943763e-01,4.032952046201375151e-01,1.385635935272096220e-01,-5.095710887610834794e-01,-1.706601838368475010e-01,-4.641960884975724344e-01
3.273203080758698147e-01,3.782965510550607702e-01,2.713095400868837936e-01,1.272090399331431143e-01,1.668682402412459409e-01,2.075151414111093273e-01,4.058534494099947515e-02,5.900290196768760709e-02,3.375207319705241238e-01,-2.489136231331201890e-02,3.875577613418412781e-01,4.364938752938553046e-01,-3.919264825021148146e-01,1.754802387062548985e-01,3.524291184377925101e-01,4.460332081202517118e-01,4.597275053054411531e-02,-3.161491894932890179e-01,-4.207610885347699559e-01,-6.149078856823335382e-02,8.303137832174362076e-02
-3.204653331849260933e-01,-1.075191072095127015e-01,4.329080049316692547e-01,-1.463945085859570117e-01,3.866225515537455304e-01,-1.030387894799274506e-01,4.972597257748360700e-01,2.993456521841685869e-01,-5.088843836390416486e-01,-1.987748242745859817e-02,1.559228678206093788e-01,4.036505779269909944e-01,-2.357416509748422317e-02,-1.436180771804410616e-01,9.154971014705805266e-02,-7.497362282109193421e-02,2.654004077029266662e-01,3.394825709800090019e-01,2.365907980725217297e-01,3.633103203004831583e-01,2.835008940665868088e-02
-2.586171094611484089e-01,-1.359536779023529374e-01,1.213425908572927370e-01,4.246454977610021886e-01,-1.371801844067853937e-01,-7.322577986622255675e-02,-2.718340887372950460e-02,-2.756114522269510758e-02,3.193196538926306727e-01,4.185143538377116279e-01,-2.377192307682751415e-01,1.039131888571741408e-01,1.442454588724297326e-01,3.282959875690767415e-01,3.555451926951527786e-01,-3.373251249734515733e-02,-3.450999974855847308e-01,5.763492844056065240e-02,-4.207885197733195470e-01,7.267526127714962758e-02,2.751976279118141244e-01
-1.696922312068153971e-01,3.416077005840352510e-02,8.961014726934862784e-02,-2.922585636408982501e-01,2.916107589181253235e-01,-1.335798704353764188e-01,-4.161355641696963537e-02,1.633700540863649020e-01,2.840886439443755518e-01,-1.036454517584401575e-01,8.750587917782741074e-03,2.036390229083109848e-01,4.180924782750634894e-02,2.939395489549582186e-01,-3.754316103551368911e-01,2.702497512235166877e-01,2.598544600639170477e-01,2.117755210525979273e-02,3.261660812555422506e-01,-3.790980543119433777e-01,4.541568138834410906e-01
-2.642843629018377105e-01,-1.872330002285299555e-01,2.656574210120115631e-01,1.300470267592678253e-01,1.219262509247077131e-01,3.236520454385092282e-01,8.177063607242235355e-02,4.549246426178057412e-01,-3.195418016046783216e-01,-3.607447576159907299e-01,-9.814911389286568033e-02,-4.246209448123322017e-01,8.410819935490185251e-02,1.734444094670992143e-01,-2.106824905651651370e-01,3.246058831817533741e-01,-3.567806905756826796e-01,3.595847888634066264e-02,4.602722449511245650e-01,4.669590413380425575e-01,-1.214797994638879969e-01
1.584785852376996429e-02,-2.086042750080889241e-01,3.208083628783116037e-01,1.281772369908914799e-01,4.547192579528723244e-01,4.715588601836941951e-01,-4.438176400630599594e-01,-2.884251909474224163e-01,1.755819266127075784e-01,-1.176949309773299007e-01,-4.733980985195891389e-01,6.881609121109388827e-02,-4.120263338962907862e-01,-4.049198088419775909e-01,3.770404775762941085e-01,4.620349513954739584e-01,1.389461495084080289e-01,-6.867586716383790313e-02,1.898601619865831480e-01,4.604937044946908475e-01,-4.550728450476768105e-01
-4.702941889933194286e-01,-2.619088689282572102e-01,1.309547489466577896e-01,-1.669102625713257682e-01,-5.092781289241494341e-02,-3.081560540566586348e-01,4.524965665463570041e-01,1.858692749479706058e-02,-2.886099306784944626e-02,-3.722189853363576661e-01,-2.739075059273695656e-01,1.045364155303041970e-01,-9.681088429704125600e-03,4.990376531138194238e-01,-2.727875336530417583e-01,4.288920822987138948e-01,-3.051883366900760564e-01,-3.382873262153109906e-01,-3.181457544135934401e-01,8.573436996489498807e-02,1.708885455309597512e-01
-1.177294455762345760e-01,1.451069137339508763e-01,-4.123663178860385581e-01,-2.614000772316180110e-01,1.614754547632446524e-01,-3.190956414793030826e-01,-1.549899577281655116e-01,1.353902654452039667e-01,4.881377741862665265e-01,4.877172132853054287e-01,-4.053996115794476079e-02,-1.913781207137632001e-01,4.504738229182458364e-01,4.985455711960467551e-01,1.313109085891143446e-01,4.476921768885949171e-01,1.490487344078744447e-01,-3.443447624412795949e-01,3.887838027148041165e-01,4.047125300207707332e-01,-3.950810686961558349e-01
2.783449964339602123e-01,1.427179608021014734e-01,-7.474630003514642906e-02,3.307452159398492353e-01,3.336119002422629487e-01,-1.847450153822569399e-02,-1.513924788410464795e-01,-1.311996662875606658e-02,-3.554317761879189352e-01,4.902021723920774177e-01,-3.452610944419675088e-01,1.124897896915872664e-01,-1.897104613374629434e-01,-2.683646180810927897e-03,2.602997660740038466e-01,2.002535126955829747e-01,-4.613720316821342537e-01,8.108484600033742662e-02,1.632201841926492758e-01,3.378635169728966270e-02,9.526580112308295767e-02
-5.368446769197011449e-03,2.542398125085815544e-02,4.246888014027988545e-01,-9.161536063187127044e-02,5.659605802150851489e-02,3.221843896656169659e-01,4.845976231616028751e-01,4.636944479793287388e-01,9.815422376721955056e-02,1.321630904347856350e-01,6.044669485697551359e-02,2.792939430187707517e-01,3.151021569403852918e-01,4.021763497654045616e-01,3.023694238569819559e-01,1.029232748260499458e-01,4.338884750049444849e-01,-3.137375244523885748e-02,3.787632418704669490e-01,3.125792574229413479e-01,-1.140608423775657659e-01
-1.775672395368727841e-01,-3.597269778063281187e-01,2.380433097138723864e-01,-2.922362026953057024e-01,-2.088281623854860991e-01,4.832260984818541605e-01,-4.320857101806827721e-02,-3.165254866222767527e-01,-4.624055578276785039e-01,1.712880893903560298e-01,-2.262203332918491794e-01,2.922009430861056689e-01,4.408710444301956917e-03,-3.209067907719322932e-01,-4.384480616876702541e-01,8.247240457304395866e-02,-3.123411493551414009e-01,-2.232841314910121722e-01,-4.121648999285246751e-01,2.687247013987545952e-01,-1.823998234251310580e-01
-2.366696108325071213e-01,3.896225895882427515e-01,2.293397079093900115e-01,-4.993610772085306237e-01,2.415744370182642820e-01,4.575963811681857396e-01,3.146466617634470220e-01,1.232079273047004542e-01,3.176861086811373913e-01,-5.423901297932107179e-02,3.301997091460693867e-01,1.429031800685293674e-01,-2.869314245507445169e-02,3.066250302856962651e-01,2.101647028580689303e-01,2.876424173311810661e-01,-3.186021136226114270e-01,-2.407025313113102527e-01,-2.285180060874483776e-01,3.609500924108967612e-01,2.876922547486125969e-01
-2.949100909194465325e-01,-2.017836288180624438e-02,2.097063570037512314e-01,-6.819801956720655811e-02,3.299907721672604710e-01,1.797112461014376550e-01,-4.753382293996232244e-01,1.023902438853177971e-01,3.143976724302182113e-01,5.005311004488369742e-01,-5.153196622154813111e-01,4.143931049986354642e-01,1.942142557011231618e-01,4.469558583882721030e-03,-4.363581853529766574e-01,-1.364302626363893545e-01,-2.777788454864103529e-01,-1.938384826491043877e-01,-4.618488056500028582e-01,1.554715682411280386e-01,2.829703049844815022e-01
2.149720487740736929e-01,7.573550268347353787e-02,1.864266006036531531e-01,8.093475684869896880e-02,-3.848084994303523076e-02,4.966275882523980556e-01,4.531694561923956255e-01,3.829092187353797527e-01,3.706623259669327708e-01,2.729110423723268841e-01,-3.705362094929303685e-01,-2.264012031009644821e-01,-2.291353260270703462e-01,-1.041038097780377786e-01,1.189672305688908444e-01,-3.398761220474344480e-01,7.732739294200560720e-02,-1.650203377247966841e-01,-1.363917531186035689e-02,-3.736531919706882476e-01,1.603503399109546257e-01
-4.927799767443919454e-01,-3.997419591169479314e-01,3.313284505582241857e-01,3.743590570366189807e-01,-3.272988037681276996e-01,7.810411659880148183e-02,4.769906903097082540e-01,-4.357772200612978764e-01,-3.762497836268924867e-01,-9.893841909487813627e-04,-4.486047966942224852e-01,-3.199222204464277630e-02,7.807718213680758801e-02,5.683446572353631487e-02,-2.471134281141201816e-02,1.359421612919052835e-01,-3.984948070511246665e-01,1.905775641128185371e-01,-1.473583327965776457e-01,2.658817274966759348e-01,3.536192938904618721e-01
-3.968248911981109850e-01,-1.721548710109246649e-01,1.211751621638762211e-01,1.524720455633586103e-01,-4.067607318730579458e-01,4.226560331886857758e-01,-8.270998472885034147e-02,1.858361029565720746e-01,5.992852787449048230e-02,-2.085502376950968129e-01,4.111285789724757889e-01,2.575097108886286734e-01,3.723168413843214175e-01,-4.675688354503163557e-01,-3.809381405318847391e-01,-3.580775981537374641e-01,4.762038253404139998e-01,3.040189608225730700e-01,-1.657631417565999521e-01,-3.010311278213326780e-01,-1.776262016694581114e-01
2.702056564803445582e-01,4.551843999625157511e-01,1.483128370329003364e-03,1.850624653023963950e-01,-4.087700470186080293e-01,1.171615690051057423e-01,3.022832665121663598e-01,-3.020051199755092730e-01,-3.776195987931539322e-01,1.155174343612181270e-01,3.662266332013752179e-01,-1.508100254793995343e-01,-4.635115019980844964e-01,1.210731259165499091e-01,-6.636282933544936091e-02,3.752273445057573431e-01,-1.232129595672485090e-01,1.869024764112044504e-02,3.013289147073576202e-01,-4.947261263361237282e-01,-2.195565135103712817e-01
2.932767084784234091e-01,4.336899725010223139e-01,2.878173636230093591e-01,8.164061686264748041e-02,1.913480434782515449e-01,-6.983273471680200017e-02,9.407886831396267135e-02,3.655535716885752739e-01,-2.821436308468002752e-01,-4.797675218935366082e-01,-4.154458310112049690e-01,-4.323280545754027981e-01,-2.058795085362476185e-01,3.163927373190013326e-02,-4.092556257766485905e-01,-2.214346696701412209e-02,-3.968841208934223985e-01,-3.255771531223721621e-02,2.224630029175246881e-01,5.086964053235998318e-01,2.689028880537169819e-01
-4.984882533400896709e-01,-4.407860650012581649e-01,3.470059729482928845e-01,2.196522620729640385e-01,3.051269820532318336e-02,1.497929032922583059e-01,2.953273892130323097e-01,3.399164628349585215e-01,-7.156652613923251971e-02,4.027119060008960694e-01,2.993942347302723239e-01,2.776087710328141722e-01,-1.889271395989568225e-01,-1.994837798262201201e-01,9.293599182725678642e-02,-2.586662197245506375e-03,4.121280288517382706e-01,7.232726169100980873e-02,-5.933018285800192859e-02,3.470138440491250531e-01,4.933889024166808746e-01
-4.507264774785967876e-01,-2.249429047773335577e-01,-4.372667636257457358e-01,-2.195359048554781367e-01,1.769042134339897376e-01,-3.088743289337302356e-01,3.351551092931699394e-01,3.892095621945829143e-01,-7.909731822989071737e-02,-2.375193761840046769e-01,-3.200420258620201852e-01,5.514965791281531415e-02,-1.032695285632406479e-01,-8.992619787922175034e-02,-3.651546840645871206e-01,-3.291718657513761359e-01,-1.253877782939259201e-02,-1.374503860929591759e-01,-2.935167150024959315e-01,-2.395195664263453927e-01,3.654987527025004845e-01
1.369395047140933297e-01,5.185070331964408696e-02,-3.523832808936631644e-01,1.782361421888360997e-01,3.731936654908390993e-02,-2.654499466042126721e-01,-8.324850768897153197e-02,-4.792146361320204773e-01,-9.823833550904936818e-02,-7.586308030173732897e-02,-1.623183568882987649e-01,2.604497628293601097e-01,4.312846302098405915e-01,-3.028884193397424207e-01,9.212572756547698916e-02,2.834830669030791173e-01,4.214150561083366275e-01,1.938762333826514472e-01,-1.551893180796859451e-01,2.511187501103944730e-01,-1.436289224883516014e-01
2.333832947705380689e-01,-3.477326911206707893e-01,1.948535188318454014e-01,-3.672523271411214374e-01,-4.769851022259742890e-01,-1.904268454833153990e-01,3.079445993624868039e-01,4.406012365767961736e-01,7.981476487693016375e-02,-1.450850175622312999e-01,3.279144007533016381e-01,2.912258150279522367e-02,-3.017859948419570060e-01,1.273554762444208469e-02,-1.293679035747543060e-01,-2.193430047371152936e-01,3.941656921179728101e-01,2.146515105912503996e-01,-9.878915228360819756e-02,3.005276116171478606e-01,1.363696852428205875e-01
-3.313684099631734048e-01,-4.018477978017086505e-01,1.985682350703786292e-01,4.325268917558890425e-01,-2.897344627147862769e-02,-2.730149727497606094e-01,2.280405016899501869e-01,-3.358048247796318608e-01,-1.310823336783896731e-01,3.255284253374015058e-01,-3.489252626168493077e-01,-4.375637786854326139e-01,-2.499995796823591132e-01,-2.086055198365893981e-01,1.401345695265543145e-01,-2.940769031784599141e-01,4.435157070372402477e-01,-2.038412576119246478e-01,3.704239487768140049e-01,-1.692685192984954567e-01,-9.223467891385139783e-02
1.923812147593395860e-01,2.338929025503226622e-01,-1.238601302924090264e-01,-7.675585403009821395e-02,-2.105743159375541851e-01,1.876514934191707007e-01,3.553401577289750368e-01,-5.966082861153508554e-02,3.912539471514717704e-01,-3.699433212295575868e-01,3.893905394439604040e-01,-3.643170728492106103e-01,4.480238027353010133e-01,3.262358117337138541e-01,-4.840083495651197332e-01,-4.154400779782392861e-01,-1.027660649526623976e-01,-2.440540992338521287e-01,-2.264688353287380718e-01,-4.658225601376529412e-01,2.672670566466401887e-01
2.201971543375242923e-01,2.692727736124030935e-01,6.886136673215119408e-02,-3.673422557665556587e-01,-3.541949222826554777e-01,1.080888786820228542e-01,-4.505746504381183959e-01,1.178218342621842052e-01,-3.662125087300146520e-01,1.623633134159860880e-01,-2.265086927996962790e-02,-3.143227369093001822e-01,3.626979565268356742e-01,-2.399304527904517481e-01,5.750274644660999246e-02,-3.035236624952252216e-01,6.067117130137744674e-02,-1.384028808774357966e-01,-4.990028186732910487e-01,-6.691591760588631865e-02,2.774106417347793618e-01
1.022046262906676495e-01,-3.067679521958872058e-01,-3.544862927130051355e-01,-4.528775108660977322e-01,-3.323388295043096241e-02,-6.023769217833343376e-02,4.692987627284835317e-01,-6.807561887107108078e-02,1.144731246047108880e-01,-3.032390199260412422e-01,5.080625870954850326e-02,-1.327986283413032098e-01,2.368739184631062922e-01,-2.319067646753046330e-01,3.766406275440676299e-01,1.894629411136673214e-01,3.241132499660446253e-01,-1.812055250515861304e-01,2.770337072855200145e-01,3.114629518271713193e-01,4.492164207764833828e-01
1.000155501707209460e-01,-3.154012117077334976e-01,1.226112695363855143e-01,5.334524901654977974e-02,4.854654957444159424e-01,3.912670992979236373e-02,-3.356310930538629611e-01,2.888210548541864653e-01,7.558391558250869557e-02,-3.465824563468513086e-01,-7.058066800201463764e-02,-1.793451585468039677e-01,3.073868289718273417e-01,9.014787511186585223e-02,8.511741491505546431e-02,-8.391778577478735401e-02,-3.630236463818916071e-01,4.630609877004849273e-01,2.654820785576429421e-01,1.042053920076175116e-01,2.673455104456061160e-01
3.750560227771258526e-01,-1.428166404929982203e-01,-4.393838990033009373e-01,-4.867301233158790597e-01,-1.890052387010372204e-01,-3.193951740896580627e-01,3.836026858850671850e-01,-1.237020080420198481e-01,2.789850249392330506e-01,-2.971489465197629243e-01,-2.445936396732598661e-01,-2.563866926813144209e-01,-3.418742299177034150e-02,-4.811372276326554287e-01,4.547078503433887309e-01,-1.699741625479027907e-01,-7.966807153039648370e-02,-3.806799788882958002e-01,-2.174967457446381203e-01,-4.556367117434090286e-01,-3.402022445038723197e-01
2.175777063886183138e-01,2.810596728044232884e-01,2.819819948880535887e-01,-3.614410708138144912e-01,-1.706852292611046873e-01,7.842828176345936764e-02,2.691985844323082633e-01,6.920813565531204470e-02,4.153847416662907743e-02,3.964165283336474332e-01,6.829503259002406290e-02,5.959954427230924195e-02,1.176248040103433645e-01,5.342912368891157560e-02,-3.260780163818293165e-01,1.219663478560270992e-01,-4.304843452164127116e-01,-3.358071726553045200e-01,-1.541538482201347260e-01,-1.844435891192240662e-01,-1.643843803388158331e-01
2.316168937748824819e-01,3.685884107469421245e-02,3.244118467770308878e-01,4.977721365016218869e-01,-8.858859051637095472e-02,-3.874812573728310117e-01,-3.414354144396992141e-01,4.428129628718012190e-01,2.835190039643525339e-01,4.448389229791945287e-01,-3.719332984232461836e-01,-4.544887279873630614e-01,3.573489703790201921e-01,3.819964904530192412e-02,4.303265291718673113e-01,2.106945826600887528e-01,4.736341220483807901e-01,-3.753728412960570804e-01,3.449641973200070488e-01,-2.798401246639333761e-01,2.162688159162436813e-02
1.654737785895645796e-01,-2.848890867496340351e-01,1.281884560058089706e-01,-2.053813850912198924e-01,-3.015375612508195413e-01,-1.133141928866221310e-01,-2.585730700864207754e-01,-1.182247904049799486e-01,2.874296921137227123e-01,3.944313621197804154e-01,9.268066875793615211e-02,2.078932103655350416e-01,9.649018413611255840e-02,2.479285981313418541e-01,4.524444732243830813e-01,-1.288086206826633273e-01,4.608430469402530760e-01,7.318276532192864725e-02,1.867807598748758569e-01,-4.752851333280983526e-01,-1.704129093843465351e-02
-4.405440135232721044e-01,-3.282733628669842196e-01,1.908088269887565566e-02,4.525897131449158617e-01,-1.150157173522119852e-01,2.672250037010132084e-01,2.330204447406414858e-01,2.691023637881523323e-01,-1.171853752674201360e-01,1.219048022146523025e-01,-2.307550339692603369e-01,-2.644834980847635131e-01,-4.503152350364399426e-01,5.136398405590847371e-02,-4.132262141449659643e-01,1.553384802829057831e-01,-1.882964957935952532e-01,-3.166428757354556867e-01,-4.331563603829740594e-01,-1.242555504357317209e-01,1.838311116272559054e-01
1.155921063902601298e-01,-8.247322135070556115e-02,1.482366625582391961e-01,-4.684062454815787063e-02,-4.263443707652978532e-01,-4.295469406553054093e-01,8.510671731147124996e-02,2.624173868295213707e-01,4.507968802911127559e-01,-8.550038401147421960e-03,4.483095917544177578e-02,3.413949244655487547e-01,7.848651453110765119e-02,1.568476549110329743e-01,-2.148746498513082193e-01,-3.738075628681407081e-01,3.234252474042516035e-01,-3.663618748034213057e-01,2.412950733558682503e-01,-1.068409325757909284e-01,3.574212611301442188e-01
1.593149762581745343e-01,3.933016537262930545e-01,-2.312094430344618923e-01,1.946781927830347758e-01,1.900228977294236010e-01,4.374362333255302770e-01,2.131238696899868945e-02,2.007957359373412423e-02,2.871641697331487886e-01,1.288242582320818785e-01,3.234682585024286627e-01,4.583124697968060102e-01,4.261450594387279356e-01,-2.739087617426975152e-01,3.480578142844365647e-02,3.725794758650189525e-02,-1.491574839699876254e-01,-2.487969594197030898e-01,2.997625933248497868e-02,-2.264661507006278940e-01,3.370054456930880460e-01
-1.788806011707908261e-01,4.337735212403495133e-01,-8.928765121625116541e-02,-1.788656152027788271e-01,-1.912413874146128290e-01,-4.482899009718931405e-01,-3.846299077453605442e-01,9.524347594741326695e-02,1.500551093002359393e-01,1.645577452149437070e-01,-2.499112091075392783e-01,-4.901455594549541245e-02,4.341635575947470210e-02,-8.642170501973553409e-02,-9.625903506192282078e-02,2.366585391739879363e-01,1.367105560147375276e-01,1.179409775423090889e-01,-7.662680174885673490e-02,3.192364982324575884e-01,-4.407858812288480976e-01
3.290894469571793435e-01,4.787263888723447547e-01,-2.108539989868230269e-01,2.248780709979438241e-01,3.037179419094391819e-01,3.454204184167712355e-01,-4.551781979886093121e-01,-1.049897888397563900e-01,-1.070382685193604494e-01,-3.075303264265438763e-01,-4.537551941719573101e-01,-4.704516309374098260e-01,-5.251788501539649268e-01,1.626274051218058736e-01,-2.415002590367106849e-01,-2.314722413520092503e-01,-3.479831772981043514e-01,4.710959242240624900e-01,-2.395352393822064996e-01,3.165378965537037903e-01,1.403148764886466282e-01
-4.086643640479909467e-01,-2.437204461512579023e-01,4.872943678289403668e-01,4.969059948586838638e-01,-4.036780589439317724e-02,-4.456812875890927561e-01,1.565471368125649909e-01,3.944712206073092697e-01,9.183205239914320195e-02,2.558132138082069296e-01,2.928346222402588572e-01,-4.483219955375529198e-01,2.685210779458326313e-01,4.815274541551720078e-01,-4.650268590487244280e-01,-1.308363948889234261e-02,-4.064150205143222117e-01,-2.090035079373325222e-01,4.540029472626867513e-01,-3.259514111837349404e-01,-3.498288493686390055e-01
-2.174853669167944314e-01,-2.065777658984918330e-01,-4.224757192511008896e-01,1.108190364954457913e-01,-8.031292541524016892e-02,4.946902356780025212e-01,-3.375922535975007244e-01,1.606136531932307876e-01,-3.154594473084308959e-01,2.417798025701036468e-01,-4.214238283276329766e-01,3.052506795482781699e-01,2.248920981963123400e-01,3.093419937405211817e-01,-1.779733573234602018e-01,4.139127518181842658e-01,-3.125603602765020805e-01,-2.231986994132266200e-01,-3.081299787836386597e-02,1.274948229147841172e-01,-9.758401674442740426e-02
2.849777510037804218e-01,-2.628529059562066950e-01,2.790928408352159537e-02,3.447628304625535711e-01,-2.532525918760512029e-01,-6.593223740961007273e-02,8.574390479139777643e-02,-1.768652017252533293e-01,-5.015331985639811530e-01,3.998979834108081777e-01,3.669422175681558151e-01,-4.280236574962992258e-01,-2.208026554464429247e-01,4.822183485914988688e-01,2.679870637215340246e-01,3.095606308524562222e-04,4.753123332050266936e-01,-1.607584347131952307e-01,-3.860022831665183007e-01,-2.601486761750772536e-01,-5.055770511662659450e-01
2.225229397576999613e-01,5.150316569615590728e-02,2.642220231558691235e-01,9.824867097084424850e-02,-2.957276025674848707e-01,3.942657370363599756e-01,-2.935629037752292558e-01,1.038722294079998977e-02,-5.579596521796258840e-02,-4.828463984430690359e-01,-1.925481858851497141e-01,1.111976309215733094e-01,2.821429052906150314e-01,4.545512351291218223e-01,-2.675823488699245398e-02,1.028268102471643075e-01,2.596777281482219868e-01,2.222081525473388053e-01,2.254927159764020250e-01,-3.691622821663394505e-01,1.444843120231507627e-01
2.591818909210782951e-01,-4.016628405906055854e-01,-1.165046436677887320e-01,-1.743977871907329280e-01,4.845359726900096975e-01,2.135301973696446254e-01,1.749071917533568110e-01,-3.507620106043350949e-01,-4.620934955797327270e-01,3.800839649152220612e-01,-4.238024596832797308e-01,7.078067872691178042e-02,3.588444042780032928e-01,3.884815026524566783e-01,2.090853021800274936e-01,-2.326865125862381256e-01,-1.897027017170489493e-01,3.392458093751529041e-02,4.239591371457538949e-01,1.710799720853397321e-01,2.535021491022930729e-01
3.984991516877021966e-02,2.285355918473121195e-01,-4.874960580167091995e-01,-2.171042821951366941e-01,3.211512279845772366e-01,3.576753659013018893e-01,8.802693356627286358e-02,9.899519287989973302e-04,-4.874699887196836667e-01,-1.348688426552183961e-01,3.392890620544878333e-01,2.555338332238445975e-01,-1.118821456487445465e-01,-7.280715193489734061e-02,-4.012531585960764646e-01,2.807468448169666009e-01,-4.324120072094499861e-02,-4.895998148096517566e-01,-2.720093290701455224e-01,-3.439708302043075205e-01,-2.144939010233610222e-01
-4.758667513081987210e-01,-1.191422383271682900e-01,3.970587192336179627e-01,-2.465536747613230328e-01,4.744700989690393139e-02,-4.659106125218392402e-01,1.101052040482496525e-01,1.944925340020022264e-01,-9.793688823690578638e-02,2.096155868101301500e-02,-1.747340702988889882e-01,1.675193361761109223e-01,1.834823439167703463e-01,4.381148341699768189e-01,1.362782097538850767e-01,3.184247338860214382e-01,8.905092735949032834e-02,-4.011353735896688311e-01,-2.244392277113794187e-01,7.136957785568534551e-02,4.746987830508707096e-01
-3.434825351854028375e-01,-1.081036610193808478e-01,5.011966665572623048e-02,2.204309588337654002e-01,3.396740546425600082e-01,-4.232335767632358636e-01,-8.739997308383255781e-02,2.585690953651356705e-01,-1.899186562895963104e-01,-1.118620472532616816e-01,2.420358426708395794e-01,-8.922887909246736415e-02,1.880437734551234918e-01,3.198311495658297532e-01,8.960643176839834523e-02,-5.221917386565372993e-02,-2.600114504734515886e-01,-4.361612853185475314e-01,1.957490032762493060e-01,2.497265950571332660e-01,-4.561925361592264472e-01
-4.711151174023494592e-01,-2.531713965362116237e-01,4.476042307101477657e-01,1.168404346780203551e-01,-4.373972395539166280e-01,4.895360289337731818e-01,-2.973280278581680869e-01,-2.423497761983713639e-01,-4.018928283916081146e-01,-2.376373347929862101e-01,-1.959469399804205647e-01,4.305938951673884962e-01,2.210238700952666113e-01,1.396887142083530209e-01,2.030471273468034132e-01,-4.624489057685078897e-01,-1.336104212420748394e-01,-2.389975901239752287e-01,-3.813727626402642623e-01,4.617713879526746390e-01,-3.728620834710306697e-01
-2.204832551166467647e-01,-7.444210145948472468e-02,-1.799047451735570902e-01,3.213609892164869253e-01,-1.370723923246840170e-01,-4.381577281466937923e-01,2.015227915530525826e-01,2.485020485898873643e-01,-1.629748581896849069e-01,9.441243337112623091e-02,-2.999672841836215631e-01,1.974918837240486336e-01,-2.486676704252028525e-01,-1.030129931906842017e-01,2.371259689124203401e-02,-4.489492611574306125e-01,-1.327603809799718501e-03,-4.097703235688409662e-01,-7.961680959474213247e-04,9.215852890176165491e-02,-4.653931595622721740e-01
-2.575992429116161220e-01,-3.071295012260099044e-01,-4.775743383953568455e-01,4.060520608801947984e-01,-2.796331972030818291e-01,2.855328796651551149e-01,4.045662944091044655e-01,4.885752574283995786e-01,4.504279799391286976e-01,1.863520617043034067e-01,-4.738103638820741481e-01,1.158147369711880620e-01,3.815500120588800892e-02,-5.882885334467444216e-02,2.402694641437296830e-01,-2.927393882667916891e-02,-1.726636754470446122e-01,3.439642674340174233e-01,-3.755409389183209656e-01,6.819020531489661252e-02,1.644933118357194690e-01
-4.258056677764467390e-01,-8.175360670865759738e-02,2.910727691921234372e-01,3.599527265112269919e-02,-3.010001923669058943e-01,-3.679484741574031159e-01,4.639303500448017092e-01,1.348967294086591273e-01,4.581956832633288235e-01,2.613432514854207578e-01,1.093983796215518452e-02,2.642512512268513358e-01,-1.952818823066554133e-01,2.210331975380248545e-02,2.036946499949311706e-02,4.934494845263753121e-02,-4.777599860778300456e-01,-1.322738047026333907e-01,1.865957693173175003e-01,-5.679442173004910915e-02,2.156612623222428637e-01
-4.827733795122132743e-01,2.442912912674248260e-01,-4.710557122057731916e-01,-3.954711918413461036e-01,-3.290155992264833795e-01,-3.638216637339015680e-01,-4.816859630494770839e-01,4.545773764046396326e-01,-9.414321990687789243e-02,1.223865927643407597e-01,1.227953488865774767e-01,1.133519139068690784e-01,-2.119543824941451104e-01,1.477720835872924632e-01,2.667591550752212437e-01,-1.862898823801588388e-02,1.177830889816319365e-01,-3.667767388121345035e-02,-6.672231448041983370e-02,-2.242134004178979179e-01,3.783073073187667168e-01
-1.860428317441698287e-01,1.853479928013110900e-01,-3.929098741795050143e-01,-8.868168577890611637e-02,-4.534853707376695908e-01,-3.647896546080463959e-02,-1.793476132096559483e-01,-2.133665093935797896e-01,-8.587288903959590380e-02,-2.320252778689647910e-01,-3.394991495158166672e-01,1.534366787471884708e-01,-2.976300294777904643e-02,4.551212695359277416e-01,3.626245659827442847e-01,-3.227714661903514637e-01,-1.414374600756142797e-01,1.087744621205665868e-01,5.386353774484691215e-01,9.695963741063072516e-02,2.252893373123901755e-01
-2.231404745927205724e-01,-3.126604715183201044e-01,1.610376639501644447e-01,-1.413539743563890227e-01,-2.414373598966593759e-01,3.120663002714057013e-02,4.997079450162402736e-01,3.232139056139653466e-01,3.267879976943917075e-01,1.602815992776408238e-01,4.167868602042072990e-01,-7.427967210210838223e-02,-4.432434115934237306e-01,2.480849005698686494e-01,4.100492860409656326e-01,-2.855375582172196003e-01,-1.580556414532491294e-01,4.542546838041651158e-01,-4.895387810190597322e-01,7.794682249973157451e-02,-4.577003111039009559e-02
2.194522948290607567e-01,-1.216401421584652476e-01,4.059634650464801764e-01,-3.550484459017457795e-01,1.129294726810269878e-01,3.053397718546869699e-01,-1.967703459586248593e-01,2.438143015563009330e-01,-2.158226116511721346e-02,3.830253672616265037e-01,3.097537253225200460e-01,2.601632517862040861e-01,3.280732264963926448e-01,-4.984311345423871886e-01,-4.702816756721352465e-01,1.507911082479539977e-01,3.579468349829103002e-01,-6.869428573985933428e-02,3.236813324645430590e-01,1.869035067437476438e-01,2.852225060758417641e-01
1.143082621673748578e-01,1.674076130761509851e-01,7.828901888080100346e-02,-4.220116142397046244e-01,-3.164882253330162931e-01,-8.860282655820370112e-02,-4.599045194606563025e-01,-4.417114638383567993e-01,4.129791637823686523e-01,4.070842871841482413e-01,3.313147215206747598e-01,4.692448289342299739e-01,-1.172851158737451410e-01,2.114231735753268338e-01,-3.985547407170251244e-01,2.356738125508283932e-01,-1.296982529691374231e-01,2.543761938581438620e-01,-2.972946865822506668e-01,3.342789173380578127e-01,-4.731252648858355059e-01
2.409238821575691025e-01,4.272005387435657275e-01,-3.991872346013710660e-01,6.124840841528916835e-02,2.557745110091328433e-01,-1.533329875076196169e-01,3.735561175549626522e-01,3.505442900771257864e-01,4.578069367189220862e-01,4.379446771838527847e-02,4.567612672098278481e-01,-9.818717830985668540e-03,2.644580704205657523e-02,-1.314416404040130715e-01,4.940213527285866602e-01,-2.584818735885360264e-01,-4.793418580156812991e-01,-9.706694203338681048e-02,1.431044705586496935e-01,3.516366807882301826e-01,1.670506183714230430e-01
-2.088374339519764172e-02,-3.365787441092950028e-01,-9.617526893080120820e-02,-2.549858926414558802e-01,-6.635342331016215456e-02,-3.649355127267642773e-01,-2.152572524918767716e-01,4.382948346707865594e-01,3.003444880493125746e-01,-4.028068333720971061e-01,-2.478631840920190177e-01,-1.754539253789830500e-01,2.948733036913279149e-01,-8.969233939927673260e-02,-2.792473158361745700e-01,2.996267086515199130e-01,2.067202822052224276e-01,-6.746435262190615852e-03,1.837093593603617847e-01,3.839295620357925376e-01,-4.108192994753744887e-01
3.681979097606612877e-02,7.082718482906548430e-02,-2.199097067510530357e-01,1.162147653193413011e-01,-2.892988341647578093e-02,-1.735605713016240559e-01,-2.567530201105339693e-01,-4.341479744817408615e-02,-1.982193278826964444e-01,-2.712249913165807880e-01,1.519789291104500506e-01,3.981531120370676580e-01,-3.752924224767246186e-01,2.978589977860313653e-01,-1.707494651511402839e-01,2.458430377144225631e-01,-1.907734675329187668e-01,1.174188170576460216e-01,-4.763676896486185863e-01,-3.874827788169506460e-01,1.381325596913390019e-01
2.429415961314945749e-01,1.438130222398157909e-01,4.692342281246146274e-01,-1.103048508015595786e-01,2.671580913619126529e-01,4.434659337856590167e-01,2.226615230252403377e-01,-2.205569779725605473e-01,-2.260592749156723757e-01,4.867318203729843057e-02,-4.651881649853983336e-01,2.604895382829364170e-01,1.913272195552439825e-01,2.847755762649227251e-01,4.704585567059577644e-01,1.946017923210963674e-01,-3.569414891567603831e-01,-2.475232866225747785e-01,-3.217579116037798392e-02,5.216025160393704396e-02,-4.315831679012793742e-01
-3.034477399916774565e-01,-4.975933117733165600e-01,-4.997642510552330886e-01,-2.608566997107021335e-01,-4.344770631386154491e-01,-2.508594880431548324e-01,3.981225343586506371e-01,4.878319362508352075e-01,3.772328673050068248e-01,7.332517086177055277e-02,4.354799415223519210e-01,-2.921202057970395671e-01,-3.573198170605370039e-01,1.646083997911328700e-01,-4.889425065911883195e-01,-4.013434234437134318e-01,2.713685820525970141e-02,-4.050844102916831280e-01,-3.799573894289309806e-01,-5.809079684164035473e-02,3.827222737374109118e-01
3.870680479827875997e-01,1.798391164649302265e-01,-4.994858492421180851e-01,-4.940717649306824444e-01,2.844175071489253304e-01,-1.225436080640987663e-01,3.948543570021301186e-01,2.288033965098818998e-02,-2.008529390578804863e-01,2.484879461940875042e-02,-4.849041920363086344e-01,4.014428717277138819e-02,-4.497246222576742891e-01,-2.990459904466908347e-01,5.273410911220726555e-02,-3.086467450365080190e-01,2.539336069398774320e-01,1.200728208524334539e-01,2.150683914977919581e-02,-2.272758996115285812e-02,3.437360173828082344e-01
