-2.809358460910212907e-01,-1.652916533526438414e-01,-4.830832001500856010e-01,7.039496944815690216e-02,4.052801367909619756e-01,-4.749078489448572971e-02,2.979023240204529688e-01,4.400691089682762791e-01,-1.291473682137770085e-01,-3.648306713001704948e-01,4.294418529308343668e-01,1.178798260680991167e-01,-3.220706076560350128e-01,-4.910395539106464091e-01,-4.644327294306734299e-01,-4.417636617098973095e-02,-4.598055711863270889e-01,-1.953744275264705788e-01,8.556463629639118884e-02,-1.845917174332212252e-01,2.356051723446112856e-01,-2.154969911298968699e-01,-2.779024951001257682e-01,4.466302218137209179e-01,-1.139641045138688052e-01,4.750741597465731880e-01,-2.309545197633747216e-01,4.827728639320074677e-01,2.651293349556252954e-01,4.078330484570686504e-02,1.524758389970409522e-01,-4.280787543563625008e-01,-1.536296018256538484e-02,2.088326498355786986e-01,1.692048502944898114e-01,5.285982264560763061e-02,-1.489736141995407770e-01,-1.116545480267489426e-01,-5.192978883463085504e-02,-2.956146785612468464e-01,-1.856869716217471045e-01,1.629841312372666551e-01,-2.506939276190875976e-01,2.367320281294914008e-01,2.226242210234587737e-01,2.782618155193921639e-01,4.646974987941647484e-02,1.008411048752828193e-01,-5.502760756582377594e-02,1.124815583205144784e-02,-4.169741510967152620e-01,-3.952735722781670208e-02,-1.539653919050676389e-01,3.285354621598880476e-01,-4.132972362327890295e-03,1.425801418087693506e-01,2.711034288614911913e-01,2.066150471136665723e-01,-2.770026401957798382e-02,-4.688642065311961205e-02,-2.920459032047286255e-02,1.747885767584713979e-01,-1.112641248310529130e-01,-4.787690893663672509e-01,-1.910220390772087162e-01,3.259739613374824097e-01,-1.024142002629503112e-01,3.995492747619191348e-02,3.516082027542042354e-01,3.559548673015703324e-01,-4.042560908162163291e-01,-1.138008798535207200e-01,1.237553910909630628e-01,-3.875514901094737757e-02,-3.621280336526255805e-01,-4.116455891428018043e-01,-3.744363498966356563e-01,-2.845121965402296893e-01,-3.253743459539976679e-01,2.907483128332614686e-01,-4.956751037379536484e-01,-3.161366056353494547e-01,-5.382820445472406151e-02,-1.426389742034951946e-01,-7.613680342542242241e-02,-2.461227896740058110e-02,-3.500116960516471698e-01,4.319650726853694889e-01,-2.981972364047900115e-01,-2.244720716380910752e-01,2.364683917248040779e-01,-4.934932761974216153e-01,-2.763124994230132803e-01,-3.171188339699803072e-01,3.765759204323401721e-01,4.954824259436201861e-01,3.985873746556707897e-01,2.621116450321265279e-01,4.534343471105711232e-01,-3.590341287851939178e-01,1.601409838029424770e-01,2.699835841116344781e-01,1.836892147477637294e-01,3.500153868736781693e-01,2.622926937315532281e-01,3.131465711328266788e-01,5.438587186646745564e-02,-3.187448430248163850e-02,3.078617387618288737e-01,-4.859578929504378420e-01,-3.043257694277554104e-01,1.902820345062274932e-01,-3.986546417794156749e-02,-6.840305160527417050e-02,-2.409062569645355756e-01,9.806381614544242009e-02,-2.961112334187463446e-01,-2.287663930882413987e-01,-4.560460995728130712e-02,-1.640254244571667519e-01
-3.716948938621894016e-01,-4.688768774312535581e-01,-4.270117229263568626e-01,-7.955405263055807807e-02,-2.649512944534580527e-01,-4.694264777023547941e-01,3.677169471481862156e-02,1.418209578234189971e-01,3.292369690863357623e-01,-4.265911371164873289e-01,-3.797578336946900723e-01,-7.649843321391172624e-02,-4.797394580190802449e-01,-4.419473792595587369e-01,2.344305252693852648e-01,2.919689309605586446e-03,-9.495738794295033314e-02,-4.694543300096852556e-02,3.119690777997100595e-01,-5.795451373710868576e-02,-8.599707861042636681e-02,4.458964803761191753e-01,-3.108594389265453492e-02,4.778426445652328991e-01,4.617051403367964935e-01,-3.843688197971191767e-01,-3.724926045528867066e-03,-1.098343075363536342e-01,2.147729265004962307e-01,-2.835404635200250434e-01,-3.269979508358491493e-01,2.643057330420279238e-01,-3.321462751612008768e-02,2.042666884815619865e-01,2.978753913940395126e-01,-5.472307690393652529e-02,-3.063908313869385669e-01,-1.358094650233466205e-01,5.529130305517458016e-02,-2.826428721846077075e-01,-1.543009797902268332e-01,3.779839706361247664e-01,4.819511601465091277e-01,-3.567263506118850125e-01,4.571650339706325172e-01,1.415359771071448003e-01,9.800417726120005946e-02,1.989257349229039962e-01,2.711203759075073161e-01,-1.990495875492450106e-01,2.448214653938098340e-01,4.335379174138764835e-01,5.055743892398451705e-02,-3.810540507647419139e-01,-1.623902797074272264e-01,1.882220891229471615e-01,-3.444169530926969869e-01,-4.758247414150226784e-02,-3.869345988704301909e-01,3.097252836799180842e-01,3.930159042484852594e-01,2.018741305047697387e-01,4.126538554161853639e-02,7.488906247958884710e-02,1.829878995752978466e-01,-2.196825432593688121e-01,1.194067431169803378e-01,-2.906919830264464988e-01,2.653015682259536878e-01,1.648031825893334079e-01,-3.695873765028893088e-01,3.675807145945349519e-01,1.127436190496038521e-01,-4.255272166117365917e-01,1.663086775551529950e-01,1.416689645870170544e-01,-4.913062393126145233e-01,-4.061191678308505582e-01,-1.506935901150295576e-01,-3.398906725175802057e-01,3.755790799676183567e-01,-2.343723428473496254e-02,-4.096091467373722539e-01,-1.238739509430594188e-01,-1.925330293828286521e-01,4.872077357333310932e-01,-4.563764630053856464e-01,1.161788758636524838e-01,2.791990173395862973e-01,-3.635235457781492152e-01,-1.348865135440046881e-01,-2.182117359122812961e-01,3.606173559784355276e-01,4.037554997107283827e-01,-4.655973741571245439e-01,4.961195745897680198e-01,1.913300102099585731e-01,3.476114480728234590e-01,3.125635087733919515e-01,2.364825460155663139e-01,1.507329253334715180e-01,1.442353063653114553e-01,4.721373349574677913e-01,1.237854555329847978e-01,-2.042684861725859724e-01,-2.755445241452800231e-01,-6.587143668779291139e-02,1.914700736289745298e-01,1.750381448086307246e-01,-2.370428288667227323e-01,-5.197636313007800851e-02,-2.286848293609977378e-01,4.795588792160074831e-01,2.071913744019845960e-02,-9.611353244920295413e-02,3.427741154052666994e-01,9.373211056851737943e-02,3.170658310826424131e-01,3.254162614839858358e-01,1.322015389997135415e-01
-3.920242282119394961e-01,3.617332871715434606e-01,-4.980665562917306888e-01,-3.464820593192476372e-01,-1.934109651386724527e-01,-4.275209932885503661e-01,4.113048185991955430e-01,2.015167243853308865e-01,1.155935988205200743e-01,3.467231523879841237e-01,5.992315246646078702e-02,-5.895886056841399825e-02,2.912433944859999513e-01,1.969696227560403246e-01,6.307398480411353925e-02,-2.535652484536852214e-01,-2.240399502862849834e-02,3.187925848666108286e-01,-3.802152258161372589e-01,-3.918563269539604987e-01,-3.813396014952870061e-01,-2.175378655294861185e-01,-4.340843233895567699e-01,8.865464038377013356e-02,1.948352848051513597e-01,1.222392802650632687e-01,3.778599460100637852e-01,1.899355544054927569e-01,5.752293637593126896e-02,-8.911520608634690421e-02,4.058006225952117685e-01,4.326889489938505196e-01,-4.626099168528423067e-01,-4.745780506682523714e-01,-1.395108863531533960e-01,-3.193247527034608346e-01,2.707516002051089665e-01,4.044391244038785249e-01,-1.034616868783002908e-01,-3.091547938039601040e-01,4.264688547728979207e-01,-4.943220795332188278e-01,-3.890963886461557553e-01,1.001471219349616033e-02,-1.067205004790953982e-01,7.845358367861529625e-02,2.298818063776371119e-03,2.542662711391510677e-01,3.218096273501806492e-01,1.787340023149758261e-01,1.961992607258018495e-01,-3.459268563610741198e-01,-3.136973420947815061e-01,-8.007531899127946773e-02,-2.585152498561605894e-01,4.292958769650656037e-01,-1.697044213731788154e-01,4.926419580054557101e-02,-2.011927139182247692e-01,3.033341561890718352e-01,-1.866368452785733267e-01,3.504420114102984596e-01,4.975469109164575299e-01,-3.516454675754832060e-01,-7.035436233113967486e-02,-4.590765914224970712e-01,-2.390348704653626200e-01,1.681856137514114724e-01,-4.864557114476605881e-02,3.305185321445345825e-01,-3.815334361174089750e-01,-3.868837260058508587e-01,2.520548559368722061e-02,1.409019861740366808e-01,2.412193414719243090e-01,-8.343555259672276458e-02,3.564842925031448395e-01,1.938485055431914406e-01,-1.401990335488839667e-01,1.838638427141449094e-01,2.025885290268531758e-01,-8.817065426481246471e-02,2.896135078895074599e-01,3.875267876453816762e-01,4.718701768063561786e-01,4.539218902095810138e-01,-3.225649150661991094e-02,-4.633406474372178674e-02,1.068700269072058173e-01,2.574546152675077915e-01,1.611478190352927942e-01,3.169205468404417969e-01,-1.549380345172710893e-01,1.457500965278889227e-01,3.022603397214778179e-02,-4.377631232138311512e-01,4.369410462043236132e-01,1.852116535496966532e-01,-5.717608818233752346e-03,1.127501210483203287e-01,-2.024338538158034217e-01,2.032624322080550106e-01,-1.972761798588191229e-01,4.742971468874077612e-01,2.009925091073158643e-02,-3.670909216288535393e-01,-4.452731480612707737e-01,1.054452773088261908e-01,3.460416818846530091e-03,3.070462733907659558e-01,2.083923016655271909e-01,7.239363439304453973e-02,4.576440593794309231e-01,-3.270407037490456470e-01,-1.147976419072646304e-01,1.923652515212795067e-01,-1.761935661568958256e-01,-4.304546675708206260e-01,-3.314921541177278663e-01,2.212959625555187548e-01
2.928419672025804332e-01,-4.710415827224387342e-01,1.901198546553106994e-01,4.599126738758627653e-01,-4.347329367925742427e-01,-4.073406030162981528e-01,1.242881730625894077e-01,2.980649370353262162e-01,-4.808012623080213377e-01,-8.163798676986902536e-02,2.218019913828939982e-01,2.020000531169076907e-01,-2.594024827153644172e-02,3.505620306188041435e-01,3.771744429581928570e-01,-2.384308591813266986e-01,1.734528932866908485e-02,3.144926743096821409e-01,2.633722983290838204e-01,3.877514948395002214e-01,3.699830853922391749e-01,-4.856518579391095880e-01,-2.574916804176947127e-01,2.177138681891368777e-01,-1.966129892849263483e-01,-3.765070203234360813e-01,1.091245675754999728e-01,-3.639649903465098646e-01,-4.261042279064071736e-01,1.237718094796419130e-02,2.463022177120623157e-01,4.592267470412081387e-01,-4.641170076040868619e-01,-1.057948797600822555e-01,1.719801101262893039e-01,-3.202601083163913454e-01,6.591003924891801480e-02,-8.486065502237857827e-02,1.992246717250542309e-01,-1.323474891336417769e-01,1.678338725341553261e-01,7.214791268290006443e-02,-1.659271547524051038e-01,-1.650597308864661661e-01,5.128933984407579860e-02,1.301004145730818296e-01,-2.474640169544384816e-01,-2.815970233360663433e-01,3.604237707307456628e-01,3.005191916894789372e-01,-4.608879065811569697e-01,-2.541218323985294236e-01,3.510594850149106327e-01,3.618817750460966987e-01,-1.039457616034838161e-01,-1.764016256373223679e-01,-4.834516754693565233e-01,3.624872925518075051e-01,-9.852138675669161461e-02,2.994459817630120563e-02,2.706191042089223231e-01,4.831025419476779881e-01,-4.555874118891166114e-01,-1.485087230834916394e-01,-4.030637370112689077e-01,2.690901160765140146e-02,1.327342586208048458e-01,-3.614661554517079600e-01,-4.107252649962623292e-01,-1.755533043004692539e-01,-4.687905482966637782e-01,-1.806357024871024265e-03,6.122699495813035964e-02,1.579818643936826139e-01,4.036886480829900842e-02,3.427008525505047531e-01,-1.786464817660883553e-01,-4.283335986196152301e-01,-4.429391441717939193e-01,1.818816653390022825e-02,-7.446311935429802964e-02,4.009629688282116966e-01,-7.565455656517665328e-02,1.059668845730508957e-01,-2.663981470573916280e-02,-3.833640970947896354e-01,-3.907561467665369159e-01,5.956741772672089624e-02,-2.549496562053587545e-01,-4.801508403919003687e-01,2.593223771607556238e-01,-5.103767745497628933e-02,-6.422472685867643138e-02,-4.355602813361779124e-01,3.081416393418641153e-01,6.781397482468003168e-02,2.980715084202900100e-01,-1.906833155019720949e-01,2.597436743085961841e-01,1.762948992168306417e-01,-9.236132282011742800e-02,3.944902929573872452e-01,-2.745743943150937283e-01,4.122745020256652349e-01,6.380351619768903637e-02,4.125627910022254818e-01,9.976471713054987922e-02,-1.624451059334711400e-01,6.577345429250174014e-02,4.390329498789967699e-01,3.970916762090745955e-01,2.895723842815861593e-01,1.499028758275670614e-01,-4.905217244802696497e-01,4.717855275350447131e-01,1.451068542255050109e-01,-1.879449677390424844e-01,4.512175599279495408e-01,-2.878329723566782627e-01,-1.172720667234533748e-01
-3.827090619427979123e-01,-1.635040001069810664e-02,1.247871357538298254e-01,-1.508379599955654848e-01,3.362697331974353609e-01,-8.276910897623211694e-02,3.267129430768997977e-01,3.896862702599973582e-01,-2.354523954894695570e-01,1.752530608701831083e-01,-3.587750847204341786e-01,-4.684667513213596618e-02,4.421402709662934916e-01,4.512796503783173541e-01,4.999889271803560353e-01,4.019044230702190079e-01,-1.342914294784505469e-01,2.626707008802041110e-01,4.866106625133932995e-01,4.043385673977203942e-01,-2.993095900742162238e-02,1.634353272715763708e-02,-1.634557684656804954e-01,-3.949472335965861780e-01,-3.921380973093375188e-01,-4.959616726479263438e-01,1.464357330185023509e-01,4.472529401448588349e-01,1.430346899608715139e-01,3.456428845858671717e-01,-3.046830997166887767e-01,4.860218381355263517e-01,-2.320939999599471448e-01,-8.043921040509897924e-02,1.095913802473928549e-02,-4.141756738019608530e-01,-3.940556778515502123e-01,-2.254539388587433468e-01,-3.132941397077449452e-01,-4.744516283548144142e-01,3.754100551267939845e-01,-3.119753113968637415e-01,-1.027254692794851848e-01,1.653220169443749277e-01,3.697040738268901339e-01,4.989753338335385369e-01,9.665708730894925771e-02,-1.330596180101933368e-01,2.410289614122804527e-02,9.235284057828044291e-02,-2.388875484974058716e-01,4.859998839077837585e-01,8.616429396565775112e-02,8.396110758040017941e-02,4.623105158009308546e-01,-4.462873694202726393e-01,9.406645445783708495e-03,-1.268899855313339320e-01,-1.049339744929806972e-01,-1.722434279006107294e-01,1.679886886737016749e-01,2.539019900393704177e-01,8.064335748744701216e-02,4.951705735580637091e-01,-2.373909520566296893e-01,-4.224100602014844719e-01,7.932785913591537674e-02,3.232956829868573467e-01,1.485587655434645049e-01,4.731103974854583560e-01,1.109571514271686793e-01,-2.531587251758230656e-02,3.331322028806508184e-01,-3.331108399578070478e-01,-3.372844624596418317e-01,3.484979435555430882e-01,-3.058938608716049168e-01,2.910810468577387233e-01,-1.278953024778327618e-01,-3.122079612476050814e-01,4.676721097114088788e-01,5.770948377377389110e-02,2.362628138014526424e-01,6.066669870451684918e-03,2.210871464196542333e-02,2.437727782358873885e-01,4.142598308382861028e-01,3.310369612479547863e-01,2.523495440444818438e-01,-3.001383022609374965e-02,4.277496529754139520e-01,-1.656067186271669434e-01,2.906863707826238263e-01,-1.830722312925565920e-01,-3.375303661839523794e-02,-4.363284949172835381e-01,-3.915504081313880835e-01,-3.311409567297680656e-01,1.268239536897241282e-01,3.584748976647065266e-01,4.541536075236690673e-01,2.207103522634349946e-01,4.787844328272238270e-01,1.734816819577924552e-01,-7.122980812266282991e-02,-4.375362484033644139e-01,-2.783994337779627792e-01,1.291499571504612365e-01,1.758367629916256503e-01,-2.560893407384838838e-01,-2.318723841790265305e-01,4.139613581376119233e-01,-1.172886968582922823e-01,-4.166078725021348239e-01,-3.852557747894589518e-02,3.243694675906651226e-02,2.542260442116684449e-01,-4.371284440061796311e-02,-3.962189901561710137e-01,-3.821988926098436323e-01
-3.595509755714291211e-01,4.164399770205773899e-01,-5.830297115839049721e-02,-1.898333134242645992e-01,3.690058779690132129e-02,2.532670419632195302e-01,-3.598378836205937126e-01,-1.924934708229321945e-01,-4.421446358504751983e-01,-1.889827225804195654e-01,5.507047416315443561e-02,4.307081391145747840e-02,-3.921231505035158715e-01,-4.841796459637652816e-01,1.515703031572391002e-01,-1.596422881608853539e-01,3.160467143606818796e-01,-3.783804072762466109e-01,7.109806755472874995e-03,-9.954211923376474203e-02,1.936195684799761896e-01,3.349088198614997292e-01,-1.919951258018645079e-01,-8.946282756451214013e-02,-4.502791934996479006e-01,4.579045109100037675e-02,3.224368150273768802e-02,1.986516791720039157e-02,-4.666912348436009772e-01,3.382198189484681428e-01,1.668471273402832300e-01,-3.678203314254973599e-01,-4.718459076030764865e-01,-4.265839637646559046e-01,-1.173646206811839732e-01,-1.441032374795774007e-01,-1.085872099582413791e-01,7.339089023793832212e-02,-4.495523516607945469e-01,2.666898924133517812e-02,1.029740193712262442e-01,2.675928695319409467e-01,-1.177724527701324436e-01,-4.058075236447720169e-01,2.266463411621061907e-01,1.006877300542501907e-01,-1.853752130354605065e-02,-2.219716831771291476e-01,3.072913076999700954e-01,4.581446141022022522e-01,3.183535330355163895e-01,1.351539485972605981e-01,1.799743417821883795e-01,-4.925335905545873971e-01,4.897807533436061012e-01,-6.465322934143894092e-03,1.105122322178887923e-01,-4.472410736148807464e-01,1.765810480217701317e-01,1.067077238935501826e-01,-2.206154125673993049e-01,-1.757614279984649752e-02,-4.133829304884090727e-01,-9.525615152338982872e-02,-1.095772543406222377e-01,2.604396633922846926e-01,4.552667697053764950e-01,7.648478523397539419e-02,-1.847636475985726945e-01,-4.992079281181774353e-01,-2.714204150004150273e-01,4.590549081580238555e-01,-4.801953195380621042e-01,1.364730836783140631e-02,-3.287927734922511114e-01,-2.507425470397659506e-01,4.209775762258217702e-01,4.344990716132503539e-01,1.890992900959050371e-01,1.849540415622277778e-01,6.873317358026318109e-03,-2.086907151408644023e-01,4.172201513869423506e-01,-3.661921135161404495e-01,2.955652009263242119e-01,-1.857777312078695009e-01,-4.079702331448603614e-01,4.699902862682198701e-01,-3.391792072359389731e-01,4.491524502515499284e-01,-2.760306130787475998e-01,1.150717445027749641e-01,3.697900695395347492e-01,9.418544945290804882e-02,3.892547482234811618e-01,2.620133435078990103e-01,-2.070929509684638070e-01,-4.104831262675919246e-01,2.036543566944843675e-01,-3.541535536240651982e-01,-4.618733809505737864e-01,-5.660968059062938124e-02,-2.685265489440309961e-01,3.561392434405641350e-01,6.783936403965011575e-02,-2.015139801273486617e-02,-7.782892546759123675e-02,2.022877203544040658e-01,-2.154194255879966491e-01,-4.709587801060223233e-01,-2.955940224649256098e-01,1.937386109250585908e-01,3.322822108310075628e-01,-3.348163264773938996e-01,-3.256638855816159639e-01,9.198422802762397377e-02,2.007924504918125463e-01,3.328213752283292193e-01,3.038509495708394126e-01,4.964804735394916513e-01
-1.275198285879362292e-01,6.357944104946225417e-02,7.138963837910729249e-02,-3.867183835317987151e-01,2.402670198896347808e-01,-6.792220151980041254e-02,4.480332194771598220e-02,-3.309057287325860297e-02,-4.066076654016798075e-01,6.684063377934644501e-02,7.202538610502735861e-02,1.409716719523610162e-01,-1.165847731561232559e-01,-3.208368277581816197e-01,-2.240344091447622199e-01,1.309015752848266823e-01,-4.855203143914448849e-01,4.690052475334872129e-01,3.739927610666490265e-01,-3.170898665417496431e-01,-2.106527575227715721e-01,2.280998928824797267e-01,4.005033062375167319e-01,3.670357044460770268e-01,-3.022642284340508190e-01,1.968836000506084608e-02,-1.021392177831956238e-02,3.723078310251133893e-01,-3.089579446448158517e-01,-3.681345863297861287e-01,-3.585961511653363298e-01,-7.302645493565590451e-02,-3.830356293923665723e-01,-1.684231917025028336e-01,1.001561335538877912e-01,-4.332015469133734253e-01,4.140746812627493223e-01,5.863934128838076826e-02,-2.503617936994599891e-01,1.006830109169341431e-01,-3.188909546208303913e-01,3.192354517337720465e-01,7.114424213910415518e-02,1.748036438768574841e-01,1.603358300147877391e-01,3.595913101013435975e-01,-5.865234100147977137e-02,2.947407844686522962e-02,-2.447960459033751146e-01,-2.098323112948617952e-01,3.240611968142814020e-02,3.522990216563268162e-01,1.763530551188433326e-01,-2.598092112231688566e-01,-3.873085375278981224e-01,5.058924117990994951e-01,3.167611707681924904e-01,4.032972724600585035e-02,-4.303762526957531920e-01,-3.121044569949064096e-01,1.371750776242974812e-01,4.920166941445251463e-01,4.366568124852704402e-01,3.363011060589150003e-01,-4.557953261646986998e-01,3.003467153478592624e-02,-4.193068039839158434e-01,8.528199310109214892e-02,2.485646680751315285e-01,4.950578102517670942e-01,-1.749230834806391466e-01,-4.824969198765932110e-01,3.090198744297655287e-01,-2.911076402987554101e-01,9.944130154046186554e-02,-3.499866134898428904e-01,1.744005095497149493e-01,-3.678142665963980429e-01,-2.334660261011924642e-01,-2.293783278057561492e-01,8.550374829595931703e-02,-2.783545550877495334e-01,1.701785761217233517e-01,2.961239533037107186e-01,4.431046236865984200e-01,-4.375533831133405771e-01,2.421993967103854284e-01,-2.083612068689902341e-01,-2.490846120653739948e-01,-3.741520918085467495e-01,9.128859455739275763e-02,5.159327783266551976e-02,4.273566302004922490e-01,-4.395415583794801129e-01,-3.664030808903527836e-01,3.995824201436931067e-01,5.781351791463278100e-02,2.425774295233655564e-01,2.773447890825890827e-01,1.653798498732753919e-01,-3.742565014624995579e-01,3.748198991322761464e-01,2.803663748011971935e-01,-2.857943831128172407e-01,4.689066491802681425e-01,-3.280503030778819107e-01,-4.445929357025339979e-01,3.670806059333788229e-01,1.259424177866035333e-01,-3.504338624994783880e-01,-4.757597374990066297e-01,7.486864052564763672e-02,-3.592126279279369561e-01,4.037238368361371066e-01,1.193737727385561949e-02,-1.595236702030034259e-01,1.678796866964414880e-01,-4.540536230682737373e-02,4.259521845711600752e-01,6.323921901833835790e-02
2.033820713076754660e-01,1.123253643323340462e-01,-1.554975855026975995e-01,-1.067923209935026374e-01,-3.166096263245604669e-01,-4.717749553780164473e-01,-2.623377428646575527e-01,3.344002682781897495e-01,-3.797100360198349400e-02,-1.948883590555668399e-01,-2.370774579789368119e-01,3.673775405768709423e-01,-5.110096687449407898e-03,4.562192392793942841e-02,5.346677009457839053e-02,1.616964947666913732e-01,1.115629689200680896e-01,4.900644963459261372e-01,4.886892268785437143e-01,8.542817199729556277e-02,-4.339234713236818086e-01,-2.820931560554140183e-01,-9.012038283665305127e-02,3.122203621563848785e-01,2.764904305547182251e-01,-8.068846920591393745e-02,3.308550759026149257e-01,3.921815359950078239e-01,-1.896007041019094341e-01,-3.674600733420824161e-01,5.414198017452228305e-03,2.701968281541902717e-01,-4.122780790154645936e-01,2.163173759137049512e-01,-1.991098265605075954e-02,4.138745649225198942e-01,-2.187270053303829592e-02,4.465233302305327001e-01,-1.716884356221131391e-01,3.273257607528726881e-03,-4.891873515279938633e-01,-1.870994484290089410e-01,-4.936025122289571243e-01,-2.188794919690841001e-01,9.531365748982234543e-02,-2.723291581889181190e-01,-3.238513907993820218e-01,1.417504132129651373e-01,-1.690227691869289062e-01,-2.200119553449833010e-01,3.854811785407669111e-02,3.578604776317171887e-01,-1.585989887836512513e-01,3.184409799647940909e-01,1.495602788888460433e-01,-3.610867473318441490e-01,2.670430186666537531e-01,-4.907826336294036917e-02,-5.538016418783853895e-02,4.841879923028075683e-01,-3.592728999000565082e-01,-8.499025325695784908e-03,2.705256720449856350e-02,2.327338550947984433e-02,1.131053529071850694e-01,-2.452436329488089095e-01,2.434762449152190755e-01,-3.177710261082541954e-02,-1.095708322124267775e-01,-1.855740637119910330e-01,-3.902972962982642069e-01,-7.124841500131624296e-03,3.469901060197078113e-01,-1.944950746586616708e-01,4.380871865028739265e-01,4.871726040160878068e-01,3.193939279455683122e-01,-2.331331535860712012e-01,4.952328177585032520e-01,3.632090955171951019e-01,4.846414797031831090e-01,3.754874971787511284e-01,-2.812531984146066644e-01,4.898367880428146082e-01,-3.826704605528429282e-01,-3.262119081702763435e-01,1.503448228637593691e-02,2.849156585407924269e-01,4.889307484489011091e-01,-3.700224098779963944e-01,-3.553045048644306037e-01,3.701763469861723554e-01,-3.956949436986533786e-01,1.414852056942115799e-01,-2.172080652680314916e-01,3.533718497678445813e-01,-2.643371695376768860e-01,-1.933251550814863162e-01,-9.244955495249880528e-02,2.856785805901205025e-02,4.829823684539821804e-01,9.313086989379727731e-02,3.572622108046470402e-01,4.630545632030547143e-01,-2.706722784242752144e-01,9.779682773394839101e-02,-1.529506060656476707e-01,3.094662359343561819e-01,3.939568998413051082e-01,1.659827355447315300e-01,9.359832817752387901e-02,-2.392317116272236199e-01,7.836656120596587061e-02,1.178808050922487971e-01,-4.514885220182844883e-01,-2.452337479859612035e-01,2.112511382974718022e-01,4.518880589795714608e-01,1.631592922338639950e-01,-4.716466120593219569e-01
4.793264858286772762e-02,1.171933208738146076e-01,-1.377196769361048734e-01,-1.340961066145186231e-01,-4.920650264839733778e-01,4.254893984907632820e-01,-1.640032580432923826e-01,-4.602835065890336086e-01,-3.535061796251134925e-01,-3.983066715841295236e-01,3.077299764060321685e-01,-2.055147544485582678e-01,-9.836391834893476460e-02,1.781924883509878044e-01,4.639738129579553116e-01,4.587127179743683003e-01,-5.849661983060564299e-03,4.512078075278190825e-01,9.081156908608498113e-02,-3.667488945255428789e-01,-4.510593185930818483e-01,-2.644037801717105118e-01,-3.713952665012434373e-01,1.176467039976278189e-01,-2.436070006257775866e-01,-1.113482950146737344e-01,1.458307278173825994e-01,2.938012389282358972e-01,-3.887321119396309754e-01,1.098565785313205118e-01,-3.975330989647121172e-01,1.663474339490323139e-01,3.347576782470434997e-02,-4.933977695624179594e-02,-3.171132598484184273e-01,5.486167338391079173e-02,1.513600947701028987e-01,-9.203770515925237261e-02,2.069329802502113957e-01,1.495061078176830038e-01,2.678466314597873210e-01,4.590501325287433820e-01,-6.616354465527748974e-02,2.110593746420027506e-01,2.055046795365577661e-01,3.312698348910435020e-01,3.122913332761524385e-01,3.101369263344327387e-01,-4.851670739245483310e-01,-3.274366186845745208e-01,7.113223624537248768e-02,1.674087136736100434e-01,-4.976526856741303462e-01,-4.505115457082513042e-01,1.901863229535969146e-01,-8.465070373630791123e-02,2.641519790368639931e-01,2.076493113135534641e-01,1.662141464552895076e-01,2.331218840882403557e-03,-2.797382693655688368e-01,4.953252378429298108e-01,-1.500873106104849974e-01,2.732972360616454099e-01,1.605441700635782398e-01,4.660540386569458349e-01,-2.689112693755254524e-01,4.542231931278483681e-01,4.754112955707034960e-01,2.060806779117459742e-01,3.760495053120395115e-01,4.710733484056655040e-01,1.290904781913890242e-01,6.988243332194095467e-04,-4.036212555235544341e-01,-2.345486367897005753e-03,-1.112699386046672873e-01,-2.907675747554053780e-01,-3.392769195881131794e-01,8.304920608193459841e-02,4.839483003582784604e-01,2.595736290905658605e-01,-4.622378888000890917e-01,4.399139171974192353e-01,-1.521939139183746958e-01,-2.108636472850610177e-01,-4.602464963159630384e-01,3.647648901524057630e-01,1.014635039488950008e-01,-2.628288287288851888e-01,4.797847014484888928e-01,-4.394454374448314993e-01,-4.732249495055359384e-02,5.002355798393549602e-01,1.079338942243306537e-01,1.825101654720193700e-01,2.464529175342861644e-01,-3.798680032096370118e-02,-3.302298472110389849e-01,1.710752085750767149e-01,6.474896468213775860e-03,-7.683117786388209483e-03,-2.602078069217314549e-01,-2.555211690468180974e-01,3.331243740949407783e-01,1.855217772276959998e-01,-6.259905956149706963e-02,1.301179740846282185e-01,3.587762911285692358e-01,1.037231068388714678e-01,-8.559977955990351328e-02,-1.172232832048275969e-01,1.266897627890491707e-01,4.953200911713911414e-01,-4.964611511029750623e-01,1.226461380476665496e-02,2.232901178841690815e-01,-2.476369861240456383e-01,-4.497759445335792750e-01,2.025911705722678591e-01
1.484459802094978687e-01,-2.037689767005200769e-01,-7.903728913741175921e-02,7.207295898738520518e-04,1.390943398190986335e-01,-3.501222009897773657e-01,2.420517621509133410e-01,2.403910687775855648e-01,3.377876208498001298e-01,-2.965184227630535130e-01,-1.473722038168228388e-01,1.239869152002619213e-01,-2.238170190348179045e-01,8.066778043475754389e-03,-2.258438215473888289e-01,-3.629983188789340232e-02,-4.575396220067909914e-01,3.413212517709867666e-01,-3.455539722588126805e-01,-2.979176790221301774e-01,-7.381553388249063874e-02,-5.632609922877102743e-02,-1.094952138158005739e-01,3.674799337615822781e-01,-2.166109674787980721e-01,-3.970146855079068060e-01,-4.529549970069284281e-01,1.362018915282286469e-01,3.423479326226217534e-01,-1.400564248058390471e-01,-1.359906588751244594e-01,-2.940682124204209158e-01,3.915071864703626447e-01,3.649254258188223687e-01,1.569927129202667582e-01,3.796766540154576375e-01,-4.525265607361340092e-01,3.918472219021940789e-02,-4.455171279348631858e-02,-1.667225374355785217e-01,5.437228111385488533e-02,1.813082132312867079e-01,-2.234159020956527353e-01,2.061500155561990510e-02,-4.464966020979542760e-01,3.388516837398832804e-01,-4.210705671239290959e-01,3.170678661319811104e-02,5.729628181882085586e-02,-9.873282723581572329e-02,2.677913519186744251e-01,-1.265591674144299905e-01,-4.754012333675419755e-01,7.656948385587272754e-02,-1.540921026472935051e-01,2.623012610009413659e-01,4.693567361007468519e-01,2.316022826562137357e-02,-2.437358447413912332e-01,-1.395313548669852299e-01,-3.996770210228015041e-01,4.308537277868324661e-02,4.343627417401366708e-01,-7.336320957255652864e-02,-3.924959435223627779e-01,3.575389828901431311e-01,1.559726567100435668e-01,-4.056501716591364715e-01,-1.463393669412821341e-01,-3.290748551471201488e-01,2.513642420808515424e-02,8.111850349558864803e-02,-1.984198990762792991e-01,-1.331605598068996699e-01,-4.604578848228803589e-01,-1.996682282378256790e-01,3.695769914947685808e-01,-3.339059933187897844e-01,2.587250956480004471e-01,4.128562292264802980e-01,1.999295801720731708e-02,-9.976213394310469440e-02,3.087469716433394740e-01,2.765246244110072249e-01,4.079667058666894830e-01,2.714181381286795425e-01,7.812211904449307964e-02,2.951751713718337999e-01,4.426423559766040072e-01,4.701581086895837425e-01,-1.554086034610986135e-02,-2.448271266643635424e-01,-3.214321913628496175e-01,-4.844423795237764452e-01,-4.093803513707761632e-01,-4.889094256738364952e-01,-4.211713453661573570e-01,-1.549994473187558675e-01,2.474699603610291399e-01,3.114809809553182318e-01,2.664450656235994863e-01,-3.744765097006709231e-01,4.937260359639963347e-01,1.645593970853338750e-01,-1.753383751174618643e-01,6.210620837143369932e-02,-3.924596358757804770e-01,4.325683145233518712e-01,2.163163623395129576e-01,5.569894757658044870e-02,-2.028472958685704763e-01,3.736680484218848353e-01,4.122100758095354617e-02,-1.360514698972808412e-01,-2.960544910392982065e-01,2.129065053882325809e-02,8.328359787488291699e-02,-1.155826305493765083e-02,9.246751108783690665e-02,-2.581740762247703991e-01
4.652670555149113207e-01,3.168508944021282414e-02,-1.356714867629625620e-01,2.794877529577250441e-01,-2.509560974339747341e-01,4.442274096050737031e-02,-2.963113710232561648e-01,-3.646589878340922852e-01,4.951510358088979241e-02,-1.496624552373825856e-01,3.396927149909367838e-01,-1.474848813677456516e-01,-2.899444521962884699e-02,-1.253476559712087268e-01,-3.881669385888721902e-01,1.732212118048079286e-02,-1.352947965689121346e-01,2.906084993685842943e-01,2.889173545838112367e-01,4.039213511124760403e-02,1.371605123341648191e-01,5.114624203083235898e-03,-2.021954922583059644e-01,-4.727639809684943129e-01,-4.825797278185331440e-01,-3.523713839872206766e-01,3.918201921235798801e-01,-2.688351722223424403e-02,4.492157638588598623e-01,-1.621045501664354904e-01,3.652364203850360092e-01,3.067266116376888840e-01,-3.622075552724095537e-01,-4.757604934439255140e-01,2.191864768679115116e-01,-1.122575403066389532e-01,9.379966807811238039e-02,-4.450037166675419043e-01,-3.070742673036535586e-01,6.172437508143098495e-02,3.298618438766886540e-01,4.352325837498355887e-01,3.165723369428802281e-02,4.717853242476661157e-01,-1.628622824439593664e-01,3.631847929464738223e-01,1.926576848280259768e-01,-1.851408972088739585e-02,4.752801923624869751e-01,1.111534319980414104e-01,-1.651447673291925045e-01,-1.829444954582492081e-02,-5.004943938907520096e-01,1.423602197003262515e-01,2.718982528652825331e-02,-1.673707585781043505e-01,-2.591558110253556202e-01,4.667322539150192129e-01,-2.230570193817178470e-01,-4.068751236264265408e-02,-1.658281525451756611e-01,-1.336769865477470676e-01,-4.430662847405275051e-01,1.415485258035776017e-01,-4.617994814591152575e-01,6.333333905922532148e-02,-2.930079855376665487e-01,1.903562454290747274e-01,-5.054642654898886533e-01,2.197241531131978176e-01,4.812831860264414341e-01,4.261546239062027203e-02,4.819362986978640850e-01,1.192940381230090247e-01,4.707131893125460764e-01,8.781376824749292931e-02,4.273516885947439836e-01,4.535345203015159754e-01,-3.986353943737246386e-01,-2.428023578703925392e-02,-1.125427820503529797e-01,-2.208152648188100586e-01,-1.988676584595392427e-01,-2.620068287771563087e-01,2.595771970580378896e-01,5.136657128721928284e-02,-4.499644623522468523e-01,4.742899330923181500e-01,2.402948291090556132e-01,6.784521555375888635e-02,-1.836151902965005300e-02,-1.782611799578316114e-01,4.430163663794045581e-01,-3.538639968759541565e-01,4.670437697289820389e-01,-3.206730791663632285e-01,-9.783523014583968280e-02,-2.395034241151421384e-01,1.898852701205856752e-01,-3.640930163536796882e-01,3.467470818588361259e-01,3.148670587135637966e-01,-3.531892199828501333e-02,-3.678622142992208355e-01,-4.051009306379714792e-01,-8.205012273925808841e-02,-4.807232093329807943e-01,-8.373723975016765519e-02,-3.478586317389486537e-01,3.305968528859807853e-01,-5.160710301314213461e-02,1.310809951709623888e-01,4.111893324381483139e-01,-3.042445430557418340e-01,3.138500904158463833e-01,1.426579697603685450e-02,4.587474095046304989e-01,7.179147037063855763e-02,-1.521274533605538881e-01,-3.657549177704799148e-01
1.225008994767589204e-01,-1.782518017802749710e-01,2.291994363545328539e-01,3.182322808755084775e-01,1.537822225568466310e-02,-2.982669618733642738e-02,9.580760015995094803e-02,3.383673326863352593e-02,-2.975310323890909547e-01,-4.701316709191449839e-01,1.672957137074600892e-02,-4.276907453522518776e-01,-4.999107307207491524e-01,2.059556751056784429e-01,1.846282786270376786e-01,-6.953496220636996850e-02,-2.908381031808761064e-01,3.947723404247901469e-01,-6.647617030981553543e-02,-4.398420681298585710e-02,-9.510754771826748777e-02,-3.572103949389389133e-01,1.207537277504739104e-01,-1.388430773656617601e-01,-4.591120193520066284e-01,-1.632554705479806467e-01,7.759519610724455174e-02,-5.034244085765444687e-01,4.076454269021991261e-01,-3.061578455570715396e-01,-2.583508243604683563e-01,-1.842524707498201797e-01,3.847929993403541582e-01,-3.322856041115456738e-01,4.836391699116700527e-01,2.029916762956523180e-01,-4.387365560997037450e-01,-3.166546484530959327e-01,4.787294382971645640e-02,8.281112831410480934e-02,-9.170415714345951652e-02,4.743817714452416290e-01,2.929292079924032399e-01,4.939667332657939336e-01,-2.231654826163800842e-02,3.685589760150616012e-01,-1.284059328051199156e-01,2.814946377058375471e-01,3.060680772280954809e-01,-4.445562178598045922e-01,4.562182144139744766e-01,6.906046423924330768e-02,-7.170582891531088188e-02,6.185969464689334424e-02,-3.638050990688232456e-01,-9.633703525430636905e-02,7.234671578132015335e-02,-1.854801744004664077e-01,4.281492065901643107e-01,1.214482791383767191e-01,2.077225421820149687e-01,1.431421444087705719e-01,-2.271164297620448247e-02,8.837922323258072532e-02,-4.983685843781279212e-01,-1.881920010724738301e-01,-3.703403689863689063e-01,4.813968774273930107e-01,4.726936913760353409e-01,2.158523877507895761e-01,-5.486183500663570356e-02,-1.068853385397366268e-01,3.732918075258206403e-01,-5.926986167164462888e-02,-2.891338019566692674e-01,-7.250841352672063311e-02,4.951856658538471012e-01,-4.487253883411974065e-01,2.319811051963747428e-01,4.292604519484011782e-01,-1.531203166756780754e-01,3.716179454579610075e-01,-4.615675613503354979e-01,-4.048087738558141524e-01,4.316242991034441312e-01,-1.101639646712573167e-01,1.279823905670293416e-01,4.965724342274361880e-01,-3.885017343725925554e-01,-4.241185339619847339e-01,3.850103537509302343e-01,-6.069550297956907703e-02,-3.815178398571119484e-02,-3.257755055952217538e-02,-4.910655734105240922e-01,4.331662939398604473e-01,-4.658628405673552186e-01,-1.112149238340603141e-01,6.725841630387499603e-02,-3.679813773667910404e-01,3.107527184700871747e-01,-1.282325422607760723e-01,4.900606374363892792e-01,-1.452505753157277979e-01,-2.410883088160310495e-01,1.104315736977123097e-01,1.814970393535243753e-01,3.101897920799472907e-01,4.719109733638966464e-01,-4.134945091060685668e-02,2.481667628889379640e-01,-1.358320243652615389e-01,-4.982505315439659244e-01,-4.252384674817828447e-01,2.418686285321839102e-01,3.932162928983410355e-01,-3.502766403310257348e-01,1.852814883246986233e-01,3.301766233950083063e-01,4.249512804089212170e-01
-1.045103726285565165e-01,-2.744873530692006902e-01,2.782826022776518360e-01,-3.441325105855210231e-01,2.459567513425583996e-01,-4.487492860992538524e-01,2.904913698753591178e-01,-2.264832557584952888e-01,7.867913554061593817e-02,4.156502711687527496e-01,2.639152919040285150e-01,-9.122299889551513385e-02,-4.975688568114627897e-01,1.827633336317294466e-01,-4.496681802312444964e-01,-4.108659255111991176e-02,-3.695233162434498064e-01,-2.283754346331393070e-01,7.822965922254047910e-02,-8.095520362061155162e-02,1.122956539856098668e-01,4.092030785862806885e-01,3.289211144495715056e-01,5.584273913060884553e-02,3.146364720166834605e-02,3.689971788494533222e-01,-1.060409512623841505e-01,3.721257822627302980e-01,1.937634266109145853e-01,-3.313148955872414203e-01,9.959108963173186890e-02,-3.097817985224498027e-01,-3.796327062894217508e-01,2.779256845598283010e-01,4.132297864680056221e-01,-2.864551509986322242e-01,3.619306578311726752e-01,-4.478710589001773032e-03,2.362970864325192044e-01,-9.043971036709831657e-02,1.919777731515434904e-01,-1.557152668232337778e-01,1.597355983424769976e-01,-2.110496332240734407e-01,-2.360343212140107727e-01,-4.422672127267635589e-01,3.244597710937240920e-01,-3.737691406649250037e-01,1.401242653666108506e-01,3.568445691817336840e-01,1.570031798398727751e-01,1.692488736751614764e-01,-4.130195756011568742e-01,1.916066984783273697e-01,5.558584542293918546e-02,-3.882924866895678950e-01,-4.816594518697531746e-01,-5.324943286736936315e-02,1.058125319245366812e-02,-4.309998464017858466e-01,3.005315474731758418e-01,3.407531039192233935e-02,2.356420747022270057e-01,1.349658097911421717e-01,-2.208497652123822541e-01,3.393518092893944155e-02,-5.724976104224461376e-02,2.007214889769796951e-01,-3.543976133798335537e-01,-2.002749911790842330e-01,3.845360217876172548e-01,-1.594285377522337011e-01,-4.315923126887558081e-01,3.619291256085535591e-01,3.529559309087668684e-01,-3.820153824128617037e-01,1.363637730276875681e-01,-3.087348418821096452e-01,-3.568081727798501079e-01,-2.818562594351143105e-02,-3.612935545397774964e-03,-2.792940822989253280e-01,-3.878989733667272399e-01,3.617469834987646626e-01,1.290591905359261549e-01,4.667518483775996430e-01,-3.685070673856680745e-01,-3.012640749537288665e-01,-2.732327077006177496e-01,3.341843231000648506e-01,2.429899417424072616e-01,7.205102594644385849e-02,8.533681832042971926e-02,2.665932865740904267e-01,-2.538433198308117644e-01,-6.089425999604392709e-02,-2.826446650334671351e-01,-3.669882200841250164e-01,2.900885609171734991e-01,-6.829793229961952927e-02,-1.977262532045576116e-01,2.106114283714915492e-01,4.570586579211500800e-01,-3.710408864391561701e-01,2.629488626330484524e-01,-4.879584601261652832e-01,2.540476025879002953e-02,-9.779000765018054653e-02,-3.192896951731731825e-01,-1.831027471571264609e-01,-4.082307946543797111e-02,2.010812510019771293e-01,1.362773462310728767e-01,4.811154098907080012e-01,-1.654853071854269497e-01,3.536446465818255391e-01,2.734629165899317080e-02,-5.356622636066857984e-02,4.130494618236858761e-02,-4.100584991461485029e-01
4.330591117783494370e-01,3.703944014633541726e-01,3.072178509035475291e-01,-3.978975086517484022e-02,4.762679617061134629e-01,-1.144973687088642333e-01,6.534820204981017788e-02,2.921187613084341370e-02,2.927881509863725640e-01,3.863988947048934142e-01,-3.850196913853329850e-01,-2.735296414008934751e-01,4.746813168954633344e-01,-1.959994861084742024e-01,-4.135194587505566233e-01,-2.420939169115926826e-01,-4.928662731332524305e-01,4.525079879017729345e-01,2.032749002580968301e-01,5.899904532355072784e-02,4.776958598367232467e-01,4.833055071313230866e-01,4.431205515073490808e-01,2.765338796089755746e-01,-4.890806684895689094e-02,1.564842271578651203e-02,-4.119192245542627195e-01,5.409232563491709472e-02,9.123075568287286607e-02,-4.289270076195336734e-01,3.569972249953093368e-01,3.528716227987687692e-01,3.263377434409123201e-01,-3.313034919534718070e-01,-2.975310429849349972e-02,-4.462986917620181404e-01,-3.658368076553203396e-01,2.581057214140784414e-02,-4.346307560981344520e-01,-8.499784209342113594e-02,-3.921492265582840475e-01,-3.064265242130125300e-01,1.104986376661699354e-01,-9.535142710154123624e-02,-6.814920544095780242e-02,-4.913353329547682224e-01,1.826377283768126913e-01,-1.001137028079697455e-01,3.307716048286556965e-01,-3.710844310022578529e-01,-2.626932149930215621e-01,-4.967834021599992766e-01,-4.753729242016606626e-01,2.341751232026698659e-01,-2.248398753574727404e-01,1.328712319992840230e-01,-4.408738055603460548e-01,1.937352510731779331e-01,4.858312762736224366e-01,2.771353620019551597e-03,4.258985128312524626e-01,-4.840164862601449292e-01,1.033267293750036037e-01,-2.433060000026820990e-01,-1.520416175109725321e-01,4.394931948448643211e-01,3.571052940693330569e-01,-1.163870987314184896e-01,2.246353157252106714e-01,-3.800532992883416394e-01,-6.621986675176005921e-02,4.051934818249288695e-01,-8.467868104928598372e-02,-4.923916395984754835e-01,1.191233156344074784e-01,-1.602671379183414346e-01,-9.297073825322961504e-02,5.432715334457946521e-02,2.495978770235136590e-01,9.445672819160663355e-03,-4.696950649491210550e-01,-3.175923376248218633e-01,2.132649250355495296e-01,-3.828767614718693313e-01,6.654043203342323298e-02,-2.454405074750098115e-01,2.246956102128128130e-01,3.815014457385650370e-01,-1.535493764935144945e-01,2.726430866221499216e-01,2.051829004052876937e-02,-3.760521919984957107e-01,-1.922301590420681106e-01,-3.906420300815443003e-01,-4.465946777363500320e-01,4.679241857688326567e-01,-3.077626051233720017e-01,1.517963690729108306e-01,-1.477408201107488772e-01,-4.892270086923991013e-01,-4.585029687272349497e-01,2.584669803227362950e-01,-2.910064543345970423e-01,4.800762106192010825e-01,-1.019358978032310417e-02,-6.587957637114098819e-02,-5.572533167937793880e-02,3.941138331092945979e-01,3.357649682591500873e-01,9.257631455490582251e-02,2.573853127210347022e-02,-4.780919710360816421e-01,-7.975960531260711806e-02,-2.444211173995567143e-01,-3.748018837288224492e-01,8.647723431488020529e-02,5.652503976218842957e-02,-3.795556160635160659e-01,-3.718016955126670076e-01,-2.848964465558186387e-01
1.429145739618359889e-01,4.805936007372730301e-01,1.176767012820486569e-01,4.140576297804298700e-01,1.093783835714057379e-01,2.799918344384183522e-01,-3.549518041190213857e-01,-3.051255861599574959e-01,-4.124299909580330520e-02,4.819536428023042385e-01,2.266796647304270829e-01,-4.669356382224170154e-01,1.064232721535624121e-01,4.755349256491542276e-01,1.330848862673957300e-01,4.225290181173159132e-01,-4.680738759731062348e-01,-3.124854323446097926e-01,-3.081905560508308439e-01,2.380412269978436635e-01,-2.746109714270232871e-01,-2.094243281847473770e-01,-4.026969072489886003e-01,-3.537960946651071414e-01,-1.381155576971284382e-01,-9.181607256206203438e-02,1.368316592409476451e-01,1.457597799549430195e-01,-6.429055278532366802e-02,-4.321421762800132793e-01,-2.447701610023330365e-01,1.238759323418595210e-01,1.739631069048814399e-02,2.239299460730796165e-01,1.894412915278198550e-01,-4.945463953663461476e-01,-2.190396602313964547e-01,-2.970712883864594089e-01,-3.984746431012639589e-01,-4.309573182721129214e-01,2.063790238462972493e-01,-3.910329425329545083e-01,-3.624929121492210388e-02,-3.240006004586614141e-01,3.337932594216351245e-01,3.286969353140583878e-03,-5.245652346689716472e-02,-8.996030598497341269e-02,1.211691876987036343e-01,4.457428505455681145e-01,-3.462777680927991431e-01,-4.698493319447337724e-01,6.762303395831359420e-02,-2.791240369311893121e-01,5.962222031078400625e-02,-1.574582272543486317e-01,-2.758780274955690004e-01,-4.889796735702050534e-01,-5.264008964777207311e-02,-4.023418711638274137e-01,1.775263157616325804e-01,3.185763754514502333e-01,2.780852299525573557e-01,2.581298105064679382e-01,-2.712941327511860790e-01,2.375529372604915923e-01,-1.786528544912219796e-01,-4.146562609268986677e-01,-4.525215419259581012e-02,3.963830864765843787e-01,4.027582939652971650e-01,6.697437631996078222e-02,4.779968701078026738e-01,-2.243065364009176887e-01,-9.952391700180324152e-02,-1.480887687183266854e-01,3.193242231233645589e-01,-2.801567162979355374e-01,-6.172845530515654738e-02,-2.481135380405384283e-01,8.218647399121507824e-02,3.115950173983444982e-01,-1.116681638842332153e-01,-1.158061792670475043e-01,3.179513972278668610e-01,3.542717819542659519e-01,4.898565752801222611e-02,-9.550478442318685417e-04,-2.972288886222313464e-01,-2.922506692491514957e-01,3.018708409810316740e-01,-3.099824418705394713e-01,-4.876026450248889255e-01,-4.731535774307230602e-01,2.774134824867344196e-01,-3.097461967886840917e-01,1.207890066977238344e-02,-4.908760914277082721e-01,3.094699143867493674e-01,-4.978041341464350955e-01,-2.847413999149287500e-01,-3.136857903279545723e-01,-3.396498623569196851e-01,9.721481076037633007e-02,-2.212717744233961004e-01,4.282603642776471042e-02,-1.405148616434088171e-01,-1.319069378733771225e-01,-6.940584233299595951e-02,1.333391792063873815e-01,4.679754830293155754e-01,6.532998799072053941e-02,3.333044275648814336e-01,1.091503488109948072e-01,1.814362148885336201e-01,1.887141697727829914e-01,-4.411353561669699719e-01,4.162343774201962554e-01,-2.059098625065259869e-01,-4.330164954273575950e-01
-1.018717010978837517e-01,-9.225994628552409982e-02,4.275107854951316622e-01,-3.314683739407066621e-01,2.354970470687133000e-01,-3.744133486198501504e-01,-2.033258597455227801e-01,2.460800220129665261e-01,-4.042468131933502073e-01,-6.654278878778034298e-03,3.695723224373970717e-01,-2.002418972615671311e-01,4.581885287228458226e-01,-4.837442292645607878e-01,-3.338079450116760438e-01,-2.823672028467020811e-01,-4.157697865458517272e-01,1.445554192803968629e-01,-9.692483605072239883e-02,4.656518833774740962e-01,-9.597688325736096482e-02,3.275450697982684733e-01,4.347321638921505249e-01,4.294058402509494665e-01,1.119985269160869990e-01,-1.987207065552860641e-01,-3.835806451836273889e-01,-1.934279426992248363e-01,4.285965549752209225e-01,-1.631481679212708480e-01,3.769291113033919061e-01,6.312193899846256506e-02,-4.148357710550645283e-01,2.702486345736598294e-01,2.623541261784625989e-02,4.320796972525964841e-01,-1.078498652858343038e-01,3.109358507255818079e-03,-4.230369573301745456e-01,3.782536562731979579e-01,-3.659366057826821117e-01,3.193004194535481455e-01,3.351379282669244564e-01,6.532020184044382005e-02,-3.468291959624659748e-01,2.306126427365521037e-01,2.054544709324661600e-01,-1.887455425053016222e-01,-9.272845366719600912e-02,4.400718091430508294e-01,2.589333642398075619e-01,-4.661720562000207790e-01,3.966009107996212313e-01,-3.610225305287925474e-03,-2.733606621393896985e-01,4.033535163349385444e-01,2.059100070875038435e-01,-4.962295417516083829e-01,3.952923129750798847e-02,-8.902142426446160717e-02,-4.187192148324524466e-01,3.203288639915072289e-01,3.470373704544392202e-01,-4.057952650523303784e-01,1.704619872414574744e-01,-7.367562763942597792e-03,8.923206113493800662e-02,7.300034285521327104e-02,3.709757419459173700e-01,1.443051931062961646e-01,-4.625476122299769233e-01,-4.989739707872050123e-01,-1.794624907072102926e-01,3.138297548446203344e-01,4.922922860344877694e-01,-4.103898007758635669e-01,4.804042909374898751e-01,2.793663496520295553e-01,3.587782555833032294e-01,3.183140443412616483e-01,-4.859089719014278996e-01,-4.881421806632311178e-01,-3.319216025098478684e-01,4.026361692409361481e-01,-1.367739963488751043e-01,-1.797269567060539308e-01,-1.084353597516702350e-01,1.335791258699371153e-01,4.560772505891383943e-01,-3.832180146363826923e-02,8.532037941675524317e-02,-2.939703983979392171e-02,-3.075961741786435999e-01,2.118312098542498856e-01,1.521250298594743755e-01,-2.768208469785215509e-01,-3.332305127954695023e-01,1.843016632933376642e-01,7.223949280260480443e-02,-3.809856036227555198e-01,3.966516133402988031e-01,1.380047381524624195e-01,-1.713735271602898347e-01,-3.338115915809727330e-01,4.568115498588633944e-02,2.607552607978639858e-01,-1.986530678837811204e-01,1.407430528082271592e-01,-3.438677698936844496e-01,3.688001802164511678e-01,-3.008743030975794541e-01,-2.317514819513331881e-02,-1.244163488156875136e-01,3.257829155589168080e-01,4.942121971107065748e-01,-2.980419585533538585e-01,5.137802128900614829e-02,6.408231682315725097e-02,-5.638955925045712608e-02,3.537734828576558632e-01
-4.646689408041063674e-01,-9.948966430135158454e-03,1.626051959291535953e-01,6.090773209790934645e-02,-3.390420440757699327e-01,7.502380657009898035e-02,2.767232793609667452e-01,4.924473492974082989e-01,-3.432027181636557178e-01,4.944559225847038886e-01,1.549621466346160215e-01,-4.613933161546665551e-01,3.320157888394779100e-01,-3.205698114248480279e-01,-1.833412185108243553e-01,1.388841433849733464e-01,-7.937532551583263707e-02,2.051487579861503152e-01,2.363770896663926549e-02,2.823369365903292683e-01,-8.299000387738286744e-02,1.601051254010282809e-01,-2.620316981616671592e-01,-8.814966775535284247e-05,-3.149922799413532593e-01,3.141751837981152651e-01,6.562582521912495304e-02,2.717837981719129492e-01,4.920753930494656259e-01,-3.439763808881491913e-01,-1.723623493301554011e-01,-6.751530799741348177e-02,2.672898083931752322e-01,3.563189098349572315e-01,-3.984101059006137091e-01,1.611030592532671502e-01,-2.560936951890862012e-01,-2.783086509326579971e-01,3.461011732839817667e-01,-5.958836392125348852e-02,-3.270482459403246112e-01,2.995639937401640696e-01,1.471097552530601094e-01,-3.810331083939422214e-01,1.908971850027575967e-01,-2.989609021662676391e-01,3.156425201477207620e-01,2.764322988933792802e-01,-3.945206266765378667e-01,-4.339457696350781934e-01,5.933111258386555842e-02,-4.373286285255634231e-02,3.338197700778983146e-01,1.525580865589858948e-01,4.017694796997251516e-01,-3.190431309607441590e-02,-1.170774596646453752e-01,3.809975466053173720e-01,1.743001289654135810e-01,7.883600189501444033e-02,-2.569601473308093520e-01,4.036599347066127663e-01,1.581628485821744701e-01,4.800115037971147136e-01,-2.622882049379902658e-01,-5.804486871299406603e-02,3.585016416183853249e-01,4.310447869522329722e-02,1.052212888678913383e-01,-2.190465936502206112e-01,-2.865306678749304226e-01,2.444853760130560327e-01,-3.182849865138094869e-01,-4.480616253603469379e-01,-6.737419066919697608e-02,2.463776218476667890e-01,4.304585006483424570e-01,1.844187625685482224e-01,-4.076063357945209492e-02,-3.415232126337407470e-01,2.809078660374307590e-02,3.477612390438205026e-01,9.840256625984249161e-02,1.546802638451210687e-01,2.322381992837962428e-01,2.113372198334724783e-01,3.156652700058246164e-01,-3.455696341788160875e-01,1.263744795643964858e-01,-3.323615781471692676e-01,-1.213887755365414545e-01,4.087145998929799240e-01,-5.975594129499888635e-02,-3.349706159333676325e-01,3.509123907481437876e-01,3.166256741322873713e-01,3.135499394257620920e-01,-3.269306319444206244e-01,3.279935230412479585e-01,2.711861661518339406e-01,1.747543940485233038e-01,1.218598923855405622e-02,1.060065565065071158e-01,9.023718461037848193e-02,-3.123333225020615278e-01,-4.503631927531654422e-01,9.307481169329788473e-02,-2.096912791926225927e-01,4.392784523618596393e-01,-1.808577698166969616e-01,-3.987694151411442789e-01,-1.491120293867803925e-01,1.796527936128956282e-01,-4.625272750911857966e-01,1.869958495320154512e-01,-1.876956382671797138e-02,-1.272566783174667038e-01,-3.984980862964778159e-01,-1.303139289937446654e-01,-2.748715790282195148e-01
2.755738680410586144e-02,-3.658915821216819908e-01,4.053058666759674911e-02,-2.243200182894434791e-01,-1.373388764754921235e-02,1.166236636056396797e-01,5.091417467796219287e-03,-1.383874962638288464e-01,-3.566346257883155624e-01,3.265957091763865283e-01,1.290680835587715014e-01,4.289682276004545547e-01,2.988180715756201811e-01,-4.522106269029200210e-01,4.677035182432964233e-01,-1.658680728533165061e-01,-3.419595428526495118e-01,-4.096927282077778010e-01,4.330810687695825778e-01,-1.050560159710291902e-02,-4.776902264514747420e-01,-4.557005221559775054e-01,3.583005554394935177e-01,2.158367597598388476e-01,2.449667385228153638e-01,-1.497707906972245984e-01,-1.519381807688257036e-01,1.113190930865697870e-01,-3.225638885530833777e-01,-4.960924659732396380e-01,2.321454136683432645e-01,1.329699339849271800e-01,-1.530850132046299161e-01,4.904350180794032621e-01,-2.614953889786965080e-01,2.917666893531446481e-01,-2.390822815986799466e-01,-1.749725330050142247e-01,-2.518872315202592693e-01,1.800707743204787159e-01,1.777050008790621582e-01,3.165488064531249424e-01,-2.766485954509557144e-01,8.565386329108980179e-02,3.480560514587255350e-01,-2.206583302727237461e-01,-3.694384310674445615e-01,2.798290188280379565e-01,-4.234973876496039846e-01,2.692815614673025326e-01,2.440277090001469751e-01,-3.328949527547599985e-01,-3.874353533834551944e-01,7.353088221497861314e-04,-1.683132152810946636e-01,-8.792497195998812132e-02,-4.495476813251899073e-01,4.822855453172705253e-01,-2.608044546418676335e-01,-1.725856138414866847e-01,-4.807645416793087656e-01,5.148151613390505865e-02,-8.735987544383456982e-02,1.831164800834608197e-01,-5.507878126440911987e-02,4.245822085253949107e-01,-1.539674447304096305e-01,2.077213908489629890e-01,-3.104561109150711928e-01,-3.112331789107270485e-01,2.130563154288927785e-01,1.692019161450455389e-01,8.018907409564710043e-02,-4.890896989855702537e-01,-4.920638168159109926e-01,-2.233878265619189396e-01,-7.233385084763629957e-02,-2.769968088673265827e-01,-3.932913420170192770e-02,-1.837929103847507281e-02,2.967043733629298741e-01,3.118274621451812556e-01,-3.370821921814720068e-01,3.001000428578114998e-01,1.789661639266723059e-01,-4.734978538142505244e-01,-2.683279493845991404e-01,8.500552164090291463e-03,2.885545437275593428e-01,-3.926343380928802307e-01,-3.816126627776436631e-01,-4.132043657820756027e-02,-2.089359614143654620e-01,-2.954463545786195633e-01,1.217565264148419840e-01,-4.563555142604804882e-01,6.356237462185219955e-02,3.711522721872955177e-01,3.538979930256958562e-01,3.607730817632332498e-01,2.098224104025637193e-01,-2.577534251279858246e-01,3.310708269363526468e-01,9.172456103456907983e-02,-1.735362079776430755e-01,4.622225109065759008e-01,3.922704269123803988e-01,-1.375433693610792485e-01,2.192592366448557484e-01,-4.713990261386853953e-01,1.818551144546469711e-01,-3.019061275488336693e-01,-2.483923739401051323e-01,-2.930376603953129336e-02,2.372371419162631109e-03,-2.120606744622411666e-01,4.165567358263569386e-01,8.476891965913324611e-02,-3.709476796111063623e-01,2.099987013510088985e-01
1.193208815136656137e-01,-2.946744033872162327e-01,-3.924761281459718254e-01,-3.757165546307467130e-01,-3.910754138631750143e-01,-1.826911250630942340e-01,-8.495882614225552798e-02,-1.289863485883417649e-02,-2.492973459517811019e-01,-4.640834118171441314e-01,4.978156746269325472e-01,-1.161870495556166089e-01,-2.590305137819713943e-01,-3.682670676117046904e-01,3.214428222928503165e-01,4.361087135020319527e-01,4.538295938358765103e-01,3.469810701177794554e-01,3.066123561146125165e-01,2.114145305154613852e-01,-3.630159642919826291e-01,1.983791257870418656e-01,4.438572811084310898e-01,-4.271469370049112979e-01,-2.809014259621704368e-01,3.806711766392087415e-01,-3.283446453148500255e-01,2.953068683463948574e-01,-1.268648055104360517e-01,-4.922531025936493498e-01,-3.348696920303592672e-01,2.114270939717109721e-01,4.538304109561709931e-01,-4.583058842484911688e-01,-2.878138592067574497e-01,-2.006317720548099481e-01,1.664393598250134831e-01,-2.501527489862394593e-01,1.291821975960194546e-01,-7.840670513783481359e-04,-5.322370936451710499e-02,2.213888963261968768e-01,-5.174663412364505222e-02,-4.275672391774529291e-01,-3.128323675333724574e-01,3.129985237709387996e-02,2.426616249091656241e-01,2.487246743560205531e-01,1.997274466807247018e-01,-3.199957069394763348e-02,-4.040604708868668626e-01,4.345836485585714559e-01,4.735723713172715899e-01,4.444792113696944824e-01,-3.500028239828011922e-01,1.891639866862768471e-01,-1.976667833193643531e-01,-3.757126042948644162e-01,4.483081524146529939e-01,-3.721302072435964670e-01,1.922047470951085690e-01,4.387016659717080658e-01,-2.589996321599192242e-01,4.289460001633324526e-01,-1.494543104831013158e-01,-4.975601285229807602e-01,-5.530346538615131535e-02,2.560248497216021657e-01,-4.590478278818919122e-01,4.204721366833830132e-01,1.353178362319033823e-01,-1.839835726252717352e-01,2.308663122546376900e-01,-7.742167034356785271e-02,6.864918508773129591e-02,-2.293772024741695115e-01,3.654416791785954771e-02,2.893205150903272460e-01,3.810468235735625653e-02,2.305071777634223329e-01,-1.047039872860656279e-01,1.932923251736981818e-01,7.175810319430533935e-02,-1.904154842600322139e-01,2.353136621152354668e-01,3.682416463203371654e-02,-4.213911903401167391e-01,-1.966664710186578902e-02,2.364922055408377188e-01,1.875862361183471272e-01,4.801114077938440361e-01,2.225434497550213275e-01,-2.358211704133229836e-01,-4.505409928651594731e-01,-4.665524673195195482e-01,1.549023169066700567e-01,-3.580606238439609096e-02,4.787060899479516074e-01,1.324750971404058397e-01,2.871241674441354832e-03,-4.810862274924445070e-01,-1.561187161610694818e-01,2.718297739458390705e-01,2.338967780842745314e-01,3.489399243398673134e-01,-3.270102500590773564e-01,2.258706033840303107e-01,3.543037985339302365e-01,9.399492332088513202e-02,-4.548763614346147399e-01,3.593583369695663166e-01,-4.446767079388506128e-01,-1.956321932250620899e-01,-4.887936335810259547e-01,-2.317965630317294912e-01,-3.531908649504391096e-01,2.926665319756804329e-01,-9.871794786924587700e-03,1.533479022532051872e-01,-4.834047948432433350e-01
-4.175936858355513426e-01,-3.886988260249725768e-01,3.839512071758481304e-01,2.982376620535781009e-01,2.337098295969801398e-01,-4.762591941196957501e-01,6.382626071258837297e-02,-3.197250142285379404e-01,2.766744689917146616e-01,2.304382296288138843e-01,3.787897123830712837e-02,-1.630337579942733039e-01,4.773540346633867171e-01,-1.489898634059929061e-01,3.364708875514046404e-01,1.708066049641400463e-01,-1.463784413880971080e-01,-2.853537561920209131e-01,-4.106336381118994017e-01,2.203926863834622663e-01,-1.411610767690141544e-01,3.343796303993931684e-01,3.152584350682157144e-01,4.422542694517715423e-01,1.737413644743644459e-01,-4.637664783620567555e-01,2.339112401055770674e-01,2.221612037850742849e-01,-1.494913796900869118e-01,-1.067890933665578274e-01,-2.729805639078958235e-01,1.006328532273219195e-01,-4.651389912949531746e-01,3.189934795739035600e-01,-4.510288801899808853e-01,1.951764535503509312e-01,-2.841436994114108217e-01,3.199320704718833230e-01,1.965655366514058866e-01,-2.907309561962336808e-01,4.447520560070652995e-01,-7.874816989554661584e-02,1.360166462245061547e-01,4.515240145198145538e-01,1.104182642181791713e-01,-1.215052474965407636e-01,1.618484852903879223e-01,3.055719340268057693e-01,-2.525860852010387014e-01,1.936006409317667099e-01,6.741778555604303891e-02,-1.078981902588434794e-01,-4.432295485902023463e-02,-4.564833458632535645e-01,-1.738172384198046205e-01,-3.170731563323793134e-01,4.785210812353106746e-01,1.333385887110756785e-01,4.181664279156125930e-01,3.987126717347811433e-01,-1.431959893061546807e-01,2.929532933387603566e-01,4.375999851966366760e-01,7.280834333515932670e-03,1.957473240804843140e-01,4.410133281324208898e-01,-2.259944379716871399e-01,4.449227067867306817e-01,-1.907664902637292992e-01,-3.213899506527581607e-01,-2.999883007209133354e-02,-4.964497408935049649e-01,1.748635618009712275e-02,2.829098519974429862e-02,1.015587759995537596e-02,2.280970706771480172e-01,3.626326773484205099e-04,3.311226905411131238e-02,-9.769913779095461270e-02,-4.944886439939939482e-01,-4.257614853345944028e-01,-1.242296603918532638e-01,4.776217109536103900e-01,-4.735979728387539889e-01,1.621688940736194448e-02,-2.213688433990762261e-01,-4.977898173607120391e-02,-3.831941589253944347e-01,4.204622734571354381e-01,2.079133919904658234e-01,3.046443163552595146e-01,-1.042058165415646748e-01,2.001788455811182033e-01,-3.767555201386399988e-01,-2.459777185613819944e-02,1.252548932582276398e-01,4.441649894895536299e-01,2.356277825211456345e-01,-4.542698001694308457e-02,1.693337955742116319e-01,6.866013559190535520e-02,2.049631765145255025e-01,4.862258793995836159e-01,1.506449136257731469e-01,2.020532721733017956e-01,3.308256305412486387e-01,-2.774155612060532489e-02,-2.175655688148515066e-01,-1.255176433713807993e-01,1.454498016292319895e-01,-2.725579698004865215e-01,-1.544985997707066794e-01,-1.197411717000462228e-01,-7.269727408539190805e-02,-4.040632832742294678e-01,-3.828842748675990726e-01,4.205199297141674064e-01,-1.520805910260802363e-01,-4.128905990220332889e-01,3.079437637064824651e-01
2.510097256223112194e-01,-2.876780723675980700e-01,2.170955409515607781e-01,-3.892625734059562692e-01,1.959525063155241331e-01,-2.816840442172474090e-01,4.626792462037381259e-01,-1.338180138221750914e-01,-5.754270791803754032e-02,-7.378145087928847379e-02,3.299247119389704386e-01,4.859602446712245338e-02,4.679412620720910798e-01,1.806383886444014042e-01,-4.210025258935665704e-01,4.592494433737089321e-01,-4.422070187427739052e-01,-7.896085374276286262e-02,-1.741276929273136709e-01,2.388316999091600057e-01,1.979335013331636750e-01,1.030416587441742304e-01,-4.060262938654335407e-02,-1.188746327392022940e-02,-9.245997473940953393e-02,2.516135481223011339e-01,3.118618426467755222e-01,4.399920623860764102e-01,4.056993659838474819e-01,2.915910867443985977e-01,-1.903281320805449706e-01,-3.943986735214790040e-01,4.300125030322809461e-01,-4.610932228537674704e-01,9.535790471122401746e-02,2.743309146743112478e-02,4.342672487810381732e-01,4.016527400513181800e-01,3.273487315455873015e-01,4.814518015781671934e-01,-4.366220484210427133e-02,-2.377567591040998518e-01,-2.322066748432146943e-01,3.242477219553125400e-01,4.672249681502076424e-01,3.190596592250885544e-01,-4.267239352728071089e-01,-1.278083846057497253e-01,1.286065073111470891e-01,3.925157710368752939e-01,1.964533458406164945e-01,-3.770633013499529729e-01,-9.077881057208878057e-02,-2.913635529548633807e-01,-2.234991928964605856e-01,-1.917314741318080218e-01,1.121454242495358161e-01,2.831163968465925662e-01,4.594005192814913929e-01,-3.593812131321347803e-01,-4.792327293340700040e-02,2.398026731501807021e-02,-3.720785590485460592e-02,-3.417280321617780642e-02,1.988598442680878653e-01,2.417925569189432466e-01,4.833432635990588255e-01,-1.499187101738990724e-01,-1.774101833019098851e-01,5.060464747450598572e-02,-3.558434294608854298e-01,-1.864499638668574988e-01,-1.112593990518750825e-01,3.292932108497947929e-01,-4.172373761684328719e-01,-4.934673799126704785e-01,3.478040369322411562e-01,2.277153851694322662e-01,-2.326338081179509243e-01,-1.780154370637905548e-01,2.078724398759377867e-01,-1.508189601690736181e-01,1.221841821287470153e-01,-7.675784796832864354e-02,4.548781066675998686e-01,-3.683307324127820248e-01,2.746713906639798863e-01,4.851230376311808645e-01,-3.988597275272390275e-01,-4.760365362843110293e-01,4.578031987737094521e-01,6.805806614350906267e-03,-1.334940869788946716e-01,4.498383456213094211e-01,2.865757726102184377e-01,-4.284984342900723386e-01,-1.511191518867500694e-01,-7.323807805582178976e-02,-1.348496363464271076e-02,4.489702761953953680e-01,-1.771228728809570996e-01,-4.948690722889936278e-01,4.690332950309125115e-01,2.225953760308687912e-01,-1.479269126749239993e-01,-2.759006165775351738e-02,2.450452935101860297e-01,6.833073533087773155e-02,-1.898575335080260329e-01,2.245282171684434280e-01,1.940481239846638395e-01,-1.740515123784333873e-01,-2.325100111272751235e-01,-2.578713406507964212e-01,4.563061874608025092e-02,4.822311716929202352e-01,-2.799806286944283781e-02,1.150756135083975118e-01,2.147439124494146812e-01,-3.640848922317543312e-01
2.264111252486115389e-01,-2.913626680199407973e-02,4.353701338829450984e-01,6.929273887822602618e-02,-3.033967957038763985e-01,-3.087061595715411833e-01,2.971042351987093211e-01,-3.091048019141635211e-02,4.096894409657456104e-01,4.209496617341558222e-01,2.477260473915310068e-01,-2.842948247839585107e-01,2.030954257709404187e-01,2.835097919062942728e-01,3.388511559099414289e-02,2.825922502975958261e-01,-1.597314561215965600e-01,-2.038580707475310533e-02,6.285916195971724685e-02,3.307636106665477749e-02,3.451803586032380911e-01,-4.682463270762546870e-01,-4.319369757375876584e-01,-3.280872530818497168e-01,-2.112601634737399370e-01,2.150320835807534303e-01,1.769877802617306484e-01,-1.075275296842463091e-01,-2.730888932366696276e-01,3.904259908007386842e-02,-2.538708537993583647e-02,-3.514271296927760635e-01,-1.445915980807527257e-01,-4.774700430679580943e-01,-3.609786654765271829e-01,1.129256788810552858e-01,-3.707966114729898122e-01,-1.498785874074899660e-01,2.811240214516737002e-01,3.295809319678961180e-01,4.681962906225720644e-01,-2.355763242157747905e-01,-1.654804489502109954e-01,-2.092910863513507691e-01,7.972171751687594232e-02,1.980887693969143881e-01,-3.786256012957927020e-01,-4.016697296189091770e-01,-4.671287817598669401e-01,-2.721391799362813946e-01,-1.626378859418870781e-01,3.221387494559605630e-02,-2.899371959735209114e-01,2.052865676896165337e-01,3.549756509499802370e-01,5.704976582400660134e-02,1.112017079247379497e-01,1.941078291134023248e-01,1.904239699623337945e-01,4.822390776050599626e-01,2.551385052744782334e-01,1.853728411896632955e-01,1.657717756747329463e-01,1.286230827610884697e-01,-2.383705230131454855e-01,-4.105976654539046367e-01,-1.226965536776978283e-01,-1.130600573447488634e-02,-1.920026743187518842e-02,1.173222413531248703e-01,-2.812146873933749625e-01,-4.300109450095194186e-01,-8.851221774209667992e-02,1.197232370074537977e-01,1.325500246334126164e-01,-3.409616241493548805e-01,-1.573540143215471643e-01,3.029538329376528227e-01,-1.380469462263850811e-01,8.624426178919682162e-02,-4.181602147299772199e-01,3.336807554981039980e-01,3.239488311002013399e-01,4.469151169967611192e-01,-7.809394901977136094e-02,4.377560187105216105e-01,-1.131232988155477515e-01,-3.637590357571174327e-01,-2.468630400038048789e-01,-4.879815977651143330e-04,3.743770711566872245e-01,8.481317673043685390e-02,4.601866501244165075e-01,-8.720989552289595825e-02,6.791406336135863420e-02,2.734967202609028120e-02,4.514216906939064744e-01,-4.359968489073576259e-01,-6.225940691306854069e-02,4.547848663567669592e-01,-3.180467853380352095e-01,3.058534150743348334e-01,-4.256774782427052428e-01,-2.907942458066459790e-01,-4.800184999798917662e-01,-3.031306337997978773e-01,-9.071247961191021558e-02,-6.313528137071364177e-02,-2.781159708146843101e-01,4.921739364154084084e-01,3.743437175121629851e-02,5.540362379812575899e-02,4.013931375766809362e-01,2.684537267391972626e-01,2.042613319025332885e-01,-1.863939971553864039e-01,4.091937606309569708e-01,2.335286163396616543e-01,-1.348879323676051845e-01,2.056166796340546388e-01
3.741247833831601310e-01,1.689912329612010544e-01,-4.370954171529143339e-01,-3.888874883218974010e-01,7.992642290019875972e-02,-4.691112304407673017e-01,-6.904184320205065950e-02,-2.559387896671214135e-01,1.322799553369573000e-01,3.520666048869789955e-01,2.465620407880516896e-01,4.805400563401426850e-01,-1.273961229169491005e-01,-3.079904198970442319e-01,3.926805302436536249e-01,-1.725926035008856496e-01,4.670210842539712082e-01,1.727509877310148267e-01,-4.445437433641545311e-01,4.973334921868455827e-01,-1.611261729807330623e-01,4.331557801947125697e-01,-2.350971569211360024e-01,2.869860606380404411e-01,3.129937072589705771e-01,-3.725102995381237569e-01,2.372788667836226439e-01,-2.874346605340901695e-01,-1.000794644699345703e-01,-1.747219261048428562e-01,-3.448300796120105094e-01,-1.508287150426538409e-02,-1.090188965956431083e-01,3.721940531525323725e-02,-3.506751909590842819e-01,-1.239969480700454374e-01,8.448530279501058685e-03,-8.304235773405825582e-03,-5.733124187587607112e-02,2.686225477580003740e-01,1.613427803903464963e-01,-3.816638044464299440e-01,-4.480440724469714753e-01,-4.063079614679582924e-02,1.410762997797398166e-01,-2.205747428962854528e-01,-4.602905351291478597e-01,-3.061026507948615971e-01,-2.000938398581360578e-01,3.346915180982797389e-01,-4.248664029507212558e-01,3.692922709215586408e-01,2.107338548680708634e-01,-3.673489544597176581e-01,2.488434596406220722e-01,-4.077775951013979383e-01,2.899253834458082046e-01,3.100505773340971327e-01,-4.629388107106331418e-01,-3.819807016736247451e-01,-1.583402462739190997e-01,-1.736988446599056768e-01,4.670220345314298194e-01,4.698901639230209648e-01,3.078409722134340387e-01,2.750588702916031414e-01,-2.502273144753607292e-01,-2.913670638655757039e-01,1.531013528238585886e-01,-9.313350188330596358e-02,-2.708344400437900923e-02,-1.817566687034582185e-01,-3.450656595331628718e-01,-3.516371714529691328e-01,-3.111312720729063619e-01,-4.476881596463150870e-01,-9.135954751731441281e-02,4.370672518833498277e-01,-4.986044416274979518e-01,5.794368937812741094e-02,1.028318903989527272e-01,3.707490658265974459e-01,-1.184327926124861680e-01,-3.803717325589145992e-01,-3.644155040917199662e-01,-3.440673822809076632e-01,4.572778208836790204e-01,2.984504363661900084e-01,1.797470595019808048e-01,-1.174165981445858820e-01,-2.847257981459027087e-01,3.644591751418574943e-01,2.252462015772921378e-01,4.115448876054679794e-01,2.660868492040096567e-01,2.616893880368023617e-01,-2.025363557268159420e-01,1.021311365867691723e-01,-9.307629759519331358e-02,-1.721123773344604424e-01,2.617871808553917101e-01,-1.712962847061201554e-02,-7.322066309166082310e-02,-2.528123838267888890e-01,3.669406273802982010e-01,-1.430076578772107934e-02,-3.679280190989261401e-01,-1.184684073015977168e-01,3.719334591201571283e-01,-2.212893192034714462e-01,-3.618197111888020179e-01,3.652855236045216003e-01,-2.076196322447670939e-01,-4.451148790035558064e-03,-2.767910598536357236e-01,-2.293701706569672982e-01,-8.704129192177295637e-02,-2.053579239444734694e-01,4.432172614437469571e-01,-2.936892374825957330e-01
6.624065894133662757e-02,3.945031371444502333e-01,4.752508790897319035e-01,-3.431800933291027922e-02,3.074857902282733188e-02,4.616500000983304042e-01,4.117432409345704869e-01,-2.149439278741500231e-02,5.883721940178598259e-02,-2.290067869403606959e-01,-4.474469451764063188e-01,2.339135519241099248e-01,-2.090077239580012680e-01,3.337940132528314230e-01,4.705182222214820791e-03,-4.068433308895559875e-01,-2.644080193214460306e-01,2.717404772034184290e-01,9.007232707916801306e-02,1.692796332310868637e-02,-2.777583220293962651e-01,3.160394136845489643e-01,4.053340652066647620e-01,2.231927459492994703e-01,2.779083568707271246e-01,2.259951762568944422e-01,4.085044693572488228e-01,-5.037200101283428183e-02,4.244898453256132353e-01,-2.622748727087632990e-03,1.223901215607164500e-01,1.622070022744943052e-01,-6.686077250767548559e-03,-1.645779699066074742e-01,2.727511908866542267e-01,4.585820183114276971e-01,-3.785591652157008768e-01,1.102432853201233826e-01,2.196732800114852557e-01,-2.888750319412163314e-01,-2.061689259198875857e-01,7.150022931553998151e-02,-4.056555961354210149e-01,7.886965383413701083e-03,2.635057671835536741e-01,-4.770738952631939367e-01,-8.548340483578822924e-02,1.359926920449499406e-03,1.627798760805771738e-01,-2.044636262423079887e-01,-4.104685621368771020e-01,3.568226396137814671e-01,-3.182568448974185116e-01,-4.974733427772285443e-01,-6.759351486238715512e-02,-7.677983697831312904e-02,1.754087861930474501e-01,-1.634952125667258060e-01,-3.734546274258242204e-02,3.192294813396164277e-01,1.069739664051139738e-01,-2.243270304067677134e-01,-1.224801629995973112e-01,4.605748607941271833e-01,2.091644231300102408e-01,-1.987149240898723745e-01,4.221218824335066233e-01,-1.398791439060469433e-01,4.725270638197852091e-01,3.153266513335697269e-02,-1.874114587128744291e-01,9.483109453064571259e-02,-1.156677456417233435e-01,-1.341880792112211396e-01,1.964235947418533357e-01,-3.258374578333338989e-01,-9.373020836644001264e-02,3.180676607774137188e-01,-7.585210164563060964e-02,2.767745175747683972e-01,2.111176693398210402e-01,-4.574375237088973978e-01,2.780936414633869425e-01,1.549814052884578297e-01,2.890170637288755895e-01,-1.653697257696532807e-01,-2.650265314816507151e-02,2.260141221329631522e-01,2.303457324832320838e-03,-4.368959065027478994e-01,1.080095138261765036e-01,7.750001839164042360e-03,-1.650953962797055419e-01,9.485202102043937405e-03,-3.539907713619114271e-01,8.865180644768572149e-02,2.297050285466054054e-01,-2.622471184347850981e-01,-1.855397817519714443e-01,-2.789040009510310725e-01,3.294263063856268103e-01,-9.143138379909004909e-02,-3.613181438960346714e-01,1.091933315059723519e-01,-1.875092560244661088e-01,3.782898513177292421e-01,3.097278317995685176e-02,3.731768508884252822e-01,-3.489360677354144680e-01,6.686086132699378681e-02,4.254036505610550578e-01,-1.880724907878021657e-01,1.084799023936176693e-01,-3.624952137948277420e-01,3.434589560955978449e-01,-2.057747922792275419e-01,2.942109242494959642e-01,4.769913768565793299e-01,3.135341326565302400e-01,3.239118087738517282e-01
1.338105147867055533e-01,-3.968729706098554910e-01,-4.236469344977008000e-01,2.332745645895577535e-01,2.859994935314368325e-01,-9.965398387208404540e-02,-4.995489625801298184e-01,4.732680444084907956e-01,3.163171428159554655e-01,-5.477583044091868802e-02,-5.941798322714478969e-02,-1.893005224392201591e-01,-4.896741041195742938e-01,-1.365332690931823356e-01,8.703934262705466385e-02,-9.919420469265045892e-02,-3.661079232944820516e-01,-3.753706657949180125e-01,1.643231194655393190e-01,1.098260894296753942e-01,3.813031330249397888e-01,3.687056688148022121e-01,4.519994545644478307e-02,-2.150208351859327349e-01,-1.781350295740686818e-01,8.483174914396413024e-02,2.249488283048672599e-01,1.429628688986452623e-01,3.409382543524816511e-01,-4.043363131160726542e-01,2.871852924875862856e-01,1.766006746372353053e-01,-4.877316186935237718e-01,4.311358473456773921e-01,3.726483371365159059e-01,4.553784939146713895e-01,3.381645453872501594e-01,-4.474904789531113369e-01,6.240648367849923467e-02,2.688153370061497488e-02,-4.218129095918570215e-01,-3.621501895880818167e-01,4.249362005710472512e-01,2.384200663612025262e-01,1.834717703028481139e-01,-2.876578298611550122e-01,-1.948739018064132855e-01,-1.660638267297100401e-01,1.508215032729260940e-01,2.307587556174066634e-01,-4.710022880751510432e-01,3.292670666770557142e-02,-2.265276105643065918e-01,-2.112116198639110709e-01,-7.149554588065004657e-02,2.152812639403930417e-01,4.913345272129346353e-01,-2.142924181083949997e-01,-2.129444915057542576e-01,1.001086827360663373e-01,-4.362097729860995310e-01,1.568123784308869673e-01,1.854654157064966891e-01,4.214353427333322188e-01,3.437339469573448270e-01,-1.439309023739704096e-01,2.405008285894154330e-01,3.696557473424018081e-01,-1.471298911985237379e-01,3.456927429443765881e-02,2.531956411113294725e-01,2.123963045763611543e-02,4.218493029700501884e-01,3.176414325842117359e-01,2.942779173416299465e-01,3.895333687370991504e-01,3.310269229852616513e-01,4.458943387750774479e-01,-1.547635745358358350e-01,7.524351638583164081e-02,9.916563111816269205e-02,-2.884416751843216220e-01,8.670326015059233449e-02,2.207963788429306295e-01,-3.608496675788351871e-01,2.835748186950206584e-01,5.686852367385949319e-02,4.973022054920778756e-01,-1.481552289354891305e-01,1.329690096182349623e-01,2.541625086948537948e-01,3.489533795528603211e-01,1.155119663037920824e-01,8.772857886143392570e-02,-1.546137321999218051e-01,-5.825016729192121490e-02,-4.999273359065314892e-01,4.938831713995509021e-01,1.414368300925636646e-01,4.645486735584393734e-01,-4.636272994260668967e-01,-4.960598492454387221e-01,3.685572803734026848e-01,-3.675450475580049892e-01,-1.905329450298813010e-01,-4.711982140318368151e-01,-5.904996167851555428e-02,9.361212569051105548e-02,2.612339746754389624e-01,2.746613184905877247e-01,-1.149004136805867604e-01,2.368477333607281743e-01,1.903752103799950246e-01,-4.316648559622907055e-02,3.101341768120683198e-02,-3.053174731885224258e-01,3.158862001057579083e-01,-2.271854157420033146e-02,4.355432370924758323e-01,-3.052650322950112849e-01
-2.524088563407275720e-01,2.288453491647947369e-01,-4.002267136055785435e-01,4.473507470749990000e-01,-1.081125646963055492e-01,-1.448343646264770301e-01,-5.073723946420944514e-02,-4.865756177684352757e-01,-1.211188445241376671e-01,-4.759631197755247872e-02,3.666842642333296709e-01,-4.402904028639582634e-01,-3.159205594744987078e-01,2.350650465157827773e-01,3.693543034728207219e-01,-4.318536318421921649e-01,1.135011188797099141e-01,1.599627845613332822e-02,1.763333789136518337e-01,1.513066617927867619e-01,-4.827179306841806739e-01,4.877989443568445105e-01,2.982385937084043315e-01,2.951717132858575239e-03,-1.846135783951923307e-02,2.947362362552797266e-01,1.071984081690835339e-01,-4.351007396606707545e-01,-4.225488461439258492e-01,4.275481212284892862e-01,2.820151835496347847e-01,-2.493874054591742051e-01,2.731127137743499245e-01,1.072307771106396218e-01,-2.145142193522391605e-01,1.597394319348054703e-01,4.413532991947802797e-01,2.251133002392012028e-01,1.957365985528243812e-01,3.370794782354972208e-01,3.930350314726052119e-01,3.633574869649546790e-01,9.391956973775017481e-02,-3.803617395444424121e-01,-1.610419652644195510e-01,1.955434986421748511e-01,-1.111829974267552340e-01,-2.864627908877933823e-02,-2.911785254568772796e-01,-1.532617254505501958e-01,9.537874270438036206e-02,-4.795014870464084367e-01,2.437076420144501376e-01,-2.665779334688954116e-01,-3.121838325332325081e-01,2.656157968060564034e-01,4.434128316008256049e-02,-4.721932171909881126e-01,4.533965165755514670e-01,3.592319946673739883e-01,-3.562178526081209995e-01,-4.727700870198178196e-01,5.369350658114752789e-02,-9.059930265679132233e-03,2.437856466172052261e-01,-6.395618472827861549e-03,2.615478427477451184e-01,-9.431994847533918536e-02,-2.008606304176677182e-01,-3.831243153529951262e-01,-2.857991956543987633e-01,4.926245877380364124e-01,3.770747069978551136e-01,3.662686462214403971e-01,3.034866740238435501e-01,-9.264525645580953817e-02,-2.302452380551443800e-01,2.108560001867052988e-02,3.262702861215104888e-01,2.972609595349016143e-01,1.330497831822801125e-01,4.584107313343988577e-01,3.545143879447565927e-01,-3.071746170826395450e-01,-2.101332535103175303e-01,-9.332916619054745788e-02,5.050653884389170317e-02,1.894807664930510949e-01,-3.874894798894725767e-01,1.027056855684393838e-01,2.698441069445938756e-01,-3.382174304275387122e-01,-3.768764971420142662e-01,-4.718211463466489564e-01,4.803005302618111316e-01,-2.394499863204653523e-01,-2.984265875040685856e-01,4.228258458366830896e-01,4.063932113699721960e-01,-3.543924564726209092e-01,-2.044830183700011850e-01,-4.791945466466550618e-01,-6.469356011403823437e-02,-4.045928263113592396e-03,1.269857589230544148e-01,2.308989432696048616e-01,-3.794610430780525623e-01,4.571446574684942532e-01,-8.616985389014540642e-02,-1.379702208504958727e-01,-1.882132307372600677e-01,1.167100957329116895e-01,9.035859549212389707e-02,2.765838130368411529e-01,-1.402068539001404268e-01,2.633836772949816885e-01,2.209315332979384650e-01,4.971077169521861405e-01,-4.387931923522755406e-01,-1.201638547677857521e-01
7.571514987271639463e-02,2.693671510393514934e-01,3.118523434831626528e-01,3.775796969292555261e-02,2.975840232783282802e-01,-1.677132190555598035e-01,4.174688873206758855e-01,3.983127567547362080e-01,3.142809410198454390e-01,-1.125081048166994002e-01,-1.145307094192998809e-01,1.548194732357718595e-01,-2.209927535546664934e-01,-1.422042308371516614e-02,1.586659968590743708e-02,-2.812928599229845908e-02,4.013141874718280655e-01,7.632010350522712427e-02,-1.507603842987220027e-02,3.056976133477511404e-01,4.045987598087620318e-01,7.098910012322691421e-02,-2.662091425560134672e-01,4.678362871215951957e-01,-3.665641125600317407e-01,4.961466019163529029e-01,-1.510113839720070017e-01,2.916136848594202413e-01,1.934615918325509332e-01,2.585914059209555860e-01,1.638029502314159169e-01,-3.108213729648101054e-01,-1.657632420500346204e-01,3.454964106156173664e-01,-1.766931153099546015e-01,-1.324012319674320870e-01,-3.169390939945040953e-01,4.382557215173438769e-01,2.408863712714969241e-01,-3.638505713812008602e-01,-2.684103146969365472e-01,4.954973064648784398e-01,-2.482588918280028908e-02,1.441760194173425380e-01,-1.138699643206065315e-01,4.289292625009933357e-01,-7.864145393389705696e-03,2.613520514400152761e-01,8.874643417266406265e-02,1.634852005501258587e-01,-1.981023134913344474e-01,1.760854358951103038e-01,-2.486119069399761808e-02,2.809690583732719626e-01,3.769952013538421243e-01,3.110303535914575590e-02,-1.522354969442106520e-01,-7.680427668251049722e-02,2.241431332923810860e-01,-2.750577024560380002e-01,5.126139683426582383e-02,4.437747065234171062e-01,1.363580548709243667e-01,-3.198103040388548118e-02,-4.451239694171398864e-01,-3.222725084672795060e-01,-4.340421204283068657e-01,2.223610828117460469e-01,-3.774726740319362950e-01,4.229797776889011041e-01,1.730485934138608073e-01,-3.928147992324004245e-01,7.969850077932144616e-02,-3.747263761289936768e-01,-4.305988340330736963e-01,-6.459703825826100532e-02,1.014834641863695958e-01,4.153782174570397889e-01,2.579917952776062950e-01,3.316229489780811446e-01,7.889947745008729640e-02,-1.146628558719686997e-01,3.204209183101744407e-01,-4.986330779146601055e-01,3.788461330836864205e-01,7.294929266127593397e-03,4.434051879816955366e-01,-1.243437943246613053e-01,3.935842944856860481e-01,2.756282627466707935e-01,-3.135309029930932051e-02,4.648218280402128810e-01,-2.998942062881533310e-01,-1.908726077379076791e-01,2.344141496790227638e-02,1.086589803887100247e-01,-1.507307365748294659e-01,-1.036124503049086348e-01,4.375432949024026796e-01,-1.080568411237642634e-01,-2.739469810071470945e-02,-2.996238824734039907e-01,4.495464846005436388e-01,2.514769849479418506e-01,4.116114078799311127e-01,-5.669576373994386631e-02,1.923950146984599111e-02,-3.942165715747285026e-01,1.056442207691764834e-01,-2.681866345621376491e-01,8.224497965263931343e-02,-4.108941212311462143e-01,3.580505314472591794e-01,-2.907555521573224055e-01,4.568160090098333237e-01,4.412729525314083578e-01,5.027947303332690188e-02,-4.703808681816033510e-01,-2.440472748580653772e-01,2.801268316406386738e-01
4.889202009488374245e-01,-2.489829801870501735e-01,-3.153474989249440696e-01,4.625222053587515481e-01,-1.893896251415601029e-01,-1.541304908028460485e-01,2.025933139978454423e-01,3.074557773196556418e-02,5.418632447365684390e-02,1.226858723952861802e-01,1.546408359953621026e-01,-2.590914033578792797e-01,-3.511120895233035832e-01,-2.414557563813417851e-01,-1.595157397427391655e-01,1.327093368774946991e-01,2.258127638682002128e-02,-3.214546583593000939e-01,2.071512988421547741e-01,-2.085027310682622259e-01,-3.276817709952624669e-01,-3.522645270293122133e-01,3.044429034704598802e-01,-3.673222073659365150e-01,-4.661516046671532187e-01,4.460702791549647078e-02,1.174944012710421593e-01,-3.370902525066911681e-01,-4.328859810798269536e-01,2.660359861266674026e-03,4.442880284040646166e-01,-2.302341707936400028e-01,1.796412778839073243e-01,3.154338302449680165e-01,3.187225254163765786e-01,-2.354526479230346636e-01,1.694192995137222893e-02,-2.613121304791331534e-01,5.479211259267629391e-02,-3.621360064191048861e-02,-3.511878736741814999e-02,3.888569320841862020e-01,6.976284039447272489e-02,8.415657409917727538e-02,2.448623885278760626e-01,3.487277545614290153e-01,-3.627205770021689757e-01,4.765642193086747080e-01,2.049979550946509910e-01,-4.809053469897644484e-01,8.781602248952255496e-02,-1.942468247287305882e-01,-4.868853253652515728e-02,-2.376893694288203240e-01,-4.584941706796553662e-01,1.831078467287264588e-01,-4.355821502669470213e-01,-6.934507598203712431e-02,4.643214427358602903e-01,3.147885205034753331e-01,-1.986035096454641380e-01,-1.183666986725136067e-01,6.298909639019738271e-02,-3.239511780782344252e-01,-4.648134631755118651e-02,-6.317501144063425444e-02,-3.313038148547386985e-01,-4.136205502368126563e-01,-3.951840505189988528e-01,-1.889071624464355725e-01,-1.324620211974442963e-01,2.182824493437606483e-01,3.950785757607806481e-01,1.723766427267194312e-01,-1.652285716096481560e-01,-3.481321107505293000e-01,9.808958005882381648e-02,4.566579843661737192e-01,-4.793740873763699950e-01,1.870448365169472826e-01,3.389031094443913372e-01,2.088373910019367952e-01,-5.293247908534604723e-02,-2.284169713822602477e-01,-7.178708948516794586e-02,1.585087033240010213e-01,-4.298045301908640647e-01,-1.603555772813591851e-01,4.839730743297315230e-01,-2.097029468178429612e-01,2.007208867697369004e-01,4.548786116175189131e-01,-4.852086380819289890e-02,4.891654661674205706e-01,-2.758022897716801425e-01,-2.882127853670987672e-01,2.063207726476860848e-01,-3.029850107313040719e-01,4.907653025493903809e-01,1.648147497575087883e-01,-3.548604664967345279e-01,7.489764185283304121e-02,-4.291835555520326917e-01,1.465284938679261295e-01,9.880544284624373508e-02,3.238069754376010079e-01,-4.539868265003641490e-01,-3.866836249009821813e-01,1.774757790553901926e-01,1.147719892535399439e-01,-1.769270292497755054e-02,-1.828563655218760908e-01,-3.329578287958221555e-02,-4.042319458574566982e-01,4.451828600024281268e-01,4.306429747046958134e-01,-2.561258264011028601e-02,-4.993633645740737648e-01,-3.142855447351159959e-01,-1.524046351313270986e-01
3.593569131635071523e-01,1.789520635464115217e-01,-4.278861740022862348e-01,2.053289104066454984e-01,2.734165333378239526e-01,3.226262044187021560e-01,8.085031781855403499e-02,2.998199880549622387e-01,-3.770516531586815545e-01,-4.430297517886339076e-01,1.010441249264868169e-01,-2.557499401719547927e-01,4.477809390876630324e-01,-2.911056034697417916e-01,4.146802369411274336e-01,2.518637237397721163e-01,-4.543141967629927280e-01,-2.737560724001648071e-01,2.734829975102804345e-01,-1.536461217930051304e-01,-1.008857800121605724e-01,4.938899532012328009e-01,1.517327881511656984e-01,2.238197070316155779e-01,-3.225732995572032635e-01,1.110508775141010318e-01,-2.646877733663300925e-01,4.279725603951347046e-01,-3.748997584015945073e-01,-1.598211591156501743e-01,4.750021778614323398e-01,1.116689029072539530e-01,-2.495274415589794625e-01,-2.714708729924781086e-02,1.027352348164961848e-01,-1.576623379831965654e-01,4.795813372059263280e-01,3.439389279964405466e-01,4.300693237005370206e-01,-8.933773363767479048e-02,4.151187484760937574e-01,-3.138160954926644264e-01,7.633682033165405112e-02,-2.633206045319335664e-01,1.966669970074932383e-01,3.461030370020534708e-01,-3.360145194584699402e-01,-2.422140576031150960e-01,-6.499694147203545491e-02,-7.875824495884294063e-02,1.799057337251116773e-01,2.804867279867913621e-01,1.445624781005432347e-01,4.025813435340122592e-01,1.733292150258491371e-01,-2.793487524342502804e-01,-2.400880547594588521e-01,-3.236453396844630181e-01,-2.018531247749301150e-01,-4.398641337068224244e-01,2.742303522895657153e-01,-4.282192120730014123e-02,8.472091163572799399e-02,-4.728308432542331907e-01,8.554841328474185880e-02,3.268983801105372344e-01,2.381881623964818562e-01,-1.290066873154287752e-01,-3.645597073380692915e-02,-1.261217819603312196e-01,2.632153617262956158e-01,-1.493648799217504874e-01,-2.382758148281405031e-01,6.371036154117767913e-02,-4.787530486426516130e-01,1.161287990429345635e-01,-3.994936725604865679e-01,4.992611943469637548e-01,8.076150603018322771e-02,1.714601672825037115e-01,-2.935535987314784045e-01,1.295000016327471914e-01,-3.308738778912754808e-01,2.965309421391555400e-01,-3.039076071751017349e-01,-3.252729659583714072e-02,4.737983329667110749e-02,2.516608478967139462e-01,4.750672220480038344e-01,-3.632336792520042823e-01,-1.161438198526289628e-01,4.394845914370860696e-01,-3.184013993203022030e-01,2.962137939610830495e-01,-2.876301691483467704e-01,4.791366354806320671e-01,-1.835816021764278827e-01,-1.579548709101687987e-01,1.540348971618453189e-01,-3.019195305052753131e-01,-3.072018790116525788e-01,-4.799985482188925401e-01,1.475169942880137381e-03,-2.644186984624032344e-01,9.437158372726132949e-02,-3.622004266765087022e-01,-4.656397550175956912e-01,-2.199686332234982444e-01,2.399605411451518067e-01,2.438708010652403391e-01,3.469710735181030237e-01,7.055525479354583795e-02,2.515704635179142890e-01,-3.228534684086769579e-01,4.147639795319673639e-01,8.966746439627676368e-02,6.846978103531795035e-02,-1.865271926690182380e-01,2.421139622171274153e-01,4.415674510634183814e-01
1.756357579570663185e-01,-1.442885030878357337e-02,8.338914079006561064e-02,-3.908534237630292285e-01,-1.886112281878603693e-03,2.224124021068352164e-01,2.165988258532623723e-01,-2.880483346745534301e-01,-3.337510021706460162e-01,-3.391198837464310945e-01,-4.407868820112221808e-01,1.999070577729929465e-01,-3.741981974924705745e-01,1.136484481517415213e-01,2.815936609927909839e-01,-1.575995469418908224e-01,3.043545713606152781e-01,3.571679215439563237e-01,4.519559981014688033e-01,3.208272228119904423e-01,-1.782266302697381177e-01,4.286197667876866235e-02,-8.984818518593720368e-03,-4.737017260706216648e-01,3.992623625081751504e-01,1.717595926295761299e-01,1.067843655152924259e-01,3.117142051534082525e-01,2.832483509866570714e-01,1.849712978092245275e-01,4.911653664082721304e-02,-2.786506713030166386e-03,-4.142801428468553260e-01,5.441765110647923953e-02,4.396109737192491762e-01,4.830519278384946304e-03,-4.158378376170667745e-01,-3.500072296741811306e-01,2.418469517410728187e-01,-8.609555011202724151e-02,2.292877094746577915e-01,2.561585985773245921e-01,-3.238317852775390859e-01,-1.549691528466825563e-01,-3.994490655991160266e-01,-1.761038058142490870e-01,4.841038867979587934e-01,-9.321979636136659697e-02,2.000677502646235062e-01,3.814801423024299920e-02,-1.646318984578861722e-01,-3.714381663175616022e-01,-4.423420564005167699e-01,-9.492832953602153845e-02,1.645539763362480201e-01,2.930460324162075803e-01,-4.508419268594960339e-01,4.100569488671426122e-01,-4.539331266072173521e-01,5.224846781743761742e-02,-1.045915974761649214e-01,-2.216550753741997615e-01,-4.720036003246414480e-01,-1.201295045342874179e-01,2.151829109134726081e-01,-4.225143421970826707e-01,-4.489012042500162836e-01,2.194557570241942590e-01,-2.131275786901920544e-01,-3.198906840579721078e-01,2.611406899229795631e-01,-2.662396973203849382e-01,-4.024227395298193843e-01,2.690058709361742850e-01,4.631110528076435862e-01,-2.236863231339135116e-01,3.042510265793669233e-01,1.504046103848136196e-01,-2.707887928537824340e-01,-1.233281435167457585e-01,2.660213077484281374e-01,-3.880145777282282271e-01,3.053856957328289767e-01,2.249654702278678919e-01,-1.055289702086691962e-02,2.454900223897317491e-01,2.592458415245735837e-01,-4.945319855383323304e-01,-9.147762831872835454e-02,-3.330074925079085091e-01,-2.550277549597310678e-01,-3.171923770932607023e-01,-2.234604017605744952e-01,-1.873429183279468058e-01,-1.220002602942259901e-01,-4.455404746310607789e-01,-1.701824326062282011e-01,2.863626679816337339e-01,-6.492278477682103532e-02,-7.812930007244345276e-02,4.843344539391105097e-01,1.691737166843217399e-01,-2.312443657464254565e-01,-3.682725123505948828e-01,1.292292638340828380e-02,3.523978783199951947e-01,3.130822958195767503e-01,-2.231315653012551636e-01,6.021399364045850605e-02,4.594470521427466148e-01,-3.859458685447497706e-01,6.957771386858760398e-02,-4.858646964051187983e-02,3.826387346711714321e-01,1.112531255691801557e-01,3.945902251446595232e-02,1.465587025252978494e-02,-1.828982839724059284e-01,4.596164788444743743e-01,8.191175406176871843e-02
-4.820596933358587965e-01,3.734543902264331749e-01,9.761459058213309281e-02,-6.878955494180798158e-02,3.833902722642613115e-01,2.164476387600038909e-01,-1.048627896841046320e-01,-1.157066895944996732e-01,5.993876547535441357e-02,7.601883830090271077e-02,3.131693976670190116e-01,-1.902987415784614389e-01,1.470117767606055892e-01,2.799731549102211225e-01,-2.697458100738981956e-01,3.411948932197861883e-01,-2.190810435565070935e-01,4.188202229154054934e-01,2.149162736043418731e-01,2.949348654854099250e-01,-1.719598298624512300e-01,-9.656301781760193159e-02,2.415415133224162458e-01,3.076386530788506324e-01,2.212319344504486418e-01,-2.117556237020845611e-01,-1.213109332553203162e-01,1.891856741129372410e-01,3.832530434610691428e-01,9.079215918487311410e-02,-3.583024306235625400e-01,-4.583106702529402554e-01,-1.873612813703112445e-01,4.539964956092314430e-01,4.917959427715560272e-01,-4.244017687998907218e-01,1.626089635474599615e-01,-4.945115065440428004e-01,-2.138612171705893406e-01,-4.158205739928174105e-01,-4.561075549365996573e-01,-3.724780742330097705e-01,-1.590218877840354761e-01,-8.062544860547402048e-02,2.683491785559606324e-01,1.276708294759755224e-01,4.724149065085944676e-01,-5.943470844916759477e-02,3.090212160527761043e-01,2.354025531144797456e-01,-4.204002308923494857e-02,-3.708193680586086560e-01,-9.175609165984045454e-03,1.030105097754143856e-01,2.214179944046944237e-02,4.065804799922217438e-01,-7.332970904652197190e-03,-4.576793956030271171e-01,-2.771747874061997741e-01,-3.832729360447094114e-01,-2.046029593720165851e-01,1.917242345982225205e-01,3.041487296246682126e-01,2.399009743258366800e-01,-4.077742202118313924e-02,-8.095224460697103552e-02,-2.985051771477640337e-01,4.506161080646409745e-01,3.370922625295840191e-01,2.573468675581042642e-01,-4.672569444510993875e-01,2.107892835390972122e-02,1.187422688970979912e-01,-2.640997564390971108e-01,-7.455331104931781083e-02,-4.307376337466461425e-01,-2.363945358325201807e-01,-2.000363331433424319e-01,4.709104032555421204e-01,-4.517129479860861885e-01,4.689474710604149554e-01,2.953913558008479656e-01,4.958007917622619942e-01,-3.294466407908070993e-01,-3.851964366652073646e-01,1.505477806530367835e-01,-3.325736200065268489e-02,1.811037840631369022e-01,1.645336496250504321e-01,-1.943369538980014785e-02,4.172777126775860657e-01,-5.034610575173911196e-01,4.284830938463647931e-01,2.735827967402377700e-02,-1.054388438273930612e-01,-2.259012014951266301e-01,-4.835674584645234808e-01,3.271671665291736031e-01,9.695162312671039284e-02,2.347952429068197733e-01,-4.834534376602310224e-01,-3.444844782797358285e-01,2.660946228867582253e-01,-2.735265076004545493e-01,-4.787333929628962426e-01,2.778410263154320048e-01,-4.403054973695385010e-01,3.159634068252484274e-02,-8.731834330955657794e-03,-5.312034291488452326e-02,3.415011336328415137e-01,9.630909538800201675e-02,2.679369151570051844e-01,-2.523818392141747857e-01,-4.240758779640698140e-01,1.688407201570829297e-01,2.753040573585567308e-01,-4.971800235669419643e-01,-4.505581034900813520e-01,2.447511277727107415e-01
-3.881616582118106035e-02,1.573230869614619318e-02,1.800998924781358965e-02,-1.980840796713107255e-01,-4.777829288991995993e-01,-4.217322530443185502e-01,1.950661029677845104e-01,-4.155299525513173053e-01,1.049942757280058897e-01,-1.290765315586372974e-01,4.614644372281976326e-01,-3.492032286505430960e-01,2.628168500023092546e-01,3.111805474187754328e-01,4.371064716053689181e-01,-3.297877290874262068e-01,3.638573687591903916e-01,-2.186794430357245911e-01,-2.400688884900817333e-01,-1.415787995790715459e-01,3.807069292057118082e-01,1.738606346541504005e-02,-4.307673637174196934e-01,-4.357648247827503041e-01,-3.521982690018709561e-01,3.364301494953236826e-01,3.370432073782178573e-01,-1.243160128752983512e-01,3.000445579366866622e-01,1.553478657631875426e-01,4.996466349136985952e-01,-2.238235084141814990e-01,3.867094131717105920e-01,2.845275573630304811e-01,-4.350201396599829851e-01,3.513368888769404230e-01,-4.147271502431267298e-01,-3.480712056369843488e-01,4.549641701193909427e-01,-1.074710208347408186e-01,2.432824020188042169e-01,-2.009198745630236815e-01,-3.750699447753148008e-01,-3.926922278760942575e-01,2.984334895453091274e-01,4.745800295325319218e-01,-1.756886068788620914e-01,-2.589314211937659982e-01,-3.539743763182057190e-01,-6.623019048418340993e-02,9.893259162378009730e-02,-4.719590917423481802e-01,-3.568681910192988971e-01,2.878040331276670583e-01,8.705360938683756600e-02,-6.082170752490163174e-02,-1.244790431419190851e-01,-3.126960180752842433e-01,-4.044592192344957926e-01,3.485446161072699445e-01,1.921151144035481151e-01,-3.682030332155731278e-01,5.977348210886563457e-02,2.130859601596138408e-01,-2.705172495957652856e-01,-6.142932865500712152e-03,-1.922639628562455572e-01,1.469893588947632501e-01,3.030755466424200906e-01,4.666750607883555779e-01,-1.442942534731437021e-01,4.916587697834696735e-01,-4.686268103311741484e-01,2.946687070927033608e-02,-4.905136205318502696e-01,-2.578575119645550029e-02,1.245762168028008293e-01,3.770158118627132127e-01,-4.662887587933206013e-01,4.861081725911375190e-02,4.457946176546317973e-01,-1.629716621318321179e-01,-1.821123381149420128e-01,-4.036082286542458930e-01,9.827492722672165337e-02,2.788103884883767480e-01,-9.758413432968600712e-03,4.167638098384925938e-01,3.774129529013636186e-01,3.267906400530923294e-01,2.680369378992713669e-03,2.541836068750584210e-01,-7.041386542617922295e-02,6.603000363459069627e-03,4.908611883909753670e-01,4.117841150979742459e-01,5.193412885300210252e-02,1.123204615549516366e-01,4.934164518795279841e-01,-1.072089607637154718e-01,-2.783592483320195266e-01,-8.384047748494592722e-02,-1.150608965537549266e-01,1.961342091636019969e-01,2.981625962198521714e-03,-6.501959998700100607e-02,2.920413644155990807e-01,-3.522136195640034328e-01,1.006795070723354862e-01,3.083743111984915131e-01,-1.907193491688667919e-01,6.209637421184099892e-02,1.981458500371093556e-01,-2.017919709304406561e-01,1.074754914544707451e-01,-1.447830581505964442e-01,2.988712928386435541e-01,-3.365110941833200364e-01,-3.756908723618465618e-01,-2.623166028293216212e-01
