-5.613551071266940223e-02,3.986881669451462495e-01,-3.918221251769746227e-01,6.661006548009409944e-02,3.325543876426932388e-01,-3.662368069172403651e-01,-2.884455243122032719e-01,-1.714774281614180051e-01,4.916789742150392412e-02,2.172603560289775027e-01,4.414410277502420210e-01,-9.989686669410850761e-02,-1.644579571349209790e-01,-4.514552352154511672e-01,8.131914956590551025e-02,4.040040777985860476e-01,-1.065024929975000312e-01,1.367075044393583350e-01,3.088012469895390355e-01,-1.525863677841763633e-01,-7.081678457775189561e-02
-3.639433384116625425e-01,1.099752779328073415e-01,4.717707535232208427e-01,-7.801844380767432308e-02,1.160461217969804976e-01,1.185540337407483408e-01,3.169806109288068607e-01,3.287457081330473763e-01,7.696080606921056055e-02,-3.006247241144932580e-01,-3.189124621296992451e-02,5.123188115038141560e-02,-4.265831250887945902e-01,-4.124331708345095882e-01,-1.064609033803220611e-01,3.245261916737292307e-02,-4.256890580038246580e-02,-3.728906840713330229e-01,1.359034484375654661e-01,3.483173510215394897e-01,-2.616978130991580165e-01
2.094705925768231003e-01,-4.055340261249174572e-01,3.305090411842557807e-01,1.881916603185546655e-01,-1.509878148562400768e-01,-2.950498941053731339e-01,-7.042122619077507972e-02,-1.504665286159294069e-01,2.400877758564839148e-01,3.499267287664312165e-02,4.720762250465126986e-01,3.726958882789592198e-01,-1.723875192250532429e-01,3.249630992579553013e-01,1.337966509468678233e-01,2.727528349752935122e-01,3.433644329941550888e-01,-5.900153234260775703e-02,-1.934341516544194894e-01,-4.245125768396791899e-01,-1.100103792713204437e-01
2.467524102162537425e-01,-2.670234255854416761e-01,4.761829823507822135e-01,4.389841835172475504e-01,1.799326816365076909e-01,3.965669494689077479e-01,3.387419550861634487e-01,-2.857664714316405230e-01,-4.474427154845337928e-01,-4.580115643250051161e-01,2.093499025120786894e-01,3.255551686877982687e-01,-1.561650849335877167e-01,7.800030201329559432e-02,-1.761789077657167912e-01,2.111275053472690399e-01,-5.646891994393947456e-02,-1.591617005284512443e-01,-1.075842316977430185e-01,1.892860460062329442e-01,2.928791368331956635e-01
-4.173160731686247349e-01,-1.372981948052938717e-01,-4.738073759312212974e-01,3.154897012804457890e-01,-8.053901290064856278e-02,-4.470476759256366249e-03,3.040675077229552659e-01,-4.939380454085041255e-02,2.322265584181177622e-01,4.552730692576313354e-01,8.779965671127840099e-02,2.873208050125820590e-01,-1.502941849847481137e-01,8.508277991084201020e-02,-2.612266040095837516e-01,-4.801089314501726935e-01,-6.184530632651661503e-02,-4.233125358069423916e-01,-2.097393430942873227e-01,2.999611271717140260e-01,3.410000379482124866e-01
-2.740453279270126941e-01,-1.299283790459063725e-01,-2.522922958141709526e-01,-1.920105333378265000e-01,2.549317674574274051e-01,4.693950500916146962e-01,1.425732227830915633e-01,-3.082220239142669516e-01,-4.113324301424049478e-01,3.332157656261678369e-01,9.132231248957774217e-02,3.800630116121617164e-02,1.682153282698104213e-01,-4.256019231181831231e-01,8.214450988297164469e-02,-1.834312779578084751e-01,2.202442914819653097e-01,-2.867561337064023497e-01,4.987306258636369227e-01,-4.434668653593640819e-01,3.177010548390111211e-01
3.511653655577653965e-01,-2.350333490469305731e-01,1.869317483968065408e-01,4.161928602118102893e-01,4.926774459983946919e-01,-2.095828357786684859e-01,8.702633071513812824e-02,-2.878552348193924582e-01,-2.724380402000467494e-01,-2.328169638400912414e-02,-4.483865444881979800e-01,-1.159964190519729849e-01,-3.261120351836818143e-01,3.553855734040180930e-03,-1.088782692595537671e-01,-5.395862354034491881e-02,-1.526784843544569566e-02,3.715092561602928445e-01,1.360792241868792607e-01,-1.461734896488849633e-01,-1.687444786841361122e-01
1.561879314779603123e-01,1.496023316968905503e-01,-3.018425190493929100e-01,5.057421795205239157e-01,-1.155775469556778734e-02,2.032401773758953645e-01,5.008084962575836130e-01,-8.853982203179197596e-02,-4.517099775677456733e-04,4.668745003198583876e-01,2.270342483372269071e-01,2.659005042135525465e-01,1.779796553996154662e-01,-4.318809018865856636e-02,-2.658211175743914190e-01,2.151226700226220034e-01,4.303879055360986805e-01,-3.162826623168816242e-01,-6.580978611022558766e-02,-4.224532818150316671e-01,-4.891138977908172647e-01
-2.156990670696368462e-01,-3.102333720105833748e-01,-1.123801106400001797e-02,-3.418533544505571176e-02,1.276531988483034785e-01,3.337009760782148615e-01,-1.940118071487995088e-01,-3.141399114374349155e-01,-5.714108068798356976e-02,5.233291586568432872e-03,4.016355504182274050e-01,-3.062787750696316924e-01,-1.799345832212136675e-01,1.356106751044922065e-01,5.553753152459673520e-02,2.800098526546951905e-01,-2.594819058191229488e-01,-1.761800693410369156e-01,-1.699047034066618889e-01,-2.735585751991075898e-01,-4.761010979458742964e-01
2.146019940044917307e-01,2.350635810829640460e-01,9.362458173783720639e-02,5.031320444730935648e-01,4.775698010826415763e-01,-4.653645697696177086e-01,-1.248572864958317520e-02,-3.594680348140147919e-01,-1.421201799332459659e-02,-3.887786182928056750e-02,4.307217271254585866e-01,3.244543037656753559e-01,7.157200561564192043e-02,1.425515449095087761e-01,-8.002085855540208570e-02,-4.686278107265812176e-01,3.163183775816308385e-01,4.873304650626109624e-01,1.457591905366532881e-01,-4.701224203295624633e-03,-5.430382147910091384e-02
-3.143704818622998221e-01,-4.374246090762877182e-01,3.454617799063996464e-01,2.127526332501754880e-01,-2.322780610895907594e-01,7.789262664549066306e-04,-4.669011364158376365e-01,1.586351745572321670e-01,1.574565075184843621e-01,-2.815562928029007317e-01,3.517382440477165306e-01,3.629941501258833469e-02,2.604670579106401762e-01,-2.113900324165336742e-01,1.384197719496944590e-01,2.464727227365594298e-02,4.078664817891285155e-02,-5.067109819803039539e-01,3.307134580830360139e-03,3.649163470104415663e-01,-8.531597092466827736e-02
1.714721045289154810e-01,1.690660757310505913e-01,4.857662969095225547e-01,4.411080064704492876e-01,3.283717404278510554e-01,-2.734347029840737409e-01,-1.166907712062278668e-01,1.823401439003258517e-01,2.693202396081702532e-01,6.250463148676126124e-02,3.133099531437824048e-01,1.845900697629432041e-01,3.789067788275050086e-01,3.745108409470508382e-01,2.899741975254789203e-03,4.236624927933534401e-01,2.534667429249309878e-01,-1.135915308676013896e-01,4.819823157286001747e-01,2.064566006084169458e-01,-1.937564386338377354e-01
-3.796827984090384023e-01,-1.482631331054569956e-01,2.774781307042722966e-01,4.011065092396777776e-01,-6.901689548137722452e-02,8.972281400821621733e-02,4.029411519276988041e-01,1.459395430441711161e-01,1.720788478406173883e-01,-1.075262487265861155e-01,-2.991236723476868309e-01,-4.365497069178790324e-01,2.884151864865534542e-01,3.303240872993666866e-01,5.134712791885242406e-02,4.638839971523237571e-01,-2.083269762009867798e-01,-3.369770203927198726e-01,-1.749388722116688166e-01,2.041863966446864909e-01,1.658864027294592591e-01
-5.052337675932578875e-01,7.431300657652689656e-02,1.691317196580778559e-02,1.350459340846758283e-01,8.466072180086779697e-02,8.083356385250055343e-02,-1.868982331420249721e-01,2.581939269341340659e-01,3.133694235089319324e-01,-6.247022075839431254e-02,-3.723443113581514918e-01,2.208642134342386765e-01,1.605908807180908004e-01,-2.846365635083412116e-01,4.748715028636882884e-01,-3.105776157713400210e-01,-1.318517407449494583e-01,-1.725655788883951325e-01,2.609661337412910731e-01,2.798513611548513746e-01,-1.954008894715702493e-01
-2.496211995032938391e-01,4.897702453305374792e-01,-3.095644275019794889e-01,-3.812693279985840955e-01,3.950836275851761781e-01,-4.708830223951482319e-02,-3.342554162323119749e-01,-1.199006767197115519e-01,1.755552144177104368e-01,1.017574737845005212e-01,1.870545702455538861e-01,3.547785943163385136e-01,-4.705712005347666427e-01,1.842414001089903441e-01,3.420048579705285419e-01,1.057299732618046245e-01,4.215366431250007762e-01,3.406027818489746305e-03,-3.707208613484240245e-01,1.251563849474684187e-01,-2.064200920976700104e-01
1.045869938340604766e-01,-1.264609829749658021e-01,4.259063305763574614e-01,1.622202447216346544e-01,3.024614404402149459e-01,1.196480418528747813e-01,-4.661040443440901404e-01,3.092458360735832468e-01,2.931808159782154921e-01,-2.649535027195563663e-01,-1.270101822916079592e-01,-3.246993771579195220e-01,1.644499693940787710e-01,-3.424326111422232866e-01,-5.177328685573339556e-02,1.990565126645056082e-01,-2.337794288651329766e-01,-2.129851545275828623e-02,-1.213826063018020179e-01,-4.303451092157951630e-01,-3.088167945504332601e-01
2.745109119166806999e-01,7.501483183127072296e-02,-5.038663927638378226e-01,-4.584162988321006660e-01,-4.592408531497957358e-01,-9.119324845843584243e-03,-1.460116002888549591e-01,-2.774538349532860715e-01,1.819265017173625487e-02,-3.457940759915790752e-01,-1.223182155318608133e-01,3.432923332385209858e-01,-4.063278924819989646e-01,1.164606649074294113e-02,-2.217481609826801037e-01,3.275804042717423981e-01,4.735424588344226970e-01,4.902133420994223556e-01,2.261918410954573966e-01,-2.074642114376892554e-01,-1.982203372099181349e-01
2.707373833994785595e-01,-4.164325677271120685e-01,3.166196866335474480e-01,3.668335271967117506e-01,-3.852172477529051259e-02,-2.970293331321627872e-01,-2.286641265927063238e-01,-3.927853225340594001e-01,-7.901162292050690908e-04,4.022404089032538543e-01,-2.017840484273679125e-01,-2.236872632792348270e-01,1.864090900226329228e-01,1.467271622285976629e-01,2.078837433903386045e-01,3.251359509715436302e-01,4.499243860241963766e-01,-2.610377175549041251e-01,9.299105562691969973e-02,3.578325951939075322e-01,-4.049083253262626414e-01
-3.454186971883997925e-01,4.349878433849099779e-01,-5.937855754253933138e-02,1.644243374125326507e-01,-2.104333941178554712e-01,4.609786070903927335e-01,-3.019017207305157435e-01,3.643117431640674475e-01,-1.002507592486739652e-01,3.694376539408241733e-01,6.321753739240960901e-02,-1.048695762142077825e-01,2.174730972052551503e-01,-5.359853315285269260e-02,-3.625225070632037139e-01,1.482389583091507368e-01,-2.798261999802902911e-01,-3.007275987206375345e-01,-9.010533848162124992e-02,-1.068477215047429069e-01,3.934041836451155488e-02
1.772839596402907975e-02,-2.482815167579023041e-01,-1.703647982204403721e-01,-7.751256590907523725e-02,1.694323186618809929e-01,4.653263761400109333e-01,1.419739482637672745e-01,2.475918243157912424e-01,1.640471283463003360e-01,-3.350347751109604144e-01,2.117353858771615638e-01,-2.360800892298178244e-01,3.469736003066555829e-01,-2.311034311229858695e-01,4.139640403169860261e-01,7.090205440751425059e-02,-4.492430112712735013e-02,-5.401426622594995147e-02,-1.675166159167667812e-01,1.652867295888900967e-01,4.836544036027222715e-01
-3.101756316862560800e-02,-2.228438359659880019e-01,-4.566464433600183614e-01,-2.761715328973282091e-01,3.263233965140869830e-01,-3.858102280225047531e-01,-3.682144137883330837e-02,4.854299309422612646e-02,7.843004833167446788e-02,-3.251984407053755150e-03,4.243519004183282095e-01,-3.269263680685439710e-01,-1.276883341807820427e-01,-3.983325105236367736e-01,-1.644470609597649402e-01,-9.559803757449758521e-02,1.245532650660017143e-01,2.096030246054998714e-01,3.251369328695504213e-01,-2.034003378887364322e-01,-2.480744007622674441e-01
-1.491936723369014506e-01,2.305759371257012635e-01,2.774605846128410519e-02,-3.440960977031526924e-01,-9.651995457366265019e-02,3.782913295332540060e-01,1.346003270049546119e-01,8.291270547376949906e-02,3.167573432614589901e-01,-4.215413199651367182e-01,-2.173092507439818022e-01,-2.848661796817806083e-02,4.252905223802750379e-01,-4.636398341484785912e-01,2.299368838033507001e-01,-3.690119868152881288e-01,-7.209370884708900251e-02,-3.666117299669305329e-01,-3.257944223243214310e-01,-3.173812397421975628e-01,1.374301623804600747e-01
2.689388410640218274e-01,2.138703082696883084e-01,-9.666924549222605245e-02,4.882721647907646290e-01,-1.969121546826768376e-01,-4.657194711998711989e-02,-2.452260056721620729e-01,-4.390511772605150131e-01,4.477470866033029795e-01,-4.944633077539288268e-01,3.251547174974315779e-01,2.944016793645893304e-01,-3.794592856375407774e-01,-3.928450907489707267e-01,3.959675606818766624e-01,2.950478630856147033e-01,5.272432742341677525e-02,3.392320703918999536e-01,2.386032451059182796e-02,4.547327004681821494e-01,-2.457867292547886440e-01
-3.428314491191187807e-01,-8.692278214837607930e-02,-6.506142754973756603e-02,-9.860654918754889475e-02,-7.256322880698422295e-02,-6.460293338813391517e-02,-1.218130510660242471e-01,1.874007443130598638e-02,3.018153856972482507e-01,1.010266390945504383e-01,-4.062543415248265899e-01,-3.989432043972593878e-01,1.647842646348920970e-01,-8.627416742985678788e-02,3.618843926834227620e-01,2.967188469858575428e-01,3.240874191831392137e-01,4.731762341347031664e-01,-1.451376869508657352e-01,3.488734498845778020e-01,3.480565749280656318e-01
4.246578202194403739e-01,-4.022000017804882588e-01,-3.215236236178586338e-01,-3.448809928995996699e-01,3.225278350995643972e-01,-3.167936155455258196e-01,2.573240250782911076e-01,-9.504855917041321600e-02,-1.566651573917494378e-01,-5.083176725690156245e-02,-1.317271364832272584e-01,4.923852350563657776e-01,-9.300871197982614469e-02,7.238194911170063583e-02,-3.233537628586907742e-01,-5.038558626915146110e-01,-2.277910305031815852e-01,-3.935893007922931786e-02,5.383805621664214947e-01,-3.312626720538813796e-01,-5.905432878838024445e-03
-2.549355437572222161e-01,-2.808192623955526601e-01,3.151918675165834571e-01,2.601305416298344553e-01,6.216045124698700575e-02,1.203926365740203841e-01,-1.141651212204824184e-01,-2.851264593153668980e-01,-3.928585073570856623e-01,2.545586825801857134e-01,1.105612561823230144e-01,4.032727771978636411e-01,-3.124421900574269606e-01,1.136240660451766082e-01,-6.734307763015826009e-02,1.282572129422981655e-01,-9.522310043293273629e-02,4.127401063221746158e-01,4.504058764399209158e-01,-3.960660977721334741e-01,-7.901893784404095955e-02
-9.155651304819870107e-02,3.189554336089667763e-01,4.323640839008859316e-01,-4.665770671727567098e-01,2.473142690273003041e-01,3.187025580051781604e-01,3.441772867523523738e-01,1.777383092597583647e-01,2.564923420943963084e-01,3.582917543845459685e-02,4.631524806797574501e-01,-9.289687610720569200e-02,1.761666882551790603e-01,-1.440091729748502469e-01,-1.012971638316758211e-01,1.066008614057779164e-01,-4.758535405787945316e-01,4.611495236821087085e-01,-2.780376423015576970e-01,3.792639322743625030e-01,1.723509547525220731e-01
-7.862413718818066222e-02,1.863122657696640039e-01,1.217250523070011470e-01,-3.529267951440718809e-01,3.835818422017589491e-01,-3.329527850289152324e-01,1.022627623133983144e-01,-3.547580691867281422e-01,4.358337384552484206e-01,-2.196639209298768547e-01,-3.676505011677362877e-01,2.496849061028208472e-01,-4.767851437784480229e-02,2.955246549167783177e-01,-2.299201115769449189e-01,8.882517068081265121e-02,2.465429500288164599e-01,3.515993089088900181e-01,-2.772772029493255075e-01,-1.619729056388707067e-01,-2.176692449188932232e-01
-8.266279298765520644e-02,1.768408602753413772e-01,-2.336964453261959063e-01,-6.383439904989349212e-02,8.481667601901834996e-02,-4.762556081153756504e-01,4.991637561326597861e-01,4.394518113540074600e-01,-2.520920838805085773e-01,-4.667435744311831392e-01,-7.513424585266978428e-02,1.644384505135560587e-02,5.107872366982361967e-02,1.441694626387203249e-01,-2.057785933188235050e-01,-5.451242810930208987e-02,-2.416461637733240131e-01,-1.930332821626658812e-01,1.226351878322295003e-01,2.731166984179030921e-01,2.591647590529161382e-01
-3.627227827893132472e-01,3.562823485372822452e-01,4.329729314199113888e-01,-4.173253091081666755e-01,-3.408767262226333750e-01,1.443070997383558429e-01,-3.054765366514076153e-01,4.269802958984236785e-01,4.589104761913554431e-01,3.560935308876320704e-01,-2.213108400200327341e-01,2.844123242483693192e-01,-4.351756292887828947e-01,-6.522595879936880781e-02,2.125148971989199997e-01,-1.659786819021404625e-01,1.286492460356269268e-02,-3.480375196062897580e-01,-2.257890833474770487e-01,-2.900722820906789234e-01,-2.851892253756864726e-01
4.924573104401650664e-02,7.604551411518654935e-02,3.180606046062980363e-01,-2.748383111294848691e-01,4.492724872775306078e-01,3.527396082531076837e-01,2.759814614659566456e-01,3.663983926643003125e-02,2.423916521963598025e-01,-2.326143957123851802e-01,2.436353475170261462e-01,1.145109171072744986e-01,-3.770169082964838769e-02,-3.163323758978667244e-01,5.014906569398411840e-01,1.341101446687883725e-01,1.744620469119294026e-01,8.125525400392057118e-02,2.281997940972223526e-01,-2.690890189469293259e-01,-3.997312494024667928e-01
-1.214586827734372848e-01,1.980112572805370896e-01,-4.363844961441293857e-01,-3.760986129738795314e-01,-1.410352888403400562e-01,3.246154369850896559e-01,3.710038069304053554e-01,-1.286728389184282062e-01,-1.109288141376412323e-01,-4.682590101556068363e-01,-2.176823465366276578e-01,-3.230598125368614459e-01,3.851100516375613458e-01,-4.292691193352576318e-01,2.334267862861375276e-01,3.286192872800534071e-01,5.950064121289248137e-02,1.087628593829831208e-01,3.038436701204482171e-01,-3.712376208466318106e-01,-4.772495486506447282e-01
3.181979206026667173e-01,-2.783495407504884001e-01,4.916818106017565304e-01,-1.376438010085030417e-01,1.792382192720113621e-01,-3.393157485586833499e-01,3.372599185339660299e-01,-4.753758935556765541e-01,-1.920734396648797193e-01,-2.370292779659459448e-01,-4.123655951909829809e-02,1.527771867791778149e-01,-1.399865066800635438e-01,-3.570003026219473186e-01,-4.609815093422925392e-01,-2.491806914659809025e-01,6.423046693916023564e-02,1.821265507784882443e-01,4.576657840384554254e-01,-1.733663558035215269e-01,8.279586855668191747e-02
2.990780851842829158e-01,-4.512908291900842306e-01,3.915824031180177855e-01,3.870593312257607499e-01,-5.111132385903957021e-01,3.040821538597697216e-01,-3.508627582345725804e-01,-2.302061017259890985e-01,-2.721295181280266595e-01,-3.799201390921889687e-01,3.260513051961145825e-01,-2.834330986035722422e-01,-1.647470813579100524e-01,-4.878687468928739612e-01,4.106037578793494958e-02,-1.917866554071055440e-01,-2.744782163067932546e-01,-4.851853868445309970e-01,3.441472346716634156e-01,-1.557085299886110386e-01,3.725993002998331804e-01
-2.985363672396557089e-02,-3.693202864496064608e-01,3.836992925844785463e-01,1.261097917266250645e-01,3.602790152013889968e-01,-1.538513299751800567e-01,2.689484373904234560e-01,-2.041856675723589809e-01,1.578283356155331385e-02,3.487101345376375505e-01,-2.029170334752086746e-01,9.344555207944464648e-03,1.941783396637842829e-01,3.591665794735717787e-01,-2.287601024517684212e-01,-8.685863501510178442e-02,-1.464600048623593553e-01,2.885721471514064995e-01,-4.811258889420815810e-01,-4.050061928151574980e-02,1.947220822694055997e-01
-1.236164811324992618e-01,-6.209636380716250341e-03,1.516730466887646622e-01,4.348572410267219635e-01,-4.016769271093552640e-01,3.498570828369238495e-01,1.088129944434814422e-01,-3.346134298115625016e-01,1.949994655138199973e-01,-2.513758200400134091e-01,5.101538403156941071e-02,-9.151603728247251213e-02,2.853886383896643841e-01,3.507297964330307605e-01,3.932308726075400274e-01,3.811389644600925442e-01,1.865263913330805490e-01,-3.972009322348696858e-01,1.258354630338008318e-01,2.451830475927131714e-01,2.796147624730698222e-01
2.227907077485705156e-01,2.058713755222773001e-01,3.423203273080929199e-01,3.239351108694892845e-01,4.464927570370135212e-01,-3.370962884359241518e-01,-2.735647757607354014e-01,3.778676910374337283e-01,3.901905441537985991e-02,1.755092170790087946e-01,4.890349633984530930e-02,1.738631116963150480e-01,-9.133472453643451394e-02,-2.707378271327932628e-01,3.012365942626098626e-03,3.042798819842502667e-01,2.966380544780550590e-02,2.077972680938881822e-01,8.198281976889683353e-02,1.421144706547303183e-01,9.332659464478039457e-02
1.286789628790577511e-01,4.455232062596941045e-01,7.181516538406655832e-03,-6.660773603432465495e-02,4.266071552640731679e-01,4.616830966600118380e-01,8.301837815036158807e-02,4.517741085253758060e-01,-3.277916837408067496e-01,-2.603546399168724657e-01,3.790042617498756705e-01,-5.655216611938817389e-02,1.323371708883762654e-01,-1.540259377507803007e-01,3.045027102100321681e-01,-5.515044495599265295e-02,-1.667629526534475659e-01,-4.126581729659975495e-01,5.101076053395320331e-01,-8.122698789566314137e-02,-4.644365156630732572e-01
-4.651667523718554520e-01,-3.538224278368143905e-01,-1.282965611340071144e-01,1.731169893390600567e-01,4.186482365861791122e-01,1.833667588278130867e-01,-1.790793457841707015e-01,2.736682307618216736e-01,-6.658585996151562131e-03,3.808071308867625598e-02,3.784178383551582980e-01,3.216500101460459393e-01,-1.740958199979192600e-01,-4.923290367402028411e-01,-2.177429330165315258e-01,-4.398167669694256349e-02,-8.469926804930920372e-02,-2.188726069257545814e-01,4.088628005486895090e-01,-3.326600981592967021e-01,3.224552813736785706e-01
-9.282545877979062054e-02,2.717862755092536609e-01,3.374242621911572870e-01,4.397525726470896679e-01,-4.132799537164502102e-01,-1.133747701802749301e-02,3.905168894524763123e-01,3.589656767862728359e-02,-1.324790181959628055e-01,-3.041479103232967440e-01,-2.932888235341924998e-01,-7.385282068365060792e-02,2.124133205882720310e-01,2.945110729919934167e-01,4.297032299823425050e-01,-2.343792734488019114e-01,4.572192657614805866e-01,-1.118432586587766453e-01,5.042905308400141839e-02,1.236000825127032687e-01,-2.277369443861959053e-01
-3.935520585771757895e-01,3.443828221299126136e-01,-3.637999415329210007e-01,-4.493614514189451792e-01,4.667903092367162859e-02,-2.465491785515687151e-01,-4.583823533612706863e-03,4.207213784998382611e-01,8.424465125431787604e-02,-1.166753586447022428e-01,-4.731308509570353316e-01,-2.402427765852314379e-01,3.258037880059144742e-01,-2.729050058532098699e-01,3.985293777805707371e-01,2.299667244064015348e-01,4.774600100377010548e-01,3.297177940101884142e-01,3.906676849561061537e-01,-2.041794166227405560e-01,7.327563760449497254e-02
4.470599974671375376e-01,3.663828686383444055e-01,1.316186149409125927e-01,-9.885614649201149295e-02,-1.059679620506439185e-01,4.213960417448803786e-01,-3.724626351954038461e-01,-1.760541053816119458e-02,2.373757986054355895e-01,5.037164086436419774e-01,3.737452260887721978e-01,-6.592968525986260542e-02,-2.629240163089889282e-01,3.129243415612569801e-01,-2.906121680852949973e-01,2.323180585698499667e-01,-2.742466578221511853e-01,2.349043136169243484e-01,-1.386524690660524521e-02,-4.636936999546196758e-01,5.036405166596510385e-01
-4.059126310931844839e-01,3.023460979285452765e-01,4.456276849535662499e-01,-1.984508335581527602e-02,-4.139171676106007808e-02,1.955906229564177423e-01,7.015690069869703893e-02,-3.449789137505851477e-01,7.875669107502784871e-02,-2.762480228077196509e-01,-4.862925425597682816e-01,7.076183635977921493e-02,4.490652880410821446e-01,-4.171143467944040673e-01,-4.605080802831565956e-01,3.079592498391104383e-01,-2.922435588830271103e-01,-2.415613698394412090e-01,-2.752709156075859309e-01,4.623229851163966897e-01,-1.942895353878301701e-01
3.022994929140671583e-01,4.739157515454318625e-01,-2.723988556254164917e-01,4.759125065029569113e-01,-6.584395686561651806e-02,-4.202741067305721390e-01,6.899137136117317048e-02,-2.786516786161303272e-01,1.111579908998200222e-01,-3.971516998790449171e-01,2.105366242949268871e-02,-3.722417056172791505e-02,3.379536206120571373e-01,-1.703097066860571329e-01,-4.130324489235481789e-01,3.820067433797506573e-01,-3.048592469213846634e-01,-3.648644128159921340e-01,-1.660928649004655283e-02,-2.295654442721052624e-01,1.308940014664142226e-01
-2.463309410895399010e-01,-4.808158451624702234e-01,2.927606049811929956e-01,3.504849671265878319e-01,3.734410161620931867e-01,-2.008874062041237918e-01,3.057257188041678786e-01,8.025565795337957081e-03,-1.390249309599327632e-01,-1.837716307487368694e-01,1.095192926802687587e-02,-2.685582060106520008e-02,4.593063650229391448e-01,-3.631826985194084867e-01,-1.560598721635990949e-01,-3.875181889671047708e-01,-2.427639960983073164e-01,1.831795768731119267e-01,3.778840547564353836e-01,2.362295370405917694e-01,-2.186276091288034684e-01
-2.511447593778657894e-01,-3.282037368932013699e-01,-2.032722489278191713e-01,-2.429487076815974034e-01,-3.826071700649106289e-01,4.388809828964464199e-02,3.532388197594475004e-02,-3.200706129533290589e-01,2.282953799504025272e-01,-2.818218048537403098e-01,3.457505580012677493e-01,9.466191255476787136e-02,-3.344106009039660155e-01,-4.766815465304109489e-01,3.059087864272582169e-01,1.670231749904720342e-01,8.818722460134902075e-02,2.400832492872455315e-01,-1.158357200571254880e-01,1.988328109466870885e-01,9.177924833252076864e-02
-2.992577215587043926e-01,-4.201463536277264543e-01,4.018836689224480896e-02,4.707452287740550578e-01,2.681784947341330980e-02,-2.815603837629442885e-01,-3.214018791343500880e-01,1.336866055439028533e-01,3.241934352050540036e-01,3.775178052997338329e-01,-3.640323186545727507e-01,-4.724719907428088228e-01,1.867783210338396643e-02,1.908882941149080256e-04,4.480970611792263192e-01,-4.007773091341310656e-01,-2.006356520843343705e-01,2.612483879907254343e-03,-4.182624471265085631e-01,-2.731062510289486989e-01,-4.109348037435185952e-01
4.681009350834535176e-01,1.112171748210371847e-01,-2.781845980587641098e-01,2.050988059572980415e-01,8.227355237137336241e-02,2.556708749808732639e-01,-4.963166131445237994e-01,4.855117053066522748e-01,2.615708746763684700e-01,3.862659493852321213e-01,-1.439328572874258028e-01,4.468859891804500273e-01,2.009217419142194649e-01,3.268938297911522239e-01,2.161129869490571176e-01,3.764508744943219631e-01,-2.918815695796535548e-01,3.809073530008223463e-01,3.989859013009121047e-01,-1.991451182328548841e-01,4.569511619288648130e-01
-2.258912436491733733e-01,-2.124539482265864476e-01,-6.784721128510391719e-02,-2.217689850845148136e-01,-1.266214878562129109e-01,-2.293847320525007061e-01,4.845936123189101274e-02,-6.924096816412047585e-03,5.228401793004672227e-01,4.859244833884557857e-01,-1.554877980586001629e-01,2.810059447043582181e-02,-1.888173309444010350e-01,4.737090475487546470e-01,2.042041205802306858e-01,3.890946843914239173e-01,-4.115978014725261702e-01,2.219564830426137003e-01,-4.385876544567318125e-01,2.781751086824761909e-01,-1.184448663031488058e-03
4.386782601113749513e-01,-1.351232026870920755e-01,1.662492168809854842e-01,-3.160621473053064623e-01,-1.564559019148394348e-01,4.254141365471702518e-01,-3.595019312710051596e-02,-4.086430626990866788e-02,-3.038839584813751715e-01,3.869249678819947080e-01,3.897336477939153943e-01,3.005865981198772019e-01,-5.555838216669071322e-02,2.256543028137592000e-01,2.035786219568331279e-01,-9.788242005995334560e-02,3.995681480715707057e-01,-3.378165152905302643e-02,3.652679037460648259e-01,1.038534648635877772e-01,-4.059073008896382784e-01
-1.020031226804637425e-01,1.299043932254261846e-01,-2.724251785286068706e-01,-4.138678939195117867e-01,2.452143218799191782e-01,-4.504956851983215049e-01,-2.420596080267004568e-01,-3.378413507771889368e-02,-4.227729681185805055e-01,2.512292001041584455e-01,1.583441210876783134e-01,-3.093242308367654680e-01,3.444595012805461987e-01,-2.332939668662908916e-01,3.003511222007838599e-01,2.791400880216758917e-01,2.234105523439251229e-01,3.766354189283319109e-01,-2.728695561354021470e-01,-3.404858002515520066e-01,-4.316808089058387643e-01
-2.511799177974661373e-02,2.680802324970396611e-01,-9.928024546046824994e-02,-2.397286219421574521e-02,4.359977064312170469e-01,-2.893514213342620600e-01,4.685681291118691250e-01,2.121159177803225715e-01,-3.399796686153395142e-01,2.354479880434035555e-01,-3.192196039941280761e-01,1.987265961073086118e-01,-1.510945885203466288e-01,-2.073778999471137530e-01,-1.015020100292879715e-02,3.658777188188885310e-01,-2.322645397507603071e-01,-3.516326045402091149e-01,-3.253896915987217436e-04,1.035174127181321402e-01,1.553708989199590884e-01
-5.181109478580628314e-02,3.157673773858826194e-01,1.016757678461662207e-01,-4.351927014928276272e-01,9.858424833827522660e-02,-3.846138735291481092e-01,-3.180078559578943809e-01,-2.944711496226448677e-01,-9.998597864129467327e-02,3.629288979513563551e-01,3.313209451152176327e-02,1.159092305942926865e-01,-3.400204006819158575e-01,1.414170931374071627e-01,1.218395367686017118e-02,-4.894642919201506737e-01,1.567452808608933157e-01,-1.054139689459110962e-01,-3.935284146960049134e-01,-2.089986803939566581e-02,-2.807835163230103515e-01
6.593005858851974654e-03,-4.684919014543362237e-01,-1.041046215756738641e-01,-1.292796825359396329e-01,4.434198303617483683e-01,-1.767558464489283609e-01,3.947542045509066511e-01,-5.248145607181435579e-02,-3.595981804200601983e-01,5.488271749782658131e-03,3.501941438285182673e-01,8.592491790349589265e-02,-4.637352244518027633e-01,-1.353865240931544922e-01,9.624273134170489852e-02,4.629762304463923006e-01,2.765414755591064644e-01,-7.125959589202726652e-02,8.501544380157026459e-02,-1.571236359666226823e-01,6.415682945260992032e-02
-4.485092897687765201e-01,-2.674084754667916397e-01,-1.283544615496786945e-01,1.376694344662246217e-01,-3.223986262679720549e-01,-1.229916827730880846e-01,4.554110700669475320e-01,1.718795165026530125e-01,4.788277782374053548e-01,-3.062241663641578349e-01,4.899794041192096494e-01,-4.216643550501107951e-01,4.280746109126621901e-01,9.641255271309139008e-02,3.454281161046521831e-01,8.988802190731205732e-03,-4.345480456386335288e-01,-5.061119824733518735e-01,1.165741414757363315e-01,1.999122176765662784e-01,3.191405144631587754e-01
-7.279828374557650861e-02,3.502146935087928625e-01,-1.512145832273487089e-01,1.575464514056256274e-02,-4.424064305588945589e-01,2.215703445193473453e-01,1.286339290377096212e-01,1.936254306164572614e-01,3.703793140433013775e-01,-1.820882146538539137e-01,-1.351886035116683926e-01,4.048163970294805375e-02,-4.238150891319450997e-01,3.704030767228562171e-01,-2.012099521749352304e-01,-4.209631133391104618e-01,-2.830280461311734386e-01,-2.708764912885877063e-01,4.743656179414676433e-03,7.464537915152738567e-02,-1.462458937735675590e-01
-3.105541026765802348e-01,-3.843833319574437857e-01,4.714011776404475884e-01,1.714055047657003228e-01,-2.309296096159331735e-01,3.383067251115902674e-01,-3.375438812272112399e-01,-2.050411161661442327e-01,-2.003385771240656088e-01,-3.572295741507401368e-01,4.216749936635200702e-01,1.265216645667720796e-01,-3.977966405698061814e-01,1.365411854103383837e-01,4.576883201969080828e-01,-1.449658974207603257e-01,6.433042353902024280e-02,3.410143628196265486e-01,3.878030335146959162e-01,-1.800598574072418689e-01,-7.707363767076548522e-02
-4.409963697555628337e-01,-9.794163904061262138e-02,2.866217732250921912e-01,-4.208362712589761023e-01,-3.815603914300818578e-01,2.272849913033933855e-01,2.721391952941399350e-01,2.136309459787863463e-01,2.560181319899667018e-01,3.688135090524565785e-01,-4.882200999166875777e-01,1.279205263981382235e-01,-3.937733686244415110e-01,3.049202443416743069e-01,3.357778710617713713e-01,-3.072010707285871556e-01,-4.415653770747174356e-02,-2.854542648820528883e-01,-1.546551613307098616e-01,8.327259708397898030e-02,-2.621426111226117239e-01
5.225130905202571979e-02,9.684047029047211652e-02,-1.511834829192956198e-01,5.214892390926316457e-02,3.815673529941971953e-01,-1.953039859882345353e-01,-2.889702477593757424e-01,3.591218734156320647e-01,-6.365950222325782171e-02,9.842012858372786721e-03,-2.496906477736456076e-01,2.951620533812514546e-01,-4.468779934173587598e-02,-2.899022811228372035e-02,8.497397535594705675e-02,-3.455615620003489319e-01,-3.745665410430048525e-01,5.099957495074988190e-01,1.391003473462347484e-01,9.202634725182393116e-02,4.316263733508113321e-01
3.707591762041516081e-01,4.827189872060242415e-01,1.333796923791083222e-01,1.781546988594306935e-01,-3.228205114686906740e-01,2.165667055455887668e-01,2.945467761371974719e-02,-4.219238058551793014e-01,-1.985254196288062378e-01,-4.272382054361534287e-01,-4.614142601913926445e-01,-2.635728130884917864e-01,4.655270815796838657e-01,2.673703762064764122e-01,-4.689005815966834079e-01,-4.865954337462451984e-01,-1.516706000596458326e-01,4.603844589614866645e-01,4.773934199763840702e-01,-3.884274224835242428e-01,2.540925287589682613e-01
-4.696722922256859056e-01,4.638926297882655092e-01,1.244260681111622469e-01,1.170647987248039923e-01,-5.035143102585275254e-02,-1.279713958861162237e-01,2.725561212214083762e-01,-8.709896710924425189e-02,1.378051241941700145e-01,-3.071474883695913261e-01,2.852770731155723771e-01,-3.343785836981733595e-01,3.962969048303927044e-01,3.580745819983770506e-01,4.053811561140222008e-01,1.485269360737474231e-01,-1.931452102330349641e-01,2.464293296073006012e-01,7.070245535060833142e-02,-1.795229904154154732e-01,-8.987068585177260260e-02
1.083838161888047574e-02,-1.848836111449244368e-01,-4.633364835327475340e-01,4.786168025416712712e-01,2.889779652447479474e-01,-4.688460925224609971e-02,-9.414583067799067728e-02,1.470677694029356997e-01,3.446208035414630166e-01,3.803388484641807010e-01,2.795424007123556431e-01,-3.436493615664577006e-01,-2.327473187942766253e-01,-6.233010131648585896e-03,-4.711633925137893031e-01,-6.249567632329888073e-02,-2.901435709446899963e-02,-1.877070806629295430e-01,-5.612552088840213477e-02,-8.282792940330759024e-02,4.069326118277054594e-01
-1.726929401811305442e-01,-4.265940503765425773e-01,-4.806905928284120888e-01,3.625152412203350161e-01,-6.242422110732571972e-02,-1.318129262616302422e-01,-4.826715968188262651e-01,1.451248239170642718e-01,2.914334093175303675e-01,-2.033747538595801485e-01,3.556259698500464084e-01,-3.803917921271900426e-01,8.867550246482119869e-02,-1.266416185271397876e-01,3.886005535280255274e-01,4.789674985133264284e-01,-5.539203072527938698e-02,4.801247910580002665e-01,-1.317353769834692934e-01,4.093904560316523611e-01,-2.913350670813539822e-01
3.481505456097078732e-01,4.865833910533086670e-01,-3.554935153495115685e-01,-4.637729921933253507e-02,-4.395622545687226101e-01,3.335209257553965467e-01,6.367095695997292137e-02,2.995870500561175209e-01,4.742028738769351048e-01,1.803766868759832664e-01,3.801265300235107114e-01,-4.696920284737340912e-01,2.892515875057191099e-01,4.302304874484560449e-01,-4.103713773340946225e-01,3.747394059679032274e-01,-4.669424741179464822e-01,4.844866681674931952e-01,-3.757853937215873130e-01,7.203495119296826621e-03,-2.706600030700723192e-03
-2.285612239305364890e-01,2.819740736023564898e-01,3.112513241741774253e-02,-4.832234901065498023e-01,2.991915087948450735e-01,4.016205443791734941e-01,1.669691917974587825e-01,-4.411567568317157906e-01,2.539967984880374119e-01,-2.332725474257691389e-01,-2.075710046399355246e-01,-2.572935048945970138e-01,-4.607379053052615969e-01,-8.341858564104179252e-02,3.615209623311356757e-01,2.812199541683583007e-02,4.163196751380246474e-01,-7.300690593095465752e-02,3.865843312685049993e-01,-5.262617791794509392e-01,-5.438435129241661059e-01
-2.560706089406770136e-01,-3.413480878865566281e-01,3.944218520442933640e-01,-4.984827327911923178e-01,-5.539632560372496906e-02,-3.879299683526904463e-01,1.802155888668846295e-01,-2.857342744971799187e-01,1.158099282782618922e-01,-1.489535577277915634e-01,-1.613398029931212285e-02,-1.014454331707077550e-01,-3.790264521377385565e-01,-2.375575333124093358e-01,2.472924456663847803e-01,2.892211815272294761e-01,-3.748737031328412961e-01,-5.148341459448523283e-01,-4.209838140094289138e-01,-2.952468147781053820e-01,1.829499230065516693e-02
-3.259799698434707182e-01,-2.391130761422920747e-01,-3.372792638759896100e-01,-2.227283835447424198e-01,-3.076208973116512646e-01,-3.922432326192064611e-01,1.861863465687123853e-01,4.378806337129385190e-02,2.277792585993375918e-01,3.708650827647241854e-01,3.985539978570309394e-01,4.403448023387849797e-01,-3.267899896510487179e-01,1.236987803103038047e-01,-8.872837750131064294e-02,-3.211948340656487488e-01,3.411542751328887624e-01,3.645056953672069500e-01,-2.063832733905714700e-01,-2.040297717608766104e-01,-4.524719415149470736e-01
-3.323475732540508987e-01,4.455849238210750629e-01,-5.010497451165096816e-01,1.978775127548034751e-01,-1.095489964803510186e-01,4.331782613680762450e-01,2.766587068166503349e-01,2.988648366075373763e-01,-6.438163152733401666e-03,2.468796965056694881e-01,-7.757503102114568505e-02,3.561395778486109998e-01,3.343431157106295237e-01,2.104556136547652556e-01,-7.340763176093689779e-02,-2.122875871364723332e-01,-4.569799169618666834e-01,-4.473757223138030703e-01,1.083714357315879867e-01,2.380992898310411165e-01,-2.797420688147377876e-01
3.902800660426238299e-01,4.990236492524902784e-02,-2.919251936134724112e-01,2.068821111624473130e-01,3.065682600482792508e-01,-5.789650375072441513e-02,-1.464505429601050679e-01,3.347246337522702953e-01,2.938361042273651136e-01,-1.131575292274041716e-01,-4.000990487094293058e-01,2.352934917349380206e-01,-4.182850294823876047e-01,3.733908450063611606e-01,1.792502011107720838e-01,3.076752177552047884e-01,-4.740786399892652631e-02,-6.490807151242432294e-02,-5.319700542667534782e-01,-3.548564678213608770e-01,-3.360386595483926819e-01
-3.379890670371102357e-01,-3.734826276947760260e-01,2.725969284436449702e-01,-9.411182626987392441e-02,-4.523603508714352794e-01,-1.441896521384571084e-01,-3.004821097720192236e-01,1.394304455057082948e-01,3.093867719605573885e-02,-1.450056657891461986e-01,-3.822082475339459995e-01,3.828710127198668017e-02,-4.777470110234522394e-01,-2.444193828147002423e-01,2.045888335408937650e-02,2.020510549653216636e-01,3.138024999296485373e-01,-1.936938295377592656e-01,1.973891211491965170e-01,1.359618446584743567e-01,4.572207959991291260e-01
-2.936951553528461753e-02,-1.109773703786570004e-01,1.877787768507313271e-01,3.785260827439321796e-01,-2.633132758088022607e-01,-2.748209903596666726e-01,4.081681247033100979e-01,9.172901847291430044e-02,-2.469522906669274070e-02,3.436561878686999472e-01,-2.971035952541454805e-01,-6.210428847600174551e-02,5.682491126787606039e-02,1.806926731880241777e-01,-3.753972325844756597e-01,3.804316547457110564e-01,3.690132820693808324e-01,2.026723139340196305e-03,8.331417815138043859e-02,4.650932949890742574e-01,1.659884677666528530e-01
8.121401788734720906e-02,4.122486616497184619e-01,7.645073781748183694e-02,-3.583437546704530408e-01,4.574624413938240264e-01,2.578070427677345289e-01,8.533932565256420466e-02,-3.370080095045328017e-01,3.768149403949934695e-01,-1.845004867095409729e-01,-1.332368418462594739e-01,1.598933483541172262e-01,-4.075644796200964537e-01,1.741700496594722133e-02,-2.962138553401404972e-01,-2.576893341594008735e-01,2.381881534355928531e-01,3.051776523071251801e-01,4.962862487532875844e-01,-1.352108134490400404e-01,-3.444240055198866668e-01
-2.962586535009235911e-02,3.239777847255594090e-02,9.901410141711175505e-02,2.738841424884858600e-01,2.716613737818065477e-01,-1.536632442888860306e-01,3.885820247019298179e-01,-1.466206340790441875e-01,4.953048797798514230e-02,-4.120005473058068746e-01,-2.456482840298908690e-02,-3.288072315749667185e-01,3.404287849780273101e-01,-3.514947624602445253e-01,2.877365354376479334e-03,-4.157117533483659644e-01,-2.918466164126539142e-01,-2.290791016139365754e-01,-9.254169266109606162e-02,2.395681167106880338e-01,-2.522523007776915072e-01
2.315791051437302295e-01,-4.852792519311356911e-01,-3.966863390048824822e-01,-3.703296507953582339e-01,2.976866615198934252e-01,4.225704573812070763e-01,2.181550992068416184e-01,-4.647601463249885767e-01,2.281420336727192633e-01,-2.308854038026156019e-01,-2.788533552058876652e-01,-3.013017707911199577e-02,6.262199868641191158e-02,-8.658729944793182309e-02,-4.281600386904478306e-01,4.919034349317116805e-02,1.247660519374927529e-01,1.603693735316926161e-01,7.874153798755867406e-02,2.541765144404619092e-01,1.869614441055171272e-01
-2.084650770744363446e-01,9.047798203842979947e-02,4.465934288305159483e-01,1.058280871385576111e-01,-1.016890865773024538e-01,-1.792072214482528514e-01,4.895921029302853222e-01,4.848378895149169643e-01,-1.370139794068774841e-01,3.883300686900444942e-01,4.118766914159345816e-01,1.729830816529909221e-01,-1.532638535276679148e-01,2.337558969081512117e-01,-4.299178857109545726e-01,-4.380874076183113863e-01,4.973267906598939914e-01,-4.135208259152635679e-01,-1.155129945433903682e-01,-2.314608964189005247e-01,-1.293937818706742959e-01
2.629391212001472300e-02,-4.840461155146981165e-01,-4.654316019917292824e-02,-2.277831273618910468e-01,-1.313093026150390953e-02,4.728434804789612977e-01,1.843919408795074988e-01,-2.577242765227904520e-01,-1.439263125742143157e-01,-4.294714346878173994e-01,-4.234127128812784635e-01,-4.081384135252635326e-01,2.948669590685243924e-01,-4.440028210907693285e-01,-1.415444437772611086e-01,-3.990651365753423718e-01,-2.828394477253120542e-01,6.655722121611986307e-03,2.221563247817205655e-01,-2.777088315867117241e-01,-2.616906796082304476e-01
-3.936945480646092399e-01,3.254209586995487902e-01,4.409717664963240247e-01,-1.305163132799036230e-01,-2.365459113053044737e-01,4.229251245927197478e-01,-2.604329339498335713e-02,1.381792996271634932e-01,7.611874522650551034e-02,-3.326928229768457701e-01,-4.511768858259249670e-01,-8.305654134485170037e-02,-2.767757094717121502e-01,2.276706410334681518e-01,4.021597316380204346e-01,-4.938186504856281744e-01,4.045055944494317934e-01,1.821955169442256162e-01,-4.384098536909281085e-01,7.688655572537422822e-02,1.179688818285266338e-01
-2.721102213906544387e-01,-4.277648055163371099e-01,7.594620564694053166e-02,1.195667303295594730e-01,-3.872312453462155579e-01,1.831750955400098801e-01,3.515589312322386362e-01,3.093590477583348930e-01,-1.337298577993171755e-01,8.651910383890900474e-03,8.796869805641492623e-02,2.693549642918804943e-01,1.075976196424125730e-01,3.907825145537170003e-02,2.967539972078016008e-01,6.109588963597775702e-02,-3.258558773817686882e-01,-1.456613901106033060e-01,-1.891120444142426471e-01,2.507328460749279949e-03,3.807126815915237161e-01
2.449776781151452240e-02,3.328089754550392909e-01,2.697779354674691432e-01,-4.762740088581434161e-01,3.176352629540055150e-01,-3.879118241011765833e-01,-1.186790317068122935e-01,-2.577790329696372784e-01,-1.622551404273889497e-01,-1.491948635761508601e-01,-1.034672448147266888e-01,1.369160079886653780e-01,-4.552529948232353352e-01,-4.005456795183667262e-01,-4.972259393992398691e-01,-1.022522149560332189e-01,4.659933240236225349e-01,-2.628427915717779229e-02,4.253867609994864685e-01,4.561276171896868625e-01,4.455718487583679166e-01
3.586647798529552650e-02,-3.198970380133178693e-01,1.475311846479020472e-01,1.066349135605559467e-01,8.767939726847412407e-02,4.309070588172868033e-01,-3.009608466600831589e-01,2.507639932501444791e-01,4.660811758167354157e-01,4.198827836073743547e-01,-3.615673431814674377e-01,-3.045542372208374093e-01,4.669663426857355581e-01,3.647209743828011552e-02,-2.501660044862356880e-02,-6.913706318531512296e-02,-1.857577826215294284e-02,1.412618813321190880e-01,-1.061338676548913285e-02,-4.551044765353570165e-01,-9.207025695706964885e-02
-4.635063486319591086e-01,-4.152720286370498726e-01,4.540710960160649901e-01,-3.299010193195022200e-01,2.434003370204378958e-01,-3.480167674407475681e-02,-3.455056344329537343e-01,3.527452840420562397e-01,-1.512401779798406565e-01,-1.521812454352555743e-01,4.372610067530247613e-01,2.270098127480214556e-01,-6.939356847290054087e-02,3.263789366318864404e-01,9.256430283254618585e-02,1.333317896699601768e-01,-2.878904913910136365e-01,-9.690918362949091369e-02,-1.875360987098285970e-01,4.748859601167498279e-01,3.546366253923675660e-01
-6.946640361896133653e-02,-3.624948188587713838e-01,5.902716475288651704e-02,-1.075624103602405013e-01,1.883234229404535665e-01,9.621650653289136323e-02,-3.377665625816702599e-01,-8.057670944839864791e-02,-1.546937811463066498e-02,9.861690771755177165e-02,-1.884843598151584865e-01,7.926995628303469543e-02,-2.626672960423330760e-01,-4.210366163512154203e-01,-1.493182178400937199e-01,-2.556251338057951572e-01,3.949568212741290107e-01,1.169487937748474315e-01,-4.323270877432697779e-01,-2.895837309530442938e-01,-4.684927693688430983e-01
1.597399801874359315e-01,-2.935115914163059503e-01,-3.405997873043450364e-01,1.514275796221818127e-01,-1.749125629583422048e-01,2.068850902745930642e-02,-4.064345667005436202e-01,-7.916064202311522136e-02,-3.296821968634028321e-01,5.642831597383577563e-02,-1.115442043804589778e-01,5.330124889903482821e-02,4.347689864232976986e-01,4.618892115204976667e-01,-3.693068513187119928e-01,-6.705562077425757106e-02,-4.902092784282651716e-01,-4.531670044525910601e-01,-6.363140903896276346e-02,-1.940483968445792795e-01,-2.601228506762153225e-01
4.280857411616162400e-01,3.181180018508741325e-01,-1.366048806650421443e-01,-1.491652135607421936e-01,4.901173944216836165e-01,-3.284558670904195732e-01,-1.662453954594569072e-01,2.810687652090369526e-01,3.433217924298504614e-02,2.087352905321917806e-01,-3.337422149065780164e-01,3.469730017097381602e-01,-2.488134689343831640e-01,-4.221638712863349241e-01,4.220882601437901949e-01,-2.872836734259118230e-01,1.077394761937350808e-02,4.514038037758866806e-01,1.578291197181251257e-02,1.395309948335687611e-01,3.595339597461155723e-01
2.125535159719821876e-01,-2.158153815366680751e-03,1.353846425857989713e-02,3.260582181517991951e-01,3.059744243944381159e-01,4.056138151047938289e-01,3.459864538391577149e-01,-3.752707235074940750e-01,-1.309334394318500405e-01,-2.284459432774045284e-01,2.515041606297245894e-02,3.705089940683013450e-01,-3.469825017039638443e-02,9.032722796595460402e-02,4.622149911299802683e-01,-4.271729092866520805e-01,7.002971284588270506e-02,-2.238696533953601908e-01,-2.036490503844726463e-01,2.582553269924820483e-01,3.297989525849046033e-01
-3.412359704837836238e-02,-4.770138306016526997e-01,-4.423620263690202226e-01,3.299304467696139165e-01,4.817118022312535941e-01,2.223370268596396859e-01,3.833087806331171299e-01,-2.747958994948084821e-01,-2.145107837585659774e-02,3.152992290187125457e-01,4.806214417858434840e-01,-2.030488917176235253e-01,-1.109098632232764642e-01,2.619053878908018662e-01,2.637770917254879666e-01,-4.439785424176702633e-01,-4.482494790195276080e-01,3.433243720860846837e-01,-5.060823904515611149e-01,2.241178786369495690e-01,4.355935791984625327e-01
2.050199019748686138e-02,2.848758029461512797e-01,-4.309286973927966002e-01,-1.399261974191558233e-01,3.783396996058445150e-01,-3.690348143878944831e-01,-1.792775152533067351e-01,-3.498215262798102243e-01,-2.023453691913053576e-01,2.832859653768632913e-01,-4.213999881117241331e-01,-3.489452824774116890e-01,4.896951579423677869e-01,9.402749776696786577e-02,-3.010250557665615223e-01,2.851051392466065204e-01,-4.183316376225313937e-01,-4.289066341650693559e-01,-1.451012185119148201e-01,2.275273973511542092e-01,1.595926056583778230e-01
-1.619925089146275476e-01,1.171102897969418938e-01,4.663834035350803431e-01,-2.701943653125594147e-01,-9.966113162226095806e-03,-3.726340256163305220e-01,-1.032190413764707826e-01,-4.622017839559542374e-01,2.950426576687322777e-01,1.376037740974914436e-01,-3.156835140708575960e-01,-2.925630930566899823e-01,3.232356656274087414e-01,3.951241976716705073e-01,2.777717763794957939e-01,4.026100271663985986e-01,1.517456674234551606e-01,-3.150547274693827338e-01,-3.955952925281787658e-01,-2.650884759502073473e-01,5.670842049749800357e-02
2.983899818103324386e-01,6.711252448703361462e-02,-2.140527030766226357e-01,-3.481129392876040618e-01,4.328842436700353624e-01,-1.236271701854588512e-01,3.174300927140006334e-01,-4.131198616073326613e-01,4.354299731046695765e-01,1.378802837612341237e-01,2.705046310592921222e-01,3.039081936408314921e-01,9.805616955923746048e-02,1.762996121111607695e-01,1.011419589754905951e-01,-6.286596804293009821e-02,1.649529164352400989e-01,-9.973668793879600369e-02,-3.772790682211292768e-01,3.214701335637450974e-01,-9.329076271702778367e-02
4.841470422684937547e-01,3.715085510864323814e-01,5.318655898854354053e-02,-8.833843310254375913e-02,8.959526927557258380e-02,3.666805121371722320e-01,-3.637350228545907505e-01,-2.527631784717796481e-01,4.336070776240915081e-01,-1.403088940128476292e-01,-4.760100399823630202e-01,2.308456115581248025e-01,1.461954341376162370e-01,-4.601770825960252442e-01,4.830158492897456690e-01,3.309213647358923149e-02,-6.103022660839905328e-02,-1.796080494212936585e-01,3.575919118004901032e-01,8.119985273166177575e-02,-3.509416463595902980e-01
1.232490955797169718e-01,-2.535177192156233827e-01,3.114707687826898108e-02,-1.948761641016370505e-01,9.533282268683497540e-02,-9.663341789401649895e-02,-4.695674606284191976e-02,3.745788892130319514e-01,-4.613510029011983482e-01,1.494459272225447111e-01,-1.925216690406176545e-01,1.586842152155873986e-01,2.805061407624208636e-01,1.004356485026081797e-01,-3.678499628716132008e-01,1.632098841784501708e-01,2.580013062096990148e-02,-4.336879396762610139e-01,-2.487374387250313457e-01,1.684327590086793225e-01,2.590228928029246203e-01
-1.977409629242589117e-01,-2.796880487595022544e-02,3.626341002021526982e-01,1.238433746967757959e-01,-3.355406503070093027e-01,-4.675528524820524168e-01,8.446762928595599740e-02,1.922065548810590052e-01,-4.444926601497568575e-01,1.648441513467162056e-01,-4.308223112931142684e-01,-4.256386245799221313e-01,2.771774307136342097e-01,1.452912734468618516e-01,-1.954796601431747494e-01,-2.804486212170972381e-01,-2.171936981457107951e-02,-5.049638290525986228e-01,1.442810980754513292e-02,-1.410470492736567438e-01,2.884867607505594081e-02
-2.296298232017043167e-02,4.597611856092482241e-01,-3.615636976476512277e-01,4.509480957149982761e-01,-3.378131450486045462e-01,4.020758125564748153e-02,-2.156685539549076103e-01,2.535627671065456834e-01,-3.824212513118635526e-01,-3.818781417046998583e-01,-4.549439608314620465e-01,-4.430280633415972225e-01,8.725530187438802765e-02,-1.482322949243886356e-01,3.485759513334326098e-01,1.029147867374487491e-01,-1.887723268116912601e-01,-1.873614832982639922e-01,3.411565288753781733e-01,-3.198397079393752729e-01,3.300854871605305441e-01
-1.339883569198083157e-01,-1.514447574852380851e-01,1.208137227402062280e-01,2.323415917105609296e-01,-3.896649281028503053e-01,3.228000167812828947e-01,2.569879642393879116e-01,9.542243228504837527e-02,9.219581299293780341e-02,4.085754423536084867e-01,8.294472974343393423e-02,4.467948255777571820e-01,1.532035060205969024e-01,4.503133832680106807e-01,-1.328632047317021836e-01,-3.529202953824612243e-01,-4.410265483179727219e-01,4.218032625347426512e-01,-6.176622538468812956e-02,-3.943592532404913142e-01,-4.637296674498754268e-01
-1.359907976804807239e-01,-4.603043696307235200e-01,2.453941205092572131e-01,-3.847786466501509350e-01,-2.543608289838421022e-01,-1.699253169399753127e-01,-9.233394142370393576e-02,-3.215257975973229154e-01,4.463958957332891386e-01,3.479938293589667775e-01,2.763582450217150210e-01,3.580481536619314342e-01,2.590424864259481263e-01,-4.309517246753697961e-01,3.116820621119679169e-01,-1.779543447298329853e-03,4.397323865670935139e-01,5.086070841019264543e-01,-5.930422677771404749e-02,1.887523581579955007e-02,2.527919003273416676e-01
1.260824061916209493e-01,-3.906120878808069796e-01,4.026688726926576090e-01,2.755143119652703199e-01,-2.208155964687873729e-01,4.186035404353359857e-01,3.312166854561754969e-01,5.201144024525695686e-01,2.032846492495034990e-02,2.197913166785187000e-01,3.659527209222984134e-01,-4.047762599710510445e-01,-1.856370882549115697e-01,2.393571700636602240e-01,1.562186219331502396e-02,4.272678230485973394e-01,2.244728602587328092e-01,-3.980132791011945503e-01,-8.743658463607913850e-03,-2.650519002740724384e-01,-1.001859676212918937e-01
-1.858450608429322304e-01,3.164282511482978122e-01,-4.049107441366352478e-01,1.427788815277168666e-01,-4.592379723809038583e-01,-2.623192072843808509e-01,-3.141535687047343761e-01,-6.648532345063738747e-02,-2.281854277376432483e-01,-1.967305823950855626e-01,-1.077933526261664193e-01,4.696339929691623616e-01,2.221074969875869165e-01,6.793106824123171239e-02,4.036498737454102259e-01,4.485235333622439313e-02,3.832403870210725483e-01,1.999472907149146272e-01,1.537475314880464017e-01,-6.652787028095058508e-02,-3.484742386027476352e-02
2.905763189785770528e-01,3.168800069578645573e-01,3.673570582988136546e-01,4.542416157973055424e-01,-1.010251042839223068e-01,3.200453441450217817e-01,-1.619016751314807934e-01,5.516726785634031016e-02,-1.977470584422892641e-01,4.185637295977027161e-01,2.546902975866779245e-02,4.993071586763603298e-01,-3.232922955848993585e-02,2.384681860054194136e-01,-3.932096296483879594e-01,3.824571660367242498e-01,-5.164907351376043509e-01,1.995275850253312999e-01,-4.284429672058654992e-01,1.904617323920381189e-01,1.972053089953453020e-01
-2.223222540571494488e-01,-1.754238174693980856e-01,1.899178255987760966e-01,-1.221206087266681617e-01,4.353512113137247286e-01,-2.775292767157848117e-01,4.670335800698420803e-01,-4.740809249379566159e-01,8.703574865508163783e-02,1.126249039986389477e-01,-3.831883026282562055e-01,-4.374290677708102537e-01,3.241495470042930482e-01,-4.579511123699779862e-01,-2.514030315361203208e-02,4.525818552694168551e-01,4.725981181438151935e-01,2.501960851259552032e-01,-1.281701037652894504e-01,5.093904347415316447e-02,-1.201559766769878107e-01
4.848648821320687974e-01,2.194616662070608681e-01,3.284773907324101683e-01,-4.197786542832444567e-01,3.345743128239104802e-01,3.571869797510241473e-01,2.144155399180074917e-01,2.520280884106312347e-01,3.706109991241548496e-01,-4.652795127992783164e-01,-2.369784945968093359e-01,-2.255044685531632509e-01,-1.687869668164283798e-01,3.190964800504894061e-01,2.646503858189565017e-01,-2.248681523758879197e-01,-1.361385105159969855e-01,4.448796652119202388e-01,-3.599588133918635857e-01,1.417886836566780717e-01,1.230165126204214726e-01
1.434748145279101939e-01,-2.926229381913889732e-02,-6.954457760197121918e-02,-4.206587742832580967e-01,3.677528610683084564e-01,2.882559809230005876e-01,9.533919966142685720e-02,-2.956994964677645693e-02,4.488032724912237315e-02,-2.760405013709545385e-01,-4.580388170108672385e-01,1.673250969544392008e-01,-3.318370494383900970e-01,-3.234081870923934399e-01,-4.342678216027695548e-01,-3.772600183785282946e-01,1.353196888731581782e-01,-4.312539930528150323e-01,4.232989595572179686e-01,-4.275900046999507320e-01,-1.789585393232923094e-01
-2.638773227828845602e-01,-1.237671739758466338e-01,4.481376189022902023e-01,-1.409338730944563189e-01,3.235533340366509303e-01,-1.747796390855257398e-01,1.833347937135468009e-01,8.010410345733923188e-02,-4.166661289557918590e-01,9.364513259170789694e-02,-3.838882238279296422e-01,-4.618916691503816702e-02,2.256738932162704048e-01,4.438134593722223298e-01,-4.312017321658787594e-01,-4.505371727941169802e-01,1.713008939943197473e-01,-4.953928431732507742e-01,-1.089134219730643685e-02,-2.008336354214925179e-01,3.289949596277326749e-01
2.640171273439245736e-01,-3.368152761150206703e-02,4.200382814571774204e-01,-4.003827044514800954e-02,-1.167460358077185012e-01,-3.767796975895282285e-01,-4.339221336614964009e-01,4.946849968756601990e-01,-1.077302674452248477e-01,-2.137977101429248405e-01,3.462964495202194848e-02,-3.371097386792623052e-01,-1.683440850116512122e-01,-1.254801173252516333e-01,-3.951282026852490081e-01,9.681007983051810595e-02,2.336845055160764462e-01,4.120605775641856261e-01,-4.329788666277940012e-01,1.269412679813262945e-01,3.268117923922959078e-01
2.222589176927399213e-01,3.493947125705607060e-01,-4.370007697919714995e-01,1.848111664092338957e-01,7.629198049824746641e-02,1.226441591256528275e-02,-2.943786380327746421e-01,-1.228287713318705898e-01,6.470294337002231722e-02,2.818993996411385261e-01,-4.143264226567203723e-01,3.169817662656828072e-01,3.543043879119251449e-01,1.149971502363495296e-01,3.169073709419970575e-01,1.777581360524308207e-01,-2.630465957989173154e-01,-4.418579124855838702e-01,3.847846392887048494e-02,-2.739323063513042222e-01,3.783588670705347878e-01
-3.629571884176722996e-02,-2.682873817042903675e-02,-1.013753952369543521e-01,-4.802409018358140824e-01,4.339882634802163519e-01,-8.254666996033055426e-03,-3.116971354395797755e-01,4.028922903258014276e-02,-2.005396647328788196e-01,-2.210560561923081979e-01,-5.158382989106577998e-01,-4.680424242425500481e-01,-1.821045465347541081e-01,-3.002375772740530913e-01,4.563642351532644637e-01,3.132762528428834764e-02,-3.637369774745491391e-01,2.399602136773996142e-01,3.608280108457052049e-01,1.529741255169546343e-02,1.910311596045950189e-01
3.457215961567053908e-01,4.128710080438871000e-01,-2.865998429449175822e-01,-4.637346179599690504e-02,3.173692079907713959e-01,3.143236265328302470e-01,-3.500017749282762769e-01,1.613934732747351886e-01,-4.590045636870645485e-01,-4.728087994782046444e-01,3.441900596897267683e-01,-3.879995608016410524e-01,2.263075338100357103e-01,-2.016620729874342086e-02,6.067979777948957765e-02,2.572189429299223673e-02,1.555864832827916766e-01,2.202104490309950702e-01,-2.378966298320586426e-01,5.982821319756694359e-03,3.977681315454645317e-01
4.468263044630753078e-01,1.594899504078323704e-01,2.536910611936428750e-01,-4.287896660933036008e-01,-3.627135962118360202e-01,4.511297142026996498e-01,-7.722494708664023877e-02,-4.223371940765824895e-01,3.106939267309773434e-01,2.482346479458676369e-01,-3.111847003236839493e-01,3.673602247403064402e-01,-2.390826170759900726e-01,4.534024695642282499e-01,-1.371900690654319077e-01,5.209781652021598652e-02,6.017780419875946168e-02,-9.904933105526652834e-03,4.365339992219587906e-01,-8.709070046082195704e-02,-1.425522893093166266e-01
2.207571502089325510e-01,-1.901997482182529037e-02,2.125610771726151593e-01,3.820922797048575403e-01,-2.670262507733286994e-01,-4.858100862161053857e-01,-1.640051314838683605e-01,-1.043371672686939089e-01,8.624023419427531700e-02,-4.310902516480403790e-01,3.250039742047718394e-01,4.042649656175321682e-01,3.252852842956299173e-01,-3.276602183672769342e-01,8.392225723003456095e-02,-9.295060108906767760e-02,-4.011342947544263016e-01,-6.308917266523547673e-02,8.453860568212337445e-02,-2.744853023599344577e-01,8.105114098262029831e-02
2.971067209304439904e-01,3.549048253215379978e-01,1.083489155989900317e-02,3.263281566950334001e-01,-3.240731507933364841e-01,-3.831436770724517826e-01,1.346597080812895197e-01,-4.781621635525921121e-01,-2.018712196718053242e-01,-3.931152969818061949e-01,4.663427809024629084e-02,-2.294547017374750641e-01,-1.883012536413171678e-01,1.532828743608692090e-01,-2.073942525100756218e-01,-1.190066008818563420e-01,2.473752727972555743e-01,-3.936299852806262045e-01,-1.069022847858370762e-01,-1.410580902639305412e-01,-3.471312362461865808e-01
-2.300236107209146022e-02,1.816884230635378850e-01,3.974382052296676626e-01,4.766671051925751024e-01,-3.251752174684132135e-01,-4.454873150971425111e-01,4.035905557906563357e-01,-2.147628969692158551e-01,2.417353127701430682e-01,-1.741654408454819392e-01,-3.751496525410930594e-01,3.708299767644733791e-01,-3.732693423384024767e-01,-4.795755460969371997e-01,2.798878924499869636e-01,-1.144360414965514411e-01,4.639411084423463172e-01,2.858629571106071632e-01,2.416896044886152062e-01,4.676343528270466843e-01,5.069998562663816100e-02
-4.783464620884999019e-01,2.108523255503922389e-01,2.819793953617109605e-01,1.506690687635290314e-02,2.994133122722512086e-01,-4.121352483660053329e-02,4.421250492079705635e-02,-2.420889807662882920e-01,3.920764307335512511e-01,2.604614735430093031e-01,-5.910711737998852744e-02,-1.112414797767766750e-01,8.812844783193170273e-02,-4.402683932553088098e-01,-1.976999486160131159e-01,4.361965173403909574e-02,2.825596174671365368e-01,4.638076677319617480e-01,3.885129370771248647e-01,2.429247965374008444e-01,-3.472421788701643419e-02
3.891315514186682867e-01,7.467732851826017204e-02,-4.400914748096790285e-01,1.294254414731340064e-01,5.303865148997112255e-01,-1.737326295884867866e-01,3.769874604348293357e-01,1.957425600967122870e-01,-1.997211335376377628e-01,3.716932570956146820e-02,4.070379077097593945e-01,2.400959869064119290e-01,1.535479727221824575e-01,2.712278943607026593e-01,4.844801786896318213e-02,-3.784233240428031553e-01,-4.285921667827976567e-01,-4.816072244250260703e-01,-7.450263552403933731e-02,1.548590050701767473e-02,-1.025376852898612912e-01
-4.327535912965643772e-02,-1.041297560942476969e-01,3.170529737309814300e-02,3.220173797278106931e-01,2.355122021017691525e-01,-2.847930715197710683e-01,4.317376331573035131e-01,-3.835689525731554306e-01,-2.046761737498997979e-01,-1.381978303352003612e-01,7.267721649341923884e-02,1.562037154055697097e-01,4.857746981971007849e-01,2.445920397536948399e-01,-1.532212203251217264e-01,-3.400256238625379290e-01,2.921770057433885626e-01,-1.957389895760902956e-02,5.473193078055069716e-01,-1.662560755006413094e-01,-2.515966833231902955e-01
4.391259190181889815e-01,1.679823893633826393e-01,-7.458077549806158002e-02,-1.824611301666436147e-01,2.483971965380555313e-01,-2.329822630536348971e-01,-1.276869038777134202e-01,1.457544166558007448e-01,-1.787752857082439140e-01,-1.074392835898526494e-01,1.122114302933299584e-01,-4.073422967794791960e-01,5.011192061671027043e-01,-2.555718855390591293e-01,4.007291209407460308e-01,-4.988111112038631223e-01,2.660861438274795265e-01,-4.299408530628139880e-01,4.655397584730019966e-01,3.965324677282056620e-01,1.071119443908293972e-01
4.470490802176060319e-01,-3.340139671559454460e-01,3.782511192218034751e-02,-4.696214347501007635e-01,-3.421797324693947040e-01,3.885573370201143018e-01,-1.951580244163653721e-01,-9.276777096595018035e-02,-4.770339356552165677e-01,-1.713489379575853233e-01,-4.900840769187238544e-01,2.905863430385457469e-01,-9.172488144869507531e-02,-4.798277963249146238e-01,-3.471483634309745214e-02,6.108047237817276071e-02,-2.043830784571363801e-01,-1.847996521726397723e-01,-6.466021699308544847e-03,2.906443667792601993e-01,-3.291308642879541002e-02
1.214916841193857400e-01,1.144661700250721864e-01,-2.417616954018994568e-01,4.043809145218291157e-01,-6.321029643487359462e-02,-1.720384513086979650e-01,-3.752991656070842064e-01,-3.196022675143807001e-01,-2.795527846062034749e-01,-3.314092008669264899e-01,-2.971832047847284830e-01,-3.937284502350887894e-01,-2.637153420203255383e-01,1.152125223947040172e-01,9.979483778422020349e-03,-9.290644714598976506e-02,2.992429834399530919e-01,4.440633655209576952e-02,4.901709131567639766e-01,-3.776301681063879978e-01,4.991369001269391203e-01
4.265534445053217327e-01,3.670125440932445748e-01,6.741740130258740138e-02,-2.581580822618522730e-01,4.246810334886605420e-01,5.659325455173835895e-02,-6.150803326974275259e-02,-2.374539845112957903e-02,-2.408045609067548803e-02,6.494385059188761966e-02,3.160965854509261708e-01,2.663940396928931031e-01,4.701737000629424013e-01,-6.386827097650636664e-02,-3.658069898482449456e-01,-4.944145762026265767e-01,-4.544209334165437153e-01,4.848707145830480902e-01,3.925684958118443868e-01,4.506694642248673666e-01,-1.012521811886730183e-01
2.910124802083198792e-01,3.351048877488813638e-01,3.930849555686906083e-01,3.458123240165409396e-01,5.726939620617978871e-02,9.513048662399305189e-02,-3.662438191485969385e-01,-4.789172918540569035e-01,-3.279040959181751813e-02,-3.900820595097718724e-01,3.728984971110851365e-01,-2.393050853922625842e-01,-3.978638191486643660e-01,3.782115233029617607e-01,3.837421606369337823e-01,-1.154928692753345865e-01,9.141171593844452103e-02,-4.184701593867193314e-01,-1.759980752480442834e-01,2.839456215402939021e-01,-4.113325061931092930e-01
4.826261683020509063e-01,4.466701625632433226e-01,1.403854418562158757e-01,-2.440691975292628157e-01,2.382474339995020451e-01,1.850151235750803610e-03,5.237703625207280889e-02,-4.664458103184722093e-01,4.079099899806692409e-01,2.300279690246893882e-01,2.612187715714214820e-01,3.762537936144883521e-01,-4.348799048806888806e-02,-1.562261383006403603e-01,2.131858235620889275e-01,4.282050334700222560e-01,-2.532075759281794403e-01,-4.955439570786810410e-01,-1.078152572933319814e-01,-3.060418578309966331e-01,3.774910857690456090e-01
4.049192924716117914e-01,2.019585332852508464e-01,2.768371823740454762e-01,-2.254366763681109886e-01,1.043527229340924234e-01,4.657068445200671647e-01,-1.966300722045864757e-02,-4.996630858012667264e-01,2.247116485058375246e-01,2.459236472534669926e-01,-3.492969850606036375e-01,-7.440402986113198169e-02,1.913902944212268475e-01,-4.133889214200891504e-01,-1.091500077303801143e-02,4.661773712078230436e-01,-3.864260975447682961e-02,-4.017193179797453051e-01,2.816226193615592802e-02,4.870087916788493065e-01,-1.166808222939759720e-01
