2.903778310143655950e-01,3.044619138656995405e-02,-4.320583242292587722e-01,4.687107525902586835e-01,1.183376083834196402e-01,5.290537993443841236e-01,-1.588695402510633681e-01,2.836555776587864619e-01,4.221140918858980462e-01,-2.275170956107677445e-01,-9.454404434955195058e-02,-1.056799738431093844e-01,2.858193183887136057e-01,-3.613338051973870035e-01,-1.668506381556416340e-01,-5.328861000600466913e-02,-3.314799477288624674e-01,-2.016478878932520535e-01,9.614052721665314327e-02,1.522561212759412919e-01,5.357620088380744133e-02,2.116999209111459779e-01,-9.509378704667813265e-02,2.220671426914815894e-01,2.147553010179060473e-01,6.976165040969581344e-02,-2.454878581537296989e-01,-3.142211238608513812e-01,2.740151194855695582e-01,-1.359220312659618901e-01,2.346897152686598653e-02,6.333611570493727916e-01,2.604995387615500202e-01,3.310844548316080882e-01,-4.864424265022666144e-02,-3.267628918555703366e-01,1.876545272405950870e-01,4.828484998053885202e-01,1.408682382141379086e-01,2.897900828688959041e-01,4.879250916471796762e-01,2.365041803519562502e-01,-3.474025177818245713e-01,5.175449932178169954e-01,-5.017866035672290392e-01,1.584368012181591387e-02,4.671242916629198549e-01,-3.305666174550315195e-01,-6.239636021455517018e-02,3.753404911885272477e-01,-3.678529739658181197e-01,5.427603042205564332e-02,2.300978269283885658e-01,-2.535211894080022788e-01,-2.868483786861342200e-01,2.264610371550460355e-01,4.356467104891026398e-01,1.043645496408811685e-01,-3.808618149135494235e-01,-2.320594567453650725e-01,-3.217594015920292871e-02,2.008664137249495107e-01,-5.153915407259513498e-02,3.991119594667704162e-01,2.996343665480422080e-01,1.715316118083494989e-01,2.876751811001400649e-01,3.718675675554235505e-01,-3.962006321572790202e-01,-4.858387220751116953e-01,-5.204813903567487854e-01,2.101413036711901050e-01,1.818442684358566319e-01,1.540697102037005273e-01,-2.343384063605601919e-01,3.433800207298956519e-02,-3.303701250982309379e-01,-5.139405609692376115e-02,3.520765554409713838e-01,-1.604727435820107739e-01,2.945949146209104752e-01,2.137106154181537543e-01,6.606328559920525423e-02,5.582646640102264524e-01,-4.497925992292746145e-01,-2.707019785638347664e-01,4.079684417180470118e-02,3.019329800338439451e-01,3.872773924670790402e-01,-3.511750666074652250e-01,3.942855534650903659e-01,-4.643469526729522845e-01,-1.503463986359964977e-01,1.791859624385742644e-01,-2.818795471159140642e-01,-5.376134577767727185e-01,1.274092288735175459e-02,-8.934803318381877302e-02,-1.909564005772340090e-01,-4.722290941791312813e-01,-3.304630524398231572e-01,1.965270720959738648e-01,1.612491924896118922e-01,-6.600537669179852573e-02,-4.259775221968019054e-01,1.194660086239331676e-01,-1.345647904527630390e-01,-2.718001209007289698e-01,-5.179709974449013821e-01,4.927442741720158281e-01,-4.768723273810394625e-01,-2.976947015403699215e-01,-6.041588618735857508e-02,-4.116417076508631645e-01,-1.642378477155755426e-02,-1.370997988930036660e-01,-2.657763059514052784e-01,3.452855094816255632e-01,-3.341710042526819802e-01,-4.529557454199592548e-01
-3.651597277661711161e-02,-4.020544303926666951e-01,1.888834866675535851e-01,6.397859721589391202e-02,4.138437835678033805e-01,-2.699995475552183222e-01,-1.597824310628981059e-01,-4.520355160665996408e-01,-5.028420460460811259e-02,-4.395415402424721618e-01,-3.258072074714867261e-01,1.237484832878584483e-02,1.723167778949983575e-01,-5.080227636018390669e-01,-4.198111573413633169e-01,-2.727295405033537956e-01,-4.970567485195294677e-01,1.274415006940939898e-01,-1.923610652484804007e-01,3.360105980737269626e-01,-2.430939024800579940e-01,-3.067982620061552312e-01,-4.792815436079927993e-01,-1.245848698763165480e-01,3.412487599361724855e-01,-1.957170371233366568e-01,-2.193265251263239179e-03,-2.689273369916916345e-01,-2.879458290313055557e-01,1.171845846694916371e-01,-3.450629475164073146e-01,-3.983004677372473101e-01,1.391167335212619427e-01,3.228723592007284870e-01,3.840752326379735515e-01,4.510087957928217151e-01,-1.491467817872305646e-01,4.731765616600812352e-02,-1.122097344531698682e-01,7.654779134798228579e-02,-1.247631331536025318e-01,5.150450194215469013e-01,2.449709046808634383e-01,-2.573314087208483647e-01,-1.882257972508072918e-01,-3.421984604924198647e-01,2.996841147767382307e-01,6.683688033201760914e-02,-2.612582237186331091e-01,3.279390711291203797e-02,-3.180769205943412281e-01,3.457237452364198549e-01,-2.255375066671542750e-01,-4.542407161672917248e-01,-3.217510088412450231e-01,1.592280183889973055e-01,-5.404163358831989145e-02,1.523312403264949211e-01,-2.049985717891256443e-01,4.062710697115996528e-01,-3.611876599611126837e-01,-2.523628088421253635e-01,1.438414044544132631e-01,-1.878552591135098093e-01,5.543791331408252226e-02,3.595017453790591566e-01,-4.390027748491829307e-01,3.946534075122177798e-01,-1.455552893060985398e-01,4.493867899079621586e-01,3.205090418517569373e-01,4.364877965974384710e-01,-2.152024219156122853e-01,1.370602919109228934e-01,-1.867344921598066421e-01,1.612863365331355589e-02,4.732918431632197609e-01,3.643732555159746589e-01,-8.572546508061494250e-03,-3.368926744680235119e-01,-3.432797095322409620e-01,1.522944423156552263e-01,1.540683241613883536e-01,2.747160112454240521e-01,-5.474855690285886922e-01,-1.405346144203572026e-02,-2.256049310873529945e-01,3.928423151853419060e-01,-3.275574273128413760e-01,4.612280421669528452e-01,4.836734413956628731e-01,6.448950083622988216e-02,2.722752429937622121e-01,3.160039491471439699e-01,1.893881149014735865e-01,3.539351488194251161e-01,2.668908410035588166e-02,2.568207233453831950e-01,2.947772999316429221e-01,9.737247088712452925e-02,1.121546027387633898e-01,6.615303705126074352e-02,-2.161837646916950073e-01,6.246613421856810067e-02,3.090332862501566358e-01,-3.434403929790513232e-01,-9.212573843943075436e-02,-4.558456249807654181e-01,6.887292314753688111e-03,-1.833334786915616355e-01,-1.751131554680856461e-01,4.271695033557007526e-01,2.663621349140130601e-01,-1.370215041205767870e-01,2.997796069904855032e-01,5.592175388628907173e-01,-2.422412332624740705e-01,-5.038358372994565793e-01,-3.073255462233360213e-01,3.676041384915730847e-01
-1.288120559034868218e-01,-4.028774424154022565e-02,3.097845640347961504e-01,4.656184923201298620e-01,5.144723530886826657e-01,-1.688421256721633068e-01,4.202974387741254675e-02,2.261613531595836057e-01,1.276877448397617798e-01,2.162406476332817129e-01,-2.120256297231074005e-01,-2.726673335830458456e-01,4.956864822071372911e-01,-7.223843529794575502e-02,-2.881046842347542158e-01,2.558410248682112531e-01,-5.951991876447708663e-01,1.825571964099747257e-01,3.484495031251497177e-01,3.398801779592711680e-01,-2.250840234004396478e-01,-8.541100598129018617e-02,4.836409678456349281e-01,-1.319412733989540898e-01,2.545753575107605471e-01,3.403703190420730995e-01,3.354906681086349818e-01,-1.366107086769323964e-01,-3.209008057203416309e-01,-4.609186997498089244e-01,-4.113249186788652811e-01,3.063787606601049013e-02,4.854143170215859393e-01,-2.123273043863791176e-01,1.952497953236978848e-02,2.331277385426187287e-01,3.293728624627330348e-02,4.609791804750115740e-01,-4.748470248803998706e-01,-3.023224390339726009e-01,6.106425174374758846e-01,6.724809844304058953e-03,4.280803038275333705e-01,4.180081749719365830e-02,-2.424024885550836728e-01,-2.029203453966930415e-01,2.600409604242200912e-01,2.892225716869418761e-01,1.480030189006900365e-01,-1.722260995019588570e-01,-4.052616746922509394e-01,2.776455929285263080e-01,-1.387165057404916024e-01,9.633563357572405561e-02,-1.092683867756472915e-01,2.124683664087165247e-02,-1.815685993685283717e-01,3.816767474436610907e-01,-1.903140414735019492e-01,2.066910664596193214e-01,-4.725159366389380389e-01,-3.334500543891716906e-01,-4.545193957618043901e-01,-1.026323510963142588e-01,3.040768679937290719e-01,-1.678623592268176645e-01,-2.665100300255821356e-02,7.407084411851753980e-02,-3.021497616294067656e-01,-9.479101754889247833e-02,3.688132182271235404e-01,1.730045966480966979e-01,2.247885785456340546e-01,-2.169260184764842669e-01,-1.308923412662373748e-02,-7.055630441536685227e-02,-1.715741237244038375e-01,1.936639802912019925e-01,-5.027829449431603370e-01,5.179281560339887847e-01,-9.409913768814147372e-02,3.912504651724482349e-03,2.099996788434625172e-01,1.222186607762503624e-01,-8.146367133485607481e-02,1.925696893407733701e-01,2.320315344267999125e-01,-7.561319154087697836e-02,-3.213477505864321127e-01,-3.173379832889286489e-02,-1.413908020211360472e-01,-1.720815625238740210e-01,-3.409999691485950390e-01,-4.088560547819891089e-01,1.507301330822951452e-03,-4.051083797331117009e-01,9.361656587545123809e-02,3.143525816898450759e-02,-2.610677903099633546e-01,3.791073152681068148e-01,4.828298674085389902e-02,-3.761401774329092285e-01,-2.319628679135743721e-01,1.821872031919653800e-01,-2.619625705044590358e-01,-1.663586532881185520e-01,2.486191338761588043e-01,5.248483146585496417e-01,-2.560508953972538415e-01,-7.085707644872141220e-02,2.221908011840936503e-01,2.365647486293960822e-01,-4.446662992526405622e-01,3.949647480844991065e-01,-4.732781641935168704e-01,2.742342556962203415e-01,-5.450390029929499253e-02,-4.117982754068339468e-01,-4.412780293000944098e-01,-4.910976626057084182e-02
-1.289429340221891207e-01,-3.231467390402077422e-01,-1.416968899607516097e-01,-1.255793189766822582e-01,1.224780596988918752e-01,2.738812136244966888e-01,-4.895399083371480553e-01,-3.730394040238106390e-01,-2.022304215895333601e-01,-1.821606254024873278e-02,3.783643326812868163e-02,-1.145526889198638376e-01,-1.506681677602635383e-01,-4.589608754600842389e-01,-1.949936984824178487e-02,-9.935369938132468381e-02,3.541189755402151780e-04,-1.124236138373418403e-01,4.493645540534828564e-01,-6.486215259639915853e-01,3.691186968543742064e-01,-3.364743992515603077e-01,-4.534058496564696283e-01,-3.140809143928817160e-01,-4.072561296870464975e-01,6.036811960179262471e-01,2.844349137036845110e-01,-2.692144994738575672e-02,-1.514292982788525976e-01,-8.853077951422549940e-02,-2.612047715639430612e-01,9.595828429326309916e-02,-4.701340945742294442e-01,3.410497864908507148e-01,-2.735536415207891550e-02,1.703279721729885066e-01,-1.223734024833825901e-01,-1.655977252350233075e-01,2.727491701633755206e-01,2.793728206331180242e-01,-3.110516023895352755e-01,1.681688763686438604e-01,1.439710572956661161e-01,-1.633187507542721573e-01,-2.664343906872852497e-01,1.996771391070896184e-01,3.803685000874120758e-01,-3.775682432434518954e-01,2.718578014433911672e-01,4.756083023419114264e-01,2.815293920699309949e-01,-5.448306400516377268e-01,3.726432587018048415e-02,-3.692203372569125563e-01,1.591161537387675851e-01,-3.948334910286544486e-01,3.957562245517727284e-01,-1.169927019328860784e-01,-3.200111380070283507e-02,-9.938872122115210983e-02,4.817482903790626936e-01,-1.641793870343185857e-01,-2.198312540133938453e-01,1.606473919926518501e-01,1.663265472357233210e-01,-1.749939951950882089e-01,2.369540636741972461e-01,-2.757267868904110242e-01,-3.691292258440472263e-01,3.851257429773502494e-01,5.389429920819832631e-01,4.755484289336520121e-01,1.651609183796366176e-01,-3.322057080548919683e-01,-1.854137864515363054e-01,2.354474113992107986e-01,4.435131574635410856e-01,1.640610030499962957e-01,-4.156918163628443158e-02,-2.710043709657841138e-01,-2.319757852529370779e-01,2.953201478500659949e-01,2.718912176708042083e-01,-4.929510529636896843e-01,3.560425991370864962e-02,-2.727486639772303545e-01,-3.761429364227014127e-01,1.262237729361408989e-01,-3.637454790612499322e-01,1.347314281167631411e-01,-4.550383754879862575e-01,3.176324688927172346e-01,3.929923503142690455e-02,1.068424285880851254e-01,-4.281801094574447242e-01,-1.380188719716924208e-04,-1.475653372192229640e-01,-2.497708940776325326e-01,-9.066179725557002578e-02,-9.612921615228099681e-02,4.139742332418472337e-01,-3.942219140687349688e-01,1.583705039031961803e-01,2.877164689964744615e-01,-5.039518166673286892e-01,-2.022879177042903875e-01,-3.155591997279614813e-01,2.785136340082975878e-02,1.066253831858842427e-01,-4.184583565342099853e-01,-3.733529479939494689e-01,-2.801767893685263577e-01,-4.391773344365431653e-01,-1.135475374514309660e-01,3.902082391808599504e-01,8.989623389543674459e-02,2.497621439335709348e-01,-1.307207185122071132e-02,8.373332145945888705e-02,3.725684093300408312e-02
1.993886649850627191e-01,-1.790008868476582471e-01,-1.733407525724523501e-01,4.833418438676022610e-01,-4.086585947045422995e-01,-5.283587438033136019e-01,-2.201869531898946464e-01,-3.907491092436141122e-01,4.084158987834011212e-01,-4.368804074292516604e-01,2.209119769451905468e-01,4.923039338161996348e-01,7.601430542929456247e-02,3.953580791194272887e-02,-1.548774827685041322e-01,5.369391350618548525e-02,1.552728882087534013e-01,-3.751464953875721098e-01,2.832055049619315867e-01,2.404364319454954935e-01,1.715305403819142316e-01,-1.657465989062449629e-01,5.587643114460063565e-01,-4.173478233669218884e-01,-1.179166970583620938e-01,-2.946492386812391562e-01,1.108456006944898015e-01,-4.208402673404103012e-01,9.641609920380889154e-02,1.353823722710440214e-01,4.130954002564490857e-02,-3.839308765550328295e-01,1.148080220965527198e-01,3.670000142862376302e-01,3.408215703310233519e-02,2.143882842049924797e-01,7.452578459043106285e-02,2.435021366035512169e-01,4.430146970654517680e-01,3.911796158362127462e-01,2.050814531094481141e-01,-9.021178455541677133e-02,6.472169015189856989e-01,4.344541759169599504e-01,1.436281952656181249e-01,3.860684441738620326e-02,-5.467587897829284671e-01,-1.156505007358621800e-01,5.039103390276332695e-01,4.512027955651256583e-01,-1.082618617484399637e-01,1.514506198803130532e-01,2.500926965697179427e-01,3.410532381995568657e-02,-2.492753746347448063e-01,1.367445097980430624e-01,3.393048133632663999e-01,-1.441946802556531571e-01,6.099808219183115998e-01,-7.566417772231298633e-02,3.616238786986580300e-01,2.720892976250245954e-01,2.823045064522055059e-01,-6.639512092500192419e-02,-2.895199774988457819e-01,5.018857370914051735e-02,2.241235322161188870e-01,3.266441198530348894e-02,-3.316033071342404104e-01,-3.816519313989555906e-01,-5.397516420695076811e-02,-3.771033898197072021e-01,3.831655965398197972e-01,6.199086257566874258e-02,9.822184728150752664e-02,9.440073312028449126e-02,2.611675896420418974e-01,-4.470697726118791904e-01,1.020723774555947760e-01,-1.134694617065855476e-01,-3.494256696780832505e-01,-3.069663811432714606e-01,4.946934786976415199e-01,3.125299398795786665e-01,-3.978987437571886998e-01,5.057087458002283015e-02,2.555298793879584029e-01,5.933779587642636910e-01,-4.174491318089762482e-01,-7.486843700420947600e-02,1.965058028032266868e-01,-6.093841671401800664e-01,5.531750274185754518e-02,-3.488206759817369940e-01,-1.146323747660515785e-01,6.866526760330572687e-02,6.307988507045507454e-02,4.080195003357833111e-02,-5.785436524375044964e-01,-4.288994196110621493e-01,1.379439988596083688e-01,-6.509610095231010973e-02,-3.696106727071662990e-01,-2.248370680557487122e-01,-3.726978769795030733e-01,4.669030645368583698e-01,6.793312322385924862e-02,4.030340472959559883e-01,-2.443074994815070122e-01,5.455298041682189458e-01,2.282794895128092416e-01,-5.388319246066277657e-01,-3.128631422040168419e-01,-3.004929090525116364e-01,-1.651697348277315625e-01,-2.539514576588174366e-01,1.544631216280167307e-01,1.037800875838094522e-01,4.540731306276198920e-01,-2.620077744344951887e-01
2.496964311444266060e-01,-3.715191735202502676e-01,-4.741554280093411566e-02,-3.849791440102737217e-01,1.455919088806756911e-01,-4.478036808687593795e-01,-1.164962184363872166e-01,2.730966198348782070e-01,3.452564506569808511e-01,8.630376105919852769e-02,1.970971180758816430e-02,-1.676164378686680057e-02,-1.234608899052976744e-01,1.069747602453445801e-01,-5.288349182325175618e-02,1.696600846318180311e-01,2.147297919255372889e-01,-4.628183963749465391e-01,-1.902426851845034073e-01,4.022377405127068872e-01,5.111558297077891666e-01,2.996239218385678416e-01,-7.572525523439029016e-02,9.769780597929114685e-02,1.530632793908972000e-01,3.341091773860462855e-01,2.266501887969753215e-01,2.814048978296400105e-01,-3.878420017475845416e-01,2.191004048908201385e-01,1.077056144858389991e-01,2.492676908088820309e-01,-1.965013347623919063e-02,2.402138575908601970e-01,3.217465891507315656e-01,-3.629281551177703236e-01,-3.954063716041316123e-01,2.875169902462544336e-01,6.180352689828898932e-02,3.094764386230209330e-01,-4.721240345258028159e-01,-3.246644077542020224e-01,1.933266070475781473e-01,5.992115209104499352e-01,5.625574804175622612e-01,5.027261119970422021e-01,2.041239197683141771e-01,2.385822931812603964e-01,-4.492777025181719508e-01,-4.184824635991709618e-01,-1.847647924807226949e-01,1.824479740698662089e-01,3.922989972864238811e-02,3.108829133687638913e-01,3.656014133481637618e-01,-2.024322960235997726e-01,3.043946072782603360e-02,1.128356110670484524e-01,2.456938799214772873e-01,-2.852567860249600740e-01,2.140905888230018872e-01,2.189173333282730394e-01,-3.583564641738111733e-01,-5.387630246291212899e-01,3.373468130210601768e-01,4.635661072697343510e-01,2.860334795168660293e-01,-4.178475677340699468e-01,-3.085783310469310536e-01,-4.503033946136098670e-02,-1.487291891628945428e-01,-4.276325901354768311e-01,-5.201143177202615098e-01,2.510994737362627904e-01,-5.632140607558745390e-03,2.492659644490708981e-01,4.143382084343006366e-01,2.333144427386847353e-01,-1.207508213378894191e-01,-1.474297959734474639e-02,5.410606665938900717e-01,-4.326316548924547534e-01,3.348946728534347161e-01,-4.190463376039166299e-01,2.324074173927253295e-01,4.680539094590579485e-01,-2.394332912087969722e-01,-1.481964854395450837e-01,-1.266349419398283827e-01,-4.932709727172884806e-01,-3.565837080114005464e-01,2.181727505023647040e-01,1.894041578163765255e-02,-1.765013172069423153e-01,2.832517691199495369e-01,3.996540411157157302e-01,-3.208664147858460852e-02,-1.972503287882645950e-01,2.494297434942839842e-01,2.575211889774380314e-01,9.787129697212605672e-02,3.540342392765407631e-01,2.880596382059414928e-01,-4.574523622424010449e-01,-4.413522992230172193e-01,2.411696747318071987e-01,8.571489904616676203e-02,-5.082874450177659043e-01,-3.562551123118739005e-01,-4.712983983181807113e-01,4.997676275642182198e-01,1.773953417249963249e-01,1.449735279815523858e-01,-4.145022594158722096e-01,-1.777033761144503898e-01,3.370601261446334318e-01,4.146088344376089307e-01,2.750549338759833429e-01,3.442675174348153178e-02,3.307233563148520017e-01
-7.858128476479357694e-02,-2.207121741345353105e-01,1.424835092111438883e-01,-3.722745242210809824e-01,-3.046552339462259562e-01,2.868110847584080525e-01,-2.031906095382286226e-01,1.189742028117481698e-01,-2.667461858384192475e-01,4.068116685877422312e-02,3.591964592217869456e-01,3.683834844057873870e-01,-2.483794431164562111e-01,-4.458651612210102755e-01,-3.136474539386580745e-02,3.891040711224241777e-01,-1.901157580516327772e-01,-2.602557118499563837e-01,-9.400175561283589942e-02,4.469685471267684784e-01,3.885310642664135394e-01,1.825059682210160572e-01,-3.429026577018018385e-01,-2.039382922024648437e-01,-4.779992518088048703e-01,-4.938438556430203574e-01,-3.054262567294298014e-01,-3.146189507823946019e-01,1.506222401091255325e-01,-4.844663881927883942e-03,-2.240788365398956872e-01,-4.475645374476210914e-01,2.795288369548160623e-01,4.177773740501578570e-01,-1.041497616594510706e-01,-1.217654675140413117e-01,2.277789243293325550e-01,4.703074136204943301e-01,-4.431662274966145509e-01,-2.019867982821634267e-01,1.051532048760690508e-01,1.879491283536950108e-01,4.319302171120160128e-01,7.833985515678255906e-02,4.878394300412782630e-02,1.458014282414760859e-02,2.367283787898119274e-01,-1.857000793713127207e-01,-2.160718903372657596e-01,1.088760801041576687e-01,3.146589423328176038e-01,-2.755967962864103726e-01,1.740692967822091153e-01,-3.561529054830050445e-01,2.650696700898722002e-01,-4.421387266805252292e-01,-1.414464936708186016e-01,-3.726953686339940508e-01,5.474531510904756537e-01,-6.368284347651317900e-02,-5.861739085657507314e-02,-1.398938663899975364e-02,-1.919980216358276037e-02,-1.766713649795565999e-01,6.939553382707543128e-02,4.555992317286207682e-01,3.971540300627453002e-01,1.821888294977329625e-01,2.650724159666823510e-01,1.382353723389505018e-01,-2.852697971156888945e-01,-4.977882706911618826e-01,8.956981379604440907e-02,1.519898282752922547e-01,2.705937048731859029e-01,3.841701057114091378e-01,-4.022405499254591010e-01,9.297059627336051735e-02,6.544801292122875980e-02,5.970883075554753866e-02,-1.675170200782245267e-01,-5.286278799538257633e-01,-2.002699295679984948e-01,2.182405043885209395e-01,2.232482647597758829e-01,-2.507116077400730614e-01,-7.214036321092885673e-02,-2.819882532862585944e-01,1.134457773246901335e-01,-2.206750937102913424e-01,-3.962567284702389059e-01,3.628705751796308665e-02,1.455966227561628634e-01,-1.178749134932005893e-01,-5.252476011859865679e-01,6.223074959327294930e-01,4.383851273743971655e-01,1.336516306830183853e-01,-9.451332063501227676e-02,3.750133013635004731e-01,-3.871897646239183532e-01,2.531423296471254636e-01,-2.162137779295723317e-01,2.741240306979164099e-01,3.774780442268833025e-01,-8.968325036455290777e-02,1.296253447812613091e-01,-4.006530191941010122e-01,-1.672106359390863606e-01,-1.958405947819548687e-01,8.661725248814537703e-02,1.194334792799390740e-02,2.550671536656984872e-01,-4.436842312640810193e-01,-1.174220412815395326e-01,-2.177568974158473059e-01,-2.551928205637247760e-01,-7.809083375511707836e-02,4.469745238874747173e-01,1.502274080924235755e-01
7.150024957432932031e-03,-2.008457219350263667e-01,3.539702414331309943e-01,-4.239531863266490230e-01,3.955518473314379585e-02,3.539768934954418689e-01,3.591113970794422849e-01,1.113207224763728687e-01,-1.941994897603738501e-01,-5.407246660968622470e-02,2.104444792151016486e-01,-2.666870167784352597e-01,3.463449592614289418e-01,-2.780702427393202947e-01,3.056638606064934760e-01,1.660763881916659523e-01,-1.057609772503395468e-01,-5.005852044016034785e-01,-2.696059747297317455e-01,-3.372606607880690444e-01,-8.229537060363148471e-02,-4.673845251806522105e-01,-3.271312217522521215e-01,3.836601186669874597e-01,3.543217691205637898e-01,2.390752845024762818e-01,6.914957163898928505e-02,-1.290077919820933894e-01,-6.809897058303873707e-02,1.283879469491444048e-01,2.222001036778552263e-01,9.174599735126653943e-02,5.989710687880040602e-02,-8.683615435129292404e-03,-4.053040193017777848e-01,-2.251291326971588402e-01,4.423435219324886591e-01,-4.819632268995812652e-01,-4.076436217793466543e-01,-4.902204908128744987e-01,-2.879629726663526790e-01,2.914667354699984614e-01,-8.465726397533783476e-02,-9.161606608635306306e-03,-1.387972901232128742e-01,2.778158894889308228e-01,-4.383374660009194401e-01,1.222388545896102852e-01,1.934632736420203170e-01,-2.076002535661197745e-01,-4.903837666487097513e-01,-2.301837158323297439e-01,1.374179061776015405e-02,4.051373102732270248e-01,7.453186840177750128e-02,-6.960399898681867564e-03,-4.312817263729032402e-01,2.941953460877396731e-01,-8.949524295117899236e-03,3.659398752284828138e-01,-3.553174654880779659e-01,4.119999139731820303e-01,2.092670153971508407e-01,4.807691280778743359e-02,9.874542026646350446e-02,-4.988110681690208215e-01,-2.496689996031261904e-01,4.142065907055281215e-01,2.483037284918448162e-01,-3.780880215111864784e-01,4.595967040949795052e-03,9.185579287213914423e-02,2.386341949155896258e-01,-2.643507485533596602e-01,-1.206873535186239882e-01,2.608973059891523394e-01,4.144251953110161119e-02,2.864105604820598727e-01,-2.743061029177777388e-01,1.746420969663636108e-02,-3.827024179615374777e-01,3.036138114263157162e-01,-7.825719985023264769e-02,-3.266469771294860935e-01,-3.202589508868507462e-01,-2.535671836604712071e-01,6.370949578072626629e-02,4.521083860790304221e-01,-4.842707402989576138e-01,-2.837262758247349748e-01,-4.583813392542397391e-01,-4.402854997006639959e-01,-2.150624273979631351e-01,2.524244824811452959e-01,-3.823667147824381662e-01,-2.408527402692704211e-01,-1.842991705963180349e-01,-2.871490505916901234e-02,-3.960619160190412269e-01,-1.649280336909057232e-01,2.389920137713463510e-01,-1.095421287875461558e-01,-1.953517898382915730e-01,-2.418029935644759321e-01,-1.112885249479841493e-01,3.485044960517410528e-01,-2.381168179118549888e-01,6.861455145502473596e-02,3.814966344211659366e-01,3.412864916934710835e-01,4.021363051389215126e-02,3.108550198221249894e-01,4.507683372384898024e-01,1.465430216000776498e-01,2.420630605251236633e-02,-2.780635223491111363e-01,-3.752631152686551896e-01,-4.909174891064755353e-01,1.060157446104743190e-01,-2.782566106107018378e-01
1.008418814013533338e-01,3.506987686544502103e-02,1.035339225664953094e-01,-4.306515705132828442e-01,-3.839364868519475754e-02,-2.853011948371004386e-02,4.576824262974410473e-01,-1.048234695472109318e-01,-6.398560623424187632e-02,3.412340024623817247e-01,4.644156760728305189e-01,-2.844030656904873444e-01,-2.169587597660753153e-01,-2.096839260205960453e-01,-5.630309731323910327e-01,-3.918081161435085225e-01,4.221623069085664870e-01,1.593424027549463218e-01,7.528059570931554343e-04,1.089005405461978063e-02,-1.725840532909266867e-01,3.173318171077031402e-01,-2.267837510974319848e-01,-3.662307117681367630e-01,2.967478631098917630e-01,4.126664602971062967e-01,-7.077343872905653144e-02,2.256399225529133815e-02,2.950690464181654482e-01,4.545968885408672167e-01,2.298113539792986104e-01,5.580616205126246454e-01,-1.911293844425250021e-01,2.208937168941152718e-01,-3.335302402649555770e-02,-3.238633684221462472e-01,-1.511186230476962711e-01,1.653361283384510161e-01,-1.399674996119650849e-01,2.533669427567410426e-01,-1.359539505343785037e-01,4.993581669092851394e-01,6.174076762175023658e-02,-2.883741431992707382e-01,-2.730217716558583918e-01,9.333775884260682443e-02,-1.353542814683117712e-01,-4.255800985995187302e-01,-5.043495024287190098e-01,-9.894548582291680383e-02,-5.362850272469259216e-02,3.828855516307625440e-01,-4.119489350553314222e-01,-9.328972107687701076e-02,-2.917371406473640710e-02,-4.639150854156768866e-01,3.943252769053973150e-01,1.011128011355329551e-02,1.933208182799578678e-01,2.138411597247066309e-01,3.184469795399502007e-02,3.182617233766206200e-01,-1.929517123931316358e-01,-1.419248762209604775e-01,-4.310319582653516224e-01,2.556593231963848883e-02,-6.132842599385448512e-01,8.080578757635301090e-02,-2.107476851608181823e-01,2.406386064361198951e-01,1.306759272830940177e-01,-2.195845632837700734e-01,-3.263221933326314605e-01,-9.877426963789644188e-02,-3.642429518502283137e-01,-1.939248441151260327e-01,3.724667537995666189e-01,4.328317242696627098e-01,3.262917496579614829e-01,4.578895778749478840e-01,2.272954033468453910e-03,-4.559993025943823164e-01,-4.283930075262690207e-01,3.112916040246997418e-01,1.538667425637428865e-01,-3.498088926075003380e-02,-5.246320019730831008e-02,-4.221324597331542750e-01,-3.884652293194768569e-01,-2.837693654887225581e-01,1.137213094712349742e-01,-1.258256321123015775e-01,-2.504739408532566936e-01,-1.551861296190109596e-01,-4.074709404084760345e-01,2.995899574981265023e-01,3.616159790148943398e-01,-3.783357447928800132e-01,-1.137386415745521989e-01,1.723854510944642648e-01,-1.439542790658908389e-01,1.157651071598591180e-01,-5.912600170903409974e-02,-1.176666772243407655e-01,4.571209630524420975e-01,-2.423581520600490979e-01,-4.495566399350463538e-01,2.751067370259484557e-01,2.250306167094698884e-01,-1.609625041286703861e-01,3.705610357281977074e-01,3.640001610571942936e-01,-2.921414589757027058e-01,-2.284578379795332570e-01,2.279201844474327554e-01,-9.539476016695140614e-02,3.296854358552693820e-01,2.110711592362626010e-01,1.717419280851710806e-01,-7.484143717323717138e-02
-3.637275950096501842e-01,-1.468362951554262330e-01,-4.401343741468894399e-01,-3.526340986768147778e-01,-2.414875814057743375e-01,-3.355342954065274053e-01,4.189468359268407882e-01,2.390556080449742493e-01,-2.653609010268780932e-01,3.924794158289563462e-01,-3.882492066217337889e-01,2.555442673338744752e-01,1.504691045202678212e-01,4.043182411504429585e-01,-2.697895715116459536e-01,4.524319441589086943e-01,4.955513507742391188e-01,4.151840126585611412e-01,-2.533106700389340937e-01,-2.825923485654692757e-01,-4.327503723196996499e-01,3.127427851990965957e-01,-2.696651058691919567e-01,-2.193337804349477782e-01,2.727843966115746088e-01,4.001001930102644488e-01,2.046651383753949061e-01,3.649206682739695173e-01,-3.843153783720046901e-01,-2.573337155588479308e-01,2.593910923517194766e-01,1.507313986719596433e-01,7.898658511618217304e-02,-5.250149552037409739e-01,-1.761662097437009245e-01,-1.116950426784974609e-01,1.233269904599875177e-01,2.563283391818783619e-01,3.509660717642579808e-01,-1.313889740371408654e-01,3.506739217499468264e-01,2.342392004173414199e-01,-1.960670042458578510e-01,-4.239449652539379332e-01,2.639359043669586291e-01,-2.645558493931325916e-01,-3.668833588146507285e-01,-1.332696222439595235e-01,1.789413199060720383e-01,-1.439707913809452344e-01,1.653096250944200707e-01,1.626705528003408452e-01,-1.800564044375426165e-01,2.036628301807516805e-01,8.805723052122557681e-03,2.925912884482077536e-01,-4.831559381798112840e-01,4.402445890553110530e-01,-2.403090836288919452e-01,-4.773471706703251161e-01,8.222825002965149233e-02,-8.854855263169922330e-02,-3.858621143782624552e-01,-4.680138775321689426e-01,1.609353479980198676e-01,-1.338266291656064685e-02,6.791427527532883923e-02,4.920001466913390686e-01,3.996304496761917679e-01,1.253956468547791359e-01,3.893692712110770060e-01,-4.236451091835539140e-01,4.346176458758726352e-02,-3.554305193144188801e-01,-4.202550819429974327e-01,2.075713621630581318e-01,-3.070003210588100884e-01,3.012030955356670980e-01,2.015930668460608199e-01,-1.586753557353419442e-01,-1.343201470614270865e-01,3.296708431949989526e-01,3.664413085507499668e-01,3.335464847935200039e-01,-2.997344192696012599e-01,3.987120413563947086e-01,-1.477903798673171898e-01,3.370809621754085605e-01,-4.521456581649761497e-01,4.684686373886004507e-01,-3.043299554025997306e-02,-5.255184490661115593e-01,5.342537673144610172e-02,2.490425614436102830e-01,-1.155223238191945279e-01,-3.964838511131508758e-01,3.702460861932642677e-01,1.904725209360525751e-01,3.590162279791713207e-01,-2.473933731333350372e-01,3.749689605711003376e-02,-4.957383751724988019e-01,4.523262542074212855e-01,-2.806778384535796866e-01,1.255975233667025737e-01,-2.586000681934788603e-01,9.418990252195087731e-02,2.940840330746732900e-01,2.874413676142764662e-01,-1.578593165381821928e-01,-3.871924878244548673e-01,-5.582460152116927588e-03,-3.868404876901351819e-01,4.015436756163716647e-01,-2.803089109322955477e-02,-1.726149449627021604e-01,-5.225207813353994757e-01,1.696984332429130882e-01,-4.807338521878994353e-01,4.182249383722416725e-01
-2.860404410528143981e-01,-4.296540257250365258e-01,4.305382816470002538e-01,-2.467569477314572948e-02,-1.577786611015593232e-03,-2.466586141517532194e-01,3.163457423667646040e-01,4.119151243119855699e-01,1.143718030379962669e-01,5.302779090285396624e-01,-4.027030923065182400e-01,3.673046869238696943e-01,2.068608304364805972e-01,2.371808025681179100e-01,3.660318109290689459e-01,-1.606418316439284788e-01,8.437542055072211333e-02,2.595206136967680433e-01,-6.196174757266652289e-02,2.908937527141741142e-01,-2.729511468824897258e-01,-2.254126909352206221e-01,-3.861191115654276085e-01,-1.745615645873336841e-01,4.823475786355350126e-01,5.139709117550129713e-01,4.199126597619164125e-02,1.952183411551729475e-01,-1.969101416357179335e-01,2.835766753451924860e-01,-6.215307965434300336e-02,2.532874055456481033e-01,-3.374573656737547833e-01,-1.151086368920115899e-01,-8.751309665830966922e-02,-2.019328053014165791e-01,7.848624126709340121e-02,-5.172574161498417339e-02,-2.133779938675989252e-02,-1.186545060285836561e-01,1.868631104193812786e-01,-7.701312168479838849e-02,2.912675854576196946e-02,-4.304351833892846591e-01,-1.344909986732294171e-01,2.697420763391326082e-01,1.156659919577183587e-01,-2.064966488016418619e-02,2.696314374550606852e-01,-4.283149874987770001e-01,4.682079470615179706e-01,-2.694507370240121769e-01,2.031750849497526157e-01,-3.710030658903320511e-01,3.503164406212742055e-01,-2.472669754200696179e-01,2.519544488808364568e-01,-2.319687370290589301e-01,-5.474085663249039779e-01,-3.430718735099055339e-01,-6.560106064434441386e-02,3.324088524866527505e-01,-1.158229640205681588e-01,1.638183131604884213e-01,-9.563168232058309737e-02,-3.981272648336083297e-01,-3.610891530563903329e-01,7.432476736473896117e-02,-3.497768727585868209e-01,-1.570870766045857625e-01,1.283266896179817707e-01,-2.929850815038788636e-01,-2.239345901289519214e-01,4.943577937579979320e-01,2.021624472179916476e-01,-4.139738952718529652e-01,3.494501606437046548e-01,4.660475131011973526e-01,1.980399169574547091e-01,-1.353869521562921785e-01,3.528497840624980619e-02,2.163006687533474415e-01,2.351427399340120794e-01,-5.125983615596639842e-01,-3.821925597693111576e-01,-4.122581178005260139e-01,4.476057831196461612e-02,-2.309125377581673078e-01,-3.857200713484599253e-01,3.432730189129553078e-01,-6.809443708973778042e-02,6.524876734479519505e-03,3.547872276408020054e-01,2.279500483461331106e-01,-1.178727100814982859e-01,-1.437710099801932373e-01,3.135643331500054809e-01,3.449106369079504297e-01,4.004050341045653494e-02,-4.112443688869455438e-01,-5.279818300479393045e-01,-4.861801738127189410e-01,2.476503732651884060e-01,-3.720052146570765883e-01,-1.857250071858760621e-01,1.602023910654848948e-01,3.518225041427986421e-01,-1.272446897726284623e-02,3.591645233466189135e-01,-4.021525676793102355e-01,-4.876996326864637132e-01,4.257027347147652740e-01,6.834358578452544297e-02,-8.726077802308085385e-02,6.366403387859521923e-02,-2.956846845906175858e-01,1.598365896136057784e-01,6.381300965224009913e-02,3.954096929780568370e-01,-4.421490648216054309e-01
7.675103601681580734e-02,-2.678482099614786782e-01,-4.012067934613915143e-02,4.003576054703895659e-01,2.859385061866064337e-01,-1.877472346947222093e-01,-7.255060577680101652e-02,-2.861467026632072974e-01,-1.573141303529599355e-01,3.102802807969334831e-01,4.010076252041425843e-02,-1.266799069336090322e-01,4.781242089523746186e-01,-4.631230701361323532e-01,-2.600346653174196998e-01,3.778147483437009901e-01,-8.201126837000253383e-03,3.653765920663051281e-01,1.994167079787054764e-01,3.977872552643588744e-01,4.170572628293076622e-01,-1.010409318083771574e-01,-8.356476023423729804e-02,-3.246116876302163612e-01,4.144120680512687616e-02,-3.264885314015730788e-01,-4.066128913010454843e-02,4.361864066694913222e-01,-2.009530032480096595e-01,-2.904879536246027794e-01,1.102516436870224492e-01,1.966092861136539416e-01,3.859675387800349800e-01,-3.427169046155054688e-01,4.892686859575829522e-02,-3.665562463010275107e-01,-6.276051688648026650e-02,1.045321114678251229e-01,4.000588082894781516e-01,1.335503584939903843e-01,-1.362274725603832004e-01,-1.714197951437677336e-01,5.160241585357167038e-01,-3.788291461465916887e-01,-5.908794791406858649e-02,3.370474139240677847e-01,-4.001103043165383788e-01,-3.205193083076103289e-01,-2.952914936224975140e-01,3.015660897339597635e-01,-4.850442202624474231e-01,1.892848822835838662e-01,3.800503020751764410e-02,-1.113436605767465504e-01,-1.613231713514603691e-02,3.106715071377213477e-01,1.618553548790720997e-01,-3.402240996352257768e-02,4.607780277187793483e-01,2.031438364752900516e-01,-5.147405553600922223e-01,6.425354343137913704e-02,4.300827800644146937e-01,-2.204874972646383713e-01,-1.410076057607538846e-01,-2.380024924897446714e-01,-4.011016432548293875e-01,-1.422972576214152907e-01,1.578922787794625748e-01,2.422754753123146365e-01,3.086500411759419693e-01,4.685692581842078042e-01,-3.174139592251953301e-01,3.997113401981084585e-02,-1.547751492452224126e-02,-3.275331145414079326e-01,2.536737668039288907e-01,2.763206175596326641e-01,-4.307133310126624592e-01,-4.967635969125075990e-01,-3.107059920289831356e-01,-1.328825105893027825e-01,2.290706063337362430e-01,4.093693790491351736e-01,-4.692579571069279143e-01,3.115915120793158466e-02,3.437951588107343581e-01,4.420431731755939952e-01,-2.069711823567258469e-01,9.304885606924968855e-02,2.191781074998314441e-02,-2.412860511365892968e-01,-5.487472401974624603e-02,2.160053993973360398e-01,2.578101466155428012e-01,5.575297240268410892e-01,1.911385435160257995e-01,-1.108138855698921205e-01,3.592411601876196459e-01,3.121742434259969778e-01,-4.462603240535257254e-01,-9.303319549120739329e-02,-1.445770140524133274e-01,3.968023558880428014e-01,3.584000403207266428e-01,2.390659504901583299e-01,4.332244904322868351e-02,-2.550606287831184288e-02,3.664028530041657516e-01,-4.498059019929448454e-01,-2.959504373616859141e-01,6.555071704611062366e-02,-2.903168314737422651e-01,-3.537114763677193241e-01,-1.485561825761179122e-01,4.337756200895197534e-01,-2.367217682507647414e-01,-1.292509637885597140e-01,2.549027753926004225e-01,7.959455507134392815e-02
-4.464406758116036822e-01,2.960811709763856436e-01,-1.018685422815030217e-01,1.837294082489498714e-01,4.790585798742718615e-01,1.456254091620844959e-01,-5.867109151415907803e-02,2.252225788501697190e-01,1.517018980062764810e-01,1.092598922688706314e-01,2.241586889682164185e-01,3.027506831134461618e-01,2.372300705619052319e-01,-4.549593258010305452e-01,2.836244166327903105e-01,1.785356661400059469e-02,-4.204968137956651142e-01,-3.165444697168855182e-02,3.836503228318415837e-01,-4.258244840426695932e-01,3.736100203361718552e-01,2.419819592787718909e-01,4.764682884380453398e-01,6.166904541774836934e-02,-3.133874293142769329e-01,2.619755909169132480e-01,-2.570748701316312168e-01,2.673319341581419095e-02,-3.403997138720916693e-01,-6.336182136102334883e-02,2.587483727293497515e-01,1.313836861746145723e-01,2.842457665873761030e-01,3.324669237907745267e-01,3.966043308817903124e-01,1.757536162380578526e-01,1.034196008450008891e-01,-9.050134968747335085e-02,3.092218301007862089e-02,1.812144761184869834e-01,-9.960200826135234831e-02,3.489321695585513861e-01,1.135804250513975655e-01,1.192574559656691957e-01,3.051378398130312752e-01,-3.017555027034327791e-02,-1.516193705336727759e-01,-3.760863467522612136e-01,3.273970108963977776e-01,2.348049693320820031e-01,-4.941935640154378473e-01,3.371684507096358030e-01,4.162347439812679184e-01,1.064903775274187447e-01,3.909185152626547255e-02,5.957830897949953353e-02,-1.785535615753055805e-01,3.554665872980428132e-01,2.811212687553941714e-01,2.192386159059793171e-01,1.148197131130913179e-01,3.338045964282053135e-01,-2.206792340315079093e-01,-1.559301044345963450e-01,-1.146343877855657278e-01,-3.170647456182414947e-01,1.129978706003501171e-01,4.966367475859897462e-01,-4.095655135288352455e-01,1.511045969024272205e-02,-4.047331464108060439e-01,-1.228992265858624006e-01,3.489531492692656833e-01,1.041762102128427347e-01,-4.103209937701894905e-01,4.607542326878549810e-01,-2.214068884189261122e-01,3.376059814976403728e-01,3.594184529077414370e-01,9.981241395192881616e-02,3.031346200812927161e-01,-3.746713241196195643e-01,4.648736352327562105e-01,-4.639951543283870050e-01,-1.689839032400066443e-01,1.258892897717656945e-01,6.857795332638268182e-02,2.872177882250685071e-02,-2.618350424945836696e-01,4.716723369897108525e-02,9.558041906460547354e-02,2.315698161379198539e-01,6.240752441085536950e-02,-2.536528515022418162e-01,4.414019915188474585e-01,4.758927800190302371e-01,1.729987891168428826e-01,-3.757831706551041928e-01,-6.621081578572200581e-03,1.444129739217421549e-01,-3.048054073475531811e-01,-3.590930235772290535e-01,4.324609276615545284e-01,4.527386453466412108e-01,-9.130622480750050229e-02,1.069033233989784143e-01,-4.760324934465096081e-01,2.153968148641541291e-02,1.552560428326270614e-01,-2.839467369961622412e-01,3.392473744773946143e-01,6.672080802769042585e-02,8.719023469137091031e-02,6.166215995561403346e-02,-3.168627847569789879e-01,-1.960025369397889183e-01,3.146864309256754422e-01,3.130306169341622313e-01,-3.402737704314470757e-01,-4.352928827543159906e-01
-2.556576970198440879e-01,5.189687229379541522e-01,-2.801575868440477901e-01,-1.989443082530348850e-01,-2.831719051103392393e-01,-5.124799076385326835e-01,4.571189908201478413e-01,-2.363731726594744120e-01,1.764435634346800397e-01,5.033466639560360001e-01,2.624604049689174823e-01,-4.723180380444516602e-01,9.786618161916163169e-03,3.324149145904107816e-01,-6.139607280871092199e-01,3.637472442097881564e-01,-2.276304381928427323e-01,-4.141661535664879767e-02,1.940256879107465637e-01,2.849665977797262717e-01,2.043721159115619579e-01,2.127298035284137523e-01,4.298502398596475427e-01,-3.688107816208403555e-01,2.072641746509670257e-01,1.142767692506354432e-02,-4.053615621293676224e-02,-4.800321410053027260e-01,-3.170223808634706208e-02,-4.309257775621589959e-01,-3.772186772356626583e-01,-2.304507890153270067e-01,4.324377038912010085e-01,-1.188018704969891065e-01,7.841156041724849091e-02,1.395166879435732199e-01,2.967797268926170018e-01,-2.955903699760338392e-03,-1.868465707440913337e-01,-3.582323771393340350e-01,-4.403364316733864720e-02,-1.888631150244897694e-01,-4.117430941371593156e-01,1.283822426880818768e-01,5.979484599926609273e-02,-2.954781269424847645e-01,-4.447853343753882527e-01,7.525676922725692275e-02,-4.673766573205931918e-01,1.629537537903043287e-01,1.228325938987738647e-01,5.823129401425657381e-01,-2.484198892086005306e-01,-3.538122189655034111e-01,3.793941269257637416e-01,-4.887225930776917943e-02,-2.875185436290030386e-02,4.299154434422708948e-01,2.427116187554523991e-02,3.151755032679116608e-01,1.942975847457077132e-01,-2.557028532636456686e-01,-4.479137002032602122e-01,1.781988005788526785e-01,-2.707705099388798553e-01,1.232633285477868490e-01,4.250737258493240134e-01,-3.618811332991506702e-01,3.414258554078872243e-02,-3.706465443547314886e-01,-3.289139071880426424e-01,4.565003079823122811e-01,5.301059916735350042e-01,-3.163001893156018318e-01,5.290527892254945908e-01,4.629638806475573909e-01,-6.279147767402953884e-02,1.977866983663143507e-01,-4.259443213709196985e-01,-4.302820710843730662e-02,-4.642895032443550285e-01,4.016959011085413644e-02,9.494140315337788738e-02,-7.976754448041638301e-02,3.991838317259484570e-01,3.732204256524467856e-01,-4.796489504933800219e-01,2.783383649275568694e-01,2.767546980982349414e-01,-3.541000868897352660e-01,-2.838509853488905832e-01,5.731497696547648013e-02,-1.601424907718352331e-01,-1.423666017115058635e-01,2.073865816353786529e-01,2.377442047181455714e-02,5.572333846508601418e-01,-2.630065364932044902e-01,-1.815861947137578924e-01,2.284379385145733354e-01,-5.078349525040875001e-01,1.714106941333698730e-01,-5.831306829178019013e-01,4.485576507693999626e-01,-3.925934289153858447e-01,-1.610872814570635525e-01,2.361545191868429372e-01,6.158695925547982147e-02,-4.480986477525255446e-02,-3.731072947703180098e-01,3.355395415629604527e-01,-3.683881981222412727e-01,-4.281139250183074174e-01,-4.892224845215067952e-01,-2.264374468674354157e-01,-1.648463110284369704e-01,-3.807611581152614555e-01,-1.586216471114242910e-01,-1.305996802028923333e-03,2.300931734139855800e-01
-4.403894316467206194e-01,3.068556932767168566e-01,2.262862172797157345e-01,2.310961623891858718e-01,1.930200977217010616e-01,6.463949439046570711e-02,-3.499502555522268077e-01,-4.748381092594722991e-02,5.292804610826261358e-02,2.988916428452053631e-01,2.187623439899149813e-01,1.936943248154495978e-01,-1.850359096193747444e-01,-4.759915266645496912e-01,-3.538115870533230928e-02,-4.667832465606459036e-01,4.460669406629984568e-01,-3.864251958648103336e-01,2.944576842149096430e-01,-2.473009388654873186e-01,-2.097994246628818726e-01,3.592926694699704604e-01,6.184837610563930638e-02,-7.346113511801062590e-02,-4.074322091364684928e-01,-3.077425089655178581e-01,3.615257572650540929e-01,3.443681484922789249e-01,-8.096025270873188906e-02,-1.607977798269977221e-01,-9.051285832868743997e-02,-4.607181804453100438e-01,-3.599954599452435122e-01,2.005600467356929428e-01,1.465563287926740788e-01,-2.289657515451521130e-01,3.867007137007292816e-01,7.798438051484408995e-02,3.912623415305964136e-01,-2.411507464268219936e-01,-5.243318442357333131e-01,2.600361989876648350e-01,6.066788695042715090e-02,9.033264623856489262e-02,2.961563375781804952e-01,2.628241011421507747e-02,1.249730697172721228e-01,-4.748267878834891431e-01,-2.287606222301625039e-02,-1.542317485533750421e-01,-3.522487312840924534e-01,-1.781350905495742432e-01,4.562133636380596435e-01,-2.666679702551618125e-01,-3.228341021418582035e-01,-1.428836081391964344e-02,3.530543281988449827e-02,-1.853129729829366412e-01,-3.351838325455467893e-01,-2.377667038100945429e-01,-2.145296879308783711e-01,-7.450960240294281223e-02,2.288485230242632562e-01,-4.368827503352046282e-01,-1.316824875939042461e-01,-2.454858421274454250e-01,4.932153507958790817e-01,3.804295680513499756e-01,1.789639376276947191e-01,4.188042987092062130e-01,8.631121730214996735e-02,-1.291279012111364310e-01,-4.892052655628941205e-01,-6.040289559376073140e-03,-8.019896853687699667e-02,-2.514212492492035600e-01,-4.882658869775492738e-02,9.826011667881331957e-02,4.009053889651814639e-01,3.866375982137748579e-01,5.121254682084970256e-01,6.745778746070887899e-02,8.108521115678185565e-02,-2.337688189793575844e-01,3.022249359211934827e-01,-4.716731914910766155e-01,8.272993502290448831e-02,4.371731221195483963e-01,1.968660572969133937e-01,1.280672973468709175e-01,3.773044241914692010e-01,-3.852687609529253376e-01,-5.066539178129513682e-02,2.663355817562833017e-01,-2.896269521649926237e-01,3.600639514194080293e-02,-7.165396152473539615e-02,-2.654899825909092792e-01,8.675598698117388541e-02,-8.781489365291465787e-02,-1.192653960108153860e-01,-9.955580073346979864e-02,2.777176297051315856e-01,-4.237200971611475575e-01,-4.405233087102513045e-01,4.877580789489016633e-01,3.930513288651832360e-02,2.159431804893092721e-01,2.160043688852708033e-01,-8.167670073353149041e-02,3.577196487838177341e-01,2.301944133156323680e-01,-4.204307884677002671e-03,3.690253511036464262e-01,-4.752573824438240946e-01,-2.989089981034271162e-02,2.752781054730992216e-01,-1.807138589242939519e-01,-5.089817230175850554e-02,3.756663023009309543e-01
4.896103390751203044e-01,3.126080407088561719e-01,-3.007437621994075716e-01,-9.385148759825429066e-02,-8.907856386183418684e-02,-2.276287596291368120e-01,3.804220666472771240e-01,-4.992255642810775745e-02,4.769333082107731769e-01,3.797692008577343570e-01,1.878104306167687268e-02,-4.579965659179844883e-01,-1.880297551767632497e-02,-4.170314166719211735e-01,-1.300357535541215026e-01,-2.169249856244551411e-01,2.554739349386481728e-01,-2.390244070666353859e-01,-3.932088856512047648e-01,-2.240217199720657137e-01,-1.066880268012514732e-01,-5.056593776636858495e-02,-4.089158756155076846e-01,-4.516212999667360006e-01,1.504254103300284133e-02,-4.428814930532951055e-01,4.153777225193495681e-01,5.571145590382124008e-02,1.948332192097918247e-01,5.374644671751237571e-03,-2.970308130902499788e-01,2.315203217990939033e-01,2.062911729011037143e-01,4.471829762578440753e-02,2.537604466302631478e-01,1.402952240461811245e-02,-8.794826872453900823e-02,2.231760148212510175e-01,-3.197692791534301887e-02,-4.076181724175781396e-01,6.394757865566502199e-03,-4.313596427031071157e-01,-4.685852936527177270e-01,-2.321944104324073499e-01,2.025299891331942270e-01,1.262056474893836766e-01,-3.845917721635097597e-01,1.471534852416405137e-01,-3.505579842165434945e-01,4.441616069987033288e-01,-1.725925563479522307e-01,-2.635280936554654785e-01,-1.529824613760083218e-01,2.808008087527170127e-01,-4.146817522511133114e-01,4.113349173492473199e-01,9.101132949194181213e-03,2.648003719076353346e-01,1.009839767119665305e-01,1.646754771762530822e-01,3.579015681282425310e-01,8.346939922952806290e-02,-3.744155102195013129e-01,3.591895374016239595e-01,6.195606328873271007e-02,4.433082394930858428e-01,-4.655899991104044816e-02,4.107376587897299675e-02,-5.290175949285907953e-01,4.637286585512936932e-01,-4.598086987085870936e-01,4.747367910947095093e-01,4.470237734406196650e-01,2.313934104011658721e-01,-9.464501135304083379e-02,-5.236675531953773888e-01,-8.471684022646451540e-02,-3.935690920275263238e-01,-2.240163658094878815e-03,3.840610393730071737e-01,-2.019466946242958472e-01,-3.751511056979216496e-01,-4.487965748150650747e-01,-7.640116957239674600e-02,4.076149848132890607e-01,-8.379246651513934385e-02,-1.894797354462819106e-01,-4.544946667404572982e-01,-2.208843562551187634e-01,1.965812446358758125e-01,-4.103512117350048283e-01,-4.072034842245579600e-02,-5.724095927625723057e-01,-4.157756265113206617e-01,-4.504808648353143541e-01,-4.124234526750026331e-01,-4.344150289667509518e-02,3.471699599528718094e-01,3.982497994280919107e-01,2.543838922540705982e-02,4.324935498406051737e-01,-4.183475691873606572e-01,4.033847861537664253e-02,-1.235002565733987617e-01,5.886725606419119551e-03,2.535796390714867288e-01,-3.615617828947041978e-01,-3.830269955271506377e-01,-3.509592358675774348e-01,2.630509943823285401e-01,2.093399678566160854e-02,-4.461786124042994572e-01,-1.117900707749032024e-01,-2.084410628941842369e-01,4.845678104244505735e-01,-1.544159908819930649e-01,-3.212578885621820701e-01,-2.663663554112127851e-01,1.953773631743352113e-01,1.012201708259193866e-01
-2.809843259237971291e-01,1.865727444406202473e-01,-2.283191734758765468e-01,-3.673116332832605108e-02,4.419218865174769362e-01,-3.497863695823624219e-01,-2.359072586196348520e-01,5.500619575827985636e-02,-5.013151139330579431e-01,-9.321120006428183780e-02,-4.994063542796448041e-01,-6.644740119813612178e-02,-7.596082267665843490e-02,-1.617189243308169433e-01,-3.510452402147880013e-01,3.175444568982381810e-01,-3.020417848982503983e-02,-4.154155247073333945e-01,-2.164352403323080432e-01,5.393389844525896537e-01,-3.481575759359095135e-01,-2.749906446164029905e-01,-3.219014572750175107e-01,-3.968172428779294103e-01,-3.109090444893806704e-01,2.471840043060345160e-01,2.873987468528553801e-01,-3.779870899316601363e-01,3.707068466736422874e-01,-1.085487165791816228e-01,2.052899491747475491e-01,1.722544152988110533e-01,4.396115700411998284e-01,-3.434266165997199582e-01,5.094469885873477155e-01,4.179916314279302769e-01,-2.510426531420221763e-01,-1.191990416004443804e-01,-2.030260215956363190e-01,3.432661522102390395e-01,-1.627427451457618135e-01,-2.932882102835016047e-01,1.837585061680864218e-01,1.294903190108569746e-01,-4.662324255650014959e-01,5.152421045580899417e-01,1.820428976542156074e-01,2.779623346965425235e-01,4.146812835267855157e-01,-4.288039314903749899e-01,-1.638666414391822534e-01,5.220715729864513488e-01,-4.993377989354079449e-02,3.593849185646546540e-01,-2.760085310722165675e-01,3.538723519867804923e-02,-5.011638099028178361e-01,-1.677820725254052237e-01,4.313706008333174635e-01,-1.939947507958296180e-01,2.210500077053562940e-01,5.789484342947011086e-01,-4.548912711172953260e-01,2.798847147171888428e-01,1.578561568296980022e-01,4.176768233902046212e-01,1.172702123287531623e-01,-1.939699194140855065e-01,2.129106683896451746e-01,-1.518390638113364666e-01,-2.596044782503298953e-01,4.810048424469524214e-02,2.318056568946502416e-01,9.022599313783884190e-02,-3.046850142052247024e-01,2.705050674421762280e-01,-2.728359166498653399e-01,-2.601741419336011524e-02,-2.960943559675611320e-02,-4.676700910664086108e-01,-4.093732965558771753e-01,2.433880813050408876e-01,2.030161011270085469e-01,-1.115240132575874427e-01,5.768150393949434546e-02,7.304359184544097217e-02,5.691836053694801500e-02,-2.139473690464976929e-01,-4.827436725505246939e-01,4.077304419150039605e-01,-1.282697676766574035e-01,2.602592693773184834e-02,-4.199926282546053713e-01,-1.366909418844115542e-01,3.667129620640840471e-01,-3.328406626781963973e-01,-5.419731699530163510e-02,-1.671893273620042031e-01,-1.201094536035564458e-01,2.613271989727194433e-01,-4.714611353513170622e-01,2.580379430592391055e-01,-3.821097575193805884e-01,1.808828040618671029e-01,-1.707298263206562250e-01,1.054957787624897086e-01,-4.404586151818694062e-01,-4.579387680474331090e-02,5.178488528883494479e-02,-1.327428530213805302e-01,-3.140077448258837278e-01,-3.966103609411555375e-01,9.893141100193252047e-02,6.470007367470807791e-02,-5.466328141337863100e-02,-1.138702081756116230e-01,-2.154921185867469946e-01,3.296169446175675199e-01,8.211539949669768856e-02,3.363722697202869427e-01
-1.995103819606559581e-01,9.892080865993942151e-02,-2.171504461906635375e-01,-2.492981700880677054e-01,1.199683921008118381e-01,-2.225476817878133395e-01,4.194436158169226325e-01,-2.529972535285829327e-01,1.275196122520687037e-01,2.740546062868680077e-01,2.154349242059468983e-01,-1.392374162669966027e-04,-3.031121433792051054e-02,-3.374055897540134130e-01,4.446630623639154234e-03,-1.271666673951948878e-01,-5.698729385223751803e-02,-4.516746979650534954e-01,5.585949707026164474e-02,-1.579164842498123611e-01,-1.468333497898042239e-01,-4.319530117411466419e-01,-1.662032407529553668e-01,1.687566323508118693e-01,4.081775421021044403e-01,-4.426482419635884014e-02,1.243313743370607627e-01,3.550557065407027313e-01,3.216621855087455351e-01,-2.787986712315801419e-01,1.569556287080200174e-01,-2.386465787801701766e-02,-3.297407843080344958e-01,3.581398234147850079e-01,2.374026839693949287e-01,-5.715087513830848787e-01,3.116331336600766666e-01,3.185953019105391415e-01,-5.296677622060372292e-02,3.834547071001643270e-01,-2.009074160096366302e-01,4.735750395879539248e-02,-1.445449932263290216e-01,4.213794634743550649e-01,-3.464964436906624590e-01,-2.889632608786877888e-01,4.740874156620370622e-02,1.274607340425751023e-01,4.385559506671248692e-02,-1.409059909163525304e-01,8.407071548024641627e-02,-4.249207959989664274e-01,-2.647255047068340292e-02,-1.465656086436590289e-01,3.030488780905074009e-01,-4.949502752469657207e-01,3.197383711994455924e-01,2.127897214775682500e-01,4.036380497628811459e-01,-4.361131215318390653e-01,2.792622697068365967e-01,-9.599132819515709958e-02,-1.160175596043398621e-01,2.694437443394536724e-01,-2.620018119172622395e-01,-3.942703797042578784e-01,-2.096845969436836599e-01,-1.220037206653707962e-01,2.291133976910366965e-01,-7.105848797037137010e-02,2.914831151618730853e-01,7.084969769505640447e-02,3.655230772439057585e-01,3.787067981721501941e-01,-2.640514246123391029e-01,2.416445180817701766e-01,-1.217223469986833256e-01,8.578602141580458917e-02,-4.235492167177593581e-01,-1.158038823467217177e-01,3.101797561942742365e-01,-4.432744868590862142e-01,1.832854303274409624e-01,2.167677778247580067e-01,-7.661074372415795086e-02,-2.293381838559422486e-02,-1.905017299168210720e-01,-4.619192595196262019e-01,3.088548038618355029e-02,4.730834314065933133e-01,1.123665736046673552e-01,4.997601530441980189e-01,1.296530074038850736e-03,-8.182016517657869983e-03,-2.774852940419795730e-02,2.528365992481232394e-01,-2.350182831949464979e-01,-1.143714516054390555e-02,-2.592956296034021335e-01,-4.411212614106831964e-01,2.751218058403127054e-01,-1.676705815167912200e-02,4.274699275721692282e-01,-3.773689137669601901e-01,1.925305894601835321e-01,-4.675672592435523023e-01,3.674531405821445662e-01,-4.047822767538221678e-01,3.829246596259520685e-01,3.757144727363467829e-01,-4.970835332846799126e-01,-3.289903219776791343e-01,-3.044383970215731594e-01,-3.705556662151454073e-01,1.295656859054730714e-02,2.875173730449231413e-01,-5.147521020362215705e-01,-2.173497873834324412e-01,-4.531510211542076338e-01,-1.511735755821229654e-01
2.307937346513123378e-01,-5.842621261171284663e-01,-1.931473195923247010e-01,3.003590705464177502e-01,-2.347763424548129363e-01,1.277532834725537414e-01,-1.459847759045702353e-01,1.502165471789838336e-01,-2.356789712615819377e-01,8.451971387669370006e-02,1.300497509440846355e-01,9.779706503988346011e-02,-3.439876705340914054e-01,7.430104859634116543e-02,4.213101901685494255e-01,-3.898264894048800722e-01,-4.228158353967382821e-01,2.195437495334585931e-01,-4.333234342007107887e-01,-3.062912819944346166e-01,3.458746548516430236e-02,1.321085817248505434e-01,3.423763623191073968e-01,-2.949267606451722035e-01,3.914744966081671329e-01,-7.373831368579515655e-02,-2.539374189086279210e-01,-4.507605918810608792e-01,1.368653954644166171e-01,-3.161896181255616223e-01,2.325551354374250437e-02,3.675013739585104022e-01,-4.583940279009011132e-01,1.219895829009431387e-01,-2.788590687270396939e-01,-7.927896602976645946e-02,-1.996628720499823290e-02,-3.574990265039074133e-01,-4.757648071584796162e-02,1.013873777771057832e-01,-3.954480403651975395e-01,-1.994705860195193636e-01,2.217974288241802983e-01,3.059209030248093986e-01,3.995607455910498707e-01,5.135404747406703274e-01,-1.888143355082571306e-01,3.676266522112659474e-01,1.389804894675377434e-01,-5.032521046042828239e-01,2.489333326792745812e-02,-4.313492106989318953e-01,-4.910746590907191095e-02,7.799929479688791877e-03,4.051980377083344020e-01,7.758617556503520640e-02,-2.026148079909570188e-01,1.636687238441033587e-01,3.082764414502690009e-01,-2.949065811775983259e-01,-3.635243958992137592e-01,-3.432944374362653095e-01,-4.737741070752211070e-01,-4.126289249623600885e-01,4.157470803425019623e-01,-3.355987050357622792e-01,4.615812109143797026e-01,-1.212136291591357495e-01,-4.541779612323428306e-01,3.132600085949231450e-01,-3.431143043825210515e-01,7.521143380394407219e-02,3.689045702411156702e-01,4.293890324977931439e-01,-2.498814742578117920e-01,3.302500419006243471e-01,6.435418561416955674e-02,-2.231005654120340742e-01,2.200432527698873986e-01,2.384602585031968258e-01,2.806148036132542489e-01,-2.412900965901635941e-01,4.709088365604491289e-01,-1.314146214542762439e-02,8.603901630924747079e-02,1.230394612476277821e-01,1.711867666195938109e-01,-6.060881996566159363e-02,-4.057710721316030722e-01,2.400733073548857455e-01,-3.596991939906674096e-01,-3.916037160485503765e-01,1.936442263296860866e-01,1.896970495917277844e-01,-2.303737057902960073e-01,1.192655145238095404e-01,-1.142094194425873621e-01,-3.144565487787193137e-01,4.409463213422555317e-01,1.086307910851660175e-01,-4.646971493992736457e-01,4.261201164267462427e-01,-1.428600502219777024e-01,4.200262426613523004e-01,-1.444116039762801673e-01,3.604143513677525446e-02,-2.835240781853001768e-01,-1.309584988079449119e-01,-1.367813856309083587e-01,4.340358443114861881e-02,-3.504942354132036808e-01,1.415816024706151588e-01,2.901290160472213553e-01,2.416554699334224343e-01,-2.928736322245543700e-01,-2.094003377024187817e-01,-2.663135360566961096e-01,-2.749867675562626124e-01,-3.202099838899061801e-01,-2.774121922966396592e-01
1.924281268803026690e-01,2.209183492309711450e-01,7.303336126945059181e-02,3.345658565472863777e-01,-3.776960855020087826e-01,-3.514619057033372407e-01,-3.356977273099135961e-01,1.992509627503023240e-01,-3.948961723505424737e-01,3.595325761095877204e-01,-1.100047175741774852e-01,-9.572007726043611775e-02,-4.704688582710020994e-01,2.165759997763293254e-01,-1.962382461240287923e-01,2.916685760244803749e-01,2.446529210249000497e-01,-2.978335481614805547e-01,1.368491995916975255e-02,1.862345425724330761e-01,2.733018161532778101e-01,3.915854460624545452e-01,5.403256108874003871e-01,4.113692713016167124e-01,-3.199816470167476390e-01,-1.400994286180501369e-01,-7.406965970284348257e-03,-3.753557379559006590e-01,2.824453459214776307e-01,-9.531764777560694513e-02,-9.172168623875480431e-02,-4.779362857592122649e-01,-2.595094064031447378e-01,-3.424211752533855568e-01,-2.234329650417540281e-01,1.007419639038665366e-03,7.564686015857641221e-02,1.686556938208357836e-01,3.001990628205942202e-01,-1.565787572722783516e-01,-5.963222325088592957e-01,-4.257823267365682396e-01,4.991061572437399674e-01,5.499329772242820269e-01,-7.257946255718417117e-02,9.921592017545488584e-02,-4.491247305440921322e-01,-1.623234967958062380e-01,3.618045082476902263e-01,-2.784498555614493553e-01,-7.208698098811515409e-02,1.474594579466701472e-01,4.106625044512610678e-01,-2.206260042486897499e-01,-4.303354111130919257e-01,4.474984469359741604e-03,2.176835007923046128e-01,8.779900195569048660e-02,7.666675184647994690e-02,-3.681575495280012267e-01,4.958522720664028105e-01,5.400038030142291223e-01,4.109433952214246455e-01,5.969144294014803315e-02,-3.152657914849047449e-01,4.078428601171822931e-01,3.682408927219600892e-01,1.924673358786026522e-01,2.673424459158404431e-01,2.735478350799903091e-01,3.548948448979982184e-01,-3.670532982280388934e-01,1.074665858670595664e-01,-4.806886960095250183e-01,4.666969402345557683e-01,-4.843057627112012237e-02,-3.954761146472916544e-01,3.416588222492943916e-01,6.133422795882859102e-02,5.054262364762199811e-01,4.253476124211434950e-01,1.045718467970347260e-01,-1.740813350578573615e-01,-3.548233706220377953e-02,-4.954920475362581955e-01,-2.456310831569474048e-03,-2.767915152622852371e-01,-2.347273557092809937e-01,4.380698796278318374e-01,-3.055232673644470709e-01,-4.911566931320833773e-01,-2.699945937626186399e-01,9.024126905531458520e-02,2.231575814099487631e-01,-4.810908494170787475e-01,2.462620692094212027e-01,3.136120134201983434e-01,-3.927315987103602857e-01,3.776928145493120281e-01,3.039666564208729493e-01,-1.328042677833972118e-01,-1.802978101933490063e-01,2.478214691794263236e-01,1.521480341606661069e-01,4.465527798145917382e-01,2.846132972716148291e-01,-4.498495556727091088e-02,4.356105242811422196e-01,-5.235122575147337087e-02,2.274348115327179398e-01,4.472310229779645208e-01,-1.779925651623331384e-01,3.897348386251887620e-01,4.279598349716692840e-01,-9.892862677573997787e-02,-6.558757261069389499e-02,1.446253571564495854e-01,2.093128939277187905e-01,2.223774256184156417e-01,-8.203569760861398330e-02
-3.669356189459698631e-02,1.758818048920596788e-01,-1.692303837916179221e-01,1.426558186913710335e-01,-1.832021059965872611e-01,1.332036224123147317e-01,3.871099514903639238e-01,3.027438245117696214e-01,-1.369872109473170563e-01,1.451712038656986781e-01,-3.154493965620845386e-01,-7.907758959877395077e-02,-2.982978614426292086e-01,-2.758078765114947983e-01,2.665396127472855481e-01,1.274735080886391647e-01,-2.399124647774940056e-01,-2.124103652167111111e-01,1.050408053911820044e-01,2.492009292883942684e-01,-2.403528577127161947e-01,-3.775345406317526242e-01,-4.623434971758756673e-02,2.400549954675505471e-01,4.719708386516062171e-01,3.528471579457201357e-01,-1.735605538254885449e-01,-2.651449680633536851e-02,8.965086054419568740e-02,1.821653684424562047e-01,1.842616241472251337e-01,4.237340549287004765e-01,1.103690687703611367e-01,-1.691847865584357458e-01,-5.266064880408349858e-01,-2.574563885296500265e-01,-2.631482017192338652e-01,2.707452847713858191e-01,4.212564146630111694e-01,-9.752933601999523583e-02,-5.342817022229185975e-01,5.057282357274645035e-01,-4.158270056971871131e-01,1.688445029094691741e-01,-5.524070338445943168e-02,-4.517472590883004901e-01,1.274802476510161486e-01,-1.253646903007104851e-01,-4.664565124679171948e-01,-3.357500785890537021e-01,-2.650800217859633490e-01,1.890521067573788239e-01,4.688206577995475133e-01,-2.526153896427607015e-01,-3.380544140343279269e-02,2.456122052231383690e-01,-2.600936440867073207e-01,-6.476564017608789081e-01,-5.874655144154634634e-01,-1.310910570095396854e-01,5.366251181694395855e-01,2.430167403157676709e-01,8.791541578467192142e-02,2.270896782483319276e-01,3.774583462601381889e-01,-3.339851797521961041e-01,1.549878322605266479e-01,4.558735044810642290e-01,-2.879221968878522553e-01,-2.691120296139896118e-01,3.447656387159966918e-01,-2.912693125942347749e-01,2.653229079718593120e-01,-1.104203198842372280e-01,7.876378465965211406e-02,-4.284300535446606828e-01,5.700286451956565470e-02,4.102734158272110521e-01,1.235702053003866763e-01,-2.207647287346129472e-01,2.567405656520720947e-01,2.333881769454258237e-01,2.646948574386553399e-01,-5.943153798686688916e-01,2.178105643177769557e-01,-3.279949402987435425e-01,1.443546946468837189e-01,-2.497794227207632001e-01,-4.934549698244431459e-01,3.573868955810767800e-01,-4.906088528213851663e-01,-7.085318792656603026e-02,4.175188580368987545e-01,-4.670281230520983984e-01,-1.760338999707123653e-01,1.353203490001480547e-01,3.986628679909769990e-01,4.122840976269737667e-01,2.261013957215551595e-01,-3.858957530043712336e-01,-3.782623322005492228e-01,-2.794993959789811577e-01,1.687777197246272398e-01,8.895002846294994964e-03,1.816843089715282702e-02,1.519016594507726498e-02,3.884888052223625099e-01,3.555903184853088095e-01,-2.036324963444998415e-01,4.339831163754943183e-02,1.361172111489824810e-01,-3.831865082569830272e-01,1.324609972030878768e-01,-4.909716066944248003e-01,2.293392648537922740e-01,2.375890619345499832e-01,2.935246361946169391e-01,-4.428597539782221093e-02,2.909121841901506356e-01,-1.745704726911450899e-01
-3.514467770335093499e-01,-4.437913198798071335e-01,3.307968134564583385e-01,7.062437707382863972e-02,7.584402330810945114e-02,1.575435856977035198e-01,2.408057819893293372e-01,3.777854301283917193e-01,-2.365375264754165097e-01,4.721139686641417921e-01,6.737408059839060381e-02,2.514133440518142582e-01,3.182745777928224218e-01,4.254859996662522792e-01,4.340326174140298199e-01,-1.062530080682227707e-01,-3.082606181462433925e-01,4.844681258785220046e-01,4.027623735355725376e-01,-2.376466234164956726e-01,-3.014004353645194922e-01,-4.790539328224861504e-01,-3.994209401266105575e-01,-6.313219250856156872e-01,-3.984735102687445019e-02,-1.761741754529789761e-01,-3.166182773744489198e-01,2.127346516330042292e-01,-3.732941503642676073e-01,1.090067498425976167e-01,8.867253051774263983e-02,2.611090797584868506e-01,-3.966044240723489711e-01,-2.823765737196110015e-01,2.335248592229717257e-01,5.750350942380320074e-01,-1.705094598471590117e-01,1.423170760639567989e-01,2.388708252540609478e-01,-1.946612823700622497e-01,-2.585796334120652254e-02,4.386669294375538652e-01,-3.567258043625594621e-01,5.538561770723300359e-01,-2.097366799889301969e-01,3.646472149920186867e-01,4.340831890920107683e-01,-3.410614732259120707e-01,1.726689601263662610e-01,4.971589979723101127e-01,1.330380314595801250e-01,2.557120621167461791e-02,1.661741975822657313e-01,4.409999927688225685e-01,1.312863321830636809e-01,5.090661551946323859e-01,3.879539006101068721e-01,-3.171465988928477003e-02,5.098677963342760355e-01,-3.818468380826679498e-01,-1.520510502889880489e-01,4.106127366682107982e-01,5.605534606877803777e-02,1.124910476469630355e-01,3.739563202988212265e-02,4.464215657639899332e-02,-3.219706945293740463e-01,2.956839722648993973e-01,1.666979156518762495e-01,-1.442786149445783941e-02,-1.483937631602247065e-01,-1.599122074622531253e-01,4.628503442899566944e-01,-2.685222001656029645e-01,-2.047375210593337658e-01,-7.315508414397881021e-02,3.363392112673830314e-01,-3.951748023093105133e-01,1.510748139323522810e-02,5.178015850222954519e-01,3.693999014752559762e-01,3.241814804673549544e-01,-2.204293963485030039e-01,6.668629128068530310e-02,3.258956337114657376e-01,-1.870529416366429887e-01,5.593020507604018476e-02,-8.971613125931880706e-02,2.773096976550336046e-01,1.807841002246506623e-01,3.452941438489979809e-01,-2.108744836105209131e-01,-2.864404781895015795e-01,-1.028567143388708655e-03,-2.016540688820166460e-01,2.288857163321722232e-01,1.520544379224992304e-01,2.750419533353378743e-01,-4.551258920770452354e-01,1.988971224387735548e-01,-2.894217667432062435e-01,-3.751336419156189317e-01,-1.645146444060482938e-01,-2.972282312596102316e-01,7.984327664523520329e-02,-4.151992926176618637e-01,3.717106694840818792e-02,-3.282148925933249251e-01,1.367501479504140138e-01,3.265705134211832061e-01,7.472707632488996554e-02,3.499047139918238791e-01,2.354339879159693949e-01,-4.664589922074727224e-01,3.554714899152915386e-01,-1.210051379479303857e-01,-2.686040541209320787e-01,4.627568975012597563e-01,-2.155789878317623462e-02,5.092956578656025052e-03
1.584723051550590844e-01,3.925741264225174887e-01,-3.620406833907238026e-02,2.430031270879544347e-01,-4.390848529503145192e-01,-3.433749662288891891e-01,4.940936151195346460e-01,2.092481747540339831e-01,-7.623689755209531183e-02,1.950144147388916671e-01,-1.974836097258089451e-01,-4.009952046588068919e-01,2.601526608523123119e-01,-3.106583308998217205e-02,-1.611540172603535548e-01,-3.807958442513392217e-01,3.308892031349778273e-01,-5.279366062943086080e-01,3.593227986121688144e-01,-2.365433427548282452e-01,1.250673043829180209e-01,-3.767932489106600169e-01,-3.052900397476280836e-01,3.646445505172259960e-01,-1.264732243359708297e-01,-1.035696645999421572e-01,2.741184070674697326e-02,-5.390824876311383490e-02,2.034333716664400993e-01,-2.673114725774038414e-01,-1.751591227763011349e-01,-2.150636038290152374e-01,-2.722306977137692874e-01,4.410638248792464466e-01,-1.578004576573728557e-01,-4.587770351708948535e-01,2.231068629324674535e-01,2.902824073632319091e-01,5.087862796550937095e-01,2.888344664186867639e-01,-3.494441935546209743e-01,3.032127363171517320e-01,1.209107723628589509e-01,4.409532552740204614e-01,-3.497953585944135191e-01,1.945846968067595772e-01,-3.008423617855018883e-01,3.935542385667004650e-01,3.899505353694152077e-01,-4.617555648557235548e-01,-1.246020139045732888e-01,2.644195797108941370e-01,-2.987557145556104521e-01,-2.492396485569618458e-01,2.196219249520386593e-02,3.508902039450232380e-01,3.078766914732325444e-01,-4.192934688650096775e-01,7.292703312301201946e-02,-2.915821799117395696e-01,-7.434930145459309192e-02,-2.394798080102508372e-02,-1.637487120503540727e-01,-2.761881018530208953e-01,-7.348314730476085410e-02,-3.939763790663651788e-01,4.067962190171991455e-01,4.890522768643735807e-01,2.176824286273263687e-01,1.818287812846473561e-01,-2.971798827202631887e-01,8.118815178368861407e-02,-1.354868475723102761e-01,2.646881890565715434e-01,-2.112699146603934375e-01,-3.768233975434924221e-01,2.323042279182482295e-01,-2.480111414467127684e-01,3.549197185031200408e-01,-4.831191262387277141e-01,-4.870937646980258440e-01,-5.186019685451385142e-01,2.746382903299969813e-01,3.145435792814004206e-01,-1.600556800414442427e-01,-3.100611186177784639e-01,4.238403299378379341e-01,-2.014894520486881779e-01,-6.091796626012385002e-02,-4.431722267493709566e-01,-1.842967566670137558e-01,1.869104470223263703e-01,-4.970754408795047263e-01,1.544444682549979686e-01,-4.278337199928179402e-01,-6.462654913136214874e-02,3.552479811980303603e-01,1.914992853567103470e-01,-4.192595780444656195e-01,2.820330241262000159e-01,-4.066458692951893661e-01,-3.991307204541583165e-01,-1.242272780701513119e-01,-4.293890966775468221e-01,-5.379872363457822715e-01,4.139407715909877716e-02,3.677156587580459601e-01,4.255656789165020160e-02,-3.603469625855979519e-01,3.164497130004111369e-01,-1.208703686346648820e-01,-1.302155791479678582e-01,1.291668103473450069e-01,1.780327762811872994e-01,-1.134838795094674641e-01,-1.958311152223548846e-01,-3.737921064552060524e-01,-1.055750639030865329e-01,-5.998618699893731344e-03,-4.364791332945038294e-01
-4.790964633988579746e-01,-3.643038200947333882e-01,3.648097736745885000e-01,-2.733036831613079864e-01,-3.772939208027804026e-01,1.428208826111529439e-01,1.190950140604859625e-01,-2.936841010775040894e-01,-3.768237922399342299e-01,4.215121953052919923e-01,-4.080027567783184872e-01,-4.492568895609332369e-01,-3.615908766926000384e-01,-3.051511171821855162e-01,-3.761007425260198267e-01,7.294450662728030332e-02,8.058240191779078576e-02,-2.355055085610801013e-01,1.300454213363749223e-01,3.211302076156980490e-01,-1.239172680801366513e-02,4.656739905195098755e-02,-7.843832619389815020e-02,-5.475596859479728296e-02,2.245481272637772641e-01,-2.617302765050775193e-01,-4.241534901320933026e-01,1.682072454176275489e-01,3.728718619202355811e-01,-1.161184535600810891e-01,4.399299981772175072e-01,-2.874039141178121315e-01,4.802161248055709097e-01,-9.715003926124307632e-02,-5.280054505180014068e-01,-2.186859966646399756e-02,4.066406219436311531e-01,2.498631946557005046e-01,4.505767814895837997e-01,3.401893163522222707e-01,-3.693081639327543964e-01,2.246090954591777322e-01,-2.758488718102745652e-01,-1.645617856748365915e-01,-4.840682921140434525e-01,-1.810655825222126925e-01,1.222054399551794346e-01,1.683596037411479451e-01,1.486898113492115536e-01,-4.733477354148117877e-01,-4.863963124234758628e-01,1.696680216623710699e-02,-2.385514993357983060e-01,-2.386270012191025747e-01,-2.288946681876152453e-02,-2.706646002523981909e-01,-1.854560253565024908e-01,3.552528017382933778e-01,3.375818246981642651e-03,1.416982937574935431e-01,2.156568029081209759e-01,-2.583087978521007577e-01,1.668170371912073013e-01,-1.821515908894047742e-01,4.047282344487921901e-01,1.381603573164831289e-01,3.586249923825432506e-01,-2.476795839131461230e-01,1.122958231946191432e-01,2.214010068875053167e-02,-1.846751537139846855e-01,-2.929413023556199855e-02,-2.439570254750483558e-01,-4.042784574132040065e-01,-3.568884595803535897e-01,1.616329424466698694e-01,-4.136762546946250452e-01,-4.386633127890496309e-01,1.221338595808957456e-01,3.413253870473690887e-01,-4.627360151593386539e-01,-2.159929589054528087e-01,4.179356928488922041e-01,-3.373423628459776280e-01,-3.951691642051700648e-01,-4.228811422646468476e-01,6.940025504011942958e-02,3.574536153081445677e-01,3.443699067992196383e-01,4.777503668067245579e-01,1.065755553246080511e-01,1.329899352757609454e-01,-1.483398725058047152e-01,3.662734878836639285e-01,-2.161806336534292383e-01,-3.628993849866953281e-01,3.039194852179796236e-01,6.219793709043321128e-02,2.602157814209470899e-01,-1.334015887013186297e-01,-2.206802707752507087e-01,-4.874887139057052510e-01,1.812712155427503302e-01,-2.850636088382664177e-02,-3.271078874565460648e-01,4.229178792214570715e-01,-2.209668083627842061e-01,1.183509032919597276e-01,-3.254121544222302043e-01,-2.240264154721669232e-01,-3.523952390554948022e-01,2.431040252624370734e-01,-1.719461765513408680e-01,-1.807398344738303519e-01,-4.060359395057430709e-01,4.779010987795796750e-02,2.056169898875399027e-01,4.646011998879698845e-01,-4.158839995355369523e-01,1.801481023256538416e-01
-4.445326917029849834e-01,-1.948699231739778048e-01,1.442912259798809736e-02,2.686169339000326062e-01,1.804802863154882364e-01,1.120986904077547475e-01,2.389982503648638290e-01,-4.181574374546705997e-01,-3.425570861887513030e-01,-4.472334897203572579e-01,-1.493666741181823299e-01,-1.037282187862379607e-02,3.200734436884511980e-01,-7.197825381398258171e-02,2.121409657961865203e-01,-5.193368691651242264e-01,1.518649506845488883e-01,-5.388098375099195092e-01,-3.785493425795155020e-01,-4.616454793223441211e-01,-1.450378164575394369e-01,4.942548933545144046e-02,-1.808674243078625954e-01,-4.876573897702216609e-01,3.368656963655075609e-01,1.250933046188443948e-02,4.379217364702930881e-01,1.186334604304492280e-01,1.949564855346006265e-01,1.615778888515334855e-01,2.698483975446442362e-01,6.933647363558877175e-02,-1.335191407486105708e-01,-4.672600508439131994e-01,2.187185263889648568e-01,-9.933581701386873242e-02,-2.308881815609997445e-01,3.840706581164297639e-01,-1.061580263886794662e-01,-2.487829105354511516e-01,1.453723051251426257e-01,-4.640123542861927519e-01,-4.758530983165422112e-01,1.593771816754731008e-01,-1.734312823188773889e-01,1.302642946389140077e-01,6.119823544892245837e-02,3.465131098803915233e-01,3.757413249063808469e-01,-1.694314181704134059e-01,8.343161855306316377e-02,1.377130966098746301e-01,3.482744879480944022e-01,-3.621014323820073710e-02,-4.526954816170761786e-01,-3.609721951426731468e-01,3.906751674139876673e-01,2.026968774381382454e-02,-2.547232140696283897e-01,-5.384436335557630793e-01,-5.849238306234676443e-01,-1.198863857484390033e-01,-3.493512544899562977e-01,-6.860730009830191822e-02,-4.253092165346224474e-01,2.526713323594286797e-01,1.133959662403817986e-01,-4.174711102116995254e-01,2.435416950303712913e-01,-5.021620392677875744e-01,-2.391935582397366200e-01,2.977966166881510501e-01,3.195744605674099570e-01,4.893965172934091057e-01,-3.150163222080776815e-01,1.509201748700397805e-01,3.477575325356037084e-01,-1.063959842266377354e-01,-4.812184192839105701e-01,4.536318530340097133e-01,3.804895914908756893e-01,-2.659176462343977240e-02,6.524853492154090995e-02,1.289248244009343070e-01,3.548201544479952507e-01,6.466570266102643350e-02,6.221056330218045771e-02,-2.325417960779150306e-01,2.941078182476544733e-01,-3.250284662220941923e-01,-3.239353660455723816e-02,2.796677658076568429e-01,2.793256025874547022e-01,-1.645748742367632855e-01,2.666597794615265804e-01,8.048462270709229316e-02,-3.430761781615760397e-01,3.161432385062213912e-01,2.178729248303921673e-01,-4.678729370042745139e-01,2.801789492847123753e-01,-2.584957675429106275e-02,6.795779171525898055e-02,2.365674742564313759e-02,-1.710234815177568701e-01,-3.708143971523357729e-01,-5.478734283031770624e-02,9.280396992415683444e-02,-3.106352345169936524e-01,9.971058707517221897e-02,1.060445473788311777e-01,-4.229877349212546322e-01,-4.520649690009270749e-02,3.943063348665049039e-01,1.538111323467765412e-01,-8.421635412944052101e-02,-1.352695548027687544e-01,-7.902054008094290538e-02,3.948351916456402377e-01,-4.083196022280224380e-01
-1.790315173994801445e-01,7.352251884171574769e-02,6.231617192175158831e-02,1.872027693892875655e-01,8.092693594456802642e-02,4.751092328736250536e-01,4.449257052514431487e-01,-1.959821225044183213e-01,3.089657408670628547e-01,-2.298001807160459653e-01,2.614244745790296198e-01,-4.717619237541496591e-01,-2.628924905013006741e-02,-3.588495717352697782e-03,9.407624911193918776e-03,-1.938638046140049309e-01,-4.833488617745209104e-01,2.674528404864419118e-01,-1.873106677928614294e-01,-1.851617002929256406e-01,-1.673072932168554461e-01,-2.551907313449097367e-02,7.683341443995875264e-02,-8.235510595351418217e-02,4.244409713405962736e-01,-4.051099385484485116e-01,-4.881099763823851245e-01,8.701670465601114846e-02,7.814524629262992184e-02,3.526891335771973474e-02,3.537882078609258518e-01,2.645606044845741356e-01,-5.620907611936212106e-02,2.342444302375220611e-01,-5.427190234109985356e-01,-4.057174731738382167e-01,-3.062013284059983964e-01,-3.768674592655933964e-01,1.187861976942529429e-01,-4.756475413398931762e-01,3.671842331099033768e-02,4.361315234462013191e-01,1.738695723564539219e-01,-4.921380015565433586e-01,-2.190527406704972924e-01,1.588250208921425932e-01,1.587119010215569670e-01,2.239734176504648011e-01,-3.974561044042905500e-02,-1.165860633111970163e-01,4.967538840104712694e-01,1.564135271737484775e-02,1.654905379079988359e-01,6.100110651104822396e-02,1.263072125146116054e-01,-3.419670688227444688e-01,1.920876982288601542e-01,-1.519940724443575863e-01,-1.924604326540333143e-01,2.182919478737302410e-01,3.818058770694367499e-01,-6.053252717395557481e-01,8.268177367962364910e-02,2.649023762550458128e-01,-3.793992892801906214e-01,-2.571439194312887810e-01,-1.015288098395646654e-01,-2.424818740304970077e-01,3.387175321840641407e-01,-1.499484627806567938e-01,-2.080698648685695151e-01,3.550780140083195091e-01,2.066022954458321403e-01,-4.714117148838611326e-01,-1.007196817339965217e-01,1.834940341306309231e-01,2.594438852856190691e-01,-2.798310419858189291e-01,4.717862969209192514e-02,3.484101529309833190e-01,-2.144917306299649884e-01,2.220593514304204374e-01,3.270395325253782626e-01,9.868462185733836711e-02,2.058739190172811095e-01,-2.223919193328743327e-01,-3.020852043240880858e-01,-4.114777988229514349e-01,9.840149963034205971e-02,3.832764677058578262e-01,4.623522617308876148e-01,3.649797888034209126e-01,-2.687964344863555399e-01,3.102086696701853996e-01,4.461818416516792896e-01,5.827854050420044896e-01,4.282430281131645589e-01,4.250323307555512464e-01,4.671610731219973944e-01,-5.170276507320535897e-01,-2.293889687636503916e-01,-3.196795486959547183e-01,-4.305206909171619412e-01,-2.095063074677815107e-01,-2.673150059702033565e-01,5.226718564061192535e-02,1.587919384649530974e-01,-2.181142552682213409e-01,-4.640186315097997172e-01,-4.559615974244535797e-01,-3.072290566945102275e-01,2.825919646152399989e-02,1.847872612854621066e-01,3.755336688874996720e-01,3.739295471224037826e-01,2.823602275209030066e-01,-1.171859800610539903e-01,-4.588743532710288786e-01,-3.424918477288934060e-01,-4.044476333163679604e-01
-7.907863098552919690e-02,3.270621053125623567e-01,-1.089686734642837523e-01,-4.743128784841540990e-01,6.003388936246381591e-02,-1.086150923182011702e-01,3.298192387338854115e-01,4.527273642869775183e-01,2.544391659754733359e-01,2.270138361656144632e-01,-2.676588225487384620e-01,3.119699849557382443e-01,8.321973553378195221e-02,-4.806990923083575007e-01,-4.242122246985874368e-01,2.498834489234231238e-01,-1.153075551743572291e-02,-4.306590947604099773e-01,-4.366786737204184955e-03,-6.153913864369853215e-02,-2.636214195612224254e-01,4.351349093034425630e-01,-2.719462683152776838e-01,-1.827126809076381753e-01,2.299000153246214817e-01,1.400028650039074340e-01,3.223425133839858403e-01,3.756198784157556703e-01,-2.831045793989689918e-01,3.666828248171283833e-01,2.684378428664637162e-01,2.832385268379207788e-01,-2.501939677565180320e-01,-4.434224800946790501e-01,1.096650264087095789e-01,-4.877813100086254017e-01,-1.468396475878789298e-01,2.090990539079402855e-01,3.623893046752927338e-01,-2.749103702572295305e-01,4.251638668888952505e-02,-4.770546333123147353e-01,2.384827780541362297e-01,-3.611618878135898214e-01,-2.270959235498163642e-01,-4.668208552071266837e-01,-2.993765472057671184e-01,3.002813675543650196e-01,1.776368014120390249e-01,1.769392707544196475e-01,1.375255960601463878e-02,2.407448874139506978e-01,-2.677491181713806956e-01,-3.757360644826382434e-02,-2.279638066619129461e-02,3.160581371640976411e-01,-8.256955309215778527e-02,3.783547952240358669e-01,-2.171515236848129138e-01,3.218360567366164160e-01,-5.286108957773357764e-01,-3.694952649375923270e-01,-4.582350894783965845e-01,-4.108487673605094037e-01,-2.966338087594108108e-01,-2.792158573380499886e-01,-4.462750831590520662e-01,-3.415075719389649295e-02,-4.120758108288151700e-01,3.677913239428929892e-01,-1.825964567656493953e-01,-2.280482603320591606e-01,-1.087238757250618415e-01,3.059262221227586065e-01,-4.527295196834973945e-01,1.113070168706063318e-01,-4.414361608058861575e-01,-3.040630494682056151e-01,-1.503305668945553730e-01,-1.185081637979736313e-01,-2.848687693052281977e-01,-1.135919375025184058e-01,-7.618534946612636957e-03,2.990375198985684158e-01,-3.917835527608850010e-01,-3.026095848355329077e-01,-1.686577086173854725e-02,4.300229929758620506e-01,3.457806132707711422e-01,-4.808400723391228482e-01,1.443022786139168678e-01,-4.236447801554956705e-01,-4.730760481154396846e-01,-1.844916117191201521e-01,-3.663283345499172561e-01,-3.889132437640382273e-02,-4.024900967335812152e-01,-4.233612398593178949e-01,-2.675901760809497043e-01,3.020030820851100639e-01,3.244329862147346533e-01,2.438152904636853302e-01,-4.127531214558703976e-01,1.281082851138014289e-01,1.942637797528301291e-01,4.610178859187364919e-01,2.448328973308809275e-01,2.755963486498677617e-01,-4.973727302726924093e-01,1.285415814521970179e-01,-1.689254345542299252e-01,1.818164653961178989e-01,2.612855804794210202e-01,2.252867424346886513e-02,4.207847480207959623e-01,-4.944494480163525996e-01,7.748651071343644336e-02,-5.508987688527420407e-02,2.032519056119541645e-01,2.185112277624208788e-01
-2.453996074667464666e-01,3.266365058641030328e-01,5.125029858546108485e-01,1.261742369000180830e-02,-4.167104025651114374e-01,-2.378700616955905789e-01,-1.680705288444181433e-01,-1.330771518160231703e-01,1.605762100418118080e-02,8.732358552671241891e-02,-2.696954137023670484e-01,-2.750767588120772711e-01,1.447375763383984722e-02,-3.251403771269342768e-01,-1.193254707059630826e-01,1.069878001389564376e-01,2.162320027385068733e-01,-3.782113411298091976e-01,9.374672085416885714e-04,-2.433535729125374247e-01,-2.358576119307190244e-01,3.079830933804074689e-01,2.795305866659466773e-02,-3.791871441076402616e-01,3.549120163911987924e-01,-1.880179696082930896e-01,-4.572885505677661000e-02,-4.778118701391355638e-01,-4.312914225815739910e-01,1.388951575404340777e-01,1.706468572136399242e-01,-4.332561073440605592e-01,1.038592004518467116e-01,-3.539786157688711299e-01,2.413930913866081107e-01,-1.186398441691378092e-01,-3.147511613221207760e-01,2.350777937236582793e-01,4.404356023369481732e-01,-1.887886634727655999e-01,-3.163223971953796898e-01,-3.553202630660239891e-01,-5.239256887976530275e-02,2.278184244342069675e-01,-3.305506621478013773e-01,2.034868319577519680e-01,-2.817578616833503191e-01,-2.491046624522355590e-01,-3.882346967544155203e-01,1.240384990760837330e-01,7.078606972249833207e-02,-8.296006587042527303e-02,4.648752731607876387e-01,3.062685437761417107e-01,3.730653516470722741e-01,-2.677077029157023946e-01,1.558363771742758697e-02,-2.448863670235955706e-02,1.157166002471218536e-01,-5.034917500172358951e-01,2.556290594990387466e-01,-2.015958827034285417e-01,3.676577362235998736e-01,-3.972498204485701567e-01,-2.709411414940134377e-01,-2.763208533065881212e-01,-5.899141376009194859e-01,-2.745565468940172615e-01,4.626449428556751453e-01,1.046896529962747374e-01,3.350149238336891933e-01,-2.382846433549914711e-01,2.348800301554495318e-01,-4.605664409427566164e-01,4.211517728325813170e-01,2.967906707312791825e-01,1.178414968567675775e-01,3.789479901261469386e-01,3.169554523834916537e-01,2.972744770357557131e-01,2.180403678790492628e-01,-1.935307732482846876e-01,-4.245979630728240473e-01,-3.869846750344798081e-01,4.801395754161406071e-01,-8.529622164420179453e-03,-2.092300729045110663e-01,-3.222609085889475700e-01,-5.206500120376731378e-01,2.621389941780256083e-01,1.427165830062734342e-01,4.024106379739644801e-01,3.219579948406635639e-01,-5.447375874238310489e-01,-4.315356912684545909e-01,1.438175530489623211e-01,5.086606175681135378e-01,-4.001211048896575750e-01,-2.965176174497143879e-01,4.183899336802504587e-01,2.391400379727762759e-01,-3.020487071726401518e-01,2.660010688604693141e-01,3.816555744176990950e-01,3.556980519408929897e-01,3.798505164913127952e-01,3.732457162520636529e-01,2.198096589880470797e-01,9.249044782749575588e-02,-9.415606073805454779e-02,2.161136327957377534e-02,-1.963412739148475694e-01,2.989883986476818412e-01,3.705736974355398061e-01,-2.787760114570268510e-01,-2.035169067730913661e-01,9.560785891032361206e-02,9.839769748787163817e-02,1.999026176334130767e-01,-3.970494077864734628e-01
4.306178557512583827e-01,2.691256943521701597e-02,1.501634017186577186e-01,-2.382451756656167319e-01,-2.687452901988677811e-01,-4.699152336691492793e-01,-2.154441663036799903e-01,3.932093340884121324e-02,-4.219577231732333233e-01,-1.762900910176120883e-01,-3.763107659438998387e-01,-1.826083953147454944e-04,-1.962595936542875785e-01,-2.214479921483552549e-01,-2.387651888401476907e-01,-1.360834433054217973e-01,2.202107630669218330e-01,-4.777313979670356758e-01,9.606912694759051075e-02,1.604554003807604975e-02,2.787066862161331482e-01,-2.456163525964411565e-01,-2.233904984825597351e-01,1.569158031621460669e-02,-2.680562246908536062e-01,-3.098247302122893870e-02,2.084534185337250933e-01,-3.144018430524200269e-01,-1.700731123356677421e-01,-3.106525090710825499e-01,1.008570068263021230e-01,3.264221374416958477e-01,-1.412693438617776132e-01,-4.629631908636643867e-01,-2.388062480770196672e-01,2.561315475790735263e-01,2.709335474143812483e-01,3.094165276688217725e-01,-3.846542148805786598e-01,-1.461500911026188676e-01,3.038033464751305548e-02,-1.588879555792020171e-01,-5.582108053539962256e-02,1.916499917914082918e-01,7.077644125559726107e-02,-3.567783566602757417e-01,1.428310600849417855e-01,-4.566409011819270169e-01,2.900521379301519986e-01,2.903747570083375917e-01,-3.195385338625520988e-01,-1.852586251703639691e-02,-3.874674055538924744e-01,-1.110145494857820436e-01,-4.967540281712936046e-01,-5.405429893678257436e-01,1.907905885091231097e-03,4.091081895206883923e-01,3.752041182244222894e-01,3.714137337857333909e-01,3.581475386696111873e-01,-4.861843126485201338e-01,8.535181565158574124e-02,-1.017981349762481641e-01,-4.959227301826794054e-01,4.033588913521064523e-01,3.855326679824882530e-01,-4.102113285374944796e-01,1.355034456840721602e-01,-2.740525829284150006e-01,2.591140186349753446e-02,1.534774860120941831e-01,-3.352696160952108873e-01,1.436836095434931848e-01,-4.994360576675364038e-01,2.563511775862862829e-01,2.964628192557528519e-01,1.004901390938585243e-01,-5.530466314897061059e-02,2.094455125086739419e-03,-1.493191647437751846e-01,-7.897759220716894790e-02,-1.240874139965023604e-01,-2.423619308843930897e-01,2.527506913531702981e-01,-1.564783662599334990e-01,4.300538012348973371e-01,2.075437642674266281e-01,4.620274746365112678e-02,3.026617743131028715e-01,-1.875484882924366992e-01,-4.490793745131878012e-01,3.064411683791100072e-01,-2.478921851378224073e-02,2.067178147262999643e-01,2.428739909407331421e-01,-1.105937376388518023e-01,-4.584911044100561384e-01,-5.430432580189746838e-01,1.595412954626946878e-01,-4.778196357158180918e-01,2.774434891695930494e-01,-2.235901529809113664e-01,2.015808985441770729e-01,-2.887019721501419278e-01,3.404079319148974880e-01,2.030459952433239512e-01,1.210206407317702265e-01,4.858191429195883315e-01,-2.395254258890057719e-01,1.237146374396940057e-01,-1.961008228013472465e-01,-1.985184634026299633e-01,7.528835674016892687e-02,9.082402710115088096e-02,4.191882020275377041e-01,3.560973204137961590e-01,-2.150445704617316711e-01,-1.725989441127479540e-01,-1.558807571519240376e-01
2.702013744849954824e-01,-2.621823815679607053e-02,-2.065157381964344008e-01,-4.345894729168081616e-01,1.601968338477641474e-01,-2.563755942132176502e-01,6.211316518458167429e-02,-5.938936225735080149e-02,3.009865973012896267e-01,3.263057040673597586e-01,-4.575190433860551464e-01,-3.220684460227931090e-01,2.963898392201982368e-01,-4.506053387678926048e-01,1.068530312621996346e-02,2.767508077165069524e-01,-3.166758939829378838e-01,1.024627824582243774e-01,-4.162911723768615846e-01,6.356163509904670661e-02,5.077105898009475204e-01,-3.436464373704229552e-02,-1.173202704220403514e-01,-4.589589051493378480e-01,4.310689949511601893e-01,-3.502911097886069469e-01,-1.013554684200694417e-01,-3.064249885807399099e-01,-4.334601397997853156e-01,1.680306406215039683e-01,1.391949675275979403e-01,-2.459382001428605247e-01,2.728289510132101969e-01,-4.646185450393963690e-01,-4.135679064917747727e-01,-3.209307165048472799e-01,2.643775849227621433e-01,2.457343550239657892e-01,-2.853814619858378587e-01,1.586918895398398144e-01,-3.124227612247389430e-01,-3.045768315119155509e-02,3.232886216553587655e-02,2.553152672069047280e-01,8.249787710975564625e-02,3.213393792959246542e-01,-5.276859075857189829e-01,1.574929495145863667e-01,1.761280033957911828e-01,-1.440926627092747880e-01,3.710112427134565349e-01,5.237246038558208694e-01,3.476206932543702277e-01,5.176809550948264366e-02,-3.420368998163078045e-01,-1.653787064261891815e-01,3.599594356716500076e-01,-4.551595359177666028e-02,8.255142426359129981e-02,4.240962187042444653e-01,-4.711900892862341816e-01,-3.213077764647472856e-01,-3.499443215467316626e-01,-3.974577846925068658e-01,1.267020414534549000e-01,-4.081645738234959131e-01,-3.121291746394205258e-01,1.647057564187927869e-01,4.450464529964396343e-01,-1.311780381064424350e-02,-2.517293670125280158e-01,9.645306234731600148e-02,-4.217171734043234088e-01,1.516496701032293837e-01,-1.987267750827287002e-02,1.293404357175556851e-01,-8.991106712278897073e-02,3.885962768734936845e-01,2.289012741947240026e-01,-2.245307913247667209e-01,3.865768410469216931e-01,-4.948637325114109142e-01,-2.267812503879574060e-01,-3.229388986153890473e-01,4.304447165918761642e-01,5.878477259870378696e-02,-3.710853057047591164e-01,-3.457634100378985664e-01,-3.812209804503334243e-01,-2.659186450849986352e-02,7.696092467671770965e-02,2.009034220764103484e-01,1.545178987080301214e-01,3.588989877261413719e-01,4.833216913122597158e-01,1.969938999714014871e-01,3.370241849325258388e-01,-4.314310036430934470e-01,1.871702432776816694e-01,2.585307308032894213e-01,-2.693869051795486774e-02,-3.755299245672514274e-01,-4.736064099496151147e-01,-4.325482967084369190e-01,3.167077445065475949e-01,-3.229446964515754193e-01,-1.878138445181887772e-01,-1.645853479568588629e-01,-3.400319856462555301e-01,-2.175136223361158194e-01,9.123016539706853278e-02,5.215461017843948249e-02,1.032964599732458938e-01,4.378104561441097803e-02,-1.822209620900252514e-01,6.651637408499570282e-03,-2.651396505910271206e-01,-5.274915475906134521e-01,2.859517999633447438e-01,-2.686512472843654020e-01
-1.117482943947880735e-03,1.501669908612849325e-01,-2.481157002732672368e-01,6.720169799229804009e-02,-1.059895994962642002e-01,3.644039673293944515e-01,1.731573539747577051e-01,4.712997862619218159e-01,-2.905497542665727018e-01,-1.085400884329210461e-02,4.539023158495906207e-01,-1.800764259242491061e-01,2.224237321670622103e-01,-2.737600296680756107e-01,-4.885368079230131833e-02,-6.789646680532016032e-02,4.486564418404971888e-01,-4.376499091961599808e-02,-2.992316643653385455e-01,3.477558161884398702e-01,-3.112016960373322205e-01,5.052834046285437086e-01,-2.422804032766317020e-02,-2.615366564038533737e-01,3.849420200931812364e-01,-2.593910410686584567e-01,-9.506030985031441172e-02,-1.285585076998330689e-01,-3.158308492364131359e-01,2.553931368966103066e-01,1.184898720109387876e-01,-2.590251992668010650e-01,2.621170450010293917e-01,-1.112422074099087832e-01,-5.629119667667523835e-03,9.499245590993622701e-02,-1.618725999312700247e-05,-1.872862895267425054e-01,3.469279942858694565e-01,-3.915659420951699832e-01,2.543821911424339888e-01,2.068657760406872603e-01,4.345962882745283973e-01,3.002501271110832870e-01,3.069778362825816842e-01,2.077118423005933912e-01,-5.295398081609474783e-01,-2.421378219522579422e-01,4.067976695690787153e-02,5.113082320515551643e-02,-2.728525437850868873e-01,3.708887361233390578e-01,-2.912479456587915849e-01,-2.776969132465791357e-01,-3.924782218510577958e-01,3.036277025733745694e-01,-9.251215490609517034e-02,3.157549830322238238e-01,-4.104988595572286458e-01,1.608068777300659113e-01,5.243174257251029258e-02,1.459801613968249590e-01,-4.744024752292125280e-02,-4.686740703889370474e-01,1.530474977741517195e-01,4.354236258740206700e-01,-2.903660864643176076e-01,1.322492256315536407e-01,4.685196014231064465e-01,-2.464429585246271925e-01,-4.447199316192008145e-01,3.518956573176453273e-01,-5.026533897142382301e-01,-3.016821581750728232e-01,1.598223614145241889e-01,-1.999019582684089802e-01,2.221445035929696110e-01,-3.966383613773526440e-01,2.705653382399121343e-01,-2.202774200598123233e-01,2.409011595776374970e-01,-2.090623462339791516e-01,5.442395392085874750e-01,3.264044818980191831e-01,-4.200206549101202502e-01,2.009770014613433131e-01,2.555954519853402829e-01,3.681065366632862434e-01,-2.995462435625649289e-01,1.701547743325489970e-01,6.689223307833615240e-02,-3.075394567817492097e-01,-3.682454617936563035e-01,8.728576192878156892e-02,3.054062815843066048e-01,1.612824699798070527e-01,-4.426577262067222240e-01,-1.245273335267420428e-01,-2.098935541817874006e-01,-2.038671010642304771e-01,-8.313923836650441435e-02,-4.134265512845943236e-01,-3.600763490704135261e-01,-1.992102654956943719e-01,-4.182163057623562996e-01,-3.043470462954210309e-01,-2.650658085859021185e-01,-1.970534605398875649e-01,2.984210927176613737e-01,3.654096989006661578e-01,5.338712213609470014e-01,-4.924862548929358486e-01,1.341441493062904555e-01,4.520506286409748387e-01,-4.102802476870061055e-01,-3.787596461276606097e-01,4.352875444189062137e-01,-2.749477535565152397e-01,2.355075446978991544e-02,4.578835598293646836e-01
1.590052897345501370e-01,-3.764858509833524103e-01,-2.572666477013249020e-01,-1.415841389494460201e-01,3.450401520534537858e-01,-3.478570868051663600e-01,3.496874278077630738e-01,-2.199522810349530122e-01,7.815107991784803199e-02,5.698000094263572235e-02,-4.424200673521062055e-01,-2.340274122828903125e-01,1.697895076928104541e-01,-6.567288926244219116e-02,-3.840071008691555710e-01,-4.456935868310910598e-01,-1.313836014214420610e-02,-3.697407773625235317e-01,-3.636537565850802012e-01,-4.426126958517503929e-01,7.040791409409487278e-02,7.714505647968408764e-02,-2.372158518763769486e-01,2.628072154422302908e-01,9.772851292780609933e-02,1.912171734880268800e-02,6.780783207788065869e-02,1.473201475112993764e-01,-2.480498323270783623e-01,1.515467203605081192e-01,-2.389835794799478608e-01,-8.081270897424290556e-02,-1.021441115228348406e-02,2.491736314849804512e-01,-1.093301716113413979e-01,-1.753948648939638311e-01,-2.777630960854338138e-01,3.798381705831913729e-02,3.712056418539737557e-01,3.793217265592109810e-01,5.720520188071680501e-01,6.760814573637116687e-02,1.771361486533289398e-01,1.399084057624611355e-01,-2.721235261448070042e-01,1.260372747060794496e-01,1.458329765259230859e-01,-3.204492740156741903e-01,-4.524668936783272644e-01,-2.185399776469609257e-01,-4.806526412733150844e-01,-5.533048973036083784e-02,-2.642061408316520033e-01,-3.966805141466840379e-01,2.751675391579568308e-01,6.473505591958282623e-02,-3.390959542880903621e-01,-1.085447084653688304e-01,-4.282007613113951727e-01,-3.930901935446129425e-01,4.341005956372678276e-01,-1.798445695715081005e-01,4.162314203176257360e-02,-3.784330411811940298e-01,4.321917612041522028e-01,1.705112756379821570e-01,7.841256778203889444e-02,4.337948859393778722e-01,8.177949610168801231e-02,-1.110761539465377756e-01,1.898798757176934360e-01,7.060102837100802609e-02,-1.491714086678214424e-01,2.236456850359219151e-01,-8.755550653784874293e-02,1.336693438814979054e-02,-3.865902334492313797e-01,4.484442466952771045e-01,-4.754123174108470552e-03,1.714204698908485536e-01,2.691044701507941395e-01,-2.448616931378763406e-01,8.381311458998665087e-02,9.629295731281783954e-02,-5.243476818790934191e-01,-2.380030744354368066e-01,2.833951280429774511e-01,1.130620886783946372e-01,2.959928478005262598e-01,-3.506013943225881890e-01,1.529307096183320780e-01,7.056200691342705278e-02,-2.851354658553698074e-01,3.540845788050545062e-01,-1.152617821298847628e-01,2.295328890266479793e-01,-1.891124859047488560e-01,5.801443512383242483e-03,-9.681339132889021926e-02,-5.125435966124872733e-01,3.172803017403416082e-01,-2.170725926920999971e-01,-1.626935721750100150e-01,-3.649482443167902379e-01,1.115494465258005663e-01,-4.335101555688771757e-01,-1.720837800251148186e-01,-2.840032584658555570e-01,3.359188317147608349e-01,2.656464842979799901e-01,3.278152284649695630e-02,-3.387526223389887292e-01,-4.940804143006467530e-01,-1.356493996254640455e-01,-1.174997694495727718e-01,-2.015512196508728593e-01,3.925447403269595736e-01,2.993268443966319858e-01,-3.847068567325051536e-02,2.318250450563136000e-01
